2708 64
219976 0.033022366 -0.36944342 -0.033629064 0.05940751 0.00718168 -0.11712216 -0.18174897 0.11037039 0.41452235 -0.228967 0.48746276 -0.08894835 -0.25151747 0.33023468 -0.14116974 -0.07031376 0.2044991 -0.37936646 -0.060838886 0.011600675 0.11415698 0.12268404 -0.0017692014 0.16195427 -0.18924612 0.07555173 -0.33422887 0.10184353 -0.008231343 0.011985862 0.06453236 0.028646821 0.0905648 0.15680104 0.22860922 0.107675195 0.13153936 0.2368242 -0.37427604 -0.19779342 -0.13535093 -0.49002722 -0.42768577 -0.24873666 0.17292325 0.08822566 0.40587553 -0.021759663 -0.21477082 -0.1402701 0.11693677 0.0024175593 0.09292919 -0.14560711 -0.080690265 0.44602075 -0.16298991 0.08792248 -0.48046964 0.0776072 -0.20675527 -0.12007343 -0.13333282 -0.04480396
399173 0.075740606 -0.045646198 0.10086867 -0.110916115 0.0576947 -0.34143248 0.15671627 0.29684976 0.21650489 0.027827833 -0.24005395 -0.6583588 0.120826386 -0.07367063 -0.24337591 0.023533734 -0.081502445 -0.38452527 -0.2231441 -0.23864353 0.22896446 0.03256732 0.19656414 -0.19914232 0.09943816 0.013077214 0.21382312 -0.34005082 -0.0054649496 -0.28432345 -0.06928426 0.093953416 0.055306412 -0.33669925 -0.20027946 0.08935839 -0.3151514 -0.08380062 -0.20091313 -0.20373042 0.19710131 0.08516741 -0.28706044 -0.12180083 -0.08957935 0.059585445 0.015530088 0.11486646 -0.33521336 -0.022376452 -0.33101374 0.31502545 -0.23166312 -0.18125346 -0.056940988 0.1424328 -0.06860039 -0.11871665 -0.2612295 -0.34119156 0.15728992 0.027440112 -0.07731926 0.021991989
753070 0.27400336 0.343621 0.5174562 0.16097397 -0.23983814 -0.046581887 -0.33073556 -0.18224266 0.28597954 0.522052 -0.386606 0.10330097 -0.38626584 -0.055644378 0.676363 0.061937753 -0.8373893 0.46810132 0.25633487 -1.1205411 -0.17237954 -0.34336603 0.4079951 0.66501266 0.098579526 -0.08173521 -0.33230814 -0.75204784 0.15277454 -0.106789276 -0.24190076 -0.10980175 -0.10031072 0.4462585 0.012272968 -0.3068579 0.6420226 0.33094826 -0.49175638 -0.46471855 0.58856696 -0.09298911 -0.12001367 -0.26474282 0.16456497 -0.38326135 0.0034340108 0.30487943 0.4284688 0.49869305 -0.49890876 0.8862029 -1.0003822 -0.1504771 -0.21548688 0.060368158 -0.20799695 -0.026084136 -0.0709173 -1.0843384 -0.24854337 -0.34619704 0.18497309 -0.86339
737204 0.06101108 -0.21715184 0.17623095 -0.32637915 -0.41443157 0.18426341 -0.3731975 -0.10799449 -0.3313289 -0.20535524 -0.03618689 -0.25827336 0.030187715 0.114812545 0.11575845 0.0035322227 0.22017555 0.09061556 -0.2333904 -0.3014967 -0.28637227 0.09642617 0.2674092 0.070779115 -0.23228388 -0.18108396 0.1406904 0.060509313 0.11092821 0.19061652 -0.09694587 -0.41660964 0.040680356 -0.09115163 0.22927932 0.24672474 -0.3219297 0.22436269 -0.4466517 -0.09127887 0.05290514 -0.19016992 -0.54422826 -0.31737638 -0.10628716 0.00821655 0.28853127 0.2662857 -0.013625781 -0.07354925 0.36586013 0.28409207 -0.04359798 -0.23007965 0.066436835 -0.22736254 -0.67967314 0.22977671 -0.29385892 -0.23787484 -0.26304877 -0.22807717 0.21964723 -0.2818832
25184 -0.35295385 -0.3711325 -0.33261856 0.27968252 0.9296654 -0.17437209 1.0268683 0.12671125 0.062356338 0.28415212 -0.23336099 0.5455171 0.63490045 -0.4627113 -0.40969962 -0.27408534 -0.08191411 -0.2310626 0.56810516 -0.34136188 0.36720443 -0.14907922 0.21103652 -0.3034149 -0.5327504 0.66505265 0.12675983 -0.29072294 0.35767126 0.031746253 -0.3207178 -0.4920695 -0.1378482 -0.6708218 -0.27206835 -0.17003414 -0.52723646 0.17279 -1.0012599 0.15888181 0.1705088 -0.0353148 0.55091995 0.19779795 -0.1859037 -0.33409902 0.033951912 0.53699785 0.1008902 0.060543116 -0.20867415 0.37030676 -0.23267967 -0.7807588 -0.19820535 0.045935247 0.030583454 0.2989232 -0.51519835 -0.7666381 0.74966234 0.86209655 -0.32263026 -0.74743414
358884 -0.12257951 -0.6023009 -0.62775564 0.35867187 -0.3999508 -0.27780065 0.16344237 0.4489136 -0.20140544 0.15090029 0.090974405 -0.30230376 -0.26323813 0.11110531 -0.080417715 0.024438448 -0.31886294 0.20474018 -0.099782646 -0.6908102 -0.5803053 0.33976996 0.27675724 -0.4885137 0.4997065 -0.00027211622 0.123224564 -0.289639 0.30560422 -0.3300236 0.18786585 -0.11792808 0.04269793 0.024173059 -0.20846286 -0.14546145 0.008062098 0.16800313 -0.24043573 -0.29736167 0.21085018 0.30500418 -0.11576787 -0.27613652 -0.33574986 0.24624759 -0.39660183 0.34875762 -0.47131616 0.042039048 -0.41686714 0.007828409 0.33663937 0.039975476 -0.06314589 -0.26382402 -0.09606483 -0.45658642 0.24110775 -0.39921045 0.24703085 0.48035437 -0.08815537 -0.20656002
6910 -0.7514477 0.62280065 0.5266241 -0.22983554 -0.14046362 -0.802536 0.6697814 -0.6539361 -0.9524975 -0.1765806 0.6063875 -0.15935507 -0.48725656 -0.87696546 -0.11419531 0.4492401 -0.79072386 -0.013603572 0.87372255 -1.2610809 -0.19064967 0.12008062 0.6748406 -0.6898388 0.09183653 0.99775046 0.5830704 -0.7555316 0.6649054 0.19217275 -0.23171246 -0.48019633 0.5440029 -0.71185 -0.5383505 0.49143568 0.045500387 0.5828294 -0.23677678 -1.1454638 0.7048993 -1.225125 -0.11953074 -0.5564827 0.15497954 0.68703943 -1.0185872 0.9313503 -0.39520568 -0.2313116 -0.05296487 0.61939454 0.13103981 -0.64660513 -0.49953517 0.92302316 -0.6332671 -0.48654705 -0.072503515 -0.89487845 0.10643254 -0.047581147 0.5553768 -0.17831524
662279 -0.29630664 0.29934996 -0.024602694 -0.3759998 -0.10306586 -0.20694013 0.11073671 -0.098726764 -0.31062424 -0.25345388 0.11505565 0.1593733 -0.29513672 -0.43274772 -0.117807314 0.09701828 -0.18783979 0.054120425 0.14068922 -0.31797677 -0.034588244 -0.12169642 0.1870611 -0.28499356 0.029745586 0.37345123 0.12137333 -0.23840715 0.084953696 -0.080430396 -0.076208495 -0.052247413 0.20915163 -0.2901315 -0.050061714 0.2697217 -0.011513763 0.17302719 -0.10223114 -0.35920277 0.1062803 -0.43885842 -0.017851122 -0.20831929 0.16821425 0.3733621 -0.3621561 0.31462792 -0.008797383 -0.03402018 -0.055994887 0.23750995 0.41424608 -0.18447652 -0.103219025 0.28876734 -0.34864658 -0.11763232 0.1985891 -0.39846808 -0.09923636 -0.31612572 0.39845222 0.26443487
1035 0.2971718 0.40017888 -0.120079115 0.23162487 1.0859653 -0.0023857283 -0.140021 0.2929087 -0.29559457 -0.1532947 -0.0003276877 -0.40152365 0.1975758 0.13748221 -0.4374102 0.68583494 0.6534771 0.076500535 0.017918553 -1.3341964 0.14280865 0.40790603 1.0545537 -0.16387448 0.73359656 -0.086330354 -0.21815829 -0.09304554 -0.07983722 -0.32686284 0.07277304 -0.12972796 1.075443 0.059112653 -0.12557554 -1.167837 0.15666428 0.49382886 -0.30352864 -0.27615222 0.20542584 -0.22696324 0.32791734 0.059200898 -0.17048289 -0.51407003 0.56539893 0.7148273 -0.3234089 -0.22404534 -0.14157441 -0.15433791 -0.39587367 -0.235059 -0.44015306 0.12635098 0.3531828 0.3377415 -0.52586627 0.46607703 0.35256314 0.4548228 -0.65162325 -0.80471355
650814 -0.5450333 0.41107997 0.3173182 0.368319 0.49305958 0.19641684 0.15517956 -0.6952578 0.56220394 -0.16696362 -0.2281122 0.04093677 -0.084201805 0.2693004 -0.49694654 0.38287064 0.3594301 0.16540125 0.257528 -0.22484846 -0.057251565 0.29173952 0.15339693 -0.10537388 -0.2102676 0.066758476 -0.01905242 -0.3437259 0.019966668 -0.00035252792 0.027942056 0.44536626 -0.18197668 -0.016761664 -0.091232255 -0.5378142 0.1884752 0.11006378 -0.121817596 -0.34418136 -0.0015705432 -0.032570466 0.36849773 0.17894985 -0.19955494 -0.16696766 0.30609027 0.66988945 -0.6326123 -0.2176443 -0.22279006 0.47736508 -0.20343144 0.01523513 -0.4770759 0.36641863 0.081304766 -0.24232844 0.29647374 0.20620102 0.45450065 0.2694909 0.071595766 -0.42620978
130 0.41538948 -0.20514874 -0.6768093 -0.026039183 -0.013837098 -0.22452958 0.33400512 -0.25149903 0.015856419 0.55109054 -0.06740499 -0.72623336 -0.587119 -0.3737517 -0.26872355 -0.88158363 0.41980317 -0.25557047 0.16775832 -0.4518448 -0.4468351 0.47202575 0.8660549 0.2569355 -0.708525 0.8155288 -0.0047624176 -0.45806405 -0.036976006 0.32750547 0.11748757 -0.62525046 0.12484516 -0.87604177 0.29684237 -0.31307513 -0.30387327 0.7364065 0.8067418 -0.3240867 -0.38390476 0.090194784 -0.51585025 -0.10577192 -0.95534664 -0.8224569 -0.19070461 0.40175655 -0.015156536 0.108311504 -0.20958401 0.148279 -0.3535208 -0.69286567 -0.14365105 0.096984886 0.21106799 -0.28914207 -0.8941241 -0.39964855 -0.5651479 0.014815848 -0.34797835 -0.5380735
101261 0.3126778 0.016958315 -0.20912717 0.4822488 0.02749819 -0.1355639 0.17156827 0.019353187 -0.28396517 -0.02835753 0.06241315 -0.204363 0.053566556 0.3615688 0.4164689 0.1385532 0.10338532 -0.1344266 -0.14941967 -0.25307578 0.24268983 -0.078302726 -0.21464059 -0.3562144 0.010346297 0.15381268 0.13153705 -0.5710419 0.080722205 0.16682172 -0.24561113 0.0876974 0.12138345 -0.17744441 -0.1377 -0.23792174 0.18412876 0.05388601 0.02584945 -0.37622783 0.18227805 -0.5301665 -0.3829991 0.1828768 0.08397619 0.11777269 -0.07583589 0.052860055 0.0107593825 0.037501846 -0.043819048 0.3009543 0.038801216 0.13167343 -0.37728798 -0.42997804 -0.040192977 0.3665716 -0.5817522 0.22036655 -0.16673465 0.19096008 -0.0055876155 -0.19654717
35061 0.11635588 -0.032280244 -0.38872284 0.48851678 0.52680117 0.15230528 -0.7062306 -0.17381182 0.5707261 0.82814837 0.64469296 -0.40339175 -0.31907353 0.2515311 -0.23896706 1.3943527 0.46954605 0.33947307 -0.079689555 -0.876019 -0.5370322 0.2686835 0.47858906 -0.13998298 -0.43284094 0.12423818 0.4272004 0.30126512 -0.54099804 -0.18219525 -0.123899765 -0.81169355 1.1899031 -0.19711353 0.18756735 -0.7014531 -0.20753744 -0.49678627 -0.14057663 -0.32779396 0.1958946 -0.786594 0.10579767 0.38668352 1.0079311 0.6167941 -0.3333536 1.1476365 -0.0838792 0.27925372 1.2887696 1.0095197 -1.2968546 -0.22541597 -0.6419303 0.2930872 1.1833668 -0.7009034 -1.1197202 0.37792656 0.44006243 1.0161123 -1.0916091 -1.0842556
135798 0.12007486 -0.0998386 -0.3933213 -0.10073423 -0.24376296 -0.10289371 0.37742582 -0.2900627 -0.19026405 -0.1966927 -0.17319849 0.04882484 0.25271904 -0.31977808 -0.6766859 0.21132454 -0.010640159 0.27354223 -0.024615541 -0.10450006 -0.30759263 0.64925975 0.118907064 -0.072426744 -0.014131674 0.14125283 -0.2373388 0.24776243 -0.1516095 -0.1343981 -0.390343 -0.07076678 0.1401796 -0.36061415 0.3179218 0.41995844 -0.14975885 -0.03921294 -0.1456813 -0.60591304 -0.15302354 0.00985412 0.01068384 0.3622778 0.1771587 0.12796086 0.25856864 0.40153572 -0.061144486 -0.011722141 -0.44745383 0.66497827 -0.11737142 -0.40257323 -0.248514 -0.12336036 -0.18446687 0.33214563 0.19747521 0.062563814 -0.36522424 0.64261246 0.120641485 -0.2883808
60170 0.029390022 0.32658836 0.10056858 0.7426099 0.057193376 -0.26653087 -0.0028306025 -0.2432954 -0.00040152585 0.24790387 0.2488067 0.112228535 0.4096773 0.106857605 0.46172503 0.27425233 -0.46205443 0.16543017 -0.092737764 -0.6093546 0.46686527 -0.32448816 -0.020147996 0.20866902 -0.30322534 -0.08373311 0.2289702 0.3094022 -0.07383495 -0.31505927 0.17261319 0.047660954 0.34067187 0.40910876 -0.1768366 -0.32675573 -0.054346483 -0.13099945 0.22797433 0.010764034 0.137155 -0.03283088 -0.10326952 0.53689295 -0.15757374 -0.073547475 -0.021782268 0.12012472 0.037244365 -0.10339735 -0.4772455 0.13470683 -0.13591209 -0.12607378 -0.43048608 0.65500593 -0.15127002 -0.05777642 -0.2636178 -0.43871075 -0.61696064 0.31721795 -0.3560371 -0.025570871
35905 0.027088834 0.028124604 -0.636975 0.7327986 0.20194173 -0.0762723 -0.030602273 -0.4470818 0.43934292 -0.17242241 0.3933435 -0.615741 -0.112728454 -0.1295366 -0.2179063 -0.045962203 -0.62263715 0.4191761 0.019829528 -0.02972742 -0.547549 -0.03752001 0.34275422 -0.45630163 0.05387106 -0.05749759 -0.3476422 -0.26275647 0.11657112 -0.25408515 0.0835498 -0.6843551 0.9512555 -0.16905956 0.91760075 -0.45565715 0.18252976 0.002731586 0.09872404 -0.031102603 0.46928453 -0.8877861 0.50217026 0.038834527 0.062351637 0.04631309 -0.021669392 0.44567803 0.15145694 0.98736167 -0.008292645 0.53275234 -0.8376147 -0.5214537 0.50307405 0.10640915 -1.0046163 0.48032358 0.5161463 -0.79678583 -0.07702103 0.43376526 -0.4356161 -0.6034237
20593 0.7636302 0.21410422 -0.44874918 0.52890044 -0.31638053 0.13322768 -0.4433921 0.25316608 -0.06552114 0.18733954 -0.12260536 -0.16532779 0.35557157 0.6897684 -0.6582417 0.2864347 -0.38906434 -0.11247976 -0.025098909 -0.62500614 0.030694898 0.49241087 -0.027700987 0.22281665 0.18588041 0.5341311 0.4506469 0.16330968 0.043784156 0.4810709 0.2826513 0.0042945277 -0.13549575 -0.22983164 -0.42799002 -0.12339016 -0.42472872 -0.3113624 -0.36983693 0.32474384 0.11011209 -0.34640673 -0.009840782 0.17393133 0.46030542 0.19657388 -0.55884093 -0.053128883 0.35196888 -0.4397397 -0.7922497 0.33689147 0.040067058 -0.5773723 -0.45380846 0.17949 -0.18071622 0.5310977 0.031466946 0.040614232 -0.29446715 0.13634083 -0.41209835 -0.37351173
1115959 0.10487222 -0.23365581 -0.28074554 0.46118885 -0.25916433 -0.5654138 -0.20898376 0.60176194 -0.41896978 -0.32470942 0.26508155 -0.45509693 -0.0637553 -0.09103816 0.33517072 0.5366904 -0.5864215 0.50067663 0.5230494 -0.39172244 -0.07544352 0.28344262 0.09728101 -0.14415792 -0.7114014 -0.02758867 -0.16504677 -0.40172866 0.89439917 -0.19483817 -0.5522272 -0.23134598 -0.15577997 0.13121341 -0.32160535 -0.5270011 -0.23281862 0.110300004 -0.25625736 -0.4030919 -0.48894498 -0.3424841 -0.6127545 0.10996969 -0.4223299 -0.15988463 -0.20932673 0.14209658 0.43447155 -0.35271022 -0.15404053 0.61195314 -0.33101293 -0.40352842 -0.49197632 0.323691 -0.23734854 -0.027366402 -0.6756957 -0.6631668 -0.06887655 -0.27162987 -0.6952629 0.28157896
1107136 0.042593494 0.124083474 -0.036678046 -0.054347362 0.43310884 -0.4178198 0.023181165 0.48008278 0.27677903 -0.3046076 -0.41924137 -0.421342 0.18246104 0.29357073 0.20806578 -0.30096084 -0.16302024 0.2669432 -0.022020381 -0.7347148 -0.24882346 0.5260445 0.088647135 0.061273832 0.049680784 0.003821354 0.2642536 -0.06821813 -0.42253646 -0.18024245 -0.4259612 0.06979739 -0.42991444 -0.017230405 0.10105955 0.016586717 0.238848 0.39499778 -0.17844416 0.15173186 0.19951507 0.54269487 -0.18429352 0.2900608 -0.17242989 0.14155462 0.053393003 0.06311405 -0.26240942 0.059944693 -0.025293961 0.31697068 0.5683196 -0.09300537 -0.3593423 0.1953134 0.16060938 -0.31151846 -0.2610577 -0.43045542 0.104019076 0.037603017 -0.07511088 -0.064944126
368657 0.10685502 -0.27330926 -0.048376366 -0.07862631 0.23281105 0.33122987 0.011385587 0.5943228 -0.043942835 -0.26839063 -0.2552372 0.31283665 0.212932 -0.46234864 -0.07578604 0.19572544 -0.3069538 -0.41945216 -0.33027542 0.07792061 -0.017100094 0.11398319 -0.09654594 -0.33920416 0.21742891 -0.30228698 -0.06704034 -0.2300023 0.039762076 0.21589956 -0.2688557 0.50586367 0.20943746 -0.11678258 -0.017091284 0.2394725 0.36013407 0.38373777 -0.195771 -0.120903395 0.0809899 -0.012084611 -0.2331094 -0.10153251 0.107491955 0.1862987 -0.18525738 0.16037583 0.43711293 0.051558238 0.28845495 -0.011940272 -0.42788512 -0.5343734 -0.3737734 -0.27814108 0.123006515 0.050248288 -0.09935999 0.050897922 -0.36407313 -0.09336443 -0.083306886 -0.32155725
627024 0.6088329 0.2993575 0.1171261 1.063011 0.088853665 -0.65833944 -0.38562527 0.18223308 0.026763102 -0.28918782 0.074862905 -0.23054197 0.34895238 -0.1171051 0.36986744 0.71380407 -0.583343 0.0770763 0.328311 -0.6568588 0.48477495 -0.55962366 0.24834593 0.19659856 0.376288 -0.26472226 0.06254521 0.040410828 0.6564617 0.1171384 0.36457402 0.1945808 0.46779433 0.39287007 -0.22780979 -0.3511007 -0.7759457 -0.30295753 -0.15154633 -0.08798828 0.14012693 0.11071562 -0.63698024 0.50662154 -0.7116502 0.19233029 0.18067333 0.00067931757 -0.2247207 -0.30826262 0.037627675 0.40648755 -0.44978848 -0.33522937 -0.13946772 0.82370484 -1.0117152 -0.66875404 -0.350647 -0.44458914 -0.9758596 0.86754245 -0.5869075 0.018599516
17363 -0.00052867795 -0.36348835 0.20660917 0.42268518 -0.018452048 -0.08990922 0.2939352 -0.23794927 -0.6303388 -0.09119823 0.05648199 -0.04718463 0.29195848 -0.21196114 0.05647565 0.25443527 -0.15007293 0.23018193 0.46580857 -0.23986009 -0.37726858 -0.02401523 0.22822787 0.0026828633 0.8210782 -0.252013 0.4049275 -0.014986111 0.5534574 0.2565749 0.12729298 -0.090799026 -0.0073506692 0.121406294 -0.08350889 0.19761358 0.088799246 0.6718341 0.0006461368 -0.36651656 0.81014735 -0.53450775 0.17005445 -0.21310948 0.004365047 -0.11544754 -0.17847393 0.05218138 -0.39382517 -0.17253925 -0.20820436 0.026104847 -0.39632466 -0.43092975 -0.27070048 0.2880756 0.22472496 -0.22562133 -0.38198465 -0.4333675 0.33652362 0.6721708 -0.37700456 -0.42216083
18833 0.5486227 -0.22180113 -0.08525738 0.37389097 -0.27635637 -0.043238446 -0.39787316 -0.35822618 0.15701257 0.20893556 -0.3114409 -0.38999012 -0.19358915 0.30086324 -0.06925959 -0.2967568 0.28801194 -0.35953224 -0.23071425 -0.45569223 0.22185646 0.18369491 0.40657875 0.112796746 0.041764773 0.22552285 -0.016591337 -0.3830775 -0.070461504 0.09885478 0.27926773 -0.38792306 0.2558078 -0.72580206 -0.34413797 -0.6166639 -0.6541118 0.102438085 0.41600317 -0.48969838 -0.23345022 -0.046835694 -0.13478476 -0.17286344 -0.28299657 -0.03370831 0.061726067 -0.15119681 -0.16188505 -0.11420336 -0.13204226 -0.2680034 0.1680144 -0.056005586 0.04268927 0.152381 0.27429283 -0.2651711 -0.564467 0.39675996 0.416191 0.74489677 -0.39678487 -0.25940198
74821 0.2696802 -0.5847846 -0.24013828 0.07337704 -0.3309877 0.29999235 0.08656321 0.06556987 0.43026367 0.25745746 0.3716596 -0.5004663 0.14188457 -0.20418693 -0.49567676 0.052130807 -0.41476965 -0.240624 0.16894907 -0.44144607 -0.5611952 0.4335467 -0.07534498 -0.11845479 0.5320001 -0.4300936 0.33014795 0.004354685 0.08384615 -0.33296242 -0.0502323 -0.07995816 0.46626216 -0.013757916 0.18957104 -0.38945508 0.36637864 -0.07738959 -0.7107498 0.17720667 0.1968167 0.4056222 -0.1336529 0.0563803 -0.4100957 0.105943136 0.28352052 -0.1141527 0.042583313 -0.7735427 -1.2098724 0.6394298 -0.30516627 -0.24631537 0.29777423 -0.15315454 -0.39649197 0.041832875 -0.25728652 -0.13872992 -0.22990096 0.2413591 -0.23054282 0.16203555
696342 0.34223863 0.030096356 0.14690992 -0.18999256 0.13660806 -0.28750214 0.3286394 0.1279753 0.21914162 -0.39785066 -0.058959417 -0.33846408 -0.6066586 0.092181414 -0.45988464 0.19350897 0.15477483 -0.44995314 0.33781046 -0.66127855 -0.5606364 -0.19962984 0.31605902 -0.07144813 0.047902893 -0.10492804 -0.15133192 -0.56998587 0.6225696 0.11218958 -0.41327363 0.25261262 0.3335716 -1.055629 0.087365046 0.36964744 -0.27172446 -0.16276944 -0.4048025 0.07467035 0.19526163 -0.055815805 -0.18441033 -0.13878122 -0.090332426 -0.012285187 -0.2695063 -0.17310202 -0.40374342 -0.18805033 0.049948934 0.18700159 -0.29537913 0.11718744 -0.1561749 0.49264452 0.1868261 0.18691924 -0.413888 -0.42834383 0.01581217 0.3816387 -0.3751071 -0.037593607
27623 0.40760586 -0.48233208 -0.67408746 0.60922277 0.57815933 -0.49712697 -0.40164724 -0.4341695 -1.3069249 0.027567768 0.22589518 0.39546248 -0.55590695 1.0152478 0.061471336 -0.3156777 -0.52146995 0.03901249 0.5528429 -0.37633973 -0.336213 0.21951042 0.33967847 -0.16911416 -0.12880948 0.52730864 -0.39991724 -0.40900606 1.0290807 -0.27301198 0.097079255 -0.43524665 0.758744 -0.2154229 -0.6994264 -0.14390491 0.05323768 0.56907105 0.27938372 -0.62701243 -0.42556873 -0.08697698 0.07369272 0.43997636 -0.4505745 1.1266129 -0.636902 0.45442107 -0.43439934 -0.6660876 -0.45533103 1.1726598 -0.51784736 -1.5881362 0.35371423 0.09803497 0.603577 0.47668877 -0.8511344 -0.22388144 -0.08883479 0.37519547 -0.5615685 0.11142495
1122642 -0.06792632 0.1831358 -0.24375878 0.39226818 0.3390687 0.30735436 0.018296624 -0.5928442 -0.79019874 -0.062083133 -0.25114396 -0.1619661 -0.4137173 -0.08022515 -0.24947105 0.31511337 -0.7208699 -0.32858926 0.30387664 -0.31478235 0.82258874 0.041186873 0.06031342 -0.156452 0.21127877 -0.28530627 -0.16391245 -0.5985784 0.246483 0.7962874 -0.2869853 -0.40373182 0.44103456 0.04654508 0.50173664 -0.49958286 -0.55063766 -0.24321319 -0.49054784 -0.35296863 0.29644248 -0.21936531 0.3713321 0.54613733 0.19416064 -0.48773837 0.08712772 0.2449284 -0.6525011 0.41138908 0.17117839 0.44640827 -0.41012308 -0.848514 -0.20270798 0.6205807 -0.21679774 -0.0682648 -0.29016364 0.037865035 -0.93943596 0.30458826 -0.8198509 0.048267595
1123926 0.13907552 -0.18841822 0.16555418 0.1970839 -0.31537783 0.5114387 -0.084452465 -0.46318695 0.14355181 -0.08583596 -0.1809427 -0.104121365 0.17363642 -0.0053551616 -0.35597518 0.47553048 -0.55970377 0.2141945 -0.06124136 -0.41256723 0.08131696 0.04753857 0.023734884 0.3898199 -0.07563779 -0.014879718 0.13333707 -0.00073969597 0.50421524 0.41125506 0.10371507 -0.17851003 0.2031072 -0.26960728 -0.048742402 -0.056559987 -0.054391257 -0.16909146 0.27898386 -0.40640154 -0.3416147 -0.09463302 -0.17291074 0.17372835 0.36862612 -0.1218963 -0.28555605 0.22831021 0.007283856 -0.14156228 0.3049524 0.056068737 -0.23604071 0.16841362 0.247783 -0.12573491 -0.2896744 -0.14494818 -0.14319627 -0.016531806 -0.8092541 0.6147946 -0.4211235 -0.06993624
1105231 -0.019453853 -0.4695045 0.1603951 -0.19102119 0.16559048 -0.42672968 0.35040048 0.74447346 0.0023995985 -0.20376045 0.24324958 0.18898119 -0.37136266 -0.16367787 0.2640176 0.49497384 0.38701135 0.2897843 -0.249707 -0.64597416 -0.47364596 0.16971172 0.43851984 0.1540437 -0.48543093 0.4692574 -0.1805779 0.032560825 0.69257915 0.1893487 -0.36032575 0.38396302 0.63588184 -0.534749 0.42736495 -0.45756873 0.11546675 0.2189305 -0.23982373 -0.13294265 0.0125633655 0.03307699 0.39547193 0.33178347 -0.6142014 -0.10456802 0.19549467 0.3346764 0.14077635 0.26465315 0.079081796 0.042462908 -0.2696928 -0.15296338 -0.027623309 0.49993125 0.01927123 0.07712097 -0.044298653 0.5189619 0.16521426 0.030223185 -0.81037486 -0.3310474
7296 0.033073638 -0.3773452 0.38935998 0.5333933 0.19946171 0.6095529 -0.15713441 0.64437854 -0.22829899 -0.22445773 0.30838966 0.16888894 0.23822042 0.34971613 0.21461505 0.55652755 -0.019610707 0.33879057 0.07787604 -0.098721474 -0.22942957 0.110158734 0.26179504 0.22750597 0.17863438 0.46955377 0.29109102 0.34610182 0.25024262 0.015133548 -0.08877793 0.33253065 0.38106743 -0.17393608 -0.14236023 -0.080468886 -0.32490134 0.49694404 -0.0967587 -0.31439322 0.34388518 -0.078204304 0.1558807 -0.0024344015 -0.38307598 -0.40273687 0.003894963 0.1478017 -0.1960777 0.07731058 0.14218095 0.08095783 0.1503354 -0.3579697 0.16234893 0.2803222 -0.19532602 0.13552265 -0.48697922 -0.22704847 -0.5070573 0.6000714 0.117793575 -0.19153492
755217 0.5805977 0.1576719 -0.58867586 0.016607618 0.576695 -0.52944666 0.17055432 -0.5196429 0.5295035 0.6318885 0.4882856 -0.3981719 -0.57131904 -0.082101576 -0.07505229 -0.77475554 -0.45495737 0.30021632 -0.23545754 -0.55555224 0.11614345 0.26172122 0.5029335 -0.10229415 -0.14097184 -0.23492011 -0.2162741 -0.39317018 0.0036201603 -0.4428762 -0.30746832 -0.8411751 0.042940628 -0.58887196 0.08438452 -0.70354617 -0.036472473 0.3129055 0.36019957 -0.6451959 0.31671873 0.05998321 0.007783001 -0.48307863 -0.4538795 -0.12231398 -0.4764901 0.32963687 0.21343298 -0.14095525 0.015346345 0.31846362 -1.0310662 -0.78846437 0.3010066 0.56086767 -0.07969148 -0.036044817 -0.5163895 -0.38386968 0.24957903 -0.019307718 0.15011264 0.054009024
50337 0.16902415 -0.40461722 0.48852962 0.9574071 0.18756394 0.10252392 0.11250406 -0.021203486 -0.30679262 0.07338368 -0.5346769 -0.73726165 0.12140335 0.39587852 -0.76208764 -0.0007801464 0.2981616 -0.029414857 0.28185537 -0.26697856 -0.31666115 -0.21174972 0.47624862 -0.2863719 -0.043314647 -0.056764472 -0.1654871 -0.2638055 -0.36392012 0.23880413 0.19159259 -0.41671377 1.1053427 -0.063754335 -0.39528295 -0.10037364 -0.46520206 -0.034173682 -0.6017088 -0.26642254 0.3127629 -0.72925436 0.4887659 -0.17019503 -0.45532906 -0.20583661 -0.041278798 -0.32772353 -0.32741934 1.0399134 -0.02343347 -0.017985038 -0.9633607 -1.1215639 0.10402855 0.37913948 -0.40017527 0.029701937 -0.21293497 0.34485435 -0.6333687 0.061649676 -0.058726747 -0.82378244
1112417 -0.23916385 0.15468949 -0.2767548 0.0932328 0.2958142 0.2885624 -0.013721484 0.31327105 -0.14900354 -0.6502033 -0.00024418565 0.29538578 0.072407745 -0.053592827 0.1737174 0.42593402 0.12143373 0.058111865 -0.021816181 0.25946906 -0.07920046 0.4340226 -0.32695693 -0.11740377 0.069747545 0.11760775 0.35770547 -0.1630769 0.3886788 0.2274473 0.10415908 0.5076619 0.32416096 -0.10343261 -0.065006435 0.18688264 0.005828194 0.2234579 -0.054654848 -0.3285374 0.13709229 0.39898956 -0.11664436 0.039616294 0.048510812 -0.0072072167 -0.14582834 -0.19748706 0.034195054 -0.24395622 0.24659781 -0.16560186 -0.32162106 -0.317432 0.09172982 -0.16713962 -0.29975194 0.2751812 0.31533048 0.2889412 0.033057436 -0.026535332 -0.28203732 -0.4907242
131315 0.8141051 -0.15947193 -0.30913395 0.097071394 -0.70774615 0.78410035 0.4394477 -0.82605404 -0.0701632 0.39293218 0.2371597 -0.32766795 0.029783238 -0.23099552 0.3045866 0.66584307 -0.38852513 0.48830497 0.24501164 -0.24212916 0.006411945 -0.12661366 0.31339502 -1.0883656 0.6756531 -0.05975408 0.37172744 -0.9370103 -0.064155415 -0.3278914 0.5577273 0.30421382 0.61332786 -0.38561374 0.114107154 -0.5598541 0.13604969 0.6395409 -0.18837495 -0.44229317 0.2961153 -0.14004225 -0.28925872 -0.658873 -0.51846313 -0.08489295 0.43087086 0.14586812 -0.3386989 -0.4149402 -0.22197837 0.7119178 -0.0963488 -0.5205457 -0.21932773 -0.043051984 -0.84328926 0.43207276 -0.013926151 -0.51788306 -0.56015146 0.16414905 -0.34086353 -1.1762388
59626 -0.120326504 -0.084758304 -0.16552544 -0.10708165 0.11604012 0.3480897 0.15858696 0.54279345 -0.11565733 0.5086583 0.043674655 -0.36968783 -0.82125163 0.25107864 0.5597686 1.0314989 0.04892465 -0.4787806 0.27315062 -0.34663358 0.20864414 0.25482512 0.2770575 0.20158502 0.2059907 0.21703728 -0.1465082 -0.61508095 0.16732423 -0.8290134 -0.6955995 0.064350285 -0.51468354 -0.15166499 -0.07401635 0.026669016 0.049073115 0.12821981 -0.5296437 -1.1102881 -0.13641925 -0.30903977 0.30391842 0.24661414 0.06565815 0.022993544 -0.2732599 1.0339626 -0.26706928 0.25255442 0.03319937 0.5508988 0.41725317 -0.2656804 -0.42005444 -0.13933559 -0.5914625 0.70301706 -0.16970572 -0.15749168 -0.024453426 0.36390406 -0.5108035 -0.6445886
444240 0.37339595 0.07418159 0.05996877 0.4410001 -0.09791121 0.62910885 -0.30605894 -0.2919753 0.65842086 0.1493252 0.4919093 0.16798966 0.55634433 0.48954216 -0.09896102 0.344077 -0.061669014 0.27362645 0.56244147 -0.17538443 0.07944506 0.20727682 0.06918345 -0.36587083 -0.39449987 0.42058408 0.11080899 -0.115819834 0.20184873 0.2310817 -0.45939282 -0.28775802 0.56716883 -0.44036338 -0.5693812 -0.16516285 -0.021533348 0.039825737 0.03077232 0.023473132 -0.10373004 0.018930325 0.027046062 0.38908422 0.13230567 -0.013753654 -0.3853147 0.14490588 -0.17939937 -0.3122285 -0.6756141 0.13424225 -0.15277694 0.013204344 -0.8175001 -0.34678844 0.15620522 -0.012213604 0.15652104 0.050091214 0.13154891 0.024017846 0.35959628 0.06870768
112378 0.428492 0.7710033 -0.005458069 0.45547605 -1.421957 0.47219315 0.18983032 0.2155209 -0.057025325 -0.5102109 -0.34287217 -0.40920705 0.22930662 0.8936025 -0.09888069 0.7120785 -0.62144494 0.34905267 0.96230936 -1.0370498 0.009945543 0.3587401 0.10266769 0.52444726 0.17642836 0.5992003 0.440419 -0.07913801 0.3411795 0.70261985 0.6356705 -0.07832682 0.66081876 -0.38599044 -0.6626335 -0.19860198 0.3379204 -0.9454118 -0.7653958 -0.4918075 -0.42633608 -0.6832334 -0.018263856 -0.098809496 -0.39597556 0.0025331061 -0.7614264 0.32984406 0.3578797 -0.8883524 -0.7327693 -0.0016604632 0.27768752 -1.0155236 -0.39982697 0.07358359 0.1432696 0.67748713 -0.44838592 -0.28400573 -0.2969553 0.56657434 -0.38272214 -1.0358014
1153896 0.0012789059 -0.17203642 -0.33594605 0.42239976 0.009028146 0.08901224 0.73848325 -0.14666374 0.10589621 -0.27376565 0.18746422 -0.2652506 0.19664834 0.19830905 -0.39203465 -0.19909096 0.25060448 0.716177 0.3577407 -0.6056585 0.45045555 -0.17227066 -0.2836749 0.09740495 0.0953451 -0.30764815 0.4215359 -0.26523283 -0.122261055 -0.11094587 -0.2850196 0.44977912 0.28394735 -0.017700968 0.30805618 -0.21398667 -0.47213578 -0.020471033 -0.34519404 -0.5359144 0.62147987 0.39788282 -0.3324655 0.19290836 -0.12944813 0.13938278 -0.0032253198 -0.2988896 -0.38817906 -0.103599034 -0.20873722 0.5883866 -0.08964167 -0.27327988 0.32374945 0.16358839 -0.104212984 0.18922691 0.2309507 0.30648187 0.50040174 0.39280853 -0.34177265 -0.15771392
3217 -0.16946068 -0.24797109 0.16344269 0.22886547 0.29870978 0.2894894 -0.09864388 0.1610253 0.08321713 0.041274108 0.61593103 0.29168525 0.15546201 -0.2558866 -0.67357945 0.8349644 0.09253436 -0.56632185 0.2746115 -0.28182903 0.78841764 0.8457416 0.41449416 0.050941896 -0.4510595 0.8669904 0.03710285 -0.5498448 0.4769299 -0.7425211 -0.34404868 -0.066513166 0.91869533 -0.3253418 -0.2340657 0.22044116 0.66125226 -0.48328274 -0.1386683 -0.7132839 -0.4714758 -0.5414542 -0.4232854 0.6910647 -0.043167878 -0.35280415 0.058623075 -0.27253026 0.2424635 -0.49407294 -0.32898605 0.48930424 0.007818409 -0.38724217 0.14817876 0.51449656 0.25477523 -0.5252757 0.17526317 -0.48582014 -0.3722628 0.6122386 -0.57957375 -0.18585944
95588 0.47952634 0.0035438237 -0.0480693 0.05488877 0.1639088 -0.27572694 -0.07641876 -0.5826515 0.3845403 0.24770132 0.06744329 -0.39936614 -0.4480589 -0.31342173 -0.0045832098 -0.6513293 0.005265481 -0.0024570927 0.20667742 0.2143065 0.3508275 -0.13838495 0.342703 0.11854982 -0.018095592 -0.2042196 0.28219 -0.39180902 0.332207 0.16389017 0.027716257 -0.28522113 0.15053242 -0.30459878 -0.07887964 -0.411112 -0.14530548 0.039571706 0.23602656 -0.3847701 0.12922706 0.331217 -0.064073876 -0.16633758 -0.52369696 0.23641326 -0.03463128 0.003389356 0.21423589 -0.22188267 -0.026351461 0.15575889 -0.10928157 -0.42087463 0.020318655 0.29506144 0.099508256 -0.08499391 -0.15987346 -0.18744542 -0.07873803 -0.07137667 0.2440428 -0.19369406
16008 -0.2807682 -0.14534952 0.31350967 0.21121942 -0.7588775 0.4051615 0.24845216 -0.029809712 0.14763153 0.35895726 -0.13903514 -0.78743947 -0.6404573 0.20325306 -1.0138223 0.63749105 0.44085962 0.03805294 -0.0981404 -0.21692751 0.33066013 0.38817465 -0.4754787 0.30968416 0.2018633 0.4112506 0.5468875 0.06414731 0.7792551 -0.4803631 -0.3439072 -0.7287946 -0.29447353 0.28031623 0.28789338 0.48942667 -0.103599675 0.73387396 -1.103897 -0.5689697 0.3235675 0.05362652 0.033467975 0.90581703 0.0013078307 -0.092819534 -0.31566295 0.01260393 -0.30410877 -0.04050448 -0.31983176 -0.18301187 -0.56750095 -0.9871355 -0.20305525 0.9919206 -0.20055331 -1.8120797 -0.30952254 0.35233286 -0.9129113 0.73673797 -0.5294586 -1.6016383
216878 -0.59625036 -0.15917599 -0.23601127 -0.08607708 -0.42171597 -0.3933311 0.43413523 0.08610657 -0.051192116 -0.63066465 -0.09954985 -0.26757082 -0.69562036 -0.14396647 -0.30933374 0.09834356 -0.39039204 -0.20499194 -0.025854617 -0.6325049 0.04562362 0.6363795 -0.32869706 0.46882963 -0.07660472 0.2217302 0.03173282 -0.1720338 -0.12001369 -0.19770455 -0.08104467 -0.25969365 0.22791097 0.38562247 -0.11338935 -0.336613 -0.20228164 0.34447166 0.067709155 -0.4821714 0.123032056 -0.48595083 -0.78305954 0.08643663 0.31953108 0.24851522 -0.7150635 0.08681472 0.25031313 0.32064238 0.47714415 1.063828 -0.17046192 0.0325585 -0.21410283 0.06076314 -0.49540833 -0.011374894 -0.06314422 -0.21901576 -0.20412323 0.11386874 -0.6800775 0.121339954
409725 0.24408278 -0.03991614 -0.0081076 0.50209177 0.011400814 0.55375206 -0.07646299 0.042490497 -0.043276064 -0.27130944 -0.068217866 -0.48086357 0.30242524 -0.25409192 0.12838663 -0.076032765 -0.62200314 0.44741917 0.17233291 -0.6426157 0.03336946 -0.28873459 0.26216558 -0.020887302 -0.083344385 0.4950297 0.17115813 -0.23402001 -0.23486765 -0.36660114 0.21349747 0.12612227 0.38632596 0.4735242 -0.24159677 -0.36656004 0.1261989 0.8904149 -0.21969005 -0.7382309 0.6218293 -0.12667094 -0.6862493 -0.008072462 0.267614 -0.23484486 -0.14979401 -0.35914138 -0.11427329 -0.84010994 0.14127499 0.23524605 -0.50058365 0.0065397727 0.068965755 0.03308179 0.2577129 0.09262984 -0.14610209 0.38238826 -0.65670717 -0.020783657 -0.24880216 -0.15190028
1117476 -0.057509467 0.25483376 -0.14273782 0.6841016 0.17940134 0.18255886 0.10587812 -0.7837092 0.41749516 0.0029053667 0.30097824 -0.20955098 0.1846288 0.06866834 -0.060865104 0.069932915 0.61665565 0.14844832 0.676509 -0.2149581 0.13411565 0.14586355 -0.26343596 -0.21083932 -0.20723864 0.031421304 0.20528923 -0.11395357 0.081559286 0.35951114 -0.31342635 0.31360692 0.42077774 -0.54293936 0.006139781 -0.31636903 -0.063388795 -0.1126121 -0.32646403 -0.19098732 0.4116107 0.10535674 0.011133361 0.12302975 -0.20377947 0.282105 -0.12955116 0.7453794 -0.21921366 0.028858434 0.02740027 0.61826223 -0.24040474 -0.15087545 -0.42200774 0.41501883 0.45058995 -0.101471566 -0.07563314 0.41010115 0.3022242 0.22566907 -0.18200566 -0.28299445
98693 0.17085022 0.5190208 0.53783023 0.20557798 0.32442024 0.15211383 0.31202954 -0.13456197 1.0364311 -0.0051417216 0.4886717 -0.44121888 -0.16509433 -0.14565954 0.09156604 0.28766316 -0.19166675 0.37779027 0.47313723 -0.11088732 -0.36790732 0.18564424 -0.141543 0.031859554 -0.2932068 0.19847666 -0.41047937 -0.53698236 0.42872238 0.21171664 -0.08297986 0.23539834 0.47962832 -0.43704528 -0.2021307 -0.89925885 0.87495077 0.10126853 -0.68890244 -0.4997084 0.12782782 0.4313741 0.23093933 0.35642314 -0.015056568 -0.0024769017 0.05688878 0.5499117 -0.1632476 -0.039993297 -0.137571 0.2950737 -0.36361405 -0.675366 -0.46268734 0.29787165 0.118864745 -0.5157629 0.326674 0.102876015 -0.035072498 0.12033719 -0.11771993 -0.3075699
686559 -0.00368661 -0.110025354 0.015593777 0.16089512 0.32274932 0.10866311 0.36700022 0.23500544 -0.07026662 0.15131348 -0.05686411 0.35117334 0.270358 0.36704132 -0.3600245 0.07559576 -0.27790603 0.006784684 -0.2477078 -0.36401552 0.12078603 -0.0038728032 0.08790695 0.014604086 0.029809613 0.03441819 0.0071213976 -0.1728794 0.13377348 0.3855195 -0.042100344 0.01907247 0.31809568 0.25479746 0.2963594 -0.32577732 0.076672755 0.0054310393 0.06901195 -0.12729196 0.24709958 -0.13705446 -0.13218425 0.06258146 -0.24993335 -0.41114563 -0.301215 0.187058 -0.34671918 -0.21808249 0.09124456 0.20361489 -0.11265362 0.05545649 0.37813312 0.035208616 -0.24652997 -0.09001207 0.0969973 -0.17560445 0.0078144 0.008432941 -0.098625846 -0.22057165
964248 0.50937843 0.38041928 0.71768004 0.5805173 -0.24026832 -0.004322661 -0.12943822 0.7496717 -0.5527793 0.30874074 0.03749482 -0.042635944 0.26891053 -0.23966803 0.0513846 -0.10332232 0.07689791 0.13265559 -0.16952008 -0.48988205 -0.56906563 -0.0070132357 0.568561 -0.4812669 -0.2921928 0.15964389 0.34127653 -0.23430167 0.17239104 -0.0656197 -0.52057344 0.2627669 0.11020347 -0.18987077 0.31604502 0.054114018 -0.100162536 0.37803715 -0.20923296 -0.5565803 0.60652876 0.5789431 -0.4642102 0.12249192 -0.13905373 -0.21093786 -0.39191622 0.32491773 0.25485992 -0.30264872 0.09406017 -0.16371706 -0.5348476 -0.13470381 0.2547515 -0.218646 -0.062453035 -0.67797947 -0.72883856 -0.107770585 -0.4208716 0.44253415 -0.642994 -0.7605354
400473 0.4962275 -0.2034511 -0.11527172 0.072940744 -0.6500936 0.7852678 0.20321682 -0.40032822 0.17998274 0.33030018 -0.06816675 -0.40223008 0.062116105 -0.085997164 0.430857 0.36767605 -0.2309921 0.39003146 -0.1734595 -0.33166406 -0.23527662 0.060778398 0.21410972 -0.42576796 0.5399 0.058520045 -0.08816449 -0.36927578 -0.0063534044 -0.1550766 0.511222 -0.06708538 -0.039061878 -0.08649153 -0.13682382 0.13424395 -0.108269565 0.44822407 -0.5143174 0.15334882 0.20443447 -0.0028490261 -0.2994178 -0.2836213 -0.41685188 0.19233255 0.21411692 0.19391076 -0.115452915 -0.41846156 -0.10821619 0.63641053 -0.23322299 -0.27351058 -0.19066527 0.06589093 -0.6094657 0.24831383 0.16426887 0.10747521 -0.0011707451 0.2924074 -0.29793292 -0.62637323
1128531 0.38762614 -0.09391213 0.528706 -0.009794316 -0.32058838 0.09387155 -0.1544403 -0.29415277 0.13025574 -0.0443627 0.44146508 -0.28844863 0.038426638 0.380464 0.03149625 0.52228725 0.008295363 -0.5039815 0.09802976 -0.15387578 0.4325453 -0.27427536 0.49913755 0.23979989 0.3447999 0.057684384 0.42133626 -0.3119426 -0.32643452 -0.026973234 -0.18119746 -0.4115828 0.549748 -0.4791423 -0.25123107 0.16684009 -0.3974043 0.13605721 -0.038785692 0.5877367 0.07489149 -0.025819454 0.40850356 -0.2197876 0.15100265 -0.06674485 -0.07707884 0.41160452 -0.0514947 0.027465316 0.03757422 0.42916697 0.074384555 -0.08718407 -0.6304101 0.13910349 -0.2935071 0.26146758 -0.37766337 -0.64524925 0.14825682 -0.0012047312 -0.3641321 -0.33531827
8617 0.5706645 -0.71048874 0.1441898 0.48486757 0.12293169 0.88420033 -0.01152397 -0.32618564 -0.06324978 -0.08329785 -0.6660169 -0.7552966 0.21979372 0.38972056 0.13167006 -0.14364284 -0.674539 0.5880313 0.38559973 -0.95853835 -0.6672172 0.60336006 0.6522541 0.33399594 0.1461976 0.31749818 -0.55564946 -0.3898907 1.1324918 -0.27980208 0.43458226 -0.5888926 0.07844189 -0.32946485 0.7317917 -0.05398119 -0.0115638655 0.31236482 -0.34704572 0.025527282 -0.021381779 -0.286739 -0.17120337 -0.10957859 -0.13505517 -0.5126143 -0.17679985 0.8189863 -0.23436771 0.6847509 -0.18143077 0.511186 0.2440842 -0.02593616 0.32527912 0.35722134 -0.2971206 -0.24716471 -0.3651595 0.07384572 -0.36211017 0.5536921 0.006338465 -0.13543868
44121 -0.08504375 -0.107230425 0.28711626 -0.21064268 -0.08540254 -0.45009968 0.4115451 0.26168036 -0.6521634 -0.4171069 -0.121235594 -0.19295721 -0.21291043 -0.22761258 0.31816015 -0.10962495 0.41335076 -0.15872195 -0.311165 0.046815228 -0.13536638 0.5334647 -0.40454593 -0.033952992 0.14639403 0.108896844 -0.18549092 -0.27226332 -0.20457295 -0.048873782 -0.026369473 -0.11510645 -0.16803764 0.07426464 0.22639433 -0.00858734 -0.5181716 0.31534544 -0.20876387 -0.4276025 0.3023122 -0.0103892395 0.23952048 -0.030021565 -0.14282875 0.19637106 0.08386033 0.013811772 -0.17610966 -0.14365079 -0.13457878 -0.23505332 0.21901152 -0.52355343 -0.22592846 -0.10007551 -0.2105258 0.045158938 0.22517174 -0.19563791 -0.39830464 -0.17682609 0.0546391 -0.31287986
1152711 0.28175628 -0.44436082 0.5390194 -0.10977471 -0.28899467 0.00071206247 0.39023805 0.3353349 -0.11327765 -0.1979782 -0.0100401705 -0.6471451 0.21359375 -0.23844104 -0.32494187 -0.39551875 0.39833853 -0.29919794 0.23058403 -0.76394445 0.050882638 0.16901729 0.13125704 0.13110794 -0.27260935 0.34397748 -0.22910994 -0.72357744 -0.31061837 0.37849215 -0.016380316 -0.4744971 0.46250224 0.00352156 0.3168928 -0.08906586 0.66620564 -0.05420439 -0.9017913 -0.44757876 0.44638517 -0.42150417 -0.3697569 0.7273008 0.22084211 0.033321604 0.4971097 0.181362 -0.50955397 0.15159842 -0.51759255 -0.3501532 -0.5872285 -0.46720916 -0.68878716 0.06885493 0.008489711 -0.55055016 -0.06299874 -0.5407995 -0.41441008 -0.0424205 -0.45542672 -0.22790106
1120049 0.18749903 -0.27893507 0.20997922 0.36474133 -0.51755786 -0.030939737 0.11973481 0.22474389 0.16530354 -0.2364763 0.15288422 0.2535484 -0.22894089 0.23309231 -0.039933145 0.060413357 -0.24024494 0.14751226 0.18989068 -0.3662539 -0.25764614 0.15363543 0.39597815 -0.5446011 -0.54314154 -0.19375542 -0.321448 -0.2300061 0.1478386 0.21239328 -0.32192293 0.06513299 -0.11987069 0.22233024 -0.24475577 -0.65124905 0.31506884 0.26640275 -0.33943006 -0.5462245 0.83699405 -0.3370361 -0.0579709 0.08966026 -0.19446889 -0.1861594 -0.07016198 0.15319076 0.23593657 0.39817575 -0.17138164 -0.119631216 -0.9467884 0.36332625 -0.33534357 0.3514122 -0.04919383 0.25738496 0.28517142 -1.0974039 -0.78415966 0.519925 0.24196863 -0.97400475
111770 0.039802928 0.25964645 -0.54350924 -0.24697612 -0.09164125 -0.12266035 0.28624275 0.07371325 -0.4667796 -0.27120337 -0.054495316 0.5584368 -0.08123684 0.09589008 -0.41700327 0.14334783 0.14181021 0.11060735 -0.083663985 -0.5529468 0.072287194 -0.060250934 -0.3137856 0.027851675 0.11890104 -0.11347684 0.04439355 -0.37508446 0.16630389 -0.07889146 -0.13343687 0.056606594 0.08899492 -0.1776239 0.3217535 0.047330685 0.11931599 0.0012344162 -0.1423705 0.21221632 0.045110323 -0.20683607 -0.14533347 -0.33535624 -0.12208716 0.23437166 0.12296075 0.16628087 -0.34956262 0.082413346 -0.19748884 0.19353151 0.23145561 0.012158965 -0.16134278 -0.213183 -0.43720135 -0.10553756 0.40841702 -0.1526026 -0.25690573 -0.14688689 -0.28712574 -0.08588554
628888 0.28651208 0.081587985 0.29604876 0.412404 0.20164199 -0.25468862 -0.12223164 -0.0015071977 -0.48183662 -0.13075787 0.845998 0.3073775 0.007794569 0.39086816 -0.104887694 0.09401323 -0.29796654 0.40420213 -0.041467555 0.057546973 0.2990056 -0.32202968 -0.08965577 0.16142459 0.21427318 0.12811816 0.61124176 0.059695885 0.39288136 -0.1305807 -0.30787882 -0.5815264 0.560666 0.33738676 0.029151414 -0.6693259 -0.024009023 0.21363573 -0.17454475 -0.58346474 0.55444205 -0.20092571 0.39096382 -0.13683955 -0.410106 -0.085554935 0.30939078 0.17506096 0.18897589 -0.19835253 -0.31432277 -0.28124613 -0.2338987 -0.18305667 -0.17793804 0.5230685 -0.04052926 0.5180266 -0.19666514 0.23922579 -0.3580948 0.065066084 -0.25414428 -0.15186314
107251 0.45151645 0.3225258 0.1736255 -0.054265857 -0.014250188 0.31172103 -0.20279755 -0.16143228 -0.13443863 -0.1776349 -0.1514688 0.040960215 -0.004505822 0.56402004 -0.26500165 0.4267524 -0.75499946 0.19133222 -0.18873876 -0.5836261 0.49279228 0.74172574 0.5480739 0.1384825 0.11570923 0.17161739 0.5783671 -0.20849892 0.3595605 0.43894097 0.28920826 -0.22637126 0.5399857 0.16986789 -0.4534194 0.20684716 -0.5794461 -0.42541948 -0.29213077 -0.035248745 0.012280952 0.29644307 -0.6721031 0.1023582 0.5419584 0.6238547 -0.5074557 0.43742198 0.8459178 -0.23887764 -0.27977297 0.6545934 -0.2785524 -0.22115384 -0.18777412 0.6642192 -0.3548858 0.5556283 -0.21734771 0.070515394 -0.16594635 0.27744687 -0.7690245 -0.33226213
154047 0.3827039 -0.15847413 0.18135527 0.29169187 0.40998906 0.2714105 -0.08338031 -0.28809512 -0.028914247 -0.4863085 0.39177182 0.41384387 0.0243227 0.12775636 0.09482937 0.09091667 0.36112848 -0.052158862 0.37822023 -0.4151811 -0.6910895 0.5086936 0.9336369 0.1462738 -0.4094402 -0.19110796 0.44542077 0.47669914 0.811003 -0.3742152 -0.24924384 -0.3607097 -0.016144834 0.044161092 0.18125571 -0.16236737 -0.36292598 0.40233755 -0.053337842 0.32082054 0.950393 -0.5194518 -0.2742392 -0.02841565 -0.64871025 -0.3456403 0.14610155 0.3627601 -0.15532583 -0.105821855 -0.11216702 0.39088833 0.50732404 -0.30016407 -0.5625937 0.03738976 0.22014436 0.20402074 0.38412073 -0.22080028 -0.99910736 0.11555383 -0.8699793 -0.47878397
85449 0.7882107 -0.31740037 0.26023588 0.22220108 0.31189692 0.635518 -0.052619375 -0.0612722 -0.44353878 -0.8053573 0.113896586 0.20034458 0.009773854 0.93338233 -0.59504074 0.43418598 -0.5749718 0.13824025 -0.16377716 -0.34982544 0.51849943 0.103806034 0.42510465 0.06774517 -0.11980781 0.26544845 0.539865 -0.083370455 0.47672722 0.2929161 0.18604425 -0.25334606 0.5098883 0.17838876 -0.123199455 0.3152879 -0.64808756 -0.01134733 -0.5832715 -0.23069023 0.30043066 0.36686644 -0.5344087 -0.1961265 0.67455286 1.0301911 -0.31830412 0.16421023 0.07857196 -0.23558415 -0.7015649 0.7454847 0.08703223 -0.16285938 -0.22553575 -0.13965192 0.021609455 0.20146522 -0.1349834 0.29576316 0.25013223 -0.30673444 -0.6015869 -0.6888433
310653 0.28720814 0.07650754 -0.6722225 0.6435978 0.2440838 0.107332416 0.15221305 0.12530491 -0.21284898 0.035727203 0.26016378 -0.18253377 0.122246854 0.21605927 -0.009819941 -0.17942344 -0.29235506 -0.032014716 0.23878449 0.083269365 0.037126947 0.1087909 0.07346013 -0.48280567 -0.3484881 0.25953376 0.08468136 -0.021270426 -0.23932202 0.019988585 0.06651182 -0.083692215 0.44487682 0.31524843 0.081502736 -0.3517189 -0.24608777 0.2119724 -0.02820217 -0.087229125 0.010558287 0.11178684 -0.39450896 0.35779256 -0.55111396 -0.1895193 0.0754057 -0.08690377 -0.5240196 0.69593424 0.51638925 -0.10522325 -0.50938404 -0.84593916 0.0926826 0.33524203 -0.077874236 0.15425982 0.14876805 -0.2169436 -0.42241848 -0.24634953 -0.13379428 -0.96736866
1152259 -0.38231748 -0.5831234 -0.1279179 -0.02116673 0.22237979 -0.17699291 0.33088052 0.031232346 -0.30788454 0.36130393 -0.020410005 0.22341704 -0.33974156 0.24139634 0.005452916 -0.5111646 -0.31374303 -0.072930634 0.5183608 -0.76325786 -0.5612469 0.44656417 0.26191252 0.24294102 -0.28179088 0.13287789 0.32130918 -0.517147 0.49262494 -0.038219463 -0.12164473 -0.29690823 0.3387128 0.2190689 0.04884512 0.13949321 -0.533944 0.08904296 0.279895 -0.18386748 -0.58759785 -0.10534216 0.08506679 -0.2510109 -0.5492136 -0.43900418 -0.43207154 -0.3375734 0.251667 0.12955342 -0.044127587 0.111406155 -0.305979 -0.24807222 -0.40497425 0.12243167 -0.10854427 0.0350002 0.4188357 -5.3606207e-05 0.26763806 0.37024942 -0.37234947 -0.24554642
66982 0.0969307 -0.44464985 0.6439664 0.5425374 0.47838756 0.07902658 0.32725218 0.2832757 0.01638885 0.10221645 -0.37507632 -0.6591939 0.17195757 0.36353248 -0.8377517 0.11550298 0.08519997 -0.18137047 0.47759363 -0.27268964 0.04233399 0.056379687 0.5146221 -0.041198988 -0.13898574 0.06211332 -0.289561 -0.099905476 -0.1789849 0.0009574899 -0.03931665 -0.5606941 0.85936743 -0.047564477 -0.38171205 -0.14040849 -0.61651146 -0.1767234 -0.5503785 -0.27307063 0.46056187 -0.46338305 0.52031744 -0.033900313 -0.5029982 -0.08935652 -0.012623331 -0.50585306 -0.019623753 0.7382484 0.026216686 0.14890987 -0.7048591 -0.38748816 -0.040879294 0.14023681 -0.44814155 -0.035162665 -0.24540305 0.07015859 -0.3855147 -0.13770813 -0.09323046 -0.32307905
89547 -0.3579718 -0.49857607 0.16421045 -0.054820444 -0.5002882 0.16970845 0.27621076 0.7242723 1.0018644 0.2015543 0.53093857 -0.0829263 -0.65422237 -0.010548665 -0.044290826 0.07898617 0.44566727 -1.2727399 -0.36068654 -1.1661834 0.76787674 0.054233804 0.7973787 -0.049735464 -0.27166882 1.2763258 0.16751541 -0.5711593 0.42604217 0.40548223 -0.38491648 -0.4630125 0.9272222 -0.8586857 0.9270096 -0.013119368 1.2202524 -0.31149513 -0.43873635 -1.1014514 0.5153606 0.42795858 0.12124551 1.177987 0.009358675 -0.37729862 -0.23343585 1.3487914 -0.49242467 -0.38129336 -0.41202417 0.583921 -0.83952475 0.05852298 0.13424897 0.07558716 0.60674053 0.8115051 -2.021841 -1.0062585 -1.0257028 0.5258542 0.675638 -1.1603873
230879 0.7141199 -0.18754753 0.46058398 -0.08058465 0.23304641 -0.5229254 0.43948787 0.50798 0.6255308 -0.34930733 0.015883576 -0.10032632 -0.6610353 -0.22343111 -0.35747084 0.4307085 -0.02746309 -0.48408458 0.7397864 -1.6600592 -0.91095376 -0.36177254 0.16926137 -0.7974265 0.44149926 -0.3121733 -0.17627302 -1.2264014 1.3978623 0.339149 -0.80092245 0.460848 0.9938686 -1.9151928 0.29113677 0.16727239 -0.44895017 -0.0857157 -0.71554077 0.43940374 0.22253281 -0.6382266 0.30961064 -0.13338651 -0.5873039 0.11078199 -0.43402767 -0.03495777 -0.4309273 -0.5963209 -0.01916564 0.34381214 -0.8526433 0.22754295 -0.6299583 0.8484988 0.1534267 -0.21711998 -1.1784425 -1.0805542 -0.7647976 0.5484918 -0.9809661 -0.4133994
779960 -0.17604695 -0.019650955 0.16299854 -0.29369766 -0.3682981 -0.20403011 -0.41850471 -0.17464262 -0.12167819 -0.42872518 0.027384575 -0.123516485 0.06930239 0.06273756 0.03836672 0.5376446 -0.023191888 0.13320605 -0.13743193 0.04086153 0.27788496 0.109126724 -0.23587584 -0.3983108 -0.06113826 0.37039652 -0.2585279 0.37147638 0.1769937 0.0476196 -0.18667023 0.35083422 0.684731 0.17464106 0.16740103 -0.08835765 0.36867929 0.34786585 -0.363445 0.11335972 0.47010487 -0.26759997 -0.16318971 -0.2210922 0.082131356 -0.42859322 -0.103919014 -0.35414088 -0.36099687 0.42455515 0.09628316 -0.26300916 0.51997954 -0.12505728 -0.08723097 0.21697457 0.024947466 -0.11639957 0.010505431 0.038238738 0.016633594 0.12740001 -0.22053568 -0.12365131
287787 -0.8905654 0.28103682 0.42303815 0.8514957 0.37589732 0.23602849 0.11731454 -0.73912543 0.6096672 0.167745 0.6653785 -0.833446 0.34963104 0.34347275 0.2570228 0.045705028 -0.12090249 0.07153732 1.3592135 -1.0341151 -0.26139852 0.05693622 -0.39323622 -0.58771664 -0.9186145 0.22360638 -0.20381819 -0.10520403 0.25644088 0.35011125 -0.34390727 -0.33485237 0.6309941 -0.04558278 0.08066341 -0.62057346 0.42506382 0.05048274 -0.33901602 -0.11863187 -0.027310636 -0.24491182 -0.012407071 0.30887547 0.27435482 -0.37321848 -0.6815692 0.67537916 0.19431423 0.1749595 -0.44335625 1.6623524 -0.6077503 0.18817964 -1.5822073 0.35457975 0.4012232 -0.4122016 -0.7926836 0.13284102 0.07001165 -0.55342966 -0.8928077 -0.29812762
24476 0.7475593 -0.773824 -0.13802218 0.5808421 0.26004905 -0.033393763 0.48311278 -0.53315616 0.3423082 -0.43150195 0.049733344 -0.0808987 -0.14567575 -0.80478513 0.40144667 0.5047982 0.16640322 0.09491787 0.60151476 -0.6801064 -0.21828957 0.3575904 0.57538193 -0.036503002 -0.14661816 0.43931907 0.3350929 -0.72595805 0.3544855 0.2254268 -0.8573636 -0.11487223 0.54813606 0.5134792 0.14953777 -0.20978913 0.2849219 0.9412168 -0.17826279 -0.49749923 0.8947693 -0.17833649 -0.18757932 -0.6800707 -0.20865783 0.02120619 0.25575447 -0.07563949 0.2444023 0.27976274 0.2556947 0.36278063 0.39074993 -0.34500158 -0.31408638 0.09974034 -0.33573997 -0.16155347 -0.12419427 -0.13706103 -0.7641761 -0.26520202 0.28571376 -0.15492015
108974 0.753105 0.38046852 -1.0635966 0.6025575 0.5933042 0.56718546 0.13774016 0.33256343 -0.06985633 0.010704085 0.7196384 0.08196978 -0.07777475 0.754441 0.0056936108 -0.43519843 -0.80014515 0.008192559 0.45636714 -0.23806813 -0.092243314 0.2179448 0.2821396 -0.69334096 -0.39850563 0.58697456 0.37436584 -0.3269582 -0.28628522 0.18691856 0.124682084 -0.21294484 0.42255518 0.3033319 0.41063973 -0.49780205 -0.37803826 0.54834056 -0.18822318 -0.0054345666 0.49177477 -0.0645285 -0.551093 0.57589895 -0.80586725 -0.3617285 -0.17885663 0.15797666 -0.7752116 0.5198347 0.6769133 0.25488383 -0.41715658 -1.0028952 0.049387828 0.41125134 -0.04546443 -0.33948168 0.09489286 -0.22862607 -0.30328453 -0.37392965 -0.28460148 -1.399809
1139928 0.54700226 0.20381494 -0.50401586 0.22799738 -0.11976352 0.1012474 0.20169295 0.22012776 -0.7804453 -0.027225679 0.0033397744 -0.10914855 0.0412702 0.24023268 0.14198405 0.48320535 0.28849 0.04355435 0.018535562 -0.59147304 0.36627007 -0.35878122 -0.089953944 -0.3862892 0.10218191 0.0034374557 0.72445285 -0.9937949 0.35487783 0.021732138 -0.33407262 0.72465754 0.09088219 -0.20448172 0.014824206 -0.8080463 0.48549446 0.47028595 -0.044620767 -0.53061265 0.25858313 -0.33336723 -0.6466585 -0.048484553 -0.07744418 0.15461326 -0.371917 0.0048694727 0.083710805 0.033319194 -0.15650277 0.78413546 0.14853434 -0.17343786 -0.45571944 -0.594082 -0.6378215 0.6755281 -0.7048558 -0.02947317 -0.36745515 0.10543435 -0.48660174 -0.40881503
307015 -0.62323886 0.59093934 0.6479075 0.49657443 0.20584983 0.16749963 0.19596554 -0.8485397 0.6798561 0.3113633 -0.08850552 -0.23979053 0.64221525 0.12337451 -0.10106128 0.37177092 0.09228013 0.31795174 0.85642827 -0.5949027 -0.4330129 0.1377811 0.0050642537 -0.8794169 -0.6375114 0.35225767 0.19404458 0.0055167363 0.4873975 0.43555003 -0.23370531 -0.19812436 0.91016096 0.12457445 -0.005931881 -0.8105597 0.76901734 -0.14608684 -0.29577732 -0.11512877 0.26451585 0.21823658 -0.20100307 0.23970087 -0.14670007 0.083046615 -0.72634614 0.66706145 -0.34779793 0.35781562 -0.007882922 1.0178671 -0.8328595 -0.05664921 -0.6930942 0.26266676 0.13623948 0.05386967 -0.63741946 0.32044047 0.21342917 0.12317965 -0.24484925 -0.2769015
288107 -0.20553428 -0.3393326 -0.01958254 -0.26286912 -0.019463306 0.13501848 0.3228968 0.14730588 -0.26742882 -0.49436373 0.313006 0.18087083 0.13247895 0.011810435 0.19430526 -0.35702965 -0.19599769 -0.22646274 0.1346696 -0.060600955 -0.03007848 0.33727115 -0.25157323 0.30595267 0.2783155 -0.26914904 -0.04541109 -0.39619637 0.5555525 -0.04450837 -0.49974766 -0.020722175 0.09620655 -0.06274918 0.5213122 0.021233426 0.058521602 0.28726095 0.004814641 -0.12595262 0.26970187 -0.21192993 0.09373852 0.06361848 -0.020679912 -0.23173937 0.26464304 0.21903062 -0.33732247 -0.10715313 0.021778129 0.23109765 0.060948078 -0.387463 0.19104944 -0.009878242 -0.40541115 -0.28101802 0.5392203 -0.082813025 -0.16243157 -0.022694226 -0.010416936 0.09327993
647413 -0.5629428 -0.11984828 0.32721278 0.3027634 0.42827705 0.25069305 0.3137138 -0.2370179 0.030781072 0.56183237 0.020256484 -0.36691183 -0.21019828 0.04496126 0.13348937 0.1309247 -0.23329328 -0.09678176 0.48373154 -0.61736166 -0.39681146 -0.10143074 0.14151947 -0.6088444 -0.8905593 0.0078139035 -0.27665797 0.0061816024 0.22928777 -0.08008529 -0.0539253 -0.17481716 0.6807339 0.20362705 0.26504242 -0.2896663 0.21861915 -0.39079988 -0.121839166 0.030201789 0.13486855 0.06642336 0.49629667 0.17262663 0.2869955 -0.41938365 -0.31584272 0.0077877087 0.21593598 -0.027588522 0.033606283 0.754477 -0.30318913 -0.14828406 -0.53203577 0.5355184 0.41223943 0.14306448 -0.62990487 0.10032122 0.39339986 -0.32297564 -0.2646153 -0.1552108
594025 0.12309635 -0.28096747 0.11448343 -0.120548815 -0.09292307 0.26893964 0.27266818 0.063501775 -0.103976764 -0.44721615 0.2144662 -0.4150563 0.005653089 0.30411306 0.17690231 0.34600383 -0.31608516 0.18054904 0.05740196 -0.17135943 0.00869092 0.46960437 0.39107046 -0.18732005 -0.11814159 0.10068748 0.46223897 -0.33390877 0.3751058 -0.010126631 -0.016892998 -0.6502336 0.6537184 0.18118396 0.26379415 -0.07883123 0.0054815505 0.097589605 0.21920867 -0.043089014 -0.21178953 -0.28796786 0.29971704 0.38276872 -0.29085708 -0.17717075 -0.18880735 0.348104 -0.26929343 -0.27102783 -0.29237387 -0.14400937 -0.35255095 0.07127722 -0.19366856 0.5049353 0.49844584 0.050852858 0.11800701 0.0055518188 -0.21878581 -0.16623801 -0.20612334 -0.11982165
28674 0.22093154 -0.03539799 0.19264674 -0.023313269 0.011417376 -0.0579391 -0.40886554 -0.20939448 0.19962531 0.19087873 0.52911645 0.46645626 -0.5006094 0.37935776 -0.11927596 0.012196023 -0.2050216 -0.49645698 -0.059598148 -0.23079644 0.2803511 -0.08681771 -0.0212358 0.43448573 -0.48904055 0.36340898 -0.24603504 -0.22696392 -0.003963223 0.08848802 0.26623046 -0.3254258 0.14323512 -0.48466784 0.013878206 -0.03155444 -0.08079026 0.3401146 -0.15042722 0.29092023 -0.11855306 0.31972346 0.052833866 0.14087789 0.16327637 0.016737498 -0.06452923 0.08673768 -0.30915543 -0.11629503 -0.26692864 0.054925706 -0.036674667 0.27809238 -0.34313253 -0.08385665 -0.294901 0.07855824 0.10134359 -0.1391569 -0.31719205 -0.19141018 -0.050076693 -0.27237394
103543 -0.9565668 -0.96226746 -0.34741637 0.15181974 0.23972599 -0.5041823 0.08539467 0.19131482 -0.14358272 0.38961667 0.031823244 -0.197686 -0.39691186 0.7506597 -0.40279204 -0.15524457 -0.63095343 0.18571818 0.7257531 0.35202584 -0.21897343 0.100699216 0.309927 0.1704874 -0.072666585 0.5996087 0.3655432 -0.57615626 0.14231214 0.3811205 -0.34693584 -0.09807654 1.5363617 0.41482764 0.2894059 -0.859783 -0.3556214 0.16896968 -0.37975517 -0.21901836 -0.2325326 0.34288013 0.03899912 0.124109425 -0.40853256 0.36195508 -0.42940012 -0.028082684 0.36037108 0.5618722 -0.037074585 -0.028475605 0.31088674 -0.6864055 -0.3969405 -0.30347645 -0.41576257 0.6141212 -0.029519804 -0.34805703 -0.16556045 0.51667243 -0.72646934 -0.52197045
1688 -0.054297388 -0.23100705 1.4737186 0.98703533 -0.03621906 0.28548643 -0.23553151 -0.44659013 0.17719835 0.35221407 0.8193851 0.17926 1.0200489 0.243996 -0.17505074 0.14824706 -0.6290075 -0.63602984 2.1985602 -0.9607796 -0.611091 0.15976125 -0.67604196 -1.302568 -1.1888205 0.009321877 0.5871203 -1.4227376 0.32551134 0.28425223 -0.06852638 -1.2284966 0.76103866 -0.18008164 0.5271729 -0.3516204 -0.31892604 0.0008757167 0.07916408 -0.14933445 0.94938 0.77277094 0.3328774 -0.047763977 -0.8293749 -0.32640606 -0.6241546 0.8365627 -0.0023222333 1.0517255 0.08258654 1.5222796 -0.5752234 -0.3918116 -0.99168617 0.21486244 -0.34546456 -0.51794297 -1.1213177 0.07630445 -0.27850103 -0.8190473 -1.0363811 0.2592126
941 -0.1784398 -0.26302955 0.25553027 0.14558302 0.2000144 0.48882967 -0.41102472 0.18754843 -0.49104986 0.17375553 0.44726127 0.90560365 -0.1544307 -0.095685765 0.5840312 -0.13243058 0.22629915 -0.36899123 0.33502036 -0.8100615 0.109818906 -0.20040993 0.15272826 -0.027525123 -0.6223425 0.38491222 0.17040555 0.37191385 0.3272451 -0.2192748 0.045366235 -1.0453417 0.49636427 -0.115742154 0.7239539 0.0779309 0.35373846 0.4941933 -0.3592106 -0.42796305 -0.22465767 -0.7456352 -0.8603377 -0.09115311 -0.44887662 0.087779306 -0.33899087 0.5663863 -0.8018124 0.27897626 -0.044656686 0.23073785 0.16331603 0.04949742 -0.8037469 0.50592303 -0.3267827 -0.36433986 -0.3677328 -0.1916546 0.27064142 0.19999106 -0.7175798 -0.68683416
385572 -0.39663878 -0.35796732 -0.24373248 0.067107834 0.6523033 -0.06309261 0.6155663 0.22286749 -0.09213346 0.3430462 -0.7437254 -0.15979262 0.4512587 -0.4041353 -0.57546127 0.13286896 -0.053255565 -0.24851719 0.5476953 -0.4779923 0.19774947 0.34327912 0.37625828 -0.39695513 -0.23721437 0.7472954 -0.077309676 -0.1797879 0.17685713 0.02736148 -0.052532043 -0.586911 -0.22787476 -0.32708114 -0.49990332 0.020296078 -0.37207904 0.24493974 -0.6649549 0.10976836 0.22796349 0.16375077 0.71779114 0.018369857 -0.71875376 -0.26462975 -0.019743891 0.1971846 -0.2840176 0.45642096 -0.030862018 0.28920054 -0.5311658 -0.46176335 -0.3813518 -0.049409077 -0.071020216 -0.009921384 -0.52482736 -0.44538724 0.44597262 0.42249477 -0.15073924 -0.26125103
1131557 -0.22497846 0.25739405 0.17269509 0.37521067 0.021723652 0.01350308 -0.0505097 -0.76788485 0.595175 -0.32451367 0.008236917 -0.2806718 0.3150177 0.20286717 -0.14014673 0.06969485 0.584132 0.13588454 0.4860126 0.087071225 0.023144534 0.1699551 -0.28177655 -0.09355225 0.023548922 -0.25859883 -0.0740628 -0.2537398 0.27599972 0.24316712 -0.10732645 0.4962677 0.15307824 -0.3280453 -0.05703466 -0.34539515 0.023185836 0.26252624 -0.14198788 -0.27243832 0.33725768 0.2659426 -0.07071204 0.12851214 -0.31375325 0.44639558 0.20326121 0.529277 -0.2873114 0.05572483 0.05804347 0.50059307 -0.10015149 -0.19081356 -0.33491275 0.04683202 0.1674358 -0.2528403 0.22325571 0.20605761 0.22439565 0.039159756 -0.06139491 -0.14516383
129558 -0.11169388 -0.01473968 0.13938025 -0.087654546 0.1734626 0.22551927 -0.35853553 0.19331627 -0.4991999 0.331914 0.30117172 0.6933994 -0.1392638 -0.2075285 0.39843148 0.21718632 0.10788156 -0.028866822 0.34625322 -0.5489119 -0.0426178 -0.3355601 0.08797387 -0.018734235 -0.6542108 0.18712981 0.30155778 0.030637868 0.24455166 -0.28283966 0.2221549 -0.7316635 0.47493595 0.3466541 0.37525523 0.023150247 0.39662722 -0.0985512 -0.19114101 0.019274408 -0.13114144 -0.0035316895 -0.29236224 0.09694235 -0.17053449 -0.054148447 -0.57597566 0.2891729 -0.53509456 0.26346564 -0.07314608 0.1830782 0.11987751 0.277499 -0.37472886 0.25687146 -0.199259 -0.32149255 -0.30240926 -0.058220066 0.029896183 0.05523102 -0.5340354 -0.5591523
5966 0.40033033 -0.28783935 -1.1140085 0.24900076 0.17173137 0.060026154 -0.001498507 -0.007163685 -0.13672404 -0.16045345 0.21699779 -0.42739952 0.69369173 0.7656591 0.4371388 0.84622383 -0.83622813 0.2081903 0.36262837 -0.7643518 0.08035912 1.0672085 0.98154074 -0.24987516 -0.5174364 0.7704973 -0.08233476 -0.719386 0.49003237 -0.49857867 -0.56466 -1.0356301 1.5433278 0.26768768 -0.46155643 0.9046934 -0.24269177 -0.16025412 -0.12565233 0.036648516 0.0036833999 -0.5941126 0.50353193 0.049532074 -0.55414873 -0.21211867 0.1355112 0.16518639 -0.34998366 -0.28123263 0.019689944 0.14882924 -0.16036469 0.11154833 -0.45162293 0.36311847 0.9894114 -0.5192577 0.32115096 -0.74911034 -0.08545761 0.084445626 -1.0800635 0.28971314
11342 0.49101648 0.21541807 0.23080225 0.030277273 -0.3821272 0.08363868 -0.3262907 -0.39349473 -0.03565947 -0.12166542 0.5567932 -0.4197064 -0.24724698 0.4817961 -0.020099793 0.35994226 -0.5403198 -0.53969276 -0.15109867 -0.6306707 0.07443514 0.4101664 0.70846 0.21186796 0.66713417 -0.014665111 0.34194544 0.3003898 0.04835229 -0.2939779 -0.22445823 -0.4139267 0.36649424 -0.33754322 -0.8482665 0.4959374 -0.11796839 0.73079705 -0.7600125 0.9540038 0.32663548 0.011834833 0.2941415 -0.24270113 -0.11206903 -0.5882798 -0.42677096 0.87410265 -0.16054837 -0.10715992 0.047069408 -0.2348786 0.43172976 -0.07045212 -0.76760393 -0.005961679 -0.32169032 -0.100106195 -0.4693548 -0.62151855 -0.21021971 0.18846121 -1.0637819 -0.59218025
85452 0.5964353 -0.2921045 -0.27486432 0.8538511 -0.1336963 0.28139096 -0.38452345 0.66196 0.090297736 -0.377033 -0.23155242 -0.012258497 0.6350305 1.0786327 0.1701073 0.77733177 -0.5261525 -0.07703062 0.5772268 -0.2686003 0.224166 0.6632233 0.40457174 -0.21846505 -0.045048222 0.27724376 0.020694537 -0.12608266 0.17143506 0.23674423 -0.29346064 -0.5565703 0.17663218 -0.34549558 -0.3912286 -0.044689346 -0.62643033 0.06033992 -0.21064498 0.032656416 -0.15636028 -0.43356505 -0.35765862 0.15584107 0.37267742 0.2723415 -0.5326527 -0.05314767 -0.15644129 -0.2975025 -0.9185756 0.1742686 -0.21473578 -0.60476285 -0.5325936 -0.2462348 0.31835315 0.28742576 -0.43861842 0.08842842 -0.12436156 -0.089973174 0.019117575 -0.28158575
1136814 -0.38672718 0.14987233 0.29454237 0.5337456 0.30627707 0.11214665 0.23028216 -0.7393318 0.5567479 -0.009693592 0.12301648 -0.53201455 0.014250438 0.13735428 0.04314876 0.2613629 0.36367136 -0.006783624 0.60942817 -0.29364115 -0.06364159 0.14002465 -0.30763075 -0.4961894 -0.48153746 0.096161276 -0.25475237 -0.25808236 0.31996375 0.01461 -0.14366335 0.19842184 0.40761673 -0.108156785 -0.05420799 -0.37049624 0.38689288 -0.15878612 -0.29701415 -0.21045028 0.35232285 0.05915455 0.16375908 0.034208037 -0.14922105 -0.058813978 -0.07255552 0.6209616 0.14203484 -0.1578896 -0.08917356 0.659124 -0.37534794 -0.35287765 -0.54961807 0.328979 0.2543184 -0.14374503 -0.2226939 0.24026974 0.012332819 -0.0006779454 -0.011142626 -0.13680348
36162 -0.30601853 -0.8792815 0.086409375 0.30236658 -0.48499382 0.2498648 0.663164 -0.0824959 0.38832042 -0.47220007 0.08347263 -0.04709527 0.7593368 0.28290322 0.047957506 -0.35679156 0.07870016 -0.11344859 1.3214042 0.17293008 -0.7040644 0.25647622 0.75106424 -0.1454043 1.001575 0.35979205 0.89105016 -0.49129286 0.8014376 -0.39482912 -0.20781356 -0.7169831 0.22320685 -0.38081276 0.58181 0.38447118 -0.64103204 -0.08141358 -0.20873116 -0.7997237 -0.18220574 -0.13987024 -0.19477674 0.10491184 -0.5260679 0.46541193 -0.66927874 0.26889786 -1.41191 0.05753058 -0.93543047 1.0554646 -1.1702007 -0.07973348 -0.593279 0.66713244 -0.23244351 0.76965606 -1.3518922 -0.7540298 -0.77106524 0.856271 -0.72104025 0.13187458
3932 0.1785274 -0.24067995 -0.31237015 0.17086479 0.1682091 -0.7982436 0.17474844 -0.45369264 -0.4309536 0.16618638 0.029408542 -0.023896057 0.14055276 0.2284096 -0.04471161 -0.3461482 0.13134563 0.6040314 -0.12458145 -0.24364541 -0.16964887 0.110817194 0.23804648 0.5864613 0.25860414 0.2990492 -0.10494342 -0.037271883 0.8465058 -0.22418137 -0.85027516 -0.3347858 0.9370318 -0.30698672 0.69877684 0.19374707 0.40109122 0.11331819 -0.15288223 -0.03335446 -0.33747563 0.012271969 -0.85287935 0.3418226 0.15651494 0.083277024 -0.19959188 0.049404297 -0.28425005 -0.17090671 -0.037972648 0.33522227 0.1830154 0.14616731 -0.69131744 0.68086094 -0.5075192 0.23606156 0.13105254 0.0007828986 -0.238237 0.08727948 -0.83151525 -0.075581856
57773 -0.20261005 0.08563388 -0.1368985 0.18083991 -0.4321519 -0.03619312 -0.27698714 -0.04013757 0.17405045 0.1396584 -0.4710724 -0.18963706 0.36705586 0.30273184 -0.54813117 0.029721463 -0.67647934 -0.5299303 0.3709333 -0.43097857 -0.21505699 0.27581373 0.581015 -0.2524635 0.34619814 0.18024734 0.116565 0.33022013 0.119590715 0.05669826 -0.041459717 -0.4366887 -0.045270234 0.20211773 0.33336353 -0.52976996 -0.11214086 -0.09300335 -0.9085349 -0.36592442 0.7149805 0.37470067 0.51353407 -0.39889726 0.18467641 0.3423665 -0.48440367 -0.03492698 -0.40213948 -0.5019298 -0.005309596 0.3228827 -0.5340339 0.027796282 0.019431207 -0.044822186 -0.94511366 0.2137168 0.049657032 0.24149773 0.13065822 0.18486165 -0.20006126 -0.615053
335042 0.635653 -0.57117975 0.6757689 0.5292462 0.22064228 -0.4160609 -0.2544288 -0.06008825 -0.6792871 -0.80290425 -0.046824098 -0.15444252 0.3758534 0.0054435534 -0.16869634 -0.25068995 -0.58076483 0.42233297 0.2636733 0.07082967 -0.11614835 0.22871213 0.12377239 0.5046501 -0.103734076 0.22139151 0.18203078 -0.45255217 0.0101180235 -0.63003135 -0.830462 -0.1216392 0.24782586 -0.045936756 -0.70776254 -0.24368669 0.39907813 0.04353471 -1.070308 -0.16887034 0.8765101 -0.22770554 0.072385095 0.21069518 0.113669336 -0.15485048 0.7934811 0.21642622 -0.3711251 0.15660152 0.030721582 0.9420333 -0.5158102 -0.5774059 0.016108878 0.402615 0.36485544 0.042187277 0.3243913 -0.5571117 -0.13906738 0.15409878 -0.730504 -0.8409381
1125402 0.13427863 0.021809017 0.0680906 0.34216967 0.2040909 -0.061844654 -0.17568333 -0.17681345 -0.10738832 -0.046043992 -0.28553694 -0.63880014 0.28546727 -0.025037676 -0.15743953 0.13364078 0.115136534 -0.22364502 -0.09796819 -0.17801152 0.15309075 0.2798012 -0.16203487 0.0059064487 -0.10358083 0.011141663 0.0385365 0.14132608 -0.1291488 0.21431117 -0.028943751 0.011636196 0.57986176 0.34626862 0.13384308 0.083966024 -0.39134824 -0.105846494 -0.34592095 -0.15911537 0.19669805 -0.32407933 -0.01673973 0.22136179 -0.3468124 -0.31388104 0.16335501 -0.27167326 -0.10641169 0.3360791 0.21335289 -0.19565018 -0.14781772 -0.5490681 0.26266617 0.30244118 -0.07731184 -0.14268437 -0.3036521 -0.2500211 -0.49007595 -0.17917676 0.280384 -0.32079995
211906 0.06551867 -0.25097817 0.012477088 0.20361692 0.07172576 0.27968776 0.0301319 -0.24317758 -0.13139763 -0.30317953 -0.022245746 -0.13318413 0.20663929 -0.31503955 -0.26063818 0.22713 -0.23933613 0.23091586 0.12626968 -0.2032213 -0.14336945 -0.016873516 -0.04320253 0.22940002 -0.15399165 0.020995198 -0.06271345 -0.06439358 0.32768488 0.27325737 0.011209896 0.040391512 -0.11980995 -0.13360797 0.14783558 0.16383637 0.05671678 -0.05651228 0.24700673 -0.07883421 -0.19772476 -0.112509154 -0.07453974 -0.14567922 0.22225262 -0.13627777 -0.19932696 0.06745904 -0.19451204 -0.053578842 -0.02403983 -0.031195978 -0.10140014 0.300962 0.13231272 -0.10684121 -0.2710841 -0.058345847 -0.15829937 0.031203194 -0.41220516 0.24337508 -0.1953181 0.019765517
910 0.522654 0.26876453 -1.0697418 0.71288234 0.19711426 -0.17374887 -0.20679289 -0.024632435 -1.2305099 -0.2090065 2.1204143 -0.8178184 0.10973638 -1.4715464 -0.50911224 0.6413504 -0.36075205 0.26093027 1.7149603 -1.7658145 0.46007207 0.8026691 0.64253557 0.29669622 -0.22580011 0.40230414 -0.5495235 0.32809094 -0.004147045 0.33654198 -0.40870896 -0.51355374 -1.2396498 -2.680734 0.47841716 -2.5171018 0.7015309 0.19629572 -1.4229715 1.1582335 1.367869 -1.2426633 0.30911812 -0.48543832 -1.4062744 0.33077878 -1.1790088 1.8269283 -0.5388412 -0.37520325 0.33471936 0.6174233 -1.5214003 -1.6635925 0.023791688 0.22236454 -1.4211931 0.85409796 -0.46443173 -1.3092623 0.088486336 1.095024 -0.8935939 0.330032
1132157 0.77055216 0.25318417 0.58607805 0.4160748 -0.19932127 0.13621503 0.012132757 0.45002335 -0.2271381 0.29839927 -0.05165327 0.09717412 0.030656604 -0.22042723 -0.11479985 0.05288935 0.22590312 -0.11755164 -0.2732028 -0.4155403 -0.74283326 0.23589255 0.50133234 -0.42374063 -0.034671504 0.16721039 -0.15557332 -0.28211486 0.30330145 -0.1790953 -0.22600259 0.30988243 0.14413399 -0.18630347 0.3113432 -0.12771662 -0.015482171 0.034595918 0.017667025 -0.31728625 0.118202105 -0.155632 -0.020879408 0.053099994 0.20245081 -0.41784278 -0.25381032 0.14126645 -0.05945667 -0.08830802 -0.030660471 -0.21877912 -0.044488 -0.06956761 0.16575862 -0.2870612 -0.18084826 -0.53889227 -0.14419246 0.20522703 -0.35169354 0.7028521 -0.15830569 -0.7521135
195792 -0.006286474 0.34910184 0.14898033 0.20778976 0.35414174 -0.26245692 -0.20581254 -0.0041492144 -0.29021597 -0.04655979 0.057707127 0.102044694 0.038502514 0.2797569 0.20950887 0.25414968 -0.63288057 0.19969651 -0.51693314 -0.97718084 -0.6131913 -0.063354194 -0.2240193 -0.23832443 -1.3816937 -0.5213872 0.6287594 0.14387256 0.40938646 0.39685154 0.7606219 -0.95260686 0.33366227 -0.474404 -0.31740528 -0.4803936 -0.9427501 0.60469526 -0.39053154 -0.6589359 -0.3939098 -0.04954668 0.48170367 0.052633733 -0.116667 0.29671514 -0.0075564934 0.1712265 -0.30729213 -0.29480127 0.74234957 0.7932411 -0.7137935 -0.05724395 -0.50778145 0.67961514 -0.17260349 -0.62390566 -0.6943597 0.27898017 -1.5500513 1.195231 -1.1973355 -1.3386539
235678 -0.19667958 -0.05745147 -0.13423996 0.1186296 -0.48722476 -0.1484955 -0.36241958 -0.04368837 0.123786874 0.10567994 -0.38606605 -0.18604322 0.30288664 0.44867596 -0.6427461 0.06336146 -0.7057012 -0.540224 0.6053669 -0.54763824 -0.23219025 0.23730068 0.66534877 -0.20081696 0.35836664 0.14398311 0.22510985 0.19634299 -0.014170624 0.14480117 -0.04365345 -0.50994307 -0.13651207 0.1547778 0.27734444 -0.6359618 -0.040469978 -0.16828017 -0.8945041 -0.45807573 0.5628947 0.41852304 0.56338525 -0.50936395 0.1559262 0.48887414 -0.57160056 -0.004780138 -0.5133539 -0.6710063 0.06929465 0.33500248 -0.5357305 -0.026439114 0.011358804 -0.07883595 -0.8806367 0.099632695 0.03320162 0.1741219 0.19967611 0.3016413 -0.2720081 -0.79311925
593859 0.11721977 0.058424234 -0.39463738 0.51966614 0.1864637 -0.046846077 0.6693387 -0.8839386 0.7338881 -0.25896737 0.8553288 -0.21762562 0.4815581 0.014533391 0.002340742 -0.06996337 0.50911003 0.50290453 0.83432275 -0.39713675 0.06086678 -0.30011666 -0.25506765 0.18442735 0.12245485 0.1549471 -0.015915675 -0.33842564 -0.18728922 0.6551212 -0.47262228 0.33480614 0.5781953 -0.2971928 -0.07653277 -0.15802678 -0.29420975 0.17960705 -0.44775423 -0.32630324 0.5082618 0.3118612 -0.16486341 0.26547292 -0.14218338 0.19031067 -0.167448 0.20792937 -0.38526976 0.17697252 -0.3831972 0.8238218 -0.49487087 -0.17686851 -0.06863853 0.8681051 0.14617625 0.20416614 0.008693122 0.30318692 0.42010704 0.69167733 -0.22323255 -0.48410466
3097 -0.4555557 0.50931734 -0.2173518 0.47540534 -0.84175116 -0.79876316 -0.21910574 -0.1515633 -0.63844466 0.08168366 -0.102227196 0.3649598 -0.20877735 -0.057585314 0.29334474 0.58140665 0.022159448 1.2465738 0.10281565 -1.091718 -0.16608651 -0.18526956 0.70153517 -0.03144093 -0.8485749 0.4261741 0.6221876 0.4863784 -0.035285305 -0.2672476 0.23422422 -0.28140485 1.0177567 -0.3385584 0.6890267 -0.12849724 -0.010786987 0.12907194 -0.20885469 0.18009357 0.56722647 0.3901615 0.17641492 0.30704772 -0.06098771 -0.35325494 -0.16553839 0.85221946 -1.0982459 -0.31515014 -0.5390801 0.3555511 -0.5835677 0.060808364 -0.4172377 0.46573436 -1.0502483 -0.5932681 -0.3273448 -0.46239984 -0.58129627 -0.22040644 -0.45127237 -0.45344043
1104787 0.33111238 -0.14623955 -0.086961485 0.051647913 -0.66637635 -0.0694989 -0.0347083 0.09722101 0.24140641 -0.09958595 0.2924564 0.30106556 0.2386531 0.24514909 0.2512149 -0.38977152 -0.3292722 0.14181773 0.41130558 -0.28773847 -0.28927377 0.17621909 -0.08618498 -0.15067104 -0.13679276 0.009223575 -0.3032867 -0.4264322 0.20530453 0.23813581 -0.14293484 0.12589899 0.14959513 0.27791065 0.038921725 -0.23867533 0.060275204 0.09500067 -0.3305594 -0.28904307 0.69094485 -0.5046395 -0.364436 0.074644916 -0.23426367 -0.17664675 0.009116885 0.14108808 -0.18740141 0.12582031 -0.30670717 -0.17162004 -0.48526946 0.29433915 -0.007802706 0.24336211 0.1271453 0.24325779 0.1143199 -0.7272574 -0.6844621 0.65096617 -0.00060415897 -0.64653724
90470 0.096215315 -0.2191966 -0.37719697 0.3289957 0.009029852 -0.08164756 -0.10427278 0.23797204 -0.08812905 -0.39209625 0.36367726 0.002038133 -0.006915348 0.04784953 -0.19104815 -0.50992274 0.079510204 0.092185564 0.13237162 0.006873296 -0.47092625 -0.13028775 0.21546453 -0.2924411 -0.64309865 0.6254168 -0.19290595 -1.0109411 -0.33294618 -0.3063731 -0.21930727 -0.20436233 0.30562216 -0.52377087 0.2557341 -0.26121736 0.11393242 0.46586964 0.18354055 0.35043773 -0.14494532 -0.29028818 -0.91475654 0.15835746 -0.18579644 0.08064862 -0.28540996 0.4465734 -0.41125143 0.44726044 0.30320352 0.3938485 -0.47292373 -0.59865725 0.07885704 0.3226934 -0.8362417 -0.35859075 -0.05305156 0.0450997 -0.6122929 -0.3485225 -0.23949797 -0.6561261
1213 0.12012974 -0.04250793 -0.038993385 0.57362133 0.12293124 0.63130677 -0.21216086 0.18513101 -0.09361018 -0.3109266 -0.09988781 -0.45764294 0.11212094 -0.28466275 0.051734317 -0.08693578 -0.45588997 0.48430687 0.071686074 -0.8971544 -0.0123091815 -0.25433567 0.27798402 -0.19900931 0.12704681 0.5691425 0.24497427 -0.18812983 -0.020296408 -0.6620719 0.08394213 0.0019442711 0.76809907 0.5340766 -0.39497858 -0.43954033 0.2974485 1.2891207 -0.31508625 -0.723446 0.6676205 -0.0073262425 -0.716864 -0.25235766 0.21522191 -0.15437767 -0.1470574 -0.24143569 -0.06575892 -0.76709056 0.13896734 0.21169971 -0.80507684 0.2476046 0.03424265 -0.19015203 0.40840146 0.2057813 -0.07248263 0.19810694 -0.77420694 0.1850562 -0.41636577 -0.12055009
387795 0.11538944 0.045872297 0.049665183 0.4754846 0.09586285 -0.050918784 0.08195599 -1.053112 0.88149863 -0.59964615 0.04247619 -0.51392066 0.21054278 0.29017708 -0.08621724 0.22501412 0.64887273 0.31183502 0.5839404 -0.106714815 0.029479658 0.34668013 0.0955279 0.105917685 0.12733735 -0.15723735 0.12596123 -0.45263213 0.51435447 0.21070454 -0.12326568 -0.0039467644 0.5790424 -0.31899294 0.04664701 -0.6528618 -0.25435677 0.18039548 0.054317936 -0.46612188 0.3062735 0.054779716 0.1916768 0.43893647 -0.53768206 0.20766613 0.05413842 0.5283139 -0.4202311 -0.05746535 -0.15867782 0.30262664 -0.2743688 -0.3593519 -0.48869228 0.09571366 0.607229 -0.3092337 -0.11917326 0.08392288 0.33182022 0.1089235 -0.26630312 -0.14259964
696345 0.4592808 0.052155096 0.2239049 -0.19222349 0.14955734 -0.3596839 0.4500655 0.19092114 0.3213305 -0.49893194 -0.028058713 -0.33786112 -0.7483354 0.030365288 -0.49123925 0.23860471 0.13441794 -0.5404725 0.4630568 -0.94479483 -0.73241436 -0.3015369 0.30516136 -0.12665908 0.13432956 -0.18046941 -0.22415563 -0.73814917 0.9031784 0.153339 -0.57410425 0.3455587 0.48543516 -1.3857422 0.18348844 0.42011425 -0.29344785 -0.22858755 -0.50991756 0.107103676 0.17835604 -0.15205084 -0.19339044 -0.19096744 -0.1918246 -0.013122831 -0.34702525 -0.22694694 -0.5023291 -0.29976436 -0.0012186129 0.25050586 -0.4897537 0.25046486 -0.24203984 0.684833 0.17379856 0.15070488 -0.5652528 -0.60822487 -0.10442739 0.4888791 -0.5435191 -0.17167185
162080 0.17742173 -0.3631942 0.6017811 -0.3522674 -0.6029963 0.35165247 -0.66804045 -0.47618866 -0.45118728 -0.22433941 0.17298833 -0.6951465 0.13084985 0.35487744 0.15246005 0.14178544 0.40676883 0.25094894 -0.22855538 -0.7905674 -0.6159088 0.24924947 0.68902093 0.09587812 -0.5619841 -0.26605853 0.32438964 0.03207169 0.4089675 0.3174206 -0.29670733 -0.9560871 0.2934856 -0.41090724 0.37726408 0.2999393 -0.5231347 0.5345671 -0.85268766 -0.31871513 0.2737582 -0.30845207 -0.93215364 -0.43627924 -0.34125096 -0.008036209 0.32140014 0.8075311 -0.06423303 -0.18461715 0.59582317 0.94601077 -0.44312704 -0.65884423 -0.040588964 -0.26890042 -1.1689047 0.43909574 -0.8517507 -0.44778946 -0.4189989 -0.25613496 0.31842873 -0.7574863
1112665 -0.04181044 0.17574222 -0.092309855 -0.19441894 0.44612014 -0.29666153 0.033739388 -0.01908891 0.2107075 -0.5275044 0.2111163 0.56619066 0.56133723 0.16155183 0.18427496 -0.21334139 -0.11016883 -0.09660889 0.11037728 -0.36837825 0.23006923 0.004188471 0.4523623 0.026427062 0.0019464561 -0.032379817 0.28358653 -0.4779091 0.046659634 0.19177899 -0.2336409 -0.3490493 -0.05723741 -0.21848643 -0.38403615 0.069562055 -0.5146536 -0.17729436 -0.48849466 0.05354098 -0.1642579 0.06615583 0.35507303 0.0863656 -0.16045941 -0.42029554 0.16297124 0.36197093 -0.33111355 0.12537618 -0.37028912 0.19690996 -0.6604189 -0.73891574 -0.16210276 0.009107518 -0.0923996 -0.062914185 0.33768967 -0.5722127 -0.15511532 0.53764015 -0.12854218 0.03750869
265203 0.12200944 0.03154673 0.24867025 0.49592617 0.07607174 0.21369079 -0.25875607 -0.8409881 0.62143373 0.35981756 0.3642191 -0.42292646 -0.046450514 0.44589242 -0.0019159166 0.108049065 0.14165221 -0.027064601 0.42579836 -0.3342762 -0.004725845 0.2763082 0.0016715095 0.053818382 -0.55125535 0.2565189 -0.092539474 -0.32629582 0.27273175 0.37004927 -0.11650613 0.00071271276 0.387018 -0.5249394 -0.06799183 -0.71182483 0.2635291 0.045440897 0.020852428 -0.32741547 -0.2331752 -0.21635762 -0.023161199 -0.16000445 -0.06587696 0.22496785 -0.10569143 0.18469857 -0.0944633 0.0062406566 0.24453807 0.59413594 -0.29498243 0.2543289 -0.587054 0.46159115 0.46585792 -0.4218109 -0.63069403 0.41180706 0.21413442 0.374246 -0.12881652 -0.3473973
503877 -1.0765139 -0.36510956 0.16226058 -0.168121 -0.11310984 0.39219463 0.21233876 -0.31772408 0.0018443273 0.840582 0.032134686 -0.12281724 -0.18598899 0.32858968 0.4325994 -0.11095391 -0.31436038 -0.24094833 0.36968768 -1.2436891 -0.72790766 0.12553367 0.769923 -0.3594148 -0.73934114 -0.2669725 0.39125952 -0.5147101 0.10997868 0.418231 0.5118302 -0.64936984 1.0211955 0.2867259 0.64976305 0.051804602 -0.11333092 0.05571994 -0.99057746 -0.023943117 -0.2382644 0.07792402 -0.3072858 0.27458358 -0.020941213 0.34881014 0.30750492 0.24313907 -0.5596347 -0.19803059 -0.14245589 0.43592146 -0.22578356 -0.39831406 -0.50920516 0.9291219 0.43052858 0.3059087 -0.47513625 -0.7026952 0.30043292 -0.17742068 -0.52642137 -0.47802025
278403 0.060709573 0.3136004 0.01670957 0.42621168 -0.23497033 -0.15952484 -0.25612316 -0.04361454 -0.32454598 -0.05638682 0.69385695 0.18348685 -0.099108756 -0.4060119 0.2654258 -0.084625475 -0.22500898 -0.0060522645 -0.08612776 -0.03381659 -0.4434435 -0.3241485 -0.22157195 0.09781511 -0.0015737878 0.080744885 0.17361374 0.09251012 0.15163302 -0.096751645 0.27079347 -0.02455424 0.2916269 0.27220738 0.29792014 0.35799888 0.20663579 -0.16164406 -0.007707416 -0.2706406 0.49340746 0.2227755 -0.21816482 0.15308096 -0.17913748 -0.070551224 0.027034456 0.08789064 0.26716748 -0.2704876 -0.39909422 0.43725398 -0.07975749 -0.8028915 -0.2124173 0.49758443 -0.030396285 -0.35490024 -0.32280427 -0.09503626 0.064628616 0.14563827 -0.3333366 -0.23948054
1152277 -0.11101987 -0.66411227 0.07152962 0.0822677 0.4976306 -0.23528066 0.56872344 -0.15016538 -0.21711226 0.601974 -0.34723392 0.050177235 0.4337943 -0.47287348 -0.11470558 0.17978534 -0.17760512 0.017134035 0.44690377 -0.3613707 0.1873453 -0.35274094 0.118556365 -0.38908738 -0.18223853 0.44440776 -0.06664648 -0.17341417 0.08322998 -0.05394776 -0.19605061 -0.25601357 -0.016056515 -0.60522896 -0.3050624 -0.010892659 -0.36729977 0.20289594 -0.7625983 -0.26228416 0.3410602 -0.4531044 0.33021724 0.19051906 0.067497715 -0.20222296 0.2637809 0.23318152 0.09983311 -0.01268652 -0.26175582 0.5908948 0.15889364 -0.38153282 -0.42997184 0.09409029 0.0047930935 0.28096402 -0.5896884 -0.60684955 0.60682607 0.40614077 -0.4120671 -0.6432116
643221 -0.6074826 -0.66750926 0.041840248 0.06648882 0.6691423 -0.5038125 0.12952621 -0.6094707 -0.21569538 1.279741 0.4034974 -0.47586823 -1.2326765 -0.06374458 -0.7408246 0.63805526 -0.9979576 0.73817444 1.4649193 -0.6155267 -0.86953014 0.10767357 1.2142131 0.4339942 0.38394895 0.5634747 0.95205516 -0.5351016 0.22859661 0.8489545 -0.26699528 0.19015422 1.5724524 -0.80243826 0.38885623 -0.45443773 -0.38488656 0.111331865 -0.39454567 -0.82226425 0.26352942 0.42028102 -0.6458532 0.24310572 0.04711972 -0.5637993 -0.288753 0.12867191 0.1934137 -0.16123857 0.44832987 -0.39795068 -0.9441154 -1.2081361 -0.8160888 -0.021790545 -0.19887495 0.2073956 0.44751397 -0.32196635 -0.4026024 0.61574864 -0.29916248 -0.43980426
8079 0.50339687 -0.3996952 0.87800884 0.7253687 -0.40486205 0.12169757 -0.6424112 -0.19138168 0.63836896 0.23768176 0.29886332 -0.34088892 0.3420002 -0.15980197 0.043112993 0.4090633 -0.66449684 0.3192819 0.80775464 -1.377572 0.45508817 -0.026535057 1.0553766 0.34332794 0.32792842 -0.17635866 0.16820537 -0.28225055 -0.22250102 -0.47320497 -0.27980846 -0.83585274 0.31483617 -0.47029963 0.0773617 0.24137378 -0.14686757 -0.32980514 -0.9140281 -0.51184183 0.3666911 0.3431009 -0.46125188 0.07921665 0.12500513 -0.59188354 -0.10859864 1.0610274 0.68651754 0.59255856 0.70373875 0.113231204 0.23200639 0.22744437 1.2498683 -0.2760551 0.14615221 -0.6297725 -0.8707005 -0.39933807 -0.8527239 0.8117645 -1.2689197 -0.48870832
1126044 0.19947796 0.06066402 -0.06352025 0.4699263 -0.050234023 -0.024356363 0.0030287702 -0.14441262 0.20872083 0.13817081 0.8803 0.42707074 0.13333327 0.37161714 -0.14147413 -0.4992778 -0.683192 0.5794411 0.27409866 -0.05569961 -0.012548847 0.27289954 -0.19548827 0.15154864 -0.011852472 -0.0965851 -0.6656365 -0.2949974 0.21006392 -0.56851053 0.2606753 -0.24948956 0.27009508 0.0071239993 0.49627107 -0.20387395 -0.37975118 0.04528235 -0.34905097 -0.24756783 0.86491877 -0.8296261 0.43161523 -0.50824684 -0.31731102 0.040895946 -0.53865105 0.14980884 0.12682132 0.8677524 -0.2740892 0.14476599 -0.5225253 -0.55574507 0.7973925 0.85806715 -0.052100748 0.5400839 -0.3214316 -0.34154257 -0.087868705 0.6898982 0.13793406 -0.26482505
1107355 0.46172464 0.04247685 -0.3288442 0.0418483 -0.21462156 -0.16207188 -0.2641955 -0.8301975 -0.04007541 -0.015380476 -0.32658607 0.045440823 -0.0049776137 0.40779626 0.10268318 -0.094797574 0.06089827 0.051869832 -0.09349734 -0.49922284 0.2641092 0.26781338 0.5736098 0.4156155 -0.1214026 -0.1556353 0.072896704 -0.4297101 0.25584683 0.050947726 -0.27768672 -0.26944128 0.55742896 -0.5130682 -0.36477187 -0.7804687 -0.77757215 0.35104388 0.29588273 -0.70905566 -0.08209822 -0.042718068 -0.056386374 -0.21430066 -0.60050523 0.36454922 -0.071381815 0.015873536 0.019547645 -0.12829737 -0.52619314 0.18813644 -0.01790234 -0.50540024 -0.4936875 0.01947718 0.26429442 -0.10647577 -0.57037395 -0.22720231 0.42014155 0.6746502 -0.28234443 -0.12963425
18815 -0.2947577 -0.264131 -0.5594534 0.39994505 0.008082556 0.16194758 0.38821802 -0.043736402 -0.3358642 -0.45029017 0.18770677 -0.5128005 0.5254352 0.29158384 -0.27449015 -0.2000763 -0.35014218 0.049874704 0.28774807 -0.7332591 -0.24741565 0.14197132 -0.021035492 0.33191 0.18319051 0.25518656 0.36166292 -0.2406564 0.53642994 -0.4007271 -0.4019621 -0.29747266 -0.06958707 -0.017298797 0.16461678 0.22715257 0.246401 -0.086790495 -0.37071273 0.30858126 -0.22923553 0.011903711 -0.47235614 0.061367676 -0.035120383 -0.49545968 0.18874969 -0.1715364 0.09478252 -0.07694487 -0.8690464 -0.10602268 -0.26009032 -0.18639046 -0.59551173 0.6293081 -0.59760857 0.31942078 -0.23840831 0.58131593 -0.20818192 0.24786694 0.30777776 -0.26368883
1109208 -0.074328884 0.2525362 0.43941036 0.22382636 0.18397114 0.09531458 -0.0833008 -0.3561906 0.18315752 -0.037667204 0.20223148 0.19551197 0.109691694 0.08983375 0.042552914 0.18037924 0.11340772 -0.0387855 0.38799924 -0.030811774 -0.19244762 -0.020933086 -0.10627914 -0.29554686 -0.24801281 -0.17988911 -0.21434021 0.0035408156 0.0667992 0.24413227 -0.14672175 -0.036364224 0.28940475 0.093502775 0.18081547 -0.32159814 0.053469326 -0.28847653 -0.12231206 0.13548823 -0.034162015 0.28793874 0.21587524 0.14110267 -0.07871684 0.21699338 -0.13299643 0.49302742 -0.00037289978 0.021430679 -0.12398243 0.35974142 -0.50946957 0.32293415 -0.38965046 0.13873486 0.28438818 0.00033141996 -0.11325689 0.64507264 -0.08931005 -0.36760533 0.016854638 0.06913586
28640 0.036856126 0.45178434 -0.011474533 0.44045475 0.18507518 0.27746028 -0.0034331302 -0.1059891 -0.30852136 -0.24181306 -0.07102106 -0.38449702 -0.43078923 0.5708706 0.5732699 0.03449676 -0.02756719 -0.27670166 -0.14433919 -0.57122606 -0.11903743 0.18603817 -0.1574533 -0.11455255 -0.24912056 0.26228297 0.21443988 -0.39299905 0.14199422 -0.45604402 -0.11733551 -0.024449086 -0.24031849 -0.24189097 0.7599032 -0.15367147 -0.37377045 0.5837089 -0.6293833 -0.022325084 0.43572834 -0.39939052 0.43479672 0.22229217 0.3661465 -0.8724832 -0.09275574 0.022073647 -0.24114782 0.14729235 0.53294563 -0.05123612 0.15997988 -0.52851665 -0.19416776 0.42426828 -0.74114907 0.056866996 -0.48084533 0.08905149 -0.4717182 -0.260223 -0.45099115 -0.64817953
1106172 0.7936168 0.15162477 -0.20501818 0.07601868 0.21571527 -0.20921701 0.3056325 -0.08775208 0.02367406 0.34120265 -0.21387471 -0.56935215 -1.0885351 0.26357368 -0.3093296 -0.2502739 -0.082540765 0.09101419 -0.17957778 -0.48454997 0.12730514 -0.042769056 0.87299365 0.1407585 -0.28358367 0.1358294 0.00055694336 -0.0068070344 -0.17440587 0.34887952 -0.44310248 -0.658153 -0.14760432 -0.695529 -0.057109933 -0.28287697 -0.045511756 0.64295894 0.15619425 -0.7955437 -0.07936721 -0.09937626 0.3031785 0.52409226 -0.21624327 -0.6035602 -0.4871056 0.30468255 -0.28196004 -0.11114664 -0.073446855 -0.10385829 -0.10970719 -0.0016950348 -0.25556254 0.09787244 -0.45028695 -0.118915595 -0.72371274 -0.10304211 -0.08870177 0.09262497 -0.035058014 -0.46641046
103537 -0.19808269 -0.35533848 -0.22632164 0.6778081 0.510771 0.043444145 -0.06891505 0.06068 -0.19475001 0.0890738 0.20606834 -0.06951801 -0.47682366 0.46268436 -0.48345444 -0.33428317 -0.35941404 -0.12093335 0.30571565 0.5764151 -0.043581273 -0.40041956 0.72246933 -0.41008976 -0.30283248 0.060705177 0.04494914 -0.047501504 -0.25539625 0.06818235 -0.36072153 -0.44804385 0.7682589 0.615532 -0.047275472 -0.33688506 -0.5118145 -0.19749439 -0.36919528 0.17310986 -0.3772998 -0.109135695 0.31494063 0.099287085 -0.28735182 0.06779687 -0.28207576 0.14763373 0.19501786 0.5600227 -0.4129023 0.17616838 -0.18947747 -0.5566363 -0.24192995 -0.013621547 -0.30865636 0.07377749 0.20318626 -0.35654733 -0.21724017 0.21112938 -0.4910335 -0.74577326
254923 0.24571642 0.34527916 -0.021633472 1.1917061 0.04956645 0.265556 -0.1159215 -0.48023745 0.8625448 -0.11691684 -0.15786888 -0.22884133 0.7378058 0.66358215 -0.102887556 0.2911189 0.35855967 0.41462338 0.784439 0.03435571 -0.029546307 0.7411996 0.16230556 -0.2699496 -0.098412074 0.20103486 -0.17657359 -0.2669543 0.39153355 0.23821007 -0.40969628 0.09699364 0.09688782 -0.45783874 -0.44822967 -0.037635367 -0.19590649 0.053809572 -0.111637846 -0.14453925 0.17872502 -0.0008583914 -0.07456999 0.3161197 -0.17834267 0.34394893 -0.028425299 0.42068073 -0.61683655 0.14848019 -0.3031219 0.40401134 -0.22522762 -0.47386357 -0.801671 -0.20111717 0.16959089 -0.10195643 -0.05089448 0.14667237 -0.0069136517 0.34207168 0.6406471 -0.058549717
81714 -0.3273059 0.5015199 0.28105626 0.54319865 0.28525066 0.8688709 0.21859263 -0.5623285 0.26464874 0.48365277 0.46754235 0.0025742382 0.016295249 -0.024586257 -0.077240095 0.46899703 0.20482068 0.10556692 0.9066885 -0.6204185 -0.16716954 -0.050308697 -0.25369158 -0.4079541 -0.5401064 0.35829696 0.12477683 0.0035661692 0.059775613 0.45237654 -0.21620992 -0.29866728 0.66066426 -0.26899832 0.015991345 -0.2956822 0.27976003 -0.58380693 -0.66289914 -0.07220177 -0.080123715 -0.24008203 0.3486344 0.092101544 0.20866437 -0.067658484 -0.84501004 0.63959503 -0.06686221 0.44137922 0.06925242 0.8514526 -0.43121922 0.20136453 -0.7224959 0.6756634 0.50616306 0.28665066 -0.611994 0.5782712 0.263297 -0.13761775 -0.5156515 -0.56029314
1104999 0.06096276 -0.0006463454 0.26583648 0.51808906 -0.31380555 -0.1338312 -0.10486424 -0.8825015 0.9625156 0.051548947 0.035361014 -0.046105612 0.09213874 0.32837778 -0.55290455 0.038568012 0.4276257 -0.005724815 0.69083065 -0.24231246 0.28176773 0.11377937 0.3420281 0.38033375 0.7507045 0.14975117 -0.10847595 -0.8145947 0.8927819 -0.16715963 0.038349163 0.20078409 0.26835844 -0.36113188 0.3011689 -0.9736845 -0.29405996 0.1264467 -0.005454291 -0.6447937 0.39502677 0.12356207 -0.5708078 0.5606689 -0.14485599 -0.20698759 -0.10301022 0.28310493 -0.14570262 0.25492108 -0.2609306 0.75421154 -0.1008501 -0.33340147 -0.6054969 0.022169536 -0.28978533 -0.260798 -0.43024224 -0.15515818 0.49344936 0.25227582 -0.2423051 -0.22637752
574009 -0.34966105 0.31289288 0.24804519 0.45251977 -0.06042887 0.39190346 -0.264727 -0.44045106 0.3897569 0.0003902979 0.16710201 -0.111356765 0.07958147 0.22376165 0.24822882 -0.032344654 0.034128703 0.123693705 0.4337432 -0.4098471 -0.0968939 0.08596881 -0.0118979495 -0.349829 -0.6586131 0.16753875 -0.23938055 0.032731652 0.40415594 -0.08549396 -0.15291367 -0.18805763 0.73014224 -0.075832784 0.052185092 -0.463319 0.63470167 -0.21507074 -0.26532578 0.04052176 0.1812143 0.08288237 -0.021004224 -0.007627763 0.1126581 -0.0963922 -0.26095706 0.6760279 0.16139525 0.11301408 0.0928026 0.5674011 -0.42825356 0.30737188 -0.7618068 0.59510183 0.35831904 -0.23102012 -0.42284167 0.3234316 0.21237418 0.23657109 -0.46616727 -0.2505431
37888 -0.09467651 0.022731012 -0.009756528 0.4696968 -0.19707896 -0.040334713 0.22018878 -0.025470784 0.20773265 -0.0076993825 0.8899725 -0.03234798 -0.10143553 0.41887105 -0.23026006 -0.73824483 0.32864615 0.3652817 0.27855405 -0.37506807 -0.091192625 -0.35110646 0.6052413 -0.2517366 -0.4396257 0.9203061 -0.05182139 -0.8814751 -0.13936953 -0.2433027 0.1106639 -0.42915243 0.21486415 -1.0690917 0.19628316 -0.6202946 0.055881932 0.57759994 0.13002124 0.30927488 0.040370904 -0.4001281 -0.7478197 0.36078164 0.10112842 -0.24532561 -0.10463171 0.06409205 -1.0370616 0.48297596 -0.10719833 -0.20579828 -0.54860127 -0.578258 0.42287272 0.4097525 -0.56533074 -0.56119615 -0.2437751 -0.4030098 -0.73092264 -0.7443828 -0.6386134 -0.53689957
34257 -0.17068653 0.0756107 -0.08675621 0.63190395 0.22994104 0.08643435 -0.30344328 -1.0638256 -1.216972 -0.36567372 -0.06591326 -0.27676338 -0.5379054 -0.20432934 -1.1746948 0.1189637 -1.1527748 -0.33094555 0.9670645 -0.6520493 1.088902 0.1213246 -0.08434749 -0.041945197 -0.004266811 -0.5145436 -0.18732093 -0.42290318 0.39210808 0.7851135 -0.74756616 -0.6517188 0.3866636 -0.12176419 1.0653219 -0.91448134 -1.0571918 -0.20216891 -0.7804408 -0.7500005 -0.13604307 -0.5046563 0.32571918 0.6530851 0.6094937 -0.53191376 -0.08031489 0.83670956 -0.6456477 0.19817796 0.141305 0.6520069 -0.563936 -1.1517931 -0.20298028 0.77265924 -0.15319014 0.41454935 -0.673519 0.12989393 -1.198436 0.8426043 -0.89463407 -0.17005844
39127 -0.9359722 -1.0558047 -0.36592543 0.26044074 0.98596185 -0.49605456 -0.3040007 -0.28543848 0.60578096 -0.28217658 0.8124735 0.7787813 1.0387071 0.13610762 0.4338782 -0.3165818 -0.28632563 -0.36904794 0.4696816 -1.1237538 0.16653317 0.7552376 1.1225569 0.7035662 -1.0201782 0.6796398 0.28685114 -1.1931596 0.4612286 -0.028252766 -0.051823597 -0.43334123 -0.29364088 -0.47299063 -0.5708944 -1.0065918 -1.0235492 -0.28375036 -1.0779063 -0.99395734 0.10747791 0.9785119 0.32145068 -0.43658748 0.8915966 -0.4596571 -0.57064545 0.4471115 -0.826688 0.21513325 -0.55733484 -0.5426267 -1.1606066 -1.247655 -0.23159954 1.1061192 -0.557118 -0.8814363 -0.16388682 -0.9741441 0.36366332 0.9764984 -0.69927335 -0.2331081
1105672 0.59555435 0.081135735 0.19898257 0.112981446 0.42303175 0.081264846 -0.25369692 0.35293332 -0.49110046 0.07764964 -0.41734615 -0.16622213 0.088885 0.0017833654 0.1434084 0.35064453 -0.6319605 0.2328262 0.195085 -0.45138448 0.023127755 0.8042936 0.7432475 -0.084053285 0.27124426 0.20663089 0.09552221 -0.7352923 0.92006165 0.18136932 0.15459788 -0.20820302 -0.27525955 0.06458559 0.0799293 0.3443701 -0.13800256 -0.23899162 -0.08360821 0.25833297 0.18443574 0.067464955 -0.58897966 0.2715352 0.6136096 0.37753946 -0.70591 0.52189255 0.54865503 0.3498705 -0.4313842 0.30578712 -0.31909338 0.31468195 -0.07868822 0.9677751 -0.15154625 0.4493731 0.14764217 0.20146714 -0.03907941 0.11477423 0.00043559264 -0.2168242
23258 1.4171863 0.1507141 0.1304187 0.46802607 0.02496932 -0.44981986 0.40460056 -0.7107421 0.089851394 0.75074303 0.291763 -0.66547155 -1.2548078 -0.7868842 -0.99864423 -0.7321016 0.44012457 0.44210082 0.25779092 -0.5380104 -0.2365329 -0.110334836 1.5273736 0.63635975 -0.14931366 0.049229506 0.47111538 0.058355913 0.1954283 0.40942377 -0.5152272 -0.89742637 0.16813074 0.056678474 0.7966696 -0.10597423 0.2709336 0.19811691 0.27934456 -1.0061694 0.19120082 -0.07418914 -0.14257386 -0.27965644 -0.44771397 -0.18810734 -0.40713716 0.7104429 0.7011479 0.0046403147 -0.38441446 0.7153954 -0.7029099 -0.73652494 -0.5530605 0.16227382 0.03919099 -0.042818695 -0.79669183 -0.404021 0.12864932 0.18289557 -0.28283364 -0.2607655
1119216 0.0025265482 -0.26940778 0.60102206 -0.4515416 -0.29679564 -0.8314424 -0.4390809 -0.16328363 -0.13369104 -0.24804899 0.49802408 -0.2810108 -0.11478796 0.041856695 -0.08838402 0.40551135 0.23563667 0.5206828 -0.2631633 -0.6183896 -0.20139545 0.21653499 -0.42711675 -0.08755722 0.3414953 -0.17167728 0.089661434 0.009525468 0.3296499 -0.4006712 -0.4713375 -0.32331565 -0.045285676 -0.47843075 0.0036410976 0.26110524 -0.24166025 0.1331644 -0.034403946 -0.55559176 0.17716692 0.23542556 0.13822083 -0.01694309 -0.14677352 -0.058525875 0.100235015 0.11834811 0.012624967 0.18496312 -0.09862127 0.6187419 -0.59121495 -0.41536316 -0.9408809 0.09389282 -0.6357341 0.41998962 -0.52456075 0.08873436 -0.21538298 0.23206884 -0.26176825 -0.56336576
40922 0.13406457 0.15212916 0.09437055 0.19826867 -0.18752603 -0.15609196 0.19951172 -0.0075128013 -0.22930263 -0.15845509 -0.15531018 -0.34242362 -0.012627746 0.24675195 -0.019848773 -0.004029833 -0.082604 0.15211128 0.41597632 -0.4270519 -0.53997254 -0.13348508 0.35356238 0.051942423 0.04114946 0.19194902 0.03071684 -0.076660305 0.14307703 0.20445748 0.18364547 0.1717785 0.103732206 0.10200265 -0.111319825 -0.08179589 0.17945383 -0.41695672 -0.5664876 -0.27974698 -0.00562766 -0.15232304 0.19625482 -0.098938935 -0.35878837 -0.044412423 -0.05787732 0.39018548 -0.011434656 -0.49514303 -0.23430777 -0.08381374 0.04042069 -0.021726863 0.11048448 0.10950263 0.01899476 0.20579647 -0.027029611 0.044509776 -0.118614316 0.07802826 -0.17270479 -0.5583149
1154251 -0.077759914 -0.6255495 0.042143088 0.11957576 0.48459098 -0.1806864 0.5602574 -0.11480225 -0.18692282 0.6005025 -0.4013338 0.05669995 0.35281137 -0.6003986 -0.3028939 0.23601486 -0.10825387 -0.109970994 0.47521675 -0.33862695 0.2806727 -0.35255283 0.18872789 -0.43263766 -0.3052868 0.62022275 -0.10165031 -0.0520291 0.11599048 -0.12242979 -0.22250028 -0.3633581 0.09877626 -0.7399058 -0.38511625 -0.099371605 -0.3585853 0.20449363 -0.8315411 -0.22578853 0.2936806 -0.42650497 0.37966153 0.12591082 -0.07014693 -0.19557111 0.21139885 0.2869276 0.18630934 0.13488652 -0.22642253 0.6221296 0.17660545 -0.29614457 -0.46175456 0.11068301 0.000994211 0.4321574 -0.6283798 -0.6646467 0.5417516 0.36887926 -0.31744555 -0.7329551
7430 0.9547312 0.2082613 -0.377235 0.10713762 -0.43247995 0.48613492 1.0511534 -0.068794705 -0.26507598 0.19447924 -0.034700204 0.30586633 -0.43667704 0.6747284 -0.24409992 0.58626896 0.09581924 -0.055327687 0.7218082 0.13044323 -0.12098815 -0.2730135 0.00829584 -0.05047136 0.645784 -0.18232852 0.52994126 -0.5204788 0.022934817 -0.32868302 -0.43080693 0.45514292 0.65380156 -0.6378396 0.0074635264 -0.7327868 0.64982903 0.124425925 -0.03913055 -0.66280025 -0.38678777 0.3918579 -0.34954956 -0.3391969 -0.44158727 -0.15495992 -0.72874105 0.104675025 -0.58640146 -0.31573635 0.12188289 0.701592 0.1409268 -0.56312776 -0.05520421 -0.12930991 -0.5863489 -0.06336392 -0.20544162 -0.6059683 -0.5662629 -0.31538966 -0.40383235 -1.0195118
6941 1.1560212 -0.36424062 0.14068884 0.3836209 -0.3015634 0.24331535 -0.47509265 0.079175495 0.5149535 0.089702375 0.13093203 -0.31791258 0.5498279 0.50754136 -0.5272225 0.3737178 0.34096184 0.0052445154 0.71568924 -0.70496136 -0.1646473 0.4010626 0.7638498 0.07111007 0.11825269 0.27448776 -0.21297416 -0.16209696 0.0017663584 0.022882476 -0.097178094 -0.22857924 0.5221593 -0.3634508 -0.8226479 0.27563068 -0.42244688 -0.2653572 -0.5379952 -0.18634129 -0.108922586 -0.13285418 0.0635867 0.72724783 0.02197163 -0.21008997 -0.45130157 0.07993232 0.3016847 0.68520385 -0.49796873 0.5496695 0.08805585 -0.5751418 -0.32708782 0.29867315 -0.595088 0.0024070353 0.41811252 -0.88669103 0.062290072 -0.13733643 0.53598964 -0.20732456
1109017 -0.021949278 0.21243922 0.35966226 0.162712 0.28455153 0.39390302 0.21859741 -0.57307786 0.3339685 -0.15307951 0.2850761 0.13171777 -0.030575184 0.17593113 -0.17333427 0.09312556 0.17671795 0.09728021 0.3571565 0.1982803 0.078960665 -0.24120133 -0.12938431 -0.06250208 -0.20128992 0.019079575 0.009685194 -0.098755136 0.34100762 0.35525548 -0.028757608 0.18250841 0.20564087 -0.0071568782 -0.0718167 -0.2323463 0.35671508 0.004020256 -0.43094212 -0.15881956 0.45853382 0.5151741 0.07338963 0.21708794 0.03312187 0.24685414 -0.08271874 0.21158223 -0.44504473 0.11035927 -0.044763073 0.39186352 -0.19952746 0.10564332 -0.2999663 0.039644584 0.35814247 -0.10669272 0.01891532 0.44524127 0.2641636 -0.18742286 -0.060368363 -0.1301216
91852 0.13512015 -0.4446451 -0.18620735 0.08193426 0.03905692 -0.14602673 -0.26943606 0.8100021 0.36361974 -0.17141478 1.0207282 0.49313587 -0.22834975 0.57695407 0.095028095 0.23772475 0.48065975 -0.61310464 0.19496758 -0.5882042 -0.10282181 0.70647335 0.114026874 0.22687794 -0.3544984 -0.11776675 0.14289404 0.32615405 0.10082557 0.21721025 -0.27704194 -0.4518973 0.37963107 -0.026087284 0.43590122 -0.11297502 0.17065537 0.699974 -0.83672714 -0.2266089 0.12292677 -0.93160516 -0.9319944 -0.23635346 -0.2478929 0.15861061 0.47424018 0.14353459 -0.6675837 0.010371248 0.21057242 0.57636786 0.17710246 -0.5956911 -0.57959455 0.57340103 -0.09332475 -0.16705124 -0.72467935 -0.034848094 -0.462433 0.026332755 -0.6560079 -0.09152041
1131167 -0.2963668 -0.5269595 0.042654064 -0.18231103 0.17264333 -0.3195886 -0.062037144 0.090894386 -0.21352106 0.48704112 0.37224546 -0.08249106 -0.48262656 -0.03372154 -0.030913668 -0.07327534 -0.29053393 0.1982859 0.6803494 -0.16722316 -0.4787685 0.11119506 0.23256941 -0.047118492 0.14340608 0.012032376 0.4734471 -0.30827323 0.0035198738 0.5047401 -0.08462156 -0.23662257 0.5564765 -0.13741566 -0.04521912 -0.1549195 -0.37786558 0.17416899 0.02319001 -0.18496986 -0.14619592 0.08245863 -0.43375722 0.07521001 -0.14058173 -0.31792867 -0.22075066 -0.07594995 0.09844921 -0.10357072 -0.023363192 -0.21851696 -0.3178544 -0.57441556 -0.3042131 -0.20511323 -0.28017366 0.11165333 0.38573095 -0.045709953 0.054817535 0.56439954 -0.18797898 -0.15131484
593544 -0.18955152 0.25205612 0.21602143 0.36273324 0.17612623 0.25944138 0.20929259 -0.3363236 0.34259608 0.4911507 0.71528566 -0.033938725 -0.03345248 -0.04859585 0.036802646 0.3709247 0.15777591 0.21383348 0.55264926 -0.5968074 -0.17995436 -0.088955164 0.08380137 -0.56629187 -0.506656 0.1345776 0.061665677 0.07146513 0.18866254 0.17812769 -0.16835363 -0.29927254 0.74274665 0.052410312 -0.23716602 -0.41184288 0.5706551 -0.36932853 -0.162451 0.24062872 0.06748668 0.20806193 0.14229898 0.15003589 0.25973696 -0.0074734204 -0.3956622 0.32218978 0.048404112 -0.16385673 -0.11483322 0.6178517 -0.25116363 0.1456062 -0.47734982 0.66332 0.3188282 -0.09134658 -0.048209317 0.65958637 0.1799284 0.003560178 -0.14882486 -0.32815436
1102873 -0.081092894 -0.34172845 0.51214784 0.31178573 0.20248884 0.04330707 -0.12529555 -0.3369859 -0.4668712 -0.13159466 0.3161442 -0.32182905 0.19560695 0.5232843 0.01889063 0.18440382 -0.14820011 0.4937743 -0.41800398 0.13337338 0.2527141 -0.21750294 0.22963634 0.059670046 0.111489736 -0.19298242 0.10288806 0.26481488 -0.33714744 -0.08069215 -0.069781266 -0.17468868 0.07507651 -0.2643058 -0.14392933 0.1821384 0.3246166 0.012925074 0.33384794 -0.03258869 0.25104806 -0.044201124 0.123338476 -0.12329733 -0.07852363 -0.14267135 -0.15644397 -0.25304785 -0.091034055 0.21857561 -0.31122804 0.049834598 -0.09855084 -0.18015929 0.019588172 0.12496842 0.2700952 -0.002491943 -0.5183624 -0.08621455 0.37759307 0.14374118 -0.12917696 -0.5384112
1131611 0.03715816 0.37753698 0.023938544 0.033804562 0.5682618 0.5303115 0.18372025 -0.07741802 0.4238039 0.33337957 0.26577044 0.63858277 -0.35933343 0.61139596 0.090366475 0.35164165 -0.21990772 -0.49385035 0.3451242 -0.43214306 0.034376998 0.21152954 -0.2051892 0.33076885 -0.15058032 0.19763163 -0.38038483 -0.40123048 0.42969114 0.38168585 -0.49114227 0.12800775 -0.06577576 0.032733105 -0.07430834 -0.6609603 0.13759005 0.27103528 -0.37128153 0.066548474 0.2045944 0.07961415 0.26158375 0.6657022 -0.5030558 -0.6817414 -0.24282974 0.6533706 -0.4868193 0.039183944 -0.19205739 0.61932945 -0.09531096 0.25921342 -0.36172572 -0.2576715 -0.53239286 0.11144984 0.011007993 0.26312754 -0.36099178 -0.3001238 -0.34582928 -0.7309466
