2708 64
219976 0.031217767 -0.36667135 -0.034119006 0.055567503 0.007485562 -0.116458975 -0.18075189 0.110048145 0.41205397 -0.22881068 0.48258817 -0.08784207 -0.25051525 0.3278343 -0.13924159 -0.071367115 0.20505878 -0.37798896 -0.06191891 0.015475152 0.113409296 0.12099909 -0.0045194225 0.16183077 -0.18712662 0.07366548 -0.3331409 0.1029837 -0.0094819665 0.012033522 0.06612377 0.030338986 0.08696787 0.1582091 0.2274662 0.108039394 0.13088709 0.23469006 -0.36985695 -0.19576913 -0.13605867 -0.48723006 -0.42519167 -0.24819061 0.17260203 0.08794189 0.40551668 -0.023626883 -0.21243863 -0.13836004 0.11786014 -0.00090378465 0.09506031 -0.14167933 -0.07892926 0.44202688 -0.1608782 0.08833445 -0.47578827 0.07779924 -0.20498493 -0.12095034 -0.13104631 -0.041121755
399173 0.068368845 -0.038756747 0.09750709 -0.11938243 0.058713466 -0.33168402 0.14937353 0.29552278 0.21268298 0.021444889 -0.24322897 -0.6344478 0.114031635 -0.07580006 -0.23466088 0.016934635 -0.07578791 -0.37963763 -0.22540969 -0.21283282 0.22827585 0.023299647 0.18038388 -0.19784366 0.099340394 0.0030676618 0.20258082 -0.32814673 -0.00957155 -0.2770361 -0.05856799 0.101120405 0.03108388 -0.32386586 -0.19881663 0.09827229 -0.30899292 -0.08703315 -0.18389085 -0.18813948 0.18286742 0.082877 -0.28044236 -0.120923065 -0.08857426 0.063887805 0.020983582 0.098089226 -0.3235371 -0.023566375 -0.31467697 0.28279993 -0.21622637 -0.16293716 -0.037428975 0.12514928 -0.05668947 -0.11650111 -0.24424465 -0.33009043 0.16250506 0.018831968 -0.0605132 0.04562992
753070 0.2624933 0.34194392 0.50732493 0.15401775 -0.23303178 -0.047277134 -0.32103664 -0.17826344 0.27162218 0.51375586 -0.36814037 0.10287757 -0.3703846 -0.061162073 0.6501765 0.062205713 -0.8123693 0.44971412 0.24748458 -1.0878813 -0.17411333 -0.34246773 0.38992348 0.65547866 0.095909245 -0.07680065 -0.31014144 -0.72651446 0.15081608 -0.10926641 -0.23000534 -0.10573133 -0.10417472 0.44006974 0.014930762 -0.28789738 0.6294953 0.31961524 -0.46896473 -0.44772965 0.5784686 -0.091573216 -0.115237825 -0.26212332 0.15826605 -0.36937165 0.0033686054 0.29181293 0.4181505 0.48654115 -0.48800305 0.85901856 -0.9760223 -0.14663424 -0.20809281 0.050492868 -0.2055031 -0.025635088 -0.0628017 -1.0457302 -0.23036636 -0.3355583 0.18051308 -0.8347604
737204 0.05584931 -0.20647241 0.16773263 -0.33331776 -0.40292078 0.17592336 -0.35806078 -0.09882088 -0.3253893 -0.20246232 -0.04815935 -0.24364543 0.032496642 0.103393696 0.116773054 -0.0031107636 0.21699993 0.08490955 -0.23952967 -0.26740104 -0.27766085 0.08525993 0.24828178 0.06841743 -0.21754903 -0.18279488 0.1304735 0.06963547 0.09869499 0.18402861 -0.08342709 -0.39408657 0.020651828 -0.07860459 0.22494502 0.24898568 -0.3051896 0.21794054 -0.41925058 -0.07830157 0.04483549 -0.18471119 -0.522852 -0.31379715 -0.096601725 0.008041999 0.2874908 0.24525908 -0.0064134304 -0.06932759 0.3590884 0.2541512 -0.023471346 -0.21056478 0.08139032 -0.23007877 -0.6527799 0.22167389 -0.27198577 -0.22298908 -0.25357768 -0.22991048 0.22354092 -0.2518934
25184 -0.34785077 -0.36574003 -0.3228357 0.25633228 0.9049185 -0.17285901 0.9976243 0.13519467 0.04962792 0.27296245 -0.23155294 0.52655786 0.6118426 -0.46284747 -0.40356204 -0.2702659 -0.07893943 -0.22514679 0.5390515 -0.30964616 0.353613 -0.14482427 0.19727075 -0.29242206 -0.51624566 0.63706464 0.11224717 -0.2651439 0.3435596 0.014523254 -0.30287918 -0.46707276 -0.13367046 -0.6467854 -0.26512176 -0.16773659 -0.50746155 0.16368766 -0.96918046 0.15478322 0.168002 -0.032796383 0.5407863 0.18085279 -0.18023506 -0.3213473 0.045950476 0.5113634 0.110184506 0.07336513 -0.19135112 0.35527682 -0.21125096 -0.745345 -0.1773467 0.04565802 0.02628248 0.29314885 -0.486734 -0.73801225 0.7297305 0.82907957 -0.30131534 -0.71839553
358884 -0.13445903 -0.57991153 -0.60959584 0.32833 -0.38091257 -0.27546263 0.15529 0.45672902 -0.20143202 0.13560164 0.06994632 -0.28317088 -0.25131702 0.09394639 -0.0761621 0.016765626 -0.30279037 0.1934363 -0.10887773 -0.6462089 -0.5620619 0.32261285 0.2510617 -0.46911502 0.4941293 -0.009355065 0.114929445 -0.27133352 0.28224117 -0.3174941 0.18656614 -0.10495992 0.013479431 0.040675703 -0.20024675 -0.125553 0.007871538 0.15388562 -0.22497208 -0.27089676 0.19697984 0.29213962 -0.11051896 -0.2777566 -0.316041 0.23858204 -0.36963806 0.3292751 -0.44596896 0.049804594 -0.40149963 -0.018989163 0.34034055 0.059418526 -0.043604337 -0.27434427 -0.09714267 -0.44485864 0.25495765 -0.3862855 0.24431466 0.45681188 -0.06354716 -0.17676893
6910 -0.72916055 0.6191633 0.5056742 -0.23015034 -0.1393913 -0.7742075 0.635453 -0.62984866 -0.89553297 -0.16371393 0.60362554 -0.1591733 -0.48409897 -0.834017 -0.12472541 0.42339647 -0.7676554 -0.02057183 0.8305927 -1.2249708 -0.16764028 0.12488362 0.6585022 -0.658263 0.036768284 0.98417205 0.5433891 -0.7256495 0.61775076 0.16436942 -0.24096493 -0.4611581 0.5464857 -0.71603686 -0.515651 0.44720054 0.03922289 0.53923684 -0.24801764 -1.1019602 0.6570942 -1.1691607 -0.13420022 -0.5279375 0.15214068 0.6705148 -0.9818341 0.9150577 -0.3673897 -0.21623935 -0.04733724 0.61630744 0.13412794 -0.6195382 -0.48222223 0.8898415 -0.6326629 -0.46799028 -0.062862545 -0.8622008 0.07311166 -0.07449948 0.5426658 -0.1684106
662279 -0.2941014 0.2969379 -0.03024196 -0.3823011 -0.10139839 -0.20613325 0.10699322 -0.09075613 -0.3073896 -0.24970014 0.105774805 0.16130032 -0.28845248 -0.4303317 -0.11358883 0.09088546 -0.18184362 0.050576564 0.13157871 -0.29800525 -0.03202357 -0.12401341 0.17398344 -0.28085062 0.034488894 0.3611799 0.117689125 -0.22841966 0.07857546 -0.079891965 -0.06985719 -0.044701353 0.19636771 -0.28055128 -0.048776705 0.27269426 -0.009651883 0.16589144 -0.09386756 -0.3454794 0.098863095 -0.43176523 -0.018228289 -0.2103596 0.1709107 0.3708097 -0.34859627 0.3015718 -0.0020926546 -0.032183737 -0.05154433 0.22170185 0.419773 -0.17143314 -0.09303165 0.27468368 -0.34083977 -0.11326784 0.20651248 -0.3894997 -0.09314877 -0.31534195 0.40445504 0.27542624
1035 0.27754366 0.39212078 -0.10741365 0.19119567 1.0357528 0.012552403 -0.13215256 0.29557416 -0.30461743 -0.14974031 -0.021842211 -0.37258428 0.18889685 0.11463093 -0.40841606 0.6489601 0.6438931 0.07241574 -0.0007726382 -1.209588 0.1346149 0.37722746 0.96963435 -0.15569405 0.70672166 -0.11296477 -0.21916775 -0.061199658 -0.10187634 -0.31617102 0.086067796 -0.08853671 0.9850457 0.08901812 -0.14184684 -1.0916314 0.176043 0.45945668 -0.26065585 -0.24240278 0.19121814 -0.21450232 0.3216614 0.03347337 -0.14638196 -0.49250618 0.55307114 0.6455988 -0.28866512 -0.20480403 -0.12426856 -0.19498062 -0.34983248 -0.18080679 -0.40397364 0.09972962 0.3536927 0.3374456 -0.47201043 0.4747989 0.3517933 0.40723714 -0.5993077 -0.72571874
650814 -0.56087875 0.41544837 0.31014705 0.32968068 0.4690332 0.2034938 0.14345375 -0.68203366 0.5549914 -0.1623688 -0.24143603 0.060389478 -0.064721376 0.24981399 -0.4581267 0.3569479 0.37884647 0.15017453 0.2458079 -0.14586818 -0.050502434 0.26094276 0.0888399 -0.122710645 -0.21447791 0.038379543 -0.032579567 -0.30552337 0.005065289 0.004759966 0.051181845 0.46110186 -0.22554156 0.01648092 -0.09244501 -0.51204795 0.20299965 0.06982726 -0.08606872 -0.3059193 -0.016991207 -0.033099163 0.35615206 0.16222814 -0.17491563 -0.1552046 0.3122972 0.6348844 -0.58257264 -0.19430758 -0.19626988 0.4235547 -0.16834202 0.06116513 -0.44460613 0.32055184 0.09714145 -0.23909982 0.31174716 0.22570896 0.47205552 0.23608746 0.10866412 -0.34651873
130 0.42844212 -0.21311426 -0.64107877 -0.0268989 -0.01394147 -0.24304049 0.32878837 -0.23795986 0.035086535 0.53615564 -0.06692972 -0.69884914 -0.60169405 -0.36021492 -0.25417587 -0.87082714 0.40031177 -0.25410935 0.15507677 -0.4281911 -0.39638302 0.43167663 0.8509577 0.25180632 -0.6938945 0.76337314 -0.010942203 -0.44446498 -0.0409729 0.340147 0.12759519 -0.61809236 0.10810212 -0.86037487 0.26791382 -0.31991833 -0.28981104 0.7066679 0.79699934 -0.3422758 -0.3652061 0.09774482 -0.4791316 -0.098522134 -0.91270214 -0.7662465 -0.19854781 0.3603692 -0.009640587 0.057448562 -0.20262311 0.13268283 -0.3360541 -0.65131694 -0.12770936 0.08949683 0.21572421 -0.2767381 -0.8730818 -0.37663093 -0.51969534 0.021089578 -0.32633415 -0.49979162
101261 0.28026217 0.03529819 -0.20767066 0.42704332 0.023437569 -0.1253378 0.16216381 0.020732325 -0.2591375 -0.03097865 0.037962276 -0.18718196 0.048601918 0.33421946 0.41377166 0.119394556 0.12291853 -0.12938872 -0.15478404 -0.18408877 0.24202153 -0.081335425 -0.23331335 -0.34102324 0.014082428 0.12843952 0.11587313 -0.5259534 0.048174612 0.16552389 -0.22224322 0.10451534 0.07792181 -0.15291351 -0.14308959 -0.21389225 0.18249948 0.037619952 0.057709403 -0.33670652 0.14978454 -0.49527675 -0.3543729 0.16957447 0.09117133 0.12807344 -0.057282634 0.041622844 0.025173025 0.037599266 -0.030609205 0.25717887 0.06383912 0.16116373 -0.34299502 -0.43085092 -0.017462397 0.35501924 -0.53004664 0.22877565 -0.14196849 0.16274218 0.029594235 -0.14229527
35061 0.10741809 -0.01981526 -0.37173057 0.48370972 0.49712098 0.1372765 -0.6825877 -0.19829673 0.5345586 0.8099563 0.61952806 -0.37396815 -0.30310097 0.23667696 -0.24158125 1.3553147 0.4636472 0.30869514 -0.07154725 -0.8499676 -0.4979849 0.27300754 0.4331291 -0.16552742 -0.43219948 0.12794012 0.39613396 0.28255543 -0.5185169 -0.15509066 -0.15144694 -0.76778305 1.1675122 -0.20491709 0.17091553 -0.6794168 -0.20011497 -0.4606385 -0.12137237 -0.32033607 0.17449589 -0.7778444 0.10653857 0.34580362 0.9693386 0.5921762 -0.31498662 1.1103808 -0.09996922 0.25541112 1.2197785 0.967897 -1.2415764 -0.21401955 -0.6194922 0.27470663 1.1451013 -0.6879096 -1.1073343 0.38245454 0.45802718 0.9743042 -1.0355856 -1.0451305
135798 0.12007486 -0.0998386 -0.3933213 -0.10073423 -0.24376296 -0.10289371 0.37742582 -0.2900627 -0.19026405 -0.1966927 -0.17319849 0.04882484 0.25271904 -0.31977808 -0.6766859 0.21132454 -0.010640159 0.27354223 -0.024615541 -0.10450006 -0.30759263 0.64925975 0.118907064 -0.072426744 -0.014131674 0.14125283 -0.2373388 0.24776243 -0.1516095 -0.1343981 -0.390343 -0.07076678 0.1401796 -0.36061415 0.3179218 0.41995844 -0.14975885 -0.03921294 -0.1456813 -0.60591304 -0.15302354 0.00985412 0.01068384 0.3622778 0.1771587 0.12796086 0.25856864 0.40153572 -0.061144486 -0.011722141 -0.44745383 0.66497827 -0.11737142 -0.40257323 -0.248514 -0.12336036 -0.18446687 0.33214563 0.19747521 0.062563814 -0.36522424 0.64261246 0.120641485 -0.2883808
60170 0.0125199035 0.31773627 0.09798169 0.6746459 0.062113665 -0.24504597 -0.011531797 -0.22044095 -0.013989103 0.23565803 0.21587323 0.12564605 0.40103373 0.090171 0.45804933 0.23781446 -0.42632633 0.17020856 -0.12374887 -0.5176836 0.459819 -0.3161903 -0.05191956 0.19080351 -0.29368973 -0.101845294 0.21224576 0.3383978 -0.110391825 -0.3045334 0.18237656 0.060017027 0.27466133 0.416028 -0.16483217 -0.29065123 -0.036733262 -0.13628195 0.24511364 0.051608134 0.105335735 -0.031644307 -0.08515612 0.49897674 -0.13826904 -0.051300045 -0.0009706017 0.083596915 0.05278046 -0.09976978 -0.44257087 0.06904154 -0.087821886 -0.06535769 -0.37924996 0.5999121 -0.109721154 -0.04394652 -0.21170433 -0.39505002 -0.5797559 0.27017072 -0.3061639 0.037040256
35905 0.0063791596 0.025872154 -0.62214226 0.6914693 0.21914606 -0.08808779 -0.021994326 -0.37796614 0.4176344 -0.19120763 0.35111916 -0.585951 -0.1038925 -0.12922688 -0.20210858 -0.05978665 -0.58977103 0.39695743 -0.004307906 0.020694477 -0.53839934 -0.06068677 0.32157487 -0.42032218 0.039039418 -0.07358563 -0.33033758 -0.21812704 0.10947921 -0.22887398 0.058884207 -0.64422005 0.8946123 -0.12304572 0.88225853 -0.43012643 0.19080907 -0.014220142 0.101701 0.004136233 0.4420537 -0.85006845 0.4739704 0.056367017 0.07537678 0.055662945 -0.0092040785 0.41184318 0.15512967 0.9801641 -0.012632021 0.49176157 -0.77446216 -0.47203162 0.48589656 0.07544642 -0.9739907 0.48159376 0.548864 -0.76167053 -0.059351847 0.40024123 -0.3992671 -0.5654369
20593 0.71204776 0.20611802 -0.44036844 0.478452 -0.2972788 0.116249464 -0.42610636 0.26039258 -0.071173534 0.14779991 -0.1419258 -0.13156477 0.33457953 0.6463126 -0.59904134 0.24906608 -0.35120165 -0.121522 -0.04781707 -0.5458064 0.031205138 0.44812655 -0.04763672 0.22006601 0.18853685 0.4764647 0.4167987 0.19047941 0.012531937 0.44234744 0.30273136 0.02630448 -0.17217055 -0.19297232 -0.41066414 -0.06974161 -0.4079645 -0.3259347 -0.32465786 0.34532383 0.06991075 -0.31991416 0.0021800338 0.14637084 0.45977217 0.19959071 -0.5100307 -0.09190268 0.3623907 -0.41567698 -0.731537 0.26837128 0.081055336 -0.5128737 -0.3766414 0.1373354 -0.16296136 0.48670557 0.06304371 0.04326527 -0.2667746 0.0995119 -0.35034785 -0.30123112
1115959 0.095295206 -0.22066271 -0.2796459 0.42618042 -0.24722596 -0.54848504 -0.20591722 0.5968028 -0.4157038 -0.3300782 0.24660765 -0.432541 -0.05814819 -0.09964054 0.34194306 0.50757605 -0.5636091 0.48634198 0.48999256 -0.35329354 -0.0752214 0.2728743 0.08511077 -0.13775012 -0.6839009 -0.031907234 -0.16311665 -0.38019976 0.8605265 -0.18791081 -0.5288196 -0.21668985 -0.1806799 0.13804115 -0.3111732 -0.49558258 -0.22378092 0.102879 -0.22922948 -0.37366277 -0.48053953 -0.3343417 -0.5981374 0.1015532 -0.4076491 -0.1488944 -0.19483347 0.1256679 0.4328856 -0.33681703 -0.14345473 0.5656766 -0.3099795 -0.37733006 -0.4570319 0.30676696 -0.22322026 -0.023656089 -0.63665915 -0.6396331 -0.058577918 -0.27473053 -0.6562549 0.29719618
1107136 0.028692491 0.1386184 -0.050107967 -0.097959 0.43283638 -0.4060764 0.018853951 0.47843936 0.26951084 -0.2991042 -0.4328199 -0.3979477 0.16770759 0.2733378 0.21053404 -0.31277773 -0.14636233 0.25558457 -0.054056488 -0.6576152 -0.25025374 0.49719754 0.054507222 0.05460257 0.049487375 -0.03702962 0.24136509 -0.03689929 -0.4253876 -0.18679278 -0.3969033 0.08424082 -0.4776861 0.021079622 0.08988507 0.043557853 0.25070396 0.36777073 -0.14863926 0.17513347 0.16834255 0.5304927 -0.17529504 0.27111825 -0.15519102 0.14895523 0.06985779 0.029502122 -0.23879871 0.05422247 -0.014144747 0.2431977 0.5788572 -0.045091923 -0.3187533 0.16498056 0.1694417 -0.30749914 -0.22640803 -0.40772226 0.11337034 0.0061988076 -0.03334472 -0.014954572
368657 0.07668384 -0.23656046 -0.055651553 -0.11056182 0.21808724 0.30129504 0.011604807 0.56317055 -0.050116085 -0.25999677 -0.2695259 0.30813667 0.20593081 -0.43626568 -0.056664586 0.15983386 -0.26535988 -0.38230133 -0.32685533 0.14340465 -0.0157388 0.08807543 -0.13446389 -0.3215121 0.20164755 -0.31008363 -0.06961506 -0.17941506 0.009057558 0.19948228 -0.22453599 0.5027689 0.1394466 -0.06905432 -0.024900658 0.24992284 0.34331745 0.3389751 -0.14379191 -0.079876035 0.04502181 -0.008305566 -0.21845625 -0.10677509 0.11671162 0.18442938 -0.14890939 0.11893107 0.42878804 0.057501122 0.28605828 -0.06551783 -0.35236672 -0.45051897 -0.31481713 -0.29492497 0.13194399 0.053672 -0.051962476 0.06149642 -0.32113588 -0.106913716 -0.040380735 -0.2416647
627024 0.57251424 0.28321218 0.10445426 1.0252774 0.08067795 -0.6358163 -0.3631689 0.17607313 0.03850999 -0.26402444 0.066124536 -0.21864177 0.33819747 -0.10126132 0.35587314 0.697717 -0.56455916 0.07982446 0.305334 -0.629593 0.473303 -0.5279049 0.23822421 0.1958679 0.35880193 -0.25172368 0.083672896 0.057898436 0.6209623 0.112559065 0.3565252 0.18632713 0.4317436 0.38980475 -0.21898133 -0.33772853 -0.74728125 -0.2852893 -0.124665156 -0.0743884 0.1331754 0.094373964 -0.61643714 0.48346588 -0.6766703 0.17603955 0.17767285 -0.0071350895 -0.20677996 -0.28305498 0.025966262 0.3745069 -0.43089893 -0.3178003 -0.13304119 0.7915817 -0.9816476 -0.6380623 -0.33086458 -0.43370122 -0.94093454 0.8266713 -0.5576788 0.02045212
17363 0.002384874 -0.3533554 0.19848458 0.40690807 -0.017735014 -0.08733098 0.27979568 -0.22508198 -0.61214465 -0.09156256 0.04069014 -0.039898414 0.29427415 -0.20713489 0.06146451 0.2391837 -0.14340205 0.23239607 0.4389945 -0.20822832 -0.36654645 -0.030123312 0.21024679 0.010265922 0.80331147 -0.26089603 0.39455414 0.0006929242 0.525476 0.23946351 0.1294655 -0.078757994 -0.02283432 0.13736276 -0.078236096 0.20484231 0.086915545 0.6472906 0.009082437 -0.33624166 0.7841474 -0.50925684 0.16452135 -0.21179056 0.0063281204 -0.11394169 -0.15842204 0.035173114 -0.37300697 -0.16570286 -0.20183112 0.0082040755 -0.37550566 -0.41119197 -0.25058362 0.26820406 0.2306839 -0.21629438 -0.3689891 -0.41653237 0.33051372 0.65624017 -0.36703086 -0.39649683
18833 0.53125215 -0.20149203 -0.08916592 0.3347516 -0.2748744 -0.04259098 -0.39659512 -0.35645568 0.16615735 0.20389724 -0.32383284 -0.37502238 -0.19650458 0.2853927 -0.058577444 -0.30192205 0.30812603 -0.35931987 -0.2440648 -0.40713415 0.23233354 0.17313367 0.38717878 0.12235421 0.038938668 0.19984774 -0.021024844 -0.35541618 -0.07183322 0.096742816 0.28648716 -0.3587737 0.21870853 -0.7028905 -0.32444367 -0.6065767 -0.6305675 0.100177504 0.44193742 -0.47383448 -0.24381122 -0.03930576 -0.12738037 -0.17970002 -0.27450743 -0.026498973 0.072029725 -0.15934084 -0.1437551 -0.114300944 -0.11530881 -0.29553297 0.18196024 -0.028517298 0.059005145 0.123235926 0.28979647 -0.25907364 -0.551328 0.38896203 0.42102975 0.71252626 -0.34977755 -0.20594268
74821 0.26766044 -0.5788081 -0.24100174 0.06739949 -0.32714665 0.2969917 0.08552683 0.06933855 0.42481807 0.2547387 0.3654256 -0.4942319 0.14137994 -0.20671298 -0.4917475 0.049457565 -0.41026923 -0.23758431 0.16292605 -0.42372814 -0.56012475 0.4258741 -0.08483531 -0.115713865 0.5325608 -0.43236095 0.32700592 0.007909967 0.07902871 -0.33232746 -0.044798005 -0.072419554 0.45380577 -0.006474183 0.18922459 -0.3785188 0.364838 -0.081144534 -0.6989346 0.18460436 0.18963322 0.4032688 -0.13209271 0.051009927 -0.4014667 0.10790758 0.28351212 -0.12272326 0.046417423 -0.76426715 -1.1973537 0.6203898 -0.29812562 -0.238478 0.30044004 -0.15636198 -0.3904375 0.040772654 -0.24699989 -0.13242775 -0.22635898 0.23296124 -0.2205983 0.17340969
696342 0.32961595 0.030830473 0.1401009 -0.20757866 0.1323838 -0.2877824 0.32311016 0.13473612 0.21485607 -0.39587688 -0.06881968 -0.33461216 -0.5967853 0.08333853 -0.44910002 0.18054718 0.16408323 -0.4466829 0.31861547 -0.62388736 -0.55067366 -0.20279288 0.2986505 -0.07143836 0.056982476 -0.11208175 -0.15109755 -0.5550745 0.6010809 0.11051807 -0.40011343 0.2635324 0.30896154 -1.0349753 0.08668291 0.38029647 -0.26555064 -0.16691156 -0.38510638 0.08710897 0.18362777 -0.04741439 -0.18409446 -0.1438267 -0.07915137 -0.008868222 -0.25398842 -0.18143573 -0.3920574 -0.18123643 0.056027472 0.1634294 -0.27258196 0.12970677 -0.14042681 0.4722381 0.1910587 0.19158857 -0.39955777 -0.41521218 0.02146753 0.36471236 -0.35270068 -0.011810196
27623 0.40185964 -0.46117672 -0.65594906 0.56994647 0.5511897 -0.46037677 -0.39123482 -0.42930344 -1.25513 0.031663712 0.19630055 0.3776943 -0.53848255 0.9611732 0.06820749 -0.31902468 -0.5057013 0.046871938 0.51555145 -0.34854212 -0.3240337 0.2267623 0.34142417 -0.16519623 -0.1321234 0.49540588 -0.37892577 -0.4028375 0.96425915 -0.2632981 0.06581494 -0.43118498 0.7393838 -0.21720545 -0.69388723 -0.15747425 0.04022593 0.55874705 0.28129682 -0.6034446 -0.4039671 -0.09597664 0.06591702 0.4118455 -0.43689182 1.0823114 -0.6076396 0.42172888 -0.40859142 -0.6443355 -0.43640336 1.1214149 -0.49991328 -1.5076025 0.33470577 0.096617624 0.57257766 0.439013 -0.8154304 -0.2146521 -0.061338056 0.36062452 -0.5261349 0.11078864
1122642 -0.07134764 0.17833762 -0.23644127 0.36254236 0.32829633 0.30236346 0.0125450725 -0.5593835 -0.7694947 -0.069026254 -0.24914782 -0.15365563 -0.3947134 -0.08076288 -0.23222426 0.301188 -0.6878224 -0.32400283 0.27659476 -0.2788702 0.79082453 0.031911913 0.040293854 -0.15701692 0.20702057 -0.2812333 -0.15599771 -0.5636956 0.22628434 0.761426 -0.26523754 -0.3737502 0.40121588 0.06326909 0.4798673 -0.46957928 -0.52886343 -0.23683545 -0.46665284 -0.32301185 0.27699152 -0.2158006 0.36075988 0.52148145 0.19320771 -0.46930325 0.09196889 0.22121195 -0.61801636 0.4009124 0.1840503 0.40698346 -0.38179025 -0.8023952 -0.17762463 0.5836817 -0.20981523 -0.06592283 -0.27113745 0.044763893 -0.905831 0.27440846 -0.7775562 0.06149108
1123926 0.121444136 -0.14727397 0.14376353 0.13683386 -0.3239916 0.47232512 -0.09361837 -0.4152631 0.15553208 -0.061699312 -0.20639807 -0.07563548 0.15283053 0.012185425 -0.30448398 0.43769297 -0.5164079 0.1818433 -0.11023137 -0.33923772 0.10999581 0.033738486 -0.0071310783 0.36120668 -0.047504783 -0.044445775 0.13664304 0.04602178 0.44530568 0.38442862 0.12764663 -0.1658359 0.16756219 -0.21750025 -0.063676775 -0.049313895 -0.058181763 -0.17799643 0.2930316 -0.35951596 -0.33938104 -0.07789256 -0.16937621 0.17488362 0.37360978 -0.106776424 -0.24276593 0.18618424 0.0425586 -0.13101418 0.32452258 0.006033036 -0.18387915 0.18408391 0.26457167 -0.15008853 -0.23745815 -0.14914933 -0.110200964 -0.010590091 -0.74754983 0.5643176 -0.36320785 -0.024124485
1105231 -0.031758394 -0.46169838 0.15304652 -0.20773259 0.16604353 -0.42194933 0.3482784 0.74879944 0.0028162792 -0.20383409 0.2306776 0.20033085 -0.36809003 -0.16981527 0.27218413 0.48447397 0.39721507 0.2898889 -0.25926438 -0.6118983 -0.47446382 0.16163597 0.41451472 0.14625067 -0.48386046 0.45597407 -0.18518217 0.050045565 0.67706794 0.18763153 -0.3553464 0.3997012 0.61127913 -0.516969 0.42340082 -0.44153064 0.12582366 0.20370385 -0.2221103 -0.1142178 0.0024159937 0.034469377 0.3919071 0.32368168 -0.6057243 -0.10238536 0.20354079 0.31855154 0.14725092 0.2661281 0.08451781 0.01669626 -0.2466061 -0.13130784 -0.012560506 0.48416632 0.025769575 0.0793656 -0.021977896 0.5253711 0.17275459 0.012996442 -0.7897592 -0.30025166
7296 0.035225242 -0.35793042 0.3621903 0.49335337 0.18566908 0.57450765 -0.15508813 0.6328317 -0.22508706 -0.22529614 0.27300602 0.17933066 0.23272394 0.31512356 0.21015614 0.528529 -0.007360533 0.32188126 0.059613243 -0.066973865 -0.22466765 0.094719075 0.23494273 0.2138987 0.18145101 0.42824894 0.27497822 0.34837958 0.22165886 0.0105405925 -0.074442126 0.33311158 0.32799897 -0.14588328 -0.13798061 -0.05159892 -0.29971206 0.45858955 -0.078343555 -0.27574214 0.32073826 -0.07529099 0.14578255 -0.009556819 -0.34361964 -0.3841709 0.019001089 0.121517256 -0.17464064 0.07864237 0.14203782 0.049392946 0.16760048 -0.3217912 0.17208308 0.24760029 -0.180677 0.13025707 -0.44084984 -0.21051747 -0.48417115 0.5614339 0.12851585 -0.15403992
755217 0.5554317 0.15348168 -0.5746021 0.02803561 0.58151853 -0.5263838 0.17480633 -0.47612616 0.5331923 0.60716814 0.5206275 -0.39802334 -0.54179 -0.07864566 -0.09771922 -0.74034745 -0.44273925 0.30628872 -0.22397609 -0.5235878 0.12535934 0.24600905 0.46791047 -0.11027575 -0.11614994 -0.2207637 -0.2133402 -0.37833062 0.008712084 -0.4342833 -0.27169487 -0.81268245 0.030020228 -0.5706759 0.11602897 -0.66049665 -0.021147888 0.27429748 0.33846307 -0.6107384 0.30864713 0.07027283 0.005905342 -0.4730259 -0.42084223 -0.13188305 -0.484517 0.328736 0.20585245 -0.1287441 0.021140518 0.29280385 -0.9957354 -0.77598536 0.3122914 0.5485331 -0.08321833 -0.013972661 -0.47799492 -0.38771355 0.22591542 -0.039943576 0.13585219 0.047411133
50337 0.16054057 -0.3892749 0.47158644 0.91314703 0.1949507 0.10436401 0.10725425 -0.014142186 -0.30168054 0.07522136 -0.53025967 -0.7121577 0.12648766 0.37690863 -0.7317796 -0.006050573 0.28812772 -0.03219855 0.263443 -0.2348033 -0.30570865 -0.20389238 0.44064718 -0.27971584 -0.03929475 -0.07116641 -0.15473399 -0.22897509 -0.36795294 0.23212856 0.19079877 -0.3931701 1.0483149 -0.04626909 -0.3833108 -0.073624395 -0.4512431 -0.0486258 -0.56865096 -0.24025951 0.2944496 -0.70454973 0.4748393 -0.15978281 -0.43236628 -0.19353504 -0.024494212 -0.34349868 -0.30686 1.013129 -0.016978884 -0.045039695 -0.90959036 -1.0672846 0.1129733 0.35189748 -0.37468618 0.028318074 -0.18823646 0.33191413 -0.6058954 0.04242642 -0.038932476 -0.7759994
1112417 -0.2393231 0.15956792 -0.26819018 0.07305391 0.28658915 0.28671592 -0.016899835 0.30143148 -0.14445727 -0.6244272 -0.012324022 0.29246002 0.06808016 -0.051751908 0.1729115 0.40862072 0.1269711 0.057118583 -0.02855135 0.27984273 -0.076590896 0.40895963 -0.33650157 -0.12054119 0.075292006 0.09717203 0.34295493 -0.1386118 0.3598585 0.22726338 0.11030332 0.50832283 0.29202256 -0.08058589 -0.06442616 0.1955895 0.010627329 0.21126267 -0.037687708 -0.30066192 0.11819495 0.3911246 -0.1168099 0.032864697 0.06090467 -0.0015916525 -0.13432014 -0.20395687 0.04540159 -0.23337375 0.2495631 -0.18282837 -0.29282245 -0.28796905 0.09750173 -0.16884771 -0.28186476 0.2596718 0.32427347 0.2945425 0.039815363 -0.034002595 -0.25923017 -0.45239368
131315 0.78516346 -0.15597133 -0.29624388 0.07849937 -0.68068945 0.7548254 0.4434018 -0.7880727 -0.07866587 0.38172555 0.2296943 -0.3115393 0.035274964 -0.22323501 0.29977953 0.6475242 -0.37279522 0.46885264 0.2356027 -0.22939877 0.01618695 -0.11744016 0.28667107 -1.0318558 0.6441684 -0.061811503 0.36404705 -0.8934991 -0.05832222 -0.31809235 0.52878916 0.30212885 0.5740133 -0.3652011 0.10355503 -0.5394238 0.13609771 0.61637527 -0.195657 -0.42128617 0.28156814 -0.11133331 -0.29560143 -0.62844616 -0.51272213 -0.07921076 0.4009755 0.13044728 -0.32159138 -0.42992795 -0.21632738 0.6863981 -0.072999515 -0.49000266 -0.22002526 -0.03972249 -0.7873421 0.4277717 -0.022208722 -0.5029749 -0.52620673 0.159729 -0.31833935 -1.1264393
59626 -0.10797639 -0.046269674 -0.16570142 -0.15106402 0.11856291 0.34151754 0.15001783 0.53149015 -0.1069079 0.4213128 0.014214453 -0.32029107 -0.777062 0.21675359 0.54551095 0.90221864 0.069838464 -0.45192572 0.1881094 -0.25677493 0.15823063 0.1993351 0.19202365 0.20747538 0.18437025 0.15173408 -0.1705554 -0.5508598 0.12757565 -0.7405782 -0.62224936 0.07736041 -0.5273365 -0.10538148 -0.023670692 0.023467006 0.042000644 0.09918209 -0.4463739 -0.9541734 -0.1553649 -0.28760362 0.32218128 0.23941304 0.0761171 -0.002834753 -0.24771154 0.9288996 -0.22455929 0.27175134 0.045038037 0.43027773 0.44575208 -0.19256327 -0.37938285 -0.1701705 -0.58503467 0.6700142 -0.09464919 -0.10882837 -0.014327625 0.31574857 -0.45161805 -0.5651056
444240 0.32295787 0.0885187 0.05910356 0.4130501 -0.088195086 0.59612715 -0.29263115 -0.29177943 0.6534506 0.12417838 0.43676373 0.16168374 0.53609705 0.45712358 -0.06932033 0.3366121 -0.022930102 0.26442248 0.53778344 -0.10874697 0.076477095 0.19889325 0.025234139 -0.3447795 -0.37586814 0.36293995 0.10021083 -0.09334292 0.17441513 0.22860795 -0.41311386 -0.24895062 0.51045245 -0.4115472 -0.54123974 -0.16658051 -0.018377336 0.022624375 0.05949324 0.058021467 -0.10811463 0.021615742 0.031471953 0.36619893 0.13921946 0.011584612 -0.35011536 0.131896 -0.16004291 -0.3002007 -0.6205377 0.11234416 -0.13802557 0.04428464 -0.7686838 -0.336315 0.17146444 -0.021078154 0.15847197 0.08826118 0.14883089 0.00032009327 0.35934174 0.09588477
112378 0.40642965 0.75103486 -0.021863606 0.4023512 -1.3624378 0.47726765 0.22029519 0.18796583 -0.06627292 -0.5149988 -0.3327463 -0.3777164 0.19784918 0.84369904 -0.09557674 0.6676104 -0.6178085 0.3421822 0.8817469 -0.9988229 0.01562806 0.33494806 0.08396812 0.5181067 0.19257256 0.5721359 0.4417074 -0.06775413 0.3294061 0.7098452 0.65584975 -0.06606561 0.666096 -0.35881326 -0.6463527 -0.158437 0.29437307 -0.91797686 -0.74415815 -0.45871535 -0.4299604 -0.6138439 -0.034762844 -0.12719901 -0.35897675 0.01973299 -0.7294687 0.33448124 0.37959522 -0.84553903 -0.6591642 0.012752845 0.28566316 -0.9690683 -0.3657767 0.08795837 0.13594003 0.6409696 -0.4299767 -0.28782925 -0.28743267 0.532355 -0.40599686 -1.0031625
1153896 -0.009112544 -0.1632402 -0.34026456 0.40235817 0.0131275635 0.08296262 0.72886586 -0.14761414 0.11464227 -0.27768654 0.1641761 -0.26478505 0.1994223 0.1886361 -0.38577685 -0.19934791 0.25822583 0.70579314 0.3405539 -0.5642417 0.44204816 -0.18077968 -0.2954095 0.10409383 0.10217965 -0.32028043 0.41350225 -0.24801755 -0.13246241 -0.11335326 -0.26854455 0.46978164 0.25538808 -0.006416628 0.3085056 -0.20044537 -0.46597475 -0.022541001 -0.31857833 -0.5170668 0.606316 0.39838293 -0.32834807 0.18219915 -0.122222245 0.13864794 0.005345602 -0.3144438 -0.3758992 -0.09318834 -0.19320042 0.55855674 -0.071617894 -0.24605025 0.32716817 0.1458723 -0.08323936 0.18549219 0.23984551 0.3199013 0.5089047 0.37925503 -0.3243175 -0.12962422
3217 -0.17964342 -0.24713081 0.14927776 0.20523609 0.30105412 0.28886238 -0.10557487 0.1514913 0.08489372 0.039284103 0.5889808 0.2939178 0.15111491 -0.26062682 -0.6539046 0.81578785 0.11420176 -0.559709 0.25220054 -0.2505373 0.7620358 0.8165265 0.37674546 0.052283503 -0.4239395 0.8233719 0.02711418 -0.5102835 0.44072852 -0.7076465 -0.3270644 -0.057150397 0.8730946 -0.30371127 -0.23517396 0.23372401 0.6595709 -0.48540315 -0.1249949 -0.6827723 -0.47830254 -0.531093 -0.41026047 0.6748815 -0.023801394 -0.32345706 0.076637246 -0.26989475 0.253221 -0.48019803 -0.31058627 0.47108203 0.040967524 -0.36054373 0.14440107 0.5020532 0.25211245 -0.50400925 0.1909848 -0.47414196 -0.37228084 0.57588124 -0.536103 -0.15568116
95588 0.4588289 0.013014907 -0.045791224 0.0379067 0.16026522 -0.26370725 -0.07509277 -0.5704115 0.37349403 0.24353343 0.055510588 -0.3843134 -0.43435338 -0.3007958 -0.0006642899 -0.63556165 0.014435838 -0.003158031 0.19127372 0.23745643 0.34438774 -0.13676046 0.3184409 0.10799136 -0.025144706 -0.2038314 0.2699539 -0.37237868 0.30994713 0.16475993 0.035993934 -0.2618192 0.13096538 -0.2899737 -0.085057616 -0.3926312 -0.1328828 0.028636346 0.24562256 -0.36484408 0.11601921 0.3256303 -0.060829315 -0.1598425 -0.50785285 0.2310706 -0.029714413 0.0027118006 0.21233739 -0.21913269 -0.01644509 0.12953317 -0.095001444 -0.3889546 0.03447921 0.27390555 0.117088534 -0.08063091 -0.14716499 -0.17237785 -0.06325391 -0.073605426 0.25652796 -0.16558528
16008 -0.2523249 -0.16076905 0.2833012 0.1733801 -0.74032784 0.40863243 0.2240753 -0.003795028 0.13677502 0.34231442 -0.15525092 -0.73579586 -0.59608775 0.18400106 -0.9442606 0.63734514 0.4427533 0.025974263 -0.114750445 -0.17270161 0.31708893 0.35505 -0.48495373 0.29536363 0.20611678 0.40995574 0.53985643 0.08794446 0.6994271 -0.44110224 -0.3019568 -0.6635544 -0.34080964 0.29496673 0.32442534 0.48313498 -0.087076984 0.699122 -1.0301359 -0.52402467 0.30830717 0.073908545 0.045623686 0.8465697 0.018958108 -0.081604205 -0.28147253 0.006655175 -0.2749477 -0.044514515 -0.31688666 -0.1784373 -0.5132278 -0.92645246 -0.1811043 0.94192827 -0.19268642 -1.7384498 -0.27175146 0.3544589 -0.8728481 0.7206975 -0.48014706 -1.481419
216878 -0.58386976 -0.14412628 -0.22764233 -0.11548079 -0.4045347 -0.37396824 0.41420093 0.094947904 -0.04806566 -0.6147892 -0.103336915 -0.24936827 -0.66928107 -0.14756484 -0.29154688 0.09231038 -0.3794836 -0.19135402 -0.04819144 -0.5744286 0.046979327 0.5994172 -0.3415782 0.44631356 -0.05510133 0.20172173 0.027185928 -0.15339431 -0.12849401 -0.1935753 -0.06942728 -0.2339571 0.19278455 0.39037907 -0.100963406 -0.29816264 -0.18384992 0.32291996 0.08742718 -0.43862805 0.09368009 -0.46707603 -0.7585723 0.07813023 0.3179401 0.24055699 -0.6709304 0.059359014 0.24901323 0.31367868 0.48137754 0.9988738 -0.14282794 0.054770038 -0.18875082 0.033941638 -0.4736305 -0.010350915 -0.033899724 -0.20284705 -0.19623984 0.09844015 -0.6393589 0.14600201
409725 0.20581816 -0.028888248 -0.006040489 0.41404086 0.009015435 0.5322559 -0.082443595 0.057663683 -0.04451517 -0.25962624 -0.091388285 -0.43434188 0.29172426 -0.25158128 0.14553161 -0.097036704 -0.569501 0.4258139 0.12778111 -0.52374834 0.040973395 -0.2875635 0.20061007 -0.02773359 -0.05613886 0.42686775 0.15776947 -0.17008987 -0.26085266 -0.35323852 0.23612206 0.14478797 0.3049275 0.4949856 -0.21819842 -0.3200946 0.13104543 0.82063097 -0.17156799 -0.6535883 0.5743614 -0.10844843 -0.63962245 -0.03929559 0.26697165 -0.20818217 -0.10502206 -0.36584327 -0.08372619 -0.7837033 0.16069959 0.1525752 -0.42523882 0.060891386 0.09764619 -0.010815883 0.2763175 0.0946794 -0.10695906 0.37557235 -0.60585856 -0.040820964 -0.19620676 -0.073615134
1117476 -0.058203258 0.24525374 -0.11987456 0.66074264 0.1698454 0.17305654 0.10656858 -0.759495 0.41327804 -0.0011931747 0.29053444 -0.20516548 0.18064988 0.069236256 -0.0623509 0.06980341 0.58461773 0.14602837 0.6587973 -0.21528639 0.12282536 0.1488142 -0.24916807 -0.20052582 -0.19777903 0.029106777 0.19324401 -0.12795343 0.09868892 0.34570995 -0.29514286 0.29811126 0.40779173 -0.51798177 0.00036044884 -0.31351742 -0.05497294 -0.09352701 -0.31375587 -0.19164313 0.40062892 0.10978675 0.007310426 0.12926537 -0.20313029 0.26869076 -0.12635736 0.7158893 -0.21896985 0.02337812 0.017335087 0.60633653 -0.24191295 -0.15482265 -0.4199825 0.39956027 0.4169341 -0.10301494 -0.07987794 0.37900427 0.2795025 0.21037592 -0.17743094 -0.27763847
98693 0.12542932 0.53412724 0.52017355 0.17926951 0.3215546 0.17221221 0.2972308 -0.15481523 1.0424583 0.000642616 0.46583933 -0.41386384 -0.1428266 -0.14010268 0.10673769 0.27310753 -0.14483504 0.3699711 0.4682166 -0.058917455 -0.36969477 0.16894327 -0.1884076 0.0074583273 -0.2978789 0.16124031 -0.41201144 -0.50025564 0.40129548 0.21171181 -0.07456282 0.25712013 0.437915 -0.39064038 -0.21001488 -0.86884993 0.87841463 0.078889854 -0.6440253 -0.45389292 0.10156404 0.43765786 0.22803153 0.34097606 0.0082006585 0.01738971 0.069818735 0.54097056 -0.141435 -0.0342324 -0.11166146 0.27246174 -0.33202127 -0.60530454 -0.45705155 0.2807267 0.14794876 -0.5069066 0.3483178 0.1518595 0.010220773 0.08835957 -0.083671354 -0.25400487
686559 -0.00368661 -0.110025354 0.015593777 0.16089512 0.32274932 0.10866311 0.36700022 0.23500544 -0.07026662 0.15131348 -0.05686411 0.35117334 0.270358 0.36704132 -0.3600245 0.07559576 -0.27790603 0.006784684 -0.2477078 -0.36401552 0.12078603 -0.0038728032 0.08790695 0.014604086 0.029809613 0.03441819 0.0071213976 -0.1728794 0.13377348 0.3855195 -0.042100344 0.01907247 0.31809568 0.25479746 0.2963594 -0.32577732 0.076672755 0.0054310393 0.06901195 -0.12729196 0.24709958 -0.13705446 -0.13218425 0.06258146 -0.24993335 -0.41114563 -0.301215 0.187058 -0.34671918 -0.21808249 0.09124456 0.20361489 -0.11265362 0.05545649 0.37813312 0.035208616 -0.24652997 -0.09001207 0.0969973 -0.17560445 0.0078144 0.008432941 -0.098625846 -0.22057165
964248 0.46180448 0.36335117 0.66642034 0.50929236 -0.22849452 -0.0005614751 -0.108724326 0.71378064 -0.53660023 0.27203774 -0.00034737904 -0.04209409 0.2445402 -0.2448728 0.061629124 -0.13076508 0.08092541 0.117193334 -0.20313178 -0.42283824 -0.5541763 -0.030050782 0.5051233 -0.46425274 -0.2551632 0.11950857 0.30586666 -0.19459099 0.16849712 -0.057814192 -0.46516728 0.26949596 0.08534198 -0.1437947 0.29544306 0.08257593 -0.08555402 0.34951538 -0.16087843 -0.51482016 0.56139773 0.5368879 -0.43976152 0.09235991 -0.12418451 -0.20883186 -0.3470249 0.2576854 0.23913619 -0.288047 0.09591594 -0.19707704 -0.47112593 -0.08665651 0.27538627 -0.23131455 -0.05611678 -0.6274754 -0.66587925 -0.08649327 -0.39618433 0.40283835 -0.5724929 -0.6858938
400473 0.47588864 -0.18794973 -0.12200225 0.048565943 -0.63499236 0.75946516 0.18978947 -0.3782474 0.17721806 0.30964985 -0.080203876 -0.38843197 0.05612696 -0.1011384 0.4276409 0.34308067 -0.2190256 0.38168743 -0.18730247 -0.28984177 -0.22018209 0.043355476 0.19334523 -0.4204259 0.53321874 0.046675973 -0.09003344 -0.34364176 -0.02077972 -0.14807938 0.5016549 -0.04497021 -0.056204297 -0.0728519 -0.14212856 0.14314172 -0.10770211 0.41265932 -0.4843496 0.16779049 0.18797378 -0.0017405016 -0.2935842 -0.28834382 -0.39324817 0.19150741 0.21928771 0.1820784 -0.10442147 -0.40452632 -0.0867499 0.5960594 -0.19978791 -0.2338247 -0.16433138 0.04798165 -0.5890911 0.24685934 0.18248029 0.11327067 0.010034396 0.27234983 -0.27269977 -0.5773124
1128531 0.3718368 -0.08730199 0.51361746 -0.03439992 -0.3080495 0.08673772 -0.15232588 -0.27188995 0.12799814 -0.05499669 0.4076074 -0.26032415 0.050536446 0.36706293 0.045315087 0.50506693 0.018135475 -0.4979875 0.076131195 -0.09254028 0.43744668 -0.2768135 0.4583962 0.23523967 0.34788373 0.03476259 0.39682126 -0.27538082 -0.3429864 -0.031319488 -0.15644047 -0.37828445 0.49599203 -0.45299116 -0.25148562 0.18883319 -0.38628694 0.11504663 0.00020204757 0.604771 0.051015295 -0.022939906 0.4077075 -0.22161539 0.17464961 -0.057548035 -0.055657428 0.3702839 -0.024386419 0.027535483 0.047949057 0.36641395 0.11237856 -0.05382566 -0.5871102 0.111286685 -0.27103075 0.2564343 -0.3324573 -0.6121412 0.1685601 -0.022776535 -0.31659004 -0.27539504
8617 0.5536139 -0.6964405 0.1401211 0.46784505 0.11803332 0.8566228 -0.0046239397 -0.3053326 -0.059285667 -0.07622536 -0.6524959 -0.73900056 0.21153979 0.37850305 0.14050414 -0.14241998 -0.6597084 0.57000136 0.3788016 -0.9311201 -0.6474759 0.589013 0.63101196 0.3192268 0.14638321 0.30208927 -0.5345933 -0.3767888 1.0963947 -0.2792078 0.4238612 -0.57666445 0.0777666 -0.32574147 0.7160566 -0.056061983 -0.017619964 0.30422884 -0.33809647 0.024665805 -0.020327318 -0.2758063 -0.16592243 -0.10417052 -0.134047 -0.5007464 -0.16763078 0.78759086 -0.23148674 0.67207116 -0.17744483 0.496906 0.23759246 -0.028914167 0.32581258 0.34895295 -0.28719807 -0.23472661 -0.34913322 0.06615511 -0.3418712 0.5300761 0.018373748 -0.12911871
44121 -0.08893799 -0.09865092 0.27784252 -0.22374609 -0.084896356 -0.44192854 0.40252894 0.26363292 -0.64329374 -0.4110735 -0.13259448 -0.18074183 -0.21084632 -0.23338428 0.32100874 -0.118965946 0.4138573 -0.1647684 -0.32525095 0.07605935 -0.12853634 0.51662093 -0.41966638 -0.03344558 0.14846829 0.09639665 -0.18397279 -0.25121078 -0.21344315 -0.04834638 -0.012630469 -0.10259893 -0.1898596 0.08767248 0.2217788 0.0058328165 -0.5069545 0.30292696 -0.18550768 -0.40797448 0.28350952 -0.0055652806 0.23999317 -0.03016232 -0.13471662 0.19716841 0.09773462 0.00061546476 -0.1677063 -0.13672863 -0.11771108 -0.25195292 0.23451559 -0.49620372 -0.20635635 -0.11345189 -0.19432545 0.054315604 0.23646237 -0.18540584 -0.3839017 -0.18587673 0.06551925 -0.28754276
1152711 0.2518352 -0.4174381 0.49490544 -0.14985661 -0.27902782 -0.016103145 0.35884666 0.33780017 -0.10534002 -0.18599556 -0.040569518 -0.5944246 0.21277848 -0.25426346 -0.2775265 -0.4059437 0.4040203 -0.28878906 0.17483874 -0.6432588 0.049807135 0.15418161 0.083437026 0.112681285 -0.25001854 0.2896334 -0.22043404 -0.6509637 -0.3242195 0.35283664 -0.012080751 -0.39844453 0.37937555 0.031960905 0.2916574 -0.04124508 0.6243677 -0.06401774 -0.8177753 -0.39555776 0.4061279 -0.4038656 -0.34182936 0.67296416 0.22016588 0.025293289 0.50557095 0.13233258 -0.47220722 0.15365592 -0.46745178 -0.41033724 -0.52089083 -0.40222496 -0.60824144 0.03533414 0.023019964 -0.528569 -0.0012449509 -0.48428228 -0.388762 -0.071819924 -0.3846702 -0.16937956
1120049 0.16217443 -0.26466635 0.19414036 0.3288003 -0.48765117 -0.033115428 0.120141745 0.23410721 0.15502495 -0.22918278 0.1295946 0.25336093 -0.214174 0.20915666 -0.038330805 0.04625351 -0.22110327 0.1402129 0.15704025 -0.3071045 -0.25023526 0.13469158 0.35535854 -0.53041846 -0.51186246 -0.1971145 -0.31519237 -0.19643874 0.13029872 0.20049244 -0.30028737 0.07465985 -0.1425552 0.22912364 -0.2374053 -0.61155915 0.30549434 0.24783222 -0.31265932 -0.50198793 0.7909521 -0.32589397 -0.052872904 0.08293167 -0.17816515 -0.17107709 -0.04737687 0.13042653 0.23284973 0.39387047 -0.154968 -0.1506307 -0.8860982 0.36651888 -0.30209416 0.32246637 -0.04440877 0.25272965 0.30024463 -1.0417047 -0.7427987 0.4913387 0.25155455 -0.9019155
111770 0.02431776 0.25366822 -0.53044647 -0.26143712 -0.08546195 -0.11879938 0.27843764 0.08142492 -0.4483974 -0.26752967 -0.06382417 0.5447493 -0.06747506 0.07434374 -0.39388293 0.12758291 0.13675496 0.104949884 -0.098960884 -0.49572355 0.061168194 -0.06544768 -0.3292565 0.019854637 0.12641953 -0.12313219 0.040474188 -0.33959576 0.14238231 -0.07466229 -0.115642786 0.07716206 0.052514452 -0.14942446 0.30556902 0.068584494 0.12005369 -0.012693926 -0.12341751 0.2298751 0.02555417 -0.19465461 -0.13858184 -0.3293482 -0.10663963 0.23264538 0.13602343 0.13774137 -0.3209047 0.07822431 -0.17953598 0.1519168 0.2478063 0.03331691 -0.13246487 -0.22515178 -0.41520914 -0.09775973 0.41634503 -0.13527794 -0.23903406 -0.16119261 -0.24978727 -0.043865066
628888 0.28281882 0.08273079 0.29441398 0.40185395 0.19546972 -0.25133714 -0.12411284 -0.0012344406 -0.48161584 -0.13318722 0.83475035 0.3064569 0.012085238 0.37857503 -0.09751784 0.090115406 -0.2949369 0.39732158 -0.047028426 0.06150055 0.29528993 -0.32316494 -0.097765096 0.15832908 0.21487062 0.118329205 0.6052252 0.066170365 0.38337812 -0.13134654 -0.297793 -0.5714508 0.5452586 0.34192225 0.028495185 -0.6557612 -0.017814372 0.20595218 -0.16457786 -0.56828475 0.54442483 -0.19723031 0.38282922 -0.13862292 -0.40430057 -0.084283665 0.31829825 0.16809314 0.1901707 -0.19772612 -0.3097097 -0.2858772 -0.22161789 -0.17177889 -0.17170402 0.51153326 -0.037378587 0.5115643 -0.18291683 0.24169913 -0.35688463 0.058724042 -0.24563874 -0.13788545
107251 0.4343762 0.31574485 0.16837431 -0.05595886 -0.017442826 0.30285126 -0.20156361 -0.15103696 -0.12466942 -0.17378534 -0.15291125 0.044932898 0.005874199 0.5435723 -0.24861647 0.42156166 -0.7384173 0.18627997 -0.18725808 -0.5537512 0.48798737 0.7225956 0.5235091 0.13917215 0.11760809 0.15858966 0.5651531 -0.19433194 0.34218836 0.4255321 0.29146883 -0.2175571 0.5184466 0.17144388 -0.44410166 0.21056803 -0.5712788 -0.42438796 -0.27062 -0.02263762 0.004788744 0.2916656 -0.65501046 0.10294608 0.5429643 0.6098589 -0.49157065 0.415178 0.83274734 -0.2270783 -0.26860422 0.6247411 -0.26422969 -0.20172113 -0.17714094 0.64696825 -0.3418686 0.5401086 -0.20092484 0.07569631 -0.15732658 0.27081802 -0.7379374 -0.30808645
154047 0.36646938 -0.15135165 0.1789259 0.26606292 0.40516415 0.26605704 -0.086571015 -0.2645034 -0.038695373 -0.48681778 0.37073612 0.41849616 0.030576648 0.118870236 0.103912175 0.079488985 0.36486536 -0.043510076 0.3603187 -0.37051377 -0.6774336 0.48939508 0.89034563 0.13974379 -0.3957682 -0.20478699 0.4310271 0.4857055 0.78162915 -0.3691099 -0.23393767 -0.33606663 -0.043066703 0.060079437 0.18034624 -0.14340328 -0.34713838 0.3917062 -0.041207954 0.33204085 0.9239111 -0.50807446 -0.26428923 -0.03996311 -0.62078696 -0.33581066 0.16510926 0.34360293 -0.14263453 -0.09733231 -0.09721391 0.36064932 0.5166904 -0.27911153 -0.5348233 0.025017755 0.2187903 0.20159963 0.3944839 -0.21273534 -0.9707549 0.10566804 -0.83811134 -0.44411838
85449 0.7579108 -0.29747096 0.251075 0.2026696 0.3012472 0.6062436 -0.05493889 -0.061935112 -0.43068776 -0.7766117 0.106445484 0.19257754 0.0036523342 0.88611895 -0.5681432 0.408401 -0.5529847 0.1361347 -0.16840477 -0.32520404 0.5035154 0.09588813 0.40775824 0.0697416 -0.103208214 0.24384 0.5269605 -0.06958523 0.44230786 0.28341037 0.18877704 -0.2291883 0.48526174 0.18243526 -0.122049175 0.3220656 -0.63464963 -0.024420554 -0.54644156 -0.20835987 0.2728587 0.36022955 -0.5127654 -0.196922 0.65184945 0.9956419 -0.29940695 0.15907602 0.09301956 -0.23111288 -0.66651434 0.7095046 0.09724018 -0.14376777 -0.20686086 -0.1301868 0.013538745 0.19494276 -0.11038622 0.28024542 0.24745557 -0.29036477 -0.5793107 -0.657435
310653 0.2556571 0.07472088 -0.65515107 0.5741833 0.2320068 0.10820809 0.15285955 0.14144179 -0.2056169 0.02929248 0.22962436 -0.13890426 0.10186218 0.20029573 0.002630034 -0.17521861 -0.2861601 -0.014778176 0.19767334 0.11922385 0.028982027 0.09026414 0.055380255 -0.46402907 -0.31640196 0.22925194 0.071330436 0.0010352392 -0.25255346 0.013577975 0.084012605 -0.06163265 0.37496626 0.3225193 0.08073687 -0.3206868 -0.22458777 0.18917568 -0.0028701508 -0.050726064 -0.004235338 0.1196238 -0.3731827 0.3184269 -0.5006002 -0.1709921 0.07777464 -0.10860137 -0.48563993 0.65454423 0.4858086 -0.12092179 -0.4474524 -0.7762159 0.10051566 0.28024843 -0.071728274 0.15870792 0.17996885 -0.18804452 -0.38663405 -0.26059148 -0.10873604 -0.88058245
1152259 -0.37951338 -0.56149256 -0.129552 -0.038148448 0.22369774 -0.17506392 0.32011673 0.029704912 -0.30364108 0.3444737 -0.041068554 0.24004623 -0.3219329 0.2294937 0.016683659 -0.5126081 -0.29945594 -0.08099685 0.48280442 -0.7175581 -0.5466674 0.42589357 0.23466621 0.24021178 -0.2702538 0.119490735 0.3152415 -0.48926452 0.46874812 -0.044584822 -0.11248603 -0.27208441 0.2962733 0.22967784 0.04906405 0.15462473 -0.51593095 0.07470606 0.28996935 -0.16068384 -0.588744 -0.10719086 0.09194428 -0.252759 -0.52777076 -0.42677853 -0.40337917 -0.35596064 0.25670943 0.13122131 -0.0396302 0.08187778 -0.28389993 -0.20922868 -0.3827919 0.101535946 -0.09404075 0.023839954 0.42109576 0.0035408598 0.27553406 0.3410648 -0.3426034 -0.20421071
66982 0.093621545 -0.43545702 0.63152826 0.5349965 0.4716242 0.08152313 0.31721765 0.27971318 0.012190311 0.100612864 -0.37474895 -0.6521511 0.16777627 0.35371557 -0.82139415 0.11337749 0.087609224 -0.17922242 0.46811897 -0.26965943 0.0387031 0.05698602 0.5063034 -0.043943044 -0.1337518 0.05853762 -0.28258854 -0.09352654 -0.17909099 0.0054020584 -0.03610359 -0.54943275 0.8422674 -0.04370102 -0.37527475 -0.13326174 -0.60155976 -0.17585507 -0.5450808 -0.26330945 0.4500609 -0.4590844 0.50380343 -0.031958457 -0.48826906 -0.08955612 -0.00642072 -0.49818644 -0.0256705 0.7273111 0.029527012 0.1411697 -0.6932173 -0.38450167 -0.039603945 0.13639958 -0.43951583 -0.038698133 -0.2376929 0.06932169 -0.38312972 -0.13772093 -0.08809183 -0.31584042
89547 -0.3269324 -0.4784525 0.15497974 -0.037105933 -0.48943976 0.14754376 0.26692626 0.6894522 0.96215194 0.1890224 0.5109756 -0.099216074 -0.6404231 -0.009045336 -0.056969497 0.07745917 0.4224848 -1.2295067 -0.3489212 -1.1275704 0.7574088 0.060549863 0.7830133 -0.024395032 -0.27735794 1.2384611 0.17217854 -0.5532435 0.4284417 0.39488506 -0.36145702 -0.4538556 0.91251737 -0.85411936 0.8966671 -0.024985315 1.1706908 -0.2922702 -0.4243648 -1.0566843 0.50377756 0.40568197 0.116047844 1.132696 -0.0010328413 -0.36827382 -0.24476835 1.2967979 -0.4889919 -0.3810523 -0.40585446 0.56108737 -0.81322587 0.0478301 0.13987492 0.087763146 0.57530046 0.7969428 -1.9592787 -0.97720075 -0.9958933 0.51074094 0.65173054 -1.1415842
230879 0.6914625 -0.18848845 0.4524351 -0.065781705 0.22153787 -0.5006296 0.424807 0.4918018 0.5999374 -0.33467153 0.028484287 -0.09954072 -0.6299628 -0.21732815 -0.3452198 0.4166127 -0.039639957 -0.46267548 0.7248846 -1.6204363 -0.87585527 -0.34804928 0.17231192 -0.7702011 0.43156767 -0.29380482 -0.16304198 -1.1929752 1.3583201 0.3253844 -0.7765864 0.43721366 0.9823769 -1.8608615 0.28310966 0.14396273 -0.4348293 -0.07598137 -0.7021138 0.41752076 0.22758514 -0.6256008 0.303637 -0.12494569 -0.57580006 0.11069564 -0.42598462 -0.022850886 -0.4281791 -0.5807179 -0.023831684 0.35090733 -0.8436689 0.21161625 -0.6216028 0.82761955 0.13969648 -0.21084477 -1.154114 -1.0520111 -0.7465031 0.5348394 -0.9599458 -0.4198165
779960 -0.18755981 -0.0106306765 0.1586257 -0.30498782 -0.35825297 -0.19983825 -0.41702944 -0.16651104 -0.12206619 -0.424712 0.01839193 -0.11076044 0.073340006 0.054062303 0.04751429 0.52525043 -0.014744211 0.13177037 -0.14497252 0.06687894 0.2710072 0.09637135 -0.24976608 -0.3978395 -0.061679628 0.3494922 -0.2573002 0.38311875 0.15579085 0.047667515 -0.1683345 0.35527757 0.6509523 0.18496552 0.16455552 -0.074110016 0.37456205 0.33167157 -0.345905 0.12779821 0.45189282 -0.2609295 -0.15872234 -0.21955822 0.09349977 -0.41321757 -0.088414624 -0.36085027 -0.3454787 0.42028412 0.10263816 -0.2815084 0.5309569 -0.10305473 -0.07376537 0.20389983 0.028982548 -0.11574718 0.028894264 0.049797807 0.022845011 0.10742337 -0.19680381 -0.09789501
287787 -0.7748377 0.26191348 0.38423425 0.83248377 0.3593041 0.2621956 0.06838538 -0.71390516 0.5963713 0.1970389 0.6596026 -0.7509445 0.29286456 0.32230908 0.19078456 0.083271414 -0.09636791 0.09751341 1.2930522 -0.98029274 -0.25826982 0.06879837 -0.3192943 -0.55800825 -0.8638676 0.23639685 -0.16002886 -0.12913741 0.25258523 0.32400784 -0.36023605 -0.33956036 0.64243567 -0.054698523 0.023630317 -0.5744539 0.4144987 0.070379265 -0.35019255 -0.14095181 -0.012282019 -0.18842886 0.041409586 0.30326718 0.23966157 -0.32610917 -0.68677133 0.66315883 0.14692241 0.13615085 -0.3583521 1.5551072 -0.59177065 0.16859102 -1.4648371 0.38771093 0.3883409 -0.38030308 -0.77087 0.18198574 0.092629895 -0.43922403 -0.8126139 -0.33634254
24476 0.7270166 -0.74778706 -0.13663903 0.56037146 0.24957909 -0.031889446 0.4874924 -0.52550924 0.33187446 -0.42475116 0.05300528 -0.08244911 -0.1417004 -0.7856413 0.39761925 0.49473622 0.16479012 0.09269041 0.58794105 -0.65720356 -0.20656462 0.34142056 0.55896837 -0.037570994 -0.14071257 0.43113703 0.3325489 -0.71046317 0.347433 0.21814024 -0.8392167 -0.11426676 0.5381556 0.5069186 0.14453171 -0.21086974 0.2788007 0.9239138 -0.1682576 -0.4855559 0.8809588 -0.18199743 -0.18725595 -0.6648816 -0.20776947 0.020146655 0.2557547 -0.072106086 0.23630856 0.27035683 0.25406587 0.35247403 0.383548 -0.3276829 -0.30267054 0.092975944 -0.32318112 -0.16342591 -0.11069831 -0.13545775 -0.7534523 -0.26030472 0.28397653 -0.15247062
108974 0.664316 0.36438385 -1.0242921 0.55590814 0.53889066 0.514364 0.15864255 0.3596379 -0.08752464 0.0102251135 0.6486511 0.1322439 -0.08248673 0.6962584 -0.0016217325 -0.45353815 -0.73906046 0.034786075 0.40086594 -0.14123407 -0.08129145 0.1358818 0.250003 -0.669755 -0.37074727 0.53475094 0.3318997 -0.27466047 -0.3043249 0.15928206 0.1474775 -0.20138338 0.31571624 0.30507657 0.3844264 -0.46676674 -0.33955163 0.4832003 -0.12457209 0.0063296994 0.43089294 -0.027433608 -0.5104147 0.5157515 -0.7307775 -0.32646713 -0.15829484 0.12795478 -0.7424618 0.4996085 0.64393604 0.19308974 -0.3567378 -0.8985001 0.08858644 0.34318763 -0.035306334 -0.29033864 0.1632655 -0.18399817 -0.27447805 -0.38626134 -0.25709003 -1.27008
1139928 0.53131884 0.19797413 -0.49556285 0.22199531 -0.11714292 0.09412787 0.20116553 0.22184765 -0.7672679 -0.032700922 -0.010690766 -0.10460823 0.042917147 0.23513849 0.15263854 0.466221 0.282228 0.0453261 0.00041539496 -0.5522855 0.3650643 -0.35868126 -0.10697101 -0.378256 0.108791515 4.143867e-05 0.70854104 -0.9649946 0.33894405 0.02601331 -0.31887263 0.71123064 0.07753205 -0.19146173 0.014323117 -0.7799249 0.4754183 0.448227 -0.031921174 -0.5121993 0.2481761 -0.3359429 -0.6438967 -0.04945422 -0.06564108 0.150124 -0.35582367 -0.005104316 0.089940585 0.030732222 -0.1421982 0.7505259 0.16128702 -0.1551436 -0.43512323 -0.5944847 -0.61126083 0.6599031 -0.68725586 -0.019976843 -0.35482648 0.09340741 -0.46178985 -0.38409838
307015 -0.60127205 0.56530875 0.5786615 0.4383649 0.1922254 0.2052557 0.16521248 -0.8226323 0.70129836 0.30308047 -0.024848217 -0.23939991 0.5772257 0.124509014 -0.09866057 0.3586822 0.16206983 0.33851227 0.813372 -0.5026652 -0.38753057 0.11130425 -0.03177615 -0.7882326 -0.5896632 0.28707868 0.12902828 0.016447404 0.44421005 0.40449995 -0.22441864 -0.15680525 0.8311308 0.098910004 -0.03709981 -0.7567935 0.7351553 -0.13626395 -0.26362896 -0.09170718 0.20893687 0.20253503 -0.16822955 0.23203787 -0.09023197 0.09553134 -0.66758275 0.6422182 -0.2916729 0.29186398 0.009789609 0.91520005 -0.75225145 -0.006413405 -0.69147855 0.2776299 0.19561201 0.011442649 -0.56428695 0.38409844 0.25230935 0.10006854 -0.21872966 -0.25913095
288107 -0.21000974 -0.32674155 -0.02071501 -0.26981133 -0.0198248 0.12826107 0.31759083 0.15163517 -0.26479635 -0.4859478 0.29350966 0.18762797 0.13267137 0.008797686 0.19386443 -0.35275835 -0.1828787 -0.22642817 0.11456467 -0.036355283 -0.0268436 0.3203315 -0.2588172 0.29884315 0.28014883 -0.27543977 -0.045498338 -0.3785038 0.5320172 -0.040464405 -0.48427805 -0.011299623 0.07597784 -0.047462832 0.51090115 0.028232068 0.061126437 0.27372572 0.018022314 -0.11291898 0.25721985 -0.21234962 0.09062556 0.062045973 -0.016535876 -0.22823079 0.2680838 0.2036595 -0.32708305 -0.0996162 0.029951222 0.20539321 0.06974498 -0.36721018 0.20240276 -0.022746019 -0.39252687 -0.27576983 0.5411857 -0.07463088 -0.15712939 -0.03297393 -0.0007284131 0.10879163
647413 -0.5529046 -0.11079114 0.3173113 0.27714327 0.4153977 0.25277707 0.29027516 -0.21107182 0.021185396 0.5590312 0.024719872 -0.33641362 -0.19503929 0.045305233 0.12525027 0.12743096 -0.23241736 -0.081467606 0.4662234 -0.6050001 -0.39955086 -0.1080099 0.14712588 -0.5833567 -0.8684206 -0.0044408385 -0.2631105 0.023951245 0.21907021 -0.06915842 -0.04550344 -0.182999 0.67041755 0.20159468 0.26540756 -0.28131622 0.19457959 -0.38029006 -0.11322792 0.039940376 0.1105614 0.06734939 0.48693338 0.17613707 0.29350853 -0.3987533 -0.3135156 -0.0063552884 0.1966782 -0.0069934 0.04460603 0.7266811 -0.2840547 -0.12345004 -0.5167329 0.52305067 0.411107 0.1356778 -0.6188003 0.10816607 0.4056588 -0.32749483 -0.27248895 -0.16790424
594025 0.12309635 -0.28096747 0.11448343 -0.120548815 -0.09292307 0.26893964 0.27266818 0.063501775 -0.103976764 -0.44721615 0.2144662 -0.4150563 0.005653089 0.30411306 0.17690231 0.34600383 -0.31608516 0.18054904 0.05740196 -0.17135943 0.00869092 0.46960437 0.39107046 -0.18732005 -0.11814159 0.10068748 0.46223897 -0.33390877 0.3751058 -0.010126631 -0.016892998 -0.6502336 0.6537184 0.18118396 0.26379415 -0.07883123 0.0054815505 0.097589605 0.21920867 -0.043089014 -0.21178953 -0.28796786 0.29971704 0.38276872 -0.29085708 -0.17717075 -0.18880735 0.348104 -0.26929343 -0.27102783 -0.29237387 -0.14400937 -0.35255095 0.07127722 -0.19366856 0.5049353 0.49844584 0.050852858 0.11800701 0.0055518188 -0.21878581 -0.16623801 -0.20612334 -0.11982165
28674 0.20886554 -0.028127821 0.17091721 -0.046349023 0.0065624444 -0.055658612 -0.39984733 -0.194172 0.19992341 0.18363674 0.49887827 0.4579494 -0.4814087 0.3590927 -0.09902784 -0.00080917816 -0.17997774 -0.4907037 -0.08073612 -0.18372929 0.2750589 -0.084623925 -0.04273656 0.4212886 -0.4693173 0.33583683 -0.24567002 -0.19917215 -0.027207213 0.088122204 0.26538867 -0.29800624 0.10429196 -0.45571208 0.006705987 -0.017172191 -0.07096772 0.3170642 -0.11359019 0.29887697 -0.13797879 0.30400306 0.05046346 0.12961893 0.17266585 0.028095558 -0.046456426 0.06026884 -0.28421363 -0.108754665 -0.24558161 0.01361982 -0.01103873 0.2976358 -0.30961904 -0.097227596 -0.2795877 0.07575833 0.115762964 -0.118461095 -0.2936986 -0.20319253 -0.024051206 -0.22451127
103543 -0.9193673 -0.9141701 -0.33250174 0.111287564 0.23856944 -0.49000493 0.07831608 0.19039658 -0.1502636 0.36902967 0.01888605 -0.17646499 -0.37237963 0.7065824 -0.3714155 -0.15440255 -0.6095967 0.18134888 0.67919636 0.37491474 -0.21696788 0.07876594 0.2846242 0.16466998 -0.057102747 0.5507965 0.35104498 -0.5364729 0.1143624 0.3696553 -0.3220538 -0.07848552 1.4440039 0.41527614 0.28010613 -0.80724555 -0.351689 0.15002185 -0.3367746 -0.20486079 -0.23020835 0.3192624 0.04962764 0.111450404 -0.38272926 0.34637785 -0.39701486 -0.047439005 0.36349902 0.5485043 -0.032429595 -0.06532859 0.3147432 -0.6244605 -0.3598412 -0.31045875 -0.39231932 0.5916923 0.0020716314 -0.3248646 -0.13941103 0.4786076 -0.6770866 -0.4667707
1688 -0.06824804 -0.16572188 1.3925031 0.95234257 -0.007376623 0.30954346 -0.20757279 -0.47889087 0.20123237 0.33533874 0.7984381 0.15371436 0.949612 0.22164382 -0.14137834 0.1745935 -0.55541193 -0.56195205 2.092686 -0.93318814 -0.5699822 0.1575609 -0.6435331 -1.2418671 -1.1381451 0.038897313 0.5252783 -1.3085917 0.31411347 0.2911888 -0.06807738 -1.1215991 0.74291384 -0.17039958 0.46880156 -0.36144355 -0.24542317 -0.0015913724 0.05325045 -0.13693577 0.8831687 0.73034716 0.30412298 -0.047191203 -0.7630804 -0.31952685 -0.63400006 0.81492835 -0.003255557 0.9661579 0.084061764 1.4433064 -0.58035773 -0.33804768 -0.97351766 0.22927548 -0.28304306 -0.4933221 -1.0631416 0.12549265 -0.26071933 -0.74558717 -0.9779938 0.20674174
941 -0.1815638 -0.23703834 0.23804912 0.11599281 0.1878977 0.47126505 -0.39399183 0.18175343 -0.47107112 0.16677463 0.41992876 0.86742115 -0.15098372 -0.097242914 0.57084125 -0.13010822 0.23045297 -0.350362 0.3048542 -0.7529888 0.09396222 -0.20048603 0.12267461 -0.038443487 -0.6027496 0.35850942 0.15416431 0.36702457 0.30194086 -0.2056921 0.043188877 -0.9870956 0.45852876 -0.08431799 0.6962295 0.07991481 0.35674074 0.45665494 -0.32038665 -0.393142 -0.226544 -0.70530975 -0.8087487 -0.093318336 -0.40387177 0.08068493 -0.324567 0.5386182 -0.75099015 0.26766428 -0.031062573 0.20104064 0.17246428 0.071620055 -0.762135 0.47267783 -0.30344042 -0.35427478 -0.3407056 -0.16572249 0.26286855 0.17140642 -0.6729315 -0.63322777
385572 -0.39009586 -0.33463472 -0.23157005 0.018337581 0.6169224 -0.062201936 0.5798654 0.2229625 -0.09117524 0.31377327 -0.7301131 -0.14384058 0.43375453 -0.40569073 -0.51798344 0.11381956 -0.023853227 -0.2457994 0.48593533 -0.35642236 0.18077652 0.28639266 0.3128908 -0.37895134 -0.20809941 0.6617957 -0.086433746 -0.12522218 0.12530483 0.0234056 -0.035472393 -0.51865655 -0.28696588 -0.27472696 -0.48360208 0.04042233 -0.34304172 0.21063143 -0.581732 0.13423422 0.1934618 0.13645427 0.68078214 9.5400006e-05 -0.65470785 -0.230763 0.011736541 0.15159836 -0.23013458 0.43109548 -0.011899132 0.2119041 -0.44671816 -0.39467558 -0.31295356 -0.07739187 -0.0342988 0.014002433 -0.45754814 -0.41484922 0.4365112 0.36752474 -0.08697841 -0.18625644
1131557 -0.23731796 0.26824898 0.16504489 0.29071298 0.015699644 0.011803964 -0.04445371 -0.75851977 0.5947379 -0.3038515 -0.014845939 -0.24822031 0.3046859 0.17201686 -0.10266781 0.030325493 0.5979899 0.13096508 0.43748394 0.20194986 0.033854213 0.13824551 -0.35963824 -0.108198315 0.0105456365 -0.29948446 -0.08799683 -0.2083009 0.22885007 0.24055092 -0.07783353 0.5372365 0.06873905 -0.2721892 -0.056214545 -0.28896526 0.033132628 0.21490315 -0.088802114 -0.2311649 0.29078272 0.27692235 -0.07219175 0.11288862 -0.2589875 0.46033156 0.21970583 0.45727164 -0.236111 0.05925486 0.097459696 0.4152177 -0.03842849 -0.09505956 -0.29060212 0.009359068 0.20883515 -0.23233035 0.27769017 0.24530177 0.24608782 -0.00889915 -0.003631524 -0.044592645
129558 -0.13372074 0.0063282363 0.129023 -0.10465864 0.17430466 0.22583932 -0.34331506 0.194437 -0.47770017 0.31515616 0.28151813 0.67367065 -0.13363686 -0.2057945 0.3886635 0.19950002 0.11969969 -0.02774962 0.30380803 -0.4923905 -0.059534293 -0.335587 0.05604391 -0.043651488 -0.6315923 0.16575618 0.27169815 0.048822764 0.21717347 -0.27214882 0.22836325 -0.6816529 0.42138666 0.36813533 0.34792095 0.035304204 0.39715382 -0.118835784 -0.15450698 0.042048752 -0.14199375 0.013718231 -0.25920627 0.09000002 -0.12364604 -0.04572891 -0.5466658 0.2640456 -0.47817543 0.25321802 -0.06291154 0.14089055 0.1288415 0.30358574 -0.35343048 0.2285735 -0.17765822 -0.31792325 -0.27006418 -0.033428904 0.041095223 0.03233613 -0.48613745 -0.5032485
5966 0.39063653 -0.2835666 -1.0810566 0.22426242 0.16389526 0.05728026 -0.0031913402 0.0006498178 -0.11987372 -0.15018122 0.21424408 -0.4119263 0.66656107 0.7345003 0.41790068 0.81454116 -0.79360646 0.20562868 0.34872952 -0.7063831 0.081178695 1.0118679 0.9155658 -0.24224891 -0.5073722 0.7082787 -0.081539266 -0.6831466 0.4439964 -0.46462038 -0.52987695 -0.9811294 1.4853548 0.24578899 -0.45012224 0.86651796 -0.24035853 -0.16212149 -0.1106999 0.034023624 -0.020083774 -0.5719528 0.49532753 0.056490626 -0.51600444 -0.1803907 0.12737979 0.142712 -0.31813723 -0.27446768 0.0025674708 0.14662759 -0.1441861 0.112620056 -0.44740182 0.34994638 0.95142835 -0.5000348 0.31142193 -0.74039435 -0.064216875 0.061101623 -1.001832 0.2911537
11342 0.47267428 0.21132036 0.21544701 0.0032653718 -0.36849573 0.07995082 -0.29669693 -0.40182275 -0.04523032 -0.11497406 0.55381787 -0.41949207 -0.2668657 0.47349167 -0.03933467 0.34845197 -0.5530357 -0.53247344 -0.15834801 -0.6230435 0.07479212 0.4060574 0.6515823 0.20000021 0.63340133 -0.021344244 0.33164343 0.29315466 0.05848182 -0.30537158 -0.19980484 -0.401281 0.35634026 -0.33642757 -0.8268552 0.46225393 -0.11636835 0.7230914 -0.7548234 0.91461265 0.29862636 0.0006153196 0.30458346 -0.22282292 -0.10709062 -0.5690247 -0.4304394 0.84668684 -0.16371717 -0.13035445 0.031440943 -0.21033572 0.42632827 -0.0682821 -0.7700792 -0.0021973473 -0.33043414 -0.104570456 -0.43786076 -0.6112373 -0.19038709 0.1815367 -1.0424033 -0.580046
85452 0.5657955 -0.27786365 -0.28219768 0.7872103 -0.14468648 0.25284 -0.37816772 0.65646315 0.0929551 -0.35826367 -0.25263357 0.009623088 0.62318635 1.0051826 0.19097441 0.737743 -0.47124514 -0.089297175 0.5411299 -0.17712872 0.21889944 0.6121475 0.35659733 -0.21770114 -0.03433043 0.23690274 -0.0018712961 -0.08915759 0.12772346 0.22477189 -0.26706645 -0.5042971 0.114182495 -0.3084735 -0.3943859 -0.015771199 -0.57512635 0.032022636 -0.15789698 0.07910475 -0.18434967 -0.42212868 -0.30840096 0.1438341 0.37139833 0.23253353 -0.4749349 -0.079783335 -0.13888134 -0.27260733 -0.861287 0.08699332 -0.16244395 -0.5444034 -0.4701895 -0.26618207 0.3154886 0.26741046 -0.38579166 0.07883608 -0.112993665 -0.09382866 0.06907084 -0.20568639
1136814 -0.3980118 0.16294405 0.29612225 0.5214806 0.31515864 0.11762727 0.23358299 -0.74655676 0.5702851 -0.009069473 0.12017507 -0.5285788 0.020752693 0.13177432 0.050803628 0.25634098 0.3782011 -0.0009484476 0.6088206 -0.26908362 -0.061187577 0.13609818 -0.32972565 -0.50427836 -0.48046467 0.08344604 -0.26005352 -0.2517147 0.31152654 0.020457542 -0.13577755 0.21552186 0.39241135 -0.099816285 -0.055888366 -0.3701303 0.39508295 -0.16973934 -0.28887114 -0.19862053 0.34579214 0.06693092 0.16544327 0.030742226 -0.14213994 -0.053512927 -0.06457589 0.6129619 0.15136334 -0.15531881 -0.08071019 0.64823985 -0.36198768 -0.33250022 -0.5446706 0.32336342 0.2662794 -0.14441073 -0.20655999 0.2599134 0.025363808 -0.009729543 0.0045736274 -0.114817575
36162 -0.28898633 -0.845909 0.07552988 0.28931084 -0.4730126 0.24054909 0.6404044 -0.08204611 0.3819962 -0.45852655 0.112187065 -0.058500096 0.71812123 0.2601701 0.026682306 -0.3228615 0.07776838 -0.11367969 1.2682945 0.15006341 -0.67498356 0.25623396 0.7268739 -0.14145881 0.96006876 0.3491713 0.86281604 -0.48596233 0.7808145 -0.37929907 -0.2003841 -0.6966337 0.24026711 -0.3846106 0.5585258 0.3461408 -0.6004002 -0.06087744 -0.24338919 -0.7808249 -0.15567929 -0.14403267 -0.17654139 0.11215222 -0.5175014 0.44526425 -0.6572817 0.2688489 -1.3407602 0.04083883 -0.8956758 1.0410515 -1.1337298 -0.09891008 -0.57789004 0.6582881 -0.24081185 0.73644197 -1.320036 -0.74015254 -0.75719845 0.82658964 -0.7167373 0.11110916
3932 0.14237121 -0.22298805 -0.30439132 0.12933873 0.16194412 -0.75701994 0.15960957 -0.39693186 -0.42503858 0.14241992 -0.0018129933 -0.0028035308 0.13022868 0.22532198 -0.033113744 -0.35001233 0.14054766 0.55836374 -0.124987274 -0.20257428 -0.16806023 0.092423014 0.19101048 0.56020874 0.2604369 0.25983027 -0.095295794 -0.019113641 0.7926491 -0.21107718 -0.7829878 -0.30120698 0.8585475 -0.26213187 0.662566 0.21893013 0.3874336 0.107395016 -0.12925217 -0.0011861761 -0.33852223 0.029201822 -0.8244174 0.31462625 0.17304002 0.082279235 -0.16167551 0.009332507 -0.2358441 -0.15431282 -0.0145825315 0.29173347 0.21695371 0.16406602 -0.6375855 0.62362695 -0.46427566 0.22809185 0.16636352 0.003242864 -0.21371272 0.07287313 -0.74645996 -0.023238951
57773 -0.21319012 0.08277882 -0.14038454 0.15369909 -0.42057052 -0.035791505 -0.26587072 -0.021719659 0.16588311 0.13297756 -0.4770683 -0.1742124 0.36760798 0.28627956 -0.5276011 0.026395848 -0.65395206 -0.51328284 0.34270847 -0.3913852 -0.21200645 0.2569036 0.5470325 -0.24997383 0.35516194 0.1686058 0.11148647 0.3372802 0.09845121 0.04989195 -0.028723745 -0.40666643 -0.07647994 0.22481279 0.3199521 -0.5036171 -0.106527776 -0.09976113 -0.8737182 -0.33202344 0.6835917 0.36853206 0.4992003 -0.39572224 0.18301356 0.3356863 -0.45791018 -0.05037419 -0.38594306 -0.4852716 0.00052810117 0.2800559 -0.50388056 0.050819576 0.04216971 -0.05901378 -0.92026156 0.2086845 0.071188934 0.24277155 0.12975095 0.1676064 -0.17566065 -0.5728897
335042 0.58809704 -0.5331227 0.6408213 0.5079823 0.2166395 -0.38850024 -0.23434716 -0.06304504 -0.66313994 -0.743058 -0.038222928 -0.15501313 0.38014075 -0.009214773 -0.15950428 -0.23468763 -0.54837215 0.40835682 0.24857093 0.06875924 -0.09563306 0.2097153 0.12223789 0.49313015 -0.077538505 0.21358563 0.17921558 -0.40719616 0.008585997 -0.605114 -0.7688009 -0.11664301 0.23379612 -0.051916987 -0.6548022 -0.21557093 0.3565956 0.04155258 -1.0024716 -0.15382917 0.8332902 -0.22404224 0.075333096 0.18687686 0.10541024 -0.14519396 0.74821705 0.20910655 -0.35444972 0.14410739 0.023518817 0.8865015 -0.46493596 -0.56379986 0.022934597 0.38260373 0.34230486 0.0373873 0.28329572 -0.51009744 -0.10894836 0.15857558 -0.6940975 -0.7851981
1125402 0.12670076 0.03285736 0.065180086 0.32355002 0.1994865 -0.060579006 -0.17465779 -0.16884568 -0.11181899 -0.05573231 -0.28684926 -0.6100534 0.28213617 -0.02482013 -0.14515297 0.12531571 0.12485177 -0.21479678 -0.10771248 -0.14288346 0.14803644 0.2668095 -0.1681279 0.008473712 -0.097063884 0.0017879229 0.032238252 0.15388879 -0.14471102 0.20080447 -0.017647188 0.01899364 0.5397846 0.34333262 0.12707506 0.09847135 -0.3831917 -0.10770511 -0.31261474 -0.13799909 0.18697606 -0.31740588 -0.0088110445 0.2101641 -0.3259932 -0.30404 0.17104295 -0.28285766 -0.09342297 0.33162665 0.21340902 -0.2212857 -0.13073595 -0.51949507 0.27374998 0.27856213 -0.06543646 -0.14290558 -0.28168657 -0.23627248 -0.4666991 -0.18529756 0.2902938 -0.28696123
211906 0.06551867 -0.25097817 0.012477088 0.20361692 0.07172576 0.27968776 0.0301319 -0.24317758 -0.13139763 -0.30317953 -0.022245746 -0.13318413 0.20663929 -0.31503955 -0.26063818 0.22713 -0.23933613 0.23091586 0.12626968 -0.2032213 -0.14336945 -0.016873516 -0.04320253 0.22940002 -0.15399165 0.020995198 -0.06271345 -0.06439358 0.32768488 0.27325737 0.011209896 0.040391512 -0.11980995 -0.13360797 0.14783558 0.16383637 0.05671678 -0.05651228 0.24700673 -0.07883421 -0.19772476 -0.112509154 -0.07453974 -0.14567922 0.22225262 -0.13627777 -0.19932696 0.06745904 -0.19451204 -0.053578842 -0.02403983 -0.031195978 -0.10140014 0.300962 0.13231272 -0.10684121 -0.2710841 -0.058345847 -0.15829937 0.031203194 -0.41220516 0.24337508 -0.1953181 0.019765517
910 0.5060355 0.23612787 -1.0241977 0.7173716 0.18651465 -0.15930624 -0.20447055 -0.04164798 -1.1514946 -0.1845019 2.0701523 -0.7897363 0.10859892 -1.3924571 -0.51176095 0.6315374 -0.37688702 0.24487078 1.6851293 -1.765461 0.45331368 0.79352236 0.63062775 0.26845777 -0.2309032 0.4160577 -0.5213915 0.271009 0.03274073 0.27092898 -0.42097324 -0.5354561 -1.1217216 -2.6042738 0.47551292 -2.4307537 0.66054094 0.21903625 -1.3892974 1.0645428 1.3173718 -1.1820719 0.2823306 -0.44181764 -1.3554493 0.31578156 -1.1533508 1.7789395 -0.5259601 -0.33622116 0.290781 0.6443995 -1.4866283 -1.6154962 -0.014562333 0.25223124 -1.3813716 0.81645775 -0.4553115 -1.2590824 0.06600065 1.074808 -0.8830137 0.24898118
1132157 0.7330677 0.25496948 0.55505544 0.36490074 -0.19376038 0.13454123 0.007857644 0.44914466 -0.23170266 0.28322336 -0.08403919 0.110510014 0.024025742 -0.21754557 -0.10316829 0.026534313 0.23229954 -0.11378777 -0.29408368 -0.34480333 -0.72133094 0.2132528 0.45183045 -0.41743165 -0.02811888 0.14753999 -0.17590216 -0.25315765 0.28096974 -0.17494534 -0.19740957 0.3283396 0.08849813 -0.15611073 0.30587485 -0.09674358 -0.0029076121 0.020925935 0.043541856 -0.29217353 0.091879115 -0.15445386 -0.019523606 0.044333808 0.20450096 -0.40482238 -0.22041592 0.1082162 -0.04232228 -0.07884171 -0.013718884 -0.2663602 -0.0057954686 -0.028199887 0.20295674 -0.31064397 -0.1624403 -0.5217312 -0.11030022 0.22566535 -0.3347636 0.6617932 -0.1197742 -0.68830955
195792 -0.009946649 0.3551549 0.14965424 0.19460851 0.29646146 -0.24289845 -0.20611888 -0.009249855 -0.29500356 -0.058469247 0.014339199 0.0890542 0.038918633 0.27688873 0.18084349 0.21554157 -0.6081752 0.17915958 -0.47671306 -0.91138786 -0.54685706 -0.07203667 -0.24607478 -0.21306355 -1.3117049 -0.51465374 0.5948905 0.12305959 0.41145793 0.36172178 0.7328783 -0.89049244 0.28044072 -0.43847978 -0.29195324 -0.44953367 -0.92349154 0.61869705 -0.3651302 -0.62305295 -0.39053488 -0.04122076 0.44737485 0.061122205 -0.13034743 0.29305303 0.02469148 0.15973029 -0.28145838 -0.2858035 0.7252782 0.72395325 -0.6482523 -0.045782853 -0.4699154 0.6229115 -0.18391283 -0.5945245 -0.6599194 0.26442632 -1.4799334 1.1132617 -1.1344597 -1.273966
235678 -0.2014621 -0.04870163 -0.13235576 0.08613875 -0.47463876 -0.1410849 -0.35633543 -0.027756734 0.11093627 0.0938464 -0.3899727 -0.17451908 0.30079043 0.4257926 -0.61655724 0.054052267 -0.67946845 -0.52228916 0.5705063 -0.49887598 -0.22040573 0.21556282 0.62487626 -0.19040866 0.36386847 0.12613413 0.2141885 0.20972288 -0.032604925 0.14348038 -0.027104672 -0.47306883 -0.16102816 0.17654543 0.26216036 -0.5990631 -0.03255188 -0.17708662 -0.85016245 -0.42057836 0.53109777 0.4069903 0.54604566 -0.5034824 0.16189507 0.47627792 -0.53953224 -0.018215375 -0.48516026 -0.6504877 0.07968287 0.2940076 -0.4950552 -0.0028977795 0.039307218 -0.09883098 -0.8508149 0.09685815 0.058692843 0.17306542 0.20005313 0.28018105 -0.24551915 -0.74336046
593859 0.10139117 0.084094554 -0.35572878 0.4943413 0.18325545 -0.03508649 0.6262077 -0.8721712 0.726233 -0.24523473 0.81219757 -0.20080237 0.4708452 0.009100051 0.008553717 -0.066326365 0.5054192 0.4795225 0.81006134 -0.34847718 0.047388233 -0.2822285 -0.26763117 0.16560821 0.1105364 0.1356404 -0.02837187 -0.3170142 -0.17574038 0.6361471 -0.4360069 0.33096388 0.5467979 -0.2790343 -0.081371464 -0.1631996 -0.2585936 0.16259527 -0.418853 -0.2967678 0.48554438 0.3029182 -0.15659396 0.24919407 -0.13054663 0.19692715 -0.15281303 0.21331356 -0.35562134 0.1749468 -0.36167502 0.78714514 -0.47228825 -0.14960916 -0.08585785 0.830701 0.15841424 0.18313849 0.014308573 0.31818846 0.4134125 0.65056795 -0.20087357 -0.44398913
3097 -0.4421678 0.49981028 -0.20175457 0.44053972 -0.7980244 -0.7685124 -0.21611336 -0.14154437 -0.61304015 0.06971732 -0.11025758 0.3675285 -0.186663 -0.054927867 0.2939326 0.55062574 0.020472942 1.1994667 0.098841764 -1.0312788 -0.16060787 -0.19104722 0.64770234 -0.025457632 -0.8043204 0.39975807 0.59429044 0.47625265 -0.03941414 -0.26017082 0.22473003 -0.25943512 0.95946443 -0.30718935 0.66940963 -0.11075609 -0.0032140757 0.11299973 -0.17786297 0.18681118 0.5430591 0.36974213 0.16576561 0.29376844 -0.044164326 -0.35007218 -0.15341641 0.8119957 -1.0485597 -0.28952014 -0.50894547 0.33589736 -0.550249 0.06654724 -0.3897289 0.4395767 -1.0034667 -0.5680893 -0.30389184 -0.44087845 -0.55355877 -0.20746785 -0.4221732 -0.4149916
1104787 0.29664108 -0.11304162 -0.09939652 0.020015992 -0.63446623 -0.06360279 -0.028015437 0.114291936 0.22453782 -0.10312113 0.24670176 0.29588193 0.23558082 0.21694805 0.24699128 -0.37725753 -0.28544956 0.13294482 0.35957962 -0.20921056 -0.27703714 0.13856085 -0.1084821 -0.1535462 -0.12527084 -0.0071574254 -0.28392753 -0.37281305 0.17922525 0.23739682 -0.12530616 0.15239419 0.09905704 0.28398538 0.032720603 -0.1991496 0.052691583 0.07048669 -0.28020293 -0.25568202 0.63448924 -0.48171923 -0.35094732 0.0650964 -0.20804997 -0.16713126 0.028729161 0.10864381 -0.15572418 0.11195901 -0.2763026 -0.2291233 -0.42237386 0.33600593 0.017936364 0.17165278 0.13332994 0.24427576 0.15036827 -0.67333597 -0.63648736 0.60967803 0.023298746 -0.5692682
90470 0.07165319 -0.19222939 -0.37325177 0.26606444 0.017135067 -0.085224554 -0.09921225 0.23546715 -0.09323038 -0.3855372 0.33726043 0.019663103 -0.009801345 0.03316544 -0.17076464 -0.49582317 0.10247744 0.08307378 0.0995352 0.041237164 -0.44997308 -0.12998149 0.18507825 -0.26906615 -0.60526896 0.5712018 -0.18995786 -0.9480489 -0.34288788 -0.2922864 -0.1845 -0.16760524 0.27059394 -0.478527 0.2648515 -0.23504987 0.122921765 0.44729608 0.20434356 0.35509527 -0.1515234 -0.2849833 -0.8656879 0.135507 -0.17212698 0.083578676 -0.2534171 0.39594486 -0.37777856 0.42135262 0.28982568 0.34017992 -0.41773582 -0.5377503 0.11308834 0.27410135 -0.79925513 -0.33330497 -0.024969954 0.061084706 -0.56925845 -0.34821004 -0.20145816 -0.5660824
1213 0.110449836 -0.048766825 -0.024790624 0.51616925 0.11244823 0.62158966 -0.21241577 0.1879413 -0.08711278 -0.29809478 -0.116442345 -0.42632082 0.11485698 -0.29216054 0.07936495 -0.11644704 -0.44692698 0.48278803 0.045958735 -0.78995925 -0.0030329328 -0.2677111 0.23027217 -0.18881477 0.1211061 0.5229487 0.24236362 -0.1514368 -0.07159464 -0.64992625 0.124053136 0.034117445 0.67827016 0.56547296 -0.36534604 -0.40264267 0.27998644 1.2180085 -0.27833906 -0.6781971 0.648513 -0.0021011597 -0.6976607 -0.2631322 0.22333905 -0.14610857 -0.10411027 -0.27478707 -0.03900998 -0.7542012 0.16032636 0.14421116 -0.7182598 0.28360087 0.049754824 -0.21235766 0.42754114 0.20431119 -0.042394537 0.21919888 -0.7424656 0.15246592 -0.35445642 -0.05470525
387795 0.10416615 0.05548396 0.060962148 0.4428559 0.10037297 -0.048378415 0.076912425 -1.0375453 0.8704609 -0.58109105 0.02595662 -0.49369487 0.21355999 0.2814862 -0.07693665 0.20670798 0.6525382 0.29901588 0.5691762 -0.06672482 0.03270485 0.330732 0.06374041 0.09453015 0.122623816 -0.17859036 0.11603398 -0.43353933 0.48853588 0.21195878 -0.10336557 0.029397069 0.5395592 -0.2924959 0.035069857 -0.6245365 -0.22569197 0.15871666 0.06391421 -0.44324344 0.29933465 0.066647895 0.17697841 0.4197523 -0.51869756 0.21051222 0.063617416 0.5015757 -0.39488986 -0.05087881 -0.14088295 0.28769064 -0.255463 -0.3373755 -0.46592548 0.085424975 0.60014755 -0.30962208 -0.09015721 0.10083725 0.34306008 0.08928204 -0.24458033 -0.115564175
696345 0.4284311 0.05143628 0.20936525 -0.1722436 0.13389261 -0.33318967 0.42401654 0.17284897 0.29397142 -0.4748018 -0.01352806 -0.3362287 -0.7143205 0.035522014 -0.47684374 0.22265951 0.121270664 -0.51285076 0.43184572 -0.895829 -0.6869484 -0.27740014 0.30870342 -0.09288609 0.1107318 -0.1530532 -0.21002315 -0.69216716 0.8536166 0.13776232 -0.5417156 0.31686395 0.45805144 -1.3077784 0.1701433 0.39265624 -0.2720014 -0.21351595 -0.4892334 0.077161856 0.1780698 -0.13035971 -0.20616087 -0.17730024 -0.1787475 -0.018884808 -0.33434826 -0.21162643 -0.48481202 -0.27534422 -0.005017968 0.25291485 -0.46187425 0.22212279 -0.2254513 0.64829165 0.15621696 0.15793309 -0.5273988 -0.5615582 -0.084574446 0.47149628 -0.5118438 -0.1728029
162080 0.17028804 -0.35599768 0.58847964 -0.34652805 -0.5907538 0.3441295 -0.6544355 -0.4632515 -0.44293115 -0.21966016 0.16521801 -0.6796695 0.12785567 0.343559 0.15275641 0.13625373 0.40101576 0.24423419 -0.22685485 -0.7715806 -0.6034585 0.24272121 0.66815645 0.09604474 -0.54656863 -0.26274347 0.31718895 0.03201817 0.3980141 0.30967376 -0.2896337 -0.9309532 0.28195918 -0.39902 0.37457758 0.29654422 -0.5108292 0.5224184 -0.8297488 -0.31044713 0.2693353 -0.2983802 -0.91409594 -0.42839572 -0.33321777 -0.0061812717 0.31608203 0.78689605 -0.06397897 -0.18233836 0.58582425 0.9222169 -0.42772973 -0.6422346 -0.03691844 -0.26542875 -1.1446906 0.42971063 -0.82930034 -0.43298826 -0.40746227 -0.25299573 0.31368458 -0.73604673
1112665 -0.04708506 0.17397766 -0.094534755 -0.20166032 0.4394153 -0.28828347 0.03055782 -0.01630955 0.21131542 -0.5246758 0.19837028 0.5646083 0.5592259 0.15433043 0.18449275 -0.215425 -0.10450808 -0.09589043 0.10223233 -0.34243578 0.22699627 0.0025620975 0.43567064 0.022816919 0.0033788153 -0.037805982 0.27468184 -0.46235967 0.035855312 0.19102003 -0.22274157 -0.33682364 -0.07736528 -0.2045833 -0.37864223 0.08103024 -0.5114848 -0.18050821 -0.4711477 0.06526929 -0.17109185 0.06953567 0.3515719 0.079434596 -0.1535335 -0.41505313 0.16892593 0.3428027 -0.3207629 0.1261652 -0.36602566 0.17458037 -0.64111537 -0.7159548 -0.14847389 -0.0011030737 -0.08391225 -0.063547656 0.34731734 -0.56211704 -0.14065453 0.5229711 -0.1149282 0.059952017
265203 0.11165481 0.037191298 0.24523383 0.4789932 0.08588121 0.21469663 -0.23815091 -0.81422484 0.6067593 0.3481399 0.3525931 -0.40316853 -0.041721392 0.4152466 0.00424324 0.104802966 0.14240336 -0.01617726 0.40981454 -0.30873385 -0.0063815564 0.2624055 -0.016589522 0.042499732 -0.55007344 0.24410017 -0.08577751 -0.29983857 0.24813953 0.370373 -0.115337916 0.00093497545 0.3760658 -0.49582106 -0.07302301 -0.66725606 0.26533484 0.03556764 0.013190754 -0.30687678 -0.22090246 -0.20620602 -0.014027179 -0.15089503 -0.05228245 0.2288514 -0.10679628 0.18537244 -0.08688105 0.0011882144 0.23630181 0.58519876 -0.28808522 0.2490789 -0.56738967 0.44513664 0.4637574 -0.4049796 -0.589845 0.4041673 0.20487869 0.34636894 -0.12275304 -0.33510554
503877 -1.0406293 -0.35290816 0.15145653 -0.17866407 -0.10316945 0.37658763 0.19982167 -0.30690473 0.0042177746 0.8108911 0.024353849 -0.117713995 -0.18544957 0.31049344 0.4317138 -0.11252728 -0.2903808 -0.22885635 0.35570115 -1.1833593 -0.71028113 0.111398265 0.73020554 -0.35046723 -0.71228206 -0.25684565 0.37491202 -0.4791845 0.09687176 0.40555906 0.50618047 -0.61544013 0.9796958 0.28950694 0.6333214 0.061357748 -0.08885881 0.042447258 -0.9326127 -0.01098692 -0.23659746 0.08556296 -0.29504877 0.26037073 -0.0169384 0.328383 0.28058133 0.22411151 -0.5352274 -0.19395 -0.14043975 0.39899614 -0.20788696 -0.35872698 -0.49242646 0.89167243 0.4245005 0.29091418 -0.44464773 -0.6634408 0.28700384 -0.1819709 -0.50248235 -0.44332555
278403 0.04671448 0.30659956 0.01609036 0.38951823 -0.21717462 -0.1540174 -0.24870966 -0.03361441 -0.32301718 -0.05775454 0.65496916 0.19188726 -0.09120434 -0.4038655 0.2587571 -0.094767205 -0.20872043 -0.00030186356 -0.09876894 0.0061955727 -0.4257998 -0.32589075 -0.24106187 0.09389225 0.005386341 0.060028713 0.17245565 0.11253325 0.12882347 -0.09291965 0.27446756 -0.004033078 0.25321162 0.28790334 0.2821244 0.36118323 0.21465427 -0.17128032 0.010641679 -0.23978592 0.4637278 0.21696517 -0.21059743 0.13439456 -0.16130935 -0.05473745 0.04004205 0.061958365 0.26861706 -0.25782487 -0.37540096 0.38947338 -0.06084683 -0.74460614 -0.18171047 0.46301603 -0.01755921 -0.33751553 -0.28608274 -0.07674598 0.07472961 0.118136354 -0.29453617 -0.19593617
1152277 -0.10685479 -0.64392424 0.075244546 0.06852535 0.48436922 -0.22828743 0.5452362 -0.14127073 -0.21312022 0.5818283 -0.3379944 0.05325483 0.42520812 -0.4615599 -0.10788499 0.17354509 -0.17354529 0.0165286 0.4242018 -0.33690858 0.18193232 -0.3477631 0.10604228 -0.3835442 -0.17672178 0.43037516 -0.06808231 -0.16123442 0.07049398 -0.055067617 -0.1932153 -0.24507146 -0.015890833 -0.58601207 -0.3035539 -0.009465725 -0.3628916 0.18892796 -0.7378666 -0.25134012 0.32708716 -0.43738 0.325755 0.18389666 0.07052753 -0.19061087 0.26607338 0.22129522 0.102578476 -0.010993771 -0.24820694 0.5701877 0.16281609 -0.358224 -0.41622165 0.08553746 0.005515518 0.27566993 -0.5642708 -0.588066 0.5964395 0.38876936 -0.39301068 -0.61011446
643221 -0.58690715 -0.65081644 0.036943212 0.068228036 0.64587414 -0.48725545 0.12657143 -0.59540623 -0.21145561 1.2373924 0.38955513 -0.46264488 -1.1910863 -0.06646084 -0.73192006 0.62000763 -0.97234315 0.7178397 1.421986 -0.5993727 -0.84308624 0.10549877 1.1807086 0.43197912 0.3743957 0.5619592 0.9292092 -0.5191146 0.23438759 0.81812304 -0.24963048 0.18582109 1.528778 -0.7803751 0.3954426 -0.445504 -0.36982265 0.09809327 -0.3914483 -0.80023664 0.26662162 0.40051773 -0.6234835 0.22401018 0.050115976 -0.54898065 -0.2763936 0.12917107 0.18303812 -0.15742965 0.43627137 -0.37096637 -0.92476726 -1.1736504 -0.79166925 -0.013852407 -0.19193706 0.19875686 0.43369907 -0.31694296 -0.3992828 0.5976484 -0.28199646 -0.4219653
8079 0.4824723 -0.3723629 0.82762766 0.6956752 -0.38632092 0.11872198 -0.62528616 -0.15689787 0.5956221 0.22081988 0.2776768 -0.2997763 0.33433068 -0.17854093 0.042580493 0.37990096 -0.620071 0.32331452 0.7441992 -1.2900349 0.41952968 -0.026761327 0.98830354 0.33163467 0.32619742 -0.17782383 0.15224531 -0.2562817 -0.2225323 -0.44617626 -0.2671556 -0.78438044 0.2709032 -0.42025888 0.09469784 0.25272825 -0.13041478 -0.32259315 -0.8480957 -0.49680156 0.354097 0.34744614 -0.44458702 0.08358988 0.14884777 -0.5391565 -0.09862022 1.0183728 0.6640893 0.56734174 0.67428386 0.07308012 0.2363688 0.22689334 1.2128896 -0.282322 0.14090385 -0.60676193 -0.8144054 -0.3657225 -0.8234913 0.7762822 -1.1923338 -0.44701114
1126044 0.20418474 0.06962111 -0.08757691 0.42531 -0.06727441 -0.023876302 -0.0026283222 -0.14052834 0.20129655 0.12716563 0.83466613 0.42629418 0.13902284 0.3319888 -0.11748824 -0.50071514 -0.6692977 0.54352564 0.24783555 -0.047780734 -0.03312961 0.2560698 -0.22887611 0.14789443 0.002144685 -0.11670161 -0.651674 -0.28333288 0.18377069 -0.55905724 0.28255704 -0.21473128 0.20513448 0.036248595 0.49001333 -0.16657723 -0.33683637 0.026840644 -0.31078795 -0.2039816 0.822006 -0.80882514 0.3882074 -0.5104595 -0.30310607 0.03939428 -0.49791566 0.12409759 0.13201575 0.8439742 -0.26161924 0.1142162 -0.48843944 -0.50922066 0.8045717 0.8025025 -0.043474905 0.5099095 -0.26533186 -0.33762494 -0.099021696 0.64974004 0.16461578 -0.21601352
1107355 0.43894234 0.03223844 -0.32037497 0.01895493 -0.20823032 -0.14935933 -0.26868632 -0.76653785 -0.06410865 0.022930564 -0.3425219 0.033911202 -0.035179667 0.40655464 0.115627244 -0.10976574 0.030899074 0.026077325 -0.11891535 -0.43999672 0.26434568 0.25718832 0.5181084 0.38915712 -0.13000831 -0.14986193 0.06889626 -0.38103816 0.2033767 0.07260264 -0.24737684 -0.24257118 0.5086823 -0.49912262 -0.3635685 -0.7226052 -0.7248447 0.3350421 0.3287288 -0.65305775 -0.111829706 -0.039198324 -0.052616533 -0.23602538 -0.56651103 0.35128978 -0.08295921 -0.0057555735 0.02857198 -0.1285042 -0.49039796 0.14486822 -0.017564394 -0.4508338 -0.44550455 0.020880926 0.26872668 -0.10341146 -0.54808754 -0.19782792 0.39786702 0.6328845 -0.22948134 -0.09463061
18815 -0.2912113 -0.24504675 -0.54216486 0.34249392 0.007620187 0.1706127 0.35314757 -0.015537438 -0.33720848 -0.4422285 0.1516837 -0.45601517 0.5131674 0.2604658 -0.25841418 -0.20907158 -0.31659418 0.04373685 0.25444695 -0.640379 -0.23088273 0.12839136 -0.06507622 0.3127508 0.18901032 0.22004421 0.3397529 -0.20021214 0.48795933 -0.37853307 -0.3677684 -0.24742949 -0.109002925 0.024858315 0.15722518 0.26349348 0.2340261 -0.11146631 -0.32586426 0.32207924 -0.2559835 0.009922019 -0.44949535 0.032742884 -0.0006781356 -0.47857812 0.20861611 -0.19947967 0.109650455 -0.063706875 -0.8110412 -0.14943773 -0.20420939 -0.1427808 -0.5481038 0.5742867 -0.56265473 0.30301157 -0.16668355 0.5742983 -0.18954507 0.21103403 0.33698958 -0.19865708
1109208 -0.08524786 0.25736493 0.42054552 0.20056334 0.18178554 0.1029081 -0.08603198 -0.3486058 0.1855359 -0.03378612 0.18917345 0.19727196 0.10803277 0.08479303 0.05309085 0.1670319 0.12344864 -0.03853151 0.37018046 -0.008291809 -0.18946025 -0.029365204 -0.12734286 -0.29698378 -0.24733965 -0.18928505 -0.20634793 0.02067546 0.055821978 0.23932342 -0.12967895 -0.026207928 0.26280233 0.10934961 0.17347613 -0.30167443 0.061131418 -0.29111215 -0.096629515 0.1440983 -0.045743477 0.28296313 0.21112473 0.13390398 -0.060363382 0.20942518 -0.12357665 0.467368 0.0101157855 0.02151613 -0.11037532 0.32812908 -0.47772095 0.3396523 -0.37147915 0.12430113 0.29192147 -0.006441456 -0.10225112 0.6421057 -0.0706374 -0.3683052 0.03015513 0.09128038
28640 0.030700019 0.449226 -0.012917385 0.40430886 0.18051991 0.2760313 -0.008400791 -0.0968247 -0.30548504 -0.2372737 -0.076167814 -0.3698417 -0.41955099 0.54688466 0.5678612 0.030130416 -0.021611482 -0.2764939 -0.15278454 -0.53725916 -0.114402056 0.17380828 -0.16775623 -0.10714487 -0.23812534 0.2413302 0.2041866 -0.37011334 0.12920316 -0.44095305 -0.10369925 -0.008537004 -0.2530969 -0.21585108 0.7408728 -0.13876136 -0.35745066 0.5640491 -0.6001026 -0.005778604 0.41666016 -0.39037016 0.42645907 0.21231012 0.36621577 -0.84773314 -0.08065434 0.00946992 -0.22914012 0.1469754 0.5312426 -0.06939121 0.1749407 -0.494685 -0.17084798 0.39936456 -0.7179269 0.057946824 -0.45624828 0.09231714 -0.45750025 -0.26305178 -0.43132046 -0.61119187
1106172 0.718064 0.13812344 -0.20107894 0.03298353 0.17654805 -0.21217869 0.2599088 -0.09041374 0.028474709 0.34111437 -0.2359553 -0.5217984 -1.0202035 0.2137635 -0.27375326 -0.2824946 -0.05730108 0.08194488 -0.20063788 -0.4091435 0.12607345 -0.032932766 0.800606 0.14063118 -0.27575153 0.11086951 -0.0058561973 0.0010824769 -0.17525792 0.3172442 -0.40014288 -0.59412825 -0.15637311 -0.6471449 -0.06338606 -0.28156665 -0.049277477 0.60758805 0.21719916 -0.7192278 -0.08704479 -0.07688931 0.25412744 0.44152698 -0.20535325 -0.51642585 -0.42181355 0.25213778 -0.22824104 -0.13084164 -0.06443899 -0.11369884 -0.12738404 -0.0033589536 -0.2158576 0.07373166 -0.36557332 -0.12664923 -0.6671883 -0.09416956 -0.059949704 0.081544645 0.007415452 -0.36169222
103537 -0.21313739 -0.32926226 -0.22744374 0.5920167 0.48648143 0.03933186 -0.07925494 0.077732615 -0.19518885 0.08471691 0.19177543 -0.059361506 -0.42524236 0.43833724 -0.43983677 -0.3256364 -0.33054382 -0.11786747 0.27364814 0.58886665 -0.039349884 -0.38443083 0.65622723 -0.37284422 -0.2870786 0.037313167 0.041991297 -0.018025827 -0.2778096 0.077815846 -0.3231705 -0.404507 0.71433437 0.6191318 -0.04854153 -0.3002938 -0.4828871 -0.21030296 -0.3226736 0.19045068 -0.3758943 -0.10885913 0.31531447 0.0894609 -0.26733527 0.08156249 -0.24695548 0.107767455 0.21206021 0.5453965 -0.3867155 0.11182416 -0.13054626 -0.4898136 -0.20360683 -0.04437732 -0.2813272 0.08389056 0.21769308 -0.33203566 -0.2021057 0.16615112 -0.45072743 -0.6456653
254923 0.097851016 0.3644589 0.043380428 1.0643537 0.16421731 0.22698294 -0.048057 -0.5846235 0.90726995 -0.16919544 -0.12216044 -0.21234062 0.6531213 0.5661984 -0.10450026 0.19667928 0.46070305 0.38772205 0.7402118 0.13120897 -0.056540992 0.6239741 0.034988683 -0.29688767 -0.10443358 0.12178294 -0.16687146 -0.25132772 0.34437558 0.21810147 -0.35472932 0.23403092 0.05717105 -0.36544582 -0.41860953 -0.011053348 -0.14673749 0.016293328 -0.10109441 -0.12653948 0.16546425 0.12098129 -0.07815096 0.26891586 -0.18682876 0.36650175 0.050679673 0.4063794 -0.5206239 0.16880478 -0.20187616 0.44658878 -0.19266993 -0.35663393 -0.730391 -0.15331331 0.22341798 -0.19109444 0.043789487 0.23230593 0.1221533 0.26433575 0.61954266 0.01754566
81714 -0.33104315 0.47986624 0.2947783 0.52307886 0.27849957 0.84370244 0.19963373 -0.5475368 0.25924844 0.47432035 0.46135885 0.021083618 0.0123536475 -0.014240026 -0.07601718 0.45139545 0.19951762 0.1021574 0.8822716 -0.5932127 -0.1801693 -0.058688257 -0.24493302 -0.42006844 -0.5570166 0.32876125 0.1174121 0.0103683 0.057177763 0.42074156 -0.1977026 -0.3020168 0.6552385 -0.22366849 0.012724582 -0.28055376 0.28848556 -0.5597712 -0.6005788 -0.061566442 -0.08774913 -0.2105223 0.34373236 0.09279435 0.21600097 -0.070221655 -0.8044846 0.60852414 -0.070762776 0.4097388 0.06508743 0.81967074 -0.40900573 0.20351645 -0.70513517 0.6577854 0.5012851 0.25702 -0.59313196 0.5878245 0.28714827 -0.1405131 -0.4876694 -0.5331979
1104999 0.011913677 0.048766226 0.2815954 0.46981132 -0.25638792 -0.1115231 -0.10591953 -0.8609126 0.9167021 0.035335954 0.011925467 -0.058699336 0.120075256 0.2957722 -0.4650165 0.059363436 0.45451903 0.020324176 0.66942084 -0.16769594 0.23066905 0.109825484 0.23327832 0.3031421 0.61883616 0.09388276 -0.10745753 -0.71988505 0.80080795 -0.108055845 0.050087944 0.2298207 0.22696844 -0.322612 0.25545758 -0.87953603 -0.24372384 0.11020627 0.016060974 -0.56326574 0.35027322 0.13950782 -0.49378055 0.50148046 -0.11527402 -0.13228358 -0.066609286 0.2933007 -0.13460626 0.23669262 -0.20432043 0.6913687 -0.084245555 -0.26718166 -0.5688311 0.008595439 -0.2000447 -0.2643046 -0.35593387 -0.08560553 0.47801265 0.20768954 -0.19586357 -0.1888498
574009 -0.33374134 0.29965517 0.24648167 0.44541726 -0.056350462 0.37238827 -0.25014678 -0.4378788 0.3838035 0.002989384 0.16246201 -0.113872565 0.0806453 0.22024728 0.23129214 -0.02352055 0.041508514 0.12068602 0.4273025 -0.39893812 -0.09473761 0.08931256 -0.016511148 -0.33490306 -0.63447255 0.15981461 -0.22018549 0.019496897 0.39146107 -0.072540775 -0.1513245 -0.17497648 0.69985354 -0.08547962 0.045410156 -0.45044383 0.5963648 -0.19792648 -0.2553105 0.02800547 0.17803176 0.07972459 -0.0198965 -0.002563527 0.101604715 -0.082133844 -0.25176853 0.65722954 0.14233285 0.10493765 0.09080278 0.56039023 -0.4143115 0.28046697 -0.7357625 0.5693961 0.34358734 -0.22808446 -0.41028303 0.3101459 0.2037585 0.22770807 -0.44574067 -0.24884145
37888 -0.10701303 0.041561767 -0.0136067765 0.4317317 -0.17887233 -0.037506178 0.2175064 -0.01220411 0.1900874 -0.012836284 0.85839504 -0.03445193 -0.08308351 0.41442114 -0.20817049 -0.7075194 0.32807794 0.3532137 0.26495585 -0.3302819 -0.08078765 -0.35256246 0.5726677 -0.24808468 -0.4149199 0.86858624 -0.044260617 -0.8170845 -0.15940157 -0.24563414 0.11304905 -0.40123963 0.1917788 -1.0061997 0.1804097 -0.57991284 0.047405064 0.54608303 0.13862434 0.30584872 0.033694122 -0.38911393 -0.71917003 0.34334776 0.10568519 -0.24070063 -0.082220115 0.034202162 -1.0001391 0.4740402 -0.10651682 -0.23177457 -0.4989287 -0.5410941 0.43018004 0.37835106 -0.5375225 -0.5333641 -0.2087011 -0.3894082 -0.6994821 -0.73070866 -0.6077927 -0.48212576
34257 -0.16806461 0.07150242 -0.082641356 0.6121935 0.2176452 0.09075424 -0.29972258 -1.0368165 -1.1880913 -0.35429752 -0.05729943 -0.27138114 -0.5213972 -0.20617147 -1.1445283 0.1185404 -1.12299 -0.31841156 0.9359428 -0.63481474 1.0567077 0.11794711 -0.08467557 -0.041519675 -0.0015488471 -0.49585465 -0.18231374 -0.40944922 0.38507685 0.75668854 -0.720938 -0.63236266 0.37259847 -0.11834422 1.0377514 -0.8877575 -1.0232396 -0.19113569 -0.7641448 -0.72951984 -0.1288753 -0.49008834 0.31398767 0.63591397 0.5966739 -0.5180506 -0.07872159 0.8104941 -0.63023424 0.19136769 0.1431758 0.63345927 -0.54939604 -1.1219013 -0.19354859 0.7509187 -0.15266812 0.39852703 -0.65692234 0.12985434 -1.1615186 0.81501204 -0.8658235 -0.16480577
39127 -0.8895336 -1.013625 -0.33388272 0.25188977 0.9297711 -0.47862193 -0.2856318 -0.2548879 0.57247037 -0.2830702 0.76712394 0.73345727 0.98734784 0.12518144 0.4073713 -0.3004022 -0.2877676 -0.34092653 0.46752146 -1.0893948 0.1521454 0.73409516 1.0708048 0.6751139 -0.9831126 0.6678731 0.27342275 -1.1497186 0.45019847 -0.026385088 -0.0473885 -0.42478266 -0.27429515 -0.450884 -0.5373249 -0.9634246 -0.99008125 -0.2530109 -1.0424422 -0.9438979 0.103029236 0.92900366 0.29826424 -0.4185446 0.8397415 -0.45621315 -0.5510773 0.43174917 -0.7846499 0.20871323 -0.53805166 -0.4967342 -1.1307558 -1.1978047 -0.23477755 1.0583234 -0.5306529 -0.8474366 -0.16498075 -0.92065716 0.3652342 0.9438417 -0.6919317 -0.23701526
1105672 0.57016754 0.105297156 0.17905459 0.07414665 0.41068888 0.07361448 -0.24958019 0.3743497 -0.47830835 0.06362293 -0.42218637 -0.12781802 0.08163422 -0.008401036 0.15702233 0.3295329 -0.61650646 0.2147656 0.16096301 -0.38709915 0.032038882 0.77179724 0.693666 -0.093080245 0.276719 0.1783245 0.09917441 -0.6847418 0.8639172 0.17713934 0.16885033 -0.18321358 -0.31028405 0.09694485 0.058733102 0.36702305 -0.14055553 -0.26255456 -0.06670656 0.28936812 0.16314562 0.08038462 -0.58003104 0.2585701 0.6136693 0.38337412 -0.6708911 0.4697762 0.5686326 0.341858 -0.4126159 0.24442378 -0.2849464 0.3358206 -0.053319614 0.92454755 -0.1337173 0.45266962 0.16694605 0.20895213 -0.014467703 0.07942017 0.027534558 -0.16322592
23258 1.3639054 0.12687556 0.10885748 0.4389265 0.024867604 -0.4387375 0.38271314 -0.69464487 0.087096624 0.72977346 0.26731396 -0.6468322 -1.234395 -0.7684476 -0.9526203 -0.72882026 0.42618084 0.40497348 0.2336673 -0.52582836 -0.23520036 -0.09632435 1.482944 0.6039525 -0.15585744 0.03326352 0.45645702 0.039608262 0.18421689 0.39483818 -0.49595737 -0.8787391 0.17494883 0.05022928 0.775396 -0.113437966 0.24813621 0.20101207 0.2869891 -0.9825405 0.18790407 -0.054890927 -0.15627116 -0.26385176 -0.44867867 -0.18281867 -0.38876957 0.6932832 0.68707275 0.0011220839 -0.37494832 0.7016615 -0.685783 -0.7302776 -0.5328569 0.1554879 0.04969604 -0.03587455 -0.7798724 -0.39650935 0.118032426 0.17439657 -0.27584186 -0.24380621
1119216 -2.1353344e-05 -0.26479724 0.59543073 -0.45269367 -0.29506794 -0.82355714 -0.43545365 -0.15917474 -0.13433686 -0.2469549 0.49239165 -0.27661827 -0.11306394 0.04111519 -0.08576936 0.40280625 0.23543213 0.5144978 -0.2663576 -0.60385287 -0.20055991 0.21044108 -0.4296771 -0.08461235 0.3424967 -0.17517318 0.0890678 0.013084662 0.3251818 -0.3985447 -0.46420398 -0.31479037 -0.053424098 -0.4695617 0.0048775626 0.26036426 -0.23818511 0.13236146 -0.030310595 -0.5446893 0.17458136 0.23352209 0.1392582 -0.019137267 -0.1423976 -0.05589891 0.10117149 0.11336744 0.014648015 0.18338093 -0.09609409 0.60821223 -0.58092135 -0.406729 -0.92861223 0.09107168 -0.63014513 0.41624966 -0.5139102 0.08759484 -0.21023388 0.22865324 -0.2570503 -0.55114055
40922 0.13406457 0.15212916 0.09437055 0.19826867 -0.18752603 -0.15609196 0.19951172 -0.0075128013 -0.22930263 -0.15845509 -0.15531018 -0.34242362 -0.012627746 0.24675195 -0.019848773 -0.004029833 -0.082604 0.15211128 0.41597632 -0.4270519 -0.53997254 -0.13348508 0.35356238 0.051942423 0.04114946 0.19194902 0.03071684 -0.076660305 0.14307703 0.20445748 0.18364547 0.1717785 0.103732206 0.10200265 -0.111319825 -0.08179589 0.17945383 -0.41695672 -0.5664876 -0.27974698 -0.00562766 -0.15232304 0.19625482 -0.098938935 -0.35878837 -0.044412423 -0.05787732 0.39018548 -0.011434656 -0.49514303 -0.23430777 -0.08381374 0.04042069 -0.021726863 0.11048448 0.10950263 0.01899476 0.20579647 -0.027029611 0.044509776 -0.118614316 0.07802826 -0.17270479 -0.5583149
1154251 -0.07994886 -0.60446125 0.050386287 0.1042677 0.46544158 -0.17808215 0.5405027 -0.10941338 -0.18597038 0.5758557 -0.38582093 0.059272204 0.34517622 -0.58346915 -0.28821215 0.2286781 -0.10809964 -0.109042674 0.45194438 -0.31544617 0.2747186 -0.34628645 0.17700523 -0.42111057 -0.29777265 0.60154223 -0.09970653 -0.042869095 0.109310806 -0.12573048 -0.21647552 -0.34657007 0.09539721 -0.71760345 -0.3784464 -0.093241565 -0.35155174 0.19385985 -0.7975466 -0.21649584 0.28381968 -0.41205 0.37323204 0.11655744 -0.061936427 -0.18270828 0.21066989 0.27628365 0.18545654 0.13787419 -0.21387812 0.59547395 0.18144843 -0.27248836 -0.4442567 0.10444572 0.0028646432 0.42262644 -0.59676355 -0.64571106 0.5314385 0.3533603 -0.2941263 -0.69842917
7430 0.9066528 0.20332205 -0.38824233 0.07521403 -0.4072301 0.4746843 1.0000446 -0.042117655 -0.26769045 0.190624 -0.052248556 0.2810174 -0.42490274 0.6473283 -0.23271391 0.5258286 0.094603255 -0.061603043 0.6945362 0.14569628 -0.09285247 -0.25884935 -0.020595692 -0.032445822 0.6136834 -0.19616407 0.5204952 -0.49045992 0.0006485699 -0.31641355 -0.4051882 0.43280515 0.59359854 -0.6029202 -0.01014823 -0.6675497 0.61899936 0.099944845 -0.033503834 -0.6275083 -0.35316512 0.37193823 -0.33499384 -0.2931525 -0.41225898 -0.1590173 -0.69129694 0.09074887 -0.55805665 -0.3043728 0.10824964 0.6422082 0.16005756 -0.4851772 -0.024458066 -0.111802965 -0.52241236 -0.067318805 -0.19376609 -0.5632972 -0.50853366 -0.3106216 -0.39317045 -0.969309
6941 1.1220739 -0.35349417 0.13175528 0.38413242 -0.2903203 0.23367845 -0.46871737 0.08536807 0.50123394 0.08275743 0.1304386 -0.28107008 0.556308 0.50146174 -0.49319187 0.3646497 0.32354537 -0.013316479 0.68663627 -0.6603361 -0.15716802 0.3770033 0.7386136 0.05731608 0.12603234 0.26222727 -0.21595535 -0.15079509 -0.007067589 0.025874421 -0.11151522 -0.21280248 0.50454706 -0.34151828 -0.796141 0.29417562 -0.40367615 -0.2602061 -0.5073629 -0.18066858 -0.1047804 -0.12998234 0.065989345 0.7033097 0.021619294 -0.18572646 -0.41682634 0.057660706 0.3026976 0.6694188 -0.49361283 0.48056695 0.10429132 -0.5416427 -0.3137684 0.27019423 -0.56250435 -0.0032046672 0.40519878 -0.8462391 0.056368995 -0.13686955 0.5381616 -0.1726242
1109017 -0.021949278 0.21243922 0.35966226 0.162712 0.28455153 0.39390302 0.21859741 -0.57307786 0.3339685 -0.15307951 0.2850761 0.13171777 -0.030575184 0.17593113 -0.17333427 0.09312556 0.17671795 0.09728021 0.3571565 0.1982803 0.078960665 -0.24120133 -0.12938431 -0.06250208 -0.20128992 0.019079575 0.009685194 -0.098755136 0.34100762 0.35525548 -0.028757608 0.18250841 0.20564087 -0.0071568782 -0.0718167 -0.2323463 0.35671508 0.004020256 -0.43094212 -0.15881956 0.45853382 0.5151741 0.07338963 0.21708794 0.03312187 0.24685414 -0.08271874 0.21158223 -0.44504473 0.11035927 -0.044763073 0.39186352 -0.19952746 0.10564332 -0.2999663 0.039644584 0.35814247 -0.10669272 0.01891532 0.44524127 0.2641636 -0.18742286 -0.060368363 -0.1301216
91852 0.1130378 -0.42268634 -0.20038646 0.04128876 0.051233303 -0.13245335 -0.27478963 0.8189624 0.3308752 -0.16197622 0.9753953 0.5136192 -0.20810416 0.5423023 0.12097183 0.2296384 0.48334843 -0.5908179 0.17082557 -0.5354402 -0.10658717 0.67556715 0.07985571 0.21852544 -0.34409592 -0.13574646 0.14761314 0.3514294 0.08427642 0.20937957 -0.2542164 -0.42648587 0.33567095 0.0060507036 0.4261363 -0.07680754 0.17113389 0.6697395 -0.7960566 -0.18353115 0.09635234 -0.90930796 -0.90638006 -0.24326102 -0.23007983 0.15436037 0.475957 0.10829539 -0.64418 0.033666693 0.2313667 0.5263751 0.21420735 -0.53807664 -0.5500213 0.53363425 -0.082293145 -0.1661637 -0.6647727 -0.01679687 -0.44775605 0.00016847475 -0.62916785 -0.054962713
1131167 -0.29296783 -0.49747038 0.029780533 -0.19625482 0.16874696 -0.30914265 -0.058356203 0.09491431 -0.20606966 0.46863237 0.3419766 -0.068969354 -0.46300787 -0.032731712 -0.0168553 -0.07890776 -0.26781118 0.1916394 0.63650525 -0.13143225 -0.4547194 0.09192663 0.21034576 -0.04686194 0.13286422 -0.007519465 0.4456843 -0.2863685 -0.016510751 0.48582911 -0.07144568 -0.20899504 0.51966715 -0.11391049 -0.047481712 -0.13918597 -0.36891028 0.1593033 0.04486822 -0.1600399 -0.15291974 0.09062316 -0.4191066 0.06694664 -0.12962258 -0.30085602 -0.19305617 -0.092531726 0.10410004 -0.093609065 -0.012590202 -0.23786423 -0.28099057 -0.5316061 -0.2757748 -0.20863225 -0.25807285 0.10738381 0.38970354 -0.030538151 0.0639069 0.5288834 -0.16517967 -0.11632641
593544 -0.18787506 0.24856643 0.21521412 0.3616762 0.17576112 0.25947824 0.20763455 -0.3336912 0.34026057 0.48949873 0.71188617 -0.03498096 -0.03513538 -0.04736005 0.03596891 0.37056932 0.15421018 0.21262386 0.55060214 -0.5976463 -0.18098745 -0.08827059 0.08583978 -0.56265473 -0.50608605 0.1357049 0.061456554 0.07140432 0.18933944 0.17513043 -0.16825925 -0.30065614 0.7407602 0.05058277 -0.23398739 -0.4111263 0.5683769 -0.3662629 -0.16233234 0.23697269 0.066968225 0.20510136 0.14252265 0.1487373 0.2580424 -0.010803501 -0.3973543 0.32106966 0.047905784 -0.16230693 -0.113820046 0.61713386 -0.2513549 0.14413801 -0.47886735 0.6607484 0.31679705 -0.0912502 -0.052742526 0.6538 0.17677173 0.0044627585 -0.1513313 -0.32856467
1102873 -0.081092894 -0.34172845 0.51214784 0.31178573 0.20248884 0.04330707 -0.12529555 -0.3369859 -0.4668712 -0.13159466 0.3161442 -0.32182905 0.19560695 0.5232843 0.01889063 0.18440382 -0.14820011 0.4937743 -0.41800398 0.13337338 0.2527141 -0.21750294 0.22963634 0.059670046 0.111489736 -0.19298242 0.10288806 0.26481488 -0.33714744 -0.08069215 -0.069781266 -0.17468868 0.07507651 -0.2643058 -0.14392933 0.1821384 0.3246166 0.012925074 0.33384794 -0.03258869 0.25104806 -0.044201124 0.123338476 -0.12329733 -0.07852363 -0.14267135 -0.15644397 -0.25304785 -0.091034055 0.21857561 -0.31122804 0.049834598 -0.09855084 -0.18015929 0.019588172 0.12496842 0.2700952 -0.002491943 -0.5183624 -0.08621455 0.37759307 0.14374118 -0.12917696 -0.5384112
1131611 0.02851503 0.3561459 0.007196958 0.025803873 0.5497314 0.50745654 0.17111911 -0.06307252 0.38523105 0.3249296 0.24976958 0.6173512 -0.35417834 0.5874145 0.0916555 0.33124062 -0.21077606 -0.48743165 0.2942521 -0.4206664 0.036015026 0.1921792 -0.18991752 0.318517 -0.14075917 0.17984255 -0.3604947 -0.38364512 0.40556005 0.3556476 -0.4708774 0.116987266 -0.06539594 0.03597892 -0.067192435 -0.6184542 0.12504259 0.24028194 -0.3360244 0.0668084 0.19844484 0.07417494 0.2631727 0.6456462 -0.47378618 -0.649099 -0.22579315 0.6208777 -0.4717655 0.037080027 -0.18702619 0.58142054 -0.09043385 0.25240713 -0.33352488 -0.25503543 -0.51803136 0.11965375 0.016303623 0.23881045 -0.33485898 -0.28851616 -0.32919794 -0.69838285
