2708 64
1134197 0.00718041 -0.00322836 -0.00742502 0.00568527 -0.00735848 -0.00502252 0.00552959 -0.00350555 0.00390865 0.00313278 0.00573803 -0.0032019 0.00269265 0.00231789 -0.00144665 -0.00408438 0.00078441 0.00696285 -0.00474904 -0.00309582 -0.00348035 0.0016359 -0.00258225 -0.00200896 0.00458762 -0.00160453 0.00179213 -0.00558542 0.00389042 0.00575538 0.00463937 0.00655735 0.00629544 -0.0056663 -0.00648607 -0.00618409 -0.00461153 -0.00421504 -0.00337506 0.00364776 -0.0043303 -0.00221291 0.00408434 -0.00271551 -0.00064454 0.00726261 0.00164771 0.00666217 -0.00583885 -0.00305015 -0.00105324 0.000568807 0.00603374 0.00480181 -0.00355415 -0.00470824 0.00573008 0.00314725 -0.00307025 -0.00619282 -0.00256253 -0.00656002 -0.00448665 0.00770687
1136342 -0.00549919 0.0207119 0.0204785 -0.00398808 -0.0143023 -0.0115957 0.0166346 -0.0207795 -0.000279724 -0.0366588 -0.0161487 -0.00648497 0.0267353 0.0197924 -0.0190725 -0.0175973 -0.0147851 -0.0120995 -0.0118203 -0.0295344 -0.0259509 0.0125929 0.0124658 0.0183469 0.0374656 0.0288838 0.0115324 -0.011439 -0.0507833 0.0107828 -0.0263336 0.0320213 0.0340473 0.0328064 0.0256471 -0.0334425 -0.0223015 -0.00759298 0.00446903 -0.0183515 0.0196021 -0.0211833 0.0143107 0.00624607 0.055686 0.0865295 -0.0387458 0.0184372 0.0157192 -0.0607254 -0.0184242 0.0153456 -0.0131434 -0.0207697 0.0591823 -0.0372918 0.0200872 0.0235909 0.0256872 0.0171044 0.00900112 0.0393513 0.0128588 0.0323673
6311 0.183827 0.0882846 -0.11042 0.0697381 -0.0412581 0.0402843 -0.142919 0.136908 -0.00654154 0.0381123 0.0102576 -0.100418 -0.0583726 -0.0362404 0.13622 0.118494 -0.12056 0.259401 0.185922 0.00410229 0.0772753 -0.073552 -0.113631 0.112205 -0.0483357 -0.0433799 0.0134795 0.240272 -0.206479 0.103563 0.0786335 0.0289428 -0.0532742 -0.10082 -0.134734 0.178125 -0.113133 0.0319005 0.248901 -0.0178815 0.078514 0.160047 0.106717 0.225785 -0.0150149 0.193303 0.0364805 -0.143355 -0.0418313 -0.0741632 -0.17811 0.0172073 0.129798 0.108117 -0.268662 0.0365379 0.254614 0.109624 -0.00445982 0.136556 -0.0598986 0.0354082 -0.129619 -0.130135
632874 0.0136013 -0.00429847 0.00556202 -0.00829097 -0.00927794 -0.00494457 -0.00815095 0.0161203 0.00631691 0.00309521 0.00805302 -0.0250763 -0.00760942 0.021156 0.00513782 0.00826918 -0.00808849 -0.00955295 -0.0149956 0.000342716 0.00400768 0.0126853 -0.00345606 -0.00183687 0.0101846 0.00576189 0.00155413 -3.12545e-05 -0.00382521 0.0038331 0.00216323 0.025114 -0.00471222 -0.0229015 0.000428955 -0.0163012 0.0203907 -0.00722302 0.00575162 -0.00438342 -0.0109867 0.0115052 -0.0111081 0.00376574 0.00530234 0.00326978 0.00197241 0.00636849 0.0162938 -0.0011108 -0.00588667 -0.0108931 -0.00103331 -0.01077 0.013973 0.00412985 -0.00864645 0.00495327 -0.0198148 0.0113713 0.00485125 -0.00817364 0.00341564 0.0248921
28491 -0.0218685 0.0110171 8.05247e-05 -0.050531 -0.0155587 -0.0437586 -0.021658 -0.0742752 0.00514355 0.0175281 -0.0348662 0.0674509 -0.0467585 -0.0751806 -0.036993 0.0642068 -0.00452821 0.0350169 0.044285 0.00732974 -0.0144327 0.0453205 0.0408362 -0.0506032 -0.00929716 0.00595159 0.000187782 0.0295827 0.0519211 -0.031143 0.0689653 -0.0495325 0.0288069 -0.00323372 0.0767991 0.0125285 0.0830708 0.0476878 -0.0439469 0.0113839 -0.0381718 0.0351381 -0.0184024 0.10927 -0.0539583 -0.0406164 -0.00221566 0.0248957 0.0421128 -0.000352102 0.00264532 0.00109388 -0.00681072 -0.0363474 -0.0556616 -0.0120719 -0.0128698 0.052445 0.055945 0.0577416 0.00431866 -0.0115329 -0.0732167 -0.0480701
1135358 -0.0928264 0.0605225 0.0743096 -0.046105 -0.18677 0.0776899 -0.0581002 0.130077 0.0284307 -0.138499 0.0324396 0.0759035 -0.207789 -0.0176276 -0.125805 0.0336062 -0.0385423 -0.0205598 0.0930288 -0.0657117 -0.0745754 0.207647 0.0165474 0.266253 -0.0668245 0.106315 0.136253 -0.161374 -0.153697 0.303875 -0.0065888 0.12974 -0.122758 -0.0535575 0.0767173 -0.0607648 -0.136568 -0.110005 0.0755834 0.0779242 -0.0770489 0.136439 0.0114387 0.0663655 0.138323 0.0868037 -0.161454 -0.0102167 0.097589 -0.253397 -0.255328 0.245712 -0.0246831 -0.17597 0.000847903 -0.123715 0.234181 0.168505 0.0629173 0.310677 -0.00394106 0.0446784 -0.0501897 0.0400281
1105530 -0.0351934 0.0126214 -0.00810867 0.00124804 0.00666101 -0.0054473 0.0453811 0.00312062 0.00355563 0.00684269 -0.00275222 -0.0194876 0.0180921 -0.0121667 0.0148034 0.0130939 0.0151328 0.00327934 -0.0140856 -0.000583113 -0.0200849 -0.0207946 -0.00883542 0.00969536 0.0383412 0.00754317 -0.000302336 0.0016897 -0.0238724 -0.0165709 -0.0011497 -0.00356184 0.0202102 -0.0138172 0.0509147 -0.0157789 0.0287887 -5.6877e-05 0.0126303 0.00150744 0.0489319 0.00613489 -0.0361161 -0.029915 -0.0404414 -0.0231168 0.0230694 0.00736747 -0.0304221 0.0411554 0.0117014 -0.031823 -0.0198073 0.0150924 -0.0189903 -0.0114396 -0.028052 -0.00406549 0.0224452 0.00881925 0.00895211 0.0232614 0.0205057 -0.0254021
309476 0.0206831 0.131228 -0.114004 -0.0668686 -0.174753 -0.0149493 0.247884 0.158601 0.0566949 -0.105774 0.0740003 -0.045169 -0.0725194 0.0111426 0.0510351 0.0480224 0.0371563 0.116517 0.12108 -0.119535 0.1341 0.123926 0.0328992 0.106732 0.204507 -0.0432762 0.0471022 0.0164611 -0.0839108 0.00750611 0.0647983 -0.0189217 0.00126736 -0.0281396 -0.00261289 -0.0373625 -0.0103569 -0.202043 -0.10289 -0.0571778 0.132477 -0.0493285 0.0506891 -0.145551 -0.0131946 -0.0292541 -0.144854 0.0796106 0.180618 0.155854 0.18365 0.225317 0.266663 -0.1138 0.0985935 -0.0201947 -0.0622706 0.0966767 -0.0782661 0.0144301 0.0888328 0.0676164 -0.126808 0.139895
151430 -0.0502236 -0.0300674 0.0262901 -0.0556724 -0.0276106 0.0377607 -0.0635473 -0.0270349 -0.0329872 -0.0373039 -0.00322885 -0.0095852 0.00510111 0.0564193 -0.04433 0.0217974 -0.00447345 -0.0218001 -0.0276676 0.0217132 0.000634095 -0.0159259 0.00284426 -0.0184003 -0.0391377 0.0485067 0.0289537 -3.75122e-05 0.00747469 0.0460196 -0.0114139 0.0222995 -0.0282898 -0.0176498 0.0173554 0.00462132 0.0287328 -0.00494906 -0.00459419 0.0353819 -0.0580185 0.0140779 -0.0306295 0.000728259 -0.00832644 -0.0215641 -0.0263312 -0.00157311 -0.0310476 -0.0135781 -0.0401208 -0.0138857 -0.0679131 -0.0445518 -0.00963006 -0.0439549 0.0329806 0.0250027 0.0504109 -0.0140983 0.0570709 0.051093 0.0603257 -0.0249497
399339 0.14235 -0.228797 0.00684782 0.165709 0.222252 -0.0611918 0.040006 -0.071995 -0.0199626 0.109744 0.0161376 -0.0379866 0.122922 -0.124154 0.185029 -0.0278785 0.136038 0.120527 -0.163482 0.0109016 0.17516 -0.142928 -0.0589205 -0.143275 0.0913932 0.0106952 -0.0772591 0.227738 0.0470617 -0.222026 0.144776 -0.161189 -0.00697255 0.16054 -0.00254795 -0.0822379 0.108337 0.215597 -0.250303 0.0880915 0.087211 -0.149322 0.0253095 -0.0755512 -0.0997948 -0.0670097 0.14664 -0.136425 -0.0785395 0.254189 0.0976588 -0.37737 0.0731864 0.0825447 -0.0600424 0.139006 -0.148549 -0.0704383 -0.0339795 -0.183689 0.119018 -0.0452343 0.0151156 -0.147486
1130934 0.0117192 0.0128106 -0.00406904 -0.000421015 0.00774271 -0.0160424 -0.0286138 -0.00787822 -0.0165395 0.00284829 -0.0239752 0.0392447 -0.0163404 -0.00213881 -0.0163706 0.0618108 0.0265536 0.0185888 0.0514285 -0.0134667 0.00554616 -0.0150761 0.00686244 0.00244273 -0.00427049 0.0556373 0.0127816 0.0138262 0.0472721 0.00764944 0.00553594 -0.0328575 0.0251349 0.0339347 0.0118344 -0.0125431 -0.0268713 0.0285911 0.00995462 -0.0143932 -0.00464592 -0.04471 0.0446877 0.010482 0.0064868 -0.0051409 -0.0340334 0.057081 0.00782382 0.0217066 -0.0159464 0.00195879 -0.0135415 0.0117865 0.0171915 -0.00607502 0.0295219 0.033134 -0.00504599 0.0134345 -0.0234945 -0.0168526 -0.0076659 0.0139985
2440 -0.0542549 -0.0427168 -0.0337733 -0.00892955 -0.013182 0.133981 -0.179708 0.129532 0.0245178 -0.055677 0.00458896 -0.0436099 -0.0112544 0.0506257 0.0130742 0.044988 0.0370888 -0.0227221 0.0470199 -0.0106382 0.0979195 -0.0608431 -0.055357 0.135598 -0.174523 -0.0883046 0.154241 0.197899 -0.174278 0.239761 -0.0753959 0.241498 -0.0865655 -0.185616 -0.139765 0.059974 -0.111131 -0.0595271 0.251162 0.0820893 -0.0894407 0.23079 -0.0714115 0.0552332 0.0539165 0.14551 0.0502134 -0.0253446 -0.0990266 -0.101777 -0.266292 0.0444122 0.0212297 -0.017134 -0.149989 -0.176652 0.120794 -0.000206083 0.0548162 0.0630503 -0.0328368 0.0386084 0.115823 -0.110929
3192 -0.0129375 0.0545244 -0.385143 -0.0173063 0.0173228 -0.353685 -0.193667 -0.189876 0.103753 -0.0150231 0.0462471 0.0708186 0.198065 0.173847 -0.0718873 0.0561218 0.0984055 -0.0557572 0.215112 -0.343913 -0.347226 -0.220872 0.121058 -0.192129 0.0774511 0.112729 0.015262 0.405043 -0.0260939 -0.159253 -0.0497331 -0.107622 0.19127 -0.029801 0.0499694 -0.21355 -0.0787234 0.134394 0.0422254 0.0484226 -0.0905523 -0.0577987 0.046295 -0.0387078 -0.146412 0.135375 0.10703 0.130864 0.34491 -0.22443 0.0650916 0.0167743 -0.341955 0.261902 -0.138281 -0.00407103 -0.268058 0.141821 -0.200065 0.149824 -0.397541 0.0191297 0.303843 0.210608
107251 -0.23165 -0.05823 0.162266 -0.0456068 0.105082 -0.0939655 0.0637681 -0.19453 0.00388184 -0.0393772 -0.10954 0.0955331 0.112704 0.0207541 -0.180611 -0.163367 0.0551895 -0.311947 -0.155961 0.0853238 -0.122448 0.0307725 0.0770692 -0.155318 -0.0113871 0.0395621 -0.0894114 -0.245796 0.131601 -0.173458 -0.126033 0.012643 0.0801471 0.098161 0.141669 -0.209985 0.180943 0.0304258 -0.18909 -0.05408 0.00632351 -0.13933 -0.0448187 -0.214061 0.00232961 -0.18382 0.0230385 0.172991 0.0724897 0.0834266 0.160481 -0.0363746 -0.158132 -0.132043 0.253454 -0.0142386 -0.196521 -0.102688 0.129922 -0.23315 -0.0591928 -0.0655134 0.111276 0.10682
163235 0.00794299 0.00394025 0.00545521 -0.000126635 0.0112806 0.000710169 0.014693 0.00063622 -0.00802936 0.000947001 0.00477284 -0.00631737 -0.00369537 0.00817826 -0.00655355 0.00718496 -0.00683645 0.0100075 0.010354 0.00633776 -0.00867202 -0.00550634 -0.00241452 -0.0032288 0.00378674 0.010181 0.00147178 0.00325355 0.00112398 -0.00674096 0.00444046 0.00722272 -0.00704691 0.00365928 0.00170918 0.00188376 -0.00746203 0.00357782 0.0103489 0.00813498 0.00694477 -0.00613131 0.00604913 0.00244875 -0.00964732 -0.00430176 -0.00660168 0.00771034 -0.00942051 0.00850891 0.0101018 -0.00753634 -0.00156962 -0.00989544 -0.00119146 -0.00617607 0.000159122 -0.00610656 -0.00849126 0.00522098 -0.00945397 -0.000212263 -0.00351395 0.00535007
36140 -0.164513 0.114963 0.238099 -0.173648 0.286044 0.139059 -0.0178313 -0.166109 -0.13041 0.0939032 0.0330449 0.0238084 0.134275 0.305248 -0.106837 -0.189313 0.193259 -0.486418 -0.290231 -0.0558835 -0.103089 -0.0443925 0.148601 -0.337384 -0.123232 0.140201 0.133384 -0.361571 0.180261 -0.0561697 -0.166377 -0.0311161 0.19871 0.0245834 0.307268 -0.406052 0.0956899 0.026569 -0.459457 0.107484 0.0403747 -0.201933 -0.116893 -0.365928 0.0940733 -0.314436 0.0184138 0.239791 0.299311 -0.00532178 0.332409 -0.0686709 -0.0846022 -0.021015 0.212511 -0.158839 -0.373906 -0.00722888 0.107626 -0.24949 0.232937 -0.268699 0.413464 0.257602
1137140 0.00568853 -0.00159872 0.00331296 0.00251411 0.00737233 -0.00630002 0.00617531 0.00145546 0.00249201 -0.00233794 -0.00581775 -0.00617283 0.00457443 0.00105708 -0.00467399 -0.00604727 0.0018517 -0.00742956 -0.00508995 0.00495635 -0.00497704 -0.00241572 0.00703114 0.000931284 0.00678189 0.00632944 -0.000799982 -0.000642778 -0.00102642 -0.000967752 -0.000987062 0.00646305 0.00427628 -0.00171903 -0.00216067 -0.000644352 -0.00200056 0.00731171 -0.003584 -0.000763151 0.00719358 0.0015163 -0.00191332 0.000993307 0.00689121 0.00737321 0.00366042 0.000741851 -0.00720276 -0.00194722 -0.000943226 -3.00777e-05 -0.00247845 -0.00699744 0.00246942 -0.00298022 -0.00668556 0.00474288 0.00160567 0.00670557 -1.19888e-05 0.00699828 5.80719e-05 -0.000666713
434 0.0548057 0.19141 0.0374678 -0.146987 -0.133114 -0.165692 0.0572534 -0.078209 -0.0899519 -0.00691316 0.0118658 0.207473 -0.222762 -0.217468 -0.0142609 0.123175 -0.102564 0.135292 0.338779 -0.0226741 -0.0437648 0.126623 -0.0267849 -0.139351 -0.167494 0.2736 -0.150301 0.259441 0.139216 -0.0466787 0.170894 -0.202628 -0.30185 0.195523 0.184832 0.0303776 0.132227 0.247201 -0.188018 0.0985253 -0.173203 0.338476 0.022715 0.378952 -0.236351 -0.159157 0.219393 0.183138 0.239295 0.0658231 -0.00879153 0.0557109 0.164867 -0.15014 -0.226031 -0.0841887 0.161296 0.184684 0.167743 0.309099 0.0398172 0.21907 -0.180286 -0.0599063
1109199 -0.0343584 -0.0356622 -0.0658103 -0.0511795 0.192857 0.160118 0.0190789 0.0764565 0.0700935 0.0227002 -0.0921194 -0.0564566 0.0421475 0.150921 0.17931 -0.107249 -0.0343603 -0.0658546 -0.168009 0.0778555 0.0314281 -0.314155 -0.0464687 -0.0371126 -0.0491103 -0.141726 0.0445487 -0.0110429 0.135197 -0.0469376 -0.14432 0.119449 -0.110033 -0.245865 -0.137262 0.0623459 0.0573827 -0.0682279 0.224298 0.00788207 0.161762 0.00153804 -0.032561 -0.250989 0.0834794 -0.238424 0.132262 -0.136094 -0.301447 0.16835 0.127828 -0.174987 -0.0248913 0.0834007 0.0115682 0.0864838 -0.154487 -0.186244 -0.119734 -0.33187 0.040073 -0.148689 0.0708781 -0.125858
1152179 0.00148424 0.000209823 0.00364066 -0.0044065 -0.004127 -0.00617098 -0.00322911 -0.0100536 0.00235619 -0.00701709 -0.00504046 0.000372162 -0.00541987 -0.00525656 -0.00327468 0.000126175 -0.00442198 0.0111301 0.00162861 -0.00188206 0.00642802 0.00139373 0.0103428 -0.00295063 -0.00777386 0.00132617 -0.00834058 0.00270863 0.00853091 -0.00163926 0.00589115 0.00373229 0.0042322 0.00333648 0.00145776 -0.00565198 -8.99735e-05 -0.00209853 0.00725584 -0.00296248 0.00519155 -0.00681633 0.00516709 0.00789308 -0.00934553 0.00668308 -0.00840081 0.00779208 -0.00538041 -0.00188478 0.0113383 -0.00418994 0.00181659 -0.00449743 0.00542258 -0.00304193 -0.00566189 0.00314955 0.0023699 -0.000530219 0.00405516 0.00538108 -0.00435798 0.00594953
782486 -0.136943 -0.125795 -0.130631 0.0184222 0.0683451 0.0999159 0.0287553 -0.0103687 0.0339198 0.0438247 0.0486584 -0.165534 0.212968 0.0988945 0.0492754 -0.154676 0.0266581 -0.0723789 -0.302839 0.0244535 0.0503792 -0.254921 0.00849226 -0.0230305 0.104229 -0.153676 -0.0170712 -0.0120051 -0.0967164 -0.113923 -0.0605411 0.146411 0.0879788 -0.0330138 -0.0765564 0.000814712 0.07462 -0.139873 0.0636554 0.0493724 0.131614 -0.0348275 -0.0836217 -0.198778 0.0341672 -0.0425959 0.0625357 -0.124956 -0.131437 0.0527902 0.160961 -0.135167 -0.0814755 0.0924297 0.0562173 0.0787928 -0.170059 -0.121161 -0.11294 -0.226805 -0.0535766 -0.128049 0.212925 -0.00311403
228992 -0.00215523 -0.00335835 0.00197278 -0.00487405 0.00234069 -0.00519396 -0.00665828 0.0056416 -0.00198835 -0.00374177 -0.0035502 0.00231514 0.00387579 -0.00472133 -0.000365649 -0.0020997 -0.00620056 -0.00273086 0.00351566 0.00315465 -0.00748995 -0.000412241 0.00550851 0.00457776 0.00663404 0.00160119 0.00297156 0.00521692 -0.00755093 0.000286283 -0.00436338 0.00223683 -0.00633533 -0.00342881 0.00325966 -0.00348921 0.00333168 -0.00345081 -0.00689794 0.00259986 -0.00610117 0.00243002 0.0023734 -0.00550557 0.00752025 -0.00445302 -0.00095454 0.00580542 3.31085e-05 0.00119033 -0.00717899 0.00417029 -0.00489203 -0.00328483 -0.000429649 -0.000883275 0.00526849 -0.00652639 -0.00152022 -0.0074902 0.0051245 0.00687048 -0.00771444 0.00779965
49843 0.34012 0.130782 -0.107105 0.208164 -0.0624689 0.119194 -0.281826 0.147842 -0.0172778 0.161699 0.0846673 -0.0294846 -0.174813 -0.122211 0.134595 0.334047 -0.0215424 0.446133 0.27501 -0.173985 0.194948 0.0771178 -0.0977825 0.113016 -0.0663289 -0.00980558 0.0388796 0.475408 -0.175419 0.21205 0.211416 -0.0553909 -0.212726 -0.0661011 -0.216166 0.286152 -0.195951 0.148036 0.292195 0.0720115 -0.0930886 0.295763 0.0731507 0.437477 -0.0599393 0.201602 0.164959 -0.0447854 0.0822911 0.0698004 -0.245529 -0.119711 0.247812 0.0468886 -0.273882 -0.0374226 0.324213 0.170781 -0.072513 0.270243 0.03843 0.104876 -0.201633 -0.154255
7276 -0.170667 -0.152228 -0.127657 -0.00309531 -0.0436447 0.00478363 0.0556845 -0.0716803 0.0736269 0.044861 0.0272017 -0.172308 0.149915 0.0313948 -0.082114 -0.170309 -0.075688 -0.0140715 -0.203738 -0.0784901 0.0139833 -0.183364 0.0245245 -0.00321031 0.0999353 -0.0664078 0.0406835 -0.101518 -0.156566 -0.264918 0.0254229 0.0824067 -0.0636762 -0.00787945 0.0941296 0.0203445 0.0650412 -0.046469 -0.0193492 0.113903 0.163918 0.11387 -0.0527961 -0.0451074 -0.065745 -0.150673 0.0422988 -0.0690053 -0.0891481 0.0763339 0.0292982 -0.0483159 -0.0270739 0.0450926 -0.0446088 0.18424 -0.0421585 -0.0863055 0.0107777 -0.139696 0.0261832 -0.0192364 0.18541 -0.0727168
1114336 0.0212904 0.00789315 -0.00452733 0.0239644 -0.0421105 0.0626601 0.0273615 0.0878935 -0.0263443 -0.00992794 0.0045813 0.0139648 -0.0236719 0.0704593 0.00557914 -0.0402459 -0.0238614 -0.0124814 0.00619915 0.0421937 -0.0382378 -0.0192987 -0.00164441 0.0511426 -0.0309307 0.00653318 -0.00282255 0.0103756 -0.0586541 0.0350741 -0.0349987 0.0604171 -0.0644965 0.0287272 -0.0069153 0.0148152 -0.0535691 -0.0167983 -0.0162567 0.0280849 0.0252714 0.0659944 -0.00799917 0.0266604 0.0115372 0.0306803 0.0553854 -0.0165672 0.011525 -0.0481813 0.0295851 0.0654815 -0.00722646 -0.032154 -0.0137431 -0.0409981 0.0431584 0.0548019 -0.0212636 0.0550783 -0.0423096 0.0523011 0.0573484 0.0136698
1153031 -0.0041068 0.018915 -0.0382592 -0.0320835 0.0334826 0.0318659 -0.0279696 -0.00326236 -0.00655104 -0.00984473 -0.0394027 0.047045 0.0428973 0.0322732 -0.0163273 0.0756396 -0.0140243 -0.0309855 -0.0412042 -0.0499909 0.0330108 -0.105699 0.0461752 -0.00810355 0.00472532 0.0142275 0.0126608 0.00198454 -0.0174764 0.0150578 0.0438184 -0.00860537 0.0231844 -0.00489976 0.0309744 0.0277843 -0.00375612 0.0266663 -0.0174341 0.0147846 -0.00780953 0.0410165 -0.0203435 0.0210423 -0.032219 -0.0534075 -0.016369 0.0459056 0.00754317 -0.0232258 0.0126168 -0.0122373 0.0386713 -0.0240522 -0.0458304 -0.0121058 0.0131591 0.0173883 0.0131433 -0.0444231 0.00718307 -0.00949266 0.00355284 -0.0120229
1153254 -0.0200079 -0.0163459 -0.00744469 -0.0137398 -0.00642444 0.0270401 -0.0330191 0.0291324 0.0120076 -0.00464293 -0.00599432 -0.0223306 -0.00335726 0.0193362 -0.0016283 0.00201877 0.00520915 -0.0228119 0.00417047 0.009051 0.0195773 -0.0219128 -0.0164404 0.0358439 -0.0256652 -0.0301132 0.034262 0.0300415 -0.0460012 0.0479274 -0.0253518 0.0603971 -0.0100431 -0.0538977 -0.0302602 0.0107749 -0.0195009 -0.032659 0.0621586 0.0112609 -0.0107267 0.0315523 -0.0157496 -0.00802599 0.0268545 0.0169267 0.0111915 0.00161377 -0.0287323 -0.0184365 -0.0403527 0.00222016 -0.000203915 -0.00419145 -0.0200631 -0.0316881 0.0200885 -0.00954205 0.0051468 -0.0127136 -0.014155 0.00196695 0.0335718 -0.0237256
133628 -7.70032e-05 -0.00458312 0.00563021 0.00450349 0.000226925 0.00421452 -0.0024828 0.000819685 0.0021317 -0.00724682 0.00585673 0.00663626 -0.00575357 0.00662699 0.00678064 0.00430807 -0.00512283 -0.0029669 -0.00679153 0.00540727 0.000496626 -0.00516956 0.000582998 0.00110854 0.00418191 0.000564627 -0.00260499 0.00192047 0.00245352 -0.000151252 0.00134553 -0.00194903 -0.00766797 0.00311341 -0.0020425 0.00353479 0.00254272 -0.00767672 -0.00468143 0.00504075 0.00706874 -0.000151946 -0.00326437 0.00158783 0.00590517 -0.00679724 -0.000109256 -0.000772322 -0.00506966 -0.00477143 0.00110791 0.00695769 0.00120322 -0.00767555 0.00595201 0.00353202 0.00710848 0.00234285 0.00417199 0.000734886 -0.00309948 -0.00512592 5.75678e-05 -0.00658714
1128990 -0.0033223 0.059448 -0.044784 -0.020714 0.0610953 0.0129248 -0.0068943 -0.0176696 -0.0238164 0.021841 -0.0584137 0.0335202 -0.025963 0.0128115 0.0463355 -0.00361168 -0.0483938 -0.0125797 0.00854557 0.0278413 0.0235373 -0.0774197 -0.0100511 -0.0587204 -0.0373299 0.00712235 0.0123037 -0.00743847 0.0744042 -0.0256478 -0.0230289 -0.0147284 -0.045155 -0.0748217 -0.00848873 0.0231231 0.0564111 0.022604 0.0596982 0.00578298 -0.0046778 0.0214843 -0.0149703 0.00912207 -0.0223946 -0.134435 0.0448898 0.0425555 -0.058172 0.0816424 0.0336999 -0.0241113 0.0329525 0.0268762 -0.0293785 0.0287527 -0.0417198 -0.0448432 -0.0279353 -0.0551461 0.0236693 -0.0373978 -0.023328 -0.0369705
648232 -0.0935259 -0.0679612 -0.0802458 -0.0418537 -0.0233584 0.0194927 0.0153079 -0.0681055 0.0483464 0.00635799 0.0494345 -0.135466 0.129538 0.00992693 -0.0287794 -0.0674891 -0.0448838 -0.0516509 -0.143389 -0.0460414 0.0274393 -0.114262 0.00319658 0.0112229 0.0638588 -0.0503744 -0.012564 -0.042931 -0.0671117 -0.144624 0.0496415 0.0728084 -0.00067305 0.00295858 0.0494314 -0.00494705 0.0844329 -0.102937 -0.00652481 0.0763565 0.0874789 0.0804894 -0.0904207 -0.0562782 -0.0333596 -0.0481794 0.0373352 -0.0595741 -0.0698192 0.0199175 0.0497952 -0.0379146 -0.00120231 0.00866313 -0.0228238 0.058172 -0.0221724 -0.0536802 -0.0128186 -0.046317 0.00645527 -0.015605 0.128343 -0.0313262
74921 0.00498478 0.0058295 0.00255395 0.00689862 0.00212683 -0.00567288 -0.00387892 0.00294232 -0.00421334 0.00776641 -0.011693 0.0094309 -0.0139402 -0.00765289 -0.00374714 0.00890746 0.00839129 0.000306993 -0.000646818 -4.88581e-05 0.00737794 0.00116109 0.000882131 0.00555755 -0.00173374 -0.00815216 0.00380479 -0.00351842 -0.00953292 -0.0144033 -0.0132356 -0.00016254 0.00470548 0.00100549 -0.00068051 0.0126459 -0.00317667 -0.00493993 -0.00821782 -0.00387172 0.0011954 -0.00989935 -2.27902e-05 -0.00887077 -0.00484473 -0.0088164 0.0082108 2.6048e-05 -0.00808686 0.0109398 -0.00720521 -0.00367493 0.0048728 0.00818247 0.00218631 -0.0046072 -0.0104539 -0.00274482 0.00490518 -0.0113998 0.000518179 -0.00522142 -0.00579495 -0.00811944
101143 -0.0590375 0.0345011 -0.0134996 -0.0793029 0.0998231 0.0310185 0.00383436 0.0355838 -0.00326464 0.0484775 0.00920726 0.0418548 -0.135268 0.00265533 0.0792362 0.0492379 -0.0781195 -0.0789723 0.0504445 0.137226 -0.00521972 -0.139534 -0.0565744 -0.0994298 -0.0666238 -0.0921363 -0.0478179 0.0216828 0.207769 -0.0979162 0.0553359 -0.00758759 -0.0590876 -0.113612 -0.00491777 0.150192 0.169983 -0.0138056 0.132597 0.00336631 -0.031085 0.0544593 -0.015406 -0.0260457 -0.099871 -0.232203 0.111771 0.0953436 -0.107534 0.110848 0.0968008 -0.0932294 0.0405442 0.0932494 -0.0648161 0.0394457 -0.136202 -0.118807 -0.00224624 -0.151353 0.0523613 -0.112543 -0.0556175 -0.00232746
63832 0.0288855 0.239355 -0.0279522 -0.196475 -0.119905 -0.148169 -0.0364493 -0.162333 -0.00371093 0.0284264 -0.0324232 0.027734 -0.0327432 -0.120493 -0.233144 0.189262 -0.00181048 -0.0236981 0.236685 -0.0671013 -0.069072 0.023596 0.0189471 -0.0176628 -0.0930455 0.114788 -0.0606148 0.107987 0.172237 -0.151585 0.170885 -0.258044 0.0255556 0.0693345 0.109155 0.184507 0.0796395 0.152107 -0.124698 -0.0351541 -0.0783393 0.0305972 -0.0545692 0.131981 -0.218457 -0.213919 -0.0194767 0.192626 0.207858 0.110543 0.0151976 0.128497 0.0393743 0.00767939 0.013601 -0.0402277 0.278736 0.118394 0.0430344 0.0614812 0.084963 0.120208 0.0257689 0.1572
67245 0.0447472 -0.0383107 -0.00113246 -0.0185117 0.0821263 0.0452432 -0.0150649 0.000942809 0.0203883 -0.0134124 -0.0499563 -0.0102032 0.0449775 -0.0568046 -0.00575324 0.0198463 -0.000368145 0.0254403 -0.0396329 -0.0876146 0.029913 -0.057928 0.0176893 0.00394306 0.023547 0.0330771 0.0152039 0.00818861 -0.0142954 -0.00384789 0.0471384 -0.0111505 0.0207933 0.0566701 0.042714 -0.0263621 0.0117823 0.0216576 0.0040563 0.0239159 0.0215887 -0.00537262 0.0259826 0.0187138 -0.0210533 -0.110178 -0.0144955 0.00240115 -0.0160867 0.000307571 -0.0312579 0.00680288 0.00894107 -0.0139415 -0.00498983 0.0184713 0.039782 -0.000846959 0.0179561 -0.017641 0.00846503 -0.010849 -0.0203956 0.0160735
34082 0.017363 0.018667 -0.00278496 -0.000891104 -0.0140165 0.0112303 -0.012568 0.017201 0.0135448 8.16834e-05 -0.00267772 -0.00433002 -0.00844065 -0.00785905 0.0104649 -0.00233922 0.00883808 0.00445696 0.0112761 -0.00308851 -0.0065729 0.00501993 -0.00957904 0.000819349 0.00264252 -0.00425863 -0.00198647 0.00376249 0.0104415 0.00307266 0.00734105 0.000384224 -0.000640156 -0.00161408 0.00177181 -0.00599575 0.006634 -0.00761261 -0.00450912 -0.00160523 -0.00778119 -0.0104241 0.00663049 -0.0165593 0.0089057 0.00155543 -0.00528449 0.0129644 0.00547614 0.0280744 0.000574655 -0.00853821 -0.00528789 0.000958964 0.00742321 -0.00467243 -0.00330842 -0.00364306 -0.00103614 -0.00382161 0.00669594 -0.0183531 -0.013773 0.0103943
1105718 0.118052 -0.131972 -0.00347955 -0.0302336 0.217289 0.166574 -0.0377894 -0.0262214 0.00268274 0.0231377 -0.107456 0.0102412 0.106783 -0.177567 0.0433031 -0.00341473 0.0658058 0.0635481 -0.22816 -0.142158 0.134333 -0.289711 0.00283614 -0.00910727 0.16962 0.0841981 0.0389545 0.0427876 -0.0124692 -0.134017 0.17544 -0.0788793 0.00500771 0.112744 0.0870964 -0.0348755 0.080612 0.081967 -0.0555242 0.10412 0.0669367 -0.0968002 0.0382016 -0.0117436 -0.0310616 -0.392375 0.0190214 -0.0510377 -0.118578 0.171483 -0.0262367 -0.132134 0.00822824 0.0124651 -0.0396203 0.152308 0.033786 -0.0717303 -0.00587998 -0.155048 0.0827712 -0.0855083 0.00898072 -0.0456619
814836 0.00370023 0.00562765 0.00619335 0.00352294 0.00361622 0.00256231 -0.00182334 0.00105504 -0.000335477 0.00448896 0.00716998 0.00582334 0.00606465 0.00111772 0.00623646 -0.00388373 0.0022932 8.42613e-05 0.00218022 0.00172116 -0.00318755 0.00420782 -0.00711594 0.000224433 0.00693515 0.00336092 0.000769561 -0.00277282 0.000772614 -0.00122866 0.00181851 0.00384173 -0.0067922 0.00345596 -0.00446014 0.00120635 0.00565889 -0.00738393 -0.00629698 -0.00332652 -0.000235252 -0.000878733 0.00382333 0.00147196 -0.00311802 0.00256898 -2.66656e-05 0.00275516 -0.00515645 -0.00462301 -0.00401643 -0.003526 0.00144261 0.00664355 0.00262894 0.00420958 0.00632724 -0.00664709 -0.00314312 -0.000557888 -0.00109414 -0.00592117 -0.00501112 0.00662071
191216 -0.00351204 -0.000622836 -0.00831077 -0.0095672 -0.00918335 0.00593734 -0.00820072 0.0037541 0.00462961 0.00379958 0.00536416 0.00257956 0.00712805 0.0174601 -0.00841187 -0.0143284 0.010216 -0.0014866 0.00517636 0.00863962 0.0100877 -0.00545155 0.00334894 -0.00616152 -0.00528069 0.000673627 -0.00209805 -0.00778396 -0.00811278 -0.0101243 -0.0124731 -0.00252344 0.00666645 0.00207948 -0.00798407 0.00041422 -0.00128647 -0.00171273 -0.00310443 0.00583878 -0.00519515 -0.0089563 -0.00598365 -0.00984646 -0.0090206 0.0126018 0.0116507 -0.0125166 -0.0112578 0.00159682 0.0120698 -0.0193126 0.00476442 -0.00254852 0.0077682 0.000351583 -0.0192681 0.00518582 -0.00159399 -0.0209739 -0.000328473 -0.00697144 0.00644211 -0.00313525
6217 0.0227447 0.00859844 0.0795198 0.0446117 -0.140043 -0.081237 -0.0218898 0.0081558 -0.00832114 -0.0805736 0.0722498 0.0733875 -0.0958915 -0.118637 -0.0789849 0.0807453 0.0171689 0.0728722 0.143375 -0.0655273 -0.0240967 0.281134 0.0525147 0.107549 0.0214519 0.143779 -0.00865715 -0.0265416 -0.138617 0.161205 0.122531 -0.061866 -0.0122196 0.177078 0.0909149 -0.0779568 -0.0686637 0.0173066 -0.163329 0.0312299 -0.108678 0.0412514 0.0451643 0.225892 0.0176426 0.16732 -0.0872665 0.0404396 0.259081 -0.187427 -0.155986 0.159582 0.0208954 -0.125426 -0.0181463 -0.0827056 0.18428 0.205968 0.102914 0.345262 0.0075834 0.142731 -0.0903522 0.0941761
1131267 -0.0074984 0.069672 -0.187135 -0.0715917 0.116911 -0.173255 0.0601608 0.111545 0.000318607 0.04939 0.000674654 -0.0406824 0.126673 0.135271 0.0738389 0.00959145 -0.0288506 0.00401692 0.192171 -0.137057 -0.115985 -0.127237 0.105675 -0.0205635 0.14265 0.0654767 0.0305875 0.163143 -0.0761105 0.057973 -0.0883459 0.0433785 0.0214983 -0.121297 0.109639 -0.129267 0.0201719 0.127553 0.0350362 0.0587857 -0.0659592 0.00389949 0.0140739 -0.0992859 0.00820678 0.0231272 0.0588695 -0.00233359 0.160944 -0.129067 0.0692369 -0.0458805 -0.105274 0.142512 -0.124654 -0.00499622 -0.133842 0.0675223 0.000622129 0.13551 -0.299454 -0.0127647 0.112923 0.224508
84695 0.0153731 -0.00331584 0.00598985 0.00557788 0.0081171 -0.0133702 -0.011346 -0.0143811 -0.0175293 -0.00794125 0.00622095 0.0192128 0.00352417 -2.55068e-05 0.00244413 -0.0134096 0.0178874 0.00475625 0.00564386 -0.00387206 0.00742131 0.00486105 -0.00292442 -0.00788889 0.00742965 0.0101933 -0.00796728 0.0198258 0.00375938 -0.00340684 -0.00176184 -0.00916472 0.00407287 0.00864179 -0.00680737 -0.00964918 0.00386381 0.0145464 -0.00643001 -0.00682324 0.00694329 -0.000808811 0.0017946 0.00877598 -0.0083481 0.0119656 -0.00422115 0.000894709 0.00457741 -0.0144327 0.00856313 0.00490934 -0.0142409 -0.00866443 -0.00608993 -0.00601333 -0.00910248 0.00845282 -0.0232387 0.0217893 -0.00121385 0.00297202 -0.00842529 -0.00859924
591016 -0.134514 -0.00841512 -0.0295437 -0.0354586 -0.0489309 0.226951 -0.0833552 0.115191 0.0333482 -0.0495164 -0.0200749 -0.0462312 -0.00118045 0.120216 -0.0346659 -0.0918183 0.00824847 -0.108982 -0.0759441 0.0250133 -0.0195013 -0.121807 -0.0229179 0.156123 -0.0787789 -0.0949022 0.15863 -0.0553109 -0.128039 0.17894 -0.135021 0.266322 -0.0836701 -0.233055 -0.0292634 0.0171657 -0.100268 -0.16106 0.234367 0.0301222 0.0754149 0.0970165 -0.0779398 -0.134431 0.119302 0.0436009 -0.10998 -0.114985 -0.125562 -0.110239 -0.134585 0.0831584 -0.0798325 -0.0210094 -0.00369566 -0.0661978 0.0223418 -0.0532175 -0.0740761 -0.0209354 -0.046888 -0.128481 0.152213 -0.053442
1131611 -0.0578194 -0.103088 0.0305319 0.00736418 0.0509092 0.139069 -0.231804 0.0663384 -0.000276588 -0.182473 -0.000383732 0.0201919 -0.106408 0.295588 -0.0215087 0.103252 -0.0230425 -0.00391929 -0.16677 0.0956128 -0.000951501 -0.14396 0.0417381 -0.0877681 0.0174279 0.215012 -0.0899132 -0.0818861 0.0210506 -0.0234746 0.055746 -0.088806 -0.16274 -0.0504956 0.0693829 0.164523 0.101058 0.0853053 0.0235291 0.0786398 -0.103211 0.155238 -0.0117077 0.14946 -0.0785539 -0.128227 0.0294707 -0.235242 -0.180308 0.00991065 -0.0163179 -0.163419 -0.204038 0.00168967 -0.204447 0.059721 0.0943816 0.0149896 0.107339 -0.0958119 0.0214832 -0.00525626 0.0563161 -0.157851
1111052 0.16022 0.0290888 0.00785819 0.01472 0.0193294 -0.219846 0.0790437 -0.169503 -0.0196341 0.111145 -0.0466751 0.122308 -0.0817781 -0.212523 0.036464 0.151237 -0.0568159 0.167437 0.175757 -0.0423682 0.0648298 0.0737164 -0.0141932 -0.172906 -0.0595822 0.112852 -0.0664286 0.171117 0.190551 -0.215588 0.16167 -0.238883 -0.0631321 0.157687 0.155354 -0.0421252 0.178034 0.255864 -0.171674 -0.0437947 -0.150292 0.0473085 0.0599064 0.267876 -0.187897 -0.0393638 0.138157 0.14219 0.0710292 0.184613 0.0107296 -0.0932799 0.166314 -0.0602877 -0.0751128 0.0926268 -0.0620774 0.0326116 0.156698 0.0877733 0.0528778 0.120536 -0.241159 -0.0778464
65074 -0.0375599 -0.0494399 0.0233598 -0.0324586 -0.00949097 -0.0137252 -0.0877756 0.110787 -0.0687559 -0.0415658 0.00156968 -0.0418952 -0.0700742 0.0241141 0.00653047 -0.0304826 0.0470467 0.0492686 0.0775767 -0.0684127 -0.04554 0.0947465 0.0025333 0.0283645 -0.029082 -0.0320294 -0.012339 -0.0700261 -0.0162323 -0.0217435 0.0105396 0.0853366 0.0486224 -0.0426335 -0.0953572 0.0267105 0.0880849 -0.0273459 0.00881996 0.0277856 -0.0816056 0.0484473 -0.095044 -0.0124119 -0.0598887 -0.0598829 -0.0493859 -0.061867 -0.0339238 -0.0314451 0.000440213 -0.0453705 -0.0741422 0.0637975 0.0824604 0.0765631 0.0186926 -0.107184 -0.00489287 -0.0256161 0.0319354 -0.0274868 -0.0795616 0.0357126
10430 0.0202046 0.0199125 -0.0209812 0.0207339 -0.0358543 0.0670445 0.0373023 0.0910809 -0.00379507 -0.0109109 0.0197599 0.0309452 -0.0132591 0.0546581 -0.00629959 -0.0464944 -0.0304924 0.0102675 0.00451607 0.0348742 -0.0177302 -0.00984796 -0.00330353 0.0455647 -0.042073 0.016464 -0.0217234 0.00621378 -0.0716048 0.0482851 -0.0208697 0.0370199 -0.0761721 0.0428289 0.00293109 0.0235036 -0.0444848 -0.0321336 -0.0229091 0.0416201 0.0324741 0.0826452 -0.0175558 0.0329338 0.00632047 0.0203536 0.058875 -0.0203984 0.0239216 -0.0500967 0.0431926 0.0416475 -0.014126 -0.00476557 -0.0179604 -0.0191058 0.0163232 0.067172 -0.040058 0.0535635 -0.0456334 0.0567879 0.0518483 0.0141138
1154233 0.0115113 -0.0455237 0.2318 -0.000515082 0.00479436 0.213184 0.117398 0.0991687 -0.0745682 -0.0104784 -0.00929746 -0.0399232 -0.0909291 -0.111009 0.0575527 -0.0401764 -0.0380592 0.0419617 -0.123487 0.1933 0.211887 0.113004 -0.0833483 0.116099 -0.0253806 -0.0782625 -0.0140742 -0.244505 0.00870911 0.113797 0.0195713 0.0440024 -0.098404 0.00554629 -0.0343965 0.150041 0.043457 -0.0926774 -0.0536076 -0.0240647 0.0572924 0.0272942 -0.0287614 -0.0185763 0.109527 -0.0921734 -0.0759634 -0.0798043 -0.211061 0.1187 -0.0211316 -0.0061659 0.224372 -0.165136 0.0563663 0.0397545 0.117882 -0.0851281 0.0997153 -0.0824949 0.210702 -0.00784928 -0.205983 -0.102409
263553 0.0567976 -0.0556706 -0.00692869 -0.0165079 0.0163843 -0.0174933 0.0279688 -0.0555594 0.0112909 0.00563241 -0.0124434 0.0406234 0.00200844 -0.0348257 -0.00461552 -0.0264862 0.00625117 0.0115892 -0.0435865 0.00452119 0.0226451 -0.0158147 -0.0327756 0.0424037 -0.010687 0.0467374 -0.0387485 -0.00512076 0.0362687 -0.0119901 -0.00643305 0.0359325 -0.0229961 0.0055159 -0.0150516 0.0247778 -0.00244288 0.0356137 -0.0458831 0.0174613 0.0284791 -0.0307336 0.0339451 0.0293339 0.00107332 -0.00937983 -0.0268588 -0.0536996 -0.0325688 0.00540273 0.00755944 -0.00255325 0.00917417 0.0111954 0.00586998 0.0254353 0.0169616 -0.0141972 0.0501287 0.0334713 -0.0481631 0.0438207 -0.0293073 0.00413463
102879 0.00595245 -0.0359742 0.0161347 0.0150864 0.0230822 -0.0303697 -0.0569574 -0.122228 -0.0425184 0.11048 -0.0555242 -0.00382482 0.0521963 -0.0990449 -0.0166555 -0.0527494 0.00292281 -0.0184514 -0.0281546 0.0613767 -0.00986371 0.0102468 -0.0722549 -0.0156503 -0.118546 -0.040949 0.0893692 0.0348875 0.0671152 0.0286716 -0.0252554 0.0485942 0.0184068 0.068683 -0.034775 -0.0508868 -0.0322581 0.0421652 0.0510832 -0.0207089 -0.0675341 -0.0127224 -0.0596879 -0.000179839 0.050303 -0.0157001 0.0481169 0.0557059 -0.0933888 0.00456956 -0.101448 -0.0811545 -0.0395209 0.023964 0.0430691 -0.00202624 0.0194224 0.0232735 -0.0366935 0.0752349 -0.0496859 -0.0330058 0.00304699 -0.0231526
256106 0.0340692 0.0176143 0.0251538 -0.0266006 -0.0185453 0.00542175 0.0106525 -0.0162458 0.0138783 -0.0190171 -0.0224812 0.0389915 0.00690098 -0.0121651 0.00228612 0.0407646 0.0076024 0.0192785 -0.0508015 0.00763169 0.0182147 0.0188583 -0.00248905 0.0416575 -0.0234409 0.00747834 -0.0307583 0.0126372 0.00404275 0.0282196 -0.0355225 0.0553058 0.0305311 0.00881963 -0.00360169 -0.0126667 -0.00213668 -0.0312929 0.0153191 -0.0142267 -0.0298539 0.00455837 -0.0127951 0.00999097 -0.0119251 -0.0091129 -0.0484646 0.00978147 -0.058964 0.0560962 0.0201095 0.0114128 0.0192221 0.019216 -0.0492079 -0.00296674 -0.0226983 0.0159949 0.0105909 0.00933047 -0.0220068 0.032339 0.00328585 -0.0364948
74700 -0.0262791 0.00590338 -0.00786842 0.0214896 0.00127795 -0.00363988 0.00783783 -0.00471565 0.0157003 0.0145241 0.0137672 -0.0130149 -0.00424606 0.00566022 0.00654815 -0.000553839 -0.00965102 0.00328798 0.00690876 0.00251084 0.00244521 5.4969e-05 0.0206267 -0.0170635 0.00224968 0.00933011 -0.0149965 8.87096e-05 0.00273234 0.0212636 0.0117043 -0.00648683 -0.00768406 0.0221574 -0.000822961 0.0141296 0.0108965 0.00242779 0.0051765 0.000427885 -0.0165558 0.00695912 0.0224452 0.00517536 0.0041838 0.00954771 0.00390064 0.0161072 -0.00638624 -0.0120861 0.00711434 0.00331335 -0.0179551 -0.00048333 -0.023929 -0.00648176 -0.00542846 0.0137349 0.00636288 0.0141388 -0.013453 0.0191036 0.00110631 -0.00122335
1033 0.0620085 0.0954546 -0.00959598 -0.173554 0.0732166 0.0132579 0.105298 -0.0752061 0.0118572 0.0265603 -0.156861 0.0711787 -0.11327 0.0375806 0.0323128 -0.018655 -0.112543 0.0048241 0.0273885 0.035401 -0.024537 -0.245155 0.006941 -0.169189 -0.0789663 -0.0423814 0.0630642 0.061142 0.219043 -0.0812268 0.0039149 -0.0888651 -0.0860272 -0.182247 0.0260785 0.1549 0.17863 -0.0104511 0.158007 -0.0721631 -0.00180038 0.0628178 -0.0712774 0.0393167 0.0172048 -0.331188 0.0778496 0.0590272 -0.139046 0.240468 0.0992876 -0.102919 0.039474 0.0395763 -0.0446077 0.0943362 -0.0728254 -0.104976 -0.000416435 -0.227682 0.0324809 -0.0430043 0.028154 -0.0660844
1106492 0.0424483 0.00903428 -0.0103369 -0.00260554 -0.0182048 0.000109466 -0.00508899 0.0247988 -0.0269402 0.00861593 0.0302711 0.0171927 -0.00647053 -0.00329627 0.00439262 0.0691439 0.0217995 0.0484844 0.0417534 -0.0574547 -0.0027261 0.0370189 -0.0200316 0.0367663 0.00114566 0.0410248 0.0102069 0.0541299 0.0346247 0.0324083 0.0316912 -0.0335097 -0.0517759 0.0143531 -0.0486351 -0.0106335 -0.00191622 0.00242203 -0.0255308 0.0347609 -0.0668537 0.00321463 -0.0178024 0.0503145 -0.02034 -0.0256277 0.0351046 -0.021428 0.0202169 0.0258821 0.0253462 -0.0250323 0.0588269 -0.0251493 0.0201937 -0.0237085 -0.0179139 0.0192046 -0.00106648 0.0427833 0.0413294 0.0710256 0.00382439 0.0129338
38537 -0.0259769 -0.100472 -0.00639843 -0.108416 0.0319211 -0.046731 0.0398562 0.0241622 -0.0259121 0.0181598 -0.0036969 0.00518553 0.0508172 -0.0495168 0.0321541 -0.0171413 -0.026535 0.099135 -0.00494146 0.00758638 0.0537234 -0.0258379 0.0716296 0.0514693 -0.0562046 -0.028553 -0.0289264 -0.0455169 -0.00199411 0.0241099 -0.00797293 -0.0208185 -0.0117605 0.05051 0.0149909 -0.0299008 0.00881275 -0.0139982 0.0454137 0.00059387 0.0686231 -0.0590359 0.0433861 0.0185383 -0.062851 0.00518899 -0.072306 0.0331547 0.0259625 0.0139491 0.042058 -0.055607 -0.0308204 -0.019778 -0.0800927 -0.00376165 -0.00306037 -0.0183573 -0.0479667 -0.0596371 0.0728641 -0.0296008 -0.0553372 -0.0463863
1114838 -0.0119237 0.00310967 -0.00995308 -0.00508688 -0.00679481 -0.00261846 0.0229621 0.00657794 0.0121387 0.00574456 0.00230643 -0.000276567 -0.0103884 0.00408538 -0.00118681 0.0124363 -0.00139424 0.0119199 -0.000680225 0.00614303 0.00294126 0.00171047 0.00621733 0.000698293 0.00529306 0.0163708 0.000770856 0.00318855 -0.00434616 0.0102705 -0.00459741 0.0033119 0.00289367 0.00718449 -0.0083466 0.0116543 0.00105018 0.00982779 -0.00976519 0.0113623 0.0053327 0.0100779 0.00345348 0.00182157 0.00452799 -0.00312953 -0.00219441 0.00181316 0.00570352 -0.00258421 0.0127166 -0.0080102 -0.0104053 0.00462572 0.0144781 0.000418532 0.0129903 0.00767999 -0.00908482 0.00204505 -0.000797049 0.00717339 0.00334359 -0.00459899
1121603 0.0385693 0.00557362 0.0363703 -0.0165438 -0.0168614 0.00869357 -0.0248257 -0.00776316 0.00887802 -0.0346162 0.0141191 0.044893 -0.0341721 -0.0173632 -0.0140816 0.0159546 0.0155636 0.0279999 0.0096388 -0.0215217 0.00466464 -0.0221231 -0.0113297 -0.00204613 -0.00915575 0.023392 0.0228275 -0.00869341 -0.0169353 0.0198679 0.0114232 -0.0113465 -0.00275405 0.00318916 -0.0108119 -0.0177134 -0.0191006 0.0199937 -0.00594622 -0.00651388 0.0121791 -0.0119123 0.00328669 0.0137306 -0.0186866 0.00615144 0.0066755 -0.0107894 -0.00993945 -0.0148816 -0.00651998 0.00262489 -0.0290182 0.00832255 0.0426091 -0.00859548 0.00545997 0.0162949 0.0096872 -0.0425536 -0.0124002 0.0121419 -0.00405061 0.00404644
463 -0.00684573 -0.00548763 0.00978982 0.0242354 -0.0234031 -0.0256758 -0.0140034 0.0135411 -0.00837519 -0.00266865 0.0233468 -0.00593022 -0.00466408 -0.0149721 -0.00947679 0.012634 0.0180815 0.0147884 0.0157675 -0.0357183 -0.0122594 0.0506847 0.00873729 0.0433458 0.0127748 0.0222604 -0.000516838 -0.0241863 -0.041015 0.0258957 0.0162432 0.00406513 0.0179736 0.0247016 0.00622746 -0.0129269 -0.0170984 0.00896488 -0.0251922 0.0176515 -0.027899 0.00378682 0.0161703 0.00816992 0.0198086 0.0534167 -0.0349019 -0.000961754 0.0356057 -0.040465 -0.0326383 0.0247219 0.00233851 -0.0144622 -0.000223077 -0.00690837 0.0326103 0.0134964 0.0299232 0.058845 0.00888769 0.0196989 0.00419931 0.0204487
47682 0.0557673 0.064246 0.0347911 0.0302887 0.00286263 -0.00210897 -0.0025034 0.0358698 -0.0241844 -0.0135062 -0.0249381 0.0884657 -0.0824889 0.00737409 0.00142146 0.0436209 0.0443132 0.044772 0.0843246 0.0385475 -0.00815374 0.0777904 0.00283172 -0.0265514 -0.049444 0.0269364 0.00363512 0.0194714 0.0644344 0.0808954 -0.00415117 -0.0469259 0.0017422 0.0187371 -0.0225548 0.0125971 -0.0462967 0.0563105 -0.0153819 -0.0468608 -0.0410819 -0.0494168 0.0332019 0.012626 0.011902 0.024523 -0.0196387 0.0254432 0.0420925 -0.0160729 -0.0325533 0.0350209 -3.4304e-05 0.0107018 0.0046422 -0.0309467 -0.000860399 0.0402655 0.015342 0.0293192 -0.00104484 0.00261647 -0.0492278 0.0141119
38846 0.0198307 0.0130394 -0.0100761 0.0170973 -0.021523 -0.0123698 0.0267381 0.00290606 0.0169119 -0.0205938 -0.0111282 0.00830211 3.16092e-05 0.0147767 -0.0251429 0.00374176 -0.00857856 0.0246217 -0.00496529 0.00647187 -0.0275062 0.0128711 0.0148503 0.0297691 -0.0204398 0.000919842 0.00314436 0.0189869 -0.0173385 0.0205978 -0.0268999 0.0250833 -0.00962866 -0.0184984 -0.024185 0.00958844 0.00365171 0.00134683 -0.00358382 -0.00696992 -0.0120673 0.0174632 0.00880959 0.0283292 0.0336408 0.00431078 -0.00969132 -0.00745742 0.00686287 -0.00470899 0.00151176 0.0155274 -0.021305 -0.00648219 0.00393643 -0.00684974 0.0137006 0.000247318 0.0215334 -0.0221937 -9.51096e-06 -0.00834957 -0.0009378 0.00112358
2354 0.0160778 -0.102097 -0.077652 0.0612608 0.00357778 -0.0566795 0.135012 0.0855422 -0.0582869 0.066002 -0.0842481 0.0855191 -0.0539897 0.111841 0.0898064 0.0919452 0.000239334 -0.00507336 0.0496766 0.0456844 -0.0816484 0.0382406 -0.0424819 -0.00374026 -0.107846 0.0385449 -0.0632959 -0.0537873 -0.154854 0.0528757 -0.118869 0.0859924 0.043286 -0.0506439 0.134299 -0.0434572 -0.138302 -0.040736 -0.0435827 0.0956475 0.0513989 0.102314 0.118894 0.0513825 0.0115349 0.229672 0.0237835 0.0148297 -0.00672113 -0.162961 -0.12592 0.0638593 -0.0730749 -0.0311496 -0.0145092 -0.0406967 -0.0278915 -0.0414355 -0.0444275 0.089723 0.0986734 0.0282787 0.0215363 -0.17833
66782 0.073518 0.0140389 -0.0387353 0.0553929 -0.0159624 0.041574 -0.0187899 0.0180133 -0.00234339 -0.00265518 -0.00591391 -0.00933649 -0.058196 -0.0124121 -0.00122464 0.074451 -0.0167792 0.101671 -0.00525575 -0.0917617 0.0493566 -0.0168487 -0.0355497 0.0186242 -0.0441373 0.0233256 0.0504256 0.0591404 -0.0176302 0.0756789 0.0384798 0.00282244 -0.0482747 -0.0182132 -0.0344218 0.0560037 -0.0301197 0.0489614 0.0275646 0.0485838 -0.0401088 0.0769828 -0.00327808 0.107949 -0.00673486 0.0296935 0.0309328 -0.0229134 -0.00109672 0.0128506 -0.0548817 -0.0512156 0.0774731 0.00502114 -0.0335379 0.0106148 0.0490918 0.0554296 -0.0252253 0.0615615 0.0645196 -0.00661562 -0.0245137 -0.0312208
428610 -0.0298912 -0.0960168 -0.0664151 0.0389083 -0.153374 -0.0347462 0.0361232 -0.0383111 0.0695643 -0.0691149 -0.0337334 0.0258251 -0.138383 -0.154341 -0.0424091 -0.0550246 -0.0236686 0.0517279 -0.0112032 0.0454785 -0.0122171 0.0210988 0.0211598 0.146899 0.130872 -0.0485926 -0.175057 0.0385472 -0.084906 -0.0422708 -0.0209307 -0.0214145 0.0173257 0.0665385 -0.116415 0.149912 0.0335018 -0.11355 0.158901 -0.116687 0.0683898 0.0750946 0.0246138 0.0425609 -0.00933973 0.0918934 -0.0512173 -0.0669558 -0.259438 0.0725436 -0.0496113 0.080219 -0.0964426 -0.0118383 0.00890379 0.0996757 0.0549389 -0.100772 -0.0144321 -0.035496 -0.0928687 0.100622 -0.108341 -0.0960143
1126029 -0.0432044 -0.161493 -0.0493148 0.126786 0.136593 0.0968739 0.0390862 0.124437 0.0942463 0.049922 -0.00343221 -0.123136 0.115917 0.135521 0.188565 -0.112632 0.0172782 -0.0300099 -0.238702 0.0598309 0.0466927 -0.198017 -0.0357173 0.127596 0.00640567 -0.163698 0.0612252 -0.0700045 -0.103979 0.0250642 -0.165001 0.1629 -0.0351231 -0.0954819 -0.127548 -0.0443845 -0.0520035 -0.0745281 0.109839 -0.00339828 0.10657 -0.0719749 0.0234513 -0.255246 0.12405 0.010333 0.0530764 -0.192557 -0.199428 0.0711169 0.0365361 -0.143361 -0.0310389 0.0850157 0.0600362 0.0339436 -0.140359 -0.122057 -0.139057 -0.218433 -0.00181053 -0.0939252 0.11455 -0.0315148
71736 0.00179939 0.00996994 0.00667605 -0.0140395 0.00222535 0.00919305 0.0114063 0.00938382 -0.00226915 0.00154568 -0.00950464 0.000472751 -0.0184474 0.00159085 0.0158673 -0.0141618 -0.00329318 -1.02808e-05 0.00458911 0.00420612 0.0238729 -0.0112158 0.0152705 -0.0129328 -0.00790973 0.00778542 -0.000869416 -0.00790234 -0.00485427 -0.0205508 0.0113035 0.00280421 0.0102638 -0.011941 0.00362293 0.0113073 -7.54358e-05 0.00335772 0.00522807 0.0123722 0.0107719 -0.00438642 0.00696018 -0.00668262 0.00313514 -0.00899633 -0.0183119 0.00907901 -0.0167752 -0.00784589 0.00206398 -0.00632346 -0.011464 0.00864066 -0.0127632 -0.00965926 -0.00367175 -0.00237812 -0.0137649 0.00484424 -0.00630993 -0.0137219 0.011954 0.00790934
205196 0.0149721 -0.0350715 -0.0396565 -0.00542648 0.00716589 0.0025671 0.00422754 -0.00159995 0.011693 -0.0154595 -0.0219438 0.041156 -0.0251396 -0.0102183 -0.00453066 -0.0179835 -0.0190917 0.0487369 -0.0217321 0.047121 0.0373393 0.00643096 -0.000422948 0.00350457 0.0345023 -0.000434089 -0.0451992 0.0109762 -0.00374 -0.00521457 0.00333413 0.012199 -0.0168254 -0.0333664 -0.0237815 0.0141258 -0.0225439 -0.0280003 0.0193184 -0.0161034 0.0136588 -0.0108178 -0.00727556 -0.0132245 0.00484478 -0.0141167 -0.000271898 -0.0190704 -0.0506847 0.0239727 0.00723367 0.014647 -0.0190776 -0.0254833 -0.00644528 0.0427306 0.0254679 -0.0280938 -0.0378841 -0.0199777 -0.0330151 -0.000660739 -0.0343332 -0.0216164
754594 -0.000591513 0.000183232 0.00336952 -0.00555029 -0.00580451 -0.00679377 -0.00164203 -0.00206793 -0.00543771 -0.000248576 0.00660443 0.00154297 -0.00223903 -0.000360787 -0.00357712 -0.00734396 0.00672491 0.00436083 -0.00442985 -0.00195768 0.00275125 0.00579299 -0.00526202 -0.00400165 -0.00560981 -0.00643776 -0.00439296 -0.00515468 0.00693214 -0.00290497 0.00263716 0.00654382 0.00321908 -0.00508653 -0.000189903 0.00104947 -0.00714157 0.00154281 -0.00151181 -0.00380313 -0.00728186 0.00545545 0.00769034 0.00353845 -0.000316784 -0.00158217 -0.00578459 0.000744377 -0.00478328 -0.00614532 0.00504735 0.00773721 -0.000395188 0.00165924 -0.00603933 -0.00613474 -0.00334594 -0.00694869 0.00256964 0.00361549 0.00258784 -0.00291684 0.0031805 -0.00373685
58436 0.0139201 -0.00922454 0.0069953 -0.00666406 -0.0118404 0.0127702 -0.0125588 -0.00946447 0.00970057 -0.00149021 0.000339368 -0.00915134 0.0059907 -0.0262205 -0.0058832 0.0219983 0.0105651 0.0186015 0.0263241 -7.18415e-05 -0.017078 0.0490515 0.00738197 0.00607894 0.00735444 -0.000692608 0.00896194 0.00835632 -0.0119008 -0.00120505 0.0206412 -0.00875296 -0.00309319 0.0105364 0.0116591 -0.00846656 -0.0198 0.000249893 -0.000793211 -0.00581138 -0.0113351 -0.0142972 0.00593601 0.0343089 -0.0156599 0.022357 -0.0199374 0.00201458 0.0199186 -0.0137004 -0.0151037 0.0201254 0.00891446 -0.00113016 0.00720977 -0.00991969 0.0193781 0.0184278 0.00306497 0.0222362 -0.00170902 0.0198927 -0.00983515 -0.0014775
37483 0.0174312 -0.0400064 0.0713442 0.0750008 0.0111775 -0.160867 0.03184 0.0217741 -0.00163228 -0.105242 0.0313435 -0.0710291 0.0931639 -0.099191 0.0243077 0.0149674 0.0820284 -0.0279713 -0.0360634 -0.0786262 -0.0131869 0.137711 0.0321828 -0.00233242 0.0368543 0.00797024 -0.0727466 -0.0472414 -0.0788228 0.0331634 0.0407643 -0.0142257 0.181177 0.211133 0.0652781 -0.198263 -0.0683957 0.0874084 -0.23713 0.0356942 -0.0669673 -0.0505153 0.0272704 0.0297346 -0.0470264 0.27724 -0.103489 -0.0512971 0.0917483 -0.193261 -0.0840239 0.053984 0.0194065 -0.0217236 0.05777 -0.0116719 0.0423788 0.0572593 0.0341084 0.12805 -0.0572337 0.101523 0.0342115 0.0859596
28447 -0.17774 -0.11954 -0.0498414 0.0383953 0.095111 0.3764 -0.049605 0.264673 0.105733 -0.0877321 -0.0112593 -0.15899 0.137926 0.34846 0.0836514 -0.195998 -0.00301443 -0.174291 -0.396772 0.0826509 -0.052083 -0.280073 -0.00149583 0.15741 -0.00629284 -0.266024 0.169271 -0.274599 -0.157034 0.186145 -0.350012 0.358231 -0.0179994 -0.294252 -0.26417 0.0509942 -0.181817 -0.381144 0.414871 0.0306831 0.241219 -0.0268751 -0.0371247 -0.48629 0.34388 -0.0150877 -0.0144669 -0.27435 -0.374427 -0.071894 0.0558397 0.0135699 -0.158171 0.111598 0.119401 0.00695872 -0.072858 -0.157905 -0.206693 -0.318787 -0.0932987 -0.227793 0.235668 -0.0381664
1125092 0.0191637 0.0242493 0.00317383 -0.0376883 0.0357174 0.0580155 0.00930188 0.00807721 0.0171587 0.0354415 -0.0530266 0.0280883 -0.0178199 0.0270063 0.0127583 -0.0167155 -0.00413261 -0.0302731 0.00750431 0.0286153 0.0131768 -0.0231514 -0.00910363 -0.0402433 -0.031475 -0.0137213 0.0417056 -0.030126 0.0620139 -0.0180935 -0.0148909 -0.0373657 -0.0227372 -0.0826832 -0.00910725 0.061961 0.0222844 -0.00702729 0.0480731 -0.0215006 0.0149896 0.0360496 -0.0372585 -0.0148204 -0.00277922 -0.0736512 0.0428986 0.00663443 -0.0453898 0.0505877 0.0328087 -0.0133687 -0.0226814 -0.0100124 -0.034483 -0.00137609 0.00593338 -0.027074 -0.00151094 -0.0670237 0.0197833 -0.0215382 0.00526745 -0.0327584
50980 0.00722799 0.000366145 -0.00527499 -0.00500721 -0.00670284 -0.00508024 -0.00623093 0.000559317 0.0072189 0.00324123 -0.00616877 0.00155028 -0.00464083 0.000326864 -0.00390126 0.00259132 -0.00366981 0.00419447 -0.0034987 0.00267053 -0.00624072 -0.0046827 -0.00773953 0.00647468 0.00485055 -0.000383084 0.00579719 0.00730943 0.0059295 0.0052498 0.00492253 -0.00434755 -0.00701515 -0.000603205 0.00584285 -0.00568249 0.00488657 -0.00583913 -0.00665349 -0.000566368 -0.00779996 0.00651636 -0.00544579 0.00731814 0.00297312 0.00240641 -0.00221672 -0.00289138 0.00547056 -0.00570636 0.00526309 -0.00323359 -0.0071245 0.00218278 0.00334896 0.0061026 -0.00551502 0.00440831 -0.00393286 -0.000817664 0.0032722 -0.00128317 0.000852338 -0.00679871
1121398 -0.0108208 0.0578677 -0.0120367 -0.0610503 0.0481706 -0.000666021 0.027281 -0.0209756 -0.00686889 0.0296918 -0.0497336 0.019166 -0.0331999 0.00922942 0.00951158 -0.0122767 -0.0359553 -0.0199342 0.00547765 0.0463283 0.0180134 -0.0617577 0.00721336 -0.022574 -0.0402621 -0.0160754 -0.00676941 -0.00663145 0.0886807 -0.0515105 -0.00880262 -0.00663049 -0.0362702 -0.0746361 0.014643 0.0369369 0.0641313 0.0154256 0.0736782 -0.0158123 0.0264065 0.0213677 -0.0113731 -0.00808636 -0.022116 -0.0992772 0.0649292 0.0131201 -0.0582113 0.0552864 0.0093494 -0.029965 0.00406235 0.00498213 -0.0250387 0.0336557 -0.0309553 -0.0389046 -0.00410191 -0.0770719 0.00853251 -0.0123495 -0.0330908 -0.0469276
110162 -0.0100876 -0.0406574 -0.0137678 -0.011251 -0.027357 -0.0147447 0.00135973 -0.00860806 0.025345 0.0122591 0.0232774 -0.00176112 0.00799387 0.0137284 -0.0285293 -0.0163312 0.0142913 -0.0238352 0.0194219 0.000632022 -0.0118232 0.00279019 -0.00169323 0.0234591 0.00173969 -0.0146983 0.0290307 0.00783845 -0.0263609 -0.00113366 -0.0106039 -0.00580965 -0.0132676 0.0256693 -0.0278131 -0.0158089 0.00682589 0.00495738 -0.0368706 -0.00384581 -0.0100227 0.00373918 0.0216202 -0.0276041 -0.0546014 -0.0128337 0.0156307 0.0302451 -0.0320595 -0.0227255 0.0307906 -0.0241006 -0.0250728 0.0165278 -0.000675364 0.025645 0.00881599 0.0143729 0.00517457 -0.00665921 0.00278093 -0.0102632 -0.0127946 -0.0129227
416867 0.00382725 0.00907682 -0.017307 -0.0103644 -0.00282598 -0.000755711 0.00590719 0.0142434 0.010401 -0.0326373 0.0140997 -0.0095408 -0.026441 0.0382995 0.00894926 0.0169175 -0.0208864 0.0104734 0.0056481 -0.0159464 0.00168281 -0.00731295 0.0160624 -0.0052724 0.022593 0.0175103 -0.0306662 -0.0191277 -0.0278149 -0.00481955 0.0201504 -0.0134974 -0.0206829 -0.00410223 0.0150447 0.0172115 0.0125202 -0.00664131 -0.0225811 -0.00145137 -0.00652829 -0.00234312 0.0152379 0.00770645 -0.015895 -0.00787002 -0.0109325 -0.0120902 0.00994916 0.00771983 0.0218829 0.00448026 0.00600389 -0.0100219 -0.0187677 0.00140999 0.00817096 -0.00864069 0.0151902 -0.0213297 0.0267294 0.0309308 0.0022966 0.0126368
321004 0.00145745 -0.00314903 0.00627671 -0.0077427 0.00420104 -0.00415218 -0.00120812 0.00165287 0.00293517 0.00753451 0.00537158 0.00280353 -0.00294345 -0.00346564 -0.0019744 0.00461973 0.00204548 0.00338991 -0.00676214 0.00723432 -0.00206859 -0.00534354 0.00114524 -0.00511736 -0.00441959 0.00512498 -0.00698673 0.00641826 0.00441941 -0.00207042 -0.00487507 0.00100306 -0.00067561 0.00102858 -0.00724171 0.000951734 0.00366725 0.00625561 -0.0056441 0.001025 0.0075141 -0.00502044 -0.00563208 -0.000278236 -0.00594643 0.000849341 -0.00569535 -0.00780234 -0.00633575 -0.00293962 -0.00734235 -0.00492842 0.000685795 0.0048815 0.00161794 -0.000255609 0.000875282 -0.00111959 0.00239942 -0.00281785 -0.00106877 -0.00275337 0.000409071 0.00259614
3187 -0.0126827 0.0238278 -0.214115 0.0193604 -0.00126136 -0.170938 -0.145809 -0.105687 0.0752593 -0.00190569 0.0292445 0.0366593 0.0818286 0.113998 -0.0893061 0.086857 0.026982 0.0020606 0.121052 -0.159155 -0.155319 -0.122237 0.0381896 -0.101349 0.0178031 0.0555167 -0.00327721 0.203687 0.0306404 -0.130701 -0.0264865 -0.0563163 0.0958024 0.0216783 0.0224082 -0.124452 -0.0730824 0.0812025 0.0629107 0.0214518 -0.0621535 -0.0677086 0.00221673 0.040891 -0.106232 0.0762065 0.057461 0.0874538 0.153314 -0.0613602 0.00660216 0.02605 -0.225968 0.127328 -0.029094 -0.0273171 -0.0778284 0.0911997 -0.0982028 0.0690224 -0.181736 -0.0635691 0.172861 0.063207
45212 0.0137832 -0.0707712 0.00164879 0.0111387 0.0237413 -0.0460206 0.0462982 -0.0230623 0.0273854 0.00558127 -0.0218421 0.025961 -0.0153871 -0.0644629 0.0413849 0.0145148 -0.00230668 0.0249351 0.0182237 0.0449726 0.0444381 0.00932362 -0.00102501 0.00238553 0.0258825 0.0196896 -0.0581729 0.0450805 0.0660105 -0.0249513 0.0207736 -0.0386356 -0.0233317 0.00485466 0.00816587 0.0113536 0.0353984 0.0301579 -0.0135608 0.00351373 0.0186894 -0.0131155 -0.0293406 -0.0108289 -0.0338645 -0.0239235 0.0440165 -0.0107789 -0.0512273 0.0718452 0.0145827 -0.0399951 0.00106564 -0.00772462 -0.0345994 0.00837715 -0.0544341 -0.0543805 -0.00196678 -0.026965 -0.011879 0.030758 -0.0343666 -0.0316337
576973 0.0128293 -0.0365074 0.00238304 0.0253218 -0.0308275 -0.0316202 -0.00409566 -0.0266837 0.00179061 -0.024663 0.0221138 -0.0182068 0.00263096 0.00370564 -0.0175172 0.00148492 0.0136358 0.0179536 -0.00436806 -0.0466312 -0.0381314 0.0736764 0.00229016 0.0429772 0.00233883 -0.00629337 0.00904212 -0.0299558 -0.105532 0.030585 0.00855122 0.0256377 0.032018 0.0745775 0.00475253 -0.0516706 -0.049958 -0.0394496 -0.0580582 -0.0106755 0.0214937 -0.0412905 0.0043011 0.0108601 0.0184341 0.126855 -0.0791024 0.00891347 0.0593767 -0.071605 -0.048149 0.0274885 -0.0221554 -0.00685577 0.017474 -0.054876 0.0620509 0.0499719 0.0310757 0.0660512 0.00805169 0.0208334 0.0271773 0.0582002
686061 0.0607317 -0.0201455 0.0367994 -0.0354818 -0.00235695 -0.0295067 0.0106134 0.0240845 0.0202241 -0.00619728 -0.0202712 -0.0395658 0.0148964 -0.00361778 0.057114 -0.0362729 0.0165907 0.0205401 -0.0409023 0.0330567 0.0241835 -0.055763 -0.0340893 0.0456955 0.0580469 0.0125503 -0.0026467 0.0343163 0.00627213 0.0016716 -0.00701859 0.033173 -0.0408557 -0.0394888 0.0257763 0.0467803 -0.0290099 0.0338582 0.0193536 -0.00626831 -0.00546577 0.0343656 -0.0255933 -0.0527225 -0.00570804 -0.080098 0.0707892 -0.0580195 -0.0437567 0.0218785 -0.019447 -0.00503215 -0.0044598 0.0271556 -0.0607884 0.0183212 -0.0229386 -0.0321702 0.0153251 -0.0379983 -0.046906 0.0536387 0.0200207 -0.0101113
1114442 -0.0688302 0.00212652 -0.0495975 0.00988156 0.0575588 0.0261171 -0.00274475 0.00120587 0.0055762 -0.0305564 -0.00752979 -0.0023807 0.0704181 -0.0159705 -0.012068 -0.0235522 -0.0180107 0.061698 -0.0358644 0.019446 0.0186234 -0.123466 -0.00355309 -0.0920016 0.0274443 -0.0465655 0.0464594 -0.010481 -0.0304484 -0.12459 -0.0448401 0.0108707 -0.00688459 -0.0268264 0.0463281 0.0387493 -0.00653024 -0.00401261 0.0420999 0.0144707 0.0352795 0.0495255 0.0185298 -0.0257921 -0.0261664 -0.11635 0.0830852 -0.00603145 -0.0905503 0.067418 0.0351291 -0.0513785 0.0303364 0.0238428 -0.00733642 0.134813 -0.0396609 -0.0477735 -0.0123695 -0.137237 0.0353297 -0.0465974 0.000101439 -0.0203734
2653 0.064054 0.166439 -0.106653 -0.0415139 -0.0524178 -0.114706 0.239883 -0.093039 0.0498089 0.175461 -0.0131825 0.0443399 0.053084 -0.159697 0.0768205 -0.0874029 -0.0673846 -0.0580275 0.12077 -0.00670847 0.0602625 -0.0107592 -0.00781196 -0.0100977 0.095093 -0.118443 0.0673783 0.0601358 0.141068 -0.0733908 -0.0490279 0.0418851 0.0622616 -0.000458005 0.0642165 -0.0415767 0.0672273 -0.0685393 -0.0152978 -0.0567337 0.10298 0.00430783 -0.0689606 -0.122136 0.0314703 -0.146235 -0.00952697 0.122213 0.0973958 0.135848 0.194384 0.147231 0.146126 -0.0408618 0.0232187 0.0175813 -0.136629 -0.118243 -0.10137 -0.118623 0.0105925 -0.0456066 -0.0759181 0.0211009
1120731 0.0726443 -0.159798 -0.039578 0.10955 0.208005 0.0358113 0.00357975 -0.0313754 -0.0487756 0.080444 0.0322699 -0.0459814 0.196195 -0.0662915 0.114483 -0.0833552 0.143386 0.0506971 -0.224498 0.000414491 0.162674 -0.219747 0.00121299 -0.154622 0.139023 0.00503636 -0.0805949 0.20304 -0.00525812 -0.175242 0.128393 -0.120722 0.0846945 0.128015 -0.0636614 0.00250621 0.0755343 0.0816734 -0.141552 0.0799394 0.112791 -0.164327 -0.00868755 -0.112592 -0.027325 -0.154334 0.0742383 -0.0860579 -0.0372008 0.204869 0.151377 -0.253233 -0.0265216 0.105927 0.000270786 0.136697 -0.134241 -0.0950404 -0.0783808 -0.222095 0.0395816 -0.102034 0.0906368 -0.0460011
1113614 0.11504 -0.0520044 0.0653867 0.133229 -0.236853 -0.284788 0.0211411 -0.0952258 -0.0524643 -0.100416 0.146923 0.00543645 0.066003 -0.193213 -0.139308 0.116772 0.089779 0.147239 0.191511 -0.162658 -0.0551735 0.466336 0.0692468 0.105402 0.0799309 0.239117 -0.106561 0.0847308 -0.279831 0.0390688 0.219206 -0.118109 0.181077 0.449504 0.142355 -0.229628 -0.107243 0.134936 -0.442237 -0.000965941 -0.142296 -0.0690557 0.0741413 0.27194 -0.0993478 0.493447 -0.221415 0.10036 0.430074 -0.301312 -0.197103 0.103489 -0.00111861 -0.0991265 0.0676907 -0.135099 0.262838 0.260989 0.162032 0.411955 -0.00103178 0.23834 -0.0481751 0.160005
486840 -0.00766102 0.103721 -0.00441371 -0.0975978 0.0795186 0.0233563 0.0116702 -0.0436357 -0.00396347 0.0244537 -0.0892097 0.0269312 -0.0601152 0.0222203 0.0473479 0.0120577 -0.0842171 -0.0203507 0.0160777 0.066494 -0.00774977 -0.146129 -0.00308529 -0.0896869 -0.0278111 -0.012339 -0.00666011 0.0184971 0.181654 -0.0876876 -0.017824 -0.0523792 -0.083573 -0.154279 -0.00957157 0.104131 0.101779 0.0417768 0.141471 -0.0454083 0.0383962 0.0669244 -0.0258213 -0.0446992 -0.0316197 -0.267852 0.102993 0.0530678 -0.121737 0.127415 0.065709 -0.0670071 0.024101 -0.00366576 0.0024878 0.082477 -0.0632595 -0.0784095 -0.0187339 -0.108581 0.0429436 -0.019373 -0.0326724 -0.0854621
1105574 -0.0196395 -0.069757 -0.0486653 0.0547631 -0.0187007 0.0898564 0.0678043 0.0793873 0.139824 0.00639701 0.0600796 -0.109041 0.0613053 0.00735282 0.0430502 0.135013 0.0695365 -0.0959377 0.0738107 -0.0478945 0.0124029 0.0558825 -0.0301103 0.147684 0.155599 -0.00762388 0.0103715 -0.0876079 -0.0856983 -0.0762645 0.072426 -0.0575239 -0.0965029 0.0141228 0.0746356 0.0825184 -0.0624062 -0.0406327 0.00436976 -0.0245506 -0.189735 0.115288 0.06621 0.119192 0.00959614 0.0808568 -0.0213045 -0.017246 0.0398713 -0.0211752 -0.00389963 -0.04361 0.0310317 -0.0359059 -0.0132985 0.0501253 0.114206 -0.0157057 0.120577 -0.0526482 -0.120627 -0.0688293 0.000817207 0.0130492
126927 -0.0227449 0.0343325 -0.0069634 0.0926483 -0.0236958 -0.0195606 -0.11887 -0.210041 0.0280973 -0.0159118 0.0425661 -0.0165853 0.0819281 -0.0604682 -0.113388 0.0474934 0.0799006 -0.1203 0.0692579 0.11116 -0.217995 0.138765 -0.0741768 0.105978 0.155401 0.060113 0.103057 0.0895074 0.0816661 0.0523184 -0.0500293 -0.0592286 0.017575 0.0588856 -0.0337812 -0.0740909 -0.00519288 0.0300234 -0.066723 -0.04054 -0.10296 0.157287 -0.119805 0.033068 0.0351674 0.141247 0.0777107 0.00299465 0.161879 0.0570329 -0.0969376 0.148033 -0.0308238 -0.0906399 0.152813 0.0497196 -0.100781 -0.0125948 0.131692 -0.0227798 0.0269905 0.132861 -0.0553465 0.0228583
81722 -0.00509223 0.0358937 -0.0123991 -0.0481512 0.0843724 0.0863063 0.0110242 0.0361349 0.0058516 0.0239577 -0.0444413 0.0272109 -0.0284657 0.0403999 0.070075 -0.0593987 -0.0315623 0.0042037 -0.0400373 0.0658355 0.0525374 -0.113853 -0.0249422 -0.0856288 -0.0132039 -0.0391742 0.0236419 -0.000722393 0.127867 -0.0291287 -0.0442584 0.00141832 -0.0833948 -0.154527 -0.0168821 0.0463158 0.049002 -0.0150017 0.11317 0.00671814 0.0301928 0.0768848 0.0193664 -0.058783 -0.00222555 -0.194667 0.113713 -0.024363 -0.158813 0.136399 0.0871547 -0.0530379 0.0282394 0.0244859 -0.0221414 0.0863951 -0.0804023 -0.0871257 -0.0645562 -0.0988773 -0.011739 -0.0305403 -0.0112466 -0.125046
1133047 -0.01489 0.0347974 -0.0103707 -0.0385565 0.0685634 0.0658652 0.00451396 0.0347002 0.00565409 0.0526878 -0.0491039 0.0332537 -0.0327157 0.0137713 0.0519874 -0.00657566 -0.0215068 0.00168126 -0.00912667 0.0655895 0.0536347 -0.108469 -0.0176931 -0.0626898 -0.0199309 -0.0110016 -3.77782e-05 0.0326276 0.142971 -0.0773334 0.00559715 -0.0227484 -0.0654664 -0.117392 -0.00723246 0.0865985 0.0526797 0.0359689 0.100041 0.019287 -0.0187724 0.0552174 0.00125019 -0.0250089 -0.0246348 -0.177452 0.0865061 -0.00978561 -0.0971008 0.117389 0.0706285 -0.0520746 0.0612591 -7.87563e-05 -0.0381589 0.0814541 -0.100201 -0.081702 -0.0529755 -0.100922 -0.00331331 -0.0396796 -0.0478152 -0.0843222
36131 0.0127323 0.076662 0.0480611 -0.00315748 -0.0110774 -0.0666721 -0.00613348 -0.099004 -0.021761 0.056636 -0.0322941 0.0664763 -0.0752995 -0.0624593 -0.00568913 0.0563314 -0.0454937 0.0122553 0.0622996 -0.0288985 -0.00645797 -0.0131068 0.0354408 -0.0513684 -0.0602914 0.0234451 -0.0551693 0.0464669 0.119863 -0.0399404 0.0630419 -0.0772593 -0.03764 0.0445009 0.0739425 0.0483763 0.100019 0.0998175 -0.0446096 -0.0142348 -0.0384576 0.00485744 -0.00242332 0.117688 -0.0722666 -0.113879 0.0161597 0.0729823 0.00907084 0.0705635 -0.030342 -0.0300851 0.0170488 0.00904259 -0.0284969 0.00521413 0.00109467 -0.0115283 0.00407358 0.0138531 0.0373533 0.0317503 -0.0380325 -0.0215131
293285 0.0565238 -0.061167 -0.0698573 0.0761796 0.120188 -0.0938103 0.0930408 -0.0882764 -0.0599161 0.0984238 0.0651534 -0.0470009 0.197998 -0.0241577 0.0822866 -0.067047 0.108293 0.0296577 -0.0909351 0.0622096 0.108146 -0.144099 0.0238868 -0.223669 0.117079 -0.0203384 -0.155915 0.183226 0.053514 -0.196108 0.0668205 -0.129965 0.171413 0.170522 -0.0855888 0.0328083 0.129278 0.0876408 -0.153395 -0.0518758 0.0158964 -0.127237 -0.000776381 -0.00951237 -0.108101 -0.0270587 0.125029 0.0201876 0.0680277 0.157891 0.239107 -0.170502 -0.0201697 0.147013 0.0308153 0.0926585 -0.192385 -0.0585935 -0.0604268 -0.187591 -0.0596025 -0.00924867 0.0796622 0.0831385
153063 -0.0516749 0.00681988 0.021176 -0.0123259 -0.0599679 0.0199421 0.00815265 -0.0452563 -0.0147408 0.00669407 0.0239582 -0.0234167 -0.0437578 0.0575784 0.0370593 -0.0247958 0.0572957 -0.0831388 0.00230227 -0.021241 -0.0174044 -0.0505689 -0.051081 -0.065068 -0.0295279 0.0163388 -0.00391607 0.0941365 0.0572275 -0.0289546 0.00694715 0.0872016 0.00203475 -0.0233822 -0.0511758 -0.00774134 -0.0455962 0.0360694 -0.00424086 0.0063669 -0.0457575 -0.0216541 0.0210945 0.0156459 -0.0203817 0.0222297 0.010403 0.000454411 -0.0141308 0.0340163 0.00962456 0.0376916 0.0303519 0.0247852 0.00873646 0.0206337 0.039174 0.0318148 0.0109158 0.0160435 -0.112375 0.0539646 0.0158997 -0.010885
72056 -0.000492802 0.0205808 0.000991898 0.00642868 -0.0104751 0.00925042 -0.00246029 0.0323587 -0.0045436 -0.00575575 -0.00501975 0.0104753 -0.0233331 -0.00481578 -0.00264614 -0.0124633 -0.00243877 0.0118261 -0.0105339 0.00375188 -0.0249486 0.00934859 -0.0252726 -0.0015102 -0.0183188 -0.0234094 -0.00205533 -0.0171997 -0.013381 0.0177469 -0.00733471 -0.0155387 0.0107276 -0.0163455 0.0215145 -0.00478276 -0.0116809 0.00581738 -0.0116177 -0.0094767 -0.0137279 0.00883602 0.0101373 0.0201539 -0.0149287 0.0124652 0.0068736 -0.00333503 0.00812799 0.00524544 -0.0155963 0.00293143 0.0147777 -0.0136769 -0.000369271 0.0126919 0.0147455 0.017814 0.00981961 0.00552142 -0.00180293 0.0328101 0.0033822 0.00321305
574710 0.0302768 0.173783 -0.0293851 -0.128704 -0.129776 -0.161518 -0.00809173 -0.119563 0.0344622 0.0158327 0.0111677 -0.0530179 -0.00882266 -0.102729 -0.198077 0.184392 0.0248468 -0.052599 0.203111 -0.0790484 -0.09038 0.0528695 0.0264229 0.084342 -0.0845876 0.0995088 -0.0660909 0.0661111 0.0648948 -0.0655373 0.157015 -0.206639 0.0750792 0.12417 0.086786 0.120161 0.00542216 0.132557 -0.128816 -0.0320475 -0.0631596 -0.0306157 -0.0867144 0.0923875 -0.173601 -0.0682716 -0.0777896 0.140839 0.259817 0.0144059 -0.061974 0.134988 0.0113093 0.00701172 0.0398623 -0.0835417 0.279462 0.146952 0.0288795 0.112769 0.100411 0.127319 0.0665389 0.154192
48766 0.0529166 0.0816748 -0.0276393 -0.168671 -0.00987388 -0.204271 0.104402 -0.157487 0.0236004 -0.0399115 -0.1701 0.0714742 0.00509086 -0.00149592 -0.10415 -0.00506145 -0.135998 0.00863284 0.0396481 -0.0570905 -0.115105 -0.147187 0.0762788 -0.118542 -0.0498051 0.145141 0.0349257 0.00612722 0.123727 -0.0892351 0.0235805 0.0895262 0.0411467 0.0316692 0.0289014 -0.0624762 0.0974955 0.0383325 0.0375303 -0.0436912 0.104807 -0.00720064 -0.0417593 0.0833478 0.0342328 -0.0584708 -0.0305558 0.17859 0.0228527 -0.01491 0.0418036 -0.0085653 -0.0359924 0.0102014 0.140107 0.0976674 -0.00903457 -0.0567167 0.0682706 -0.093605 0.0758976 0.0745746 -0.013695 0.0231986
49660 -0.0255304 0.0957921 0.0216207 0.0361466 0.0489544 0.137941 -0.00522103 0.0734837 0.0241917 0.0308226 0.0128101 -0.0165813 -0.0300639 -0.00345086 -0.0300691 -0.069263 -0.00462945 0.0224865 -0.0143634 -0.0353753 0.00130485 -0.00699218 0.0469564 0.028648 -0.0265634 -0.0914491 0.130544 0.0329763 0.0744745 0.0164926 -0.0351233 0.071227 -0.11155 -0.027734 -0.0752311 -0.00977307 0.0311758 -0.0589834 0.141364 0.032576 -0.010043 0.0561078 -0.0536728 -0.129404 0.0720005 -0.0429849 -0.0411909 -0.107768 -0.0157923 0.00471001 0.00538548 0.0266882 -0.036835 0.00992912 0.0178634 0.00749417 -0.0689421 0.00271558 -0.0757548 -0.0151108 -0.00609673 -0.113109 -0.054053 0.00783395
5966 0.00658518 0.113651 0.0189243 -0.0465877 -0.04967 -0.00523374 -0.0283111 0.0587852 -0.0319051 -0.0432025 0.0682918 0.068724 -0.15044 -0.0350781 0.00614541 0.0506898 0.0302599 -0.00920118 0.127393 -0.105984 -0.0537531 0.062514 0.0762453 0.0180207 -0.012218 0.052176 -0.0837157 -0.0047536 -0.020891 0.0741294 -0.014507 -0.0354365 -0.0190065 -0.0451714 0.0287222 0.101342 0.0532054 0.0432138 0.0109125 0.0118697 -0.00977637 0.0731703 0.125919 0.0674748 0.0655498 0.0343961 -0.0832572 0.0579424 0.132536 -0.0684156 -0.0123036 0.101884 0.0234214 -0.0237357 -0.0408133 -0.00741477 0.114743 -0.0251439 0.0531648 0.0484105 0.0106374 0.088317 -0.0324776 0.00250194
75318 -0.0168418 0.011548 -0.00749953 -0.0120993 0.022318 -0.0163765 0.0114562 -0.0193727 -0.0017075 -0.00861998 0.00479735 -0.0449468 -0.00764744 0.0152315 0.0193699 -0.024921 -0.0235944 -0.0428828 -0.00366924 -0.00418583 0.0296225 0.0215227 0.0204557 -0.00496734 0.0159215 -0.0144793 -0.0400976 0.0239878 0.00307506 -0.00663462 -0.00471031 0.0280138 -0.00170691 0.00407055 -0.00166302 -0.0137151 0.00213867 -0.021408 -0.00554435 -0.0108018 -0.0016219 0.0204634 0.00268514 -0.00851917 0.0130234 0.00386777 -0.0159348 0.0102341 -0.0113221 0.0258369 0.0273988 0.000348188 0.0121115 -0.0240921 0.0238909 0.00326652 -0.00743617 -0.0187614 0.00467166 0.0145858 0.00391838 -0.000107561 -0.0198221 -0.00422277
1125597 -0.00091782 0.0142511 0.00346059 -0.0102981 0.0503378 0.045702 -0.00885739 0.00246453 -0.00710879 0.0222033 -0.0244128 0.0054291 -0.0366746 0.00819285 0.0514576 -0.00130996 -0.000123831 -0.000752192 -0.00565718 0.0351751 0.0336499 -0.0855633 -0.0343421 -0.0660408 0.000481136 -0.0259623 0.013073 0.0251304 0.0920291 -0.0339195 -0.0161069 -0.0184111 -0.0469387 -0.0846308 0.00326749 0.0621749 0.0501217 0.0098538 0.0407063 -0.00791797 0.00450069 0.0242101 -0.0105832 -0.0126309 -0.0309372 -0.137113 0.0865285 -0.00794353 -0.0651879 0.0818795 0.0503847 -0.040362 0.0258363 0.0102704 -0.0400263 0.0405088 -0.0353214 -0.0603182 -0.0390797 -0.0542952 0.0103997 -0.0379551 -0.0352252 -0.0528529
16485 -0.00478882 -0.00287128 0.0340448 0.00515076 -0.0159795 0.0128945 -0.00964021 -0.139675 0.042765 -0.0122063 -0.0379595 0.0789796 -0.031857 -0.00131238 -0.0357543 -0.014357 -0.0612166 -0.0622851 -0.0661148 0.0855817 -0.0107891 -0.0580115 -0.0135183 -0.0399398 -0.0663308 -0.0408638 0.0266144 -0.0343484 0.118992 -0.0864578 0.0921952 -0.073301 -0.0161516 0.0600942 -0.00876079 0.058729 0.0420015 -0.000646349 0.0214209 -0.0133671 -0.0206657 0.0300731 -0.0186605 0.0663152 -0.0215945 -0.10571 0.0400045 -0.00471428 -0.0183722 0.0666898 -0.0621193 0.0086005 -0.00247538 -0.0736628 0.030125 0.0455467 0.0198232 -0.00783151 -0.0327713 -0.0354218 0.0745098 -0.00831226 -0.0167926 -0.111826
193354 0.00297519 0.0139276 0.00349784 0.00788282 -0.0110814 0.00255339 0.00577584 0.00900027 0.00392466 -0.0103106 0.0109046 0.00202459 0.0100501 -0.00698651 0.01164 -0.011374 -0.00438594 0.00416829 -6.08047e-05 0.00424643 -0.00416149 -0.00659984 0.00603959 -0.00659529 0.00513827 -0.020438 -0.00394088 -0.00117386 -0.0117562 -0.000947852 0.00351468 0.00702836 0.000801213 0.00686104 0.00801712 0.00861921 0.0142636 0.00466777 0.00515171 0.000589269 0.00297396 0.0150924 -0.0037649 0.00123553 -0.00267444 -0.00940866 -0.00116089 -0.00317803 -0.0107717 -0.0168183 0.00962378 0.00360711 -0.00419508 0.0121248 -0.00427393 -0.00798954 -0.00247074 0.0197397 -0.00790966 -0.00127334 -0.00212724 -0.0107605 -0.00978686 -0.000742606
1272 -0.649062 0.109052 0.0430042 -0.320404 -0.167799 0.854561 -0.299992 0.468291 0.155836 -0.268687 -0.124515 -0.053201 -0.352949 0.494003 -0.313953 -0.32699 -0.186626 -0.346808 -0.46605 0.0663117 -0.255924 -0.443075 -0.132677 0.672329 -0.306099 -0.250017 0.708414 -0.766024 -0.278017 0.681353 -0.653725 1.02923 -0.361772 -0.920827 -0.0816334 -0.0553336 -0.374572 -0.697486 1.10342 0.216962 0.170612 0.345745 -0.108393 -0.71669 0.687992 -0.310736 -0.392502 -0.355868 -0.729158 -0.347433 -0.478621 0.410986 -0.362278 -0.203001 0.0868838 -0.0896551 0.185182 -0.0959522 -0.169792 -0.155228 -0.131261 -0.609298 0.28702 -0.189787
1128959 0.0248027 0.0929915 -0.0400573 -0.148556 0.0445263 0.00195829 0.0224504 -0.0523128 -0.000648144 0.0385466 -0.0926315 0.0241353 -0.044489 0.0130046 -0.00141694 0.0182436 -0.0513757 -0.0329393 0.048885 0.0245789 -0.00605681 -0.141208 0.00412518 -0.0970647 -0.052398 0.00383201 -0.026062 0.0509479 0.179664 -0.100584 0.0296446 -0.0703987 -0.0515128 -0.107653 0.000384366 0.116406 0.103277 0.0313536 0.0761707 -0.011275 0.0179253 0.0577242 -0.0492771 0.0104333 -0.0623075 -0.283012 0.0789889 0.0621775 -0.0548416 0.154711 0.108283 -0.0219397 0.0312586 0.0343431 -0.00711981 0.0606105 -0.00592856 -0.0680109 -0.0256083 -0.116461 0.045208 -0.00921236 -0.00480505 -0.0311725
1110209 0.00583637 -0.0492227 0.0092269 -0.0269827 -0.00649561 -0.00660966 -0.0581507 0.0373388 -0.0226767 -0.0246398 -0.0182723 -0.00865942 -0.00609149 0.0267537 0.00711039 -0.00263065 0.02248 -0.018168 0.0275927 -0.0438202 -0.0499738 0.0344935 -0.00303792 0.000601498 -0.0135685 -0.0148647 -0.0158182 -0.0209508 0.00285836 0.00458762 -0.0168679 0.0302606 0.0134546 -0.0179682 -0.0553844 0.000338188 0.0508282 -0.00771458 0.0420186 -0.00126048 -0.0184787 0.0338123 -0.047613 0.000967569 -0.0316686 -0.018689 -0.023341 -0.0286239 0.00264385 -0.0101812 0.0122004 -0.0439543 -0.0217779 0.0314172 0.0648369 0.03588 0.00887249 -0.0788523 -0.0112128 0.00102834 0.0138402 0.00580824 -0.0224727 0.0303683
1131345 -0.006961 -0.00736531 0.00615683 0.00258474 -0.00469719 -0.00829438 0.000256498 -0.00506371 0.00749198 -0.0122967 0.00135318 0.00261035 0.00273187 0.00600792 0.00782272 0.00863429 -0.0117909 0.0152846 0.00505025 0.00449861 0.00381407 -0.00325705 0.00128731 -0.0137558 0.00371821 0.00341141 0.00295095 0.00333121 -0.00523511 0.00175006 -0.00540117 -0.00129836 0.00626843 -0.0156399 0.0105642 0.0115673 -0.00128863 -0.00233921 0.0166386 0.00510092 0.00214209 -0.0086104 -0.00971198 -0.00844177 -0.00477761 -0.0109749 -0.0027467 0.00333096 -0.000864019 0.0116259 0.00797165 0.00889976 -0.00229597 0.013835 0.0112444 -0.00899028 -0.00324076 0.00332498 0.00463878 0.00830611 0.00668557 2.23911e-05 -0.00338336 -0.0111108
111770 0.0128466 -0.0031374 0.0103308 0.0100261 0.0109023 -0.00158051 -0.00699119 -0.0162293 -0.00333466 -0.0114394 -0.000953994 0.000553241 -0.00750463 0.000127112 -0.000789588 0.00632372 0.00448902 0.00488558 -0.0129635 -0.00536539 -0.00790707 0.00782075 -0.000580812 -0.00617016 -0.00605177 0.00659423 0.00883479 0.00450701 -0.00537916 0.00105749 -0.0057761 -0.00108636 -0.00396499 -0.00214582 0.00470994 0.00620899 -0.0100544 0.00142639 -0.00439042 0.00421532 -0.00591938 0.0130352 0.00485458 0.00610773 0.00835131 0.000962524 -0.00296331 -0.00596519 0.00210629 -0.0127725 0.0124053 0.000789084 0.00859193 -0.00421398 0.00769608 0.00888444 -0.00668735 0.00483312 -0.00167252 -0.0108833 -0.00501589 0.0041672 0.0100685 0.00132444
1128997 0.0234482 0.0583984 -0.0355764 -0.109713 0.0757304 0.0181127 0.0776735 -0.101668 0.0235416 -0.028818 -0.0807768 0.00672656 0.0243879 0.0522161 -0.0128964 -0.03798 -0.0774206 -0.0202637 -0.0489819 0.0135514 -0.0462492 -0.0990427 0.0361949 -0.071246 -0.0195545 0.0568115 0.00746985 0.00929609 0.0522272 -0.097351 -0.0520014 0.10005 -0.00934785 -0.0433704 0.0197366 -0.0333308 0.0394685 -0.0300736 0.0759894 -0.0569141 0.0906535 -0.00443541 0.0220669 -0.0502601 0.0629194 -0.0393201 0.0113166 0.0724704 -0.134387 0.0387339 0.0455301 -0.0267111 -0.0144205 0.0191596 0.0917655 0.0348884 -0.0240464 -0.090483 -0.010601 -0.116076 -0.0147067 -0.00590283 -0.00426332 -0.0741383
6169 0.0976715 0.00604905 0.0283793 -0.00602401 -0.00533089 -0.161949 0.0823233 -0.152011 -0.00248993 0.0277043 0.0535965 0.050426 0.0105371 -0.110954 -0.0367773 0.06624 0.00196003 0.0534789 0.0939244 0.029032 0.031015 -0.00304516 0.00385284 -0.140046 0.0192989 0.0477987 -0.106072 0.156789 0.057175 -0.17477 0.154689 -0.15274 0.0525375 0.110412 0.112756 -0.00790968 0.140086 0.150349 -0.165875 -0.0218893 -0.00622142 -0.0217547 0.031625 0.151525 -0.150222 -0.0675702 0.0230739 0.0938776 0.127801 0.0834208 0.0434139 -0.0479649 0.0748233 -0.0117017 -0.00170539 0.00533394 -0.0377972 0.0293987 0.0346403 0.0652076 -0.0386041 0.0451109 -0.0963959 0.021521
634902 -0.0041351 0.115245 -0.0194135 -0.147719 0.105581 0.0384349 0.0168268 -0.076584 0.0338073 0.0799113 -0.128103 0.0825457 -0.0898002 0.017945 0.0480136 0.0127233 -0.111535 -0.00233636 0.00271215 0.070871 0.0250028 -0.218775 -0.00958558 -0.127893 -0.0818689 -0.0107847 0.00231375 0.0281108 0.287703 -0.138 0.0232333 -0.0386207 -0.103938 -0.219741 0.00105361 0.115509 0.128757 0.0390334 0.144443 -0.00127513 0.00771896 0.0826574 -0.0556054 -0.0136553 -0.0297797 -0.405915 0.151959 0.0857392 -0.158214 0.209417 0.145543 -0.058772 0.0350712 0.0113943 -0.0201881 0.106241 -0.116791 -0.125337 -0.021604 -0.184248 0.0405234 -0.0246333 -0.0714436 -0.115203
936 -0.0386358 0.0150988 -0.0275446 -0.101577 0.11497 0.0223029 -0.0176959 -0.0276958 -0.009478 0.0595093 0.00690978 0.0610518 -0.0817424 -0.0255791 0.0494247 0.0378894 -0.0693465 -0.0999376 0.0108274 0.155351 0.0147345 -0.134019 -0.0510766 -0.116084 -0.0793623 -0.0494351 -0.0561413 0.0554277 0.216068 -0.0962107 0.0622359 -0.0866311 -0.11104 -0.0987663 0.00165255 0.203704 0.187386 -0.0280253 0.0982252 -0.0287262 -0.070562 0.037012 -0.0252868 -0.00613068 -0.132282 -0.250175 0.152731 0.0729827 -0.102504 0.172387 0.0963436 -0.0570186 0.077755 0.0686885 -0.10067 -0.0074016 -0.098341 -0.095535 0.00817871 -0.142415 0.0688818 -0.126495 -0.10918 -0.0116505
1119623 0.00576079 0.000372177 9.41358e-05 0.00165272 0.0100051 -0.00188854 -0.00653947 -0.0145302 0.0062566 -0.0122552 -0.00250292 0.00681454 0.00341983 0.00152218 0.0042366 0.00157042 -0.00145538 0.00719723 -0.00778212 -0.012422 -0.00731419 0.00464807 -0.00679358 -0.00440278 0.0056384 0.0135503 0.00288141 0.00120376 -0.00754009 0.00468951 0.00109301 -0.00443014 -0.00317975 -0.00531521 -6.12138e-05 0.00769915 -0.0100163 -0.00195951 -0.0090189 0.00111107 0.00323084 0.0147131 0.00107571 -0.000747665 -0.000406016 -0.00236113 -0.00332275 -0.00542488 0.00450992 -0.0077678 0.0137658 0.00659698 0.00668869 0.00441932 0.00285707 0.0126898 -0.00510262 0.012455 0.00284611 -0.0103837 -0.00537912 0.00219137 0.0049043 0.000287104
240321 -0.025391 -0.116341 -0.0108078 0.0196817 -0.0070358 0.0774735 -0.0699312 -0.10346 0.053724 -0.0602556 -0.121007 0.0121234 -0.0787688 -0.166835 -0.0751496 0.015864 -0.0404595 0.0361698 -0.152646 -0.0576556 0.0517031 -0.0866421 -0.00914507 0.0964633 0.0345837 0.0332628 -0.0369374 0.0337922 -0.0202779 -0.111647 0.103198 -0.0584846 -0.0115443 0.0876762 0.00618964 0.0465352 0.0200336 -0.0550737 0.0591104 -0.0188267 0.00756185 -0.0140201 0.00939582 0.108046 0.00285963 -0.0785138 -0.0647106 0.0184249 -0.139403 0.0371188 -0.131382 0.0422126 0.00479014 -0.0770592 0.0110264 0.0704261 0.0705983 -0.0863203 -0.00164662 -0.0767174 -0.00515415 0.00231649 -0.0687615 -0.0875299
67415 0.0149613 -0.104731 0.143692 0.155348 -0.00930365 -0.0981925 -0.0717382 -0.0675493 -0.0153962 0.120597 0.0481125 0.133134 0.000906915 -0.123274 -0.0148797 0.0430483 0.162771 -0.0713899 -0.125344 0.0218486 0.0617633 -0.0318319 0.00145066 0.0385822 -0.0824279 0.122539 0.0988687 0.0452442 0.111693 -0.0132092 -0.0275352 -0.103583 -0.00747804 0.024163 0.0239954 -0.0062367 -0.00916168 0.115206 0.000350789 -0.0368138 -0.0760423 -0.0521818 -0.118914 -0.0532173 0.0473916 0.0380113 0.0585084 0.030756 -0.0521731 0.0381556 -0.0389602 -0.00882585 -0.0508601 0.0945612 0.0418652 0.120546 0.0440852 0.144188 -0.0228873 -0.0240537 -0.148832 -0.0909394 0.0207001 -0.0886047
1125393 0.0266808 0.0293276 0.0330344 0.00722911 -0.0164262 -0.00472508 -0.0106252 -0.00266942 -0.0141243 0.0196358 -0.0132439 0.0491662 -0.0120551 -0.00131209 -0.00569932 -0.008309 0.0226755 0.0249723 0.0263234 0.0364581 -0.0039775 0.0350574 0.0123238 -0.0128325 -0.0401924 0.00293361 -0.00578159 0.00941166 0.0267799 0.0219765 -0.000417145 -0.0188947 0.0105942 0.00177367 -0.0198713 0.00998879 0.00345139 0.0309111 -0.00254362 -0.012322 -0.0293346 -0.0440145 -0.0151709 0.0100804 -0.0207954 -0.00162424 -0.0199617 0.0172704 0.00131883 -0.00168815 -0.00100966 -0.00418581 0.013409 0.0120064 0.0120492 -0.0155223 0.0241559 0.016659 0.0225511 -0.00395767 -0.0185066 -0.0120554 -0.0333316 0.00354382
1104787 0.0088551 0.00219627 0.0116717 0.00734655 -0.0287718 -0.0130725 0.00733708 -0.0482442 0.0108759 0.00967826 0.00560546 0.00237721 0.00847541 -0.00403657 -0.0244215 0.00135219 -0.0032475 -0.0290943 -0.00908591 0.0157891 -0.0126617 0.000328709 -0.0052625 -0.0053391 -0.00530592 -0.0285505 0.0167806 -0.015818 0.0393455 -0.0335542 0.0276504 -0.0160037 -0.0124253 0.0320409 -0.0136916 0.030158 0.0104923 -0.000556449 0.00436617 -0.00856567 -0.00815186 -0.00471212 -0.00151811 0.0166571 -0.00735087 -0.00943006 0.0222821 -0.0156995 -0.00148048 0.00631873 -0.0144882 0.0192635 -0.00284777 -0.023858 0.0135033 0.0095221 0.00885127 0.0037441 -0.0188065 -0.00250788 0.00826013 0.00185315 0.00346706 -0.0339655
1102567 -0.0116105 0.000250583 -0.0111902 0.0124308 0.0203972 -0.0195298 0.014774 -0.00390307 0.0222806 -0.0106045 -0.00286884 -0.00658671 0.018026 0.00274534 0.00923972 -0.00197348 -0.0079468 -0.00624416 -0.00625659 -0.00109569 -0.00193184 -0.0357272 -0.0155196 -0.0187958 -0.0024494 0.00476129 -0.0423685 -0.0176901 0.0181189 -0.0242498 -0.0139341 0.00911684 -0.0046681 -0.0151472 -0.0122267 0.0184718 0.0217031 -0.00270469 0.0270667 -0.00166418 0.0071935 -0.015514 0.037538 0.0040651 0.0209644 -0.0204843 0.00894824 -0.0133648 -0.0275218 0.0148293 0.0570241 -0.0212315 0.0108718 0.0199167 -0.0196996 -0.00517103 -0.0463634 -0.0392287 0.0178179 -0.056299 -0.0140641 -0.0244842 0.00972699 -0.0341686
129897 0.0255116 0.0436469 -0.232491 -0.0126952 0.0534993 -0.283467 -0.15975 -0.106093 0.00428797 0.0212452 -0.010584 0.118592 0.0304636 0.109583 -0.067152 0.188255 0.0431734 -0.0199312 0.30458 -0.165103 -0.187631 -0.0718659 0.109018 -0.0829613 0.0493754 0.166821 0.000986736 0.296568 0.102155 -0.0317366 -0.0422908 -0.125927 0.135193 0.0852519 0.0233642 -0.166822 -0.119375 0.188358 0.0593726 -0.0157137 -0.115802 -0.120805 0.123281 0.0483734 -0.128676 0.120455 -0.00711066 0.16744 0.256674 -0.0910694 -0.0305382 0.0181842 -0.259163 0.160608 -0.0716905 -0.0845475 -0.100446 0.101361 -0.0914563 0.088665 -0.27718 -0.0681043 0.157923 0.166744
135765 -0.0315218 0.0535532 -0.00298447 -0.0062492 0.0169388 0.0178306 -0.037862 -0.0642056 0.0230606 0.000821338 0.0108662 0.0364314 0.0155781 -0.0884402 -0.0473569 0.100935 -0.0655083 -0.00200445 0.0473711 -0.0583826 0.0439201 0.161043 0.0283693 -0.0144665 -0.106906 0.0728288 0.0385161 -0.0836513 0.0362492 0.00195651 -0.0258468 -0.0134072 0.0393102 -0.00818659 -0.0457428 -0.0432706 -0.0111526 -0.0268992 -0.0112685 0.0510231 -0.128801 0.00574811 -0.0909256 0.0353463 0.0280183 0.0227303 -0.000893811 0.00150152 0.0362771 -0.0976189 -0.184286 0.0742484 0.124564 -0.0570245 -0.058107 0.0403585 0.118967 0.0736372 0.100969 0.143769 0.0324127 -0.00410093 -0.135575 -0.0521984
1110947 0.0109962 0.0455469 0.0639346 0.0588585 -0.157894 -0.0495577 0.00781471 0.0550112 -0.0116228 -0.0834468 0.0639894 0.0740264 -0.124599 -0.0819137 -0.0901722 0.0691252 0.013794 0.0337334 0.144674 -0.0486159 -0.0431078 0.271884 0.0589286 0.132737 -0.021041 0.138736 0.00785232 -0.0190537 -0.151176 0.178604 0.11172 -0.0397597 -0.0590195 0.166433 0.101354 -0.0504095 -0.0957985 -0.0153209 -0.167336 0.0460001 -0.0949831 0.0825528 0.0330671 0.196907 0.0256196 0.164262 -0.0748458 0.0438402 0.257905 -0.236393 -0.168852 0.194767 0.0251918 -0.144513 -0.0136434 -0.101835 0.19698 0.216209 0.0679477 0.353488 -0.0163993 0.184361 -0.0735834 0.102984
262121 -0.0246728 0.014008 -0.0203971 -0.00356306 0.020165 0.000651437 -0.00596376 0.00640882 8.42516e-05 -0.0242928 -0.000520815 0.00784429 0.0141743 -0.0143352 -0.00285422 -0.00419593 -0.00368413 0.0155767 -0.00793461 0.0126775 0.0062339 -0.0280965 0.000334698 -0.0325823 -0.00374465 -0.00663009 -0.00268583 0.00510556 0.00779981 -0.0344041 -0.0273821 0.00507705 0.00165717 -0.00569301 0.0066767 0.00453947 0.000162352 -0.0023094 0.0211797 0.00328548 0.00389133 0.0170738 -0.000841909 -0.02129 0.000342961 -0.0209927 0.0340796 0.00308565 -0.0345507 0.0210591 0.00950817 -0.0156576 0.0183129 0.00369084 0.0003452 0.0314588 -0.0135209 -0.00490154 -0.0100744 -0.0289847 0.00805568 -0.017025 -0.0073883 -0.00497092
576725 0.00589119 0.0982578 -0.0303927 -0.131547 0.0962205 0.0369702 0.0562306 -0.00772849 0.0160463 0.0796022 -0.0983826 0.0774268 -0.0476512 0.00322806 0.0519061 0.0199327 -0.109831 -0.0236974 0.0201522 0.0700649 0.0475156 -0.205374 -0.0178883 -0.16583 -0.0805654 -0.00218271 0.00202786 0.0553671 0.277148 -0.136633 -0.00372031 -0.0870366 -0.109125 -0.201206 0.013435 0.126048 0.135539 0.0155604 0.136415 0.0124382 0.0179898 0.078179 -0.0442107 -0.0304474 -0.0254286 -0.401877 0.14782 0.0307499 -0.151388 0.217238 0.123592 -0.0583483 0.060708 0.0421789 -0.0363212 0.0989102 -0.111846 -0.149307 -0.0197662 -0.179288 0.0301725 -0.0522567 -0.0607297 -0.10804
574009 0.0164986 0.100314 -0.0455894 -0.130206 0.084352 0.0318485 0.027161 -0.041358 0.00499557 0.0472688 -0.0982396 0.0454981 -0.0471222 0.0086561 0.0318228 0.00372533 -0.072469 -0.00906777 0.0274521 0.0558671 0.0137765 -0.182672 -0.0186638 -0.114643 -0.0737649 -0.0154375 -0.00578761 0.0386468 0.221791 -0.108066 -0.00595257 -0.0446661 -0.0924893 -0.153853 0.0182758 0.093395 0.139667 0.0322984 0.113513 -0.0177943 0.0457326 0.0775126 -0.0476226 -0.00136009 -0.0451945 -0.29598 0.132296 0.0419434 -0.130608 0.165331 0.0878181 -0.0598101 0.0396816 0.0196773 -0.0255561 0.078718 -0.0691397 -0.116162 -0.0296891 -0.167186 0.0368679 -0.0450333 -0.0336505 -0.0919167
50807 0.0055961 -0.00762402 -0.00448229 -0.00551252 0.000338933 0.00770971 -0.00433468 0.00631788 -0.00302332 0.00098267 0.00182727 -0.00133999 -0.00767126 0.00617874 -0.00665781 0.00666621 0.00500635 -0.00164365 0.00118547 -0.00197588 0.0060043 0.000472536 0.000675696 0.00313998 0.00607219 -0.00222503 0.00343926 0.00759937 0.00729743 -0.0025466 0.00269206 0.00694181 0.0036117 -0.00578851 0.00449094 -0.00746901 -0.00246169 0.00365974 -0.00502503 0.00557404 -0.00402517 0.00780537 -0.00578466 0.00133631 -0.00294705 0.00225506 0.0021589 0.00488769 -0.00164889 0.00377166 -0.00351832 -0.00292659 0.00254959 -0.000417801 -0.000171712 0.00196939 -0.00510662 -0.000130288 -0.00283399 -0.002864 -0.00164499 0.00707985 -0.00158675 0.00273877
1121057 -0.00324214 -0.0108983 0.00805071 -0.010933 -0.00780445 0.00160876 -0.00519092 -0.00365544 -0.00141251 -0.00206898 -0.00108037 0.00181047 0.00928939 0.000382586 0.00159391 0.00764427 -0.0133692 -0.0128082 0.00939451 0.00875448 -0.00510513 -0.0123194 -0.0135359 -0.00180194 -0.00155046 -0.00612404 0.000666011 0.00536791 0.000245597 -0.016797 -0.0142844 -0.00289786 0.00378273 0.00814694 -0.00785705 0.00171331 0.0145496 0.00797521 0.00897931 -0.013475 -0.0207057 9.21731e-05 0.00976953 0.0093988 -0.00058094 -0.00563092 0.000189935 0.00945953 0.00957583 -0.00222314 0.011322 0.0100708 0.0141915 -0.00284544 -0.0158441 -0.00287496 0.00714137 0.000165349 -0.00323577 0.00294946 0.00611457 -0.00659639 -0.0127394 -0.00773213
1953 -0.00263001 0.0104827 0.00368689 0.0175182 0.00628348 0.0312241 0.0121813 0.0159758 -0.000541136 0.0234075 0.0028246 0.00248369 0.0418204 -0.0305374 0.0271507 -0.0489911 0.0230097 -0.00206056 -0.0170533 0.0137294 0.00281234 0.0041644 0.0113016 -0.0222003 -0.00616595 -0.012519 0.0149343 0.00937099 -0.0127748 0.0298096 -0.000583125 -0.037562 -0.0201981 -0.0101051 0.00370177 0.0196281 0.00861396 -0.0116882 0.0101317 -0.0149086 0.0227182 -0.0102976 -0.00437838 0.0217773 0.00153644 0.0211016 -0.00845387 -0.0524714 -0.0171169 0.0274944 -0.0486274 -0.00359896 0.0375144 -0.0338827 -0.0611964 -0.018189 -0.014255 -0.00105837 0.00963063 0.0308504 -0.0221276 0.000533389 -0.00704509 -0.0117077
103528 -0.00111146 0.0250783 -0.0218515 -0.0143137 -0.0149906 -0.0299513 0.0134627 0.00594802 -0.0242831 -0.00443316 -0.00544053 -0.00641406 -0.0119148 0.00370305 -0.00760546 -0.0318885 0.00130341 0.00881611 0.0151427 -0.00762111 0.00412139 -0.0225459 0.00503058 -0.00706749 -0.0202258 -0.00543288 -0.00966564 0.0110889 -0.00318068 0.0124965 0.021756 0.0138175 -0.0196892 -0.0189938 0.0051858 -0.00399603 -0.0225919 -0.0186381 -0.0308358 0.0129647 0.00899881 -0.00402725 -0.0181568 0.000488987 0.022121 0.00700636 -0.0145729 -0.00954179 0.0285836 -0.0174167 0.000726688 -0.00922392 -0.0173873 0.0308458 0.0289736 -0.0294979 0.00263301 0.0022037 -0.0112146 -0.000353287 -0.00364891 0.0384228 0.00596941 0.000671011
307336 -0.0173893 -0.0455284 -0.0131305 0.0143199 0.0493716 -0.00696742 -0.000652273 -0.0353362 0.00345603 -0.0161392 -0.01395 -0.0253479 0.0399466 0.00398153 -0.000236769 -0.0602413 0.0138152 -0.0669771 -0.0471617 0.0256345 -0.0133488 -0.0210904 -0.0170861 -0.0671191 -0.00122692 -0.0177474 -0.0573032 -0.00102333 0.0245801 -0.0479381 -0.0222059 -0.0218033 0.0167237 -0.0277736 -0.0194328 0.00332065 0.0343643 -0.0190737 -0.0106305 -0.00799241 0.0044349 -0.063702 -0.0394046 -0.0446246 -0.0331448 0.0151449 0.0128192 0.0147864 -0.0195595 0.070033 0.0604102 -0.058447 -0.00743836 0.0258269 0.031794 -0.0103745 -0.069732 0.0139548 -0.00796116 -0.0619472 -0.000678803 -0.0323284 0.0277344 0.000548538
653441 -0.00665267 -0.0123275 0.286521 0.0435686 -0.0313445 0.235315 0.148079 0.0970861 -0.0954405 -0.0207117 -0.116375 -0.0824843 -0.0807869 -0.136379 0.0574081 0.0214275 -0.047145 0.049663 -0.218004 0.243142 0.228532 0.152593 -0.117126 0.12239 -0.0309647 -0.191393 -0.000307918 -0.216153 -0.0607749 0.0628488 0.0291602 0.0222547 -0.102005 0.00511415 -0.0364827 0.185314 0.0224982 -0.202596 -0.0570367 -0.0315611 0.0512737 0.0239868 -0.0581727 0.00770369 0.157623 -0.0726697 -0.0206676 -0.0952655 -0.314793 0.121019 0.027624 0.0283963 0.224652 -0.206711 0.0719057 0.0213024 0.167685 -0.0747764 0.0521761 -0.0891751 0.227338 0.0732201 -0.235535 -0.193188
949318 -0.114911 -0.0901999 -0.0928226 -0.0381632 -0.0287433 0.0238423 0.0258562 -0.0518259 0.055999 0.0176317 0.0566287 -0.14099 0.110913 0.00785124 -0.00900216 -0.0763754 -0.0633187 -0.0640069 -0.16581 -0.0564627 0.0132055 -0.105277 -0.0019545 0.0523659 0.0645763 -0.0558252 -0.00879159 -0.0439828 -0.0881019 -0.133237 0.0204705 0.0971372 -0.019105 -0.0124848 0.0571073 -0.044505 0.0736217 -0.109463 0.000489204 0.0702886 0.0911363 0.0849571 -0.0721309 -0.0385381 -0.0244405 -0.0521567 0.0433954 -0.0708521 -0.0698327 0.0195356 0.0533064 -0.0376544 -0.00918536 -0.0132074 -0.00913916 0.0607233 -0.0183612 -0.0566758 -0.00572629 -0.0322759 0.0118442 -0.0177355 0.121535 -0.0316513
41666 0.0740099 -0.0319597 -0.0169194 -0.0499847 -0.0929031 -0.11905 0.103153 -0.078061 -0.0700287 0.0995992 -0.00808121 -0.0396996 0.0681274 -0.246998 0.0633867 -0.0557082 0.0345742 0.070546 0.110467 0.0906827 0.158795 0.109177 -0.0752367 0.00749516 -0.00346188 -0.115766 0.187406 0.0757144 -0.00398858 0.0824272 -0.00111354 0.096583 0.0448113 0.0316131 -0.069892 -0.155836 -0.0877338 -0.0974 -0.0389878 -0.00593188 0.0708367 -0.0436399 -0.0708433 -0.107141 0.0392626 -0.0515979 -0.0268238 0.176774 -0.0518073 0.144468 -0.0616778 0.0352291 0.181422 -0.0542489 0.124592 -0.0669345 -0.0354093 0.126024 -0.0680195 0.0963058 -0.124466 0.0041864 -0.111477 0.0864311
640617 -0.00388227 0.110505 0.00835925 -0.11163 0.128155 0.0400418 -0.00699866 -0.0423514 0.0199702 0.106473 -0.105007 0.0543425 -0.0713819 -0.00972091 0.0619246 -0.023294 -0.062842 0.012575 -0.0294981 0.083844 0.062063 -0.207979 -0.020482 -0.152127 -0.0507624 -0.00850807 0.0297278 0.0587065 0.257375 -0.136889 -0.00683464 -0.0951747 -0.136964 -0.193739 0.0140952 0.145053 0.152249 0.00774309 0.139729 0.00395228 0.00545605 0.0791166 -0.0278105 -0.0223303 -0.0854601 -0.358068 0.189808 0.000991786 -0.198417 0.261643 0.13291 -0.0898932 0.0430155 0.0523122 -0.0484476 0.0753973 -0.0987076 -0.133617 -0.0775255 -0.189772 0.0149033 -0.0671872 -0.0638752 -0.171794
59626 -0.0131002 -0.0484091 0.0624022 0.0168591 0.0473128 -0.0121495 -0.0133749 -0.0294587 -0.00963215 0.0799949 0.00445443 0.0107448 0.07554 -0.117322 -0.023571 -0.0605546 0.0648512 0.0262272 -0.0107522 0.0762607 0.024395 0.0906956 -0.00299842 -0.0284734 -0.0903969 -0.0141945 0.0608391 0.0463124 0.0126636 -0.0069612 -0.00802527 -0.00336212 0.04391 0.0464878 -0.0768999 -0.0904534 -0.087715 0.00543124 0.0493991 0.00769944 0.00742093 -0.0598519 -0.0183596 -0.00911285 0.0512443 0.0488783 0.0200516 0.067708 0.0162 -0.000746986 -0.107681 -0.0134306 -0.000752815 0.00486322 0.0790981 -0.0123007 -0.0137098 0.0376173 -0.056303 0.0917679 -0.0689737 -0.0490961 -0.0378719 0.0141631
1117184 -0.0504367 -0.0114606 -0.0245533 0.00952876 0.0153716 0.023631 -0.0226629 -0.0250991 -0.00488713 0.0156042 -0.0281674 0.0163109 0.0318307 -0.0109521 -0.0058021 0.0104499 0.0105155 -0.0103973 -0.00995169 -0.0108847 -0.00958819 0.0051926 0.0100387 -0.00263768 0.0110344 0.00614945 0.0020082 -0.00918536 -0.0175058 0.0161888 0.0029256 -0.0274775 0.0532589 0.0169229 -0.0380824 0.00252345 0.0100206 -0.0234146 0.00460285 -0.00321838 -0.00762723 -0.00963121 -0.0292219 -0.0411296 -0.0405185 -0.0292907 -0.00148728 0.019661 -0.0348413 0.0419976 0.0540829 -0.103313 0.0172606 0.0550595 0.0132345 0.0468201 -0.0321958 -0.0279279 0.0162139 -0.0439645 -0.0208632 -0.0331889 0.0101267 0.00247575
1107455 0.146634 0.0260557 0.013629 0.00959235 0.00107542 -0.226521 0.0733311 -0.178395 -0.0372321 0.112634 -0.048797 0.126636 -0.132315 -0.254388 0.0271218 0.165146 -0.0588992 0.135583 0.217727 -0.0423309 0.0745742 0.1138 0.00171835 -0.110902 -0.0533188 0.134522 -0.0806559 0.1807 0.19331 -0.183604 0.178998 -0.289382 -0.073899 0.151285 0.197635 -0.0172047 0.172327 0.283986 -0.21688 -0.0446236 -0.169292 0.0583116 0.0453406 0.300939 -0.194106 -0.0478393 0.114346 0.164047 0.110783 0.171366 -0.0206606 -0.0763109 0.179009 -0.0797249 -0.0766837 0.0592082 -0.0116853 0.0715734 0.140087 0.150512 0.0715661 0.13752 -0.226198 -0.0470449
78508 -0.0111515 -0.00809173 0.00179688 0.00866882 -0.015255 0.00293227 -0.00936314 -0.0106083 0.00515188 -0.00445782 -0.0017916 -0.00758356 -0.00154117 -0.00695812 -0.00827048 0.0158342 -0.00440434 -0.0179272 0.00796585 0.00378913 -0.000634566 0.00619011 -0.00121557 -0.00507177 -0.0153382 0.0092494 0.00370104 -0.00598016 -0.00487592 -0.00918158 -0.0118991 0.00144884 -0.00821567 0.020766 0.00110313 0.000420384 -0.00290022 -0.00336631 0.00150279 0.0102424 -0.00280797 -0.00753543 0.00291392 0.00870908 -0.0189828 0.0102602 0.000738414 -0.00696615 0.0221751 0.00444473 -0.000378205 0.0210349 -0.00371565 0.000722136 0.00433422 -0.00315188 -0.0064363 -0.00215364 -0.0187704 0.000457558 0.0163347 0.00332916 0.00323611 -0.00322013
164885 0.00855963 0.00391773 -0.0090648 0.0027846 0.00164923 -0.0294198 0.000124712 -0.0222497 -0.00671289 0.0154259 -0.00953277 -0.0103042 0.00583047 -0.00163025 -0.0144408 0.0117639 0.0017312 -0.0244466 0.00454523 -0.0191115 -0.0130539 0.00235529 0.00106464 -0.0160265 -0.00871219 0.00210732 0.0148953 0.0133037 0.00206249 -0.0126372 -0.0146889 0.00298047 -0.00452969 0.0125014 0.00720233 0.00333898 0.0129139 0.0103479 0.010307 -0.0100981 0.00442599 -0.00492208 -0.00890544 0.0131466 0.00118333 -0.00943509 -0.000248869 0.00692133 0.0055797 0.00615536 -0.00598695 0.00118855 0.0182087 -0.00635933 0.00785802 0.00134584 -0.00944049 0.0059304 -0.00719561 -0.0090914 0.0153808 0.00264727 0.00391305 0.0128531
62634 -0.0401322 -0.0310584 0.00671586 0.0434907 -0.0227389 0.0307024 -0.0676283 0.0394599 -0.0316033 -0.0203344 0.0383833 -0.0452291 -0.0284445 -0.00622717 0.00781085 0.00984184 0.0412505 -0.0313433 -0.0310574 0.00611443 -0.0132128 -0.00976451 0.0187623 0.0625391 0.0278854 -0.0671405 -0.00429407 -0.0146918 -0.0514507 0.0542099 -0.056004 0.0455035 -0.0304043 -0.0235093 -0.035963 0.0278374 -0.0523993 -0.0527206 0.0165376 0.00540277 -0.00722354 0.0332647 -0.0113529 -0.0161256 0.0248486 0.0175164 -0.0357237 -0.0363827 0.0205798 -0.051226 -0.0235505 0.037079 -0.00256325 -0.0174748 -0.00894548 -0.0360482 0.0158148 0.00663413 -0.0339671 0.0430865 -0.00287548 -0.0600572 0.0194251 0.0291679
6210 0.103181 -0.0251313 -0.0479558 0.0281113 0.155352 -0.165754 0.0840092 -0.217522 -0.105613 0.185659 0.0738752 0.0314466 0.141893 -0.148849 0.0451661 -0.0277106 0.103054 0.0825315 -0.0746793 0.0604673 0.159942 -0.178841 0.0286225 -0.34885 0.0701187 0.035992 -0.174573 0.337935 0.197045 -0.327864 0.197863 -0.221515 0.151234 0.160901 0.0190809 0.0340556 0.240349 0.217936 -0.221709 -0.019337 0.0209437 -0.107276 -0.00199221 0.0898158 -0.224458 -0.183854 0.1753 0.0417345 0.0865089 0.278118 0.267772 -0.273923 -0.00290661 0.102488 -0.0582411 0.139925 -0.249171 -0.0804019 0.00105781 -0.198482 -0.0495262 -0.0585404 -0.0170922 -0.0223786
943087 0.0273082 -0.00135502 -0.0033891 -0.00486426 -0.038794 -0.0422215 0.0380323 -0.0133219 -0.0170552 0.0178069 -0.00477651 -0.00286545 0.00968681 -0.0770213 0.0133926 -0.0125632 0.000475114 0.0179538 0.0378968 0.0121283 0.0354411 0.0257824 -0.0181138 0.0071093 -0.00204537 -0.0271813 0.0454587 0.0150664 -0.00727662 0.0199189 0.00361287 0.0274579 0.00805934 0.012233 -0.0308703 -0.0315303 -0.028693 -0.0251319 -0.0193755 -0.00806653 0.0208274 -0.0195955 -0.0120715 -0.0225216 0.00990779 0.000334576 -0.0138393 0.0450718 -0.0107104 0.0419115 -0.0127641 0.0110202 0.054911 -0.0182264 0.045495 -0.0238397 -0.0121729 0.0303459 -0.0338613 0.0190823 -0.024271 0.0116788 -0.0276176 0.0162502
628668 0.145308 0.0596873 0.0364753 -0.0696789 0.0127865 -0.23556 0.0348939 -0.237319 -0.0804185 0.125647 0.0163425 0.154549 -0.0868753 -0.228804 -0.045629 0.116525 -0.022196 0.123147 0.197874 -0.0164975 0.0625861 0.0791702 0.0434521 -0.228426 -0.0382953 0.144542 -0.120354 0.232676 0.219775 -0.215924 0.261777 -0.255762 0.00222459 0.117298 0.178436 0.00946959 0.212448 0.240579 -0.241352 -0.0172532 -0.0795677 0.0479749 0.0367986 0.319631 -0.266112 -0.166286 0.119694 0.152934 0.172412 0.139992 0.0609416 -0.0911858 0.097462 -0.0551952 -0.126406 0.0595503 -0.0513013 0.0411622 0.161673 0.100206 0.032681 0.103803 -0.225702 -0.07579
24974 0.021317 0.0382585 -0.00019062 0.0345256 0.0122311 0.01667 -0.00618791 0.0238424 0.0295768 -0.0114693 0.0101289 0.00261625 0.0161433 0.0320911 0.00405398 0.0452545 -0.029323 0.0325315 0.0652501 -0.0126379 0.0654657 0.0292504 -0.0146469 0.0267893 0.0258328 -0.0460728 0.0120563 0.0235322 -0.0169715 0.0674534 -0.00841561 0.0702565 -0.0426536 -0.00213629 0.00329859 -0.04733 -0.0271735 0.0543786 -0.0186765 0.0650318 -0.0170678 0.0439245 -0.0178471 0.0332148 -0.0328441 -0.00133875 0.00379009 0.00947736 -0.00978952 -0.0225862 -0.0111578 -0.0147119 0.0620248 -0.0411059 0.00666184 -0.0473757 0.0600177 -0.00473437 0.0363353 0.0384266 -0.0283281 0.0151963 -0.0393443 0.00441549
35490 -0.0081299 -0.192506 0.0367548 0.275701 -0.213591 -0.084903 -0.0477747 0.0711854 -0.042777 -0.162135 0.214481 -0.136714 0.166279 -0.00709684 -0.112853 0.00372834 0.174046 0.045191 -0.0144169 -0.139244 -0.076269 0.459325 0.0425753 0.26795 0.157323 0.0629443 -0.0307832 -0.112864 -0.512957 0.249231 -9.04143e-05 0.117649 0.24697 0.384039 0.00119783 -0.259111 -0.312404 -0.0564265 -0.291554 0.0235233 -0.0445065 -0.191676 0.0783237 0.0326258 0.11282 0.754397 -0.334029 -0.0527675 0.333067 -0.468456 -0.22056 0.170824 -0.0934388 -0.0660424 0.124651 -0.199958 0.230532 0.264071 0.0281916 0.371672 -0.0840601 0.0937749 0.110821 0.245306
145384 -0.0631597 -0.00657066 -0.0253642 -0.023534 0.0236131 0.135781 -0.0264012 0.0948803 0.0168654 -0.0321102 -0.0327728 -0.0531763 0.0307576 0.113135 0.0420691 -0.0579868 -0.0120618 -0.048815 -0.0951168 0.029096 -0.0386222 -0.0927993 0.00602399 0.053154 0.00753987 -0.0808525 0.0754513 -0.0949368 -0.0580983 0.0905222 -0.117421 0.13945 -0.0382932 -0.128433 -0.0605298 0.0157544 -0.0587191 -0.124038 0.153863 0.0103862 0.0550207 -0.00404788 -0.0166187 -0.145049 0.0948014 -0.0264788 -0.0319875 -0.0678572 -0.107958 -0.0240192 0.0218991 0.00982369 -0.0462969 0.0417225 0.0233386 0.0212708 -0.000480946 -0.0711178 -0.0701061 -0.0722898 -0.0359785 -0.0741513 0.091583 0.0122862
1103383 -0.0198382 0.0250925 -0.0406714 0.0108287 0.00757669 0.0107556 -0.0743589 0.0160676 -0.00781699 0.0524268 0.0447322 -0.00808473 -0.0427524 -0.0148304 0.00480714 0.0502395 -0.000289758 -0.0316264 0.0462567 0.0236677 0.0375705 0.0233046 0.0135628 0.0568474 -0.0275677 -0.0276148 -0.0391562 0.0267134 0.0627799 -0.0197279 0.0249697 -0.0788135 -0.00400303 -0.0228543 -0.0329894 0.0416527 0.0181998 -0.0244143 -0.0261726 0.00142041 -0.0287421 0.020058 -0.0278 0.0097772 -0.0928981 -0.116547 -0.0109727 -0.0312644 0.0025827 0.0713001 0.0134836 0.0404322 0.0115548 0.0284864 -0.103102 0.000149473 -0.0210717 -0.0114689 -0.0504626 0.0190167 0.016932 -0.0191571 -0.0376765 0.0127585
6818 -0.123235 0.0255505 0.0285632 0.141619 -0.219211 -0.201919 0.0742311 0.0885972 -0.0591684 0.0184103 0.128496 -0.0268731 -0.0855585 0.156173 0.00690703 -0.107245 -0.0310269 -0.0789394 0.141699 0.260048 -0.0548202 0.28517 -0.0466079 -0.0451411 -0.11729 -0.133801 -0.0419257 0.0157539 -0.0152403 0.0825382 -0.191382 0.0899865 0.022755 -0.0713289 -0.153923 -0.00130269 -0.0528518 -0.0648837 0.0133607 -0.0719834 -0.00674694 0.013344 -0.0204413 -0.066941 0.0353348 0.468067 -0.0050003 -0.0300235 0.0809721 -0.0743906 0.075868 -0.00381318 0.00416853 0.0187177 0.0523028 -0.0844304 -0.139499 0.0168353 -0.0326456 0.0665459 -0.0916475 0.0608824 -0.00623485 -0.00551457
101662 -0.0299879 -0.0258664 -0.0307128 -0.047168 -0.0926617 0.0517275 0.0106264 -0.00931367 -0.0539605 -0.0364346 0.0555665 0.0417192 -0.0259486 0.0644549 -0.00228001 0.039384 0.0537504 0.0499772 -0.102726 -0.0690805 0.00280511 0.00223553 0.0398355 -0.0602749 -0.000290421 0.0825319 0.101947 0.0110814 0.0755331 0.0365272 -0.00833641 -0.0771713 -0.0247841 0.0613927 -0.00538623 -0.000599713 0.0494377 -0.0087617 -0.146954 0.037417 -0.10021 -0.0421369 -0.070911 -0.0415824 0.00644511 -0.125339 -0.0526515 -0.00615746 -0.0150935 0.0805995 0.0583751 -0.0289364 -0.0108279 -0.106811 0.0403042 -0.0317502 -0.0555306 0.0758153 -0.0212972 -0.00903273 0.162864 0.104344 0.0671312 0.0311517
110164 -0.0309841 -0.0489566 -0.0186804 -0.0114015 -0.0368417 -0.0124991 -0.00578829 -0.00317975 0.0153847 0.0147469 0.00768014 0.0138474 -0.0367695 0.0173395 -0.0338755 -0.00389455 -0.0181761 -0.0281545 0.0480997 -0.0163159 -0.00924758 -0.00120125 -0.0069395 0.0321444 -0.0025461 -0.00366865 0.0177203 -0.0101286 -0.0381315 0.00754614 0.0144115 -0.00369422 0.00215164 0.0335126 -0.0343314 -0.00323093 0.00477827 -0.00518563 -0.0282137 -0.0148959 -0.0113735 0.0180196 0.0255564 -0.00911252 -0.0717398 -0.0257979 0.0126869 0.0628553 -0.0171362 -0.021308 0.0317421 -0.0354411 -0.0394734 0.00847496 0.00851066 0.019574 0.0303211 0.0121719 0.0179019 -0.0200039 0.00798954 -0.00939956 -0.0256032 -0.026551
