2708 64
1134197 0.00718048 -0.00322837 -0.00742475 0.00568536 -0.00735842 -0.00502262 0.00552939 -0.00350565 0.00390875 0.00313279 0.00573783 -0.00320207 0.00269288 0.00231769 -0.00144674 -0.00408452 0.000784354 0.00696265 -0.00474878 -0.00309585 -0.00348047 0.00163571 -0.00258249 -0.00200919 0.00458737 -0.00160457 0.00179204 -0.00558534 0.00389035 0.00575527 0.00463911 0.00655718 0.00629536 -0.00566655 -0.00648589 -0.00618415 -0.00461126 -0.00421504 -0.00337521 0.00364783 -0.0043305 -0.00221316 0.00408417 -0.00271555 -0.000644347 0.00726267 0.00164779 0.00666197 -0.00583897 -0.00305018 -0.001053 0.000568765 0.00603389 0.00480173 -0.00355429 -0.004708 0.00572991 0.00314702 -0.0030704 -0.00619295 -0.00256265 -0.00655989 -0.00448652 0.00770664
1136342 -0.00486874 0.0343057 0.029732 -0.0238894 -0.0259288 -0.026399 0.0480189 -0.0349531 0.00987882 -0.0736157 -0.0378822 -0.0106908 0.0530248 0.0402878 -0.0410095 -0.0359193 -0.0346127 -0.0104997 -0.0222126 -0.0543071 -0.0608105 0.0100429 0.0205098 0.0182537 0.0523128 0.0621654 0.0298793 -0.029194 -0.0891764 0.0221858 -0.0431438 0.0755014 0.0516879 0.0469066 0.0417587 -0.0588608 -0.0363938 -0.011803 0.0232744 -0.0288063 0.0455621 -0.0327944 0.0240646 -0.00271084 0.100824 0.142299 -0.0622118 0.0409802 0.0196641 -0.110451 -0.0311389 0.0237084 -0.0330368 -0.0346304 0.123492 -0.0456816 0.0433489 0.0337447 0.0433632 0.01585 0.0147506 0.066389 0.0375085 0.0452626
6311 0.206375 0.107636 -0.126909 0.0687142 -0.0537097 0.00413836 -0.205851 0.128085 -0.00435213 0.0341128 -0.0173014 -0.170755 -0.0304645 -0.0700404 0.179182 0.101774 -0.179168 0.297988 0.245297 0.0762583 0.066417 -0.128346 -0.162479 0.121632 -0.0558332 -0.0575916 -0.0229172 0.290607 -0.289959 0.0839904 0.0736631 0.0458789 -0.00752748 -0.143909 -0.158722 0.206983 -0.112822 0.0285531 0.33548 -0.075604 0.179247 0.179158 0.172927 0.263002 -0.0358067 0.258592 0.0549105 -0.171588 -0.0842353 -0.10229 -0.218156 0.0181827 0.13836 0.162627 -0.382772 0.0571978 0.332979 0.111438 0.041536 0.129461 -0.158778 0.0161459 -0.183426 -0.170267
632874 0.00886389 -0.00679148 0.00207041 -0.0155082 -0.0196756 -0.0141003 -0.0059436 0.0215562 0.0142291 0.00670332 0.0200743 -0.0405686 -0.0052611 0.0320655 0.00524924 0.0115819 -0.015662 -0.0147543 -0.0191514 0.001524 0.00135619 0.0150979 -0.00277584 -0.000750124 0.00923426 0.00537545 0.00232024 -0.000633358 -0.00913396 -0.000432232 -0.0012111 0.0389417 -0.00997568 -0.0351548 0.00261086 -0.0257826 0.0280859 -0.0124458 0.0081359 -0.0024967 -0.00988829 0.0222775 -0.020096 -0.00484255 0.00400981 0.0141788 0.00489126 0.00433719 0.0219068 -0.000817704 -0.00243496 -0.018168 -0.00279239 -0.0131038 0.01964 0.00372147 -0.0196035 0.00581625 -0.0281295 0.015458 0.00693342 -0.0120609 0.0132104 0.0311718
28491 -0.0436051 0.0106668 0.00657752 -0.0742511 -0.0402499 -0.0730529 -0.0410728 -0.121568 0.0128346 0.0327753 -0.0363389 0.107653 -0.0884199 -0.130703 -0.0702939 0.108285 -0.0159307 0.0526097 0.0727016 -0.00208871 -0.0275195 0.0828068 0.0585169 -0.0599317 -0.0190522 0.0111033 0.007009 0.0406935 0.0717052 -0.0448401 0.112146 -0.0634831 0.0289707 -0.0117049 0.132941 -0.0088345 0.125047 0.0799769 -0.0728733 0.0268486 -0.0582553 0.0690744 -0.0240792 0.186872 -0.0914323 -0.0467402 -0.0030468 0.0236478 0.0646498 -0.0134793 -0.0199129 0.0093324 -0.0165853 -0.0761528 -0.101293 -0.0243858 -0.0192931 0.0892884 0.098877 0.117931 0.010007 -0.0157878 -0.123783 -0.0897416
1135358 -0.124803 0.0729325 0.0870695 -0.0588564 -0.220808 0.118444 -0.0775763 0.165971 0.0356042 -0.166571 0.0368355 0.0874535 -0.252659 -0.00797663 -0.154365 0.0317301 -0.0467885 -0.0299362 0.0955578 -0.0750874 -0.0919783 0.225412 0.0175889 0.327598 -0.0860229 0.118733 0.176136 -0.205207 -0.191168 0.376318 -0.0234787 0.178599 -0.154301 -0.0858651 0.0887773 -0.0710419 -0.168585 -0.1442 0.116383 0.0988297 -0.0863954 0.169313 0.0111875 0.0616111 0.179381 0.0905623 -0.197221 -0.025023 0.0980877 -0.308048 -0.311427 0.296506 -0.0393 -0.210075 0.00053055 -0.147469 0.280024 0.195226 0.0683046 0.360465 -0.00751323 0.0369973 -0.0507627 0.0435245
1105530 -0.0601807 0.00413744 -0.0215449 -0.00445199 0.0229859 -0.010722 0.0917598 0.0006012 0.0131547 0.0161618 -0.00301935 -0.0249586 0.0369774 -0.0282138 0.0156407 0.0134701 0.0247404 0.0110209 -0.0373621 -0.004492 -0.0218867 -0.0392194 -0.0148441 0.0245576 0.0798007 0.00970396 -0.0187228 0.000618769 -0.0453379 -0.0445736 0.00246851 -0.00198582 0.0338316 -0.0233792 0.0896607 -0.0318542 0.0588946 -0.00136773 0.0137306 0.00844305 0.0943424 0.0192813 -0.0705807 -0.0436622 -0.0698588 -0.0549345 0.0410507 0.0123715 -0.0714327 0.0741997 0.0230234 -0.0610466 -0.0303632 0.0256054 -0.0336487 -0.00705195 -0.0545877 -0.0106288 0.0408942 0.00718794 0.0102047 0.0467352 0.0336863 -0.0427589
309476 0.033199 0.173018 -0.15498 -0.0831017 -0.232872 -0.0108627 0.320023 0.218066 0.0697824 -0.133786 0.102335 -0.0569462 -0.103108 0.0248938 0.0716686 0.0695334 0.0477401 0.163925 0.148741 -0.170302 0.168365 0.158673 0.0423679 0.141385 0.263927 -0.0526433 0.0702267 0.0215313 -0.10553 0.0186049 0.0769483 -0.0221042 -0.00786499 -0.0350974 -0.00712375 -0.0381677 -0.0149946 -0.258272 -0.13325 -0.0736873 0.163006 -0.0569574 0.0585504 -0.187996 -0.0111913 -0.0437611 -0.18915 0.0892191 0.227099 0.204382 0.239641 0.288239 0.34495 -0.1472 0.127914 -0.0222952 -0.0808592 0.1312 -0.108869 0.0217326 0.130829 0.0931967 -0.156201 0.173142
151430 -0.0763435 -0.0557556 0.0353034 -0.0826115 -0.0472215 0.0764608 -0.124684 -0.0134033 -0.0487867 -0.0813922 0.00420774 -0.00451917 -0.0136615 0.109965 -0.0635398 0.0530375 0.00673534 -0.0231299 -0.0528596 0.0201605 -0.00211494 -0.0262955 0.00854133 -0.0232441 -0.0661207 0.0870599 0.0561659 0.0166612 0.000206537 0.0923056 -0.0160051 0.0306906 -0.0633963 -0.0315922 0.0196078 0.0250831 0.0349979 -0.00089382 -0.00363763 0.0658633 -0.112793 0.0504443 -0.0533152 0.02338 -0.0116158 -0.0240664 -0.036863 -0.0244969 -0.0538991 -0.0274817 -0.0822795 -0.0284171 -0.112171 -0.0723674 -0.0387053 -0.0870975 0.059332 0.0513824 0.0860746 -0.0112194 0.100344 0.0920461 0.107448 -0.0520216
399339 0.169793 -0.288294 0.0119392 0.201667 0.274399 -0.0584305 0.0427857 -0.0797624 -0.0186941 0.123569 0.0160568 -0.0497971 0.155174 -0.152713 0.224551 -0.0353477 0.166506 0.142133 -0.209311 0.00183382 0.210131 -0.177045 -0.0699487 -0.161237 0.12391 0.0113647 -0.0880764 0.263345 0.0459766 -0.260755 0.176317 -0.190919 -0.00703107 0.196906 -0.000844613 -0.104335 0.123042 0.252945 -0.301318 0.112292 0.10731 -0.184531 0.0325812 -0.0923977 -0.112682 -0.0906398 0.171108 -0.170861 -0.0985692 0.301064 0.110547 -0.451574 0.0840456 0.0951793 -0.0703973 0.168301 -0.171636 -0.0855684 -0.0385977 -0.224126 0.146868 -0.0594723 0.0216848 -0.174782
1130934 0.0398703 0.0250101 -0.00593344 -0.0114161 0.0272638 -0.0356173 -0.0656807 -0.0143763 -0.036065 0.000194715 -0.0476547 0.0726755 -0.0457602 -0.0168783 -0.0255425 0.136723 0.0555523 0.0430114 0.115357 -0.0247293 0.0116531 -0.0189994 0.0203983 0.0036941 0.00375888 0.109696 0.0361381 0.0448687 0.093929 0.0341674 0.0114789 -0.0742409 0.0464436 0.0733298 0.0130432 -0.0301946 -0.0689078 0.0597257 0.0132159 -0.0391481 -0.0164263 -0.0923324 0.0935568 0.0306404 0.00455176 -0.0135697 -0.0608412 0.116467 0.02791 0.0339237 -0.0408534 0.0117449 -0.028152 0.0165928 0.0227962 -0.0234339 0.0592567 0.0735587 -0.0175517 0.0316152 -0.0508579 -0.0420141 -0.02468 0.0461801
2440 -0.142112 -0.0701566 -0.0139461 -0.0711159 -0.070438 0.161193 -0.238726 0.189733 -0.00608463 -0.151664 -0.00651092 -0.0355125 0.00319584 0.0572021 -0.00590192 0.0529504 0.0632623 -0.0696319 0.0932229 0.0149986 0.123052 -0.112089 -0.0599527 0.184705 -0.244464 -0.106053 0.178554 0.284046 -0.25268 0.329221 -0.103557 0.365192 -0.12021 -0.247346 -0.157225 0.0304601 -0.12578 -0.104728 0.320983 0.111629 -0.146487 0.344861 -0.0796438 0.0622865 0.0574166 0.189042 0.0700178 -0.00601101 -0.130797 -0.162597 -0.372338 0.131691 0.0108555 -0.0388873 -0.255246 -0.323855 0.110152 -0.0259699 0.1422 0.0669902 -0.0630559 0.0702279 0.186816 -0.148386
3192 -0.0193645 0.033367 -0.453404 -0.0288471 0.0552057 -0.423807 -0.210336 -0.237532 0.113817 -0.0167255 0.0274976 0.0833742 0.253523 0.168416 -0.0699287 0.0463352 0.118587 -0.090105 0.241198 -0.414794 -0.404225 -0.259742 0.158387 -0.220864 0.108908 0.124747 0.0279399 0.488673 -0.0513857 -0.181047 -0.0512621 -0.138192 0.217649 -0.0337783 0.0873233 -0.259797 -0.0656833 0.148918 0.0307373 0.0813763 -0.118375 -0.0661167 0.0512999 -0.0615991 -0.173574 0.149699 0.118899 0.143174 0.424607 -0.292791 0.0719934 0.0227204 -0.397472 0.296146 -0.180294 0.0027538 -0.342938 0.175166 -0.238363 0.166861 -0.477657 0.0598691 0.341235 0.257644
107251 -0.288214 -0.0640362 0.214411 -0.0457543 0.136114 -0.110433 0.0655657 -0.251724 0.00197869 -0.051821 -0.138577 0.122434 0.138914 0.0338803 -0.241266 -0.202074 0.0695414 -0.392133 -0.201504 0.098185 -0.149312 0.0372364 0.0979815 -0.206564 -0.0289526 0.0525299 -0.107038 -0.307141 0.174024 -0.209222 -0.162866 0.0226736 0.0886285 0.129273 0.183478 -0.279467 0.232675 0.0566112 -0.248247 -0.0583001 0.000337588 -0.165194 -0.057992 -0.267264 0.00667063 -0.243806 0.0396705 0.234881 0.0972637 0.111406 0.207921 -0.0519488 -0.194453 -0.186718 0.334529 -0.0292899 -0.24707 -0.125096 0.173826 -0.299353 -0.0779803 -0.0871498 0.146081 0.139608
163235 0.00975075 0.00510668 0.00675783 0.00165893 0.0135298 0.00149782 0.016814 -0.000685739 -0.0107183 0.00048933 0.00592176 -0.00503511 -0.00400892 0.00942822 -0.00745599 0.00637165 -0.00972338 0.0112281 0.0131119 0.00722703 -0.00875761 -0.00472887 -0.00208585 -0.00486478 0.00185473 0.0125927 0.00037132 0.00255256 0.00324737 -0.00904 0.00473202 0.00677303 -0.00667711 0.00507763 0.00160163 0.00188816 -0.00740074 0.00721826 0.0133736 0.00999018 0.00747746 -0.00625106 0.00731067 0.0051126 -0.012591 -0.00708397 -0.00732104 0.0108107 -0.00938399 0.00762849 0.0127119 -0.00836658 -0.00216236 -0.013489 -0.00112218 -0.00853173 6.93985e-05 -0.00685234 -0.00885976 0.00412653 -0.0108806 -0.00247935 -0.00467912 0.00733706
36140 -0.214518 0.152464 0.314169 -0.209812 0.330729 0.180758 -0.0263427 -0.237111 -0.170177 0.12768 0.052948 0.0468317 0.142459 0.365721 -0.156256 -0.226324 0.247692 -0.597303 -0.372725 -0.0979456 -0.127894 -0.0423084 0.195995 -0.42849 -0.186539 0.189042 0.198239 -0.446816 0.252165 -0.0542224 -0.210027 -0.0513264 0.239439 0.0526783 0.383856 -0.531393 0.129173 0.0411607 -0.6154 0.140966 0.0337584 -0.251482 -0.173206 -0.469643 0.128494 -0.42183 0.00516418 0.329376 0.375805 0.00552271 0.42691 -0.0939677 -0.0785216 -0.0538188 0.291451 -0.211528 -0.47033 0.0114175 0.158663 -0.298739 0.29887 -0.325898 0.51909 0.345179
1137140 0.00568855 -0.00159871 0.00331296 0.0025141 0.00737233 -0.00630002 0.00617533 0.00145548 0.002492 -0.00233796 -0.00581773 -0.00617283 0.00457441 0.0010571 -0.00467399 -0.00604726 0.00185168 -0.00742954 -0.00508997 0.00495633 -0.00497704 -0.00241569 0.00703114 0.00093128 0.0067819 0.00632946 -0.000799985 -0.000642805 -0.00102645 -0.000967764 -0.000987048 0.00646305 0.0042763 -0.00171902 -0.00216065 -0.000644366 -0.00200056 0.00731173 -0.00358399 -0.000763154 0.0071936 0.00151633 -0.00191332 0.000993307 0.00689119 0.00737318 0.00366044 0.000741842 -0.00720274 -0.00194725 -0.000943207 -3.00602e-05 -0.00247842 -0.00699744 0.00246942 -0.00298022 -0.00668554 0.0047429 0.00160569 0.00670557 -1.19881e-05 0.0069983 5.80537e-05 -0.000666731
434 0.0523665 0.232257 0.0458323 -0.155888 -0.171618 -0.178589 0.0578811 -0.0659687 -0.108881 -0.0074441 0.033599 0.271613 -0.311117 -0.286126 0.00560958 0.183655 -0.138547 0.163307 0.421865 -0.0294467 -0.0419829 0.19523 -0.0422792 -0.1477 -0.244018 0.340107 -0.165309 0.311523 0.144358 -0.00741048 0.186194 -0.23899 -0.435454 0.237743 0.223323 0.0372817 0.138077 0.29837 -0.214024 0.140237 -0.244506 0.463932 0.0117182 0.471581 -0.276884 -0.184471 0.299604 0.188218 0.304222 0.0609654 -0.051569 0.0954765 0.252752 -0.225846 -0.324134 -0.118721 0.219519 0.274337 0.222655 0.449393 0.0622461 0.278809 -0.264768 -0.0897214
1109199 -0.0274443 -0.0431968 -0.075548 -0.0591771 0.229931 0.173674 0.0318487 0.0763249 0.0832995 0.0281469 -0.110215 -0.0643109 0.0516237 0.165997 0.212079 -0.120321 -0.0407826 -0.0683534 -0.193169 0.0871596 0.0386983 -0.362534 -0.0540494 -0.0487494 -0.057216 -0.15391 0.0474703 -0.00337282 0.160526 -0.0653255 -0.158495 0.1324 -0.126655 -0.274028 -0.153482 0.0610451 0.0723326 -0.0662085 0.242288 0.00952596 0.190461 -0.00312331 -0.0371844 -0.286561 0.091449 -0.274874 0.15928 -0.155325 -0.350676 0.200719 0.150448 -0.217035 -0.0249769 0.0974519 0.0162898 0.105399 -0.17867 -0.218348 -0.135713 -0.38734 0.0540666 -0.164064 0.0803023 -0.155383
1152179 -0.000828196 -0.000534482 0.00417988 -0.00765571 -0.00336394 -0.0052867 -0.0056441 -0.0102085 0.00182283 -0.0063026 -0.00561774 -0.00222239 -0.003667 -0.00558469 -0.00308789 0.00073652 -0.00717764 0.0135163 0.00155985 -0.00255616 0.00756611 0.00151225 0.0107953 -0.00162181 -0.0100953 0.0026301 -0.010161 0.00180173 0.0106997 -0.000401301 0.00596367 0.0022728 0.00392287 0.00266246 0.0034936 -0.00563596 -0.000679828 -0.0045898 0.00817715 -0.00325093 0.00586805 -0.00638854 0.00426448 0.00736492 -0.0105038 0.007175 -0.0108886 0.00844976 -0.00303931 -0.00172549 0.0142186 -0.00529913 -0.00035145 -0.00345033 0.00320623 -0.0047038 -0.00484817 0.00164202 0.00142591 0.000354319 0.00482496 0.00507699 -0.00282904 0.00614253
782486 -0.158843 -0.14194 -0.148023 0.0102224 0.0717565 0.0996901 0.0316422 -0.0328345 0.0397984 0.055562 0.0526391 -0.175665 0.232136 0.0884034 0.0452639 -0.161355 0.0257704 -0.074353 -0.334078 0.0237153 0.0562466 -0.281413 0.0148824 -0.0337518 0.117973 -0.167711 -0.0213918 -0.00425166 -0.100688 -0.144692 -0.0472546 0.154506 0.101578 -0.03343 -0.0631948 -0.00422467 0.104287 -0.144987 0.0561817 0.0606258 0.143549 -0.0268452 -0.0971434 -0.196624 0.021004 -0.0607785 0.0731977 -0.135394 -0.139389 0.0640827 0.181701 -0.15442 -0.0919649 0.0938462 0.0492777 0.0901529 -0.193121 -0.125975 -0.112925 -0.240741 -0.0587449 -0.143793 0.225986 -0.0147421
228992 -0.00215524 -0.00335837 0.00197275 -0.00487405 0.00234064 -0.00519396 -0.00665829 0.0056416 -0.00198838 -0.0037418 -0.00355019 0.00231513 0.00387579 -0.00472139 -0.00036566 -0.00209968 -0.00620058 -0.0027309 0.00351564 0.00315465 -0.0074899 -0.000412248 0.00550846 0.00457776 0.00663404 0.00160115 0.00297154 0.00521693 -0.00755093 0.000286261 -0.0043634 0.00223685 -0.00633534 -0.00342884 0.00325962 -0.00348919 0.0033317 -0.00345081 -0.00689796 0.00259987 -0.00610117 0.00242997 0.00237342 -0.00550553 0.00752029 -0.00445304 -0.000954502 0.00580545 3.30852e-05 0.0011903 -0.00717901 0.00417029 -0.00489203 -0.00328484 -0.000429676 -0.000883324 0.00526847 -0.00652642 -0.00152026 -0.00749016 0.00512444 0.00687045 -0.0077144 0.00779965
49843 0.44001 0.17241 -0.135841 0.258564 -0.075439 0.136759 -0.33523 0.152843 -0.0291406 0.234557 0.112753 -0.040093 -0.213167 -0.169986 0.166027 0.414183 -0.0270301 0.572746 0.33137 -0.216599 0.24089 0.0952772 -0.112289 0.118066 -0.0386436 0.00321659 0.0221208 0.583909 -0.19632 0.211712 0.290682 -0.116537 -0.254494 -0.0588753 -0.258899 0.373262 -0.222328 0.192329 0.342069 0.0779825 -0.0811837 0.328614 0.107328 0.541345 -0.0847983 0.214764 0.207931 -0.0408618 0.123234 0.130428 -0.25154 -0.179964 0.304745 0.076632 -0.323737 -0.00812651 0.39289 0.210699 -0.106855 0.312713 0.0523708 0.124465 -0.25994 -0.175293
7276 -0.226245 -0.21092 -0.172155 -0.00607338 -0.0451356 0.0203322 0.0767867 -0.104448 0.095655 0.0623504 0.022566 -0.225007 0.206368 0.0343953 -0.109823 -0.230281 -0.101977 -0.00549896 -0.285684 -0.113102 0.0253147 -0.276105 0.0358954 -0.0144193 0.145224 -0.0873113 0.0620233 -0.132426 -0.209363 -0.365776 0.0419163 0.0988478 -0.0850703 -0.00656392 0.139278 0.026332 0.0848409 -0.0518843 -0.0236625 0.158814 0.235206 0.14904 -0.0670836 -0.0560051 -0.0913279 -0.239297 0.0585575 -0.0889277 -0.129594 0.115894 0.0360344 -0.0665791 -0.0358188 0.066873 -0.0583436 0.264991 -0.0580222 -0.121055 0.0156608 -0.202139 0.0441013 -0.0242177 0.241654 -0.104854
1114336 0.0316437 0.0168642 -0.0134471 0.0422498 -0.0774906 0.100781 0.0588588 0.151883 -0.0450424 -0.0268119 0.0175579 0.0292272 -0.0373475 0.113645 0.01532 -0.0692428 -0.0446355 -0.0162096 0.012901 0.0665282 -0.0592433 -0.0175993 -0.00378908 0.0980396 -0.0667137 0.0240135 -0.0150712 0.0182358 -0.121983 0.0801656 -0.053172 0.0983505 -0.124245 0.0696309 -0.0102869 0.0185817 -0.0963178 -0.0386529 -0.0372286 0.0627119 0.0442119 0.129778 -0.0173807 0.0429231 0.0167992 0.0593383 0.0923704 -0.0314741 0.0319015 -0.0956648 0.043137 0.116601 -0.0151076 -0.0559041 -0.0249991 -0.0759346 0.0789864 0.108665 -0.0399319 0.116142 -0.0653127 0.101311 0.0964067 0.0219114
1153031 0.00989826 0.0266183 -0.0769407 -0.0818744 0.100685 0.0823397 -0.0647266 -0.001769 -0.00927063 -0.0266723 -0.0901143 0.0990258 0.0883751 0.0619918 -0.0360144 0.151491 -0.0324103 -0.0627598 -0.10714 -0.107922 0.078939 -0.242666 0.0976099 -0.0192696 0.0199291 0.0367901 0.0266805 0.000416177 -0.0405177 0.0221396 0.0928085 -0.0129304 0.0300968 -0.019931 0.0713587 0.0639105 -0.00640262 0.0593817 -0.025051 0.0302583 -0.00871933 0.0850253 -0.0353879 0.0509787 -0.0665539 -0.151198 -0.0255126 0.0856339 0.00848825 -0.0392116 0.0290256 -0.0373062 0.0725667 -0.0356004 -0.0994621 -0.00748787 0.0214875 0.0210002 0.0369585 -0.107869 0.0257428 -0.0223346 0.00931199 -0.0206575
1153254 -0.0356597 -0.0255767 -0.00902234 -0.0211847 -0.00905091 0.0434068 -0.0573252 0.0465334 0.0131797 -0.0172605 -0.00636979 -0.0268421 5.9737e-05 0.0244164 -0.00192405 0.00479129 0.0130914 -0.0334913 0.0107381 0.0107436 0.0329805 -0.034317 -0.0228957 0.052426 -0.0509113 -0.04387 0.052056 0.0590526 -0.069094 0.0788364 -0.0361091 0.0967262 -0.0198543 -0.0801857 -0.0471706 0.0136384 -0.030497 -0.0437404 0.0941174 0.0219421 -0.0257389 0.0640826 -0.0267843 -0.00239459 0.0320477 0.0364935 0.0189292 0.000875829 -0.0433817 -0.0355855 -0.0771367 0.0135406 0.00195362 -0.0065527 -0.0450218 -0.0635973 0.0297981 -0.0155516 0.0172854 -0.00767805 -0.0220847 0.00826523 0.0549147 -0.0379363
133628 -7.71676e-05 -0.00458306 0.00563024 0.0045036 0.000226824 0.0042146 -0.00248268 0.0008196 0.00213162 -0.00724668 0.00585669 0.0066363 -0.0057536 0.00662708 0.00678052 0.0043082 -0.00512278 -0.00296702 -0.0067916 0.00540727 0.000496467 -0.0051694 0.000582897 0.00110848 0.00418182 0.000564693 -0.00260503 0.00192057 0.00245338 -0.000151301 0.00134556 -0.00194898 -0.00766797 0.00311358 -0.00204242 0.00353466 0.0025428 -0.00767683 -0.00468128 0.00504084 0.00706867 -0.000151777 -0.00326445 0.0015878 0.00590526 -0.00679724 -0.000109256 -0.00077234 -0.00506976 -0.00477143 0.00110787 0.00695752 0.00120321 -0.00767546 0.00595185 0.003532 0.00710842 0.00234281 0.00417188 0.000735017 -0.0030996 -0.00512586 5.75084e-05 -0.00658702
1128990 -0.00812711 0.0793105 -0.0559009 -0.0339668 0.0850233 0.0209592 -0.00804421 -0.0256676 -0.0289088 0.0338113 -0.0741896 0.0372078 -0.0271352 0.0220746 0.058366 -0.00526207 -0.063903 -0.024993 0.00469641 0.0329306 0.028676 -0.110406 -0.0118524 -0.0836388 -0.0502422 0.0066879 0.0179195 -0.0132604 0.102994 -0.0420033 -0.0289143 -0.0172401 -0.0607952 -0.10472 -0.00263059 0.0260627 0.0781426 0.0271176 0.0755259 0.010588 -0.000926523 0.0289642 -0.0238709 0.00786206 -0.0283487 -0.18677 0.0680811 0.0561055 -0.0732055 0.111474 0.0531974 -0.0346851 0.0427073 0.0330144 -0.0382719 0.0389898 -0.0598665 -0.0614522 -0.0344529 -0.0795359 0.0375113 -0.0528235 -0.0213909 -0.0497032
648232 -0.112449 -0.0741793 -0.106053 -0.0667808 -0.0240393 0.0232422 0.0169531 -0.090057 0.045414 0.0052451 0.0575441 -0.172991 0.177688 0.0164148 -0.0475648 -0.0949258 -0.0476387 -0.0679672 -0.177935 -0.0574941 0.0382439 -0.152877 0.00728487 -0.0125586 0.0893537 -0.0549435 -0.0321683 -0.0377789 -0.0742799 -0.195984 0.073449 0.0747477 0.013036 0.0112634 0.0557526 0.0197056 0.108948 -0.135689 -0.0145567 0.102496 0.115874 0.0991788 -0.121124 -0.0720588 -0.0493608 -0.0827741 0.0476651 -0.0607223 -0.0742805 0.0368371 0.083858 -0.0464476 -0.0048214 0.0258562 -0.0276798 0.0743686 -0.0228101 -0.0742512 -0.0187168 -0.0710603 0.00276527 -0.0199035 0.172949 -0.0235644
74921 0.00593446 0.00627427 0.00321504 0.00762322 0.00279397 -0.00580006 -0.0047279 0.00303167 -0.00547785 0.00922683 -0.0134207 0.010704 -0.0160771 -0.00882239 -0.00384132 0.00992105 0.00926388 3.37711e-05 -0.000475097 0.000532309 0.0080279 0.00011267 0.000626873 0.00689921 -0.00158394 -0.00918386 0.0036837 -0.00339602 -0.0112013 -0.016601 -0.0150721 -0.000809883 0.00541152 0.00179362 -0.000821611 0.0145407 -0.00275687 -0.00495195 -0.00873602 -0.00457496 0.0017963 -0.0114423 0.000306103 -0.00967466 -0.00621809 -0.0102712 0.00926841 3.25619e-05 -0.00887435 0.01229 -0.0084329 -0.00316097 0.0053297 0.00965198 0.00271419 -0.00591659 -0.0122948 -0.00319156 0.00519634 -0.0131288 0.000648832 -0.00545775 -0.0059317 -0.00936692
101143 -0.098931 0.0697209 -0.0259048 -0.13225 0.139511 0.0502876 0.0109349 0.0766107 0.0158249 0.0515357 0.0174146 0.0570466 -0.229781 0.0157474 0.104696 0.0790016 -0.130922 -0.109762 0.0994581 0.202239 -0.03008 -0.22149 -0.10884 -0.124449 -0.0994536 -0.140478 -0.0597628 0.047695 0.285565 -0.129637 0.0960157 -0.00142713 -0.0885361 -0.149456 -0.0171673 0.225474 0.251877 -0.020559 0.212767 0.0156516 -0.0569359 0.103346 -0.00797311 -0.036722 -0.156344 -0.339731 0.157792 0.16887 -0.145302 0.139322 0.14421 -0.149669 0.0367037 0.134289 -0.0732179 0.0431027 -0.190005 -0.165915 -0.010906 -0.251538 0.0753535 -0.141501 -0.0462387 0.0167214
63832 0.0181297 0.290489 -0.035983 -0.245263 -0.132552 -0.152944 -0.0536834 -0.180362 -0.00445351 0.0383955 -0.0456652 0.0328827 -0.0500425 -0.126564 -0.275594 0.219698 -0.0102895 -0.0480323 0.27577 -0.0686336 -0.0847502 -1.64819e-05 0.0214192 -0.026226 -0.115787 0.114604 -0.0670666 0.115787 0.224298 -0.177412 0.187166 -0.30331 0.0201957 0.046546 0.118693 0.250374 0.100373 0.163996 -0.106806 -0.044417 -0.0920123 0.0449792 -0.073863 0.14212 -0.252537 -0.28852 -0.0160079 0.227782 0.229339 0.143236 0.0274289 0.163877 0.0456615 0.0146557 0.00413716 -0.0478748 0.313903 0.127627 0.0444471 0.0521521 0.0986369 0.123559 0.0310221 0.182937
67245 0.0600756 -0.0633125 -0.000349304 -0.02573 0.123179 0.0755397 -0.0288749 -0.00234512 0.0325972 -0.0285657 -0.0746706 -0.0173253 0.0708065 -0.0864824 -0.0135609 0.02722 -0.00128141 0.0318407 -0.0699633 -0.137791 0.0423745 -0.0925567 0.0241888 0.0159178 0.0524633 0.0535228 0.0222972 -0.00368643 -0.0312137 -0.00761749 0.0783238 -0.00102056 0.0335113 0.08812 0.0658586 -0.0497208 0.0201105 0.0342876 -0.00192791 0.0420116 0.036221 -0.0166617 0.038767 0.0289492 -0.0210257 -0.167832 -0.0283135 0.00400646 -0.0231157 -0.00195076 -0.0479686 0.0170964 0.00844495 -0.0202766 0.00240897 0.0294946 0.0630843 -0.00237983 0.0326196 -0.0256294 0.0142093 -0.0160963 -0.0331147 0.0283252
34082 0.0304819 0.025702 -0.00390095 -0.00258933 -0.0192813 0.0183164 -0.0190246 0.0292346 0.0239656 -0.00328369 -0.00244734 -0.00936982 -0.0159657 -0.0117513 0.0161003 0.000971291 0.0133236 0.00770189 0.0192154 -0.00300631 -0.0115266 0.00557308 -0.0159078 -0.00218894 0.00428494 -0.00435416 -0.00511703 0.00479587 0.0169029 0.00509545 0.0152513 0.000841975 -0.00534152 -0.00450743 0.00384031 -0.0102066 0.011321 -0.0126988 -0.00377363 -0.00286134 -0.0104339 -0.012444 0.0120776 -0.0269457 0.0111255 -0.000114719 -0.00824443 0.0192359 0.00914917 0.0461542 0.00159284 -0.0140653 -0.00766821 0.00156941 0.0115875 -0.00684591 -0.00649034 -0.0028919 0.000915997 -0.00586605 0.00697913 -0.0284811 -0.0204499 0.0196487
1105718 0.14371 -0.182598 -0.00460372 -0.0215607 0.278341 0.200642 -0.0408305 -0.0380471 0.00295244 0.0319722 -0.125622 0.00508694 0.144607 -0.217949 0.0615955 -0.0132504 0.0917617 0.0802927 -0.295958 -0.169255 0.172231 -0.366725 -0.00123015 -0.0219957 0.219668 0.0992702 0.0394704 0.0658124 -0.0151618 -0.17906 0.219822 -0.103555 0.0102567 0.148887 0.105042 -0.0482121 0.104023 0.108861 -0.0853177 0.133212 0.0887532 -0.127993 0.0462947 -0.0223871 -0.0426721 -0.480454 0.0331637 -0.0712543 -0.147172 0.225955 -0.0178091 -0.184874 0.0101046 0.0225214 -0.0445727 0.195823 0.0272751 -0.0949263 -0.0122719 -0.207925 0.103411 -0.109448 0.020622 -0.0608701
814836 0.00370024 0.00562765 0.00619337 0.00352295 0.00361621 0.00256232 -0.00182335 0.00105505 -0.000335476 0.00448896 0.00716998 0.00582334 0.00606465 0.00111773 0.00623646 -0.00388371 0.0022932 8.42556e-05 0.00218022 0.00172115 -0.00318755 0.00420784 -0.00711594 0.000224447 0.00693515 0.00336092 0.000769566 -0.00277281 0.000772607 -0.00122864 0.00181851 0.00384173 -0.00679218 0.00345597 -0.00446014 0.00120634 0.0056589 -0.00738393 -0.00629698 -0.00332652 -0.000235264 -0.000878719 0.00382332 0.00147197 -0.003118 0.00256896 -2.66798e-05 0.00275517 -0.00515646 -0.00462301 -0.00401643 -0.00352599 0.0014426 0.00664357 0.00262894 0.00420956 0.00632724 -0.0066471 -0.00314311 -0.000557901 -0.00109415 -0.00592117 -0.00501112 0.00662073
191216 -0.0048102 0.000465109 -0.00843667 -0.00983461 -0.0125313 0.00556176 -0.012567 0.00518438 0.00618663 0.00515882 0.0084948 0.00172627 0.00680721 0.0216349 -0.00906909 -0.0156543 0.010288 -0.00145022 0.00863465 0.0102703 0.0116081 -0.0030253 0.00441044 -0.0102346 -0.0107241 0.000313779 0.00286376 -0.010794 -0.00907205 -0.00947198 -0.0152044 -0.00339231 0.00646649 0.00336976 -0.0104135 -0.000534569 -0.00178426 -0.000266663 -0.00659985 0.00593513 -0.0111114 -0.0124714 -0.0025973 -0.010701 -0.00775137 0.0177598 0.0132487 -0.0144224 -0.00842499 0.000762716 0.013893 -0.0219702 0.00764898 -0.00269586 0.00869834 -0.000291986 -0.0216682 0.00832795 -0.000534248 -0.0246048 -0.000201763 -0.0111894 0.00722141 -0.00132402
6217 0.0241034 -0.00962482 0.0958433 0.0587077 -0.153022 -0.0777633 -0.0316593 0.0222348 -0.00579336 -0.100217 0.0847668 0.0842306 -0.105752 -0.13947 -0.0818069 0.0847618 0.0253074 0.0861181 0.145035 -0.080259 -0.0263869 0.318355 0.0589696 0.134578 0.0432229 0.161174 -0.00641832 -0.0388282 -0.181316 0.192519 0.13943 -0.0580516 -0.010647 0.205465 0.102751 -0.0974545 -0.08722 0.0112631 -0.179138 0.0391123 -0.120686 0.0408559 0.0618417 0.256288 0.0315721 0.199842 -0.106524 0.0299478 0.290336 -0.224824 -0.187047 0.185771 0.0208762 -0.143156 -0.0293982 -0.0881848 0.21061 0.236737 0.114351 0.39844 0.00392887 0.154092 -0.1055 0.102333
1131267 -0.0106511 0.0843525 -0.249503 -0.106517 0.175993 -0.227607 0.114478 0.172467 -0.00755993 0.070404 -0.00460793 -0.0639571 0.168926 0.165805 0.117044 0.0053674 -0.0528558 0.0060056 0.258545 -0.181361 -0.139379 -0.168231 0.149271 -0.00432114 0.208647 0.0908109 0.0429346 0.208825 -0.117759 0.097371 -0.125643 0.067403 0.0166416 -0.167328 0.164662 -0.173235 0.0464973 0.166659 0.0363428 0.0794353 -0.0848026 0.0125598 0.0201144 -0.145139 0.0174273 0.0218084 0.0661931 -0.0152108 0.209361 -0.18214 0.0935071 -0.0690533 -0.118674 0.184743 -0.180267 -0.00457391 -0.179271 0.0833784 0.0206172 0.187184 -0.410166 -0.00665286 0.12526 0.316725
84695 0.0187803 -0.00681033 0.0134894 0.011661 0.00603202 -0.0133169 -0.025079 -0.0323592 -0.0215606 -0.0142298 0.00900208 0.0314881 0.00370368 0.00159528 -0.00682673 -0.0183233 0.0352703 -0.00334196 0.00291591 -0.00538347 0.00220544 0.0127509 -0.00944409 -0.0201623 0.00108743 0.015736 -0.00983496 0.0168398 0.0074662 -0.0146516 0.000114285 -0.0129362 0.0155888 0.0142245 -0.01289 -0.0135003 0.00163751 0.0180169 -0.00350354 -0.00978517 0.0113462 -0.00955315 0.00218743 0.0153344 -0.0203755 0.0196598 -0.00333397 0.00236816 0.0155137 -0.0136715 0.00592839 0.00890915 -0.027234 -0.0114163 -0.00155362 -0.00868412 -0.0136342 0.0103292 -0.0391874 0.0191792 0.0108938 -0.00043198 -0.00217767 -0.0212458
591016 -0.14402 -0.0100182 -0.0423429 -0.0394023 -0.0645688 0.287405 -0.133879 0.144864 0.0338268 -0.0540964 -0.0209629 -0.0515649 -0.0115797 0.134059 -0.0373105 -0.0968401 0.0172187 -0.116709 -0.0624843 0.032518 -0.00775873 -0.155264 -0.0297367 0.189425 -0.119385 -0.119324 0.209122 -0.00875965 -0.160932 0.240606 -0.151292 0.33512 -0.124774 -0.298132 -0.0419098 0.0405551 -0.134751 -0.184387 0.30202 0.0381692 0.0793042 0.152237 -0.102842 -0.125471 0.132804 0.0806327 -0.130717 -0.14814 -0.142499 -0.144309 -0.200064 0.10057 -0.0861307 -0.0235948 -0.0369714 -0.102477 0.0498703 -0.0604674 -0.0996034 -0.0036044 -0.0606357 -0.150281 0.191171 -0.0763946
1131611 -0.0825016 -0.151112 0.031373 0.00745826 0.0596001 0.19856 -0.321468 0.10629 0.00236399 -0.283762 0.0075781 0.0234409 -0.145944 0.418598 -0.0284776 0.143692 -0.0233392 0.0044463 -0.242441 0.145697 0.0141086 -0.184512 0.0540392 -0.124818 0.0490228 0.300847 -0.119428 -0.116347 0.0115492 -0.0256574 0.0888587 -0.120834 -0.230692 -0.0675491 0.0898264 0.218724 0.127945 0.0972738 0.0203494 0.116458 -0.129515 0.214969 -0.010418 0.201396 -0.116011 -0.178467 0.0342397 -0.327803 -0.246464 0.021467 -0.0197785 -0.216561 -0.278538 -0.0111488 -0.283254 0.0820077 0.12325 0.0443763 0.140181 -0.12744 0.0370442 -0.00402132 0.0794702 -0.215345
1111052 0.183917 0.0102308 0.00979929 0.0430297 0.034418 -0.2499 0.100686 -0.189426 -0.0123441 0.141662 -0.05654 0.139399 -0.102798 -0.249339 0.0733617 0.177184 -0.0763142 0.198105 0.188687 -0.0467061 0.0813879 0.0805048 -0.0270091 -0.181777 -0.0669697 0.112417 -0.0630468 0.181643 0.215057 -0.246536 0.167614 -0.267892 -0.0884918 0.174745 0.181103 -0.0755925 0.208311 0.30412 -0.190963 -0.0630695 -0.178475 0.0498679 0.0817365 0.309954 -0.209111 -0.0338871 0.170526 0.149274 0.0541863 0.224367 0.00586255 -0.125104 0.204472 -0.0767283 -0.0863341 0.118501 -0.0980875 0.0305061 0.179613 0.0944777 0.0655097 0.136031 -0.295681 -0.106812
65074 -0.0852335 -0.113889 0.0533955 -0.0660744 -0.0245674 -0.0266898 -0.18575 0.227914 -0.141486 -0.0828081 0.00305753 -0.084807 -0.154475 0.0497662 0.019347 -0.0622492 0.0967948 0.0868716 0.149933 -0.140391 -0.0922202 0.193804 0.00645329 0.0558743 -0.0565633 -0.066633 -0.025711 -0.143205 -0.0212444 -0.031266 0.0168176 0.171999 0.0921354 -0.0733498 -0.196546 0.0556411 0.189921 -0.0517203 0.0223581 0.0515598 -0.161684 0.113272 -0.195954 -0.0267516 -0.113933 -0.112 -0.102152 -0.121368 -0.0696242 -0.0578846 0.000150496 -0.0971312 -0.138866 0.123474 0.170098 0.142633 0.0335068 -0.2203 -0.00902411 -0.0595892 0.0673308 -0.0480003 -0.164461 0.0763172
10430 0.0340771 0.0294729 -0.0335322 0.0325683 -0.0720312 0.107744 0.0771987 0.163453 -0.0208534 -0.0291129 0.0376112 0.0558929 -0.0279056 0.100855 0.0053376 -0.0820916 -0.0589834 0.0104837 0.0179843 0.0661215 -0.0451524 -0.0216022 -0.0129452 0.0916339 -0.0839235 0.0347273 -0.0429636 0.0193329 -0.135638 0.0912553 -0.0384389 0.0717905 -0.149346 0.0901714 0.00628651 0.0273059 -0.0793045 -0.0523055 -0.0481428 0.0810974 0.0551365 0.16068 -0.0235344 0.0594103 1.15435e-05 0.0359299 0.111134 -0.0275791 0.0421484 -0.0956124 0.0727168 0.0844555 -0.0291685 -0.018545 -0.0339638 -0.0529761 0.0425587 0.124884 -0.0659979 0.107219 -0.070741 0.11019 0.0979971 0.0239535
1154233 0.0171524 -0.0564922 0.295384 -0.00111099 0.00827904 0.272476 0.150331 0.132126 -0.0982675 -0.0141412 -0.0138542 -0.0509523 -0.117975 -0.141087 0.0760185 -0.0552502 -0.0473016 0.0514502 -0.158817 0.249519 0.269214 0.148043 -0.103667 0.151641 -0.0339553 -0.099802 -0.0136933 -0.316456 0.00901556 0.149862 0.0247813 0.0603086 -0.126126 0.00682954 -0.0451063 0.19089 0.0540936 -0.119451 -0.067712 -0.0329023 0.0735747 0.0332349 -0.0397679 -0.0229276 0.141541 -0.114375 -0.0984907 -0.106215 -0.269704 0.147699 -0.0313288 -0.00893403 0.285686 -0.211587 0.0755489 0.046924 0.150677 -0.109586 0.129018 -0.106854 0.27233 -0.0108022 -0.263028 -0.129401
263553 0.0846644 -0.101814 -0.00589906 -0.0144053 0.0247724 -0.0235962 0.0430507 -0.088124 0.0210661 -0.00641191 -0.0304746 0.0722621 -0.00275755 -0.0646808 -0.00719009 -0.0403386 0.0027468 0.0335703 -0.0701335 0.00249979 0.0491354 -0.0245756 -0.0552867 0.0819534 0.00144241 0.083396 -0.0655154 0.00317363 0.0529565 -0.0140954 0.000169187 0.05051 -0.0422735 0.0180641 -0.0243833 0.0435615 -0.0104918 0.0681016 -0.0751292 0.0262261 0.0437948 -0.0600106 0.05272 0.0585741 0.00175144 -0.0215947 -0.0544019 -0.079609 -0.0603038 0.00981928 0.00429802 -0.00695751 0.0256663 0.0160227 -0.000117717 0.0377171 0.0372277 -0.0236732 0.0867922 0.0555218 -0.0880546 0.0780248 -0.065212 0.0111732
102879 0.00673333 -0.062486 0.0353676 0.0302193 0.0461946 -0.0433805 -0.0976389 -0.186309 -0.0685987 0.176561 -0.0836654 -0.00227427 0.0881676 -0.161259 -0.020533 -0.0822896 0.00459678 -0.0281712 -0.0438431 0.0966863 -0.0192775 0.0152296 -0.108898 -0.029815 -0.184079 -0.0657929 0.143073 0.0544984 0.101835 0.0423645 -0.044484 0.0764737 0.0321778 0.107885 -0.0554798 -0.0750714 -0.0505162 0.0649848 0.0779096 -0.0230737 -0.0992526 -0.0147016 -0.0973368 0.00507229 0.0782277 -0.016281 0.0666645 0.0783703 -0.151945 0.00334721 -0.160994 -0.130537 -0.0599257 0.0451975 0.0666573 -0.00732228 0.034152 0.0339907 -0.0551239 0.108288 -0.0842425 -0.0546546 0.009534 -0.0294212
256106 0.0298953 0.00501461 0.0167719 -0.0422683 -0.0509297 -0.000236734 0.0110546 -0.00999288 -0.00248857 -0.0513014 -0.0177753 0.0410273 0.012846 -0.0137722 0.00332547 0.0408489 0.0039512 0.0341815 -0.0743561 0.0052473 0.0282317 0.0224845 -0.0138472 0.0634854 -0.0355834 0.00635614 -0.0382299 0.028989 0.000684331 0.0108238 -0.0347958 0.0716022 0.0585244 0.0115191 -0.0120908 -0.015291 -0.00856612 -0.0420623 0.0185077 -0.0325768 -0.0220485 0.0262897 -0.00403548 0.00496674 -0.0220506 -0.0141045 -0.076496 -0.00592937 -0.086044 0.0741298 0.0334225 0.00118264 0.0163834 0.0177142 -0.0545473 0.0120365 -0.0258187 0.0161183 0.0160327 0.00474083 -0.0253673 0.0627264 -0.009729 -0.0667601
74700 -0.0458014 0.00558697 -0.0153001 0.0291053 -0.000709247 -0.0127509 0.00476348 -0.00550539 0.0186367 0.0234455 0.0181749 -0.0158152 -0.0130057 0.0108449 0.00532902 0.0112727 -0.00710305 0.00409802 0.0102005 -0.00211933 0.000264231 -0.00175455 0.030946 -0.0282461 0.00357614 0.0163638 -0.0179959 0.0112825 0.0098696 0.0263603 0.0126368 -0.010562 -0.0127638 0.0367599 0.0022842 0.0135092 0.0161971 0.00485448 0.00169453 -0.000610913 -0.0297146 0.0193663 0.0315702 0.00534622 -0.00116162 0.0216866 0.00760752 0.0273488 -0.00316198 -0.0167195 0.0148129 0.0061942 -0.0300442 0.00565306 -0.036473 -0.0203604 -0.00794824 0.0208323 0.00240499 0.0175596 -0.0238662 0.0271054 0.00939841 0.00420254
1033 0.0935046 0.127596 -0.00223758 -0.239737 0.0705707 -0.0139484 0.166188 -0.109832 0.0183123 0.0129424 -0.221791 0.101238 -0.151944 0.0533907 0.0210997 -0.0299176 -0.155997 0.0265369 0.0377712 0.03819 -0.0621132 -0.323099 0.0180879 -0.231106 -0.105822 -0.0363044 0.0913236 0.086481 0.257815 -0.0951162 -0.000536633 -0.120017 -0.103488 -0.219023 0.0432368 0.21486 0.2292 -0.0238531 0.210882 -0.112989 -0.00781481 0.0768374 -0.0986305 0.0669221 0.0462678 -0.378485 0.0806198 0.10055 -0.160542 0.290949 0.116457 -0.150745 0.0373837 0.0466557 -0.0372476 0.119095 -0.075839 -0.123705 0.0199706 -0.290862 0.0413243 -0.0452345 0.064477 -0.0683956
1106492 0.0914847 0.0247083 -0.0427759 -0.00420468 -0.0455599 0.0175411 0.00416772 0.068895 -0.0507376 0.027115 0.0669023 0.0430957 -0.0508016 -0.00172169 0.014481 0.144166 0.045095 0.113192 0.0787712 -0.122657 0.0161202 0.0745161 -0.0313541 0.0765941 -0.00136602 0.0666663 0.0392603 0.120865 0.0609735 0.0744275 0.0705715 -0.0606421 -0.112055 0.0162351 -0.0845568 0.0155306 -0.0224575 0.00984869 -0.0387811 0.0747487 -0.144246 0.0291353 -0.0421657 0.102909 -0.0318548 -0.0275066 0.0516567 -0.052421 0.0424559 0.0409556 0.0228474 -0.0323994 0.117007 -0.0449823 0.0251546 -0.0333515 -0.0198705 0.0542557 -0.0280498 0.104865 0.114083 0.134444 0.00101073 0.00742351
38537 -0.053121 -0.212332 -0.0132036 -0.245209 0.0575603 -0.0863767 0.0852204 0.0567233 -0.0707316 0.0386173 -0.0167781 0.00599175 0.0935039 -0.0684838 0.0787037 -0.0482071 -0.0462007 0.199553 -0.0132442 -0.000959647 0.13331 -0.061206 0.152511 0.099923 -0.135518 -0.066641 -0.0735489 -0.0914796 -0.0100072 0.0442332 -0.00790378 -0.0460338 -0.0330308 0.0988732 0.0292939 -0.043038 0.0188948 -0.0347113 0.0916443 0.0087931 0.140359 -0.145578 0.111447 0.0313634 -0.136945 -0.0172193 -0.158356 0.0806025 0.0413066 0.0211936 0.0950683 -0.113803 -0.0764244 -0.0306542 -0.199242 -0.00839857 0.0120416 -0.0181208 -0.123089 -0.116644 0.12525 -0.0850166 -0.0915838 -0.0997196
1114838 -0.0130986 0.00435795 -0.0149143 -0.00279172 -0.00722747 -0.00278304 0.0310347 0.00286572 0.0159598 0.00863537 -0.000346027 -0.00243829 -0.013639 0.00771412 -0.0020237 0.0161134 -0.00369655 0.0139137 -0.0122342 0.0129817 0.00198385 -0.00338133 0.00952071 -0.00193869 0.00213806 0.0184038 0.00099179 0.00432152 -0.00555194 0.00694829 -0.00637654 0.00692996 0.00968072 0.00971541 -0.0119396 0.0105206 0.010178 0.0132514 -0.00940037 0.0105582 0.00590089 0.00762147 0.0103922 -0.00350155 0.00343369 -0.00809626 -0.00158224 -0.00888381 -0.0034683 0.00141646 0.0180921 -0.0161303 -0.0151053 0.0120278 0.0231647 0.00655654 0.0134829 0.00931512 -0.0108344 0.00226755 -0.0030339 0.00206341 -0.00145387 -0.00784455
1121603 0.068252 0.00605693 0.058516 -0.0209531 -0.0295725 0.0162347 -0.0404934 -0.0115438 0.0127568 -0.0530991 0.0175 0.0786041 -0.0577611 -0.030187 -0.0249136 0.0293198 0.0322301 0.0500991 0.020452 -0.0323425 -0.00220606 -0.0365539 -0.019867 -0.00381602 -0.0165602 0.0408083 0.0463159 -0.0221266 -0.0295084 0.0285121 0.0217112 -0.0237885 0.00118129 0.00128034 -0.0132297 -0.0233245 -0.0359932 0.0370545 -0.0043136 -0.0103842 0.0157209 -0.0256006 -0.000910878 0.0183969 -0.0328768 0.00873299 0.00684824 -0.0183397 -0.00864672 -0.0275863 -0.0138861 0.00206939 -0.0476596 0.0206133 0.0656354 -0.0126408 0.0138903 0.0319545 0.0154744 -0.0703181 -0.0156915 0.014187 -0.00261649 0.00946644
463 -0.00887947 -0.0180137 0.0142336 0.0442218 -0.044097 -0.0407022 -0.0243585 0.0226961 -0.0107679 -0.0081439 0.037853 -0.0148004 -0.0055427 -0.0256465 -0.019309 0.0211829 0.0306619 0.0271001 0.0251958 -0.056865 -0.0199637 0.0863139 0.0135502 0.0716825 0.0222283 0.0397457 0.000393358 -0.0343094 -0.0802964 0.0451831 0.0249147 0.0111406 0.0322139 0.0531396 0.00833945 -0.0251939 -0.037922 0.00932795 -0.0426498 0.0252919 -0.0399829 -0.000414372 0.0270402 0.0166294 0.0326314 0.0965679 -0.0597026 -0.00511358 0.061252 -0.0796037 -0.0558833 0.0434722 0.00162566 -0.0214838 0.00106843 -0.0170466 0.0586895 0.0308023 0.0426871 0.098511 0.0111528 0.0328074 0.00624996 0.0357881
47682 0.0798624 0.0925131 0.0503245 0.04087 0.00822831 -0.00227872 -0.00221647 0.0557288 -0.0347248 -0.0179426 -0.0314121 0.122521 -0.111452 0.014824 0.00657652 0.0532551 0.0587178 0.0582724 0.116281 0.053354 -0.0142553 0.10875 0.00432975 -0.0419015 -0.0709568 0.0345214 0.00408493 0.0256117 0.0865258 0.113036 -0.0107735 -0.0617725 -0.00133115 0.014664 -0.0314525 0.0232081 -0.0624608 0.0765134 -0.0156718 -0.0614619 -0.0585669 -0.060188 0.0430783 0.0173343 0.0188332 0.0401949 -0.0227734 0.0298752 0.0590772 -0.0222488 -0.0437348 0.0470379 0.00292113 0.0135972 0.00720681 -0.0415454 -0.00504513 0.0531657 0.017241 0.0383188 0.00431338 0.00921999 -0.0684558 0.0150051
38846 0.0302158 0.0210507 -0.013668 0.0167873 -0.0267604 -0.0201619 0.0397932 0.000235252 0.0201295 -0.0262043 -0.0193712 0.0139678 -0.00171897 0.0170193 -0.033523 0.00453102 -0.0160877 0.0351719 -0.0012357 0.00630893 -0.0367496 0.00762576 0.0199276 0.0332743 -0.0271325 0.00456646 0.00347177 0.0314052 -0.0169466 0.0219981 -0.0299906 0.0296914 -0.0202332 -0.0254141 -0.0294076 0.00913832 0.0111904 0.00790162 -0.0103493 -0.00880008 -0.0125757 0.0271879 0.0108888 0.0445713 0.0399432 -0.00472265 -0.00683451 -0.00473056 0.00835202 -0.000898427 0.00338217 0.0163055 -0.0271135 -0.00704213 0.00349315 -0.00485374 0.0142385 -0.00224177 0.0284609 -0.0307731 -0.000174967 -0.00559274 -0.00296903 -0.00249648
2354 0.0331343 -0.179102 -0.126434 0.115961 0.00738418 -0.0927022 0.225736 0.151613 -0.0941333 0.0977984 -0.138868 0.141983 -0.0736469 0.193935 0.146097 0.139075 0.00118697 -0.0102834 0.0662738 0.0745078 -0.129303 0.0761947 -0.0678346 -0.00571571 -0.164994 0.0674905 -0.109889 -0.0927205 -0.248226 0.0794088 -0.191681 0.14212 0.0655564 -0.056315 0.222918 -0.0882065 -0.231508 -0.0619321 -0.0889381 0.16335 0.0719918 0.176522 0.188141 0.0991867 0.0120864 0.392084 0.0495848 0.0052487 -0.00405677 -0.272387 -0.201647 0.0952116 -0.139019 -0.0574039 -0.00979818 -0.0669809 -0.0582056 -0.0581959 -0.0866022 0.154059 0.168438 0.0607088 0.0513522 -0.30966
66782 0.132958 0.0259229 -0.0690057 0.0856031 -0.0232621 0.069655 -0.0454515 0.0287737 -0.00557941 -0.0028775 -0.0131595 -0.00546408 -0.0850143 -0.0220096 -0.000720712 0.136249 -0.031804 0.169181 -0.00488666 -0.148267 0.0906019 -0.0407716 -0.0442887 0.0343407 -0.0621709 0.0321803 0.0848653 0.115698 -0.0291268 0.123441 0.0712429 0.000880317 -0.0817151 -0.018082 -0.0561512 0.0976521 -0.0552695 0.0862131 0.0430285 0.0719211 -0.0670163 0.131978 -0.00754784 0.182243 -0.0176379 0.0294303 0.0422348 -0.0297187 -0.00647321 0.0234003 -0.0881007 -0.0843076 0.127632 -0.00588816 -0.0572716 0.0129543 0.0909061 0.0966119 -0.0346237 0.0944455 0.0928923 0.00152638 -0.0489201 -0.0481
428610 -0.0355779 -0.121399 -0.0997229 0.0509145 -0.208923 -0.0395904 0.0336534 -0.0552226 0.0979617 -0.0864871 -0.0363087 0.0346572 -0.184222 -0.206847 -0.0563034 -0.0775537 -0.0226118 0.0580093 -0.0153696 0.058953 -0.026738 0.0290358 0.0330593 0.191735 0.178618 -0.0761419 -0.233558 0.0439843 -0.115997 -0.0569964 -0.0329615 -0.0308743 0.0347472 0.0944379 -0.162898 0.203895 0.0525672 -0.160414 0.227354 -0.157751 0.0942658 0.111471 0.0403306 0.0529228 -0.0174512 0.124451 -0.0563557 -0.0987963 -0.350417 0.106671 -0.0653062 0.110574 -0.147723 -0.0116397 0.0147525 0.142145 0.080186 -0.138553 -0.0313151 -0.0544368 -0.111486 0.128146 -0.131395 -0.137093
1126029 -0.0433892 -0.175231 -0.0783118 0.154089 0.162841 0.0822935 0.0770777 0.113022 0.122344 0.0967496 -0.00792862 -0.120791 0.114149 0.131779 0.239543 -0.111438 -0.00888038 -0.00799598 -0.261242 0.0726568 0.0667865 -0.250858 -0.033257 0.144232 -0.0166996 -0.174621 0.077162 -0.0656412 -0.111318 0.00490143 -0.176221 0.167516 -0.0603668 -0.0993378 -0.109624 -0.0656995 -0.0209925 -0.056212 0.136321 -0.0308227 0.0933799 -0.064498 0.0519828 -0.252193 0.129003 -0.00968874 0.0827607 -0.193057 -0.227827 0.117308 0.0412821 -0.169451 -0.00480868 0.0903335 0.0861503 0.0663534 -0.175348 -0.137549 -0.164089 -0.241403 -0.0121412 -0.0943016 0.0923331 -0.0402894
71736 0.00474881 0.00846885 0.00534136 -0.0274642 0.00791357 0.0169067 0.0329675 0.0375762 -0.00217547 0.00139118 -0.0128449 0.00163379 -0.0324431 0.00942526 0.033422 -0.0243013 -0.0168992 0.0200453 -0.00650269 -0.0101183 0.0563809 -0.0296338 0.0282656 -0.0312784 -0.0284051 0.00445869 -0.0131119 -0.0204333 -0.017377 -0.038038 0.0195913 0.00899911 0.016825 -0.021375 0.00916034 0.021227 -0.00183698 -0.00141331 0.0148315 0.0202785 0.0281775 -0.0290494 0.0229271 -0.0169653 0.00145712 -0.0282763 -0.0323941 0.0161203 -0.0403289 -0.0165298 0.0141031 -0.0243056 -0.011512 0.0245933 -0.0315205 -0.0182087 0.00591926 -0.00623118 -0.0383442 0.0072795 -0.00424615 -0.0377149 0.0207906 0.00528672
205196 0.0276738 -0.0650472 -0.0725528 -0.00616836 0.00527141 0.0111376 0.0113074 0.00483549 0.0268019 -0.0259405 -0.039678 0.0685202 -0.0517078 -0.0163427 0.000398921 -0.0320905 -0.0339412 0.0826418 -0.0411275 0.0874057 0.0660128 -0.00351627 -0.00253524 0.0112386 0.0552021 -0.0130989 -0.0774114 0.0232332 0.00229192 -0.00512823 -0.00451875 0.0247554 -0.0347982 -0.0627787 -0.0589234 0.0335216 -0.0305861 -0.0593524 0.0578821 -0.0403306 0.0341754 -0.0102127 -0.0146178 -0.0295805 0.0162613 -0.0230358 0.0054289 -0.0432846 -0.113782 0.0510034 0.011611 0.0164811 -0.0318675 -0.0407367 -0.0124579 0.0789607 0.0338523 -0.0607686 -0.0691427 -0.0460161 -0.0630922 -0.00147148 -0.0577592 -0.0464085
754594 -0.000591553 0.000183263 0.00336952 -0.00555029 -0.00580451 -0.00679383 -0.00164196 -0.00206795 -0.00543773 -0.000248646 0.00660449 0.00154304 -0.0022391 -0.000360776 -0.00357716 -0.0073439 0.00672485 0.00436076 -0.00442988 -0.00195771 0.00275125 0.00579305 -0.00526204 -0.00400167 -0.00560983 -0.00643776 -0.00439291 -0.00515468 0.00693213 -0.00290497 0.00263719 0.00654386 0.00321901 -0.00508649 -0.000189912 0.00104952 -0.00714149 0.00154282 -0.00151188 -0.00380312 -0.00728186 0.00545549 0.00769032 0.0035385 -0.000316717 -0.00158211 -0.00578453 0.000744435 -0.00478323 -0.00614533 0.00504739 0.0077372 -0.00039512 0.00165922 -0.00603929 -0.00613473 -0.00334598 -0.00694865 0.00256963 0.00361547 0.00258779 -0.00291687 0.00318052 -0.00373684
58436 0.0177687 -0.0109299 0.00844004 -0.0108124 -0.0140972 0.0177611 -0.0127355 -0.0124001 0.013143 -0.00290445 -0.00195132 -0.00930365 0.00815438 -0.0296603 -0.0055402 0.0241809 0.00999866 0.019835 0.0307085 0.00607899 -0.0206688 0.0573763 0.00762065 0.00234383 0.00701068 -0.00481332 0.00976386 0.0125908 -0.00993397 -0.00414067 0.0221478 -0.0124059 -0.00594567 0.0106781 0.0132015 -0.0103129 -0.0226813 -0.00165035 0.000681625 -0.0102796 -0.0108915 -0.0182778 0.00423728 0.0402713 -0.0219601 0.0252177 -0.0200663 0.00311877 0.019645 -0.012426 -0.0153843 0.0232014 0.00991115 -0.000512534 0.00872054 -0.0121313 0.0194657 0.0233321 -0.000481217 0.0209648 -0.00329347 0.0218353 -0.0130925 -0.00460665
37483 0.0244214 -0.0870173 0.109495 0.10857 0.0546458 -0.257332 0.0505215 0.0222274 0.0139127 -0.159479 0.0277426 -0.104533 0.158876 -0.15386 0.0472233 0.016773 0.130735 -0.0706695 -0.0750488 -0.12544 -0.0291474 0.187953 0.051898 -0.0251848 0.0307346 0.0145811 -0.115031 -0.0677613 -0.102006 0.0413928 0.0562344 -0.0149518 0.281387 0.311625 0.114377 -0.323729 -0.0840024 0.146118 -0.376828 0.0722938 -0.116849 -0.0629981 0.0360262 0.0578006 -0.0752834 0.420421 -0.142133 -0.0785262 0.109235 -0.311119 -0.148853 0.0608854 0.0276069 -0.0302712 0.0950235 -0.00361707 0.0614391 0.0591311 0.0663145 0.185638 -0.0809106 0.151861 0.0603541 0.107596
28447 -0.219025 -0.129321 -0.0556006 0.0239591 0.114879 0.454596 -0.0660128 0.307274 0.124386 -0.107751 -0.0172858 -0.185664 0.167191 0.42061 0.0911539 -0.245658 -0.00558467 -0.218323 -0.47841 0.104361 -0.066281 -0.349123 0.00342273 0.172523 -0.00823629 -0.311675 0.202756 -0.33287 -0.173005 0.214702 -0.422951 0.431096 -0.0216178 -0.364915 -0.310877 0.0696448 -0.208696 -0.461171 0.504853 0.035191 0.29162 -0.0303675 -0.0486469 -0.589962 0.412139 -0.0487192 -0.0168856 -0.318559 -0.450161 -0.07863 0.0784274 0.0228212 -0.193231 0.134124 0.141859 0.0116833 -0.0885071 -0.194738 -0.243155 -0.394801 -0.117484 -0.282849 0.283302 -0.0418004
1125092 0.0106752 0.0521773 0.0028459 -0.0621267 0.0381161 0.0796111 0.00126653 0.0143242 0.025129 0.044047 -0.0741479 0.0381648 -0.0194463 0.04231 -0.00439848 -0.0126739 -0.004064 -0.048673 0.0181456 0.0275011 0.00805701 -0.0256492 -0.0106895 -0.0484466 -0.0501302 -0.0135815 0.0643995 -0.0494059 0.0845473 -0.0237575 -0.0180095 -0.0578392 -0.0282233 -0.11994 -0.011128 0.09783 0.0168479 -0.00886404 0.073235 -0.0269602 0.0176694 0.0523523 -0.0532952 -0.0246276 -0.0152928 -0.100759 0.0486612 0.0113833 -0.0418198 0.0539515 0.0354408 0.00421144 -0.034039 -0.0114892 -0.0425348 -0.017846 0.0316939 -0.0235831 -0.0102725 -0.0826996 0.0322362 -0.0320753 0.0206814 -0.0275588
50980 0.00722795 0.000365972 -0.00527462 -0.00500689 -0.00670261 -0.00508041 -0.00623067 0.00055898 0.00721861 0.00324156 -0.00616925 0.00155079 -0.00464034 0.000326773 -0.00390083 0.0025912 -0.00366975 0.00419485 -0.00349824 0.00267041 -0.00624068 -0.00468241 -0.00773939 0.00647424 0.00485012 -0.000382925 0.00579693 0.00730915 0.00592898 0.00524969 0.00492264 -0.00434716 -0.00701492 -0.000602819 0.00584245 -0.00568202 0.00488687 -0.00583878 -0.00665335 -0.000566127 -0.00779969 0.00651599 -0.00544531 0.00731828 0.00297321 0.00240591 -0.00221665 -0.00289134 0.00547098 -0.00570627 0.00526292 -0.00323381 -0.00712486 0.0021832 0.00334912 0.00610251 -0.00551451 0.00440856 -0.00393313 -0.0008174 0.00327225 -0.00128331 0.000851935 -0.00679833
1121398 -0.01332 0.0800589 -0.0180239 -0.0871509 0.0687655 4.83961e-06 0.0374205 -0.0328657 -0.0106764 0.0430418 -0.0702419 0.0286063 -0.0451517 0.0159836 0.0120272 -0.0153296 -0.0544862 -0.0281232 0.00832019 0.0641203 0.0261912 -0.0929905 0.00671648 -0.0394974 -0.0552774 -0.0209627 -0.00970052 -0.00506369 0.128116 -0.077693 -0.0102571 -0.0129159 -0.0539179 -0.105921 0.0194904 0.0550532 0.090035 0.0199773 0.103243 -0.0215235 0.0351519 0.0294965 -0.0172464 -0.00942778 -0.0303677 -0.149406 0.0928441 0.0200736 -0.0852883 0.0836504 0.0195122 -0.0432932 0.006885 0.0089615 -0.035643 0.0519441 -0.045126 -0.0600702 -0.00521622 -0.113276 0.0135771 -0.0181259 -0.0462532 -0.0690272
110162 -0.0229117 -0.0764931 -0.0224381 -0.0100062 -0.0477764 -0.0175984 -0.000167635 -0.0114437 0.042325 0.0205352 0.0403396 -0.00400077 0.00813739 0.0260209 -0.0529606 -0.0186908 0.0159627 -0.0396819 0.0331398 -0.00623625 -0.0192886 0.0144467 -0.00528077 0.0462012 -0.00140007 -0.0239818 0.0510079 0.00183269 -0.055623 0.000307676 -0.0190649 -0.00668056 -0.0123852 0.0475782 -0.0530279 -0.0243617 0.00670995 -0.00115553 -0.0604579 -0.00556329 -0.0152327 0.00234428 0.0376185 -0.0480823 -0.09104 -0.0189596 0.0291163 0.0551523 -0.0491309 -0.0464889 0.053222 -0.0345152 -0.0462614 0.0293825 0.00451202 0.0443213 0.0209949 0.0342294 0.00915811 -0.0102022 0.00270478 -0.0221703 -0.0274563 -0.0199135
416867 -0.00106904 0.0176962 -0.0353477 -0.0296813 -0.01432 0.0107697 0.00760186 0.0489932 0.0192438 -0.0836328 0.0261996 -0.0221917 -0.0495023 0.0949876 0.0129004 0.038146 -0.0369013 0.0238553 0.00312438 -0.0295842 0.00128454 -0.0157848 0.031186 -0.00461298 0.0544093 0.0407624 -0.0630831 -0.0384738 -0.0602733 -0.00664175 0.0418386 -0.0259831 -0.0372801 -0.009818 0.0252366 0.0369651 0.0224477 -0.0209528 -0.0410154 0.0048632 -0.0043586 0.00603981 0.0376718 0.0132057 -0.0367156 -0.0135551 -0.0304571 -0.034878 0.0269531 0.00236728 0.045379 0.0100271 0.000882266 -0.0246509 -0.0430723 0.000720031 0.00931471 -0.00860246 0.0319741 -0.0391562 0.0532546 0.050921 0.00634249 0.0133565
321004 0.00145744 -0.00314903 0.00627669 -0.00774272 0.00420104 -0.00415219 -0.00120813 0.00165287 0.00293518 0.00753449 0.00537156 0.00280354 -0.00294344 -0.00346565 -0.00197439 0.00461973 0.00204548 0.00338991 -0.00676216 0.00723432 -0.00206857 -0.00534354 0.00114524 -0.00511734 -0.00441959 0.00512498 -0.00698671 0.00641828 0.00441943 -0.00207045 -0.00487507 0.00100307 -0.000675603 0.00102855 -0.00724171 0.000951722 0.00366725 0.00625559 -0.00564412 0.00102499 0.00751412 -0.00502046 -0.00563208 -0.000278222 -0.00594645 0.000849346 -0.00569535 -0.00780232 -0.00633577 -0.00293961 -0.00734235 -0.00492841 0.000685777 0.00488148 0.00161791 -0.000255613 0.000875271 -0.0011196 0.00239944 -0.00281785 -0.00106875 -0.00275339 0.000409071 0.00259613
3187 -0.010008 0.0452544 -0.27947 0.0319448 -0.0249575 -0.2345 -0.217533 -0.143745 0.106931 -0.00949577 0.0406229 0.0506628 0.10666 0.169995 -0.132805 0.133255 0.0449316 0.016388 0.164288 -0.206425 -0.213651 -0.16187 0.0343925 -0.156223 0.00912199 0.0748077 -0.0147346 0.282419 0.0568254 -0.188395 -0.0417941 -0.0792837 0.142045 0.0320751 0.0082178 -0.161096 -0.123136 0.113522 0.0908017 0.0140686 -0.0834075 -0.0967614 0.00869384 0.0707016 -0.14136 0.115508 0.0926801 0.13826 0.192218 -0.067445 0.0141597 0.0391126 -0.320372 0.176185 -0.0247924 -0.0498162 -0.0988111 0.122428 -0.14041 0.0881319 -0.2415 -0.0988484 0.244613 0.0618574
45212 0.0272404 -0.116181 0.00424657 0.0313623 0.0320769 -0.0734592 0.0744007 -0.0368914 0.0393568 0.00720855 -0.0327886 0.0418741 -0.0293915 -0.105501 0.0596871 0.0220361 -0.000909435 0.0500241 0.01427 0.0575665 0.0708449 0.0128577 -0.00646026 0.0115097 0.0444277 0.0198693 -0.0937865 0.0748235 0.0993533 -0.0458293 0.0336656 -0.0613269 -0.042375 0.0237849 -0.000178945 0.0154581 0.0534062 0.0533099 -0.0338512 0.00172069 0.0202009 -0.0213856 -0.0384443 -0.00999715 -0.0525493 -0.0251104 0.0629231 -0.0227364 -0.0911235 0.112182 0.0255148 -0.0798694 0.011626 -0.0117652 -0.0489909 0.021221 -0.0889837 -0.0805591 0.00410601 -0.0407282 -0.016788 0.0513577 -0.0602291 -0.0540957
576973 0.0175358 -0.0585702 0.00722847 0.0466857 -0.060792 -0.0581085 -0.0061339 -0.0436238 0.00161915 -0.0499047 0.0442874 -0.0329424 0.0102497 0.00124431 -0.0370664 -0.00348168 0.0320492 0.0250311 -0.00715128 -0.0736604 -0.0665776 0.129484 0.0048133 0.0752067 0.0104851 -0.00784049 0.00870803 -0.0473588 -0.174287 0.0620941 0.0107505 0.0441691 0.0586737 0.130051 0.00307277 -0.090123 -0.0813654 -0.0607762 -0.101631 -0.0174199 0.0297396 -0.0689336 0.00648849 0.0192097 0.0281624 0.226365 -0.129572 0.0166493 0.103847 -0.130539 -0.0848377 0.045198 -0.0425314 -0.0125611 0.0335637 -0.0951214 0.106773 0.0930913 0.0547969 0.11522 0.0108391 0.0351516 0.0484293 0.100209
686061 0.0920534 -0.0358098 0.0521711 -0.0545869 -0.00848838 -0.0329747 0.0354224 0.0729758 0.0228375 -0.0143908 -0.0210267 -0.0724656 0.0304484 0.0060249 0.106311 -0.0617901 0.0205539 0.0424339 -0.0579088 0.0551323 0.041014 -0.08147 -0.0509769 0.0895726 0.104285 0.0162734 0.0118435 0.0457615 -0.025861 0.0392347 -0.0236248 0.0778972 -0.0738698 -0.0583389 0.0476335 0.0535636 -0.0612136 0.0443546 0.0271058 -0.00182874 -0.00294765 0.0577863 -0.0442717 -0.0967828 0.00693242 -0.104265 0.101634 -0.0951215 -0.0647481 0.00969475 -0.0397318 -0.00459433 -0.00249385 0.0322672 -0.0938717 0.0172795 -0.0344245 -0.0279894 0.0201752 -0.0329902 -0.0912109 0.0858854 0.033395 -0.00417511
1114442 -0.0837913 0.0424794 -0.0564425 0.0106437 0.0951627 0.0310708 -0.0188794 0.0183551 -0.00274586 -0.0521548 -0.0114885 0.0231376 0.0782189 -0.0202759 -0.0191495 -0.0137479 -0.017378 0.094962 -0.0161081 0.049226 0.0197533 -0.148262 -0.00975718 -0.151095 0.00789693 -0.0616725 0.0706488 -0.00172071 -0.00976174 -0.13813 -0.0810609 0.00922456 -0.00891995 -0.0530701 0.0489304 0.0574316 -0.0149284 0.00305821 0.0736055 0.00486419 0.023291 0.0562213 0.0324998 -0.0410306 -0.0303461 -0.150972 0.127858 0.00460102 -0.115846 0.0901055 0.0613791 -0.068816 0.0482935 0.0312247 -0.00691436 0.171062 -0.0608491 -0.0558973 -0.0313875 -0.189884 0.0634435 -0.0714258 -0.0141774 -0.013644
2653 0.12246 0.286934 -0.170567 -0.0537118 -0.0568744 -0.247801 0.430255 -0.213694 0.0725443 0.357149 -0.034983 0.0821775 0.109926 -0.36928 0.129524 -0.161066 -0.0958882 -0.126819 0.254432 -0.0122943 0.12192 -0.00862903 -0.0297421 -0.0244774 0.135222 -0.24322 0.113407 0.148034 0.289823 -0.152047 -0.103203 0.0640314 0.129835 -0.000373306 0.0981576 -0.101928 0.11848 -0.0889458 -0.0297488 -0.116011 0.17959 -0.00795277 -0.104907 -0.188752 0.0486351 -0.2287 0.0296772 0.284062 0.180052 0.245611 0.31551 0.263615 0.289751 -0.0614241 0.0690146 0.0360874 -0.234544 -0.22386 -0.192508 -0.183556 -0.0142968 -0.075511 -0.149217 0.0392249
1120731 0.101199 -0.212275 -0.0502593 0.14641 0.283028 0.0413475 0.000280341 -0.0457144 -0.065582 0.0975521 0.0436146 -0.0643489 0.275382 -0.0870042 0.152001 -0.10781 0.194956 0.0613593 -0.290792 -0.00387822 0.215297 -0.287313 0.00309134 -0.210896 0.201964 0.0080684 -0.127551 0.277028 -0.00123113 -0.235244 0.183395 -0.171812 0.133063 0.183361 -0.0930291 0.0117651 0.105079 0.109755 -0.203675 0.102177 0.146461 -0.22448 -0.0136061 -0.138842 -0.0464163 -0.205755 0.0991714 -0.105154 -0.0324186 0.268358 0.218251 -0.336364 -0.034783 0.149218 0.000911911 0.170933 -0.173272 -0.122746 -0.104751 -0.292827 0.0457394 -0.131334 0.130955 -0.0389681
1113614 0.130049 -0.040588 0.0618521 0.125347 -0.263758 -0.316754 0.0370738 -0.112931 -0.0488059 -0.120472 0.149236 0.00254698 0.0797822 -0.201051 -0.161113 0.123524 0.0907648 0.159724 0.209486 -0.183511 -0.0712536 0.501245 0.0840222 0.121831 0.0796131 0.280358 -0.114523 0.0878835 -0.310486 0.0444421 0.240578 -0.113826 0.206624 0.492074 0.156435 -0.259794 -0.119945 0.140849 -0.480639 -0.00124776 -0.139859 -0.0773542 0.0734558 0.290685 -0.0983165 0.534787 -0.250825 0.119526 0.468784 -0.340733 -0.214415 0.118591 -0.0136567 -0.103534 0.0982593 -0.142188 0.306543 0.277747 0.170947 0.44214 0.000133461 0.27301 -0.0354173 0.177688
486840 -0.0132874 0.138214 0.00113863 -0.125938 0.0861872 0.0258271 0.0207539 -0.0512258 -0.0033746 0.0178748 -0.108829 0.0287502 -0.0685135 0.0362081 0.0475844 0.0150953 -0.10212 -0.0260028 0.0216713 0.0793331 -0.0235907 -0.172171 -0.00408048 -0.101297 -0.0286927 -0.00714436 -0.00439693 0.0184507 0.203751 -0.0998619 -0.0292305 -0.0595984 -0.0976948 -0.187279 -0.0107907 0.132237 0.111368 0.0502321 0.182284 -0.0650055 0.0513524 0.0807995 -0.0298792 -0.0610506 -0.0267008 -0.305012 0.116292 0.0725231 -0.141966 0.135915 0.0708343 -0.0772464 0.0247151 -0.0111868 0.0209141 0.0916248 -0.0550561 -0.0832987 -0.0213709 -0.118695 0.0546346 -0.0132499 -0.0260177 -0.0980061
1105574 -0.00961464 -0.0517982 -0.049175 0.063106 -0.0453804 0.0935257 0.0747556 0.131195 0.195169 -0.00156914 0.094425 -0.130069 0.0555302 0.0106559 0.0480597 0.205112 0.0903671 -0.150258 0.132164 -0.056352 0.0138423 0.151512 -0.0474074 0.222307 0.173915 -0.00143585 -0.0104885 -0.12671 -0.107532 -0.0585447 0.0754513 -0.0594396 -0.119815 0.0158882 0.0707952 0.107965 -0.082105 -0.0581052 0.00375937 -0.0522278 -0.294207 0.153434 0.0863069 0.168813 0.0186312 0.176461 -0.0403628 -0.0124089 0.0810292 -0.0647206 -0.0206664 -0.0353472 0.0434586 -0.0631263 -0.0292991 0.0132719 0.169293 0.0143613 0.162585 -0.0202702 -0.176632 -0.0984587 -0.00192166 0.039767
126927 -0.026701 0.0457297 -0.00157932 0.129854 -0.0509994 -0.0379386 -0.198058 -0.29388 0.0216614 -0.0217179 0.0556213 -0.0228256 0.113297 -0.0757901 -0.164547 0.0699192 0.13858 -0.187629 0.126054 0.179191 -0.320838 0.206234 -0.100271 0.171301 0.229876 0.0759281 0.125842 0.128229 0.128061 0.0949308 -0.077175 -0.0893861 0.0189507 0.0936529 -0.0682673 -0.100573 -0.00543318 0.0395128 -0.0744007 -0.0671037 -0.150438 0.240386 -0.171063 0.0439942 0.0439715 0.203559 0.0987462 -0.0160701 0.240117 0.0775964 -0.144296 0.226439 -0.064856 -0.135181 0.224995 0.0837853 -0.135379 -0.0129068 0.199083 -0.026424 0.0389262 0.206289 -0.0839515 0.0300402
81722 -0.0101049 0.033901 -0.00490271 -0.042504 0.107611 0.136159 0.0145456 0.0702091 0.0099067 0.0240079 -0.0481443 0.0303689 -0.0275139 0.0651907 0.110023 -0.103552 -0.0245318 0.0166739 -0.0758078 0.0886699 0.0799623 -0.130936 -0.0343475 -0.101653 0.00121959 -0.0459141 0.0384113 -0.0140201 0.128249 -0.0125843 -0.0730907 0.0311172 -0.110428 -0.200192 -0.0229593 0.0310367 0.037577 -0.0334252 0.145002 0.0127523 0.0471476 0.101298 0.0425242 -0.091883 0.0179009 -0.219757 0.145116 -0.0557538 -0.226803 0.15645 0.106814 -0.076385 0.030193 0.0262255 -0.0216075 0.122256 -0.10541 -0.11874 -0.104575 -0.114868 -0.0359944 -0.0439926 -0.00107023 -0.178547
1133047 -0.0174062 0.0557873 -0.0188439 -0.0560451 0.0931868 0.0910737 0.0078344 0.050076 0.00904913 0.0725796 -0.0694843 0.0482112 -0.0457737 0.0227725 0.0713927 -0.00392261 -0.0380236 -0.000595165 -0.00598503 0.0910668 0.0766375 -0.157054 -0.0212609 -0.0880116 -0.0333024 -0.0154538 0.00177052 0.046231 0.201329 -0.106943 0.00653978 -0.0339179 -0.0924095 -0.168422 -0.00972169 0.122308 0.0747336 0.0534768 0.144606 0.025541 -0.0244028 0.0820114 0.000522679 -0.0323547 -0.0284797 -0.258395 0.125058 -0.0170712 -0.13627 0.166391 0.102342 -0.069395 0.0844659 -0.000223476 -0.0547678 0.119373 -0.14123 -0.116761 -0.0719174 -0.142102 -0.00383734 -0.0495328 -0.065947 -0.117592
36131 0.0232278 0.104649 0.0737665 -0.00706861 -0.00335414 -0.0845517 -0.025614 -0.140398 -0.0348949 0.0890114 -0.0535108 0.101144 -0.112022 -0.0954597 -0.0149257 0.0833305 -0.0707728 0.0180366 0.0849265 -0.0410731 -0.0111341 -0.0244664 0.0433564 -0.0803289 -0.092097 0.0339553 -0.072751 0.0653463 0.184241 -0.0567513 0.0927691 -0.110303 -0.0617828 0.0556709 0.109496 0.0769066 0.147969 0.154032 -0.0501764 -0.0120265 -0.0695054 0.0178154 -0.00768697 0.181402 -0.105169 -0.178084 0.0332656 0.0957412 -0.000732822 0.102436 -0.0507673 -0.0543445 0.0185758 0.0113544 -0.0521646 0.0118449 0.00854261 -0.0191083 0.0159278 0.0234351 0.0534263 0.0367774 -0.0571563 -0.0414949
293285 0.0710654 -0.0515817 -0.0871456 0.0761705 0.129744 -0.12836 0.116167 -0.125743 -0.08362 0.122959 0.0782463 -0.0449518 0.230017 -0.0446555 0.0767214 -0.0717341 0.122929 0.0406372 -0.0881819 0.0728369 0.12952 -0.168978 0.034021 -0.28507 0.140224 -0.0061726 -0.197516 0.235092 0.078026 -0.252212 0.100826 -0.174838 0.210991 0.213663 -0.0819449 0.0506564 0.170662 0.113851 -0.191556 -0.0674933 0.00681577 -0.141547 -0.000503281 0.0193362 -0.14985 -0.0507547 0.148049 0.0531752 0.10588 0.196887 0.291621 -0.189941 -0.0204169 0.171827 0.0367094 0.111873 -0.223577 -0.0646476 -0.0640796 -0.21081 -0.0795961 -0.00154557 0.0861914 0.109837
153063 -0.0990735 0.020767 0.0334665 -0.0267364 -0.1079 0.0223025 0.0172556 -0.0902662 -0.0305168 0.0138054 0.0433643 -0.0488935 -0.0680761 0.113454 0.0720689 -0.0442621 0.118672 -0.157966 0.0214698 -0.0348658 -0.046863 -0.10271 -0.099163 -0.130885 -0.0482983 0.0353842 -0.00915277 0.203336 0.112327 -0.0517926 0.00434529 0.167231 0.00621239 -0.0487835 -0.0937885 -0.0222214 -0.0861416 0.0767722 -0.0120758 0.00751915 -0.0965234 -0.0382341 0.0336764 0.0285664 -0.0353683 0.0615283 0.0306506 0.00283272 -0.010425 0.0645034 0.0226068 0.0778838 0.0524749 0.0465788 0.0182089 0.0377905 0.0544432 0.0688548 0.0275024 0.0351895 -0.231888 0.113905 0.0263641 -0.0150809
72056 -0.00413029 0.0305636 0.0122582 0.0111855 -0.0132116 0.01549 0.00248218 0.05517 -0.0131175 -0.00927301 -0.0102951 0.0137544 -0.0418499 -0.00674961 -0.0170164 -0.0167595 -0.00231574 0.0293597 -0.0279474 0.00597007 -0.0350294 0.00844596 -0.0493571 -0.0100819 -0.0277553 -0.0334641 0.00445152 -0.0305271 -0.0233497 0.0243629 -0.0114158 -0.0224102 0.0135981 -0.0231046 0.0440788 -0.00409177 -0.0126192 0.0155415 -0.0241906 -0.013082 -0.0188163 0.0163792 0.0158417 0.0398025 -0.032114 0.0125007 0.01849 -0.00796528 0.0105241 0.00246059 -0.0216932 -0.00496753 0.0189974 -0.0175524 -0.010161 0.0235065 0.0213984 0.0257123 0.0150768 0.00174155 0.00912596 0.0537969 0.005448 0.000927052
574710 0.0341421 0.21941 -0.0390768 -0.170246 -0.155518 -0.191219 -0.00896552 -0.144993 0.0419859 0.016949 0.00419864 -0.0570403 -0.0179625 -0.12016 -0.239898 0.221945 0.0207128 -0.0662344 0.249974 -0.0917414 -0.112109 0.0520463 0.0331205 0.0963559 -0.107908 0.122219 -0.0777887 0.0820779 0.0925904 -0.0821971 0.18799 -0.249989 0.080822 0.136469 0.105068 0.15449 0.0153169 0.158872 -0.145591 -0.0386139 -0.0729484 -0.0262232 -0.106668 0.112789 -0.210276 -0.10775 -0.0862959 0.176655 0.305486 0.0251834 -0.0684807 0.165817 0.0133461 0.00781102 0.0471869 -0.100108 0.337656 0.172971 0.0326312 0.127274 0.124033 0.154656 0.0805165 0.183934
48766 0.0770195 0.0877429 -0.0346436 -0.208568 -0.0159819 -0.278181 0.163749 -0.214526 0.0323337 -0.0777271 -0.219738 0.0903529 0.0383969 0.00914066 -0.136986 -0.0372106 -0.176415 0.0297884 0.0244457 -0.0898285 -0.159357 -0.183399 0.108028 -0.16099 -0.0473981 0.216159 0.0506359 -0.00218977 0.112212 -0.104122 0.0246127 0.161758 0.0772096 0.0726992 0.0428509 -0.128883 0.114232 0.0385039 0.0369523 -0.0536164 0.156525 -0.0244718 -0.0378667 0.0994655 0.0769854 -0.0115833 -0.0573262 0.237002 0.0338049 -0.0590413 0.0521114 -0.0186435 -0.0680005 0.0123205 0.228077 0.134953 -0.014855 -0.0783546 0.0954013 -0.121722 0.0835322 0.109112 -0.00292696 0.0324294
49660 -0.0297692 0.215804 0.0401815 0.0521219 0.108279 0.291188 -0.0276874 0.143441 0.0686532 0.0742082 0.0334105 -0.0461742 -0.0961776 -0.0154277 -0.0438808 -0.137411 -0.00415518 0.0659583 -0.0200224 -0.112708 0.0136294 -0.0515899 0.102279 0.076767 -0.051005 -0.186283 0.284407 0.0841103 0.147522 0.0608505 -0.0740059 0.148523 -0.236923 -0.0725769 -0.161718 0.000153328 0.0782948 -0.101867 0.311443 0.0333033 -0.0195446 0.106658 -0.115939 -0.269575 0.172687 -0.122253 -0.0961856 -0.201655 -0.0491753 0.0106038 0.0208284 0.0313682 -0.0334362 0.0041216 0.0480618 0.0193372 -0.0982818 0.000897489 -0.159432 -0.0523171 -0.0132739 -0.218993 -0.120072 0.0288118
5966 0.00162686 0.201729 0.0454243 -0.0779028 -0.0725958 -0.0131429 -0.091459 0.0695546 -0.0260406 -0.0778148 0.131389 0.08695 -0.254925 -0.100484 -0.000141182 0.0970382 0.0651658 0.00348841 0.224037 -0.20241 -0.0591145 0.0979906 0.127331 0.0384717 0.0089321 0.0768228 -0.123312 0.0146017 -0.0178542 0.116036 -0.00257647 -0.0844039 -0.0148631 -0.100231 0.0221461 0.185837 0.118814 0.0861474 0.0550799 -0.00737751 -0.0283246 0.0835811 0.208201 0.0918474 0.10692 0.0273929 -0.153849 0.112394 0.219375 -0.0761908 -0.0131016 0.141398 0.0722306 -0.0328126 -0.0811068 0.00515342 0.20238 -0.0590176 0.108888 0.0459149 0.0153634 0.112929 -0.0840256 0.0331089
75318 -0.0468019 0.0179013 -0.0285532 -0.0164436 0.0430972 -0.0319596 0.0296325 -0.0298777 -0.0143971 -0.00267585 0.00722979 -0.0908066 0.00726733 0.0342657 0.0406278 -0.0478486 -0.0502408 -0.0865716 -0.0155665 0.00323887 0.0508838 0.0414271 0.0324326 -0.00850634 0.0293314 -0.0323846 -0.077942 0.0560446 0.0088377 -0.015013 -0.0177994 0.0575002 -0.013697 0.000871851 -0.00589607 -0.0247983 0.0186931 -0.0480715 -0.0128611 -0.0208558 -0.00783425 0.0414776 0.0138068 -0.0163413 0.0246151 0.00587674 -0.0264593 0.0274178 -0.0272499 0.0564899 0.0466495 -0.000785304 0.0276463 -0.0467909 0.0251721 0.0145763 -0.0204001 -0.0345054 0.00541603 0.0432732 0.00510642 -0.00107586 -0.0336349 -0.0101636
1125597 -0.00406573 0.0227717 0.00422012 -0.015486 0.0725884 0.0660445 -0.0128378 0.00619934 -0.00912688 0.0365032 -0.0355687 0.00922653 -0.0502157 0.0111265 0.0735455 -0.00746088 -0.000151872 0.000315966 -0.0107339 0.0528716 0.0513074 -0.11806 -0.0452605 -0.0904667 0.000668376 -0.0385767 0.0149508 0.0347115 0.133253 -0.0464862 -0.0229474 -0.0269342 -0.0707655 -0.121647 0.00362211 0.0853492 0.071619 0.0138088 0.0627709 -0.0102532 0.0062549 0.038834 -0.0111818 -0.017464 -0.0449318 -0.193441 0.121556 -0.013694 -0.0995918 0.12115 0.0736514 -0.0609025 0.0402186 0.0149409 -0.0571347 0.0594217 -0.0548896 -0.0839061 -0.0566548 -0.0791672 0.0115921 -0.0561062 -0.0475391 -0.0788503
16485 0.00283833 -0.0215923 0.0875957 0.00167707 -0.0310195 0.052539 -0.0186703 -0.26754 0.0931256 -0.0427158 -0.0868031 0.165317 -0.0850796 -0.0247103 -0.078337 -0.019275 -0.129238 -0.104054 -0.165505 0.173816 -0.0147515 -0.103606 -0.0245738 -0.0570281 -0.130965 -0.0724609 0.0400925 -0.0981694 0.208372 -0.144643 0.194835 -0.148936 -0.038528 0.125747 -0.0180912 0.116907 0.0759521 -0.00491116 0.0330954 -0.0319288 -0.0403439 0.0682776 -0.037856 0.141886 -0.038993 -0.220769 0.048067 -0.0108482 -0.056931 0.139816 -0.125757 0.00809069 -0.00218288 -0.16683 0.0713706 0.0885869 0.0649393 -0.0176675 -0.0349838 -0.0775056 0.178143 -0.00959596 -0.0443676 -0.221601
193354 0.00142718 0.0179014 -0.00165449 0.0113459 -0.0146412 0.00363428 0.0107077 0.012873 0.00472708 -0.0148252 0.0191998 0.00485209 0.0173886 -0.00686762 0.0154663 -0.0138965 -0.00476993 0.00559566 0.00133342 0.00922353 -0.00700591 -0.0105089 0.00845721 -0.0145525 0.00931544 -0.0275911 -0.0106091 -0.00451573 -0.0176219 -0.0031723 0.00554403 0.0103723 0.00341069 0.00949928 0.00662192 0.0113578 0.0186751 0.00530463 0.00560588 0.00263243 0.00331701 0.0205753 -0.0107094 0.00337627 -0.00388025 -0.0129494 -0.00433078 -0.0071251 -0.0170965 -0.0259679 0.0137988 0.0128337 -0.00930138 0.0187174 -0.004199 -0.0145174 -0.00671956 0.0287142 -0.0115306 -0.00341179 -0.00820164 -0.0171388 -0.0129918 -0.00464485
1272 -0.786251 0.140346 0.0652598 -0.41927 -0.175502 1.03676 -0.340253 0.489187 0.148816 -0.281265 -0.161265 -0.0126326 -0.444718 0.532077 -0.427389 -0.418082 -0.215274 -0.400889 -0.592096 0.101375 -0.274339 -0.627609 -0.171434 0.728785 -0.383646 -0.257008 0.848604 -0.873432 -0.262009 0.746097 -0.754982 1.22545 -0.451998 -1.0904 -0.0218429 -0.103045 -0.358609 -0.776801 1.30606 0.291559 0.185663 0.442013 -0.120579 -0.83537 0.777136 -0.514187 -0.421785 -0.401342 -0.889831 -0.334947 -0.553956 0.436229 -0.443646 -0.264391 0.0924837 -0.0757157 0.179436 -0.13365 -0.18036 -0.234674 -0.181693 -0.776828 0.335342 -0.252967
1128959 0.0364612 0.130932 -0.0529355 -0.195296 0.0369756 -0.0130477 0.0240512 -0.073673 -0.00683886 0.0349411 -0.108145 0.0156813 -0.0345276 0.0149594 -0.0338319 0.0244869 -0.0492161 -0.0457485 0.075165 0.0176209 -0.0173071 -0.159458 0.0111289 -0.11987 -0.0593169 0.0228525 -0.0469766 0.0731714 0.209658 -0.128851 0.0561478 -0.102604 -0.0357744 -0.105006 -0.000938672 0.15985 0.116549 0.038838 0.0695042 -0.0116626 0.025277 0.0607656 -0.0741241 0.0115157 -0.0865489 -0.333829 0.0763392 0.0962954 -0.0267543 0.173992 0.133793 -0.00777866 0.0295931 0.0538994 0.00268476 0.0603594 0.0307831 -0.0668637 -0.030267 -0.132955 0.0570739 0.00628719 0.0217473 -0.00562464
1110209 -0.00543334 -0.0946651 0.0251415 -0.0468275 -0.0197702 -0.0188594 -0.115603 0.0812876 -0.052206 -0.0481441 -0.0264454 -0.0265484 -0.0311512 0.0463708 0.0131388 -0.00217635 0.045529 -0.0209528 0.0548993 -0.0857099 -0.088709 0.0826648 0.000598916 0.00564258 -0.0231846 -0.0367275 -0.0275401 -0.0412506 0.00572912 0.00337014 -0.0290731 0.0657026 0.0315964 -0.0284346 -0.111262 0.000117372 0.107085 -0.0215718 0.0703098 0.00388461 -0.047757 0.0718906 -0.0976046 -0.00143418 -0.0592498 -0.030782 -0.0493749 -0.0558673 -0.00687881 -0.0195367 0.0191046 -0.075418 -0.0474383 0.0635454 0.116494 0.0591704 0.0124302 -0.14727 -0.0189838 -0.00312407 0.0285675 0.00335541 -0.0525874 0.0547554
1131345 -0.00736635 -0.0103075 0.0070031 0.00469926 -0.00817766 -0.0118446 0.00378381 0.00130115 0.00896816 -0.0158763 -0.000391061 -0.000315519 0.00205786 0.00424009 0.0151919 0.00731787 -0.0158585 0.0248937 0.0102432 0.00925054 0.00621788 -0.00361649 -0.00149688 -0.011354 0.0124944 0.00215178 -0.00154291 0.00560945 -0.0122686 0.00396299 -0.0100355 0.00263393 0.00665614 -0.0218692 0.0137568 0.0155442 -0.00115101 -0.0049009 0.0227261 0.00181272 0.00339537 -0.00855131 -0.0124909 -0.0130654 -0.00304219 -0.0118918 -0.00185562 0.00594554 -0.0091453 0.0129105 0.00945065 0.0108467 -0.00462184 0.0206693 0.011965 -0.00988431 -0.00304469 0.00362012 0.00957036 0.0140566 -0.00199545 0.00131739 -0.00719323 -0.0109273
111770 0.0150512 -0.00405115 0.0120827 0.0113157 0.0136963 -0.00201525 -0.00764216 -0.019745 -0.00260605 -0.0147404 -0.000698145 0.00113498 -0.0080016 0.000996529 -0.000523115 0.00802167 0.0042314 0.00612809 -0.0158155 -0.00713989 -0.00974989 0.00897075 -0.00117797 -0.0061785 -0.00619841 0.00840637 0.0103556 0.006129 -0.00681628 0.00224048 -0.00570172 -0.00170962 -0.0052997 -0.00334141 0.00606895 0.00766966 -0.0116301 0.00191484 -0.0058925 0.00403372 -0.00627129 0.0164254 0.00488651 0.00718088 0.00899234 0.000132124 -0.00298765 -0.00695011 0.00340169 -0.0151419 0.0147759 0.002427 0.0101763 -0.0041983 0.00863656 0.0114847 -0.00827757 0.00623142 -0.000530594 -0.0133672 -0.00566915 0.00435681 0.0122253 0.000765709
1128997 0.0448761 0.0979618 -0.0518308 -0.178735 0.0910609 0.000841223 0.132225 -0.157885 0.038081 -0.0557362 -0.12407 0.0120404 0.0388432 0.0883656 -0.0298855 -0.0638443 -0.118592 -0.0179936 -0.0653899 0.0138204 -0.0858601 -0.134384 0.0651845 -0.0939997 -0.0370052 0.108948 0.0194567 0.00471218 0.053062 -0.133115 -0.0711783 0.15735 0.00389924 -0.0537324 0.0305337 -0.0612165 0.0488334 -0.0499527 0.110185 -0.0860557 0.146899 -0.0145865 0.0216069 -0.0706631 0.112991 -0.0334723 -0.00634481 0.116566 -0.179396 0.0234345 0.0523225 -0.0370902 -0.0395792 0.0283678 0.162403 0.0563415 -0.00907048 -0.125768 -0.0112623 -0.159566 -0.0174573 0.0168804 0.0145047 -0.0987795
6169 0.082737 -0.00616667 0.0268999 0.00493776 0.000775372 -0.158624 0.0988433 -0.169438 0.00781552 0.0301243 0.0922015 0.0378341 0.0517042 -0.0970008 -0.0400827 0.0330354 0.0171655 0.0380652 0.0459609 0.05495 0.0426363 -0.0498127 0.0129536 -0.150352 0.0349541 0.0350088 -0.117299 0.168858 0.0197877 -0.194856 0.159948 -0.133265 0.085326 0.123745 0.113869 -0.0153496 0.149936 0.138199 -0.163992 -0.0369809 0.0123894 -0.0421662 0.048968 0.12468 -0.153833 -0.0772715 0.0136909 0.0880603 0.150891 0.0804223 0.0657055 -0.057426 0.0632659 0.00386503 0.0354294 0.0105004 -0.0620369 0.019437 0.000610414 0.0390132 -0.0791954 0.0245608 -0.071428 0.0494033
634902 -0.00612247 0.139337 -0.02205 -0.176954 0.124921 0.0451877 0.021093 -0.0914224 0.039392 0.0935139 -0.154052 0.0999167 -0.105403 0.0228343 0.0547752 0.0160635 -0.132499 -0.00202548 0.00451253 0.0842511 0.0275791 -0.258039 -0.0111359 -0.150074 -0.0961271 -0.0123632 0.00386403 0.0337062 0.339605 -0.163251 0.0294479 -0.045688 -0.121663 -0.260275 0.00273192 0.135959 0.153035 0.0468036 0.171524 -0.00188776 0.0103074 0.0976941 -0.0668383 -0.0177582 -0.0343253 -0.48101 0.180927 0.102524 -0.18656 0.247583 0.171183 -0.0680458 0.0401039 0.0124791 -0.0223592 0.125768 -0.13759 -0.149396 -0.024093 -0.217777 0.048246 -0.0291068 -0.0858227 -0.134578
936 -0.0535124 0.0325454 -0.0378095 -0.150207 0.155264 0.028291 -0.0290519 -0.0444597 -0.00886929 0.0828713 0.008403 0.0792769 -0.112565 -0.0404358 0.0586882 0.0575377 -0.0957103 -0.137609 0.0220142 0.210644 0.0148354 -0.188431 -0.0676155 -0.158239 -0.109586 -0.0669166 -0.0739851 0.0859329 0.310957 -0.136698 0.0878752 -0.125841 -0.152339 -0.139848 -0.00135322 0.292041 0.265136 -0.0371578 0.136069 -0.0453297 -0.0953604 0.0535744 -0.0421864 -0.00682154 -0.189642 -0.362421 0.211908 0.110523 -0.132822 0.245433 0.132266 -0.0772235 0.107251 0.0936901 -0.138075 -0.0173639 -0.131239 -0.127172 0.0157766 -0.201544 0.0964339 -0.175949 -0.149126 -0.00814316
1119623 0.00856162 -0.000858763 0.00265183 0.00371668 0.0128994 -0.00211627 -0.0071166 -0.0183912 0.00628226 -0.0154171 -0.00228273 0.00743159 0.00242409 0.00207782 0.0040075 0.00353459 -0.00117076 0.00833102 -0.0109911 -0.0142491 -0.00904865 0.00627569 -0.0072857 -0.00486543 0.00497132 0.0153735 0.00462741 0.00291782 -0.00893195 0.00561197 0.000373225 -0.00463994 -0.00443524 -0.00606925 0.00161591 0.00925902 -0.0120163 -0.00158177 -0.0103214 0.0010924 0.00252932 0.0180212 0.0014468 0.000841933 0.000546934 -0.00290305 -0.00325139 -0.00631135 0.00550332 -0.0103135 0.0166532 0.00745459 0.00862268 0.00373754 0.00386724 0.0152757 -0.00707741 0.0137665 0.00363793 -0.0127533 -0.00576934 0.00240548 0.00742359 -3.68875e-05
240321 -0.0423583 -0.190542 -0.022141 0.036141 -0.0519708 0.111981 -0.136474 -0.17772 0.09497 -0.108403 -0.183669 0.0300509 -0.125456 -0.257834 -0.119777 0.00667845 -0.0688767 0.0432202 -0.23753 -0.0747219 0.0812304 -0.119981 -0.0192181 0.149904 0.0280359 0.0257905 -0.0732651 0.0510054 -0.0141299 -0.168836 0.143424 -0.0866251 -0.0320381 0.148143 -0.0371933 0.0939814 0.0155295 -0.107591 0.100285 -0.0398896 0.00713909 -0.0276338 0.0371633 0.167148 0.0141132 -0.0809572 -0.0993095 0.0141122 -0.214955 0.048807 -0.19973 0.0784686 -0.000589608 -0.115671 0.0151341 0.117782 0.13046 -0.137838 -0.0189762 -0.124563 -0.0096178 -0.00128182 -0.10688 -0.14914
67415 0.0419485 -0.1682 0.223673 0.247084 -0.0747817 -0.180105 -0.0911266 -0.0805857 -0.0352228 0.136922 0.13871 0.198848 -0.0127849 -0.17549 -0.0268992 0.0994559 0.298855 -0.100083 -0.211199 0.0461472 0.140017 -0.00861783 0.0222634 0.0663112 -0.117232 0.220496 0.18142 0.0904867 0.142754 -0.0114458 -0.0225086 -0.192686 -0.0171824 0.0729287 0.030786 -0.0228951 -0.0219537 0.136503 -0.0438328 -0.0474862 -0.111088 -0.08968 -0.199218 -0.08721 0.0604171 0.0893771 0.0706513 0.0409376 -0.0595763 0.0934384 -0.0482725 0.000207475 -0.0565708 0.118244 0.0586879 0.180494 0.0745523 0.302304 -0.0409228 -0.00877578 -0.233416 -0.115253 0.00838935 -0.132633
1125393 0.0298433 0.05084 0.0501537 0.00762249 -0.0345893 -0.0107797 -0.0192357 -0.0174214 -0.0140463 0.0378894 -0.0158895 0.0729565 -0.0144542 -0.0102654 -0.0156627 -0.0171413 0.0324613 0.035344 0.041156 0.0479967 -0.0162609 0.0494077 0.0184604 -0.0245895 -0.082167 0.0053363 -0.00140981 0.021525 0.0370532 0.0306325 0.00527098 -0.0322101 0.0226678 -0.0124238 -0.03994 0.0104752 0.0142757 0.0387205 -5.68394e-05 -0.00633532 -0.0421203 -0.0653494 -0.0315694 0.00670599 -0.02783 -0.00477621 -0.0308167 0.0306253 0.00656548 0.00255365 0.00338453 -0.00910066 0.0328349 0.0233299 0.0149783 -0.016407 0.0330652 0.0284301 0.0396632 -0.00549241 -0.0348158 -0.0170835 -0.0506069 0.0150117
1104787 0.0115743 0.00151634 0.0226857 0.011858 -0.0482285 -0.0108913 0.0119458 -0.0900413 0.0250563 0.00653908 -0.00241878 0.0199601 0.00188348 -0.00678604 -0.039994 -0.00574677 -0.0160832 -0.0437494 -0.0304045 0.0411046 -0.0195784 -0.0100084 -0.0150911 -0.013182 -0.0246214 -0.0475783 0.0243463 -0.0329698 0.0690935 -0.0616943 0.0536465 -0.0341057 -0.0226659 0.0531398 -0.0161644 0.0502318 0.0206461 -0.00132699 0.00578664 -0.0162395 -0.00634969 0.00817797 -0.00553571 0.0346448 -0.0175792 -0.0293514 0.0391567 -0.0192257 -0.00630114 0.0226912 -0.0325655 0.0283575 -0.0084932 -0.044217 0.0282518 0.0219735 0.0189714 0.00263063 -0.0289343 -0.0121022 0.0319114 0.00553528 0.0029831 -0.0725135
1102567 -0.00871111 -0.00466817 -0.0207787 0.0276833 0.0363894 -0.0296866 0.0267745 0.00215285 0.0379404 -0.0137779 0.00609874 -0.00855212 0.0265787 0.0072804 0.0330763 -0.00185754 -0.0123335 0.00672391 -0.00319033 -0.014589 0.00534927 -0.068226 -0.0316472 -0.0217339 0.00758012 0.00542914 -0.0818376 -0.0161629 0.0251219 -0.0347308 -0.0172536 0.0119663 -0.0124808 -0.0269603 -0.02502 0.0398748 0.0341393 0.012545 0.0459122 -0.00394903 0.00670098 -0.0194454 0.0693093 0.0137538 0.0304334 -0.0163902 0.027867 -0.0348119 -0.0473494 0.024568 0.0959063 -0.0489839 0.0250051 0.0304144 -0.0466248 -0.000483875 -0.0823654 -0.0785294 0.0292836 -0.0880219 -0.00887627 -0.033503 0.0113024 -0.0678036
129897 0.0402218 0.0340427 -0.301465 -0.0324424 0.0932208 -0.388697 -0.20214 -0.140869 -0.0170401 0.0251057 -0.0366775 0.157301 0.0233009 0.107581 -0.0746719 0.284076 0.06246 -0.0326336 0.427816 -0.21236 -0.216389 -0.076285 0.154498 -0.0752567 0.0870763 0.246163 0.0212904 0.388102 0.157274 -0.0091927 -0.0558829 -0.184916 0.180099 0.140251 0.0363405 -0.228934 -0.165725 0.252349 0.0582644 -0.0294349 -0.150808 -0.184729 0.193884 0.0565151 -0.169918 0.157419 -0.0270121 0.244905 0.33799 -0.119779 -0.0519684 0.0175864 -0.333542 0.183509 -0.0976904 -0.1268 -0.12113 0.13937 -0.113317 0.122297 -0.381566 -0.0948507 0.17638 0.25842
135765 -0.064658 0.0685377 -0.0123535 -0.00757235 0.0325655 0.0438568 -0.0779943 -0.103968 0.044153 0.00199882 0.00980276 0.0459612 0.0258853 -0.134887 -0.0901846 0.173677 -0.0968238 -0.018236 0.0519111 -0.0969691 0.0773681 0.272106 0.045737 -0.00706673 -0.176323 0.0973973 0.100253 -0.156031 0.0373637 0.0176399 -0.0485834 0.0016228 0.0686885 -0.038809 -0.0850077 -0.0502018 -0.0384549 -0.0736242 0.0144724 0.0782538 -0.202052 -0.00625299 -0.166464 0.0232165 0.0709407 0.0452469 -0.0322031 -0.0324726 0.0338528 -0.169708 -0.319552 0.140295 0.205231 -0.0935289 -0.085749 0.079159 0.19905 0.118487 0.148799 0.23952 0.056035 -0.024949 -0.228461 -0.0832707
1110947 0.0150294 0.0617734 0.0761244 0.073856 -0.19108 -0.0548597 0.00756713 0.0670956 -0.0165746 -0.100849 0.0877014 0.0839537 -0.141886 -0.0985564 -0.11084 0.0816539 0.0148176 0.03581 0.164767 -0.0523246 -0.0447121 0.330104 0.0758958 0.160185 -0.0213266 0.167042 0.00847162 -0.0166793 -0.182861 0.214271 0.134843 -0.0508006 -0.0741429 0.216663 0.117959 -0.0538515 -0.114561 -0.0170024 -0.20835 0.0548284 -0.112211 0.102966 0.025996 0.232944 0.0288192 0.187857 -0.0809166 0.0440032 0.318803 -0.285913 -0.190705 0.242926 0.0316749 -0.174118 -0.0160841 -0.118662 0.244822 0.26867 0.0813045 0.42697 -0.0266068 0.228022 -0.0821629 0.137462
262121 -0.0453549 0.0156295 -0.033598 -0.00162589 0.0386711 0.0127515 -0.00706629 0.00943865 0.00110621 -0.0317846 -0.00490791 0.00678537 0.0329721 -0.0136525 -0.00633487 -0.0115119 -0.00767388 0.0301696 -0.019147 0.0201264 0.00879372 -0.0662143 -0.00343131 -0.0597112 0.00330997 -0.0223024 0.0147355 -0.000107344 0.00163486 -0.0669179 -0.0425732 0.00942842 -0.00120955 -0.0180264 0.0180901 0.017023 -0.00350308 -0.00527738 0.0383419 0.00586637 0.0134368 0.0289775 0.00505889 -0.031259 -0.0038819 -0.0556859 0.0574355 0.00161893 -0.0622028 0.0408546 0.0223062 -0.0299801 0.0250258 0.0114427 0.000847172 0.0707211 -0.0262023 -0.0219264 -0.0145811 -0.0739503 0.0178387 -0.0326666 -0.00660312 -0.0110167
576725 0.00575965 0.116779 -0.0344975 -0.154294 0.113544 0.0433178 0.0662242 -0.00968635 0.0182592 0.0936165 -0.116304 0.0904458 -0.0560159 0.00357588 0.05981 0.0247777 -0.128735 -0.0287248 0.0240643 0.0835103 0.0569037 -0.242725 -0.0208867 -0.194423 -0.0949286 -0.00121237 0.0025067 0.0666147 0.327557 -0.160954 -0.00421978 -0.101671 -0.129607 -0.237252 0.0158484 0.148455 0.16153 0.0203176 0.161041 0.01523 0.0208858 0.092249 -0.0518641 -0.0362025 -0.0310056 -0.474749 0.175895 0.0357561 -0.179074 0.257782 0.145611 -0.0692437 0.0713411 0.0489942 -0.0429229 0.118531 -0.132945 -0.175493 -0.0263104 -0.211735 0.0357874 -0.062168 -0.0711019 -0.129036
574009 0.0199385 0.121434 -0.0542012 -0.158493 0.0983568 0.034787 0.0338451 -0.0524131 0.00782466 0.0546023 -0.119341 0.0544729 -0.0559624 0.0114805 0.0358843 0.00364671 -0.0874981 -0.0110053 0.0331452 0.0648584 0.0139182 -0.217021 -0.0198516 -0.134502 -0.088859 -0.0133772 -0.00592072 0.0444738 0.260989 -0.126922 -0.00624617 -0.0500698 -0.108921 -0.181829 0.0218936 0.109146 0.164106 0.0370563 0.134559 -0.0201888 0.0555719 0.0914291 -0.0565303 -0.00140039 -0.0517859 -0.351652 0.153645 0.051349 -0.152995 0.193502 0.103888 -0.0691763 0.0447849 0.024511 -0.0253777 0.0947557 -0.0769334 -0.137625 -0.0344651 -0.197106 0.0440688 -0.0497927 -0.038232 -0.107804
50807 0.00559613 -0.00762396 -0.00448224 -0.00551256 0.000338871 0.00770971 -0.00433462 0.00631784 -0.00302328 0.000982729 0.00182725 -0.00133999 -0.00767126 0.0061788 -0.00665781 0.00666619 0.00500633 -0.00164369 0.00118551 -0.00197594 0.00600435 0.000472533 0.000675744 0.00313992 0.00607221 -0.00222503 0.00343929 0.00759943 0.00729743 -0.00254663 0.002692 0.00694177 0.00361169 -0.00578853 0.00449092 -0.00746903 -0.00246164 0.00365969 -0.00502498 0.00557406 -0.00402512 0.00780535 -0.00578463 0.00133635 -0.0029471 0.00225503 0.00215886 0.00488767 -0.00164884 0.00377166 -0.00351826 -0.0029266 0.00254965 -0.000417802 -0.000171668 0.00196935 -0.00510668 -0.000130344 -0.00283405 -0.00286399 -0.00164495 0.00707988 -0.00158671 0.00273881
1121057 -0.004723 -0.0161889 0.00888706 -0.0136299 -0.00873156 -0.0017796 -0.00601781 -0.00475073 -0.00209703 -0.00107093 0.000119825 -0.0021398 0.0144804 -0.00108869 0.00535718 0.00688129 -0.0149172 -0.0164993 0.0122262 0.0123352 -0.00450392 -0.0194953 -0.0155953 -0.00126972 0.0028083 -0.00795114 -0.00361759 0.00817377 -0.00251052 -0.0236816 -0.0169033 -0.00472541 0.00670801 0.00939139 -0.00847572 0.00420415 0.0182177 0.00919092 0.0111842 -0.0175458 -0.0234586 -0.000832236 0.0131465 0.0115719 -0.00373254 -0.00282759 0.00021529 0.0100695 0.00926336 -0.00232861 0.0156557 0.0084904 0.0134991 0.000748219 -0.0200746 -0.00471372 0.00762932 -0.00276153 -0.0060558 0.00167885 0.00674341 -0.00704953 -0.011381 -0.00900727
1953 0.00871874 0.0249595 0.015111 0.0390195 0.0044702 0.0525508 0.0199981 0.031426 -0.0132108 0.0350154 0.00395875 0.00528771 0.0808352 -0.0526934 0.0499479 -0.0827642 0.0422806 0.00637412 -0.0404606 0.019812 0.00223744 -0.00105823 0.0196353 -0.0393521 0.00221369 -0.0186591 0.00974759 0.0266796 -0.0230716 0.0543082 -0.00183669 -0.0559037 -0.0373327 -0.0218173 0.018563 0.0258423 0.0011393 -0.016351 0.00904154 -0.0201152 0.0342746 -0.0202995 -0.0142073 0.0353192 0.0137544 0.0399426 -0.0153091 -0.104127 -0.0236469 0.0536091 -0.085495 0.00343195 0.0692121 -0.0519477 -0.110271 -0.0352891 -0.0258273 -0.00465753 0.0125434 0.0647708 -0.0405475 0.00423379 -0.000159363 -0.0160973
103528 0.00204843 0.0353482 -0.035023 -0.020938 -0.0288914 -0.0442922 0.0238796 0.0126695 -0.04419 -0.00445599 -0.00937574 -0.00181739 -0.0216094 0.0118971 -0.0082144 -0.0574087 -0.00332972 0.0241188 0.0272778 -0.0186883 0.00652963 -0.0396101 0.00585072 -0.00230716 -0.0295307 -0.00513666 -0.0155697 0.0202827 -0.0153124 0.0238236 0.0342064 0.0202444 -0.0370322 -0.0179397 0.0119084 -0.0214095 -0.0393692 -0.0225053 -0.0527096 0.0217098 0.0175294 0.00351299 -0.0204786 0.0133207 0.0352994 0.0151421 -0.0225335 -0.00355043 0.0515169 -0.0284547 0.00247505 -0.0189404 -0.0279507 0.0353369 0.0445443 -0.0443588 0.0052551 0.00234671 -0.0180087 0.000657478 -0.00556263 0.0682686 0.0178859 -0.00590423
307336 -0.0278082 -0.0763644 -0.0127458 0.0203881 0.0867261 -0.00563946 -0.00571926 -0.0535057 0.00409499 -0.0279714 -0.0256898 -0.0360632 0.067988 0.00862121 -0.00713466 -0.0931149 0.024775 -0.100994 -0.0897718 0.0352323 -0.0182061 -0.0548671 -0.0253352 -0.106424 -0.00102982 -0.0271061 -0.101854 -0.00740724 0.0275574 -0.0938854 -0.0310296 -0.0362314 0.0338756 -0.0411501 -0.0265331 0.00833382 0.0596844 -0.0173974 -0.00987248 -0.0145278 0.009964 -0.10196 -0.0513501 -0.0632489 -0.061059 0.0158568 0.0355285 0.0163053 -0.035746 0.111243 0.0950553 -0.101365 -0.0244468 0.042175 0.0408803 -0.0031897 -0.111478 -0.000338258 -0.00985016 -0.117133 0.00972294 -0.0533885 0.0464496 -0.0142793
653441 -0.0124932 0.00539949 0.373318 0.0797831 -0.0557521 0.299144 0.185224 0.111216 -0.121526 -0.0287347 -0.172335 -0.115421 -0.0832345 -0.1613 0.0603473 0.068073 -0.059021 0.0738961 -0.293443 0.333237 0.289373 0.207275 -0.16765 0.139775 -0.0454735 -0.282505 -0.00929121 -0.247977 -0.0897057 0.0600007 0.0251273 0.0238775 -0.122691 0.00833561 -0.0554353 0.238473 0.0109739 -0.289998 -0.0630789 -0.0499836 0.0544261 0.0263425 -0.0842339 0.0237826 0.208211 -0.0654032 -0.00616437 -0.122014 -0.430269 0.156802 0.0601756 0.0461117 0.274549 -0.267408 0.0933169 0.0147841 0.215355 -0.0981498 0.0434297 -0.105441 0.291219 0.106777 -0.288392 -0.274237
949318 -0.140385 -0.112589 -0.111622 -0.0447975 -0.0322831 0.0319282 0.0306839 -0.0650305 0.0685742 0.0207815 0.0671818 -0.173329 0.138269 0.00551662 -0.0119738 -0.091344 -0.0761092 -0.0757224 -0.205269 -0.0729315 0.0185449 -0.132331 -0.00228994 0.065307 0.0821447 -0.0662831 -0.00903732 -0.0560333 -0.112811 -0.164358 0.0300112 0.116638 -0.0215279 -0.0107852 0.0711266 -0.0556705 0.0904619 -0.132156 -0.00235035 0.0881001 0.113625 0.100929 -0.0877735 -0.0478514 -0.0272309 -0.0690625 0.0511416 -0.0856134 -0.0861707 0.0252843 0.0633533 -0.0482588 -0.0114615 -0.0162668 -0.00832918 0.0753976 -0.0202115 -0.0686157 -0.00670845 -0.0413096 0.0146378 -0.0217869 0.14668 -0.0378031
41666 0.115372 -0.0484337 -0.0311414 -0.0839701 -0.124632 -0.173326 0.155543 -0.0885723 -0.10395 0.131389 -0.0122735 -0.0707387 0.105251 -0.326864 0.105739 -0.0776462 0.0457537 0.109078 0.157343 0.145095 0.236837 0.15585 -0.105475 0.00595466 0.0264751 -0.158006 0.263308 0.10321 -0.0119903 0.124191 -0.0065185 0.146087 0.0527273 0.0331497 -0.0714502 -0.223123 -0.124472 -0.132239 -0.0700377 -0.00204758 0.0971822 -0.0467433 -0.111211 -0.151423 0.050555 -0.08536 -0.0290243 0.23563 -0.0792952 0.200598 -0.084699 0.0421982 0.248399 -0.0841902 0.156025 -0.0935827 -0.059077 0.189191 -0.0833294 0.141678 -0.183936 0.0191246 -0.157472 0.12568
640617 -0.00453361 0.127069 0.00962995 -0.127361 0.149052 0.0510309 -0.00663781 -0.0458811 0.0221459 0.122303 -0.120961 0.0629052 -0.0822146 -0.00875224 0.0745397 -0.0285462 -0.0708781 0.0156886 -0.0340606 0.0977784 0.0732114 -0.241563 -0.024113 -0.176759 -0.0572459 -0.0107545 0.0330543 0.0683241 0.297562 -0.155828 -0.0100469 -0.107624 -0.159901 -0.226418 0.0167555 0.167182 0.175636 0.00853789 0.161916 0.00391217 0.00786739 0.0934997 -0.0302189 -0.0265982 -0.0989786 -0.415253 0.220599 0.000189252 -0.231464 0.302084 0.154016 -0.105725 0.0518619 0.0582568 -0.0571799 0.0908485 -0.115778 -0.156713 -0.0911667 -0.219688 0.0164083 -0.0791712 -0.0722826 -0.199413
59626 -0.00902066 -0.0891275 0.102395 0.0386769 0.0938665 -0.017068 -0.0397931 -0.0730227 -0.0216865 0.147618 0.00310987 0.0251605 0.130113 -0.219138 -0.0508202 -0.110789 0.115193 0.0298366 -0.0228009 0.11846 0.0376703 0.149175 -0.0178766 -0.0535944 -0.161182 -0.0419631 0.11159 0.0832216 0.0403033 -0.00972339 -0.0185382 0.00427457 0.0729684 0.0655182 -0.124481 -0.167402 -0.157784 0.0143355 0.0885484 0.0149379 0.00612613 -0.0993089 -0.0354073 0.000802418 0.0924916 0.0993825 0.0589225 0.119583 0.00982481 -0.012568 -0.197489 -0.0206776 -0.00212461 0.0200824 0.132754 -0.0219567 -0.0147162 0.0744806 -0.0950031 0.167673 -0.125801 -0.0751665 -0.0566761 0.029564
1117184 -0.0995743 -0.00980711 -0.0305469 0.0251893 0.011809 0.0433911 -0.0493997 -0.064756 -0.0102006 0.0481514 -0.0416932 0.0346812 0.0411301 -0.0293785 -0.0204305 0.0261425 0.0265267 0.00732193 0.00817248 -0.0230864 -0.0274518 0.00734666 0.0139968 0.00571079 -0.0180146 0.0241709 0.011829 0.0112246 -0.0295152 0.0445153 0.0128143 -0.049732 0.0951059 0.0433112 -0.0938235 -0.0137934 0.0211112 -0.0328023 0.00486649 0.00334048 -0.0196444 -0.0229754 -0.0283134 -0.0722464 -0.0659051 -0.0497054 -0.0170065 0.049086 -0.0524329 0.0712479 0.104543 -0.190705 0.0489127 0.0964486 0.00856342 0.0761597 -0.0444534 -0.0378453 0.0526959 -0.0667892 -0.053035 -0.0674939 0.00279473 0.0201717
1107455 0.165563 0.0119569 0.0181981 0.034893 0.00686137 -0.25832 0.0908882 -0.200741 -0.0294583 0.142657 -0.0557895 0.145764 -0.16767 -0.301517 0.0549539 0.203125 -0.0799687 0.160263 0.242132 -0.0466385 0.0913452 0.130674 -0.00648292 -0.105227 -0.0629867 0.137981 -0.075204 0.191954 0.217973 -0.206284 0.192773 -0.328131 -0.104004 0.167368 0.234415 -0.043192 0.203005 0.337196 -0.242616 -0.0630078 -0.203994 0.0665191 0.0630289 0.352932 -0.220125 -0.0481776 0.141131 0.176316 0.10682 0.205621 -0.035894 -0.0952097 0.221124 -0.104849 -0.0906693 0.0780884 -0.0317758 0.0831746 0.163671 0.176303 0.0881848 0.158252 -0.282528 -0.0673651
78508 -0.0159239 -0.0134388 0.0020004 0.0224558 -0.03281 0.00375951 -0.0265723 -0.0300099 0.00818995 -0.00771585 0.00497873 -0.00394304 -0.00495201 -0.0076535 -0.0185042 0.0211949 -0.000761738 -0.0243091 0.0053504 0.00527191 -0.00636232 0.0160902 -0.0037707 -0.00965254 -0.0291529 0.00978244 0.00389057 -0.00779473 -0.00185196 -0.017547 -0.0105172 -0.00449199 -0.00293243 0.0384171 -0.0103866 0.000843821 -0.0148388 -0.00812 0.00183117 0.0093666 -0.00335572 -0.0115869 0.00489363 0.0163681 -0.0298529 0.024595 -0.00205303 -0.00607082 0.0318682 0.00592749 -0.00799251 0.0308629 -0.011084 -0.00188819 0.0145226 -0.00273644 -0.00295561 -0.00170403 -0.0331953 -0.00333055 0.0300304 0.00331852 0.0117113 -0.0118569
164885 0.00968792 0.00517232 -0.0107192 0.00239399 0.00091994 -0.0433072 0.00138867 -0.0323052 -0.00780783 0.018799 -0.0129074 -0.0115432 0.00767226 -0.00420963 -0.0222317 0.0160043 0.00282564 -0.0307311 0.00663435 -0.0274469 -0.0208482 0.00507757 0.00372384 -0.0164436 -0.0115263 0.0054877 0.0173794 0.0161334 -0.00148449 -0.0149574 -0.0148509 0.00196582 -0.00402179 0.0239845 0.00932254 0.0034362 0.0164637 0.0144089 0.00692739 -0.0117428 0.00317469 -0.0128675 -0.0127396 0.0188663 -0.000155915 -0.00521898 -0.00701834 0.0110981 0.0140515 0.00439687 -0.0113491 0.00471904 0.0200941 -0.0107044 0.010627 -0.00249801 -0.00742789 0.0104656 -0.00455882 -0.00963621 0.0198728 0.0066703 0.00481804 0.0198756
62634 -0.0637308 -0.0401821 0.00199114 0.073475 -0.0387483 0.0568956 -0.12463 0.0789672 -0.0522085 -0.0132667 0.0703322 -0.0647409 -0.0538444 -0.0290587 0.0233992 0.0344461 0.0677772 -0.0450192 -0.0253136 0.0111875 -0.0099229 -0.0117947 0.0181047 0.103282 0.0413122 -0.104016 -0.0204767 -0.00358897 -0.0497398 0.085245 -0.0766799 0.0390514 -0.0559601 -0.0391698 -0.0648242 0.0656049 -0.0679884 -0.0709771 0.00902369 0.00760154 -0.0358711 0.0532437 -0.012682 -0.0153737 0.000410415 0.00204053 -0.04913 -0.055782 0.0398376 -0.0501444 -0.0309345 0.0670991 0.0128622 -0.0207993 -0.0412803 -0.0643947 0.0207063 0.0247259 -0.0578898 0.0771606 0.00497018 -0.0951013 0.0162329 0.0541894
6210 0.117995 -0.0239898 -0.0577292 0.022681 0.188155 -0.191727 0.0940313 -0.265794 -0.131253 0.222145 0.0876205 0.0443509 0.171112 -0.179102 0.0417475 -0.0398392 0.12361 0.0969788 -0.0948445 0.0740661 0.193396 -0.229892 0.0378881 -0.431381 0.0872498 0.0462875 -0.212904 0.411502 0.242085 -0.39929 0.244584 -0.261284 0.184815 0.184817 0.0249296 0.0527107 0.294145 0.253242 -0.257033 -0.016122 0.0297599 -0.120937 -0.00231135 0.108364 -0.273304 -0.242737 0.210066 0.0538573 0.102354 0.337544 0.327477 -0.324757 -0.0110122 0.125159 -0.0749691 0.171147 -0.300411 -0.101689 0.000316681 -0.24362 -0.0668763 -0.0793354 -0.0194582 -0.0281045
943087 0.0464772 -0.00393796 -0.00870429 -0.0142479 -0.058359 -0.0728957 0.0640816 -0.0327327 -0.0320848 0.0434397 -0.00753838 -0.0122318 0.0293904 -0.133302 0.0260543 -0.0255428 0.00715266 0.0319496 0.0637132 0.0324253 0.0682424 0.0561903 -0.0349328 0.0080033 0.00268472 -0.0571697 0.0863757 0.0334547 -0.0049292 0.0336373 0.000996568 0.0503197 0.0192326 0.0217425 -0.041544 -0.0691407 -0.0510883 -0.0453243 -0.0326794 -0.0123948 0.0362186 -0.0300465 -0.0298683 -0.0446058 0.0170024 -0.00863821 -0.0185068 0.0849344 -0.0186112 0.0729535 -0.0263509 0.0207362 0.0939077 -0.0295288 0.0761305 -0.0369923 -0.0226584 0.0575938 -0.0520145 0.0412662 -0.050091 0.014677 -0.0511058 0.0385776
628668 0.163358 0.0662558 0.0419901 -0.0793653 0.0200563 -0.269663 0.0377428 -0.27415 -0.0943603 0.150578 0.0196135 0.179083 -0.100989 -0.266014 -0.0509901 0.132926 -0.0251328 0.141072 0.223069 -0.0155303 0.0764194 0.0834359 0.0475758 -0.272164 -0.0430675 0.160124 -0.140312 0.272419 0.260969 -0.255721 0.300802 -0.296946 -0.000865412 0.129245 0.20554 0.0163194 0.251024 0.277952 -0.273341 -0.0187163 -0.0929928 0.0578132 0.041798 0.367585 -0.310171 -0.200139 0.144831 0.171529 0.192876 0.171625 0.0755459 -0.110115 0.113555 -0.0619185 -0.153915 0.0712828 -0.0697633 0.0442742 0.185159 0.109284 0.0363186 0.111647 -0.26249 -0.0915003
24974 0.0544354 0.0596118 0.00606852 0.0860769 0.0535752 0.0282577 -0.0190903 0.0421873 0.0499231 -0.00884464 -0.0146239 -0.0248987 0.0433359 0.0412037 -0.0126698 0.0670816 -0.0786379 0.0285606 0.112546 0.00801994 0.113426 0.029543 -0.0306364 0.0469807 0.0455276 -0.104479 -0.000672558 0.0330791 -0.0397007 0.10685 -0.0250093 0.148665 -0.0783988 -0.0366384 0.016856 -0.0875028 -0.0583247 0.118179 0.000840018 0.102398 -0.00741021 0.0956446 -0.029258 0.0655273 -0.0527897 0.00662934 0.0550772 0.0205786 -0.0320357 -0.0433229 -0.0310692 -0.0216405 0.0876991 -0.0530092 0.00901943 -0.0667868 0.0964516 -0.0274734 0.0825147 0.0517168 -0.100345 -0.0016699 -0.0704928 0.0165165
35490 -0.00417411 -0.213628 0.0424375 0.305645 -0.242063 -0.103341 -0.0518383 0.0669908 -0.0479516 -0.182691 0.235429 -0.1556 0.193631 -0.00838397 -0.129231 0.00448169 0.197242 0.0516361 -0.0188438 -0.163192 -0.0848497 0.519872 0.054402 0.299806 0.177972 0.0808463 -0.0356511 -0.12802 -0.572141 0.27297 -0.00167033 0.130992 0.284389 0.432221 0.00492067 -0.297588 -0.352042 -0.0605407 -0.333217 0.024215 -0.0452755 -0.221525 0.086243 0.0365819 0.131456 0.848551 -0.378695 -0.0591349 0.376042 -0.525497 -0.245315 0.195587 -0.107456 -0.0738535 0.146437 -0.221286 0.264802 0.296193 0.0335586 0.420507 -0.092515 0.108558 0.124154 0.27387
145384 -0.0807771 -0.00687182 -0.0316117 -0.0359863 0.0318474 0.173526 -0.0415427 0.118542 0.0249764 -0.0401887 -0.0500812 -0.0608135 0.0355383 0.140738 0.0550266 -0.0713845 -0.0145295 -0.0626318 -0.120346 0.034372 -0.0495619 -0.119826 0.0058901 0.0662935 0.00290518 -0.103159 0.0950879 -0.122804 -0.0645136 0.108282 -0.143634 0.169113 -0.0539375 -0.165151 -0.0796874 0.0292649 -0.0711832 -0.155016 0.202921 0.0175419 0.0773621 -0.00211359 -0.0246657 -0.183238 0.119099 -0.0498153 -0.0364982 -0.0889406 -0.142209 -0.0246004 0.0283968 0.0111185 -0.0570279 0.0525405 0.0248518 0.0301694 0.000990289 -0.0946078 -0.0904788 -0.0992614 -0.035964 -0.0946441 0.111793 0.00648562
1103383 -0.0391926 0.0359997 -0.0733334 0.0402162 0.0124203 0.0332968 -0.152944 0.0426105 -0.0268881 0.111453 0.101582 -0.0222818 -0.0796759 -0.0423215 0.0227253 0.113952 0.0188144 -0.0657147 0.0986306 0.0542999 0.0895011 0.0636887 0.00966589 0.110968 -0.043819 -0.0706835 -0.0878442 0.065849 0.131389 -0.0472428 0.0568182 -0.160549 -0.0159534 -0.0363281 -0.0603918 0.091014 0.027424 -0.0230991 -0.0684005 0.0141042 -0.0766615 0.0358715 -0.0477556 0.0259909 -0.196694 -0.210628 -0.0032309 -0.0667546 0.0233784 0.136982 0.0261624 0.0766586 0.047983 0.0487533 -0.212096 -0.0257699 -0.0392478 -0.0057629 -0.0921417 0.0524609 0.0315163 -0.0450194 -0.0852513 0.0270911
6818 -0.14705 0.0108422 0.0467358 0.182249 -0.288655 -0.255561 0.117193 0.121877 -0.0770281 0.0173775 0.150605 -0.0253645 -0.128782 0.159151 0.0183942 -0.154848 -0.0435298 -0.0909831 0.175945 0.344778 -0.0487141 0.379844 -0.0648002 -0.0345844 -0.136887 -0.178131 -0.0652886 0.0149526 -0.0240197 0.118188 -0.228636 0.106895 0.0161616 -0.0903488 -0.197884 0.0149062 -0.052153 -0.088645 0.00585504 -0.0935275 0.00776071 0.0233435 -0.0239722 -0.0854424 0.0491189 0.5911 -0.0190315 -0.0465173 0.0901243 -0.0905584 0.0902781 -0.00206961 0.0263655 0.0136895 0.0656734 -0.0888665 -0.178878 0.0137224 -0.0332211 0.0801248 -0.117602 0.110297 -0.0431703 -0.00797667
101662 -0.0488164 -0.0413455 -0.0483836 -0.0743425 -0.152839 0.0898132 0.0113889 -0.00432496 -0.0889689 -0.0676041 0.0988326 0.0652617 -0.0569978 0.115813 -0.0114495 0.0712974 0.0956088 0.0848967 -0.1706 -0.118685 0.00279614 0.0183639 0.0665337 -0.0895282 -0.000405392 0.143273 0.166926 0.0125115 0.113669 0.0653937 -0.0111348 -0.121332 -0.0461149 0.103733 -0.00936702 0.00625549 0.0755215 -0.0247025 -0.23678 0.0645707 -0.169847 -0.0594308 -0.121031 -0.0638888 0.0155214 -0.184856 -0.0986755 -0.0315069 -0.0182532 0.121572 0.0814952 -0.0486062 -0.0150373 -0.168812 0.0659997 -0.0518689 -0.0761552 0.145267 -0.0236593 0.000172202 0.26475 0.162892 0.110277 0.0478724
110164 -0.0518155 -0.0910656 -0.0384477 -0.0246632 -0.0538457 -0.0247598 -0.00707625 -0.010786 0.0254517 0.0308512 0.0146974 0.0241175 -0.0677723 0.0256233 -0.0628478 -0.00137002 -0.0371085 -0.044502 0.0870408 -0.0316193 -0.00929978 -0.000538537 -0.0159309 0.0550507 -0.0150762 -0.00866234 0.0324886 -0.0141277 -0.0515832 -0.000132748 0.0263738 -0.0156243 -0.000733411 0.0600674 -0.0546241 -0.000247594 0.0201406 -0.00543815 -0.0511899 -0.0254118 -0.0277703 0.036073 0.0476968 -0.0123497 -0.13023 -0.0538831 0.0308158 0.126973 -0.0224968 -0.0306149 0.0663765 -0.0652129 -0.0644142 0.0192563 0.0166425 0.0422275 0.0461245 0.0224573 0.0322642 -0.0431756 0.0215536 -0.0233046 -0.0543648 -0.0507537
19697 -0.104519 0.061409 0.0177793 -0.00916943 0.0368309 -0.175698 0.345317 0.385077 -0.141317 0.0817532 0.127916 -0.211272 0.0446454 0.290005 0.198447 -0.137933 -0.142685 0.00886037 0.264081 0.168554 0.0428221 0.12254 -0.0239742 0.0336362 0.0741568 -0.0780072 0.0337599 0.0150868 -0.14093 0.234814 -0.287964 0.188774 -0.073176 -0.27183 0.0699364 -0.0386834 0.0789723 0.0426062 -0.0594816 -0.0399607 -0.0654248 0.0353161 -0.084224 -0.285351 0.154298 0.30773 0.0699499 -0.130904 -0.00333129 -0.131131 0.219651 -0.0475276 0.122049 0.00993232 -0.0340339 -0.0917851 -0.171859 0.0299798 0.070012 0.183441 -0.316355 0.0164353 -0.0350181 0.18388
469504 0.107644 0.0670117 0.186611 0.021526 0.0958887 0.11647 0.178262 -0.26824 0.339844 0.223892 -0.103854 0.123841 0.0689028 -0.15893 -0.036573 0.204719 -0.0270098 -0.057599 -0.199414 0.0756367 0.0995709 0.056138 0.105771 0.196777 0.155084 0.0474684 -0.210071 -0.146822 -0.0400639 0.189081 -0.194144 0.231035 -0.150968 0.0962499 0.0405175 -0.00432359 0.160967 -0.17186 0.0842808 0.133721 -0.173404 -0.0838166 -0.255714 0.192051 -0.0246625 0.00590914 0.000204897 0.177546 -0.277278 0.172073 -0.0402968 0.127445 0.12296 0.0976195 -0.264923 -0.0690698 -0.0869385 0.0482534 0.0571159 0.0770163 -0.178838 -0.0907742 0.211479 -0.043744
