2708 64
28504 -0.113303 -0.169539 0.0318008 0.0774588 0.133136 0.298927 -0.29888 0.164203 0.0595398 -0.095764 -0.0302136 -0.12072 0.102453 0.264902 0.0165549 -0.0630868 0.0928227 -0.099971 -0.340691 -0.0183086 -0.0241018 -0.268124 -0.0614495 0.108894 -0.00361247 -0.0382002 0.0217407 -0.224157 -0.0515529 0.0990684 -0.115327 0.168314 0.015859 -0.129848 -0.120973 0.136136 -0.103828 -0.0582405 0.19323 0.0785839 -0.0220815 -0.0494272 -0.0455273 -0.186908 0.00966179 -0.0620363 -0.0649248 -0.278491 -0.195985 -0.0485816 -0.0774553 -0.0334218 -0.15707 0.096821 -0.0442707 -0.129135 0.0412364 -0.0191443 -0.0284455 -0.129624 0.171777 -0.195928 0.215539 -0.0768897
445938 -0.101894 -0.237906 0.162752 0.342562 -0.212331 -0.0921039 0.0317006 -0.00647843 0.0699184 0.102839 -0.151455 -0.0147218 -0.175157 -0.103473 0.0191205 -0.275412 0.109232 0.0455672 0.305745 0.440929 -0.0954379 0.440924 -0.307171 0.224935 -0.315612 -0.290486 -0.220404 0.119531 0.0149905 0.0540721 -0.0975594 -0.0644383 -0.00508495 0.000843585 -0.216764 0.0199088 0.0612944 0.0409374 0.0399584 -0.224947 0.223132 0.0447638 0.000720181 0.157795 0.0923856 0.633415 0.166896 -0.193723 0.123267 -0.223271 -0.195697 -0.0175861 -0.166485 0.0973405 0.173756 0.106846 -0.0896966 -0.117681 0.0139119 0.25539 -0.205973 0.00148309 -0.0402071 0.00305934
6385 0.0990495 -0.378041 0.217794 0.438818 -0.269696 -0.1546 -0.16504 0.0346706 -0.0188303 -0.0347452 0.288984 -0.0634603 0.0464301 -0.243106 -0.0117209 -0.0188573 0.189129 0.0972118 0.0186633 -0.154149 0.114533 0.46925 0.0331637 0.331802 0.204317 0.0815688 -0.0457783 0.118194 -0.562817 0.0832859 0.152434 -0.0412404 0.132744 0.576335 0.028083 -0.257107 -0.175189 0.106291 -0.527862 0.109786 -0.12225 -0.198723 0.11941 0.143958 -0.077604 0.757891 -0.114446 -0.0611161 0.447522 -0.290888 -0.205695 0.0833833 -0.0120856 -0.0811654 -0.0191124 -0.155782 0.286416 0.407925 0.178078 0.42579 0.0296045 0.182558 0.023748 0.131849
318187 -0.0334506 -0.0324716 0.0308342 -0.0641364 0.0131602 -0.0461944 0.0344265 -0.0481302 -0.00957741 -0.00282873 0.0041765 0.00211746 0.0371607 -0.00724999 -0.011065 -0.0446657 0.00954356 -0.0635336 -0.0100738 0.0294343 -0.0425155 0.020979 0.024431 -0.0459728 -0.00125228 -0.00908372 -0.0436133 -0.0277087 0.0385805 -0.0437182 -0.0113993 -0.049569 0.0275235 0.0192825 0.0475105 -0.0301396 0.0349144 -0.0108416 -0.0601335 0.000860363 0.0109423 -0.0571904 -0.00817137 -0.0286168 -0.00176905 -0.0216649 0.0130869 0.00754152 0.0176687 -0.00311846 0.0416335 -0.00380042 -0.0333553 0.022157 0.00181372 -0.00918203 -0.0433367 -0.00920576 0.00106523 -0.0292664 0.0145067 -0.00835372 0.00485251 0.0130103
164885 0.00230691 0.0456713 -0.0260851 -0.00800443 0.0134236 -0.160702 0.00335448 -0.105549 -0.023001 0.0769386 -0.0493923 -0.0158024 -0.0060291 -0.0479671 -0.0871747 0.0840041 0.00307541 -0.0851155 0.0439357 -0.0874537 -0.0738796 0.00213177 0.0124006 -0.0328991 -0.0493572 0.0190979 0.0298516 0.0760532 0.0367851 -0.0534318 -0.0034274 -0.0417744 -0.0260591 0.0887918 0.0257025 0.0631345 0.0831766 0.0538528 -0.0124248 -0.0178382 -0.0368307 -0.0669245 -0.0552239 0.0837847 -0.045634 -0.0326084 -0.0356104 0.0463763 0.0805554 0.0443382 -0.030064 0.0424617 0.0626445 -0.0411859 0.00262469 -0.037727 -0.000141223 0.0392387 0.00448471 -0.034915 0.0720899 0.0326939 -0.0109614 0.0720779
1122460 -0.00679018 0.0451338 -0.0147496 -0.0161582 0.101901 -0.110272 0.28568 0.056544 0.00369604 0.0509284 -0.0733135 0.195833 -0.0573515 -0.102197 -0.029028 0.0541301 0.113978 0.123337 0.0423118 0.0703506 -0.0463544 0.0415483 -0.0195943 0.0280221 0.133103 0.0876175 -0.146169 0.0744037 0.0402461 -0.0290995 -0.0464429 -0.0972311 0.0992322 -0.11108 0.154954 -0.0505417 0.105287 0.131136 0.0643268 -0.0372735 0.16626 0.0173405 -0.131483 -0.0533468 -0.177414 -0.0991702 0.0941924 0.100266 -0.180958 0.158184 -0.000307546 -0.115832 -0.0250642 0.0714404 -0.135466 -0.0467522 -0.180629 0.0195486 0.134774 0.0556213 -0.0521546 0.218902 -0.0612071 -0.0882913
20534 0.248429 0.081677 0.0673789 0.0976719 -0.000881366 -0.381502 -0.034127 -0.296797 -0.174704 0.297956 -0.142027 0.413456 -0.481933 -0.575669 -0.0232919 0.380702 -0.13638 0.337872 0.511648 -0.0808036 0.159189 0.325998 -0.0682898 -0.390098 -0.138919 0.223975 -0.0997207 0.423546 0.607356 -0.387307 0.280318 -0.657506 -0.275921 0.224464 0.362909 0.146517 0.376685 0.575685 -0.239438 -0.0400658 -0.544321 0.267415 0.127333 0.781107 -0.467965 -0.100238 0.357606 0.334005 0.162703 0.516277 -0.0871721 -0.0316721 0.467068 -0.230487 -0.448191 0.125368 -0.171253 0.236529 0.403279 0.419083 0.0964999 0.10479 -0.731856 -0.141911
62329 0.0111108 0.416256 -0.139219 -0.338741 0.231171 -0.088309 0.253315 -0.181513 -0.0120938 0.14069 -0.144397 0.0632267 0.00890451 0.11038 -0.128073 0.0136746 -0.217618 -0.0551326 -0.0110107 0.063359 -0.0299395 -0.364148 0.0513825 -0.272562 -0.304144 0.214049 0.0688406 0.15887 0.482189 -0.308297 0.0648007 0.0907163 -0.177758 -0.242992 0.0678822 0.110169 0.184016 0.220805 0.255008 -0.0859029 0.201896 0.105867 -0.185889 0.00879113 -0.0970301 -0.637069 0.316312 0.0806299 -0.169417 0.228648 0.268185 -0.0061285 0.071405 0.174217 0.0996044 0.0531442 -0.0195607 -0.161027 0.0524217 -0.394398 0.103894 0.0682484 -0.0778581 -0.165171
591016 -0.155896 -0.0246836 -0.0546479 -0.0447674 -0.126061 0.440214 -0.302282 0.216579 -0.00129363 -0.0877071 -0.0304439 -0.0556397 -0.00272671 0.166197 -0.0552579 -0.130412 0.0682235 -0.157642 -0.0127753 0.0909932 0.024267 -0.251151 -0.0334179 0.232401 -0.242055 -0.18458 0.351312 0.141069 -0.22296 0.409243 -0.179166 0.531392 -0.226306 -0.447514 -0.0509315 0.0663664 -0.243756 -0.234589 0.426412 0.049064 0.0620518 0.282841 -0.169641 -0.0935309 0.152992 0.229586 -0.225429 -0.253321 -0.152218 -0.268234 -0.401456 0.169454 -0.120294 -0.0221109 -0.117975 -0.224709 0.101304 -0.0841966 -0.185769 0.038559 -0.114755 -0.236004 0.326053 -0.12436
341188 -0.0181897 0.0792698 0.195841 -0.155984 -0.219932 -0.32345 -0.252497 -0.297509 -0.0664078 -0.00147798 -0.016475 0.380901 -0.350394 -0.41417 -0.366403 0.435131 0.00874136 0.150005 0.486302 -0.0805578 -0.153949 0.599198 0.15599 -0.0943411 -0.0652732 0.126043 -0.0117336 0.129047 0.201264 0.0492693 0.393841 -0.243323 0.0986543 -0.0250851 0.336871 -0.0699687 0.135046 0.317944 -0.348751 0.107077 -0.194091 0.160999 -0.0771664 0.6867 -0.247403 0.117134 -0.19417 0.095918 0.332425 -0.262075 -0.260674 0.223887 -0.0739775 -0.291081 -0.387112 -0.22774 0.141078 0.387906 0.376899 0.641686 0.0770059 0.0394978 -0.444338 -0.219896
6814 -0.27708 -0.252362 -0.0909725 0.353942 -0.372195 -0.243439 -0.0387202 -0.269136 0.00842436 -0.109827 -0.0573566 0.243434 -0.160277 0.00658641 -0.177015 -0.0705786 0.0127591 -0.15035 0.13042 0.499518 -0.00548643 0.439131 -0.1579 0.0627882 -0.304274 -0.279307 -0.313568 0.264766 -0.036735 -0.0137204 -0.0756469 -0.146054 0.0551164 0.113893 -0.316085 0.113745 -0.0101072 -0.133546 -0.019301 -0.272887 0.107487 0.1079 -0.0119957 0.245184 -0.0699993 0.925666 -0.0183225 -0.0255392 0.172403 -0.237732 -0.0669622 0.039459 -0.0553484 -0.0716899 0.0992054 0.0371739 -0.180498 -0.103311 -0.0417138 0.0220313 -0.122416 0.237698 -0.0256608 -0.0909849
167670 -0.177883 -0.00978111 -0.0843995 -0.121205 0.0522154 -0.0863425 0.737388 0.294785 0.0210034 0.0996563 -0.113523 0.19184 0.072182 0.227282 0.311772 0.0325425 -0.24304 -0.151206 0.349744 -0.0532981 -0.24024 -0.288426 -0.161405 0.203928 -0.176771 0.110044 -0.890561 -0.320437 -0.228739 -0.0684613 0.0430741 -0.405137 0.290143 -0.452998 -0.0906913 0.600136 0.142689 -0.0267614 0.307533 0.00864143 0.106102 -0.294 0.453054 0.0593002 -0.16865 0.239564 0.351479 0.152186 0.297228 -0.122651 0.48648 0.236443 0.272924 0.497854 -0.38861 0.00980462 -0.215027 -0.659721 0.4281 -0.17251 0.1732 0.152305 0.14698 -0.262146
299195 0.143639 -0.0302249 0.0494175 0.1601 -0.276267 -0.343257 0.0890197 -0.132749 -0.0445033 -0.127901 0.163813 -0.0578151 0.140318 -0.172871 -0.169544 0.117913 0.121835 0.163877 0.196149 -0.184589 -0.0554281 0.528931 0.105389 0.134422 0.124962 0.318382 -0.164212 0.102825 -0.386881 0.0543835 0.263551 -0.094248 0.303235 0.589041 0.139616 -0.30689 -0.15853 0.137425 -0.560542 0.0129626 -0.113026 -0.126468 0.0561185 0.258322 -0.091993 0.63815 -0.267098 0.139231 0.50189 -0.392358 -0.190573 0.0916414 -0.030318 -0.0797039 0.170647 -0.139657 0.321478 0.279028 0.152533 0.438187 -0.0128609 0.30456 0.0442021 0.229401
1128267 0.172694 -0.0101078 0.0768315 0.0283315 0.0167926 -0.27851 0.0371048 -0.19947 -0.0830976 0.123022 -0.000890171 0.137238 -0.110075 -0.286634 -0.0128452 0.199757 -0.00779086 0.167649 0.254457 -0.049937 0.0799686 0.152627 -0.0253651 -0.237039 0.00597176 0.111898 -0.134858 0.220267 0.220331 -0.237755 0.266044 -0.33747 -0.0525595 0.188163 0.186834 -0.0358794 0.212139 0.290693 -0.307738 -0.0230553 -0.18668 0.051047 0.0482201 0.366711 -0.271723 -0.0491709 0.127793 0.118362 0.168975 0.185082 1.77008e-06 -0.109612 0.173512 -0.0903141 -0.183609 0.02007 -0.032938 0.0746849 0.219301 0.167645 0.0828237 0.114467 -0.278011 -0.0601639
233106 0.00444953 0.00422771 0.0329948 0.0223104 0.00299067 0.00139205 0.0172256 0.016524 -0.00465325 0.00784375 -0.0227775 0.0673617 -0.0441397 0.00245178 0.00782339 0.0405902 0.0496479 0.00309713 0.0447268 0.0174965 0.0142166 0.0756631 -0.0276422 -0.031503 -0.0386162 0.0122833 0.0201255 -0.0344886 -0.0129659 0.025837 -0.0174578 -0.0355155 0.00133277 0.00186387 0.00309482 0.0547946 -0.0145714 0.0569322 -0.0115369 -0.0677378 -0.0728779 -0.00640499 0.0484309 0.034856 -0.0164896 0.0357219 -0.0214809 0.0338903 0.0517546 0.0164567 0.00237651 0.00734578 -0.00684523 -0.0267099 -0.0314007 -0.039887 -0.000147607 0.0267216 0.0183034 0.0423235 0.0059518 0.00867346 -0.00901596 -0.00800299
853150 -0.212719 -0.188846 -0.160892 -0.0419824 -0.0495889 0.0766486 -0.000694565 -0.117455 0.102156 0.0271314 0.106025 -0.3015 0.232461 0.0123412 -0.0223254 -0.140091 -0.120098 -0.108226 -0.315295 -0.138693 0.046518 -0.21749 0.00511189 0.108604 0.126593 -0.0904918 0.0111085 -0.106224 -0.202931 -0.255177 0.0844268 0.177495 -0.0216098 0.0163921 0.089363 -0.0811009 0.12816 -0.203735 -0.0288626 0.148798 0.168472 0.144145 -0.119287 -0.0743971 -0.000900432 -0.122559 0.0566761 -0.136396 -0.11032 0.0184237 0.0871124 -0.0642199 -0.0199775 -0.03687 0.0210259 0.117605 0.00947637 -0.102084 -0.0192546 -0.0588457 0.0160787 -0.0456115 0.217686 -0.0307044
1136814 0.0147449 0.134156 -0.0647233 -0.212935 0.182353 0.0872701 0.0901255 -0.0314754 0.0051896 0.121788 -0.179816 0.111245 -0.0779341 0.02102 0.0524295 0.0241593 -0.168422 -0.0481175 0.0331205 0.0872979 0.0778088 -0.361875 0.00790309 -0.232451 -0.13123 0.00987804 0.029792 0.106548 0.444104 -0.153069 0.00619557 -0.128184 -0.20444 -0.302966 0.0277134 0.222594 0.228543 0.0374412 0.234978 0.0192506 0.0219083 0.10137 -0.0454918 -0.067878 -0.0630448 -0.643129 0.216186 0.0408087 -0.272898 0.331328 0.173905 -0.0613335 0.0990556 0.076812 -0.0516302 0.160558 -0.185145 -0.235472 -0.0454527 -0.313973 0.0263654 -0.100995 -0.0852043 -0.2211
1110998 -0.199232 0.175659 -0.134611 -0.194357 0.364449 0.214073 -0.0886525 -0.0902792 -0.0525842 0.245857 0.06232 -0.356048 0.438333 0.337107 0.0864078 -0.0416268 -0.156418 -0.381774 -0.359148 -0.277812 0.0445735 -0.416968 0.0424733 -0.352809 -0.18999 -0.0414547 0.309027 -0.290162 0.0424553 -0.318422 -0.00393302 0.206972 -0.120649 -0.293762 0.373407 -0.381199 0.192554 -0.0507025 -0.172266 0.383666 0.0765694 0.0532386 -0.249174 -0.158455 0.0052268 -0.524302 0.347696 0.150718 0.249075 0.110053 0.297047 -0.226464 0.121834 0.00749835 -0.0391496 -0.0162827 -0.248603 -0.0159191 -0.108616 -0.214628 0.398314 -0.401177 0.534179 0.0257859
25794 0.0961527 0.173659 0.0999195 -0.0332325 -0.316268 -0.0837147 0.298517 -0.0917907 -0.163794 0.0721074 0.00926842 0.0774572 0.011347 -0.00892591 -0.047535 -0.0774814 -0.0787459 0.151026 0.105353 0.13401 -0.138602 0.0560841 0.101408 -0.147271 0.383904 0.169793 -0.209745 -0.312105 0.104476 -0.304396 0.128359 -0.318717 0.0962564 0.251176 0.103512 -0.099381 -0.0348345 -0.0644759 -0.248212 -0.283837 0.277558 -0.511256 0.283262 -0.226393 0.0248611 -0.257622 -0.131484 0.0886522 0.314325 0.25118 0.558498 0.0845164 -0.0810703 0.0487798 0.179501 0.147515 -0.309913 0.0587905 -0.205441 -0.252818 -0.0189883 -0.157327 -0.225156 0.257679
293285 -0.102112 0.0650806 -0.14397 -0.0347958 0.117236 0.0867985 0.0427034 -0.0094587 -0.101078 0.122069 0.063423 -0.0454407 0.225587 0.132133 0.0108658 -0.160784 0.0851963 -0.106496 -0.165512 0.156728 0.0881546 -0.36138 0.0668362 -0.303761 0.133985 -0.129985 -0.122509 0.0888961 0.101973 -0.152989 -0.0687393 -0.0528494 0.228316 -0.0263145 -0.206645 0.251681 0.143795 -0.110899 0.162489 -0.120558 0.0196279 -0.0864421 -0.0358716 -0.107731 -0.0241704 -0.234115 0.124035 0.0773913 0.0167888 0.195743 0.374654 0.0205294 -0.124907 0.237691 0.059768 0.124445 -0.290144 -0.135485 -0.164354 -0.341933 -0.208369 -0.140941 0.164267 0.192679
1120786 -0.012776 -0.16272 -0.0157369 0.0585057 -0.161501 -0.101284 0.0939382 -0.0229863 0.0969411 -0.106386 -0.0588369 0.0624679 -0.147987 -0.18599 -0.0569174 0.00707583 -0.112491 0.139663 0.0109347 0.127575 0.0783256 0.0559812 -0.0445147 0.24158 0.134022 0.00780322 -0.225675 0.0769568 -0.0541523 -0.0205097 0.0250063 0.0223398 -0.0786702 0.0522448 -0.119616 0.167472 0.0231078 -0.0577384 0.0814945 -0.153557 0.0550631 0.0241808 0.0263338 0.0664995 0.00801671 0.0942038 -0.121768 -0.0407613 -0.24858 0.0392491 -0.0945856 0.0478331 0.00636147 -0.0392601 -0.0593774 0.0749926 0.0417041 -0.101373 0.0720909 0.0297772 -0.222437 0.169261 -0.221897 -0.065216
1107861 -0.00874043 0.171227 -0.0277987 -0.0612768 0.133887 -0.333777 -0.227983 -0.133862 0.0040434 -0.0166774 -0.0502783 0.122278 -0.111403 -0.267558 -0.0639992 0.124466 0.0860942 -0.102441 0.414686 -0.00461454 -0.150034 0.116483 0.131218 0.00901785 0.0818664 0.0991157 -0.16041 0.262439 0.00577754 -0.0528854 -0.0995529 -0.0626519 0.0644122 0.0267816 0.112536 0.0626872 0.104332 0.222062 0.079533 -0.0749247 -0.0540049 0.119253 0.303035 0.16968 0.0707998 0.0862758 -0.190983 0.341961 0.220236 -0.0828345 -0.132112 0.104482 -0.0903474 -0.00488784 -0.138751 0.105542 0.307734 -0.0819011 0.0115504 -0.0278301 -0.365833 0.0522358 -0.178111 0.123051
300806 0.127612 0.283857 -0.0790794 -0.475315 0.181246 0.160327 0.0406453 -0.0919189 -0.116499 0.0884181 -0.162418 -0.14063 0.00811862 -0.341316 -0.0843173 0.0925372 -0.173847 0.264465 -0.0633353 -0.264217 0.122601 -0.149521 0.17028 0.151175 -0.11235 0.0650648 0.182274 -0.136241 -0.0187549 0.00494473 -0.0412305 0.207235 -0.0765866 0.0755389 0.273967 0.0240888 -0.012546 -0.217889 0.138424 -0.106582 0.167826 0.103245 -0.16466 -0.111843 0.0341879 -0.463873 -0.103983 0.229252 -0.310873 -0.205867 -0.224831 0.437613 0.135197 -0.0891114 0.0622145 -0.0253083 0.101352 -0.116631 0.0709224 0.0419141 0.0259279 0.242794 -0.236621 0.0690164
103528 0.00733162 0.0775314 -0.111423 -0.0343698 -0.0988948 -0.129478 0.0638795 0.0669919 -0.207401 -0.000767482 0.00376761 0.0113286 -0.113634 0.0596599 0.0128504 -0.254657 -0.0296469 0.162399 0.107965 -0.107181 0.0457703 -0.149527 -0.0124076 0.0264838 -0.0708468 -0.0882586 -0.0624773 0.0858696 -0.0839814 0.094604 0.149874 0.050346 -0.163401 -0.0184877 0.0373981 -0.130497 -0.138124 -0.067331 -0.184488 0.0615206 0.0501555 0.0419119 -0.0337701 0.122261 0.127476 0.095531 -0.10631 0.0492037 0.221366 -0.090369 0.00731071 -0.122315 -0.0827579 0.092105 0.11962 -0.176156 -0.0130569 0.00337737 -0.0410047 0.00754789 -0.00327228 0.240222 0.0798794 -0.00856422
35854 0.131544 -0.0375203 -0.14289 -0.0864403 -0.249528 -0.173185 0.166856 -0.180455 -0.127095 -0.0114792 -0.0421889 -0.0967951 0.15126 -0.371898 0.0786811 -0.0809433 0.0647754 0.155778 0.189203 0.237256 0.277163 0.345833 -0.135188 -0.0180328 0.107464 -0.170525 0.319392 0.097876 -0.0455673 0.143254 0.104723 0.127559 0.110147 0.223741 -0.131916 -0.318127 -0.149682 -0.310301 -0.186197 0.0357458 0.248084 -0.0280547 -0.12642 -0.0717217 0.0437483 -0.110824 -0.138658 0.368198 -0.108653 0.304509 -0.0540537 0.1645 0.326725 -0.220099 0.185607 -0.150815 0.0341685 0.283676 -0.0997626 0.247753 -0.0553087 0.108247 -0.219772 0.240882
22241 -0.0883467 0.0420477 -0.151857 0.222847 -0.0313466 0.121179 -0.390247 0.186141 -0.086429 0.256823 0.357021 -0.100946 -0.1331 -0.12268 0.0689006 0.270409 0.15002 -0.121064 0.25741 0.165871 0.284945 0.395109 0.0109189 0.393189 -0.0600101 -0.15032 -0.206951 0.150371 0.14628 -0.0297398 0.136201 -0.33608 0.000917887 0.0308627 -0.148383 0.0956074 -0.0885621 -0.0268208 -0.29467 0.0974192 -0.229483 0.0291451 -0.0941834 0.046478 -0.483489 -0.290085 -0.0601181 -0.242875 0.103148 0.202314 0.00699816 0.210743 0.111208 0.119177 -0.504752 -0.11569 -0.0404368 0.0637765 -0.257847 0.27386 -0.00768927 -0.0914955 -0.16284 0.0370103
1124844 0.581476 0.0970483 0.16756 -0.285421 -0.112074 0.0294415 0.34095 0.180651 -0.262036 0.169641 -0.0163156 -0.108762 0.342821 -0.349963 0.0739067 0.224725 0.17 -0.0869989 -0.176533 -0.307734 0.0293963 -0.232385 -0.143043 0.0630421 0.137885 -0.194975 0.333996 0.0150181 0.12924 -0.185308 -0.112937 0.0230254 0.0647341 -0.0869221 0.0813752 0.143469 0.020037 0.0850879 0.116379 0.132679 -0.376525 -0.0650583 -0.0828617 -0.0981214 -0.00258046 -0.331345 0.181267 0.0968036 -0.116901 0.0259761 0.0198018 -0.130442 0.288426 -0.253898 0.0316369 0.113009 -0.0650859 -0.167418 0.0389508 -0.0563925 -0.16153 0.0749662 -0.0442554 -0.158577
1131192 0.0516717 -0.014107 0.0436572 -0.106853 0.105319 0.0871429 0.176006 0.384115 -0.0596248 0.052912 -0.0333598 -0.0343546 -0.118337 0.109362 0.169705 -0.101633 -0.0779231 0.245261 -0.0381987 -0.142354 0.382514 -0.211242 0.164612 -0.20825 -0.175312 -0.049678 -0.182906 -0.121307 -0.0706853 -0.181776 0.0988759 0.0553669 0.100195 -0.152828 0.081862 0.0493896 -0.0246439 -0.0350987 0.142069 0.0299795 0.152103 -0.334228 0.173401 -0.226394 -0.0644623 -0.232273 -0.198336 0.0994426 -0.127251 -0.16638 0.115547 -0.121572 -0.00099583 0.161204 -0.158658 -0.0918058 0.0860336 -1.568e-05 -0.230806 0.0225259 0.110088 -0.260037 0.0471918 -0.000523244
1103016 0.0169086 -0.0267919 0.00407415 -0.075346 0.0441352 0.0833114 0.132214 0.232064 -0.00800066 0.0529824 -0.0277541 -0.0136223 -0.0860716 0.0545245 0.0912889 -0.0668251 -0.0494659 0.16541 -0.047048 -0.110095 0.253816 -0.141802 0.0788201 -0.115769 -0.120857 -0.0192116 -0.129799 -0.0850802 -0.0431837 -0.125527 0.0523422 0.013091 0.0911106 -0.0971295 0.0555117 0.0703896 -0.0434518 -0.0180858 0.079881 0.0160217 0.0904195 -0.17625 0.110575 -0.156201 -0.0259484 -0.114972 -0.100455 0.0554966 -0.103343 -0.0865385 0.0511511 -0.127477 -0.0241211 0.127501 -0.106999 -0.0625372 0.0806353 0.00170517 -0.178676 0.0168902 0.0573097 -0.140312 0.0475407 -0.0112375
1131828 -0.0115 0.0110212 0.0253234 -0.0246958 0.0137085 0.0652057 0.00096164 -0.00440368 0.038141 0.00942695 0.00937549 -0.0234786 0.0119088 0.0278206 -0.00733418 -0.0147545 -0.0301518 0.0167548 -0.0317434 -0.00133596 -0.0193461 0.00587143 0.00838441 0.0179034 0.020235 -0.00544336 0.040976 -0.0450032 -0.00710786 -0.0225485 -0.0609653 0.00418548 -0.0195964 -0.015205 -0.0235136 -0.00565718 0.00988021 0.0106852 0.0544602 -0.0385787 -0.0100407 0.000272947 -0.0111245 -0.0370179 0.0328447 -0.0389933 -0.00346803 -0.00144894 -0.0384002 0.00130216 0.0132834 0.0132517 0.00979376 -0.0387543 -0.0149825 0.0180169 0.0319042 -0.0100026 -0.0222259 -0.0104338 0.0149067 -0.0588157 0.0303372 -0.0196349
1152272 -0.0479114 0.341543 0.0431253 0.0282722 -0.449857 -0.461738 0.36332 0.162011 -0.246002 0.201268 0.449818 -0.0728198 -0.0305082 0.213756 -0.0258078 -0.0625273 0.121521 -0.141512 0.129372 0.352668 -0.151097 0.436863 0.0169656 -0.121681 -0.575215 -0.347156 0.0148321 0.131548 0.0652146 0.118222 -0.550191 0.127045 -0.0224269 -0.187505 -0.178926 0.0353774 -0.16983 -0.168631 0.0340726 -0.0890934 -0.206756 0.15618 -0.211514 -0.34335 -0.0100424 0.914881 0.147555 -0.0241258 -0.00545895 -0.237398 0.102252 -0.00702476 -0.00220206 -0.0488919 0.0966915 -0.145623 -0.398789 0.0860388 -0.138633 0.113085 -0.13127 0.257353 0.0918548 -0.199042
409255 -0.0330756 -0.046574 0.00326707 0.074759 -0.183541 0.0964301 -0.0525399 0.226879 0.138252 0.110199 -0.0833276 0.0822676 0.0626205 -0.0625775 -0.0953877 0.105547 0.156783 0.229869 0.140713 -0.0064002 -0.186818 -0.0203122 0.0156186 0.0905717 -0.0705575 -0.0546645 0.121701 -0.246873 0.0917615 -0.00860712 0.0876609 -0.210958 0.13832 0.100873 0.0602892 0.218988 -0.0123264 0.14835 0.0890896 0.258949 0.000856015 -0.11288 -0.0491269 0.00178497 0.0656725 0.0344268 0.0954586 -0.140096 0.257982 -0.277097 -0.0867816 0.061902 0.0164325 0.122098 -0.284446 -0.100533 0.12548 0.0185953 -0.11017 -0.0395116 0.02931 -0.0545593 0.162429 -0.0506539
1119742 -0.0398241 0.0200906 -0.0372054 -0.0590024 0.0401741 0.0638515 0.00139717 0.0349259 0.0184753 -0.021067 -0.0162946 -0.0334706 0.0507038 0.0600344 0.00547828 -0.0721947 -0.0132346 -0.0112338 -0.0479405 0.0530571 0.0175382 -0.105784 -0.000595589 0.0192916 0.00356975 -0.0193072 0.0264244 -0.00711285 0.0198842 -0.0169023 -0.0493902 0.0512105 -0.0354442 -0.0711442 -0.0600048 0.0376592 0.00380541 -0.062865 0.0980604 0.00461548 0.0381805 0.0150941 -0.0480164 -0.0880649 0.0517465 -0.0731614 0.0445932 -0.0221649 -0.0548435 0.0304651 0.0444431 0.00090846 -0.0129876 0.0487003 0.0316735 0.0402441 -0.0724328 -0.0281629 -0.0158801 -0.116728 -0.0322804 -0.0709575 0.0110988 0.0240397
49660 0.0191246 0.500765 0.0579733 0.235813 0.381508 0.852809 0.0679167 0.61977 0.151032 0.134386 0.0906545 -0.0621439 -0.243166 0.0684476 -0.0296906 -0.364169 -0.0503577 0.220448 -0.0974679 -0.408178 0.062962 -0.047198 0.254708 0.254734 -0.0115234 -0.415982 0.609523 0.225611 0.311821 0.188384 -0.197394 0.362214 -0.780125 -0.0666445 -0.331142 0.0536513 0.149386 -0.193442 0.749601 0.158465 -0.1454 0.455555 -0.233599 -0.544311 0.427861 -0.231014 -0.135581 -0.628168 0.0419003 -0.0838884 0.0464595 0.0737836 -0.149394 -0.0314201 0.0962252 0.0483016 -0.333285 0.0381639 -0.457466 0.00114481 0.129231 -0.428133 -0.237484 -0.0543022
28227 0.20477 -0.0587927 0.12329 0.126166 -0.0255294 -0.421052 0.132711 -0.344285 0.00629451 0.194603 0.117991 0.185146 -0.18812 -0.438593 0.0233659 0.280107 -0.0527349 0.206505 0.2765 0.00823248 0.127172 0.161385 -0.00972664 -0.179518 -0.00358786 0.118994 -0.147837 0.296934 0.20599 -0.3372 0.359121 -0.425363 -0.0557363 0.27178 0.364586 -0.133122 0.336136 0.495511 -0.421076 -0.109418 -0.200394 0.0121443 0.158126 0.532783 -0.398044 -0.0616344 0.119035 0.184253 0.270273 0.237118 -0.0207253 -0.134935 0.257182 -0.157223 -0.147454 0.0570391 -0.123044 0.169867 0.193972 0.2989 0.02634 0.163185 -0.424506 -0.0611365
6130 0.0596255 -0.135716 -0.0128787 0.154174 -0.243707 -0.245552 0.00546036 -0.361008 -0.0494187 -0.0722023 0.124383 0.281075 -0.148153 -0.306244 -0.131337 0.147713 0.0679388 0.141835 0.122324 0.0651562 0.00853392 0.260668 -0.0682481 -0.0975787 0.0923487 0.129286 -0.20282 0.319611 0.0630523 -0.182763 0.348458 -0.327379 0.050443 0.264821 -0.0994857 0.0149261 0.0160831 0.0947095 -0.22703 -0.126553 -0.0426623 0.0575841 0.123767 0.298544 -0.283118 0.0714498 -0.181123 -0.00987015 0.121014 0.111846 -0.0830487 0.0640019 -0.00697115 -0.075566 -0.0732523 -0.0413894 -0.0394497 -0.0338429 0.0967748 0.152963 0.0552997 0.309035 -0.275846 -0.149538
1153024 0.218991 0.25805 -0.113569 0.0621121 0.133622 0.136625 0.280015 -0.185184 0.159885 0.0376496 0.0128769 0.0866785 0.262609 -0.0921841 -0.0651486 -0.112525 -0.155024 0.0602798 -0.0597203 0.235351 0.17263 -0.277752 -0.0632231 0.0590558 0.0608106 0.0833659 0.0551593 0.060606 -0.143273 -0.0864414 0.0854269 -0.0878085 -0.0309821 -0.131747 0.238106 -0.0408095 -0.346128 0.099864 -0.0267699 0.026273 0.249309 -0.360003 0.212736 0.0185173 0.127894 -0.0839504 0.0705951 0.00878097 0.0430642 0.0265224 -0.0797127 0.113362 0.122068 -0.121301 -0.169861 0.102815 -0.0310731 0.276069 0.0271131 0.0432824 -0.0344941 -0.0846131 0.0936042 -0.123994
504 0.26648 0.307886 -0.0524158 0.0782276 0.111324 0.0866754 0.416685 -0.298 0.172848 0.0647858 0.000831052 0.0984621 0.263692 -0.144852 0.00204255 -0.12552 -0.179318 -0.0475896 -0.139269 0.275853 0.191801 -0.239722 -0.0880538 0.0805336 0.0273638 0.0449855 0.021107 -0.0448169 -0.0784259 -0.0418881 0.0804256 -0.186249 -0.00137411 -0.0738896 0.257746 0.0331158 -0.336142 -0.0159424 -0.137487 -0.0468721 0.264903 -0.291159 0.205831 0.0425142 0.173442 -0.0296274 0.128989 0.00943732 0.0569968 0.0961249 -0.11498 0.133654 0.205856 -0.257167 -0.169162 0.0744276 0.0217456 0.271919 0.112303 0.0441476 -0.00993275 -0.0158628 0.125375 -0.221479
34708 0.0123685 -0.241739 -0.00329845 -0.175556 0.364745 0.0622995 0.0735683 -0.129125 0.149366 0.0777724 -0.192734 -0.0237211 0.289511 -0.481651 0.0521302 -0.152863 -0.0597089 -0.0526934 -0.155266 0.115626 0.100789 -0.227489 -0.0175263 0.040684 0.393215 0.112338 -0.0245755 -0.0451316 0.00648988 -0.370556 0.345907 -0.142994 0.137084 0.259184 0.266696 -0.0447617 0.111456 -0.113376 0.109061 -0.00638149 0.203645 -0.195828 -0.012277 0.114574 -0.0429321 -0.329959 -0.16266 0.0160892 -0.0846869 -0.0889281 -0.201686 0.0497197 -0.189427 0.29821 -0.325843 0.116954 0.115262 0.00754976 -0.170055 0.0598893 0.0256463 -0.193058 -0.150247 -0.0704232
1127530 -0.124296 0.0390492 -0.338262 0.0434198 0.0592233 -0.355402 -0.0351783 -0.204276 0.0137968 0.0686135 -0.0911756 0.0340577 0.179371 0.0684232 -0.0097446 0.107638 0.0200098 -0.0673493 0.203974 -0.197581 -0.304396 -0.0652537 0.170509 -0.067136 0.169849 0.00263527 0.0363044 0.413347 -0.161112 -0.0688795 -0.0890219 -0.13854 0.141795 0.0562494 0.106955 -0.225881 0.0117341 -6.76952e-05 0.0302764 0.0665865 -0.0877654 -0.00524466 0.0517142 -0.108986 -0.128964 0.195573 0.0758183 0.0363027 0.276034 -0.278829 0.113709 0.0283583 -0.246885 0.188575 -0.217155 -0.012193 -0.276082 0.0724945 -0.205787 0.159058 -0.381822 0.157692 0.222653 0.219631
287787 -0.074142 0.541104 0.0439459 -0.630928 0.316857 0.0910721 0.0497266 -0.39063 0.0886422 0.252429 -0.630291 0.46759 -0.310476 0.110523 0.0878737 0.0464091 -0.361675 0.107054 0.106854 0.151189 0.0357177 -0.680408 0.000504831 -0.373293 -0.229987 0.0051282 -0.0104886 0.10867 0.96874 -0.442886 0.196808 -0.091872 -0.367538 -0.758689 0.0538816 0.317542 0.453573 0.112546 0.481498 -0.0125983 0.0353936 0.232174 -0.195295 -0.119094 -0.0598531 -1.42771 0.546743 0.440704 -0.471195 0.6756 0.414529 -0.110854 0.0964634 -0.0941262 0.0535484 0.295255 -0.358129 -0.4051 -0.00100201 -0.579503 0.164555 -0.026969 -0.353432 -0.273905
1110390 -0.0696995 -0.0016135 0.0535033 -0.135704 0.00630138 -0.0978032 -0.0287287 -0.0438945 -0.0370058 -0.153587 0.207978 0.101526 -0.174483 -0.153158 -0.050757 0.0952335 0.0352249 -0.0420977 0.155747 -0.108279 -0.0242283 0.134031 0.0828943 -0.000464414 0.0116756 -0.072511 -0.108733 -0.0974324 0.16591 -0.113861 -0.0335811 -0.161526 0.0512232 -0.0665033 0.00284846 0.150158 0.290882 0.0513864 -0.0825433 -0.0185709 -0.0738812 -0.0219713 0.181159 0.0759928 -0.0484121 -0.134552 -0.13032 0.246507 0.132454 0.0691793 0.0830164 0.00853631 0.023856 0.0805316 -0.0176596 0.108095 0.0569941 -0.0154767 0.187482 -0.0134015 0.161843 -0.128675 -0.211025 0.0134409
28649 0.0643352 0.216177 -0.158068 -0.172505 -0.231114 -0.110274 0.432823 0.180174 0.105786 -0.161286 0.119908 -0.111089 -0.0559684 -0.0487105 0.1013 -0.0234611 0.0634598 0.104378 0.271466 -0.138237 0.167978 0.208895 0.0589446 0.169494 0.345426 -0.111538 -0.0112184 0.0152466 -0.149774 -0.0449051 0.0626436 -0.0266157 0.0685165 -0.0937884 -0.0297521 -0.127213 -0.0626129 -0.33115 -0.144687 -0.105926 0.300627 -0.12217 0.142558 -0.204386 -0.0262117 -0.0156986 -0.138509 0.198989 0.345566 0.199079 0.301701 0.365338 0.377697 -0.181921 0.0878861 -0.054734 -0.142125 0.0654345 -0.093925 0.00416487 0.140199 0.104438 -0.205948 0.219655
684986 -0.113599 -0.27871 -0.00475726 0.0272535 -0.308632 -0.096125 0.243843 0.0926652 0.122806 -0.217466 -0.202071 0.102573 -0.287932 -0.315638 -0.1307 -0.00995891 -0.153017 0.318735 -0.0344348 0.170067 0.122692 0.0467538 -0.14862 0.348932 0.167383 -0.0168869 -0.284486 0.0887425 -0.119554 0.00842476 0.0496597 -0.0509673 -0.140921 0.0275145 -0.0518002 0.221653 0.0179597 -0.077119 0.0720486 -0.218407 0.0880991 0.05361 0.0601875 0.15718 -0.0485365 0.0821008 -0.170467 -0.0632272 -0.40886 0.0135711 -0.117234 0.00743023 0.0430734 -0.0618622 -0.0583174 0.112532 0.0973139 -0.129492 0.180118 0.0396945 -0.324292 0.298841 -0.30482 -0.126803
1154276 -0.0205251 -0.202355 -0.065333 -0.0242344 -0.0866197 0.195355 0.150831 0.159942 0.0015531 0.154845 -0.168462 0.104079 -0.179992 -0.0399136 0.0457605 -0.255995 -0.0672148 -0.115915 -0.255401 0.0491197 -0.0911634 0.0166887 -0.200363 0.040225 0.242135 -0.0798419 0.0565653 0.0150842 -0.197985 -0.0139668 -0.0720634 0.197939 0.0329362 -0.0501891 -0.162338 0.0373421 0.0707324 -0.204704 0.248386 -0.131311 0.148893 0.00559064 0.0675877 -0.00900911 0.050319 0.0382918 0.155305 -0.251138 -0.309427 -0.0345777 0.0898389 -0.0750921 -0.101048 -0.0524788 -0.0112446 0.156045 -0.211795 -0.257067 0.0109272 -0.122097 -0.154378 0.0931239 -0.170456 -0.233715
1953 0.0939727 0.0506668 0.0546258 0.219571 -0.0599528 0.23926 0.0998733 0.198162 -0.111103 0.184136 0.0545225 0.0819839 0.339339 -0.251511 0.164678 -0.380262 0.131411 0.0673322 -0.137386 0.0352106 0.00278939 -0.0657344 0.0463641 -0.120077 0.00594839 -0.108337 0.0220551 0.193332 -0.198791 0.276898 0.0426285 -0.235773 -0.232624 -0.0452963 0.0953577 0.0837431 -0.0482581 -0.077513 -0.0777451 -0.0596688 0.0661789 -0.0611598 -0.0633568 0.154371 0.0131639 0.148713 -0.0290427 -0.427501 -0.0624849 0.204149 -0.361708 0.00687265 0.317379 -0.203106 -0.545193 -0.125712 -0.0886446 0.0151695 0.0545166 0.32377 -0.160454 0.030899 -0.000797924 -0.118428
300071 -0.155589 -0.117003 -0.169484 0.0625178 -0.047542 -0.0264733 0.0807564 -0.0477933 0.142172 -0.228815 -0.0193075 0.0103566 -0.109052 -0.231613 -0.120511 0.102583 -0.132304 0.229129 -0.118298 -0.0375593 0.0920476 -0.029259 -0.159591 0.267416 0.313686 0.185325 -0.254735 0.10554 -0.255592 -0.122056 0.145192 0.036816 -0.0730321 0.110345 -0.11094 0.0715806 0.0715748 -0.176847 0.194899 -0.171514 0.122143 0.0126714 0.117669 -0.0843833 0.00149342 -0.170536 -0.221785 -0.0102197 -0.406606 0.0723946 -0.113801 0.15517 0.0383998 -0.0753891 -0.0440259 0.0276032 0.16155 -0.0308365 0.182388 0.0170888 -0.0819813 0.208048 -0.321134 -0.25989
714256 0.132161 -0.125458 0.561701 -0.0540938 -0.0146305 0.431992 0.225543 0.261501 -0.170166 -0.0777957 0.0297386 -0.0436222 -0.17709 -0.339795 0.148733 -0.273615 -0.00831136 0.0963973 -0.303585 0.376311 0.454849 0.268348 -0.204742 0.248793 -0.071312 -0.128352 -0.00142931 -0.583885 0.0202093 0.288663 0.113712 0.0563846 -0.163104 0.00871383 -0.0694625 0.411026 0.0689009 -0.158901 -0.165674 -0.0212186 0.189071 -0.027559 -0.079928 -0.0462992 0.242815 -0.267123 -0.174279 -0.152994 -0.479319 0.246637 -0.107768 -0.0306542 0.537483 -0.40336 0.196815 0.137418 0.244693 -0.0921933 0.283166 -0.21423 0.495415 -0.0447812 -0.513088 -0.26278
131315 0.102986 0.114342 -0.177583 -0.179257 0.384831 0.137833 0.0220969 0.00943743 0.0726595 0.036949 -0.0184707 -0.0142482 0.115085 -0.0828955 0.0121109 0.0276246 0.0122502 0.205634 -0.203083 -0.207758 0.130255 -0.52866 -0.0955772 -0.0281204 0.131632 0.192145 0.0366169 -0.0501585 0.143746 -0.199086 0.144943 0.0370065 -0.12044 -0.145242 0.0437671 0.0988149 0.0835356 0.0666574 0.134534 0.058691 0.0302304 0.125578 0.0927133 -0.108186 -0.0312589 -0.765663 0.00967572 -0.0360335 -0.420629 0.254577 0.00220345 0.106219 0.146438 -0.00502095 -0.0453198 0.0334674 0.0585916 -0.00574469 0.103391 -0.114563 0.140749 -0.0558121 -0.160946 -0.206159
167205 -0.0746991 -0.0390517 -0.180143 0.0476117 -0.0499648 -0.0216413 0.115137 -0.0486782 0.0543954 -0.0514125 0.093837 -0.00299489 -0.0539858 0.0821896 0.105502 0.0722851 0.117956 -0.07085 -0.0502825 0.0319212 -0.0313472 -0.0572052 0.113552 -0.0383875 0.0966447 0.054917 -0.0658897 -0.0318953 -0.091294 0.0475212 0.0565226 0.0602062 0.0484606 0.107678 -0.0579103 -0.0218711 -0.0192919 -0.0407436 0.0179027 0.0320244 0.099198 0.0808959 -0.170899 0.0326417 -0.0702329 -0.064528 -0.118852 -0.0741179 -0.118853 -0.143574 -0.0659533 0.111791 -0.0389811 0.0564079 -0.0365646 -0.154412 -0.0433063 0.0547756 -0.0597109 0.0467999 -0.0656036 -0.0192614 0.0374771 -0.0853072
141342 0.0883923 0.0442416 0.0783835 -0.332664 0.270205 0.175965 0.291494 -0.333406 0.0784706 -0.0625565 -0.31281 0.328653 0.11078 0.250717 0.204815 -0.366599 -0.148143 0.113928 -0.180544 0.0444056 0.0757597 -0.647545 0.0111191 -0.588211 -0.047138 -0.0533005 0.142847 -0.133739 0.329624 -0.336468 -0.0642333 0.157332 -0.260277 -0.397951 0.090715 -0.0967199 0.211719 0.0537521 0.561081 -0.0273905 0.349932 0.166468 0.103651 -0.0686346 0.112581 -0.564151 0.425591 0.0594159 -0.573591 0.2856 0.179105 -0.332463 -0.0018898 -0.139237 0.140079 0.52186 -0.525835 -0.398991 0.0113717 -0.551155 0.0975138 -0.148459 -0.0286087 -0.457815
1128208 -0.0270183 -0.153009 0.0503946 0.0781155 0.0227826 -0.0500729 -0.020185 -0.13525 -0.0264229 0.00915927 0.041157 0.0297292 -0.0919981 -0.0408686 -0.0419869 -0.00366836 0.0181804 0.0196243 -0.0548984 -0.102954 -0.0924925 0.0548719 -0.0468551 -0.0511029 -0.0349495 -0.217358 0.0217135 -0.0741948 -0.0585101 0.0309789 -0.00373884 -0.0697072 -0.0580594 0.0803263 0.00522526 0.00319823 0.00920915 -0.159014 -0.0516931 -0.0296831 0.032241 -0.116655 -0.00468157 0.0435894 -0.0344747 0.0800005 -0.105865 0.0729067 0.046521 0.00557533 -0.0959178 0.0422509 0.0375209 -0.00313721 -0.116234 -0.199676 0.0314944 0.138434 0.227227 0.0921074 0.0971622 -0.128608 -0.047181 0.160084
35335 0.0806578 -0.105898 -0.0309698 -0.11885 0.216488 0.256716 -0.0421462 -0.0348851 0.0581607 -0.0669592 -0.151651 0.0672807 0.0516754 -0.138149 0.0210388 0.0792716 0.0238463 0.0614706 -0.156822 -0.283945 0.0828448 -0.279038 0.0252209 0.122081 0.19608 0.117816 0.0381236 -0.0242837 -0.032239 -0.0232714 0.194938 -0.0628925 0.034313 0.106661 0.0778567 -0.0486315 0.084755 0.0584877 -0.039757 0.0276046 0.0344821 -0.0899451 0.0138886 0.0889162 -0.00804499 -0.459669 -0.0222189 0.012923 -0.0675717 0.132693 -0.112939 -0.0239208 0.00286984 -0.0582889 -0.00223294 0.126804 0.121585 -0.049426 0.0338383 -0.0581459 0.053138 -0.0735769 -0.0992102 0.0346915
1107418 -0.109567 0.135235 -0.15152 0.102707 -0.099344 -0.0283353 -0.370886 0.0809526 -0.0528287 0.163977 0.236154 -0.12436 -0.0894183 -0.107727 -0.0962755 0.256414 0.0275806 -0.118912 0.297863 0.0459955 0.0823848 0.377601 0.0153271 0.588114 -0.100114 0.0889863 -0.073248 0.0263142 0.089224 -0.00701419 0.124651 -0.108466 0.0520689 0.0487125 -0.075046 -0.00231345 -0.137972 -0.0266561 -0.290597 0.106261 -0.220006 0.054485 -0.193279 0.0406205 -0.388275 -0.260455 -0.268912 -0.134909 0.153988 0.104557 -0.0677275 0.39859 0.0480703 0.16793 -0.284513 -0.152251 0.0372972 0.140502 -0.148823 0.23764 -0.0126996 -0.0519929 -0.042718 0.00484772
1131172 -0.0200695 0.040205 -0.139721 0.156228 0.153399 0.041112 0.195845 -0.113708 0.198858 0.0101667 0.0419904 0.078631 0.108289 -0.198026 -0.0571588 0.0414047 -0.14569 0.148816 -0.197313 -0.182999 -0.105056 -0.0176529 -0.000337549 -0.166508 0.0801546 0.162192 0.24612 0.00630324 -0.0815403 -0.182957 -0.0153189 -0.0225486 0.185269 -0.017498 0.0467982 -0.0189801 -0.0243477 0.0257823 -0.0252323 -0.114807 -0.0315859 -0.101221 -0.0741406 -0.0731136 0.0393796 0.109807 0.186504 0.119356 0.0280577 -0.00554996 -0.0301748 -0.0349633 0.149377 0.0558287 0.166387 -0.039171 -0.197624 -0.165864 -0.0640503 -0.072856 0.0759067 0.036771 -0.0419551 -0.0855255
18615 -0.362433 0.175062 0.0843775 -0.309808 -0.745666 0.40477 0.357761 0.464473 -0.256078 -0.338373 -0.0516632 -0.0758116 0.132723 0.243991 -0.081036 -0.169891 -0.0548375 0.0640199 -0.0420536 0.211107 -0.119593 -0.350831 0.172497 0.455119 0.580718 0.0546141 -0.0917722 -0.400252 -0.695233 0.104284 -0.0717234 0.471705 -0.126728 -0.131459 0.111559 -0.22682 -0.343568 -0.68182 0.33804 -0.0917012 0.576351 -0.0573406 0.230265 -0.672483 0.23286 -0.230488 -0.201207 -0.0830158 0.127768 0.0621003 0.282404 0.633429 -0.317287 0.0385988 -0.0821064 -0.246962 -0.430787 0.0156554 -0.0699961 -0.338494 -0.0269666 -0.107481 0.174616 0.0896789
11325 0.0721831 0.0189171 -0.151572 -0.0602064 -0.207496 0.0572542 0.129809 0.050587 -0.189686 0.0700931 0.187941 0.0458422 -0.0993469 0.0434141 0.0774034 0.148375 0.211297 0.231394 -0.178482 -0.251694 0.0273686 0.22126 0.0617978 -0.0659503 0.129469 0.156802 0.180189 0.154497 0.219121 0.00819066 0.0553118 -0.29996 -0.0207746 0.166927 -0.0747403 0.0969016 0.0190416 -0.0993169 -0.368607 0.061562 -0.202362 -0.108159 -0.14838 -0.0176401 -0.00288347 -0.158987 -0.120931 -0.0671882 0.0886881 0.230771 0.147856 -0.111759 0.128623 -0.107122 0.146461 0.014466 -0.156177 0.253685 -0.139536 0.156813 0.421232 0.229452 0.0810152 0.0974892
1106418 0.241134 0.446765 -0.411291 -0.209024 -0.214475 -0.06068 0.401743 0.333213 0.167515 -0.628964 -0.151346 -0.15989 -0.0641844 0.231601 0.168506 0.153629 -0.0132621 0.125909 0.288817 -0.101559 0.280618 0.0219467 0.146946 0.0967921 0.463719 0.103388 -0.2295 -0.0224341 -0.357156 0.0321786 0.271194 -0.183812 -0.0702038 -0.0378286 0.0192194 0.141279 0.131651 -0.393573 -0.134459 0.0630218 0.475542 0.113162 0.268367 -0.123989 -0.0789785 -0.155893 -0.198698 0.13386 0.328246 0.179017 0.396159 0.386751 0.29442 -0.368693 -0.204569 -0.208173 -0.145986 -0.147483 0.273288 -0.0708343 0.357198 0.350098 -0.161732 0.101635
763181 -0.207659 -0.175237 -0.22346 -0.083643 -0.0862974 -0.0434621 0.049416 -0.112053 0.151239 0.02662 -0.0304657 -0.212709 0.186531 0.00741516 -0.149116 -0.242962 -0.140834 -0.0404279 -0.28917 -0.212504 0.0173753 -0.267525 0.0531769 0.0259712 0.134413 -0.0280885 0.0346813 -0.109303 -0.204597 -0.41174 0.0636864 0.144178 -0.085727 0.00869179 0.102898 0.0303041 0.0599457 -0.0333589 -0.0386636 0.135409 0.248015 0.151097 -0.0444617 -0.0156935 -0.132616 -0.25127 0.0341535 -0.0803468 -0.12099 0.0847436 -0.057535 -0.0510995 0.00535327 0.0680441 -0.132886 0.247822 0.0257305 -0.0465839 -0.00317704 -0.140909 0.0160599 -0.0283029 0.253704 -0.102663
1106401 -0.0183988 0.0705329 0.101594 0.138222 0.241705 0.0100623 -0.0627418 -0.135224 0.0604482 0.349926 -0.0390125 -0.0481776 0.0702463 -0.00553742 -0.0160962 -0.082541 -0.123866 -0.126723 -0.00427904 -0.0281701 -0.259493 -0.0625715 -0.0291958 -0.0429735 -0.236981 -0.163338 0.0276045 -0.0859531 0.150742 0.0252081 -0.232433 0.12802 -0.0224728 -0.102284 0.101238 0.0561196 0.028483 0.197734 0.181586 -0.107354 -0.185728 -0.00035509 -0.0473227 0.0321395 0.0555935 0.00691008 0.199823 -0.10922 -0.153428 -0.076325 -0.167349 -0.190431 -0.113947 0.240148 0.101945 0.134579 -0.070995 -0.334626 -0.0297815 -0.0231385 0.0328923 -0.103836 0.152455 -0.141757
307336 -0.106066 -0.184649 0.00116723 0.0521272 0.250461 0.071204 -0.028856 0.0227206 -0.0227533 -0.140088 -0.0927959 -0.0841886 0.0912485 0.0827823 -0.0527305 -0.198635 0.0556755 -0.212025 -0.271509 -0.0109571 -0.0582446 -0.186579 -0.0592288 -0.223868 -0.0293138 0.00828056 -0.319485 -0.0860973 -0.0769923 -0.164427 -0.0986701 -0.0933429 0.0424505 -0.160017 -0.0271868 0.0909611 0.165854 -0.0195344 0.016514 -0.0208887 -0.00589944 -0.238441 -0.135485 -0.111732 -0.181913 0.0410494 0.0955814 -0.0248245 -0.0991229 0.276459 0.226421 -0.291001 -0.0876838 0.0908725 0.0235738 -0.0232824 -0.23125 0.0712687 0.00837597 -0.251522 0.117514 -0.109705 0.107766 -0.0695257
17477 -0.129749 -0.310476 -0.167643 0.0050803 0.0226266 0.0360811 -0.00603441 0.00827059 0.0499772 0.071747 0.0504257 0.0614458 0.0118623 0.0960557 0.116165 -0.0022709 0.000904984 -0.149215 -0.240911 -0.0691041 -0.108893 -0.296677 -0.0949308 -0.179041 -0.0429085 -0.326451 -0.110098 -0.0308107 -0.0334339 -0.136152 0.0797609 -0.152673 0.179741 0.00187542 0.0444583 0.212679 0.0374121 0.0263063 0.0788044 -0.16511 0.0925355 0.0249658 0.03132 -0.138634 0.0171768 0.166976 -0.0643058 0.122703 0.0543376 -0.0285834 0.0988498 -0.061851 0.163469 0.0437851 -0.185005 -0.182853 -0.124049 -0.029935 0.168395 -0.17061 -0.00164964 0.0433828 -0.150419 0.255449
330208 0.129494 -0.0191976 0.161971 0.0724277 -0.0382128 0.0241053 -0.0221346 -0.152538 0.272819 0.102568 -0.101918 0.0252349 -0.0186265 -0.223751 -0.0765638 0.207872 -0.0422003 -0.0656697 0.123093 0.137626 -0.0251648 0.00786484 0.0957206 0.120307 -0.000226273 0.0472376 -0.109113 -0.171128 0.0121853 0.137247 -0.0506495 0.00036125 -0.242271 0.123543 -0.0560412 0.173189 0.0611672 -0.0266255 0.119791 0.0699926 -0.186586 -0.146053 -0.108634 0.187248 0.0648357 -0.0115062 0.0708171 0.135662 -0.0389196 -0.0390641 -0.0357534 0.054284 0.137574 0.0433414 -0.0668667 -0.0122644 0.137361 -0.110482 -0.100132 0.0287076 -0.184066 -0.15444 0.0666405 0.0664876
155158 0.033676 -0.00892541 0.0259309 -0.05043 -0.00617384 0.0101699 0.0624799 0.0918311 -0.0681491 0.00903648 0.0416488 0.0617743 -0.0347109 0.0465253 0.0383809 -0.0575041 0.0166516 0.0148529 0.0585568 0.0444579 -0.0336482 -0.000830802 -0.0580656 0.0270636 -0.0564594 -0.0118931 -0.0570267 0.0925956 0.00699404 0.0134774 -0.00118111 0.00282688 -0.114374 0.0173632 -0.0230415 0.0323471 0.0236188 0.0401061 0.0119367 0.0296682 0.0102047 0.0673372 0.0360174 0.093239 -0.013733 -0.00481851 0.053736 0.0370501 0.0501562 -0.0244379 0.0326233 0.0165078 -0.0572884 0.0111834 -0.00857133 -0.111859 -0.00690724 0.0126738 -0.0163605 0.0213849 -0.00218197 0.0663309 0.0791471 -0.00234873
278394 0.0627613 0.0581487 -0.0991479 0.0551971 0.325104 0.30091 -0.0828292 0.0428533 -0.0594538 0.237788 0.185338 -0.309752 0.322768 0.353299 0.14761 0.154016 0.24367 -0.302511 0.105747 -0.251971 -0.155544 -0.0856324 0.0337395 -0.275065 0.018499 -0.0342232 0.454927 -0.226629 -0.0385389 -0.107739 0.161572 -0.199148 -0.0855995 -0.0904004 0.359317 -0.142837 -0.158272 0.109069 -0.150413 0.221173 -0.224495 0.127002 0.116001 0.0797213 0.049938 -0.117625 0.15689 0.0927314 0.508813 0.0223304 0.217906 -0.200373 0.0225973 0.0344445 0.145202 0.0810718 0.0543074 -0.0172777 0.0476447 -0.178195 0.232995 -0.311333 0.273121 0.116974
390894 -0.17839 0.227861 -0.0209213 0.142124 -0.45181 -0.4257 0.189684 0.0563624 -0.145652 0.123295 0.327602 -0.0788279 -0.0632816 0.346525 -0.00464968 -0.133195 0.0375452 -0.117341 0.32255 0.456893 -0.18339 0.490342 0.00481757 -0.167961 -0.41225 -0.264941 -0.0256224 0.0228831 0.0715289 0.121305 -0.451775 0.143763 -0.0162785 -0.189935 -0.1748 0.0221163 -0.16412 -0.140952 0.0423678 -0.112509 -0.0536205 0.101629 -0.0777207 -0.242224 0.0547024 0.942251 0.0999376 0.0127915 0.142374 -0.20243 0.164079 0.0249796 -0.0582432 0.0710358 0.106614 -0.195534 -0.320053 0.0683278 -0.12201 0.0517455 -0.1297 0.118268 0.142424 -0.0388367
1113742 -0.060807 0.214622 -0.0372127 -0.144296 0.0920579 0.03159 0.0248077 -0.0575347 -0.0227198 0.133071 -0.097082 0.203268 -0.154269 -0.0777335 0.118667 -0.0426817 -0.0908417 0.117636 0.132365 0.0302688 0.00906401 -0.241669 -0.037725 -0.222709 -0.128854 -0.0176832 0.00842781 0.0204032 0.260681 -0.0609566 -0.102234 -0.0292817 -0.259826 -0.290151 -0.0121256 0.00469169 0.248118 0.0380041 0.146669 -0.0573941 0.149082 0.0723233 -0.0070091 0.129185 -0.0319372 -0.418023 0.172396 -0.09708 -0.188946 0.274333 0.0665492 -0.0804223 0.110636 -0.00989895 -0.0534083 0.155245 -0.141617 -0.120898 -0.020163 -0.214736 0.0341841 0.0328101 -0.116 -0.217547
644494 0.0228539 0.129231 -0.0142689 0.231918 0.148387 -0.119174 -0.123066 -0.147258 0.0796256 -0.0123926 -0.00783885 0.0153477 0.171281 -0.0372915 -0.0636507 0.145387 -0.0311379 -0.0303501 0.0565555 0.0953804 -0.307569 0.111387 -0.0499514 -0.0354771 0.338909 0.164246 0.155089 0.0440077 0.156556 0.0448257 0.0193677 -0.069548 0.145684 0.0944392 -0.0410924 -0.0569817 -0.0893053 0.160109 -0.0612956 -0.108929 -0.12156 0.0442147 -0.123893 0.0134168 0.0641783 0.123977 0.138551 0.0129837 0.304958 -0.0289439 -0.153007 0.0735638 -0.0109054 0.0362511 0.30914 0.00285965 -0.314111 -0.0404376 0.122501 -0.0120794 0.132705 0.229985 -0.109315 -0.101898
235670 -0.0435813 0.0149811 -0.0481801 -0.0402036 -0.00158034 -0.0321387 -0.00652251 0.0176873 -0.029941 -0.00131436 -0.0362621 -0.00520665 0.0573148 0.00693236 -0.0478573 -0.0160282 0.0497568 0.0135091 -0.0195844 -0.0429987 0.00770105 0.0381773 -0.00957363 0.0226241 -0.00791209 -0.0114923 0.00116747 0.0146952 -0.0257946 0.0358296 0.0377273 -0.0188081 0.0271177 -0.0307022 0.00453301 0.0113487 0.0105717 -0.0316829 0.0155785 0.037271 -0.00380974 -0.0453125 0.00917192 0.00291219 0.0406737 0.0115886 0.029478 0.00932553 0.0278572 0.0258538 -0.0594836 -0.0296106 0.038256 0.0417109 -0.00819609 0.00307381 0.0342094 0.00650586 0.0191809 0.0180545 0.00709626 -0.00189345 -0.0116551 -0.00474598
787016 -0.00143548 0.16002 -0.0411321 -0.164263 0.231843 0.172946 -0.00729828 -0.0403938 -0.00117556 0.150476 -0.172195 0.0486793 -0.157998 0.0403273 0.199314 -0.0561316 -0.0499735 -0.00920432 -0.0130748 0.168547 0.141323 -0.40218 -0.0875041 -0.262382 -0.0619501 -0.0917527 0.0320522 0.091941 0.514977 -0.154427 -0.0554847 -0.0977253 -0.255963 -0.427379 0.00216226 0.263371 0.288539 0.0455091 0.262948 -0.0333515 0.0527611 0.167225 -0.0490313 -0.0302024 -0.148072 -0.705448 0.369196 0.0102474 -0.389808 0.439217 0.252265 -0.216934 0.129596 0.0745407 -0.143594 0.214479 -0.172132 -0.27249 -0.161042 -0.341493 0.038477 -0.166062 -0.12097 -0.275598
1129443 -0.211962 -0.178961 -0.16173 -0.0562628 -0.0605862 0.0800653 -0.008243 -0.105245 0.0971596 0.016462 0.110897 -0.298583 0.231742 0.0208064 -0.0138523 -0.136806 -0.115467 -0.113637 -0.317547 -0.13489 0.0411511 -0.212304 -0.00182382 0.100128 0.113436 -0.0990598 0.0151139 -0.118757 -0.207625 -0.247234 0.0811412 0.183156 -0.0234708 0.0146147 0.0884617 -0.0863851 0.117471 -0.214573 -0.0303991 0.15075 0.165224 0.147074 -0.121468 -0.0680959 -0.00080049 -0.117831 0.0478585 -0.142722 -0.0980314 0.016201 0.0957198 -0.0608213 -0.0171771 -0.0354293 0.0234007 0.121519 0.0144576 -0.0960759 -0.0296287 -0.0633473 0.0260895 -0.0500077 0.217797 -0.0388281
207395 -0.134309 0.0140835 -0.209077 -0.325678 0.169957 0.00730654 0.0171438 0.0755217 0.239741 -0.034976 0.0100167 0.0843897 -0.400905 -0.0115051 -0.13495 0.177959 -0.384385 -0.191158 0.225705 0.149181 -0.156252 -0.246274 -0.261176 0.000301691 -0.267333 -0.172487 0.203556 0.0338649 0.0418752 -0.0504685 0.368807 -0.035799 0.0522451 0.135495 -0.150731 0.291865 0.291093 -0.173158 0.380343 0.0294754 -0.170559 0.0430904 -0.0631579 -0.146098 -0.134964 -0.255876 -0.0330546 0.452564 -0.0244609 -0.0783735 0.0211669 -0.254464 -0.0471209 0.113539 0.181435 0.0188075 -0.0180502 -0.0706419 0.128234 -0.56196 0.164094 -0.00418871 0.0574937 0.1907
42207 -0.0646209 -0.177195 -0.246565 -0.280786 -0.0989269 0.174806 -0.250284 0.238401 -0.105497 -0.58237 0.0549664 -0.298962 0.0537593 0.437707 -0.107078 0.0330853 -0.0936407 0.232138 -0.0695838 0.215304 0.0244303 0.235174 0.0347648 -0.108172 0.269479 0.0851915 -0.197051 -0.207459 -0.420871 0.0418917 0.214053 0.103907 -0.0720504 0.0295041 -0.0968734 -0.193532 -0.24699 -0.343434 -0.285408 0.199568 0.0942543 0.104407 0.124737 0.131247 -0.198542 -0.00754683 -0.136079 -0.0620212 -0.140731 -0.113455 -0.0814461 -0.0719677 -0.0626557 -0.335641 -0.131595 -0.183619 0.0104871 0.310291 0.203557 0.0986402 0.201252 0.228335 0.0582185 0.271846
1113551 0.0745073 0.0801392 -0.00538062 -0.214335 -0.112961 -0.224498 0.166488 -0.218975 0.0625895 -0.158133 -0.224082 0.101442 0.046138 0.0327769 -0.204235 0.00521829 -0.172835 -0.0810922 0.0751811 -0.116567 -0.17906 0.0829884 0.155252 -0.0554964 -0.100163 0.306089 0.0380684 -0.22187 -0.0467965 -0.0146538 0.0478717 0.117587 0.196735 0.144395 0.16963 -0.327029 0.0929423 0.0411029 -0.17132 -0.0182322 0.11017 -0.0903227 -0.0103557 0.0700736 0.141203 0.00448389 -0.173745 0.266187 0.147464 -0.211519 0.0172066 0.0501036 -0.230471 -0.08866 0.369337 0.0691085 0.12461 -0.102491 0.190019 -0.0303782 0.0165498 0.205425 0.114715 0.0550109
116021 0.188345 0.0265776 0.0964593 -0.187096 -0.0791402 -0.155234 0.175831 0.235704 0.0190252 0.0063229 0.0929292 -0.18571 0.0499997 0.0419566 0.263416 -0.0840219 0.0752818 0.0927854 0.0589944 0.0483113 0.110403 -0.026201 -0.0449861 0.17827 0.217527 0.0067121 0.0296065 0.103842 -0.130311 0.194629 -0.0684621 0.135946 -0.0836811 -0.148501 0.163716 0.157199 -0.167726 0.123593 -0.0331469 0.0114441 0.0271085 0.0466077 -0.118675 -0.266894 -0.0304023 -0.0583427 0.134616 -0.137499 0.0575513 -0.127018 -0.0612076 -0.0245012 0.0143207 -0.0677716 -0.213721 -0.0680537 -0.170249 -0.0723128 0.0551476 0.00172815 -0.191834 0.194944 0.0326148 0.00423785
16485 0.0579034 -0.0602561 0.262973 -0.0412121 -0.0259815 0.171007 0.0407775 -0.585766 0.214672 -0.124456 -0.280115 0.42256 -0.255153 -0.0708534 -0.154453 -0.0351706 -0.342713 -0.2006 -0.415816 0.469045 -0.0113261 -0.26789 -0.03223 -0.115949 -0.270471 -0.0794402 0.0945816 -0.288507 0.462307 -0.246486 0.510831 -0.363892 -0.109824 0.323797 0.0196306 0.294671 0.18375 0.0322146 0.0815436 -0.0894485 -0.107931 0.18868 -0.122541 0.354962 -0.0435501 -0.653072 0.0772854 0.0402139 -0.20051 0.355094 -0.342618 0.00566766 -0.00836875 -0.443611 0.180594 0.199895 0.202298 -0.0517416 -0.00569264 -0.187601 0.404304 0.0277843 -0.170509 -0.484251
350362 0.195075 0.269298 -0.146766 0.0267614 -0.0198368 -0.149168 0.1657 -0.197814 -0.0546965 0.365996 -0.0258164 0.0508893 0.131557 -0.0873266 -0.0151479 -0.0489223 -0.203709 -0.124795 0.197047 -0.0121925 -0.0237391 -0.0375074 -0.041498 -0.157619 0.114947 -0.287517 -0.118287 0.140293 0.297437 -0.223793 -0.115859 0.144631 0.0428084 -0.054088 0.157093 -0.0609631 -0.0578258 0.169862 -0.0257048 -0.115686 0.00767231 0.219253 -0.0372916 0.243525 -0.0498416 -0.205928 0.260632 0.151943 0.183181 -0.0741296 0.0442192 0.227818 0.0748206 0.0325639 0.0553393 0.0796445 -0.169988 -0.37239 -0.0891382 -0.0703911 -0.0222694 0.0820589 0.089112 -0.075271
1128853 0.0543069 0.0348062 0.0757893 0.00250537 -0.0547822 -0.0962355 -0.0190471 -0.0832222 -0.050813 0.0475633 0.00218479 0.062784 -0.0336206 -0.057104 -0.0325528 0.0495357 0.07385 0.0575995 0.0369921 0.0743078 0.00885239 0.0931679 -0.0178644 -0.0598567 -0.0717578 0.00435306 0.00222556 0.0527869 0.0637498 0.0377643 -0.00200339 -0.0849087 0.087211 0.0816876 -0.0696581 0.00355924 -0.0139786 0.0398176 -0.0561683 -0.0581531 -0.055119 -0.131222 0.0480351 -0.0505832 0.0131512 0.00198713 -0.0627085 0.13593 -0.0115974 0.0896847 0.00705831 -0.0365133 0.0384939 0.0750724 -0.012778 -0.00966081 0.0176065 0.0671287 0.0444001 -0.0147254 -0.0947868 0.00119617 -0.086585 0.136286
17488 -0.056919 -0.22599 0.0121565 0.195264 -0.0504526 0.00750017 -0.0330099 0.124993 -0.0457496 -0.07481 0.119918 -0.0854033 0.106758 0.0354148 0.0202645 -0.0788465 0.0999421 0.0280952 -0.118134 -0.0333009 -0.0175342 0.168531 -0.0113255 0.0778436 0.107319 -0.0931762 -0.0160877 -0.100899 -0.311374 0.144701 -0.0629238 0.118466 0.119462 0.189848 -0.0281914 -0.163346 -0.185461 -0.0491185 -0.0863192 0.00637316 -0.0154755 -0.102134 0.0867993 -0.0620457 0.115821 0.474226 -0.173089 -0.106174 0.0531275 -0.239176 -0.109147 -0.0105062 -0.0273651 -0.0181314 -0.0107007 -0.106124 -0.0773608 0.0900426 0.0699121 0.130567 -0.0861525 -0.0210982 -0.00440742 0.0908558
84459 -0.105171 -0.0632084 -0.0750702 0.0417245 0.11718 0.223745 0.0630208 0.073543 0.0359551 0.000781017 0.00727953 -0.0838322 0.187258 0.131961 0.0604971 -0.158709 0.0570569 -0.0865129 -0.256059 0.0167953 0.0376212 -0.207607 -0.00183802 0.0411471 0.146372 -0.156755 0.00839223 -0.0620663 -0.130803 -0.00659095 -0.0835431 0.178664 0.122676 -0.0787561 -0.12813 -0.00870919 -0.00592553 -0.155176 0.152557 0.0182504 0.140675 -0.0214965 -0.0310913 -0.247889 0.0502092 -0.0726495 0.0583855 -0.143851 -0.144986 0.0311048 0.112581 -0.0851594 -0.104148 0.147502 0.0162465 0.0301059 -0.119386 -0.137648 -0.112968 -0.21527 -0.0276179 -0.0916939 0.191011 0.000962304
948299 -0.106863 -0.222691 -0.137482 -0.125817 0.120018 0.221992 0.0152896 -0.13136 0.109228 0.0305149 -0.116506 -0.187638 0.232277 -0.135905 -0.053079 -0.10915 -0.125931 -0.00794465 -0.430762 -0.289768 0.125082 -0.501061 0.0295321 0.0548045 0.235167 -0.0161995 0.0896739 -0.103301 -0.204138 -0.356638 0.19638 0.0965162 -0.0650727 0.0303967 0.253906 -0.0378441 0.15913 -0.0573915 -0.0120344 0.182034 0.248381 0.103382 -0.069048 0.0337928 -0.0840211 -0.562338 0.0782331 -0.0880192 -0.195198 0.135312 -0.0302629 -0.0838078 0.00311048 -0.0195127 -0.061212 0.287414 0.0766757 -0.148252 0.0514781 -0.200034 0.0956683 -0.0449548 0.122085 -0.0973399
1128407 0.102263 0.102353 -0.0655966 -0.0485923 -0.084827 -0.0282392 0.162199 0.0754891 0.0983731 -0.101278 -0.0858111 0.0665346 -0.0684626 0.0471286 -0.0647048 0.0466185 -0.123528 0.132791 0.0683995 0.0193193 -0.149348 -0.0489588 0.0170067 0.12329 -0.116256 0.0383498 0.0142585 0.117718 -0.070389 0.0587188 -0.0347139 0.0409638 -0.155739 -0.0233652 -0.0829869 -0.00431165 0.0560304 0.0807196 -0.0392979 0.0114111 -0.00681142 0.171844 0.045777 0.164005 0.0577397 -0.0741383 0.0232321 0.03893 -0.00105463 0.00325675 -0.0314972 0.0152373 -0.06867 -0.0235816 0.014132 0.0227559 0.0682744 -0.00164191 0.0771465 -0.0912063 0.000760401 0.110305 0.0446383 -0.0223816
18770 0.182147 0.0069361 -0.265519 -0.165852 0.253281 -0.0135221 0.0893404 -0.151088 0.0314898 0.0881243 -0.189768 0.104475 0.150394 -0.240587 -0.0242886 0.123992 0.00551481 -0.0129268 0.0166015 -0.268739 -0.00182671 -0.203582 0.179324 0.0959398 0.208005 0.187054 0.164871 0.0245164 -0.0228515 -0.123062 0.248616 -0.146842 -0.0546493 0.20527 0.293139 -0.269859 0.0838474 0.110684 0.0280902 0.0491065 0.0237444 0.00621156 0.11779 0.207667 -0.20062 -0.377609 -0.0512847 0.0502453 0.185011 -0.0993343 -0.16762 -0.0323299 -0.0674748 0.026583 -0.140318 0.0555131 0.181965 -0.0563544 0.0829409 0.114687 0.057013 -0.0958057 -0.0683548 0.171022
1111304 0.254676 -0.108168 0.127171 0.148259 -0.486054 -0.483533 0.0498142 -0.191643 -0.00752128 -0.218323 0.209159 0.00442853 0.0101058 -0.32543 -0.174702 0.176467 0.111667 0.265353 0.253939 -0.186624 -0.0879916 0.699514 0.0541277 0.230241 0.175929 0.37924 -0.157063 0.23155 -0.326031 0.0597182 0.373203 -0.16918 0.251422 0.639728 0.285853 -0.275931 -0.179612 0.218704 -0.552637 -0.0426671 -0.231557 -0.070597 0.0632422 0.391789 -0.190174 0.685315 -0.303618 0.122617 0.548609 -0.44503 -0.359501 0.110343 0.027516 -0.132579 0.0233926 -0.13895 0.416444 0.298191 0.278407 0.689196 -0.0566349 0.488105 -0.087524 0.225686
126912 0.264019 0.00756165 -0.155385 -0.0323561 -0.0810404 -0.163323 0.0624823 -0.244144 0.106697 0.0247603 0.171612 0.0269265 -0.055225 -0.124909 0.412731 0.0449035 -0.0102347 0.0623506 0.30149 0.046797 -0.106661 0.176688 0.284452 0.194087 0.148667 -0.0462077 -0.151094 0.294002 0.42018 0.0737293 0.161339 -0.206324 0.0835663 0.0425403 -0.276148 -0.0491932 -0.207393 -0.247961 0.160853 -0.0770181 0.141229 -0.0996206 -0.0974178 -0.207189 0.214084 0.0071109 -0.194369 -0.0100774 -0.102535 0.124601 -0.0630473 0.0927461 0.134363 0.00722948 0.31792 -0.161666 -0.170061 -0.203739 -0.205025 0.220655 -0.168324 0.225686 -0.253704 0.0864683
578365 0.173811 0.216255 0.0604066 -0.00807973 -0.0496329 -0.114785 -0.0492984 0.0316397 0.128683 -0.111333 -0.0572951 0.105909 -0.237853 -0.0525328 -0.0254533 0.21085 0.0203984 -0.117763 0.0310188 0.0226168 0.0482153 0.39901 0.0279638 0.270318 -0.204872 0.111041 -0.109995 -0.0340727 0.1551 0.151295 -0.0629172 0.0558466 -0.0494794 0.0596832 -0.271899 -0.0335934 0.0720364 -0.0899321 -0.00888944 -0.0204014 -0.181645 -0.0165531 0.0079711 0.0668608 0.0270862 0.247709 -0.100145 0.0767012 0.0971891 -0.0601053 -0.120068 0.154238 0.120048 0.0269604 -0.158664 -0.295097 0.217917 0.282216 -0.0575848 0.229085 -0.0671392 -0.135287 0.025952 0.080441
1119751 0.00108714 0.199914 -0.100583 0.0684885 0.175413 -0.270311 0.0269569 -0.211043 -0.0775916 0.33356 -0.199709 0.0839554 0.0919414 -0.152878 -0.00302402 -0.00717361 -0.107441 -0.27685 0.113721 -0.10627 -0.138983 -0.103373 0.0518627 -0.100363 -0.167607 -0.216908 -0.0036399 0.0834336 0.29721 -0.0848172 -0.143966 0.0669687 0.0190298 0.0524307 0.0993533 0.0722869 0.0653529 0.249164 0.142429 0.0150119 -0.139528 0.0567927 -0.0186093 0.00886095 -0.0825331 0.162953 0.0967798 0.0807482 0.108048 0.032511 0.0274308 -0.102431 -0.0906511 -0.0407351 0.000240319 -0.0139485 -0.125187 -0.317073 -0.148059 -0.133032 -0.0944003 -0.128932 0.127589 -0.200767
1116146 0.0308487 -0.0630075 -0.013625 0.0441839 -2.12849e-05 0.00889296 0.00322178 -0.0147525 -0.0579268 0.0259379 0.00374465 0.0448395 0.0499815 0.0380812 -0.0371496 0.00605706 -0.0244004 -0.0365837 -0.0477336 -0.0391809 0.00410178 -0.0226204 -0.000914148 -0.0252631 0.0472553 0.0383803 -0.0114112 0.0600789 0.0288877 -0.0442736 -0.020856 -0.0157823 0.0135146 -0.000649029 0.0187727 -0.0684474 0.0210484 0.00851524 0.0149872 -0.050123 -0.00175455 -0.0764663 -0.0267925 0.00759931 -0.0165165 0.0195508 0.0193378 -0.0109316 -0.0381363 0.0786881 0.0727227 -0.0586107 -0.0487228 0.052601 0.0854952 -0.0159609 -0.030631 0.00245529 -0.010186 -0.0333768 -0.00102125 -0.0281149 0.0158216 0.00812633
648121 -0.0142199 -0.00158208 0.00586496 0.0222767 0.00887893 -0.0185279 0.0204962 -0.00493358 0.0035457 -0.0183175 0.00174021 -0.0161471 -0.0107325 -0.00681384 -0.00736642 -0.00308538 0.0154014 -0.000933712 -0.00986044 0.00351173 -0.0245027 0.00469912 -0.014705 -0.012399 -0.0373381 0.00027563 0.00398309 -0.0241206 -0.00530437 -0.00648821 -0.0116252 0.0090325 -0.00729249 -0.00522764 -0.0131069 0.00628064 -0.00762413 0.0134448 0.0277621 -0.0165544 -0.00528521 0.0226318 -0.0139926 -0.0219529 0.0330064 0.0147575 0.0167645 -0.032408 0.00513553 -0.0331596 -0.0120581 0.00357423 -0.0195128 -0.0142706 0.0139118 0.0160434 0.0050989 -0.0431609 -0.0122318 0.00872018 -0.0104132 -0.00194151 -0.00759593 -0.0199789
58552 -0.0242617 0.10201 -0.0247296 -0.0692426 0.153208 -0.116761 0.299746 0.079327 0.0159163 0.137157 -0.0352854 0.223471 -0.0214765 -0.0829293 -0.00167945 0.0540928 0.0942541 0.0824673 0.112662 0.0922491 -0.0645348 0.043461 -0.058049 -0.0729698 0.174312 0.0719618 -0.12185 0.106099 0.120696 0.0339129 -0.101704 -0.107998 0.105051 -0.12988 0.151682 -0.118993 0.147039 0.109319 0.0472091 -0.0429974 0.123748 0.057152 -0.184247 -0.0178257 -0.267649 -0.039236 0.144574 0.154941 -0.195092 0.190672 0.0675643 -0.193191 -0.0258628 0.147253 -0.0932341 -0.0884309 -0.22756 0.0361118 0.11916 0.0233661 -0.127232 0.165318 -0.104145 -0.0875612
12337 0.0268779 -0.0638603 -0.0762132 0.115195 0.309507 0.32917 -0.245301 -0.130554 0.0525771 -0.0589708 -0.0929979 -0.132041 0.0354177 0.385017 0.0437059 0.09592 -0.0503248 0.0136096 -0.418329 0.195927 0.17619 -0.286433 0.109484 -0.168518 0.108507 -0.168822 -0.0366816 -0.242673 0.190862 -0.237657 0.0690539 -0.155782 0.0671058 -0.323924 -0.21298 0.463073 0.169223 0.136016 0.0310072 -0.069386 -0.106952 -0.0399558 -0.080288 -0.113501 -0.120921 -0.439754 -0.0518635 -0.467407 -0.458327 0.195022 -0.0113395 -0.484173 -0.224419 0.162769 -0.0916929 0.323532 -0.22757 -0.396728 -0.0842115 -0.43178 0.198749 -0.25829 -0.0575822 -0.315776
1116268 -0.00755948 0.109624 0.162369 -0.175173 -0.182247 -0.118854 -0.232084 -0.532874 0.163469 0.193394 0.207684 -0.153787 -0.149789 -0.469954 0.0123072 0.013901 0.0191651 -0.0343318 0.30471 0.163373 -0.042213 -0.265895 -0.172758 0.0895934 -0.175322 -0.185851 0.329113 0.176412 -0.0603523 0.0664381 0.071007 -0.083716 0.2705 -0.0451497 -0.239055 0.0447825 0.339614 0.0112377 -0.0285406 -0.033681 -0.0116253 -0.286613 -0.201164 -0.368225 -0.00463712 -0.407047 -0.00270743 0.0411754 -0.419774 0.159265 0.100103 -0.198694 0.228983 0.31264 -0.0871365 -0.0376696 0.213836 -0.152045 0.18874 -0.178198 -0.162481 -0.135102 -0.0439833 0.387464
57773 -0.104509 0.0178089 -0.0865706 -0.0516787 -0.0152511 -0.0182156 -0.00857518 0.0600464 -0.0600591 -0.00221035 -0.0587171 -0.0307858 0.0635241 0.0417616 -0.0511135 -0.0214456 0.0984526 0.0128032 -0.0371351 -0.0649757 0.019624 0.0536651 -0.0187788 0.0593334 0.0431932 0.00881523 0.0530255 -0.0492657 -0.0267794 -0.0411332 0.0377856 0.0176517 0.0593471 0.0224022 -0.0042421 -0.0360149 0.0117516 -0.0173531 0.0127819 0.021499 -0.00452789 -0.072418 0.0214056 -0.0334739 0.0721949 -0.0113855 0.0733045 0.0010718 0.00541299 0.0111998 -0.0525388 -0.0376875 0.0828936 0.0537512 0.0527695 0.0661149 0.0445589 -0.0078814 0.02446 0.00660743 -0.023527 -0.0291883 -0.0920008 0.0221154
14549 0.464077 -0.0872743 0.117314 0.0618173 0.100344 -0.243893 0.0455447 0.243924 -0.0139991 -0.299095 0.0669825 0.0100786 0.0234599 0.181798 0.161776 0.0391091 0.0914184 -0.0167077 -0.155315 0.194345 0.120656 0.316664 -0.215582 -0.331292 0.410483 -0.209203 0.0329763 0.0755547 0.162727 -0.0527277 -0.121511 0.157144 -0.210843 0.0280679 0.156578 0.0503001 -0.265739 0.174635 -0.0871554 -0.0336048 -0.0617318 0.141566 -0.18398 0.242112 0.0371533 0.305154 0.199574 -0.284934 -0.123132 0.0171029 -0.260088 0.201105 -0.385675 -0.153133 0.142781 -0.122622 -0.12251 0.187946 -0.276348 -0.0281246 0.314539 0.229385 0.0261947 -0.390676
604073 -0.00555272 -0.00268333 0.00235302 0.000597121 -0.00236145 0.000243451 0.00155801 0.00159651 -0.00617576 -0.00133083 0.000408957 0.00228017 0.00270357 -0.00713577 -0.00209279 -0.000503951 -0.00200875 0.00498159 0.00603901 0.000904513 -0.00375187 -0.00133404 0.00224518 -0.00697845 -0.00750786 0.00535874 -0.00285697 -0.00417282 0.00692663 0.00322071 -0.00628943 0.00223928 0.00250946 0.00285025 -0.00638538 0.00442405 0.00632214 -0.00499168 -0.00262011 0.000447314 0.00520879 0.00415861 -0.00400413 0.000799246 -0.00268825 0.00774887 -0.00713555 0.00450185 0.00616809 0.0033811 -0.00732813 -0.0076288 0.00233601 0.00551329 0.00221324 -0.00565213 0.0026675 -0.00762803 -0.00154838 -0.00625311 0.00592014 0.000957552 0.00453104 -0.00167717
6923 -0.272793 -0.113976 -0.287905 0.0207576 0.532692 0.223544 0.0285661 -0.0232863 0.664 0.0677028 -0.197313 -0.168957 -0.287313 0.850725 -0.137734 -0.250633 -0.185709 -0.567004 -0.463458 -0.0651563 -0.190407 -0.0249139 -0.118116 0.446406 -0.447902 -0.478892 0.897894 -0.69681 0.204886 0.483542 -0.75463 0.368453 0.175652 -0.600882 -0.444849 0.359491 -0.0736801 -0.32746 0.610251 -0.0426622 -0.0208028 -0.222196 -0.364023 -0.60782 0.570345 -0.158179 -0.379965 -0.01114 -0.768026 -0.13902 -0.0647238 0.0270432 -0.314263 -0.103425 0.791619 0.338064 0.296096 -0.0957048 -0.163463 -0.097817 0.0527436 -0.292024 0.169767 0.133893
136766 -0.0890987 -0.178812 0.0766193 0.200963 0.28937 -0.551834 -0.0191875 -0.0225792 -0.0716907 -0.450113 -0.0385283 0.0699602 0.124973 -0.103137 0.102494 -0.0538361 0.1707 -0.22028 0.12242 0.00225155 -0.12485 0.0164471 -0.0858959 -0.251972 -0.472545 -0.193927 0.0119284 0.242912 0.292482 -0.0278873 0.0629288 -0.034552 -0.0227316 0.305043 0.229861 -0.338836 0.525162 0.292356 -0.617107 0.0890677 -0.649753 0.324668 0.0368646 0.402184 -0.217269 0.183537 0.058162 0.013855 -0.358062 -0.112868 -0.339598 0.125761 0.270592 0.0344992 -0.0193572 -0.216084 -0.2834 -0.13735 0.457947 0.246177 0.0233899 0.053154 -0.199603 -0.0694861
120013 -0.0460678 -0.334871 -0.0216392 0.0703245 -0.158977 -0.183823 0.236921 -0.0411659 0.135955 -0.143074 -0.123414 0.121422 -0.161035 -0.333996 0.0225981 0.00773552 -0.126218 0.208825 0.00390526 0.189671 0.168783 0.0446934 -0.0562213 0.283111 0.213931 0.0371036 -0.337129 0.172321 0.0357767 -0.0675498 0.0705152 -0.0470921 -0.121811 0.05615 -0.111019 0.160213 0.0575588 -0.0373902 0.0415599 -0.131431 0.10323 -0.021892 -0.0441284 0.0477449 -0.037304 0.0655483 -0.0834219 -0.0687557 -0.388001 0.138389 -0.0635603 -0.0309204 0.0209213 -0.0362306 -0.103898 0.109712 -0.0649452 -0.186486 0.0805747 -0.0204234 -0.250711 0.252996 -0.267774 -0.133932
52003 -0.012809 -0.0353731 0.0158897 0.0266415 -0.0104358 0.0196566 -0.0162593 0.00382299 -0.0355594 -0.019694 -0.0062184 -0.0534961 -0.0230305 -0.0352574 -0.0249557 0.0237398 0.0126696 0.0417725 0.0420157 -0.0563248 0.0139524 -0.0197248 -0.00383271 0.0362666 -0.0232578 0.00814322 0.00109413 -0.0258219 0.0365787 -0.0115615 0.0191501 -0.00220033 0.0160945 -0.0633998 0.00668245 0.0083465 -0.00113817 -0.0549327 0.0203543 0.0162182 0.0113237 0.0349355 0.00863479 -0.0273462 -0.0238209 0.0104255 0.0445318 0.00916884 0.0250112 0.0183911 0.0167177 0.0119085 0.00918198 -0.00582521 -0.0519684 0.0119659 0.0107204 0.00949858 -0.0199634 -0.0110137 0.0323119 -0.0181981 0.0238561 -0.0163899
180399 0.120167 0.205889 0.129893 0.0273453 0.210319 0.0821382 0.320278 0.281821 0.0257618 0.0198371 -0.0654591 0.275884 -0.308472 0.0606786 0.196593 0.158032 0.0187728 0.0529466 0.451943 -0.369197 -0.137192 -0.196217 0.146827 0.153411 -0.089552 0.276387 -0.464677 -0.0614361 -0.133092 0.145 0.0981085 -0.415218 0.155829 -0.137194 0.0213581 0.430833 0.149547 0.30168 0.00866422 -0.142319 -0.105468 -0.106953 0.464579 0.200285 0.0230318 -0.0151732 0.11215 0.203194 0.527006 -0.131161 0.29964 0.17546 0.324986 -0.0288287 -0.168639 -0.0479283 0.09683 -0.378113 0.279412 0.0878806 0.227748 0.163296 -0.222211 0.0660726
1112417 0.00353424 -0.00610845 -0.00455621 0.00102076 -0.0044854 0.00192587 0.00403622 -0.006315 -0.000548871 -0.00651997 -0.00668659 0.00445989 -0.00404509 0.00455452 -0.0021072 0.00207624 -0.00132094 -0.00297693 0.00347408 -0.0039148 0.00729465 -0.00661422 -0.00336354 0.000120951 0.0027002 -0.007242 -0.000532912 -0.000417337 0.00444915 -0.0011041 -0.00397265 -0.00753158 -0.0041707 0.00212678 -9.31417e-05 -0.00605892 0.00222833 -0.00361526 0.00441238 0.00618919 -0.00638661 0.00105746 0.00451232 0.000765791 0.00364217 -0.000264664 -0.00711198 -0.00725109 0.00283347 -0.00607922 -0.000716224 0.00608956 0.00461366 -0.00416341 0.003263 -0.0041098 -0.00380706 0.00169504 -0.00121293 -0.00713509 0.00486727 -0.00640815 -0.00758554 -0.00173097
92589 -0.169393 0.222604 -0.235022 -0.191046 -0.245134 -0.119191 0.155865 -0.116289 0.0432118 0.0859814 0.0731766 0.0302735 -0.00737258 -0.0353419 -0.1035 -0.145907 -0.11071 0.0606784 0.143131 -0.131926 -0.165261 -0.332067 0.084121 0.151733 -0.00695752 0.244514 -0.034032 0.109655 -0.0485831 -0.0578517 0.133528 0.00428657 -0.258045 0.100728 0.25381 -0.192564 0.226618 0.0166456 -0.0437067 0.0161333 0.115189 0.226986 0.238453 0.190402 -0.238688 -0.143844 0.0799857 0.200157 0.22904 0.0071185 0.24592 -0.212594 0.00411198 0.0691276 -0.191223 -0.102995 0.066481 0.034394 0.0990494 0.11317 -0.097827 0.117998 0.318041 0.130705
368431 0.178917 0.291648 -0.0544606 0.126767 -0.286161 0.267462 -0.180966 0.154449 -0.198729 0.190476 0.234485 0.0256204 -0.429792 -0.0178304 0.0405869 0.370513 -0.166374 0.471941 0.165494 -0.4124 0.0610003 -0.100194 -0.0737346 0.161127 -0.284578 0.154847 0.355474 0.291121 -0.0126036 0.301538 0.160322 0.00784834 -0.269465 0.00409286 -0.0813784 0.248358 -0.224294 0.103964 0.160889 0.0638089 -0.163743 0.484541 -0.000753908 0.455716 0.149502 -0.0253405 -0.271936 -0.130164 -0.0183798 -0.303026 -0.280339 0.106678 0.240361 0.0915734 -0.294848 -0.037141 0.309968 0.268073 -0.0598888 0.533222 0.183405 0.143044 -0.0435873 -0.0860336
35852 -0.0335087 0.197795 0.0990938 -0.120424 0.0127323 -0.102659 0.130052 -0.0548288 -0.0367235 0.0154496 -0.1808 0.17357 -0.18424 -0.00480386 0.135215 0.0515215 -0.0923873 0.126416 0.119717 0.233553 -0.103535 -0.251355 -0.0869237 -0.254188 -0.0409377 0.102442 -0.0632889 0.188381 0.299132 -0.13928 -0.0547162 -0.331067 -0.269387 -0.293321 -0.0543079 0.385295 0.100907 0.190589 0.284495 -0.22396 0.028112 0.235257 0.0271756 -0.0225052 -0.0823402 -0.263891 0.267884 0.141371 -0.219469 0.226265 0.047868 -0.34459 0.0925535 -0.0398681 -0.025141 0.222965 -0.0147271 -0.0185355 -0.0236082 0.0104842 0.0840957 0.0624924 -0.0410923 -0.22412
1103985 -0.0208623 0.144344 -0.0504176 -0.19152 0.11994 0.0528162 0.10166 -0.00937812 0.0107319 0.109026 -0.142918 0.0888483 -0.0607947 0.0359339 0.0529066 0.0259583 -0.137838 -0.0258275 0.0160755 0.0981466 0.0478291 -0.298614 0.012624 -0.188553 -0.123308 0.0149021 0.00239 0.066328 0.361146 -0.15463 0.0071595 -0.102321 -0.124867 -0.28088 0.0212294 0.170294 0.187836 0.00229475 0.193843 0.0162323 0.021883 0.10056 -0.0576566 -0.0394246 -0.0414081 -0.557194 0.196019 0.0511201 -0.214673 0.289626 0.166414 -0.0575952 0.0833892 0.0591456 -0.0288264 0.15291 -0.137602 -0.215851 -0.0385993 -0.25004 0.0405548 -0.0750856 -0.0680372 -0.161535
1128314 -0.0394095 0.198427 -0.0746024 -0.233806 0.161737 0.0598644 0.000473069 -0.0946031 -0.00265524 0.127852 -0.18123 0.164431 -0.139546 -0.00825025 0.113329 -0.00828058 -0.150117 -0.00630469 0.0531499 0.0865405 0.00621739 -0.435741 -0.0658448 -0.218744 -0.163075 -0.032446 0.00118258 0.0586076 0.443068 -0.1691 -0.0851093 -0.0589248 -0.245091 -0.374433 -0.0107778 0.13936 0.289885 0.0440387 0.288678 -0.0594767 0.08671 0.133065 -0.0831504 0.0363396 -0.0130485 -0.626734 0.248325 0.0198602 -0.276395 0.374499 0.174138 -0.14185 0.080076 0.0257234 -0.0501652 0.183109 -0.160239 -0.201402 -0.0203829 -0.322538 0.0180648 -0.0896558 -0.0877387 -0.234719
1109542 0.0492498 -0.101625 -0.0440837 -0.0617526 -0.0261052 -0.268336 -0.11895 -0.0546784 -0.0602703 -0.0909555 -0.10693 0.0310735 -0.176911 -0.0599562 -0.0213681 0.368099 0.0420601 0.0360967 0.318442 0.0384729 0.0945345 0.147823 -0.0193215 0.118228 0.081249 0.155607 0.00160998 0.202306 0.222745 0.135998 -0.0669058 -0.160086 0.146485 0.190289 -0.147941 -0.0737497 -0.258993 0.102778 -0.0324846 -0.142225 -0.0659434 -0.216911 0.215044 0.0268318 -0.0842285 0.186818 -0.0372927 0.237807 -0.0165705 -0.00537491 -0.037645 0.0290272 -0.187597 -0.0690639 -0.0358654 -0.222768 0.0400296 0.060172 -0.0314713 0.0347366 -0.268322 -0.08337 -0.111048 0.181368
103543 0.0640737 0.0532187 -0.0772087 0.185171 0.0727734 -0.0876903 -0.10527 -0.262587 0.0614253 -0.0576174 0.083384 0.0228468 0.0816907 -0.0838822 -0.00168847 0.0435576 0.025713 -0.0180991 0.0940632 0.17102 -0.267278 0.151961 0.0130371 0.0471731 0.28553 0.0981774 0.0846318 0.186085 0.23299 0.0271843 -2.725e-05 -0.107797 0.133323 0.0863358 -0.1427 -0.108016 -0.111865 0.0287139 0.022073 -0.146408 -0.0716932 0.0704428 -0.167167 -0.100992 0.126938 0.154381 0.0518027 0.0138134 0.159324 0.0328823 -0.142035 0.152519 0.0114563 -0.031258 0.375724 -0.00630815 -0.321294 -0.144809 0.0357899 0.0296086 0.0812024 0.210332 -0.153088 -0.00302579
61417 0.041217 0.00553249 0.010997 -0.0569915 -0.091796 -0.0973315 0.0160642 -0.00766908 -0.0471398 -0.0810885 0.0623459 0.10797 -0.153831 -0.0847715 0.0177501 -0.0306993 -0.0308693 -0.0294121 0.116547 0.0612932 -0.116525 0.171937 0.0182653 -0.0460974 -0.189375 0.201589 -0.147003 0.139945 -0.100113 0.094824 0.0372226 0.0181306 -0.293224 0.267802 0.161091 -0.0374203 -0.0403325 0.0808923 -0.233341 0.094921 -0.0418436 0.291181 -0.107097 0.146213 -0.0946145 0.0599545 0.147433 -0.00293932 0.274896 -0.149158 -0.0130773 0.0708461 0.0662836 -0.161447 -0.148709 -0.210612 0.249812 0.216103 0.0764875 0.289659 0.0110145 0.289075 0.0270201 0.0651181
102061 0.0086118 0.0303324 -0.019154 -0.0266239 0.038634 0.014758 0.000277087 -0.0399625 -0.00284421 0.0315028 -0.0627112 0.0326204 -0.0476691 0.0114827 6.74422e-05 0.011512 -0.0568539 -0.0140386 0.0118535 0.0407011 0.0379402 -0.0662777 0.00382559 -0.0447463 0.0160532 -0.0544771 -0.00241902 0.0296885 0.125627 -0.0719259 -0.00269365 -0.0312363 -0.061082 -0.0907949 0.0231666 0.0129341 0.0480977 0.0413628 0.0369439 -0.0110887 0.0153407 0.0423831 -0.0314454 0.000761498 -0.0240723 -0.154194 0.0783767 0.00809742 -0.0837888 0.11611 0.0376079 -0.0245542 0.035155 0.0060237 -0.0504951 0.0462915 -0.0788151 -0.0621061 0.0287116 -0.0735817 0.0319922 -0.043348 -0.0387121 -0.0250932
18536 -0.0298818 0.0120658 -0.019873 0.0023405 -0.000412349 0.00383262 -0.00819955 -0.0663964 0.0102278 0.0113597 -0.00946923 -0.0106998 0.00494348 0.0377997 -0.0408549 0.0126367 0.00299416 0.00774761 -0.0165786 0.06167 0.00854069 0.0270838 -0.024155 -0.00382043 -0.0258639 0.030137 0.0130393 0.0119587 -0.0144441 -0.00918348 -0.00991568 -0.0641666 0.0136623 0.010302 -0.0179229 0.0450533 -0.0266121 0.0142437 0.0237008 0.00105783 0.00589207 -0.00202842 -0.00191959 0.0157881 -0.0188775 -0.010822 -0.0275876 -0.0447449 0.00817561 -0.00168411 0.0120777 0.0169229 0.0224633 0.0305479 0.0202141 0.0176522 -0.000907258 0.0102421 -0.000981867 -0.0315567 0.00590023 0.0245702 0.0215748 -0.0238673
948147 -0.178693 -0.132162 -0.0490499 -0.00786907 0.0330501 0.0564883 0.0871143 -0.115491 -0.0306779 0.0713741 -0.102235 -0.0593139 0.0832015 0.0377876 -0.0566334 -0.225323 -0.0468406 0.0263028 -0.24569 -0.0404679 0.0394798 -0.394531 -0.0916942 -0.0997037 0.114806 -0.0662214 0.193329 -0.0922418 -0.170828 -0.371903 0.030276 0.0671419 -0.0562619 0.000107991 0.177209 0.0406564 0.0764714 0.00773195 -0.0686227 0.130394 0.280385 0.0698729 -0.00120275 0.0275881 -0.104749 -0.366152 0.142644 0.0125922 -0.0830392 0.143616 -0.043663 -0.103376 -0.0103003 0.056594 -0.064717 0.293955 -0.0202475 -0.0646518 -0.0119842 -0.247203 0.0815953 0.0127628 0.0556391 -0.153024
594900 0.0267875 0.195642 -0.0862572 -0.262391 0.148498 0.0493641 0.054717 -0.0889101 0.0209019 0.0775325 -0.198712 0.0810075 -0.0836902 0.0303372 0.0523251 -0.00391278 -0.140329 -0.0219965 0.0476092 0.100303 0.0119742 -0.34378 -0.0236526 -0.198791 -0.142466 -0.00738258 -0.00284931 0.055988 0.390992 -0.186077 -0.0158899 -0.0562196 -0.168957 -0.286517 0.028111 0.164959 0.242241 0.0438123 0.217945 -0.0247941 0.0962046 0.140273 -0.0890922 -0.0104495 -0.0682732 -0.547765 0.224547 0.0769747 -0.235953 0.286994 0.160871 -0.10092 0.060646 0.0468187 -0.0156757 0.153811 -0.100019 -0.216069 -0.0540239 -0.306565 0.0690558 -0.0696248 -0.0485373 -0.160781
1128975 -0.0884892 0.466411 0.0759064 -0.269564 -0.054059 0.0418799 0.0828659 -0.0366905 0.00851568 -0.106857 -0.0646245 -0.0426926 0.0193205 0.20236 -0.0892151 0.0524296 -0.1035 -0.0918856 0.122752 0.0816484 -0.190986 0.0416522 0.00233796 0.0356366 0.0484633 0.112543 0.0309587 -0.0467021 -0.0216605 -0.0406166 -0.136756 0.0258178 -0.0116489 -0.232299 0.0127712 0.177564 -0.125255 0.111443 0.360498 -0.204282 0.158119 0.0529035 0.00904696 -0.217698 0.100679 -0.0260536 0.034335 0.215845 -0.0457577 -0.198788 -0.0557559 0.0655887 -0.00478138 -0.134793 0.329688 -0.0902783 0.318698 0.106296 -0.051755 0.123826 0.140852 0.197652 0.145834 -0.0414718
78555 -0.0359576 -0.0904481 0.0460182 0.114358 -0.09523 0.0275395 -0.249894 -0.305058 0.0162983 -0.034564 0.0527339 0.173719 -0.0223248 -0.0805807 -0.112286 0.00512249 0.119525 -0.0887485 -0.0768671 0.017579 -0.0624203 0.101129 -0.0333371 -0.112325 -0.144697 -0.109595 -0.0112734 -0.0430984 0.147503 -0.104691 0.0650538 -0.132581 0.06427 0.140004 -0.162755 0.0519334 -0.136685 -0.0883485 0.0636022 -0.0557881 0.0142112 -0.0832106 0.0419864 0.0230498 -0.174593 0.0616649 -0.0430071 0.0877597 0.0695657 0.0339043 -0.106594 0.0584032 -0.0730101 -0.0862382 0.0718529 0.0584395 -0.048663 -0.030315 -0.222475 -0.218391 0.217344 0.000981346 0.10098 -0.189804
675756 -0.08112 -0.00487168 -0.01732 -0.0214545 0.0420661 -0.117771 0.0169032 -0.0538068 0.0523925 0.0104648 -0.185856 0.0992216 -0.132173 -0.178419 -0.0397079 0.052071 -0.0603716 0.0574772 -0.103961 0.0893187 0.0170697 -0.0128758 -0.0257514 0.0287348 -0.147808 0.00415539 -0.0936227 0.0562412 0.111025 -0.102408 -0.102979 -0.0603191 -0.0845717 -0.0191697 0.110328 -0.00166899 0.0722754 -0.0370073 0.123407 0.00391068 -0.0167486 -0.0753641 -0.0554759 -0.0334235 0.0303127 0.16416 0.191637 0.09401 -0.192591 0.019678 -0.149203 -0.0583539 0.0702239 -0.0421738 -0.0456641 0.0524728 -0.10538 -0.0247817 0.0455113 -0.123265 0.0546958 0.00711774 -0.0235612 -0.155119
1152676 -0.0839314 0.179667 -0.0486295 -0.187535 -0.0488723 0.0559857 -0.00660608 -0.0332003 0.0335885 -0.0131596 -0.0865865 0.233241 -0.0393126 -0.0061533 0.144472 -0.0499195 -0.0901261 0.0939772 0.108219 0.102206 0.00652587 -0.14207 -0.0111073 -0.223922 -0.100813 0.0565573 0.00541529 -0.0237374 0.239352 -0.0784138 0.0414059 -0.105635 -0.177195 -0.1478 0.067297 0.14974 0.171642 0.0369596 0.304203 -0.0214548 -0.0294407 0.175474 -0.00259043 0.0751879 0.0103598 -0.382562 0.162086 0.0529159 -0.117287 0.164483 0.122373 0.115542 0.129468 0.0023594 -0.0332131 0.20739 -0.208091 -0.125805 0.0225771 -0.144781 -0.203572 0.00565654 -0.105382 -0.192613
1131180 -0.105752 0.0784441 -0.204248 0.147315 0.111852 0.0290388 0.198327 -0.261455 0.309051 0.0146297 0.109242 0.0379833 0.0684594 -0.224385 -0.0415758 0.039365 -0.199794 0.0492437 -0.251433 -0.205981 -0.185527 0.05188 -0.0610437 -0.179662 0.0946753 0.0850826 0.282637 0.0491172 -0.137116 -0.165012 -0.0492372 0.00804125 0.125316 0.000738005 0.0870392 -0.0102883 0.0199817 0.00316344 -0.130457 -0.038432 -0.0447625 0.0308338 -0.063953 0.0884149 0.0752348 0.192581 0.310763 0.0994803 -0.0862175 0.125937 0.0237373 -0.0304921 0.145758 0.0439016 0.0997657 -0.0748917 -0.167668 -0.1364 -0.0739963 -0.0971321 -0.027289 0.0149284 0.0209663 -0.026025
35922 0.26493 1.40601 -0.285646 -0.793261 -1.079 -0.736503 0.838093 -0.0450718 -0.517281 0.917136 0.399287 -0.228547 0.0714733 0.256692 -0.13768 0.241101 0.120957 -0.236512 0.497457 0.834163 -0.0192316 0.480727 0.652416 -0.674268 -1.67133 -0.987082 0.675348 -0.204002 0.534361 -0.0321819 -1.09234 0.480573 -0.41165 -0.632073 0.398065 0.177655 -0.511331 -0.476635 0.560319 -0.157158 -0.105995 0.563836 -0.558439 -0.665743 0.102827 1.21221 0.439978 0.583268 0.106086 -0.807353 -0.184434 0.2358 -0.142489 -0.00701459 0.142701 -0.113339 -0.695643 -0.0748774 -0.24302 -0.476732 0.0142977 0.637957 0.0766346 -0.147897
312409 0.0214765 -0.000773553 -0.0187943 0.00701579 0.0103782 -0.0257646 0.00646711 -0.000493209 0.000447081 -0.0260621 0.00287409 0.00850135 -0.0018922 0.00102888 0.00987061 -0.00695862 -0.0416327 0.0092357 -0.00935818 -0.00357369 -0.00414961 -0.00773313 0.0309202 -0.0387829 0.00291895 0.00994956 0.027365 -0.00928063 -0.0163023 -0.0061381 -0.000412975 0.0161807 -0.00956536 0.0155117 0.00694004 -0.0255124 0.0218161 0.00966311 0.0107556 0.00327246 0.0088237 -0.0346898 0.00886402 0.0155892 -0.00642999 -0.0219599 -0.0211804 -0.00640452 -0.0107631 -0.00780962 0.0111247 0.0189005 0.0340708 0.0032816 0.00739593 -0.0141957 -0.0257223 -0.029732 -0.00011799 0.0103303 0.00727306 -0.0302006 -0.0178609 0.00166449
178727 0.0100071 0.157821 -0.0695114 -0.216284 0.121319 0.0590887 0.0279355 -0.0573348 0.0442517 0.101635 -0.149664 0.0831971 -0.0630913 0.0702937 0.0617922 0.0105567 -0.107045 -7.48965e-06 0.0201863 0.0908115 0.00781961 -0.298096 -0.00701951 -0.154743 -0.116973 0.0275087 0.00423415 0.0134654 0.315207 -0.140679 0.00878283 -0.0463051 -0.106119 -0.246049 -0.00404973 0.151589 0.213051 0.040893 0.22718 -0.0162221 0.0739234 0.120221 -0.0771431 -0.0272846 -0.0417139 -0.458555 0.20139 0.0824742 -0.192474 0.229769 0.176793 -0.0626672 0.0152185 0.0489819 0.00621687 0.12156 -0.102803 -0.210349 -0.0739333 -0.264945 0.0392242 -0.0114762 -0.0344199 -0.153295
1061127 -0.108803 -0.059648 0.00111709 -0.0605274 -0.0460835 0.0818099 -0.130428 0.120573 -0.00297249 -0.116384 -0.0137883 -0.0242986 0.0344172 0.0397157 -0.00588598 0.018184 0.0428954 -0.0722759 0.0576277 0.0236361 0.0789829 -0.0969986 -0.03603 0.104891 -0.134343 -0.0828762 0.0928223 0.181324 -0.160523 0.182335 -0.0693189 0.235987 -0.0581141 -0.163258 -0.0817126 -0.00478012 -0.0675081 -0.0729038 0.195503 0.052017 -0.0914841 0.201624 -0.0443744 0.021901 0.032318 0.113725 0.0410767 0.00980469 -0.101698 -0.0875893 -0.213548 0.0874846 -0.0126693 -0.0062071 -0.155916 -0.208493 0.0249731 -0.0445119 0.10149 0.0142076 -0.0560256 0.0364452 0.13475 -0.0878316
18582 -0.0164317 0.321509 -0.0939915 -0.322598 0.0647438 0.0806311 0.0205332 -0.0260998 0.0844104 0.078913 -0.219383 0.168013 -0.116678 0.00399672 0.0299916 0.128698 -0.157491 -0.0216853 0.20288 0.132652 0.0194824 -0.327984 0.00340915 -0.170748 -0.230884 0.0558192 0.00814893 0.0762576 0.517538 -0.256789 0.103827 -0.216873 -0.214707 -0.336888 0.0484393 0.333103 0.237486 0.176503 0.324982 -0.0028714 -0.0318256 0.200824 -0.0873476 0.0319595 -0.0784536 -0.707503 0.219995 0.0666073 -0.168905 0.328715 0.186899 0.0473225 0.14611 -0.00831585 -0.0609949 0.252816 -0.116185 -0.164456 -0.0447972 -0.281922 0.022285 0.0482468 -0.0890159 -0.199213
379288 -0.0339957 -0.0569934 6.19023e-05 0.030154 0.0555134 0.0198667 -0.040272 -0.0455288 0.0328075 0.0445417 -0.0144842 -0.0340819 0.0359595 0.0027127 -0.00861187 -0.0215754 0.0283003 -0.0206076 -0.0816286 -0.0383693 0.0306652 -0.0423435 0.0152015 -0.0475526 0.065866 -0.0836086 0.0341455 -0.026003 0.0601981 -0.0963135 -0.0396526 0.0189437 0.124159 -0.102621 -0.0199767 0.0105914 0.0198383 -0.0330305 0.0608228 -0.0441921 -0.00659756 -0.158097 0.0191133 -0.0714758 0.0224209 -0.00607103 -0.0508395 -0.00174147 -0.0667633 0.062236 0.00514429 -0.0764459 -0.0197307 0.0598018 0.041015 0.0688809 -0.107116 -0.0887595 -0.0193304 -0.112186 -0.0282036 -0.101821 0.00460239 0.00684922
1154232 0.101242 -0.13642 0.515176 -0.0802957 0.0194493 0.46118 0.110426 0.332753 -0.137549 -0.0604931 0.0394455 -0.0478125 -0.246324 -0.211545 0.117485 -0.282978 -0.00838901 0.0537315 -0.27667 0.293963 0.389018 0.150297 -0.173715 0.220501 -0.112234 -0.073399 0.0149822 -0.546628 0.0866386 0.277025 0.0788564 0.184017 -0.195678 -0.134094 -0.0909561 0.385065 0.0754809 -0.104079 -0.14326 -0.0439916 0.127942 0.0375575 -0.117603 -0.0808934 0.251371 -0.268112 -0.142474 -0.134831 -0.403308 0.263589 -0.101971 -0.0136781 0.468241 -0.274987 0.195842 0.0837125 0.178911 -0.112045 0.218297 -0.272045 0.480023 -0.0416109 -0.420945 -0.217073
111676 -0.0235446 0.050202 0.0192102 -0.0192078 0.00208118 0.0387852 0.0292062 0.0711187 -0.00861712 0.011404 0.0457014 0.0211446 -0.0721923 0.0128321 0.0766399 -0.0371532 -0.0401071 0.0101107 0.0426679 0.0609452 -0.0397761 -0.0947312 -0.0529529 -0.00766151 -0.0275288 -0.0300177 -0.0500625 0.0482765 0.0533785 -0.0183693 0.0104836 -0.00729191 -0.0871572 0.00457133 -0.00165996 0.0332363 0.0510275 0.0282302 0.00693955 0.0122132 -0.0266218 0.0906861 0.0499986 0.0483911 -0.0802169 -0.0823312 0.0748689 0.0506982 -0.00982611 0.042781 0.0753356 -0.0363273 -0.0292809 0.033556 -0.0765841 -0.0322694 -0.0477885 -0.00270587 -0.0221567 -0.0391653 -0.0259417 -0.00275929 0.0351918 0.00318088
1132443 0.00849248 0.0217881 0.0217843 -0.103869 0.195653 0.0645544 0.079467 0.16133 -0.0634882 0.00768565 -0.0132304 -0.106571 0.1565 -0.0767473 0.102516 -0.16823 -0.053364 -0.0404219 -0.0424185 0.024199 0.0582866 -0.00601392 0.157679 0.0819855 0.243082 -0.0958149 0.0477862 -0.0479991 -0.0609874 0.137555 0.00610917 0.0631407 -0.0594127 -0.00569289 0.0115953 -0.0441424 0.146194 0.0387992 0.0225443 0.061905 -0.0523307 0.0224052 -0.10617 -0.134515 0.047747 -0.160862 -0.0610351 -0.105363 -0.00158653 -0.0637342 0.142575 -0.0240448 0.042374 0.0723246 -0.0669701 0.082302 -0.0383006 0.0301905 0.0434877 0.00373042 -0.246519 0.0482357 -0.0485184 0.232804
248425 0.00163252 0.344165 -0.0848245 -0.434378 0.315483 -0.0179132 0.212227 -0.209681 -0.0419901 0.166265 -0.331584 0.126781 -0.160054 0.122046 0.0088047 -0.0576777 -0.295459 -0.109697 0.0567912 0.242583 0.0816104 -0.427701 0.00441083 -0.24124 -0.220443 0.00375272 -0.0234238 -0.0140771 0.535333 -0.381911 -0.0184039 -0.034065 -0.229661 -0.448491 0.0986572 0.180872 0.355491 0.0722105 0.402211 -0.104277 0.182954 0.0992254 -0.0731166 -0.0229365 -0.0787927 -0.672698 0.374689 0.139782 -0.421686 0.367888 0.135336 -0.211821 0.0191513 0.0552415 -0.100639 0.289066 -0.1806 -0.313882 -0.000782311 -0.528389 0.0661132 -0.0251084 -0.179896 -0.343956
739816 0.131367 0.102972 0.066732 0.0296996 0.0432532 -0.141235 -0.0781452 0.13941 -0.0975636 0.0080717 -0.0355402 0.128956 -0.126366 0.0236274 0.139002 0.0651123 -0.0448032 0.0428752 0.281889 0.145032 0.0448418 0.21035 -0.0462763 -0.005125 -0.135266 0.101364 0.0190579 0.0178274 0.205953 0.269361 -0.105212 0.0652446 -0.00327671 -0.150028 -0.0848621 0.0752496 -0.0919171 0.130894 0.0598974 -0.0476006 -0.104421 -0.0793723 0.125945 -0.0398516 0.0475996 0.217987 0.0247638 0.0630476 0.0755227 -0.0935396 -0.0376859 0.0415918 0.104892 0.00824476 -0.00140327 -0.197982 -0.0358787 0.0819052 0.0460991 0.0599322 -0.0511637 -0.0403342 -0.157907 0.113404
634902 -0.0113073 0.205015 -0.0290887 -0.257348 0.173573 0.0647546 0.0334488 -0.130914 0.0560081 0.126061 -0.225429 0.145981 -0.143599 0.0387108 0.071628 0.0215871 -0.187533 -0.00127708 0.00867374 0.116314 0.0320376 -0.362443 -0.0137204 -0.206301 -0.134436 -0.0146152 0.00908091 0.0454522 0.472588 -0.225971 0.0442886 -0.0595266 -0.168251 -0.367944 0.00601044 0.187934 0.214401 0.061991 0.244504 -0.00383742 0.0201904 0.13618 -0.0973032 -0.0326932 -0.0431135 -0.676526 0.253557 0.147177 -0.261132 0.343109 0.236523 -0.0898761 0.05187 0.0153184 -0.0228346 0.175924 -0.185989 -0.212902 -0.0331524 -0.306122 0.068711 -0.0387713 -0.1189 -0.184438
817774 -0.00755565 0.00174488 -0.000162665 -0.00539822 -0.00514357 -0.00455509 0.00525657 -0.00624587 0.00316466 0.00338863 0.00736881 -0.00258248 0.000760452 0.00396776 0.00622542 -0.00314188 0.0034099 -0.00605251 -0.00546313 -0.0031129 0.00455661 0.00501256 -0.00146751 -0.00386814 0.00275495 0.00400374 0.00695543 -0.0023951 0.00313954 -0.00665468 0.00600363 -0.00117551 0.00222478 0.000708487 0.00188384 -0.00670905 0.00497309 0.00702519 0.00746775 -0.00708525 -0.00350229 0.00550818 0.00703798 0.00528729 -0.00185429 0.00433602 0.00675954 0.00199249 -0.0013877 -0.00777358 -0.00649903 -0.00335927 0.0026026 0.000323147 0.00253793 -0.00612502 -0.00409755 0.00180356 0.000116251 -0.00174559 0.00664578 -0.00599604 -0.00306532 -0.00299501
149669 -0.0421932 -0.310037 0.379204 0.232042 0.227526 0.587825 -0.00499305 0.459224 -0.00528221 -0.0126176 -0.105591 -0.249232 -0.167358 -0.0151079 0.313577 0.0893031 -0.0268882 -0.0882208 -0.270307 0.190651 0.267756 0.220441 -0.319581 0.51082 0.0270883 -0.532626 0.195633 -0.546134 0.0402554 0.463514 -0.192613 0.273176 -0.29997 -0.24981 -0.268099 -0.00153248 -0.193664 -0.178829 -0.0101309 0.0853246 0.180133 -0.134923 -0.0690399 -0.249171 0.273322 0.0909909 -0.0797856 -0.575409 -0.666257 0.0353237 -0.185681 -0.232972 0.143916 -0.237168 -0.0465551 -0.110584 -0.00283858 -0.179233 0.107563 -0.218367 0.594099 -0.1503 -0.179554 -0.413647
7272 -0.196951 -0.329488 -0.0968439 0.137324 0.160835 0.141823 -0.000760783 -0.101671 0.0608959 0.115372 0.0570381 -0.175529 0.23462 0.0177717 -0.0711078 -0.174289 -0.0319316 0.158153 -0.226584 -0.0720315 -0.00427474 -0.321858 0.073792 -0.143024 0.240097 -0.0683015 0.0755075 -0.127589 -0.138869 -0.253745 0.0994193 -0.155647 -0.0969927 -0.0055787 0.21625 -0.00191777 0.0433766 0.0853813 0.000412522 0.232601 0.16991 0.0429681 -0.0311012 -0.0982841 -0.0284932 -0.342623 0.0323023 -0.10837 -0.102942 0.219309 0.188781 -0.0882187 -0.0897437 0.129068 0.00909444 0.367551 -0.195825 -0.233967 0.063163 -0.318093 0.156556 -0.0749023 0.225019 -0.0971792
943087 0.130349 -0.0238533 -0.0610859 -0.0876145 -0.148293 -0.176027 0.174963 -0.0452462 -0.0849454 0.0474828 -0.00782244 -0.0801541 0.0892681 -0.25468 0.103303 -0.049644 0.0137683 0.109823 0.159546 0.135983 0.208586 0.176147 -0.080142 0.00773097 0.0782926 -0.122953 0.211004 0.0672845 -0.0561633 0.114758 0.00846792 0.136755 0.0307882 0.0459607 -0.0607753 -0.17706 -0.126908 -0.13484 -0.111136 0.00449441 0.103775 -0.0255454 -0.0811115 -0.121378 0.0261356 -0.0511985 -0.0651979 0.184789 -0.0491298 0.179293 -0.0557908 0.0563423 0.221949 -0.119045 0.135513 -0.105686 -0.0551802 0.170376 -0.0771943 0.125005 -0.115535 0.0709179 -0.136471 0.112598
31083 -0.0171454 -0.110233 0.0123875 -0.00697227 -0.0331293 -0.0616841 -0.0415903 -0.0827372 -0.0690247 -0.00135183 -0.0745941 0.013668 0.0690259 -0.0122623 -0.0289554 0.00643367 -0.0107745 0.061016 -0.0947559 0.242239 -0.00955378 0.0381404 -0.0946069 -0.0488287 0.0923452 0.0641303 0.0654143 -0.0440196 0.0191611 0.0060852 -0.0086363 -0.0399333 0.0991695 0.0515002 -0.0236128 0.0353461 -0.11675 -0.10349 0.0585001 -0.0129909 0.0371734 -0.155354 -0.00399754 0.079079 -0.00529835 0.0154395 -0.0537799 0.0421195 -0.219048 0.124448 -0.0874659 -0.0975531 -0.115036 0.137007 -0.0504453 0.03702 0.0367328 0.0573936 0.0150976 -0.0558247 -0.125634 -0.0379682 0.0885762 -0.0334363
230884 0.153544 0.210443 0.0679356 -0.172667 -0.139406 -0.239571 -0.0954115 0.256431 0.116077 -0.121076 0.0718729 0.0883868 -0.130396 -0.0151604 -0.0981396 0.199433 -0.054934 -0.280367 0.258589 -0.0911872 0.102363 0.436402 -0.0700961 0.268701 -0.105399 0.0666378 -0.238676 -0.0912904 -0.0316038 0.302856 -0.113988 0.314495 0.132049 -0.029477 -0.191038 0.0651037 0.0622617 -0.0202197 0.00763266 -0.240583 -0.327638 0.0476854 -0.0677939 0.0690722 -0.00184848 0.374794 -0.1308 0.0785115 0.0294969 -0.327412 -0.238484 0.198977 0.016585 -0.202314 -0.0750015 -0.43949 0.163484 0.257603 0.0343531 0.418206 -0.260108 -0.0494699 -0.0203546 0.114759
12631 -0.101125 -0.443448 0.14114 -0.061932 0.178127 -0.160897 0.112535 0.118018 -0.0640385 -0.103118 -0.0177077 0.310818 0.227775 -0.0402273 -0.00541955 -0.0123309 -0.168124 0.16629 0.0406841 0.15484 0.0936707 -0.164177 -0.190004 0.190917 -0.337581 0.23928 -0.386531 0.204997 -0.0637324 -0.0337777 0.0475403 -0.0465852 0.0366157 0.00161484 -0.149064 0.317107 0.240063 0.0278512 -0.169584 0.0292853 -0.0575913 0.169957 0.277825 -0.152587 0.122197 0.185906 -0.252103 -0.269127 -0.0750162 0.0356396 0.197671 0.0861607 0.204643 0.0338756 0.183907 0.191695 -0.218554 0.0881039 0.258551 0.191684 -0.0236854 -0.00235929 -0.138905 -0.349545
10174 -0.00796001 -0.0868227 -0.0725252 0.0324022 -0.0391328 0.0744454 0.184577 0.1797 -0.116086 0.0694366 -0.0857897 0.112311 -0.00794323 0.245784 0.142651 -0.0604523 -0.0273556 -0.0338377 0.00541561 0.109961 -0.151335 -0.142736 -0.0604505 0.0360047 -0.199311 0.0149037 -0.103091 0.00651495 -0.186147 0.0616909 -0.109611 0.122812 -0.10735 -0.000751627 0.0445855 -0.0417265 -0.115149 -0.127367 -0.0667389 0.128418 0.0871049 0.173927 0.09727 0.0306693 -0.033673 0.150502 0.119757 0.0345732 -0.00347715 -0.105724 0.0311692 0.0571092 -0.0719503 -0.0387798 -0.0601698 -0.117192 -0.0524051 0.00105384 -0.103274 0.0756406 0.0114257 0.0670597 0.118377 -0.125091
11148 -0.0111478 0.0115726 0.0171217 0.0320119 -0.00556576 0.00935596 0.0542256 0.047918 0.0363397 -0.0442886 0.0625546 0.0239869 0.0453866 -0.023045 0.0230759 -0.0328213 -0.0275299 0.0371954 -0.00748352 0.0460374 0.0198299 -0.0575102 -0.00998188 -0.0537164 0.0419603 -0.0744582 -0.0149407 -0.0413232 -0.0578423 -0.0055498 0.0284925 0.0291365 0.0275789 0.0167708 0.00129463 0.0398483 0.0224589 0.0150801 -0.0138355 0.00736691 -0.0439811 0.0138098 -0.0339964 0.00344239 -0.00240765 -0.0333 -0.00510938 -0.0202112 0.00381296 -0.0746252 0.016921 0.0554937 -0.0950504 0.0600173 0.00536952 -0.0639986 -0.0132089 0.0664555 -0.0543135 -0.0482887 -0.0372374 -0.0527009 -0.0670025 -0.0309531
54131 0.0672738 0.0265819 0.14018 -0.28098 0.110752 0.0432287 -0.426422 -0.437402 -0.0963588 0.206317 -0.55584 0.584429 -0.518309 -0.1999 0.133944 0.0749618 -0.152216 -0.0891476 -0.361382 0.0605297 -0.0187095 -0.966596 -0.0711588 -0.353656 -0.594185 -0.407917 -0.240252 0.0146766 0.876911 -0.230213 -0.315957 0.147565 -0.601177 -0.440519 -0.30141 0.178363 0.533889 0.0803292 0.539519 -0.0697615 0.00673901 0.474028 -0.233302 0.010839 0.332585 -1.0232 0.41516 0.0114809 -0.6863 0.612033 -0.00337015 -0.201045 0.0350423 -0.109799 -0.286075 0.523928 -0.165499 -0.390755 0.11576 -0.20725 -0.323662 -0.47786 -0.542813 -0.598369
345340 0.0425065 -0.238058 0.218597 0.253542 -0.101512 -0.0587715 0.0637307 0.222365 0.300913 -0.128435 0.126032 -0.154413 -0.275171 0.160142 0.40903 -0.227236 -0.0328555 0.242088 0.110687 0.0884342 -0.245492 0.643288 -0.268404 0.130255 -0.24225 -0.128489 0.111962 -0.288697 0.0188223 0.15234 -0.408347 0.27643 -0.357274 -0.207045 -0.31665 -0.381555 -0.204585 -0.0675055 0.115318 0.0808217 0.0552042 -0.127612 0.236771 -0.411086 0.243825 0.673193 0.127289 -0.589737 -0.417447 0.0473275 -0.256815 -0.26699 0.0892311 -0.131962 -0.0274546 -0.0928847 -0.0940407 -0.122417 0.0389394 0.110331 0.259781 -0.0297546 -0.244792 -0.513031
51831 -0.0173012 -0.0443703 -0.0392066 0.0183835 0.118842 0.0312914 -0.0474526 0.0227278 0.0248607 0.0410889 0.00678704 -0.0412896 0.0998209 -0.0296021 0.00844901 -0.00332753 -0.00535915 0.0160405 -0.0316164 0.00524528 0.0453214 -0.109024 0.0636842 0.0382483 0.049956 -0.0967827 0.0724116 -0.0669941 -0.0129147 -0.0352495 0.0136524 0.0178661 0.16115 -0.100246 -0.087102 0.0122907 -0.0398226 -0.0425596 0.0502944 -0.040765 0.0107866 -0.110832 0.00111046 -0.0696853 0.0465845 -0.0724566 -0.114377 -0.020818 -0.0983604 0.0456945 0.00768763 -0.0356518 -0.0141861 0.094116 -0.0126278 0.0409244 -0.0642765 -0.114516 -0.056605 -0.118203 -0.0433459 -0.0883559 -0.0134335 0.0146985
210309 0.173783 -0.056185 -0.110091 -0.151358 -0.22462 -0.231557 0.224942 -0.129893 -0.176396 0.0779589 -0.0361186 -0.116093 0.177775 -0.398184 0.156697 -0.0983338 0.039538 0.167551 0.248302 0.280038 0.350572 0.327805 -0.172911 -0.0334902 0.105912 -0.242181 0.376318 0.0834603 -0.0398903 0.164356 0.0171362 0.208601 0.0677139 0.0935226 -0.137669 -0.307326 -0.199964 -0.260166 -0.10627 0.0378252 0.194226 0.00768822 -0.145756 -0.151275 0.0508422 -0.131313 -0.0918254 0.330706 -0.0944742 0.270822 -0.0997997 0.0982108 0.354094 -0.211246 0.193877 -0.148168 -0.0578223 0.27936 -0.106496 0.244136 -0.155232 0.085897 -0.229102 0.206734
1115166 0.0159495 -0.0186623 0.000583327 0.0319257 -0.0446406 0.0519541 0.0108768 0.188801 -0.0136094 -0.0415857 0.109584 0.0283203 -0.0247637 -0.0205981 -0.0084139 -0.0187209 -0.00381125 0.0665627 0.0644146 0.0410346 -0.0270979 0.0743956 -0.0251052 0.0872302 0.0423073 -0.0287552 -0.01817 0.0245191 -0.151335 0.0931027 0.0451073 0.0070153 -0.028409 0.12174 -0.00696518 -0.0396903 -0.0573585 0.0448468 -0.122173 0.0387562 -0.0363681 0.0795203 0.0476905 0.0807816 -0.0970098 0.139699 -0.00894498 -0.013688 0.0865355 -0.06331 -0.0779835 -0.0125201 0.0415256 -0.00180552 -0.0312336 -0.0921863 0.0286941 0.0460863 -0.00993627 0.132881 -0.0444504 0.0834364 0.0565859 0.0752634
6941 0.117954 0.0307785 -0.183479 0.234785 0.082487 0.26667 -0.0761544 0.106895 0.245453 0.0604012 -0.101971 -0.117656 -0.281282 0.436412 -0.04556 -0.0238882 -0.156581 -0.00786005 -0.233177 -0.0793102 -0.0358928 -0.0728671 -0.103132 0.302594 -0.262961 -0.19498 0.537742 -0.201018 -0.0252062 0.457455 -0.327688 0.291646 -0.160871 -0.25136 -0.263419 0.250928 -0.283926 -0.0788424 0.448612 0.0945875 0.0408922 0.0987873 -0.158536 -0.15876 0.341068 -0.0182253 -0.185747 -0.187491 -0.367332 -0.0528572 -0.126635 -0.0702656 -0.116997 -0.105348 0.35242 0.171277 0.28404 0.135318 -0.207727 0.0894683 0.0691746 -0.181567 0.0514472 0.0154673
1128945 0.0134304 0.162486 -0.0652327 -0.212569 0.0987275 0.0314788 0.0715099 -0.0688112 0.0361843 0.0306302 -0.152288 0.0688344 -0.0534085 0.0428277 0.023179 -0.0177337 -0.119738 -0.0153828 0.0270207 0.046864 -0.00253208 -0.250879 0.0124451 -0.122746 -0.112054 0.03869 0.0136814 0.028987 0.254171 -0.117037 -0.00488546 -0.0182472 -0.102483 -0.211369 0.0138755 0.111208 0.156165 0.000361754 0.163529 -0.023134 0.0809939 0.0796825 -0.0654844 -0.033278 -0.00725749 -0.397239 0.129341 0.0647982 -0.172782 0.181301 0.115979 -0.0455107 0.00907584 0.041924 0.0321552 0.11155 -0.0307329 -0.159294 -0.0456474 -0.20862 0.0524107 -0.00489145 -0.00721627 -0.107795
11342 0.143799 0.376571 -0.198232 0.0716474 -0.661298 0.142342 -0.0205364 0.407942 0.133973 -0.0850873 0.26869 0.108427 -0.548429 0.42364 -0.102579 0.358757 0.0733372 0.65583 0.0863069 -0.402667 0.0369935 0.172652 -0.15193 -0.0598516 -0.172546 0.190592 0.230101 0.2077 0.243566 0.0304928 0.0562315 -0.0132501 0.0286323 0.145408 -0.363324 0.178669 -0.116807 0.0830649 -0.158514 -0.161302 -0.175716 0.0192887 -0.123432 -0.0572029 0.0807849 -0.173332 -0.107426 0.127361 0.00831342 0.500556 0.373785 0.172206 0.33436 -0.041381 0.27715 -0.0540415 0.176869 0.396598 -0.171487 0.196627 0.339324 0.0169763 0.0903296 0.0592472
646195 0.00528376 -0.263154 0.0805268 -0.416058 -0.00448427 -0.0171269 0.158628 0.406952 -0.206914 0.0331387 -0.0627227 -0.00494512 -0.0817833 0.0940006 0.221708 -0.15083 -0.055827 0.291021 -0.00151311 -0.0389705 0.485703 -0.217275 0.242613 0.064679 -0.388713 -0.185542 -0.307995 -0.202305 -0.0678751 0.0258596 0.0618699 0.038241 -0.0977103 0.00287922 0.0260286 0.0444046 0.0129034 -0.115358 0.219296 0.112159 0.307144 -0.302873 0.282522 -0.0418976 -0.190454 -0.248254 -0.385322 0.0371697 -0.192683 -0.0602674 0.206627 -0.24776 -0.113595 0.0439298 -0.413211 -0.0169354 0.250272 0.0223786 -0.267728 -0.0475278 0.0942401 -0.292468 -0.0138957 -0.0770237
17821 -0.00485967 -0.0034142 0.000629571 -0.00326333 0.000487598 0.00442299 -0.00476655 2.62814e-05 0.00106026 0.00743775 0.0067751 0.000247098 0.00158611 -0.00376714 -0.00467166 -0.00543294 -0.00294515 8.15915e-05 9.08594e-05 0.00340093 0.00284332 -0.00393333 0.00024353 0.000225019 0.00341418 0.00731409 0.00565711 0.00534489 0.00693976 0.00137594 0.00329555 0.00296847 -0.00122929 0.00375438 0.00073358 -0.00399397 0.00472678 -0.000166001 -0.000578196 0.00290508 0.00226866 -0.00686469 0.00599276 -0.00764008 0.00635856 -0.00111211 -0.0072803 0.00248245 -0.00111442 -0.000255053 -0.00647793 -0.00359703 0.00015298 -0.00161164 -0.00764996 0.00432974 -0.0039472 0.00385787 -0.00513827 0.00554985 0.00516917 0.00304192 -0.00287857 0.00146876
309476 0.0455536 0.228323 -0.200779 -0.0973264 -0.317111 0.0150414 0.398406 0.298244 0.0815745 -0.16804 0.141595 -0.0754503 -0.157025 0.0542377 0.0917419 0.103651 0.0575324 0.240707 0.18039 -0.249287 0.205202 0.20642 0.0514493 0.189621 0.31917 -0.0679227 0.113582 0.0265123 -0.137054 0.0532142 0.0890633 -0.0196609 -0.0296188 -0.045352 -0.0266664 -0.0326069 -0.0302382 -0.32673 -0.162429 -0.0899689 0.190071 -0.0616923 0.0664328 -0.239806 -0.000491445 -0.0575004 -0.252585 0.0921385 0.278826 0.263395 0.299382 0.358149 0.447753 -0.18957 0.179461 -0.0290535 -0.0913205 0.186495 -0.149237 0.046361 0.190396 0.12448 -0.18931 0.216819
153063 -0.397243 0.0514548 0.231686 -0.173869 -0.34037 0.0805282 0.257572 -0.226094 -0.205177 0.0779491 0.140268 -0.22904 -0.239413 0.368725 0.392606 -0.19712 0.432424 -0.521606 0.0672426 0.0213587 -0.0266484 -0.390842 -0.363174 -0.496185 -0.2304 0.0853073 -0.112395 0.767116 0.429996 -0.128633 -0.0105252 0.69633 -0.0270145 -0.214897 -0.329242 -0.0779225 -0.289935 0.300725 -0.0755028 0.0103458 -0.353414 -0.197717 0.136926 0.103129 -0.100838 0.304864 0.0451163 -0.04436 -0.0779626 0.281921 0.125548 0.248187 0.324151 0.0895366 0.0547622 0.112952 0.184361 0.231773 0.171387 0.0879513 -0.836585 0.486253 -0.0682056 -0.108053
189574 -0.0773052 -0.0792351 0.0761509 -0.13451 -0.192923 0.235161 0.296817 0.0836667 -0.209454 -0.00677258 0.136661 0.0525729 -0.16808 -0.0112324 0.104394 0.0230085 0.143424 0.139835 -0.291662 -0.0466335 0.169397 0.220875 0.0508331 0.0190572 0.0387995 0.0498645 0.183292 -0.202346 0.210483 0.121157 -0.0462218 -0.131031 -0.0809296 0.138731 -0.0289179 0.106898 0.109769 -0.243242 -0.394207 0.0133564 -0.107106 -0.135286 -0.217539 -0.197858 0.164262 -0.282361 -0.23364 -0.162186 -0.156171 0.300033 0.163041 -0.0285961 0.243641 -0.291211 0.205277 -0.00131589 -0.0976881 0.128534 -0.0171799 -0.045324 0.568416 0.194764 -0.0566771 0.0599735
74698 -0.428321 -0.157658 -0.153562 0.0195103 -0.0443575 -0.224534 -0.340455 0.18689 -0.11675 0.0748529 0.0181442 -0.0919172 -0.292919 0.19767 -0.0501909 0.261497 0.200456 0.0888638 0.240177 -0.286428 -0.218896 0.1202 0.187033 -0.170912 -0.0592614 0.0743524 -0.02238 0.184541 0.132572 -0.0209407 -0.0478198 0.104064 0.0463785 0.169632 -0.100665 -0.115467 0.317921 0.0356276 -0.0404488 0.0614678 -0.440679 0.370101 -0.0780037 -0.0196153 -0.269296 0.162783 -0.0200451 0.0700423 0.144789 -0.153876 0.170815 -0.0285537 -0.377374 0.318826 -0.0450956 -0.179123 -0.0610427 -0.112921 -0.156429 -0.0152853 -0.16249 0.0711305 0.0657055 0.271606
