2708 64
28504 -0.0932893 -0.104629 0.00740998 0.0345247 0.0933195 0.233636 -0.174912 0.138736 0.0458045 -0.0744483 -0.0369476 -0.0904587 0.0841499 0.212512 0.026937 -0.0822782 0.0570426 -0.0843875 -0.245704 -0.0172251 -0.0294251 -0.185227 -0.030072 0.0989481 0.0107606 -0.0500333 0.0497995 -0.192896 -0.0810482 0.108097 -0.125263 0.185401 0.00355873 -0.128539 -0.100927 0.0602836 -0.110665 -0.0952922 0.180211 0.0467496 0.0376048 -0.0373471 -0.0316314 -0.189494 0.0790839 -0.029806 -0.0552396 -0.19754 -0.165662 -0.0551019 -0.0420325 -0.000852805 -0.118588 0.0682158 0.00900148 -0.0585518 0.021656 -0.0431501 -0.0492557 -0.10811 0.0822414 -0.132073 0.16487 -0.0489867
445938 -0.0676283 -0.130256 0.102441 0.225148 -0.172757 -0.084174 0.0493444 -0.0134589 0.0343527 0.0671008 -0.0658368 -0.0192457 -0.139804 -0.0738967 0.0190174 -0.18765 0.0746761 0.0444849 0.233805 0.299957 -0.077525 0.338886 -0.200727 0.136371 -0.210646 -0.190104 -0.149179 0.0946247 0.0230196 0.0498753 -0.0915834 -0.0563444 -0.0102338 0.00189641 -0.146757 0.0263305 0.0493717 0.00662512 0.016674 -0.14858 0.124645 0.0275606 -0.00723587 0.0927896 0.0638251 0.448603 0.103953 -0.13887 0.0950557 -0.130083 -0.128927 -0.00143433 -0.100698 0.043389 0.12674 0.0590786 -0.0754957 -0.067932 -0.00438267 0.193523 -0.132171 0.0230534 -0.0336447 0.00957931
6385 0.0682135 -0.299533 0.167976 0.353991 -0.238403 -0.141916 -0.131993 0.0145604 -0.0209627 -0.0337383 0.248902 -0.0542491 0.0508006 -0.193088 -0.0384543 -0.00876951 0.163712 0.0750306 0.0173853 -0.130152 0.0813667 0.40378 0.0360844 0.261956 0.173189 0.0672901 -0.0398515 0.0897866 -0.477951 0.0741228 0.127766 -0.0266796 0.147456 0.476394 0.0279761 -0.216133 -0.151741 0.0779742 -0.432641 0.0790139 -0.106869 -0.171214 0.0949402 0.119339 -0.059269 0.655471 -0.132124 -0.0384501 0.390443 -0.265929 -0.17648 0.089812 -0.0198398 -0.0654427 -0.00050997 -0.139136 0.231648 0.338668 0.151407 0.36413 0.00665234 0.143631 0.0196632 0.132738
318187 -0.031221 -0.0238568 0.0227941 -0.0515739 0.0100986 -0.028668 0.0287788 -0.0329758 -0.000987537 -0.00437994 -0.00206157 0.000142677 0.0264465 0.00494908 -0.0117068 -0.0389099 0.00395703 -0.0535974 -0.0142199 0.0237518 -0.0336726 0.0118819 0.0199104 -0.0297852 -0.000925243 -0.00929521 -0.0256427 -0.0332793 0.0250593 -0.0290292 -0.0161103 -0.0298879 0.0225223 0.00591092 0.0324244 -0.0248618 0.0225387 -0.0151738 -0.0376437 -0.000771539 0.0158757 -0.0468066 -0.00761605 -0.0348244 0.00913798 -0.0230551 0.00498522 0.00369347 0.00768507 -0.00277507 0.0371914 0.00262283 -0.030367 0.0142676 0.0114685 -0.00230229 -0.0366165 -0.00895895 -0.0036855 -0.0276831 0.00921016 -0.0105593 0.00577407 0.0109741
164885 0.00610853 0.0143107 -0.0132491 -0.00131258 0.016631 -0.0816324 -0.000675188 -0.0648008 -0.0154998 0.0469098 -0.0296803 -0.0091146 9.19056e-05 -0.0211324 -0.0408624 0.0356231 0.00269387 -0.0552187 0.0146796 -0.0459533 -0.0362075 -0.00735627 0.00439263 -0.0355964 -0.0245227 5.52697e-05 0.0235039 0.0353273 0.0228565 -0.0373304 -0.015547 -0.0186181 -0.0202501 0.0406811 0.0167353 0.0300576 0.0497425 0.0320146 0.00843652 -0.0168201 -0.00930156 -0.0329055 -0.0274303 0.0411287 -0.0214579 -0.029809 -0.00819605 0.0231442 0.0265897 0.0320818 -0.0142101 0.0105546 0.0403309 -0.0236522 -0.00183797 -0.0114851 -0.0212994 0.0160687 0.00161718 -0.0313523 0.039368 0.00602757 -0.00767222 0.0328102
1122460 -0.0169482 0.0218384 -0.0226665 -0.0156062 0.0695565 -0.0696369 0.200262 0.0359271 0.0114883 0.0390956 -0.039947 0.114342 -0.022014 -0.0689873 -0.0189594 0.0285034 0.0741709 0.0797492 0.00998473 0.0359571 -0.0318295 0.0132493 -0.0135883 0.0261023 0.104985 0.0567898 -0.0984397 0.0432837 0.0124002 -0.0361242 -0.0239707 -0.055987 0.0710087 -0.0806984 0.116118 -0.0437594 0.0803053 0.0793072 0.0447869 -0.013579 0.130679 0.0231938 -0.102169 -0.0441712 -0.126358 -0.0794886 0.0710689 0.0588606 -0.129109 0.109878 0.00526968 -0.0867076 -0.0173329 0.049625 -0.095009 -0.0256225 -0.123873 0.00932584 0.0914744 0.0384578 -0.035956 0.148804 -0.0265832 -0.0625755
20534 0.231939 0.0704448 0.0543674 0.0705712 -0.00467109 -0.356657 -0.0247622 -0.284827 -0.156583 0.276453 -0.121185 0.380232 -0.43649 -0.5309 -0.0217031 0.362119 -0.125216 0.301014 0.483362 -0.0782876 0.152536 0.282147 -0.0599885 -0.367512 -0.129878 0.205654 -0.11644 0.378453 0.556746 -0.363851 0.276428 -0.620279 -0.253987 0.203042 0.339047 0.146511 0.360248 0.535962 -0.227767 -0.0364741 -0.495135 0.241403 0.116861 0.719705 -0.425951 -0.124114 0.329878 0.314766 0.15861 0.46925 -0.0614197 -0.0452032 0.438067 -0.216148 -0.423653 0.11714 -0.15749 0.198414 0.392849 0.37551 0.0982118 0.109246 -0.671831 -0.132129
62329 -0.00986737 0.306811 -0.0994618 -0.259925 0.191135 -0.046519 0.178723 -0.126897 -0.00648479 0.116518 -0.148804 0.0647528 -0.0324084 0.0618069 -0.0613028 0.00799367 -0.188845 -0.0250077 0.00393736 0.0828433 0.0175698 -0.319234 0.0314511 -0.214606 -0.221564 0.154431 0.0379534 0.124715 0.446119 -0.247031 0.0389728 0.0523088 -0.203405 -0.258241 0.0544722 0.112119 0.178123 0.144514 0.219223 -0.0568031 0.152109 0.124186 -0.125865 0.0132963 -0.100952 -0.59482 0.271565 0.0522124 -0.202401 0.251601 0.222094 -0.00900571 0.0785743 0.114891 0.0253358 0.0818913 -0.053695 -0.15735 0.0167738 -0.315655 0.0626727 0.0391244 -0.106711 -0.177526
591016 -0.162813 -0.0169042 -0.0471322 -0.0494095 -0.0995706 0.373593 -0.226745 0.18247 0.015931 -0.0753914 -0.0259924 -0.0543421 -0.00549339 0.149455 -0.051789 -0.118902 0.0476502 -0.147047 -0.0348155 0.0607028 0.00649472 -0.2134 -0.0286691 0.2169 -0.192197 -0.154149 0.286953 0.0715844 -0.199512 0.335366 -0.169695 0.447803 -0.178575 -0.385888 -0.0442705 0.0505386 -0.187092 -0.216033 0.371913 0.0468246 0.0699639 0.226724 -0.139478 -0.114485 0.145339 0.160697 -0.186451 -0.202378 -0.147403 -0.21655 -0.311907 0.14368 -0.103005 -0.0235273 -0.0850508 -0.173183 0.0785173 -0.0797414 -0.138307 0.0180691 -0.0949294 -0.198216 0.270473 -0.101291
341188 -0.00585445 0.128177 0.20895 -0.186508 -0.216105 -0.248928 -0.286403 -0.241523 -0.0798222 -0.0372315 -0.0213135 0.393606 -0.370012 -0.362656 -0.381083 0.396575 0.014909 0.12883 0.486659 -0.0881493 -0.166165 0.576522 0.137649 -0.116243 -0.100465 0.160051 -0.00327397 0.115352 0.201756 0.0999015 0.351946 -0.209329 0.0602432 -0.0526291 0.283079 -0.0148325 0.0795041 0.261201 -0.266036 0.13504 -0.182219 0.175383 -0.0603145 0.625039 -0.215281 0.0909854 -0.178296 0.0825182 0.32248 -0.268573 -0.287291 0.244018 -0.0897121 -0.281124 -0.392372 -0.249847 0.184116 0.358351 0.363493 0.612799 0.0775362 0.0304323 -0.42529 -0.216913
6814 -0.207129 -0.163307 -0.0359196 0.28457 -0.337722 -0.214163 0.00894988 -0.182469 -0.00499881 -0.0874105 0.0100107 0.159867 -0.170044 -0.013971 -0.117967 -0.0950348 0.0161514 -0.110334 0.168546 0.408436 -0.0299865 0.447554 -0.146275 0.0232821 -0.208555 -0.221097 -0.237806 0.197508 -0.00854073 0.0239203 -0.0890009 -0.115359 0.0554528 0.0785589 -0.254502 0.0845331 0.000562965 -0.126043 -0.0396405 -0.195131 0.0479497 0.0450144 -0.00265783 0.192097 -0.0539179 0.769892 -0.0259876 -0.044448 0.185428 -0.143161 -0.0563165 0.0432842 -0.0312043 -0.0757727 0.0978028 0.0109198 -0.14388 -0.0720914 -0.0558283 0.0720104 -0.0927069 0.188509 -0.0317244 -0.0369657
167670 -0.194125 0.00357601 -0.0350383 -0.165785 0.0657762 -0.103392 0.585693 0.249308 0.00906377 0.0540251 -0.085522 0.143755 0.0880814 0.206736 0.268567 -0.0352883 -0.171104 -0.234985 0.248879 -0.0301252 -0.237931 -0.262134 -0.0901992 0.16722 -0.156518 0.0733612 -0.763279 -0.313034 -0.18761 -0.0782314 -0.0494875 -0.316076 0.307108 -0.419016 -0.0456466 0.447954 0.159452 -0.0578016 0.233606 -0.037695 0.129579 -0.281946 0.384464 -0.054281 -0.121119 0.19189 0.275799 0.140345 0.233392 -0.127126 0.423345 0.205816 0.175316 0.372141 -0.304071 0.0147798 -0.228569 -0.598459 0.350705 -0.198631 0.0857554 0.092837 0.127176 -0.185947
299195 0.13266 -0.0167244 0.0544428 0.131881 -0.272558 -0.3239 0.0686575 -0.126987 -0.0370368 -0.119719 0.144065 -0.0284593 0.0921256 -0.183225 -0.17402 0.133729 0.0974976 0.153971 0.215336 -0.183654 -0.0633383 0.512606 0.0983835 0.131897 0.0992676 0.307987 -0.140829 0.0853239 -0.340777 0.0635838 0.255839 -0.0999254 0.254784 0.53512 0.153112 -0.27806 -0.140121 0.138437 -0.510624 0.0135755 -0.122706 -0.0956297 0.0541069 0.277467 -0.0917675 0.572559 -0.25069 0.142047 0.479292 -0.366576 -0.202596 0.115909 -0.0163077 -0.098476 0.13709 -0.138924 0.316549 0.280099 0.165334 0.442996 -0.00101108 0.295359 0.00376388 0.21032
1128267 0.158837 -0.00763951 0.0696759 0.0234148 0.016283 -0.255085 0.0370288 -0.183268 -0.0739597 0.111026 -0.00368651 0.122482 -0.100069 -0.262068 -0.0100672 0.18389 -0.00754513 0.152552 0.235132 -0.0448355 0.0732654 0.139189 -0.023122 -0.211149 0.00487054 0.103412 -0.124393 0.201308 0.202529 -0.21589 0.24481 -0.308757 -0.0473669 0.170181 0.169368 -0.0331298 0.194214 0.267283 -0.284962 -0.0203069 -0.166804 0.044096 0.0414635 0.333696 -0.247973 -0.0466312 0.116906 0.107858 0.153346 0.167696 0.000779587 -0.103637 0.158838 -0.0816853 -0.164065 0.0187389 -0.025808 0.0674618 0.19876 0.15091 0.0806385 0.107788 -0.250483 -0.0560755
233106 -0.00650441 -0.00714147 0.014144 0.0118801 0.00262291 0.00718924 0.0141073 0.00171782 0.00497247 0.00834025 -0.0200841 0.0341085 -0.0200558 -0.00206523 0.00436589 0.0204597 0.0286804 0.00312133 0.00741135 0.00388719 0.0170542 0.0265827 -0.0176902 -0.0222536 -0.012044 0.00731172 0.0136692 -0.0283888 -0.0172279 -0.00160117 -0.00849117 -0.0165252 -0.000187106 0.00100212 0.0158861 0.0313184 -0.00340578 0.0288014 -0.00415364 -0.0345868 -0.0323692 -0.00136888 0.0253083 0.0221168 -0.0129035 0.00460693 -0.0115089 0.0181049 0.0236062 0.0174986 0.00520378 0.000440015 -0.00376564 -0.0188619 -0.0229089 -0.0146904 -7.72475e-06 0.0115114 0.0135985 0.0162712 0.00749069 0.00111449 0.00271469 -0.0101081
853150 -0.193211 -0.167517 -0.146262 -0.0410139 -0.0441263 0.0575565 0.0119579 -0.105188 0.097462 0.0299478 0.0902015 -0.259097 0.204613 0.00566723 -0.023776 -0.123724 -0.106494 -0.0950651 -0.277282 -0.120728 0.0359488 -0.191251 0.00591246 0.0966313 0.111765 -0.0782849 -0.00109845 -0.0876306 -0.173725 -0.230791 0.0691556 0.155276 -0.0231511 0.00550416 0.0852741 -0.0761752 0.118622 -0.177636 -0.0207558 0.130653 0.157746 0.13249 -0.113273 -0.072423 -0.0100253 -0.104413 0.058837 -0.118456 -0.109314 0.020882 0.0768602 -0.0634898 -0.0194701 -0.027756 0.0109354 0.104894 -0.00599585 -0.0917597 -0.0115669 -0.0528179 0.0132242 -0.0305418 0.194215 -0.0366202
1136814 0.0121252 0.120861 -0.0590334 -0.192998 0.167511 0.079075 0.0820906 -0.0300586 0.00312878 0.11364 -0.162405 0.102956 -0.072276 0.0172817 0.0496219 0.0250648 -0.153742 -0.0435122 0.0294761 0.0791866 0.0717311 -0.330705 0.00630949 -0.216844 -0.119602 0.00566006 0.0269091 0.0985261 0.408753 -0.142736 0.00748805 -0.122023 -0.186082 -0.276607 0.0266166 0.204789 0.211343 0.0346167 0.211685 0.0169082 0.0203969 0.0929958 -0.0414356 -0.0565704 -0.0591896 -0.590827 0.20091 0.0379961 -0.247762 0.307462 0.159468 -0.0587286 0.0925475 0.0691242 -0.0518328 0.146322 -0.171116 -0.214586 -0.0370863 -0.283767 0.02621 -0.0949902 -0.0808556 -0.199406
1110998 -0.17347 0.168621 -0.114412 -0.174032 0.338796 0.19288 -0.0799913 -0.0762601 -0.0535285 0.227614 0.058939 -0.316897 0.398705 0.312448 0.0778552 -0.0340294 -0.130411 -0.349094 -0.318652 -0.252896 0.0339706 -0.367114 0.0398356 -0.329593 -0.177384 -0.0358499 0.285312 -0.264206 0.0402837 -0.279581 -0.00969964 0.184213 -0.102689 -0.266803 0.345841 -0.354071 0.169525 -0.0354321 -0.162695 0.350207 0.0667882 0.0424183 -0.226605 -0.145816 0.00307307 -0.468191 0.319158 0.142146 0.239804 0.0961874 0.268832 -0.206719 0.107568 0.0103223 -0.0360131 -0.0243945 -0.231257 -0.00435135 -0.0963714 -0.188902 0.370166 -0.363411 0.4896 0.0267581
25794 0.0662729 0.133546 0.0804118 -0.0270601 -0.246507 -0.0745211 0.257533 -0.0693334 -0.127344 0.049786 -0.000167687 0.0659797 0.00974199 0.00494543 -0.0410152 -0.0649975 -0.0611044 0.113853 0.0799411 0.114262 -0.119966 0.037468 0.080351 -0.109504 0.315041 0.129269 -0.168288 -0.265991 0.0848782 -0.242254 0.0900557 -0.255633 0.0898644 0.196892 0.0852359 -0.082978 -0.0231228 -0.0516854 -0.195402 -0.233333 0.226481 -0.420198 0.226266 -0.192067 0.0238505 -0.211194 -0.112194 0.0737359 0.225509 0.205025 0.453781 0.0699706 -0.0779739 0.0453632 0.150806 0.117466 -0.26682 0.0399788 -0.15769 -0.2112 -0.0185125 -0.126127 -0.181963 0.207977
293285 -0.0788466 0.0571622 -0.125206 -0.0329921 0.0954696 0.0696495 0.0453491 -0.0105842 -0.0762155 0.0895367 0.0470119 -0.0448923 0.199652 0.120356 0.00750602 -0.140181 0.0708195 -0.0917608 -0.146113 0.125373 0.0661955 -0.300234 0.0593679 -0.238984 0.111266 -0.0991038 -0.102026 0.0707567 0.0709877 -0.123518 -0.0583669 -0.0310876 0.196653 -0.0145344 -0.172206 0.196324 0.111636 -0.0986159 0.125879 -0.0967783 0.0304999 -0.0799787 -0.0359768 -0.103403 -0.0126441 -0.184929 0.0944693 0.0640706 0.0124236 0.149212 0.310926 0.0136888 -0.110703 0.198723 0.0725874 0.102471 -0.224995 -0.11905 -0.144369 -0.288748 -0.168565 -0.105853 0.155888 0.163517
1120786 -0.00369179 -0.108104 -0.0164745 0.0434574 -0.113227 -0.069234 0.0578002 -0.0196556 0.0700105 -0.0691018 -0.0357224 0.0415647 -0.10801 -0.12768 -0.0409782 0.00417861 -0.0757037 0.091251 0.0119991 0.0905082 0.0492324 0.042506 -0.0270774 0.16672 0.0950276 -0.00124287 -0.160655 0.0496825 -0.0409659 -0.0164275 0.012374 0.0156083 -0.0512864 0.040138 -0.0904204 0.124327 0.0203199 -0.0446977 0.068141 -0.112091 0.0395777 0.024907 0.0215586 0.0447271 0.00322321 0.0693171 -0.0782631 -0.0314275 -0.177793 0.0349953 -0.0662566 0.0382706 -0.00634111 -0.0274742 -0.0413241 0.0567781 0.0316074 -0.0741914 0.0413403 0.0156997 -0.150261 0.114913 -0.154396 -0.0495273
1107861 0.00760575 0.11769 -0.0263986 -0.0337412 0.0912357 -0.255922 -0.131103 -0.0899016 0.0110257 -0.00199561 -0.0540365 0.0939918 -0.0631504 -0.184307 -0.0488241 0.0775553 0.0383125 -0.0726751 0.313415 0.0380818 -0.104527 0.10475 0.0715515 0.00749986 0.0596018 0.0626877 -0.148263 0.200534 -0.00333672 -0.0597175 -0.0860344 -0.030077 0.0531342 0.0408546 0.0777104 0.0451186 0.0694939 0.165438 0.0444801 -0.054982 -0.0382 0.107747 0.212051 0.130952 0.0416373 0.0740229 -0.115509 0.249526 0.156215 -0.0540884 -0.0656326 0.0987374 -0.0702031 -0.0109292 -0.100843 0.0806533 0.217644 -0.063534 -0.00629691 -0.0274582 -0.283196 0.0414779 -0.139405 0.0796463
300806 0.127468 0.184053 -0.0524107 -0.367971 0.180139 0.171675 0.0378984 -0.0485192 -0.0645348 0.0758728 -0.169701 -0.099597 0.0141337 -0.3094 -0.0627449 0.100027 -0.130894 0.199939 -0.0811551 -0.230573 0.142275 -0.167813 0.117762 0.114631 -0.0547272 0.0471484 0.154206 -0.11703 -0.0253282 -0.0301109 0.0181551 0.135068 -0.0887235 0.0636628 0.252339 0.037165 0.01994 -0.13061 0.0966559 -0.052314 0.095665 0.0815798 -0.106139 -0.0416141 0.0173794 -0.434162 -0.0660762 0.17147 -0.244769 -0.137886 -0.193375 0.292334 0.123948 -0.0882563 0.0179994 0.0228384 0.109353 -0.0911686 0.08293 -0.0039156 0.0497748 0.172308 -0.206312 0.0321277
103528 0.0136606 0.0578081 -0.0646624 -0.0241486 -0.073729 -0.0789742 0.0509163 0.0393641 -0.112872 -0.0130454 -0.0104084 0.0054532 -0.0463254 0.040932 0.00153168 -0.156146 -0.0117418 0.086309 0.0477378 -0.0591645 0.0128514 -0.0832578 0.00672656 0.0142662 -0.0438771 -0.0157235 -0.0307021 0.042186 -0.0671803 0.0743084 0.0632491 0.0592353 -0.0953293 -0.0139155 0.0262531 -0.0922293 -0.0991963 -0.0483378 -0.117492 0.0458049 0.0480168 0.0217881 -0.0222515 0.0570774 0.0934853 0.0726892 -0.0587017 0.00671567 0.122062 -0.0708889 0.000798793 -0.0492955 -0.0622481 0.0508462 0.0852895 -0.103321 0.00475926 0.0061897 -0.0321844 0.0185189 -0.0240567 0.152346 0.0544065 -0.0179672
35854 0.107381 -0.0296169 -0.103871 -0.0586366 -0.192755 -0.144893 0.135216 -0.162133 -0.100359 0.0193083 -0.03363 -0.0669767 0.130115 -0.33305 0.0495591 -0.0726619 0.0664966 0.119812 0.155745 0.191575 0.231243 0.28445 -0.109464 -0.0165156 0.0761256 -0.151936 0.267959 0.0956867 -0.0147944 0.105115 0.0819605 0.100292 0.0960448 0.172972 -0.109412 -0.279915 -0.130144 -0.244735 -0.14459 0.0197798 0.202583 -0.0404576 -0.111073 -0.0622211 0.0410652 -0.0894664 -0.0943272 0.318274 -0.0833214 0.252329 -0.0554566 0.14304 0.273909 -0.16568 0.165762 -0.111152 0.0196477 0.230708 -0.0917444 0.202924 -0.0652424 0.0735191 -0.186087 0.200511
22241 -0.0760331 0.0404582 -0.12908 0.160919 -0.0131496 0.0931912 -0.308841 0.135209 -0.0623796 0.202706 0.270014 -0.0839637 -0.0989911 -0.0928609 0.0451007 0.220169 0.103048 -0.108787 0.203202 0.119022 0.217869 0.281179 0.0132941 0.30142 -0.0537273 -0.121854 -0.158372 0.117738 0.139191 -0.0398262 0.112697 -0.27487 0.00136363 0.0206571 -0.108774 0.0878541 -0.0494629 -0.0223256 -0.222665 0.0750042 -0.173503 0.0197721 -0.0805268 0.0369551 -0.38981 -0.265442 -0.0480539 -0.181346 0.0858874 0.173891 0.018325 0.172276 0.0822488 0.0970047 -0.396418 -0.0908987 -0.042002 0.0448412 -0.198015 0.187779 0.0127897 -0.0762436 -0.126908 0.0451572
1124844 0.396813 0.035688 0.11723 -0.191875 -0.0517932 0.0394417 0.212348 0.0819103 -0.156195 0.136245 -0.0489646 -0.0540321 0.256487 -0.302149 0.0282754 0.145299 0.140835 -0.0493093 -0.154027 -0.235061 0.0232612 -0.200661 -0.113292 0.040272 0.0984898 -0.13367 0.247199 0.00583724 0.0851111 -0.163613 -0.0227796 0.0138796 0.0276254 -0.0276384 0.0695472 0.102329 0.0381887 0.0466138 0.105329 0.071002 -0.248227 -0.0471785 -0.0576349 -0.0735583 -5.40591e-05 -0.285232 0.112225 0.0977467 -0.103888 0.0355913 -0.0331851 -0.0822529 0.219515 -0.174183 0.0166463 0.106387 -0.0266979 -0.130423 0.0219391 -0.0827346 -0.0998123 0.0468894 -0.0275303 -0.130759
1131192 0.039797 -0.0122737 0.0326873 -0.100455 0.0647946 0.0699741 0.133547 0.290008 -0.0526661 0.0398167 -0.0236014 -0.0269477 -0.106043 0.0879597 0.139165 -0.0855646 -0.0558126 0.176541 -0.0292611 -0.110301 0.300842 -0.157887 0.121044 -0.148501 -0.15363 -0.0557544 -0.151659 -0.0954742 -0.062543 -0.129648 0.0757105 0.0477884 0.0630291 -0.114579 0.0578749 0.0461526 -0.0102957 -0.0462264 0.109268 0.036189 0.124744 -0.245805 0.143231 -0.155282 -0.0534703 -0.180192 -0.154489 0.0682906 -0.128328 -0.109994 0.100446 -0.0971274 -0.00753341 0.115816 -0.146158 -0.0626879 0.0918029 0.00755365 -0.180668 0.0157538 0.0664392 -0.208643 0.0449967 0.00291223
1103016 0.0113128 -0.0215207 -0.000600999 -0.0580164 0.0174541 0.0557805 0.0852292 0.146088 -0.00671092 0.0347204 -0.0175946 -0.00800052 -0.0639498 0.0362299 0.0608343 -0.0464378 -0.0312988 0.101652 -0.0330646 -0.0730731 0.168925 -0.0908055 0.0470962 -0.0686616 -0.0887951 -0.0179123 -0.0883461 -0.0580541 -0.0313525 -0.0759319 0.0321275 0.0100438 0.0527235 -0.0604247 0.0357376 0.0494604 -0.0255406 -0.0188955 0.0496918 0.0175106 0.0600791 -0.106526 0.0754206 -0.0920229 -0.0181987 -0.0737866 -0.0663757 0.0297718 -0.082258 -0.0465686 0.0357316 -0.087727 -0.0173934 0.0803207 -0.0810466 -0.0390582 0.066244 0.00366881 -0.117954 0.0131363 0.026767 -0.0947717 0.0349787 -0.00428071
1131828 -0.0084671 0.00346773 0.0116273 -0.0170672 0.0107068 0.0437072 0.000899359 -0.00416695 0.0228404 0.00934535 0.00930962 -0.0165884 0.00717235 0.017651 -0.00413535 -0.0152053 -0.0235811 0.0123322 -0.0257495 0.000489603 -0.0132825 -0.00464509 0.00408359 0.00983698 0.012486 -0.0111922 0.0233335 -0.0291688 -0.00520152 -0.0192776 -0.0351698 0.00359065 -0.0126264 -0.00804883 -0.0174364 -0.00273614 0.00923995 0.00532132 0.0319075 -0.029935 -0.00780881 -0.00252573 -0.00935803 -0.0268678 0.0238974 -0.0265307 -0.00282898 -0.000873679 -0.0244767 -0.00100096 0.013294 0.00196665 0.00379422 -0.0204403 -0.00724492 0.00985202 0.0180128 -0.0099693 -0.0173839 -0.0132697 0.00960127 -0.0409323 0.0197113 -0.0114507
1152272 -0.0446572 0.312208 0.0445977 0.0342319 -0.433443 -0.432656 0.327489 0.155392 -0.230583 0.183751 0.424261 -0.0727132 -0.0303481 0.211789 -0.0204775 -0.0616836 0.111643 -0.141127 0.12767 0.333829 -0.143481 0.414836 0.0153063 -0.114862 -0.54037 -0.329665 0.0174877 0.122791 0.0625227 0.115741 -0.513324 0.118665 -0.0219918 -0.174766 -0.177878 0.0369502 -0.166502 -0.159233 0.028497 -0.0838723 -0.20189 0.143213 -0.190655 -0.314835 -0.00237148 0.875573 0.136096 -0.029327 0.0113473 -0.232042 0.0985437 -0.00538818 -0.00101074 -0.0458531 0.0938443 -0.134856 -0.366522 0.0819356 -0.136387 0.10748 -0.126333 0.231332 0.093259 -0.179244
409255 -0.032059 -0.0265896 -0.007813 0.0406855 -0.0930673 0.0501482 -0.0160333 0.127299 0.0767526 0.0681549 -0.0483587 0.0249995 0.0442524 -0.031041 -0.0445873 0.0496713 0.073846 0.113043 0.0723196 -0.00184479 -0.0948858 -0.00255005 0.0144463 0.0524783 -0.0338137 -0.0396359 0.048846 -0.130307 0.0535285 -0.00732358 0.0466975 -0.110049 0.0715081 0.0545579 0.0344691 0.117288 0.00242823 0.0722467 0.0500151 0.145468 -0.00133686 -0.0554043 -0.0220918 -0.0064632 0.0427208 0.0159543 0.0504972 -0.0688675 0.138448 -0.140677 -0.0444429 0.0326669 0.0167675 0.0605792 -0.164822 -0.054425 0.0676498 -0.00132194 -0.0622404 -0.00888282 0.0206765 -0.0334516 0.0871599 -0.0342986
1119742 -0.026666 0.00606797 -0.0216989 -0.0303377 0.0255211 0.0370254 -0.00465746 0.0152226 0.0144656 -0.0122473 -0.0111744 -0.0189043 0.0290598 0.0319892 0.00111216 -0.0385562 -0.00640264 -0.00430823 -0.0257085 0.0305017 0.00980279 -0.0657228 -0.00295898 0.0121827 0.00313285 -0.00966651 0.0175223 -0.0029282 0.0127366 -0.0111977 -0.0313351 0.025746 -0.0276528 -0.0372375 -0.0294741 0.0166107 0.00784375 -0.0312544 0.0558285 0.00543207 0.0204527 0.0120669 -0.0265733 -0.043848 0.025771 -0.0413538 0.0322924 -0.0122244 -0.0313271 0.0211117 0.0189751 -0.00336286 -0.00904841 0.0298688 0.0131514 0.0269846 -0.0486558 -0.0164018 -0.00771514 -0.0693383 -0.0135213 -0.0490545 0.00520865 0.00932761
49660 0.0153711 0.368963 0.045739 0.158113 0.275101 0.583159 0.00292288 0.408698 0.112724 0.0873442 0.0673983 -0.06644 -0.178539 0.0582335 -0.0216623 -0.275626 -0.0353711 0.130586 -0.0715232 -0.2602 0.0440635 -0.0616196 0.181852 0.149553 0.0104371 -0.338047 0.467562 0.153462 0.261439 0.122404 -0.162985 0.295036 -0.536619 -0.10031 -0.251156 0.0427704 0.115494 -0.13763 0.565998 0.0817275 -0.0843841 0.299767 -0.203778 -0.420364 0.317849 -0.176417 -0.11177 -0.472759 -0.028363 -0.0325765 0.037634 0.0517302 -0.111592 -0.0314499 0.0919021 0.0359795 -0.244076 0.0174351 -0.354754 -0.0518184 0.0782355 -0.333476 -0.174344 -0.036371
28227 0.179283 -0.0319104 0.111976 0.0869193 -0.0227333 -0.372192 0.100343 -0.308496 0.00159018 0.172019 0.0918316 0.178368 -0.182327 -0.390334 0.00483447 0.251515 -0.048319 0.18295 0.260352 0.00352059 0.107071 0.150854 -0.000921553 -0.175993 -0.0154582 0.115948 -0.12824 0.264111 0.208335 -0.295913 0.326051 -0.379729 -0.0548053 0.217277 0.321578 -0.0978526 0.298408 0.432533 -0.358648 -0.0872056 -0.175969 0.0241551 0.133196 0.476143 -0.352254 -0.0756821 0.105929 0.166805 0.236785 0.210846 -0.0190939 -0.110094 0.220369 -0.142223 -0.14921 0.0487506 -0.0989803 0.146918 0.185178 0.267521 0.0287327 0.138893 -0.389031 -0.0676197
6130 0.0552665 -0.0792441 -0.00801359 0.0969555 -0.111016 -0.125812 -0.0312756 -0.26148 -0.0405731 -0.0479032 0.0593565 0.209931 -0.0828473 -0.225392 -0.0949129 0.0998766 0.0432812 0.0946699 0.0695035 0.0192613 0.0124331 0.167679 -0.00629363 -0.076783 0.0674378 0.0947729 -0.126884 0.20046 0.0571026 -0.127004 0.24543 -0.249399 0.0324527 0.202516 -0.0577962 -0.00935014 0.0461452 0.0791176 -0.142744 -0.0621382 -0.0529939 0.0241764 0.0776236 0.226854 -0.19558 0.00876306 -0.127155 -0.00284398 0.0973889 0.0906631 -0.0443725 0.0397088 0.00758726 -0.0395998 -0.0548458 -0.0154004 -0.00740039 -0.00483406 0.0620454 0.103831 0.043686 0.19864 -0.188344 -0.0791587
1153024 0.144969 0.173397 -0.0823388 0.0477405 0.0892391 0.0925155 0.193105 -0.141225 0.119769 0.0347419 0.00885155 0.0590809 0.189671 -0.0587326 -0.044302 -0.053496 -0.107832 0.0317521 -0.0522975 0.163901 0.118257 -0.201805 -0.0337845 0.0279986 0.0461522 0.0631834 0.0367377 0.065139 -0.0891872 -0.0515718 0.0477935 -0.074022 -0.0329467 -0.0763784 0.174974 -0.0397085 -0.243066 0.0726456 -0.0104989 0.0123488 0.17248 -0.241228 0.161956 0.0163134 0.0874735 -0.0376967 0.0517348 0.0176273 0.0358567 0.0229707 -0.0430811 0.0846515 0.0873705 -0.0831642 -0.127906 0.0455867 -0.0267487 0.20168 0.0131168 0.0385944 -0.0323642 -0.0497308 0.0824068 -0.0817958
504 0.20828 0.228076 -0.0486687 0.0496245 0.0829654 0.063871 0.3007 -0.220708 0.132832 0.0489005 0.00721992 0.0734035 0.211134 -0.100947 -0.00310604 -0.0914014 -0.131618 -0.0317367 -0.0962458 0.197138 0.139747 -0.186349 -0.0584867 0.0541631 0.020973 0.0418354 0.0212109 -0.0220273 -0.0546069 -0.0283081 0.0534673 -0.137017 0.000273721 -0.0667493 0.191651 0.0218717 -0.256341 -0.00651662 -0.0916648 -0.0324295 0.198664 -0.222381 0.162196 0.0275117 0.123979 -0.021983 0.0936955 0.00862438 0.0511218 0.0695919 -0.0805977 0.105023 0.146043 -0.180579 -0.128502 0.0562219 0.00811381 0.206425 0.0814703 0.0433586 -0.00943881 -0.0156125 0.102873 -0.161408
34708 0.0236075 -0.137773 -0.0101552 -0.128313 0.238034 0.0379244 0.0515242 -0.0710656 0.0954558 0.0397984 -0.135721 -0.0083544 0.170486 -0.30242 0.043044 -0.0692152 -0.0511493 -0.0422938 -0.0851476 0.0439949 0.0613106 -0.175456 -0.00674336 0.0446166 0.274671 0.0861283 -0.0200855 -0.0323175 0.00457756 -0.236438 0.237223 -0.109113 0.0778823 0.169735 0.197908 -0.0035014 0.0965845 -0.0659145 0.0613298 -0.0007548 0.118611 -0.128134 -0.00455737 0.0835564 -0.0415838 -0.240918 -0.117022 0.00868425 -0.0487809 -0.0629396 -0.11594 0.0330737 -0.119735 0.191522 -0.232181 0.0720153 0.081213 -0.00490652 -0.0944161 0.0332457 0.0446567 -0.113782 -0.0957748 -0.0430966
1127530 -0.084815 0.06545 -0.326915 0.0239495 0.0298704 -0.327229 -0.103201 -0.170409 0.0472607 0.0414072 -0.00986909 0.0449445 0.150654 0.124964 -0.0466505 0.0877967 0.0370363 -0.0464472 0.214408 -0.207655 -0.299512 -0.104627 0.137367 -0.102784 0.114372 0.0587395 0.00873669 0.366379 -0.0763374 -0.0884005 -0.0751959 -0.101535 0.148028 0.0345242 0.0645142 -0.21022 -0.0297251 0.0742954 0.060476 0.043674 -0.0736291 -0.0232832 0.0522154 -0.0578671 -0.136807 0.174191 0.0753221 0.0650703 0.273005 -0.205984 0.0693608 0.02192 -0.274771 0.204421 -0.152356 -0.0235496 -0.231364 0.0716219 -0.170331 0.137889 -0.345921 0.0588355 0.260316 0.184842
287787 -0.0689399 0.447251 0.00543071 -0.525973 0.313642 0.0986894 0.0447561 -0.291644 0.0770575 0.236695 -0.505526 0.358148 -0.283062 0.102828 0.095696 0.0547532 -0.332572 0.0543676 0.0612782 0.189733 0.0451754 -0.627478 -0.0166049 -0.337906 -0.210799 -0.0254117 0.0115642 0.0950808 0.871536 -0.409445 0.13913 -0.094312 -0.316578 -0.690688 0.0305993 0.310032 0.405776 0.118088 0.450835 -0.00374464 0.0334646 0.224758 -0.179761 -0.106089 -0.0524738 -1.28237 0.504381 0.339384 -0.45813 0.632246 0.401335 -0.12021 0.0780005 -0.0469033 0.0105501 0.293919 -0.36441 -0.381652 -0.0130068 -0.548528 0.137892 -0.0637202 -0.305245 -0.274511
1110390 -0.0306556 0.0216479 0.0234383 -0.0996795 0.0320135 -0.0699749 -0.0207869 -0.0450557 -0.0320261 -0.0836364 0.117937 0.0783323 -0.114238 -0.118192 -0.0247167 0.0809573 0.0024134 -0.0399571 0.0954488 -0.0223118 -0.0184104 0.0585001 0.042062 -0.036241 -0.0173173 -0.0389504 -0.0835336 -0.0329795 0.154873 -0.0884242 0.0129284 -0.109681 0.0236845 -0.0398357 0.00803401 0.135346 0.211995 0.0312373 -0.0290243 -0.0116149 -0.0613659 -0.00695457 0.0946213 0.0605813 -0.0423351 -0.11853 -0.0596296 0.163176 0.0771581 0.0741769 0.0522053 0.00159215 0.0279532 0.0624798 -0.0232283 0.0566568 0.0214045 -0.0258302 0.116389 -0.0367543 0.101703 -0.0827412 -0.137114 0.0209648
28649 0.0578806 0.19562 -0.143135 -0.157504 -0.205832 -0.0945102 0.384926 0.166346 0.0951427 -0.147273 0.105781 -0.103458 -0.0515073 -0.0383831 0.0906225 -0.0189318 0.0553036 0.0965622 0.240327 -0.126427 0.149786 0.185149 0.0514324 0.153108 0.310949 -0.0993236 -0.0091954 0.0134693 -0.13491 -0.039255 0.0560288 -0.0223734 0.0596775 -0.0849828 -0.0274848 -0.111001 -0.0560526 -0.297223 -0.131042 -0.0949618 0.265249 -0.106547 0.125618 -0.180926 -0.0243555 -0.0161725 -0.125997 0.174822 0.306776 0.177697 0.270193 0.32393 0.338294 -0.164446 0.0772035 -0.0499646 -0.125997 0.0596492 -0.0832729 0.00410913 0.131988 0.0959785 -0.183369 0.195935
684986 -0.103427 -0.249212 -0.017917 0.0256075 -0.288661 -0.0901758 0.210093 0.0724938 0.116113 -0.195211 -0.174754 0.0913112 -0.263548 -0.285369 -0.112349 -0.0143676 -0.134659 0.276274 -0.0208604 0.155262 0.103443 0.0497065 -0.120828 0.318774 0.154083 -0.0225441 -0.266179 0.0806901 -0.108917 0.00399508 0.039781 -0.0501588 -0.119602 0.0296415 -0.062874 0.206277 0.0180076 -0.0831463 0.0803315 -0.202924 0.0841171 0.0564261 0.0567133 0.134945 -0.0424661 0.085951 -0.151136 -0.0612836 -0.376334 0.0197041 -0.104019 0.0149442 0.0252372 -0.0536909 -0.0443858 0.101341 0.0899461 -0.12328 0.149707 0.0341527 -0.293545 0.264645 -0.27227 -0.119213
1154276 -0.00984536 -0.153977 -0.0319763 -0.0107455 -0.0297579 0.156092 0.111122 0.121531 -0.0108091 0.120412 -0.122689 0.067627 -0.108534 -0.0123994 0.0568191 -0.180125 -0.0480819 -0.0796448 -0.188063 0.03288 -0.0555183 -0.00310266 -0.142832 0.0115511 0.165022 -0.0594677 0.0637547 0.0158984 -0.132677 -0.00274511 -0.049165 0.14484 0.013654 -0.0452039 -0.103649 0.00400295 0.0370776 -0.143407 0.164577 -0.0772643 0.10723 -0.0151595 0.042057 -0.0173895 0.0534934 0.0104659 0.112889 -0.173521 -0.21472 -0.0224911 0.0779889 -0.0723554 -0.051417 -0.0353719 -0.00370457 0.104249 -0.177607 -0.191807 0.00865841 -0.0918138 -0.104585 0.0534586 -0.123512 -0.161227
1953 0.0491617 0.0496819 0.0423121 0.117842 -0.0252497 0.131219 0.0465284 0.0990371 -0.0645374 0.0928071 0.0189634 0.0316992 0.210132 -0.133299 0.108659 -0.21362 0.0974984 0.0381073 -0.0974885 0.0246505 0.0065481 -0.0221181 0.0455452 -0.0756253 0.0176497 -0.0475816 0.00247991 0.092573 -0.0904188 0.150431 0.000917502 -0.126658 -0.118647 -0.0480312 0.056916 0.041175 -0.0307964 -0.0348194 -0.0314711 -0.0397931 0.0594012 -0.0418101 -0.0410995 0.0912183 0.0308401 0.0943289 -0.025143 -0.263698 -0.0378402 0.125967 -0.214061 0.0205568 0.178441 -0.119719 -0.297807 -0.0824014 -0.0506819 -0.00191239 0.0239113 0.196412 -0.0988075 0.0178661 0.000574774 -0.0588209
300071 -0.0774138 -0.0926325 -0.11492 0.0337067 0.00801168 0.023066 0.0329356 -0.0353029 0.107279 -0.142503 -0.052409 0.0114607 -0.0735987 -0.185625 -0.0714418 0.076416 -0.0977536 0.147853 -0.0829616 -0.0581243 0.0743365 -0.0572543 -0.0978929 0.195495 0.238167 0.129853 -0.160569 0.0708178 -0.172257 -0.0697916 0.13291 0.0164775 -0.0587915 0.0869547 -0.0504933 0.0565132 0.0681454 -0.0992897 0.136021 -0.102431 0.0724233 0.00533166 0.0909479 -0.0144774 0.00885279 -0.172868 -0.15705 -0.011822 -0.250621 0.044166 -0.102042 0.0903401 0.0257197 -0.0513236 -0.0358269 0.0414032 0.139431 -0.0370314 0.13122 0.00562301 -0.054744 0.116734 -0.221517 -0.139381
714256 0.0960498 -0.10404 0.486074 -0.0404911 -0.0187813 0.384012 0.186092 0.239732 -0.155327 -0.0667911 0.0105932 -0.0483078 -0.173674 -0.279694 0.120774 -0.212969 -0.00737312 0.0983833 -0.254569 0.333489 0.392136 0.240164 -0.181101 0.220862 -0.0708312 -0.126569 -0.00384723 -0.509981 0.0138419 0.236616 0.0935337 0.0666049 -0.142873 0.000953026 -0.0768448 0.355796 0.0664424 -0.158619 -0.140181 -0.025902 0.14602 -0.00485907 -0.0870082 -0.0380674 0.212124 -0.232037 -0.151598 -0.136647 -0.430414 0.216444 -0.0815111 -0.0228823 0.455033 -0.336285 0.1779 0.117112 0.218614 -0.0992754 0.234909 -0.187908 0.434752 -0.0336098 -0.450606 -0.228797
131315 0.0830658 0.079585 -0.120437 -0.146941 0.268794 0.117303 0.00741673 -0.00986481 0.0653086 0.0262911 -0.0449268 0.00127127 0.0785879 -0.0563211 0.0123286 0.0062241 0.000841565 0.123586 -0.145449 -0.149418 0.0912134 -0.378124 -0.0498056 -0.0136296 0.0906593 0.122836 0.0489643 -0.054392 0.101937 -0.130392 0.0988548 0.0489847 -0.0969657 -0.10983 0.0316427 0.0660702 0.0541158 0.0299883 0.10747 0.0517827 0.0333751 0.0874332 0.0664832 -0.0698285 0.00916402 -0.544315 -0.00460841 -0.0167899 -0.284302 0.167011 -0.000562447 0.0791095 0.103528 -0.00475793 -0.0183145 0.051442 0.0502198 -0.0169935 0.0621166 -0.101509 0.0911282 -0.0486789 -0.110896 -0.136614
167205 -0.0428641 -0.0280307 -0.101566 0.0289472 -0.0206476 -0.00710247 0.0657617 -0.0316599 0.0256057 -0.0222317 0.0464225 -0.0144465 -0.0224242 0.0527391 0.0599314 0.0450685 0.0715569 -0.0344251 -0.0225955 0.024783 -0.0143411 -0.0439963 0.0511427 -0.0287835 0.0518216 0.0301298 -0.0440337 -0.0253967 -0.0531145 0.0193534 0.0395154 0.0313977 0.0183936 0.0433625 -0.0430979 -0.0144133 -0.0124764 -0.0188 -0.00886311 0.0125485 0.0580408 0.0385842 -0.0997543 0.0130876 -0.0480647 -0.0388662 -0.0514369 -0.0558361 -0.0543963 -0.0835984 -0.0370067 0.0615752 -0.0212464 0.0308299 -0.014011 -0.0921529 -0.0276631 0.0477936 -0.0353962 0.013847 -0.0369785 -0.0206147 0.0175991 -0.0449248
141342 0.0531943 0.0994371 0.0437948 -0.305398 0.222001 0.126431 0.219783 -0.237301 0.0665845 -0.0240581 -0.289549 0.257067 0.0545248 0.153191 0.155248 -0.232622 -0.159683 0.0865503 -0.0951679 0.053809 0.041966 -0.566381 0.00267674 -0.481182 -0.0560673 -0.0346399 0.122464 -0.0473647 0.374807 -0.280868 -0.0578811 0.0942892 -0.24437 -0.373105 0.0723574 0.0283643 0.226137 0.0471694 0.477634 -0.0287716 0.243592 0.167527 0.0692282 -0.0422792 0.0561059 -0.575803 0.385302 0.0827851 -0.44477 0.313959 0.19932 -0.244029 0.0342773 -0.0919259 0.103825 0.41086 -0.402696 -0.327975 -0.0147453 -0.477798 0.107081 -0.112812 -0.0339002 -0.340839
1128208 -0.0162487 -0.128949 0.0462891 0.0999815 -0.0190504 -0.04934 -0.034333 -0.0583972 -0.0212849 -0.0142569 0.0635541 -0.0124468 -0.0383728 -0.0239648 -0.0297835 -0.00159303 0.0410307 0.0152443 -0.0401968 -0.0738003 -0.0660902 0.112661 -0.0310679 0.0172053 0.0111698 -0.130614 0.0137404 -0.063206 -0.131539 0.0555071 -0.0146003 -0.0120138 0.00298808 0.11171 -0.00460903 -0.0395439 -0.0479195 -0.0928192 -0.0822423 -0.0209188 0.0106976 -0.0879666 0.015963 0.0327553 -0.00346748 0.197051 -0.107993 0.0132501 0.0768703 -0.068924 -0.0918657 0.0385088 -0.00391008 -0.0127087 -0.0568203 -0.147342 0.0382267 0.128641 0.126284 0.117025 0.0393252 -0.0533209 -0.00847434 0.121486
35335 0.0516257 -0.0736796 -0.0240899 -0.0867235 0.150422 0.180546 -0.0339272 -0.0297646 0.0382003 -0.0530105 -0.101574 0.0454316 0.0409611 -0.0891686 0.0107327 0.0446743 0.0213005 0.0384236 -0.114919 -0.194678 0.0568826 -0.198161 0.0184462 0.0742819 0.139268 0.0815941 0.0231986 -0.0116243 -0.0165785 -0.0175387 0.137715 -0.0417613 0.0298677 0.072025 0.0462832 -0.0282553 0.0596342 0.0338843 -0.0284045 0.0265143 0.0288665 -0.0632823 0.00453735 0.0561259 -0.00820358 -0.324884 -0.0142555 0.00845021 -0.0480584 0.0934416 -0.071045 -0.019541 -0.00251719 -0.0375336 0.000572823 0.0895834 0.0815977 -0.0371946 0.0233113 -0.0457075 0.0334327 -0.0592909 -0.0612889 0.0217458
1107418 -0.0787686 0.0754916 -0.11455 0.117462 -0.0593784 0.0118036 -0.313298 0.0970061 -0.0540169 0.139228 0.208201 -0.0987125 -0.0792662 -0.0906044 -0.0408441 0.199962 0.0516158 -0.102474 0.223428 0.0510551 0.118051 0.304997 0.0220549 0.423353 -0.057175 0.00953587 -0.0910847 0.0449811 0.0776469 0.00168 0.085064 -0.130303 0.0142718 0.0470729 -0.0856417 0.0142267 -0.0944767 -0.0340002 -0.234251 0.10158 -0.182526 0.036283 -0.118454 0.0403899 -0.321055 -0.207191 -0.163238 -0.145846 0.125273 0.0975245 -0.0490378 0.281007 0.0332573 0.0999199 -0.263717 -0.113422 0.00731403 0.106699 -0.14111 0.208251 -0.000693374 -0.0577514 -0.0615734 0.0260971
1131172 -0.0139129 0.0254243 -0.0905212 0.107538 0.0936448 0.0261462 0.116438 -0.094432 0.127425 0.00700202 0.0276655 0.053568 0.0764894 -0.139798 -0.046119 0.0312396 -0.0861276 0.0844807 -0.127199 -0.115771 -0.0876311 0.000829188 -0.0115852 -0.0949002 0.0570921 0.10878 0.171614 0.0102632 -0.0504853 -0.108742 -0.0189263 -0.0175584 0.11413 -0.00491928 0.0255762 -0.0147785 -0.0115142 0.0133762 -0.0207207 -0.0788517 -0.0305981 -0.0487921 -0.0587514 -0.0385372 0.0251227 0.0839704 0.129322 0.075001 0.0209891 0.00533544 -0.0268125 -0.0150988 0.0989405 0.0224141 0.115377 -0.0177567 -0.130063 -0.106373 -0.0290318 -0.0472806 0.0430761 0.0372054 -0.0335449 -0.0545948
18615 -0.299522 0.164388 0.0616148 -0.249166 -0.628748 0.346929 0.348995 0.361792 -0.198122 -0.251366 -0.0420752 -0.0764888 0.114659 0.207907 -0.0669036 -0.180548 -0.0653 0.0623839 -0.0778449 0.181817 -0.121616 -0.293622 0.14767 0.381685 0.530189 0.0486062 -0.0830081 -0.407635 -0.569641 0.0461026 -0.0704595 0.373385 -0.0823544 -0.0964025 0.0956298 -0.189094 -0.281897 -0.597764 0.274384 -0.103063 0.555552 -0.11539 0.202445 -0.628972 0.219469 -0.246708 -0.191765 -0.0696643 0.109564 0.0881273 0.318969 0.51284 -0.276407 0.0359496 -0.00735457 -0.139072 -0.374081 0.0149599 -0.107684 -0.316833 -0.0330571 -0.128914 0.127078 0.111634
11325 0.0405092 0.0283503 -0.113081 -0.0551594 -0.18316 0.0652646 0.098968 0.0445925 -0.146438 0.0382079 0.146306 0.0536924 -0.0983622 0.0368123 0.037039 0.124404 0.161038 0.19314 -0.139447 -0.219057 0.0216447 0.162489 0.0561443 -0.0442886 0.0839259 0.131739 0.16607 0.110466 0.169474 0.0274473 0.0403066 -0.223116 -0.0363695 0.132863 -0.0502238 0.0589438 0.0246746 -0.0820455 -0.29406 0.0478033 -0.166251 -0.0733433 -0.127122 -0.032579 0.0165083 -0.159485 -0.109021 -0.0417686 0.0720054 0.188793 0.122526 -0.0645646 0.113839 -0.120969 0.129052 -0.00400345 -0.113549 0.215878 -0.0994105 0.120446 0.340749 0.181273 0.053871 0.0829279
1106418 0.158985 0.345895 -0.279706 -0.138282 -0.191144 -0.0636374 0.374819 0.264958 0.134727 -0.361692 -0.0572425 -0.117053 -0.0531738 0.0825134 0.137839 0.0733337 0.0204499 0.11224 0.249701 -0.12875 0.224975 0.0612209 0.0879448 0.131164 0.363945 -0.00880552 -0.103854 0.00596651 -0.2357 0.0176478 0.166099 -0.112804 -0.0132521 -0.0571728 -0.00794961 0.0451616 0.0440471 -0.341275 -0.0896586 -0.0216593 0.374816 0.00760612 0.183622 -0.16531 -0.0325187 -0.0828551 -0.144039 0.144703 0.300122 0.166811 0.311127 0.354196 0.309361 -0.227336 -0.056123 -0.121045 -0.147754 -0.0658403 0.0894237 -0.0358261 0.227745 0.218009 -0.157429 0.128963
763181 -0.156049 -0.158829 -0.151117 -0.0214444 -0.0306462 -0.0106691 0.0328223 -0.0827061 0.0904277 0.0292712 -0.0183185 -0.158025 0.139158 0.0186144 -0.0961275 -0.19136 -0.0867735 0.00319011 -0.206659 -0.13508 -0.00307968 -0.206304 0.0392262 -0.0123653 0.124121 -0.0249987 0.0353656 -0.0824136 -0.143502 -0.287099 0.0557033 0.0745317 -0.062615 0.00350805 0.0848446 0.0198632 0.0404522 -0.0106645 -0.0229427 0.111282 0.178299 0.0896144 -0.0315163 -0.0290073 -0.0789307 -0.197649 0.0226163 -0.0688157 -0.0925577 0.0892306 0.000685647 -0.048428 -0.0121929 0.060795 -0.0754332 0.203316 -0.0162254 -0.0690438 0.00371021 -0.129335 0.0285656 -0.0229287 0.18385 -0.0750252
1106401 0.00700153 0.0521223 0.0653651 0.09325 0.178076 0.000501778 -0.0467297 -0.0980171 0.0386008 0.258611 -0.0501325 -0.00537154 0.0587541 -0.00378693 -0.0130093 -0.0557018 -0.100547 -0.100806 -0.00766177 -0.0217412 -0.183016 -0.0593237 -0.0128011 -0.0437574 -0.183818 -0.125517 0.00719717 -0.0558911 0.118567 0.0186609 -0.170032 0.0923797 -0.0180089 -0.0862714 0.078532 0.0508104 0.0164266 0.166533 0.133008 -0.0765311 -0.147289 0.0165418 -0.0456229 0.0396291 0.0333652 0.00259491 0.154935 -0.0742211 -0.10757 -0.0757188 -0.131907 -0.147229 -0.082255 0.178102 0.0566177 0.0955642 -0.055661 -0.249868 -0.0114236 -0.0248257 0.016469 -0.063266 0.103259 -0.111143
307336 -0.0590276 -0.143852 -0.00786329 0.0301728 0.165467 0.018357 -0.0221237 -0.0444263 -0.000181416 -0.0785671 -0.0506902 -0.0605244 0.0957808 0.0326796 -0.026243 -0.150987 0.0497883 -0.16396 -0.175244 0.0218222 -0.0415234 -0.111591 -0.0354087 -0.162673 -0.0123302 -0.0160869 -0.205315 -0.0382156 -0.00741468 -0.146777 -0.0519774 -0.0749976 0.0533312 -0.0899904 -0.0422718 0.0472055 0.104364 -0.0249582 0.00735982 -0.0218165 0.00637285 -0.177616 -0.0828338 -0.0918324 -0.115214 0.0415368 0.0639251 0.00262348 -0.0634091 0.183063 0.153696 -0.184949 -0.0590316 0.0690741 0.0398695 -0.00735193 -0.166938 0.0161968 -0.00668831 -0.186301 0.0479326 -0.0814111 0.0783418 -0.0411959
17477 -0.0792088 -0.177531 -0.102672 -0.0149339 0.00700021 0.00878915 -0.016957 -0.0100118 0.0413492 0.0537799 0.018136 0.0432856 -0.0193348 0.0347906 0.0613311 0.0458791 -0.00780783 -0.105676 -0.112875 -0.0575331 -0.0826743 -0.173693 -0.0687284 -0.0936113 -0.0450185 -0.208755 -0.068423 -0.0221578 0.0173786 -0.0931769 0.0728858 -0.132357 0.10549 -0.0121548 0.0390431 0.149564 0.0351014 0.0461284 0.0303458 -0.108262 0.0494107 0.0157439 -0.00268108 -0.0660744 -0.0189934 0.069656 -0.0478675 0.0875941 0.0454069 -0.00435301 0.0504072 -0.0244183 0.118414 0.0177123 -0.13097 -0.133704 -0.0536653 -0.00211819 0.126329 -0.0990381 0.0392137 0.0465625 -0.112039 0.157226
330208 0.0681334 0.00423259 0.108629 0.0292543 -0.00393178 0.0196991 0.0272023 -0.125802 0.170244 0.0862013 -0.0644482 0.0378252 0.00857128 -0.125915 -0.0392878 0.118874 -0.0296486 -0.0307404 0.0070701 0.0859722 0.00708468 0.00795678 0.065749 0.0852133 0.0145316 0.0330811 -0.0922185 -0.0961824 0.00052092 0.09498 -0.0751628 0.0555963 -0.120457 0.0672971 -0.0213938 0.0712598 0.0670557 -0.0418189 0.0685587 0.05644 -0.093102 -0.0826233 -0.111121 0.107874 0.0221414 -0.0155832 0.0364217 0.0921155 -0.0805255 0.0204928 -0.00912806 0.039363 0.0757515 0.0425695 -0.0822398 -0.018149 0.0264972 -0.0374747 -0.0448495 0.0321295 -0.109041 -0.0729113 0.0732681 0.00922719
155158 0.0212659 0.000534363 0.00952283 -0.0345916 -0.0101802 0.00843098 0.0589865 0.0627563 -0.0440533 0.00794927 0.0323738 0.0345325 -0.0181003 0.0355468 0.0367698 -0.0522905 0.00643162 0.0158411 0.028969 0.0277723 -0.0349549 -0.0261913 -0.0406239 0.0196603 -0.025005 -0.00219757 -0.064179 0.0518818 -0.00144222 0.00202512 0.00204612 -0.00309643 -0.0774153 0.0209487 -0.00845509 0.0205082 0.0284825 0.0243876 -0.000788611 0.0136558 0.0300781 0.0420649 0.0381103 0.0536861 -0.0196138 -0.0196414 0.0454136 0.0246568 0.0446892 -0.00820821 0.062147 0.00388788 -0.0401924 0.00896257 -0.00182529 -0.0668541 -0.0101473 -0.000308577 -0.0197926 -6.18189e-06 -0.00948154 0.0379859 0.0591729 0.00851103
278394 0.0575334 0.0642263 -0.0798777 0.0406233 0.276684 0.246194 -0.0763007 0.0284178 -0.0526466 0.204251 0.152758 -0.251871 0.265923 0.298803 0.120909 0.124027 0.203738 -0.25891 0.0848195 -0.211153 -0.134888 -0.0637569 0.0372301 -0.239236 -0.00237601 -0.0251219 0.382919 -0.190185 -0.022918 -0.0807756 0.124971 -0.161264 -0.0665196 -0.0791456 0.29431 -0.130513 -0.125311 0.0896583 -0.125052 0.187187 -0.183262 0.0998357 0.0931309 0.0587722 0.0416805 -0.0958922 0.135393 0.0837213 0.433923 0.0212471 0.184465 -0.162628 0.0162066 0.032879 0.116842 0.0557951 0.0409021 -0.00469125 0.0280678 -0.139398 0.209031 -0.267491 0.23923 0.101516
390894 -0.180206 0.208946 -0.0155226 0.150011 -0.430893 -0.409149 0.178485 0.0575148 -0.13588 0.110205 0.320544 -0.0755163 -0.0685076 0.337842 -0.00197614 -0.137467 0.0330748 -0.110956 0.312156 0.441195 -0.18209 0.483313 -0.00659975 -0.157802 -0.387121 -0.250339 -0.032914 0.0220563 0.0667551 0.12412 -0.438261 0.14215 -0.0145286 -0.18174 -0.179895 0.0193197 -0.154719 -0.135203 0.0380736 -0.108258 -0.0555357 0.092522 -0.0672615 -0.232094 0.053715 0.917956 0.0925599 -0.000985523 0.134192 -0.185796 0.160597 0.0187997 -0.0524342 0.0664073 0.104653 -0.193593 -0.310278 0.0657002 -0.115035 0.0559643 -0.127088 0.106981 0.133926 -0.0414807
1113742 -0.0503406 0.147011 -0.0286602 -0.108929 0.0729739 0.0249469 0.0121673 -0.0489578 -0.0134995 0.109903 -0.0821285 0.156192 -0.121612 -0.0597021 0.0879899 -0.0251721 -0.0727488 0.0789575 0.0833286 0.0200774 0.00235647 -0.206405 -0.0403376 -0.17196 -0.106216 -0.0326738 0.0013141 0.0158383 0.216582 -0.0579402 -0.0761375 -0.0308237 -0.190002 -0.224464 -0.0129172 0.0213483 0.194114 0.0363497 0.120098 -0.0461674 0.109375 0.0620494 -0.0159169 0.0889413 -0.0241619 -0.330326 0.13077 -0.0669009 -0.145012 0.219243 0.0559862 -0.0605572 0.0907046 -0.00248039 -0.0536485 0.115111 -0.112269 -0.0971482 -0.00858984 -0.173833 0.0272948 0.014589 -0.0967431 -0.16302
644494 0.0130642 0.104769 -0.0221743 0.180917 0.107335 -0.0856923 -0.0912131 -0.143536 0.0748937 -0.00812798 0.00112238 0.0170948 0.137996 -0.0434484 -0.0545567 0.115196 -0.0297244 -0.0404421 0.0300348 0.0630775 -0.25674 0.0982673 -0.0556354 -0.0213589 0.261058 0.125475 0.139961 0.0379454 0.112155 0.0375131 0.00978336 -0.0505925 0.109773 0.0791668 -0.0337205 -0.0429818 -0.060202 0.113166 -0.0591832 -0.0807153 -0.101685 0.0538867 -0.0993793 0.0353214 0.0536744 0.11199 0.13558 0.00658113 0.217579 0.00339226 -0.118299 0.0558628 0.00083631 0.019503 0.237583 0.00960655 -0.238863 -0.0372924 0.0957421 -0.0192582 0.0886103 0.185026 -0.0791887 -0.0792107
235670 -0.0116415 0.00700945 -0.0203631 -0.0214625 0.00437877 -0.0202723 -0.00392622 0.00521326 -0.0106851 -0.000593111 -0.0171261 0.00268422 0.0297427 -0.00106344 -0.0248205 -0.00843344 0.0189 0.00535575 -0.00829278 -0.0184547 0.00282516 0.0165959 -0.0033467 0.00465943 -0.0126242 -0.010355 -0.0087759 0.0176545 -0.0154294 0.0314516 0.0191245 -0.0192232 0.00923914 -0.0257414 0.00450948 0.0145726 0.00650349 -0.0196778 0.0075465 0.0229212 -0.000469917 -0.0187536 0.000625098 0.00698584 0.0171164 0.00915391 0.00727639 0.00656825 0.0190725 0.0191659 -0.0330703 -0.0150689 0.011377 0.0189432 -0.0136548 -0.0102197 0.0153477 0.00655362 0.0113351 0.0125007 0.0106303 0.00562301 0.00801303 -0.00538774
787016 0.00291405 0.138167 -0.0399787 -0.147435 0.195453 0.141905 -0.00202546 -0.0404568 -0.00113825 0.128044 -0.149552 0.045114 -0.135779 0.0357531 0.164746 -0.0420553 -0.0486269 -0.0117703 -0.0039417 0.141754 0.117503 -0.346736 -0.0718618 -0.224027 -0.0597429 -0.0755228 0.0277764 0.0780878 0.444855 -0.137216 -0.0411806 -0.0852251 -0.214389 -0.364408 0.00130023 0.22609 0.248327 0.0472504 0.226628 -0.0277227 0.043683 0.143329 -0.0452528 -0.020248 -0.123377 -0.606232 0.312305 0.0147288 -0.327627 0.372938 0.213059 -0.184606 0.110411 0.0615521 -0.12212 0.187251 -0.151042 -0.231206 -0.128856 -0.295987 0.0349568 -0.136661 -0.10725 -0.231695
1129443 -0.192962 -0.158217 -0.147436 -0.0552533 -0.0552201 0.0616073 0.00403482 -0.0932983 0.0924894 0.01914 0.0955013 -0.257373 0.204637 0.0143487 -0.0152393 -0.120903 -0.102204 -0.100792 -0.280601 -0.117371 0.0309373 -0.18679 -0.00107579 0.0885108 0.0990932 -0.087188 0.00330553 -0.100749 -0.179301 -0.223473 0.0663273 0.161547 -0.0248775 0.00411932 0.0844712 -0.0815329 0.108213 -0.189194 -0.0225549 0.13309 0.154776 0.13569 -0.115593 -0.0661082 -0.00960038 -0.100313 0.0498828 -0.12525 -0.0970382 0.0186217 0.0857545 -0.0600623 -0.0166955 -0.0266132 0.0136686 0.109132 -0.000486418 -0.0860298 -0.0221543 -0.0574598 0.0233163 -0.0353661 0.19491 -0.0444982
207395 -0.121072 0.0288385 -0.143468 -0.236317 0.122383 0.0163901 0.0108474 0.0873689 0.179644 -0.0352674 0.0189758 0.0562725 -0.291861 0.00588053 -0.0997093 0.14211 -0.268432 -0.159762 0.171526 0.131201 -0.139404 -0.183031 -0.200024 0.00706482 -0.186981 -0.141123 0.138185 0.0226231 0.00907152 -0.0246382 0.266263 0.00122611 0.0397435 0.0873922 -0.119768 0.227633 0.21517 -0.129151 0.281294 0.0270181 -0.128217 0.0307353 -0.0428557 -0.13021 -0.115733 -0.179043 -0.0197961 0.32204 -0.0323152 -0.0803186 -0.00722333 -0.177131 -0.0404035 0.0889452 0.133324 0.0133039 -0.0127697 -0.0632199 0.0651407 -0.410416 0.108386 -0.0161 0.0633842 0.149628
42207 -0.0437284 -0.118191 -0.191746 -0.196095 -0.105587 0.131962 -0.174839 0.222087 -0.0610721 -0.476729 0.0593182 -0.204703 -0.00972087 0.375437 -0.0764609 0.0637524 -0.0830674 0.178618 -0.0521963 0.116884 0.0221868 0.150577 0.0452948 -0.0610443 0.224193 0.0958262 -0.178631 -0.151925 -0.329126 0.0301056 0.179022 0.0521406 -0.0880066 0.00675844 -0.0498777 -0.100862 -0.161795 -0.242824 -0.21226 0.146398 0.0639959 0.0928258 0.106616 0.106989 -0.160425 -0.00660364 -0.108519 -0.076662 -0.0829231 -0.0872007 -0.0317807 -0.0342491 -0.0447186 -0.255934 -0.128453 -0.120001 0.0120022 0.222031 0.168751 0.0590146 0.166287 0.183378 0.0533327 0.181645
1113551 0.0571311 0.0705794 -0.00672053 -0.158688 -0.09819 -0.166597 0.116287 -0.152599 0.0476163 -0.125907 -0.163255 0.0713814 0.0371266 0.0201783 -0.158031 0.0186917 -0.130185 -0.061582 0.0706154 -0.0910644 -0.135765 0.0805766 0.118904 -0.0198708 -0.084753 0.233736 0.0340733 -0.16459 -0.0586149 0.00952295 0.0467867 0.0905152 0.145553 0.110123 0.122413 -0.230539 0.0533514 0.0261563 -0.122457 -0.00914228 0.0821673 -0.0658212 -0.0186114 0.0569767 0.110917 0.0203502 -0.138621 0.185792 0.129286 -0.182584 -0.00605438 0.0639007 -0.166612 -0.0654859 0.269265 0.0407277 0.128736 -0.0560879 0.139436 0.00868988 0.0177313 0.162122 0.0903565 0.0530386
116021 0.13686 0.0116821 0.0686687 -0.127428 -0.0507047 -0.101299 0.111756 0.180786 0.00636174 0.00514352 0.0557035 -0.134452 0.0415777 0.0409942 0.183883 -0.0556744 0.0534183 0.0721045 0.0271013 0.0442967 0.0809287 -0.0233358 -0.0352268 0.119625 0.14784 0.0140463 0.0274642 0.0694296 -0.0943288 0.145494 -0.054585 0.104918 -0.0791427 -0.109812 0.111403 0.100074 -0.127736 0.0920465 -0.0165806 0.011322 0.0149842 0.0484465 -0.093198 -0.187026 -0.00879195 -0.0516011 0.118095 -0.101871 0.0134424 -0.0806985 -0.0482971 -0.0196101 0.00142692 -0.0348129 -0.155524 -0.0450656 -0.111367 -0.0297825 0.0457329 0.0144708 -0.147154 0.136443 0.0271927 0.00381664
16485 0.0320038 -0.0591408 0.201972 -0.0203026 -0.0323732 0.132139 -0.00750734 -0.509808 0.190906 -0.118687 -0.214233 0.341786 -0.18972 -0.0736295 -0.141739 -0.0286882 -0.276665 -0.181417 -0.358752 0.356215 -0.014529 -0.215817 -0.030432 -0.0899005 -0.232029 -0.107746 0.0699072 -0.231311 0.378215 -0.240858 0.411792 -0.303963 -0.0866757 0.262123 -0.00396756 0.239623 0.157008 0.00338584 0.0526605 -0.061674 -0.0898075 0.144796 -0.0822329 0.290062 -0.059213 -0.496818 0.0583588 -0.0103642 -0.135697 0.276632 -0.272046 0.00925139 -0.00588802 -0.361871 0.140218 0.175279 0.158446 -0.0375877 -0.0204378 -0.157673 0.359951 0.00148074 -0.121628 -0.42146
350362 0.133636 0.182005 -0.110399 0.0200352 0.01296 -0.133943 0.143129 -0.155268 -0.0202974 0.28499 -0.0319025 0.0459025 0.10348 -0.0800987 0.0126698 -0.0471308 -0.136082 -0.110086 0.142011 -0.0128585 -0.0209535 -0.0543086 -0.0259766 -0.103394 0.0673435 -0.210968 -0.0991397 0.118926 0.222622 -0.168803 -0.0898414 0.086064 0.0417009 -0.0516932 0.112278 -0.0307579 -0.0110043 0.129946 -0.00548017 -0.0819556 0.00915451 0.132321 -0.033453 0.146581 -0.050112 -0.14186 0.193369 0.121116 0.131666 -0.0268017 0.0564187 0.135957 0.0574491 0.0385434 0.0286738 0.0577494 -0.136726 -0.289175 -0.0640494 -0.084547 -0.0233026 0.042131 0.062699 -0.0748152
1128853 0.035167 0.0395674 0.0509273 -0.00320993 -0.0349634 -0.0536686 -0.00637418 -0.0344707 -0.0323875 0.0279971 0.00112086 0.0480004 -0.0397039 -0.0251313 -0.0139475 0.0349723 0.040401 0.028519 0.0427394 0.0329175 0.00198182 0.0532741 -0.00765323 -0.0318073 -0.0572664 0.000916224 -0.00724268 0.0265969 0.0471271 0.0363357 -0.0163951 -0.0518413 0.0448691 0.0310425 -0.0461374 0.0189674 -0.00810853 0.0273183 -0.0181976 -0.043995 -0.045816 -0.0762058 0.04864 -0.0367062 0.0180817 0.0120793 -0.0399474 0.0866783 0.00858308 0.0421019 0.00640274 -0.00775431 0.0313229 0.0454755 -0.0203315 -0.0118345 0.0091776 0.0269903 0.0278234 -0.0127806 -0.0551155 -0.00302013 -0.0594481 0.0801672
17488 -0.0412308 -0.160856 0.0195916 0.157036 -0.0588271 -0.00809819 -0.037485 0.0964955 -0.0355914 -0.0657679 0.106193 -0.0790741 0.0882776 0.00887347 -0.00762494 -0.0419572 0.0921815 0.0262683 -0.0646863 -0.0322567 -0.0146181 0.168595 -0.000717388 0.0927052 0.0871497 -0.056624 -0.0125766 -0.0738163 -0.25578 0.125558 -0.0384211 0.0795529 0.0974921 0.172147 -0.0195861 -0.126282 -0.157285 -0.0267861 -0.0931736 0.00783899 -0.027315 -0.0907884 0.0633772 -0.0359667 0.0754873 0.381764 -0.148361 -0.0853895 0.0729193 -0.197001 -0.105016 0.0116035 -0.0258154 -0.0182988 1.19691e-05 -0.0947134 -0.0224731 0.101333 0.0488354 0.134969 -0.0596123 -0.00412126 0.0120105 0.084891
84459 -0.0865801 -0.0414095 -0.0517585 0.0251184 0.0718265 0.17742 0.0220241 0.0718754 0.0326828 -0.0135032 0.00154954 -0.0703079 0.119815 0.119029 0.0389201 -0.116377 0.0344291 -0.0800944 -0.184442 0.0179768 0.0143795 -0.146233 0.00187616 0.0485321 0.0878419 -0.123399 0.0309271 -0.0732814 -0.0995798 0.0256456 -0.0884816 0.152925 0.0731156 -0.0837521 -0.110847 -0.000266282 -0.0282096 -0.136789 0.139254 0.0139524 0.0955246 -0.0121606 -0.0211341 -0.198691 0.0696195 -0.0383716 0.0193399 -0.112584 -0.11578 0.00104109 0.0649747 -0.0320007 -0.0795104 0.100303 0.019755 0.0120528 -0.0711157 -0.0994777 -0.0890336 -0.154321 -0.0233098 -0.0841144 0.14055 0.00306455
948299 -0.0918989 -0.202123 -0.119443 -0.113403 0.122268 0.211623 0.0165745 -0.115528 0.0970899 0.0254605 -0.115839 -0.162495 0.20789 -0.130747 -0.0516388 -0.0946363 -0.110978 -0.00026439 -0.394203 -0.266368 0.118367 -0.461821 0.0253358 0.0500069 0.223793 -0.00892572 0.0825779 -0.0968859 -0.187798 -0.323538 0.184165 0.0794576 -0.0563694 0.0292642 0.241044 -0.0309706 0.149667 -0.0420464 -0.0114304 0.165163 0.226404 0.0895277 -0.062263 0.0381513 -0.0800585 -0.533103 0.071069 -0.0756095 -0.181159 0.130951 -0.0307944 -0.0765032 0.000502284 -0.0190469 -0.0582734 0.263898 0.0735305 -0.135077 0.0545553 -0.184518 0.0918681 -0.0393504 0.103713 -0.0881578
1128407 0.054146 0.0519428 -0.0450656 -0.0294013 -0.0411417 -0.000744719 0.0726947 0.0719255 0.0798299 -0.0609452 -0.0441435 0.0328056 -0.0496498 0.0253675 -0.0224987 0.0282184 -0.0799337 0.0703207 0.0453158 0.00300826 -0.0775549 -0.0318242 -0.00525444 0.0783577 -0.0587123 0.00635043 0.0258944 0.059264 -0.058024 0.024125 -0.0100599 0.0147335 -0.0834053 -0.0112248 -0.0578617 -0.0150926 0.0292427 0.0352516 -0.00887461 0.00866125 -0.00836859 0.091485 0.0307786 0.075462 0.0404541 -0.0360733 0.00690004 0.0184051 -0.015911 -0.00110969 -0.0398541 -0.0115691 -0.0405172 -0.0031287 0.0203092 0.0258818 0.0329425 -0.010636 0.0383478 -0.0665919 0.00214841 0.0642694 0.0268588 -0.0129688
18770 0.17117 -0.00201569 -0.1762 -0.141652 0.199054 0.0450206 0.03999 -0.0950309 0.0381538 0.0514166 -0.167626 0.0847704 0.108507 -0.19509 -0.0220751 0.098975 0.0198462 0.0166043 -0.0291247 -0.228229 0.0171865 -0.206751 0.111691 0.0606035 0.162224 0.134186 0.139103 0.0143574 -0.0105735 -0.105379 0.209054 -0.109395 -0.0405423 0.133104 0.215177 -0.180712 0.0416667 0.084437 0.0265571 0.0530252 0.0234075 -0.00111414 0.0772325 0.163275 -0.131414 -0.366768 -0.0254034 0.0560669 0.0927848 -0.041386 -0.13154 -0.0118235 -0.0543795 0.0187311 -0.0907207 0.060834 0.158872 -0.0329689 0.0524052 0.0500579 0.0721103 -0.0745721 -0.0731404 0.09983
1111304 0.227367 -0.0992585 0.115242 0.142166 -0.440206 -0.437986 0.0366729 -0.186217 -0.0133675 -0.200866 0.193983 0.0102666 0.0134477 -0.306538 -0.17715 0.169978 0.103286 0.235427 0.234701 -0.1829 -0.0831694 0.651809 0.0564713 0.202285 0.154985 0.35193 -0.14404 0.204579 -0.301744 0.0498437 0.349583 -0.163508 0.23871 0.604674 0.26175 -0.266559 -0.161806 0.202342 -0.520937 -0.0315413 -0.216214 -0.0711475 0.0634261 0.378093 -0.176362 0.640206 -0.28743 0.123211 0.519882 -0.413477 -0.331837 0.107836 0.0250325 -0.127509 0.0297172 -0.132396 0.39163 0.28818 0.256473 0.63899 -0.0358794 0.440127 -0.0793552 0.213532
126912 0.156961 -0.0149726 -0.107522 -0.0178153 -0.0738299 -0.127359 0.0241697 -0.187031 0.0517673 0.00875608 0.149758 0.00758683 -0.0433257 -0.049337 0.319736 0.0169095 -0.00451138 0.0317722 0.230194 0.0580972 -0.0767222 0.126851 0.215276 0.144868 0.0812568 -0.04974 -0.171966 0.235317 0.316685 0.0729991 0.101611 -0.156724 0.0581386 0.0379206 -0.236202 -0.0233642 -0.142082 -0.203683 0.126481 -0.0553852 0.100474 -0.0769066 -0.0791989 -0.158269 0.15735 0.0314069 -0.165421 -0.0344226 -0.109226 0.113151 -0.0143893 0.0439999 0.0869095 0.00863899 0.230827 -0.126087 -0.117207 -0.154492 -0.166906 0.169257 -0.149956 0.147368 -0.145644 0.0523482
578365 0.111029 0.136393 0.0382142 0.0102423 -0.0290071 -0.0546111 -0.0249522 0.0455393 0.0906631 -0.0663518 -0.00602815 0.0515514 -0.13288 -0.0198146 -0.00455463 0.162723 0.034857 -0.0774776 0.0490746 0.00550334 0.0161591 0.260261 0.00454174 0.182745 -0.102453 0.0577351 -0.0605001 -0.0324761 0.0918242 0.104553 -0.0247324 0.0166805 -0.0356279 0.039818 -0.148928 -0.0106378 0.0299226 -0.0590857 -0.00577849 -0.0152829 -0.151716 0.000465354 0.0142677 0.0567872 0.0204899 0.167472 -0.0652295 0.0491106 0.0765454 -0.0566616 -0.0650065 0.0966989 0.0808351 -0.00245032 -0.0835826 -0.171094 0.141743 0.16173 -0.00706044 0.124385 -0.0643747 -0.0873264 0.0154137 0.0589764
1119751 0.0235031 0.147065 -0.0619264 0.0313123 0.108137 -0.187723 0.029546 -0.177483 -0.0450356 0.268538 -0.117361 0.0526322 0.0733281 -0.164805 0.00709949 -0.0229934 -0.0671929 -0.188018 0.0980686 -0.0452636 -0.073433 -0.0805911 0.0155261 -0.0797453 -0.105485 -0.164669 0.0379914 0.0754223 0.213221 -0.070746 -0.0920424 0.0458238 0.0469806 0.0504272 0.0653316 0.0257153 0.0474949 0.160812 0.0804674 0.00452628 -0.0712348 0.022316 -0.0368173 -0.00726574 -0.0439531 0.0573189 0.0721897 0.0822593 0.0571444 0.0388539 0.0255807 -0.0516436 -0.0289812 -0.000408707 0.00641742 -0.0064604 -0.0858907 -0.219688 -0.1124 -0.0820065 -0.0645295 -0.100616 0.0740343 -0.104863
1116146 0.0192634 -0.0375702 -0.00461135 0.0247209 0.00380543 0.00841845 0.00324387 -0.00540844 -0.031726 0.00863293 0.000692916 0.024847 0.0282459 0.0244738 -0.0219643 0.0050342 -0.0143723 -0.0217846 -0.0294092 -0.020122 0.004571 -0.0102173 -0.000698103 -0.0127268 0.028693 0.0179727 -0.00735752 0.0310131 0.01238 -0.0211788 -0.0110898 -0.00855716 0.00148038 0.00127068 0.0131268 -0.0353757 0.0103801 0.00499174 0.00428456 -0.0318964 0.00265538 -0.0420281 -0.0175587 0.000432107 -0.00282594 0.0115686 0.00734544 -0.0179804 -0.0241676 0.0415576 0.0342431 -0.0351116 -0.0260474 0.0269459 0.0451683 -0.00772089 -0.0195453 0.00262578 -0.00216741 -0.019819 0.0080362 -0.0178585 0.00492677 0.00927688
648121 -0.0100734 -0.00137782 0.00489048 0.016465 0.00647918 -0.0132631 0.0152814 -0.00357119 0.00177873 -0.0116218 0.0021321 -0.0119558 -0.00615778 -0.00404003 -0.00459988 -0.00247811 0.0118901 -0.00151362 -0.00625505 0.00489251 -0.0161531 0.00176743 -0.0110457 -0.00938324 -0.0269564 0.000357762 0.00256713 -0.0172504 -0.00423056 -0.00606308 -0.00774075 0.00689501 -0.00450384 -0.00398388 -0.00905178 0.00415275 -0.0061585 0.00934697 0.0196495 -0.0115272 -0.00475721 0.0156906 -0.0081857 -0.0166325 0.0227332 0.00975617 0.0128063 -0.0239377 0.00360641 -0.0231385 -0.00917302 0.00236632 -0.0156212 -0.0095893 0.00994858 0.0112562 0.0056806 -0.0304103 -0.00900447 0.006993 -0.00795665 -0.00259211 -0.0053747 -0.0136102
58552 -0.0264333 0.05958 -0.0261645 -0.0479776 0.103267 -0.0709962 0.203211 0.0507216 0.0153749 0.0936382 -0.0143174 0.128134 0.00249913 -0.0515065 0.00243886 0.0289881 0.0602234 0.0514868 0.0590049 0.0516132 -0.0394712 0.0158164 -0.0399357 -0.0429463 0.130413 0.0439512 -0.07798 0.062742 0.0636348 0.00959203 -0.0602017 -0.0609908 0.0729585 -0.0870733 0.109234 -0.0855728 0.104501 0.0632085 0.0284716 -0.0185506 0.0959977 0.0478678 -0.1313 -0.0164167 -0.179835 -0.0377892 0.0993632 0.0949355 -0.133616 0.129248 0.052079 -0.134906 -0.0187959 0.099314 -0.0617973 -0.0526831 -0.148738 0.0205207 0.0776824 0.0158407 -0.0839197 0.10683 -0.0564075 -0.0573354
12337 0.0424823 -0.0186446 -0.0567815 0.11668 0.254008 0.251348 -0.185814 -0.0939339 0.0518185 0.00875306 -0.0854655 -0.0808376 0.0126631 0.230044 0.0383094 0.0926009 -0.0585783 0.0439933 -0.291118 0.115481 0.159971 -0.242612 0.0751842 -0.112817 0.0757816 -0.145771 -0.00715034 -0.138567 0.16162 -0.169365 0.0613122 -0.114217 0.0411616 -0.253529 -0.169709 0.356747 0.134791 0.125586 0.0634319 -0.0617578 -0.0951806 -0.0177226 -0.0696661 -0.0649886 -0.0723829 -0.347477 -0.0257325 -0.32533 -0.339312 0.173226 -0.00979454 -0.358157 -0.118277 0.128809 -0.0732634 0.258505 -0.154715 -0.305351 -0.0811938 -0.332408 0.128788 -0.208901 -0.0768859 -0.249404
1116268 -0.00727687 0.088319 0.115318 -0.130173 -0.102131 -0.10798 -0.13337 -0.405021 0.134402 0.165143 0.107932 -0.0977008 -0.0840378 -0.371441 0.0156022 -0.0225714 -0.00954456 -0.0643224 0.231744 0.122985 -0.0514131 -0.232693 -0.109665 0.0574838 -0.130922 -0.150998 0.195192 0.12179 -0.0340657 0.0267418 0.0469453 -0.0628804 0.21692 -0.047969 -0.147762 0.0550228 0.260469 0.0264541 0.00921324 -0.0450479 0.022772 -0.215753 -0.110206 -0.251477 -0.0120165 -0.290619 -0.00567819 0.0769488 -0.290402 0.101144 0.0570517 -0.133008 0.152636 0.251274 -0.0944664 -0.0186893 0.14238 -0.176205 0.162212 -0.156103 -0.145606 -0.104512 -0.0381229 0.261005
57773 -0.056309 0.00850919 -0.0484726 -0.0284739 -0.00642983 -0.00802381 -0.00430309 0.0360438 -0.0320412 -0.000212466 -0.0331315 -0.0167055 0.0331209 0.0249803 -0.0267629 -0.0123942 0.0534994 0.00467464 -0.0214422 -0.0343071 0.0122872 0.0265243 -0.010252 0.0319373 0.0257118 0.00492487 0.0294494 -0.0302411 -0.015431 -0.0254817 0.0192295 0.00919221 0.0333141 0.015053 -0.00189003 -0.0214582 0.00691478 -0.00852267 0.00514945 0.0103891 -0.00101952 -0.0383 0.00998568 -0.0193609 0.039736 -0.00700783 0.039665 0.00106079 0.0018426 0.00741703 -0.0268502 -0.0192686 0.0429368 0.0266742 0.0320655 0.0365622 0.0221096 -0.00403456 0.015177 0.00423815 -0.0126307 -0.0141199 -0.0510726 0.0153304
14549 0.352679 -0.0723145 0.0746514 0.0580497 0.0855145 -0.182872 0.035418 0.182454 -0.00277267 -0.219725 0.0495826 0.0112898 0.00210493 0.128499 0.14204 0.0296979 0.0577522 -0.0109531 -0.0946904 0.143254 0.0863191 0.230987 -0.154518 -0.234955 0.311822 -0.151561 0.00484354 0.0704296 0.120552 -0.0307118 -0.0888349 0.11006 -0.18157 0.0291549 0.117374 0.0288571 -0.183437 0.145268 -0.0543443 -0.0304712 -0.0530726 0.116343 -0.113635 0.195961 0.0190543 0.224728 0.158896 -0.220046 -0.0916734 0.0148949 -0.184034 0.131733 -0.271711 -0.11912 0.0839142 -0.0893054 -0.104666 0.134514 -0.191602 -0.00780751 0.222033 0.171892 0.00829172 -0.301245
604073 -0.00555264 -0.00268337 0.00235312 0.000597194 -0.00236141 0.000243412 0.00155808 0.00159659 -0.00617576 -0.00133082 0.000408884 0.0022802 0.00270361 -0.00713577 -0.00209289 -0.000503871 -0.00200879 0.00498159 0.00603893 0.000904499 -0.0037518 -0.00133414 0.0022451 -0.00697841 -0.00750786 0.00535865 -0.00285704 -0.00417292 0.00692659 0.00322078 -0.00628943 0.00223934 0.00250955 0.00285024 -0.00638547 0.00442397 0.00632218 -0.00499158 -0.00262009 0.000447417 0.00520875 0.00415861 -0.00400417 0.000799241 -0.00268821 0.00774896 -0.00713555 0.00450192 0.00616817 0.00338121 -0.00732813 -0.00762869 0.0023361 0.00551337 0.00221318 -0.00565209 0.00266741 -0.00762793 -0.0015484 -0.00625322 0.00592019 0.000957605 0.00453097 -0.00167716
6923 -0.167306 -0.0921378 -0.251829 0.059247 0.477602 0.226862 0.0407223 0.0398494 0.54745 0.0792197 -0.142684 -0.153339 -0.247268 0.740999 -0.0455609 -0.244655 -0.14973 -0.475037 -0.462697 -0.0340828 -0.207439 -0.0318862 -0.0966265 0.351178 -0.337797 -0.382172 0.716543 -0.64954 0.16691 0.408905 -0.649245 0.30605 0.119073 -0.489123 -0.34718 0.320188 -0.140541 -0.252173 0.503034 -0.0166583 0.0516671 -0.196487 -0.299545 -0.543803 0.499673 -0.0661917 -0.334174 -0.140348 -0.615786 -0.173538 -0.020972 -0.022764 -0.309942 -0.0473213 0.683753 0.351751 0.258671 -0.0678895 -0.253307 -0.0763462 0.0641411 -0.273517 0.195137 0.09069
136766 -0.0434609 -0.131563 0.0598246 0.185803 0.252861 -0.449658 0.0107879 -0.0546606 -0.04791 -0.316446 -0.0244455 0.055902 0.0840684 -0.100763 0.0833476 -0.0477183 0.127691 -0.165019 0.0655893 -0.00283318 -0.111905 0.0259859 -0.0643689 -0.228479 -0.352548 -0.130678 -0.0132156 0.161385 0.253779 -0.0690196 0.0664204 -0.0671311 -0.00398967 0.271901 0.200866 -0.274777 0.436369 0.264054 -0.526949 0.0622483 -0.498508 0.219092 0.0399911 0.316666 -0.172742 0.115212 0.0438966 -0.00131568 -0.265942 -0.0742617 -0.220617 0.0560587 0.219532 0.0249635 0.0202705 -0.10119 -0.216035 -0.102115 0.341393 0.193033 0.0218533 0.0331422 -0.195326 -0.0420009
120013 -0.048809 -0.257539 -0.0210474 0.0537137 -0.165327 -0.142049 0.182633 -0.0326973 0.114023 -0.13519 -0.0993553 0.0980627 -0.141481 -0.269609 -0.00877777 -0.00153093 -0.112032 0.166552 0.00466499 0.155413 0.124159 0.0418256 -0.0448366 0.25032 0.175651 0.0291036 -0.275664 0.128412 0.00094442 -0.0413064 0.048196 -0.0198157 -0.0899573 0.0451015 -0.101801 0.141444 0.0367636 -0.0546546 0.0612257 -0.123359 0.087929 -0.00377465 -0.0297078 0.0441265 -0.0188137 0.0644467 -0.0899374 -0.0501253 -0.323621 0.0939974 -0.0665892 0.00774462 0.00136093 -0.0385759 -0.06815 0.091963 -0.0211273 -0.148192 0.0704807 -0.0102389 -0.223687 0.214344 -0.219457 -0.103173
52003 -0.00528049 -0.0197769 0.00727376 0.0140212 -0.00469218 0.0116303 -0.0112382 0.0052183 -0.0211414 -0.0112583 0.000328978 -0.032662 -0.01067 -0.0207714 -0.0171015 0.0152326 0.00846674 0.0284848 0.0270305 -0.0352028 0.0105564 -0.0129062 -0.00156985 0.0225932 -0.0139282 0.00393457 0.00215148 -0.0162264 0.0197843 -0.00957711 0.0120145 0.000362714 0.00785517 -0.0388841 0.0023912 0.00525502 -0.000142144 -0.0338539 0.00874946 0.00830408 0.0048015 0.021535 0.00299292 -0.0182113 -0.0102281 0.00760439 0.0271739 0.00486208 0.0134988 0.0112841 0.00755057 0.010027 0.00632792 -0.00139793 -0.032027 0.00455386 0.00702798 0.00591119 -0.0124169 -0.00527595 0.0217516 -0.00843331 0.0119988 -0.00819043
180399 0.0840026 0.180137 0.101046 0.0193824 0.163717 0.0630851 0.275112 0.233006 0.0279425 0.0304853 -0.0439009 0.220224 -0.257179 0.0604709 0.162131 0.123169 0.0143738 0.0366304 0.376947 -0.30532 -0.123026 -0.166295 0.127963 0.12849 -0.0950365 0.215309 -0.383455 -0.0477089 -0.105639 0.117308 0.0644065 -0.3335 0.124127 -0.127267 0.0108447 0.356182 0.128147 0.237364 0.020957 -0.117498 -0.0792644 -0.0841247 0.381231 0.140292 0.02337 0.00882335 0.0972614 0.16668 0.434127 -0.115296 0.261013 0.143196 0.270655 -0.0179628 -0.140079 -0.0384153 0.0644743 -0.322678 0.225962 0.0614581 0.186097 0.128385 -0.173182 0.0470916
1112417 0.00353397 -0.0061082 -0.00455662 0.00102076 -0.0044847 0.0019264 0.00403641 -0.00631557 -0.000548424 -0.00652088 -0.00668687 0.00446046 -0.00404447 0.0045541 -0.00210791 0.0020756 -0.00132155 -0.00297743 0.00347495 -0.00391523 0.00729499 -0.00661506 -0.00336347 0.000121422 0.00270085 -0.00724156 -0.000533689 -0.000417048 0.00444889 -0.00110465 -0.00397216 -0.00753109 -0.0041715 0.00212646 -9.36432e-05 -0.00605981 0.00222919 -0.00361505 0.0044127 0.00618958 -0.006387 0.00105741 0.00451145 0.000766541 0.00364215 -0.000264883 -0.00711162 -0.00725093 0.00283386 -0.00607953 -0.000715303 0.00608978 0.00461411 -0.00416405 0.00326355 -0.00411026 -0.00380716 0.00169536 -0.00121256 -0.0071356 0.00486643 -0.00640885 -0.00758588 -0.00173142
92589 -0.0985686 0.153836 -0.16226 -0.121646 -0.178361 -0.102187 0.101453 -0.0807217 0.0248718 0.0521035 0.0376931 0.042393 -0.0123811 -0.0161465 -0.0698406 -0.0856221 -0.0762961 0.0417433 0.110333 -0.0776896 -0.110475 -0.217764 0.0500749 0.091823 -0.0147133 0.167876 -0.0337132 0.0941161 -0.0119555 -0.0362113 0.0738814 -0.0021465 -0.166268 0.0651764 0.156895 -0.124688 0.135861 0.0263689 -0.0185057 -0.0051748 0.0672739 0.137318 0.164042 0.146274 -0.16103 -0.0821463 0.0657357 0.142266 0.145898 0.0064896 0.158558 -0.137161 -0.00715904 0.0454294 -0.136274 -0.0712411 0.0358422 0.0182245 0.0723331 0.0772407 -0.0812818 0.0869151 0.204189 0.0765136
368431 0.193279 0.21856 -0.0766355 0.122704 -0.184611 0.218153 -0.179017 0.162644 -0.106314 0.121672 0.148015 -0.00328828 -0.329175 -0.0458505 0.0491062 0.321639 -0.143068 0.420774 0.188171 -0.30825 0.0972185 -0.0726129 -0.0711056 0.160348 -0.219365 0.0837432 0.281308 0.260925 -0.0619316 0.268148 0.153899 0.0306507 -0.257711 -0.0466038 -0.112393 0.217644 -0.203469 0.0944631 0.228046 0.0690667 -0.10724 0.397575 0.0315148 0.389824 0.103044 0.0184899 -0.156503 -0.115431 -0.0360775 -0.1987 -0.273703 0.0859625 0.21516 0.0448943 -0.260131 -0.0244465 0.323266 0.232839 -0.0686161 0.418873 0.122996 0.0956672 -0.107026 -0.107317
35852 -0.0127501 0.0991713 0.0786831 -0.0749753 0.0385909 -0.0673722 0.0955502 -0.0462187 -0.0266281 0.0169572 -0.135017 0.11423 -0.123264 -0.0120261 0.0967197 0.0292187 -0.059604 0.0899791 0.051392 0.165415 -0.0694318 -0.21085 -0.0636877 -0.215971 -0.0127784 0.0432854 -0.0347492 0.129078 0.21505 -0.110982 -0.0308512 -0.242312 -0.18707 -0.192492 -0.027303 0.283366 0.106164 0.135331 0.196947 -0.152946 0.00776435 0.148399 0.0115937 -0.00499219 -0.0571047 -0.197849 0.199319 0.100426 -0.160788 0.192126 0.0473655 -0.272635 0.0689937 -0.0229777 -0.0317656 0.155816 -0.05394 -0.023241 0.00314543 -0.0328003 0.0489689 0.00988781 -0.0265266 -0.140695
1103985 -0.0180442 0.124357 -0.0434939 -0.168347 0.111407 0.0486107 0.0876494 -0.00910769 0.00620595 0.103542 -0.127165 0.0817484 -0.0582661 0.0257345 0.050709 0.0255815 -0.123191 -0.0214856 0.0148926 0.0898496 0.046809 -0.269631 0.00972755 -0.174038 -0.106882 0.00975796 0.000244023 0.0631669 0.329123 -0.14287 0.00944723 -0.0983842 -0.114688 -0.251675 0.0212252 0.155267 0.173349 0.00935323 0.171834 0.013941 0.015416 0.0923857 -0.0493076 -0.0283458 -0.0439874 -0.504467 0.182043 0.0455316 -0.192243 0.267601 0.151641 -0.0565301 0.0800189 0.0518231 -0.0339082 0.138667 -0.131531 -0.193712 -0.0312036 -0.223847 0.0369627 -0.0705016 -0.0696102 -0.147913
1128314 -0.0302428 0.160663 -0.0616337 -0.193806 0.135503 0.0486248 -0.000100395 -0.0797435 -0.00227279 0.1069 -0.152607 0.136388 -0.116695 -0.00774966 0.0933396 -0.00490588 -0.125261 -0.00608454 0.0419214 0.0722873 0.00686466 -0.363951 -0.0562705 -0.183714 -0.135961 -0.0277078 0.000429869 0.0518478 0.373217 -0.144116 -0.0689477 -0.0520447 -0.202033 -0.309777 -0.00763272 0.119275 0.242155 0.0396599 0.239634 -0.04916 0.0686607 0.112772 -0.069371 0.0295252 -0.0121232 -0.523243 0.208197 0.0205101 -0.229653 0.313416 0.147508 -0.119894 0.0673994 0.0212432 -0.0441863 0.152728 -0.134344 -0.167964 -0.01577 -0.266584 0.0149479 -0.076888 -0.0752292 -0.195595
1109542 0.0452518 -0.0688339 -0.0301804 -0.0515293 -0.0122705 -0.214287 -0.0959748 -0.0450404 -0.050967 -0.0655607 -0.0878264 0.0368848 -0.151619 -0.059003 -0.0163475 0.304044 0.044361 0.0353517 0.271771 0.0276183 0.0682189 0.115247 -0.0116313 0.0902395 0.0593551 0.137694 0.00436487 0.161043 0.192903 0.114966 -0.0514551 -0.141488 0.118646 0.160446 -0.11346 -0.060332 -0.212255 0.0920754 -0.031078 -0.121376 -0.0572016 -0.188053 0.186996 0.0235162 -0.0656606 0.140383 -0.0429267 0.201109 -0.00322141 -0.00612541 -0.0342211 0.0236168 -0.146376 -0.0451965 -0.0306485 -0.176343 0.0398622 0.0526606 -0.0259589 0.0342369 -0.214318 -0.0750853 -0.0993962 0.150389
103543 0.00826868 0.0381409 -0.0601092 0.148504 0.0451867 -0.0442658 -0.0801272 -0.233299 0.0576023 -0.045314 0.0630344 0.0146417 0.0710269 -0.0771291 -0.049189 0.0342127 0.0193718 -0.0338785 0.0374108 0.117227 -0.223621 0.121612 -0.0337575 0.0342678 0.199634 0.0738076 0.104241 0.132113 0.127263 0.0211803 -0.0218839 -0.0718451 0.0836073 0.0681189 -0.0745344 -0.0800495 -0.0576586 0.0342048 -0.0228738 -0.0902457 -0.0741106 0.0949942 -0.129336 -0.0240717 0.0813619 0.141813 0.0889171 0.0121198 0.114889 0.0501812 -0.102524 0.119661 0.00487323 -0.0357201 0.252997 0.0162078 -0.222372 -0.098179 0.0533743 -0.00366647 0.0583518 0.15195 -0.091318 -0.00160133
61417 0.0247466 0.0161076 0.0109929 -0.0431274 -0.0754776 -0.0630385 0.0185156 -0.00533676 -0.0421333 -0.0595315 0.0484398 0.0764828 -0.108351 -0.06289 0.0110849 -0.0240721 -0.0212172 -0.0081314 0.0914061 0.0383253 -0.0809793 0.104725 0.0131676 -0.0285284 -0.119255 0.143732 -0.114634 0.102714 -0.0717641 0.0559008 0.0314387 0.00990312 -0.205143 0.185727 0.11417 -0.0350007 -0.0208375 0.050417 -0.158724 0.0657298 -0.0315453 0.205834 -0.0599848 0.109323 -0.0741028 0.0290439 0.108809 0.00822332 0.203072 -0.0944904 0.00317944 0.0487452 0.0506006 -0.108418 -0.114898 -0.149457 0.161995 0.144724 0.0540304 0.190517 0.00765451 0.201009 0.0110207 0.0456088
102061 -0.000713096 0.0129404 -0.00755602 -0.0114398 0.0294387 0.0138843 -0.00518627 -0.0242308 -0.0033923 0.0202997 -0.038391 0.0194776 -0.0346586 0.010944 0.0038217 0.0033036 -0.0348641 -0.00815437 0.000717418 0.0264385 0.0239255 -0.042924 0.00392701 -0.0246576 0.00946112 -0.0350261 0.00106601 0.0178509 0.0780979 -0.0471527 -0.00199904 -0.0242797 -0.0388157 -0.0559935 0.0130998 0.010964 0.0327325 0.0290505 0.0306313 -0.00916489 0.00662227 0.0297826 -0.0204111 -0.00339906 -0.00924857 -0.0925336 0.0495265 -0.00188555 -0.0560194 0.0766397 0.0251189 -0.0200861 0.0219315 0.00721227 -0.0403555 0.0294357 -0.0558505 -0.0375521 0.0202725 -0.0463606 0.0179263 -0.0362602 -0.0249607 -0.0163254
18536 -0.0296458 0.00861393 -0.0188609 0.00426804 -0.0102119 0.000240679 -0.00553481 -0.037086 0.00608954 0.013327 -0.00722538 -0.0124537 0.00908582 0.0272118 -0.0261447 0.00978207 0.00842113 0.00531344 -0.0021239 0.0413368 0.00120205 0.0260152 -0.0149049 -0.000899344 -0.0182667 0.0167178 0.00472963 0.00892873 -0.0067055 -0.00890772 -0.011863 -0.0407494 0.0129812 0.00890877 -0.0140174 0.0357444 -0.0171535 0.0100144 0.0180776 0.00842958 0.0046682 -0.00575722 0.000181871 0.00519042 -0.0082286 0.00539049 -0.0177532 -0.0325325 0.0140148 -0.00709775 0.0110853 0.0167493 0.0171619 0.0241716 0.0020586 0.012627 -0.00177959 0.00699908 -0.00696553 -0.0176573 -5.70472e-05 0.0149488 0.0180501 -0.01929
948147 -0.142979 -0.126194 -0.0361419 0.00417371 0.0310616 0.0572257 0.0787763 -0.0973329 -0.0189963 0.0613296 -0.0784875 -0.0579249 0.079813 0.018879 -0.044781 -0.174937 -0.0347427 0.037782 -0.20247 -0.0338052 0.0338728 -0.331068 -0.06644 -0.0862267 0.103168 -0.0584778 0.148676 -0.0724432 -0.139155 -0.298228 0.0309809 0.0346749 -0.0503423 -0.00228784 0.156548 0.0291211 0.0560944 0.0125085 -0.0530577 0.116603 0.224486 0.0600436 -0.00101352 0.0191168 -0.0872942 -0.300297 0.112763 0.00133756 -0.0791844 0.126852 -0.0266051 -0.0885833 -0.00863284 0.0523602 -0.0464889 0.255931 -0.0203281 -0.0648016 0.000625269 -0.211581 0.0716854 0.0136979 0.0459348 -0.132151
594900 0.0224349 0.1625 -0.0712821 -0.218645 0.127022 0.0405105 0.0435623 -0.0759922 0.0153421 0.0688246 -0.1667 0.0694847 -0.0724712 0.0219971 0.0458393 -0.00220707 -0.117365 -0.0176852 0.0415191 0.0864322 0.0123732 -0.289901 -0.0218407 -0.17159 -0.11925 -0.00939561 -0.00451118 0.0497325 0.333197 -0.159633 -0.0126922 -0.0513243 -0.144799 -0.240908 0.0248957 0.141206 0.207171 0.0405935 0.182565 -0.0205452 0.0784542 0.119473 -0.0739726 -0.00463877 -0.0618664 -0.46318 0.19292 0.063889 -0.198359 0.246273 0.136547 -0.0883602 0.0546547 0.0391515 -0.0182293 0.129808 -0.0894343 -0.181408 -0.0431767 -0.258018 0.0584051 -0.0614016 -0.0454273 -0.136153
1128975 -0.0568061 0.270845 0.0377854 -0.161555 -0.0330775 0.0258749 0.0313469 -0.0169403 0.00409936 -0.0636943 -0.0369647 -0.0348112 -0.00424577 0.113982 -0.0543023 0.0422414 -0.0715372 -0.070366 0.0746049 0.0382007 -0.114003 0.0139765 0.00507835 0.0453415 0.0275796 0.0533132 0.0138587 -0.0278031 0.00417186 -0.0209774 -0.0753935 0.012417 -0.0107673 -0.139979 0.00495409 0.119669 -0.0589185 0.0497297 0.214282 -0.118553 0.0820697 0.0346445 -0.000233846 -0.118808 0.0528752 -0.0462482 0.00145359 0.12013 -0.020699 -0.105897 -0.0354596 0.062952 -0.00415276 -0.0836694 0.177425 -0.0602956 0.17731 0.063966 -0.0249009 0.0672369 0.0908748 0.111898 0.0776411 -0.00890657
78555 -0.0325791 -0.0586323 0.030021 0.104761 -0.091088 0.0268408 -0.192496 -0.208398 0.0216285 -0.0328273 0.0396939 0.11879 -0.0284314 -0.0404231 -0.0968404 0.0190181 0.0810239 -0.0529291 -0.0621057 0.00515192 -0.051819 0.0815881 -0.0288814 -0.070248 -0.109668 -0.0663517 -0.0109504 -0.0321329 0.0900321 -0.0809545 0.0559035 -0.0889083 0.0578848 0.114193 -0.128815 0.0379797 -0.110099 -0.0596579 0.0378896 -0.0441639 0.0108012 -0.055048 0.0311964 0.0324808 -0.123175 0.0602127 -0.0332449 0.0574539 0.045972 0.023773 -0.0806216 0.0437423 -0.0619391 -0.0552877 0.0587429 0.0356877 -0.00744707 -0.0201078 -0.150849 -0.132902 0.153075 -0.00894034 0.0777275 -0.131912
675756 -0.0534541 -0.0182939 -0.0215311 -0.0116955 0.0142335 -0.0625723 -0.0101518 -0.0520205 0.0282762 0.00204412 -0.0938055 0.0362456 -0.0635572 -0.106129 -0.017482 0.0274061 -0.0461055 0.0339101 -0.0814646 0.0452146 0.0188849 -0.015934 -0.0134722 0.017471 -0.0750594 -0.000367704 -0.0436031 0.0232081 0.0525863 -0.0798747 -0.0362446 -0.0261673 -0.0475685 0.00327923 0.0625672 -0.00701157 0.0492612 -0.0358977 0.0639717 0.0101126 -0.0129369 -0.042547 -0.0317125 -0.0151339 0.0185582 0.0916689 0.110775 0.0392426 -0.100588 0.0031618 -0.0860929 -0.0332157 0.0476952 -0.0286126 -0.0195589 0.0400922 -0.0510921 -0.0212447 0.0197728 -0.0714594 0.0309324 -0.00405686 -0.00326427 -0.0846724
1152676 -0.0510588 0.176385 -0.0273944 -0.167762 -0.0392374 0.0161651 -0.0181908 -0.0451981 0.0298589 -0.00777124 -0.0872575 0.168195 -0.0514192 -0.024402 0.054173 0.0265139 -0.0657266 0.0453633 0.133438 0.0508105 -0.0188239 -0.0806346 -0.0146825 -0.144363 -0.102752 0.0485412 0.00822587 -0.0154443 0.225679 -0.0694534 0.0579616 -0.135814 -0.126341 -0.122276 0.0615363 0.141389 0.125792 0.0697355 0.190337 -0.0183849 -0.0290961 0.122289 -0.0287562 0.0731029 -0.0369832 -0.30524 0.111734 0.0551576 -0.0499922 0.12792 0.0649369 0.103128 0.0858217 0.000107814 -0.0322085 0.114626 -0.0876862 -0.0555787 0.0247424 -0.0911649 -0.0816973 0.0251368 -0.0708106 -0.126666
1131180 -0.0830171 0.0660634 -0.155465 0.129065 0.0962904 0.0125958 0.142807 -0.216086 0.241137 0.011614 0.0845223 0.0295856 0.0667722 -0.179757 -0.043077 0.0411238 -0.150145 0.0342463 -0.187216 -0.148282 -0.165277 0.047932 -0.0498635 -0.135619 0.0938266 0.0800743 0.231626 0.0438098 -0.0908083 -0.122 -0.0393134 -0.00273904 0.101771 0.00210925 0.0674444 -0.0198603 0.0104282 0.0150376 -0.106562 -0.0393345 -0.0476459 0.0288643 -0.065285 0.0629607 0.0613262 0.158275 0.245988 0.0810673 -0.0354712 0.0898313 0.00734198 -0.0096583 0.115604 0.027806 0.100895 -0.0573326 -0.150651 -0.106312 -0.0402432 -0.0763634 -0.0140185 0.030204 0.00715113 -0.0181133
35922 0.213829 1.24986 -0.248276 -0.689302 -0.983802 -0.697046 0.792615 0.000987261 -0.458997 0.819851 0.3801 -0.227274 0.0435477 0.248246 -0.0874928 0.191958 0.0930017 -0.199964 0.503114 0.779969 -0.0285799 0.476653 0.560918 -0.580828 -1.4844 -0.899544 0.566086 -0.171149 0.463268 0.000210234 -1.01327 0.431417 -0.377115 -0.593276 0.336144 0.168191 -0.448677 -0.435143 0.50154 -0.164501 -0.0912026 0.512241 -0.480823 -0.623476 0.100459 1.15709 0.398305 0.486461 0.100603 -0.712471 -0.131948 0.219081 -0.109478 -0.00600022 0.12864 -0.111306 -0.660692 -0.0778947 -0.209537 -0.394995 -0.00889396 0.585772 0.0515179 -0.143866
312409 0.0163007 -0.00196616 -0.0147002 -0.000104275 0.00156493 -0.0158113 0.00403198 -0.000213745 -0.00244029 -0.0155153 0.00096566 0.00528724 -0.0063789 0.000551567 0.00681824 -0.00763533 -0.0284392 0.00335177 -0.00600815 -0.00628062 0.00229788 -0.00647351 0.0210008 -0.0265425 -0.00212658 0.00337082 0.0157106 -0.0084509 -0.0130394 -0.00257051 -0.00212579 0.0121946 -0.00896941 0.00979607 0.00613632 -0.0165486 0.0182864 0.00386634 0.0072046 0.00447937 0.00567792 -0.0230316 0.0110858 0.0125578 -0.0067158 -0.0154853 -0.0165468 -0.0075473 -0.0165398 -0.00197954 0.00839439 0.0126756 0.0235595 0.00215761 -0.00210567 -0.0102408 -0.00936892 -0.0183388 -0.00304436 0.00857141 6.24934e-05 -0.0248351 -0.0113486 0.00484277
178727 0.00920441 0.130018 -0.0567584 -0.175765 0.10339 0.0439666 0.0254335 -0.0525492 0.0348251 0.0839101 -0.125697 0.0753393 -0.0573305 0.051934 0.0503291 0.0089919 -0.0870987 0.00240522 0.0178503 0.0735913 0.00714078 -0.246655 -0.0103442 -0.133316 -0.098142 0.0188492 -0.000578808 0.0184932 0.268067 -0.121089 0.0102345 -0.0449937 -0.0914289 -0.202189 -0.00155115 0.126281 0.180921 0.0359434 0.184183 -0.0146432 0.0593084 0.0979106 -0.0604435 -0.0172521 -0.0398992 -0.384796 0.167637 0.0719535 -0.156543 0.197274 0.145066 -0.0547776 0.0182447 0.037183 -0.00262106 0.102076 -0.0880484 -0.170994 -0.0543533 -0.216736 0.0359821 -0.0144736 -0.0331805 -0.12375
1061127 -0.079082 -0.0438559 -0.00328647 -0.0457794 -0.0264718 0.0746544 -0.103716 0.085049 0.00593968 -0.0722878 -0.00733515 -0.0205493 0.0241392 0.0346119 -0.00664524 0.0116147 0.0289816 -0.0572256 0.0335424 0.016636 0.0619313 -0.0696394 -0.0305831 0.0792133 -0.105324 -0.0617104 0.0799595 0.130567 -0.119862 0.13916 -0.0608213 0.179112 -0.0462649 -0.136444 -0.0682887 0.00742865 -0.0572665 -0.0579196 0.162935 0.0404973 -0.0616372 0.148491 -0.0441504 0.00895035 0.0332064 0.0823704 0.0313269 0.00538881 -0.0789755 -0.0613737 -0.160023 0.0499083 -0.0139229 -0.00381802 -0.110277 -0.144108 0.0322752 -0.0309403 0.0671755 0.0100151 -0.0408951 0.0226587 0.109662 -0.0698365
18582 -0.0112136 0.270274 -0.0682532 -0.270826 0.0658478 0.065598 0.0155366 -0.036269 0.067397 0.0694981 -0.183709 0.147987 -0.0946446 0.00184155 0.0198878 0.0965478 -0.123314 -0.0143715 0.163284 0.111133 0.0194357 -0.277345 0.000676571 -0.166651 -0.194269 0.0423349 0.00485749 0.0689838 0.446565 -0.224642 0.0909004 -0.197955 -0.18618 -0.283681 0.0466212 0.282829 0.210592 0.143383 0.267824 -0.00600973 -0.0220979 0.166896 -0.0735985 0.0254024 -0.0841218 -0.603311 0.191773 0.0626018 -0.148578 0.287518 0.159957 0.0326362 0.119 0.00192568 -0.0573696 0.203354 -0.0954989 -0.135867 -0.0368698 -0.241756 0.0194467 0.0233561 -0.0731555 -0.170198
379288 -0.0245492 -0.0263513 -0.00590692 0.00518699 0.0302447 0.0156771 -0.0141505 -0.0212444 0.0233539 0.0236121 -0.0100743 -0.0145258 0.0171839 0.00949358 -0.0071994 -0.0228115 0.0124202 -0.0134813 -0.0464548 -0.0209557 0.00944567 -0.0378305 0.00926186 -0.0240014 0.0371294 -0.0471173 0.0223955 -0.0152473 0.0352227 -0.0563862 -0.0296886 0.020728 0.0644797 -0.0657339 -0.00773969 0.00385544 0.0141226 -0.0215704 0.0412226 -0.026926 0.00369146 -0.0897728 0.0118222 -0.0477542 0.0166419 -0.0140905 -0.0269995 0.000913429 -0.0432946 0.036813 0.00969656 -0.0454337 -0.0235045 0.0394445 0.0299656 0.0411794 -0.0674188 -0.0560247 -0.0189027 -0.0737331 -0.0216089 -0.0594542 0.0174764 0.00258505
1154232 0.0763615 -0.0926115 0.439741 -0.0407344 0.0041341 0.393397 0.117801 0.249007 -0.12057 -0.0429229 -0.00486075 -0.0519747 -0.190806 -0.184471 0.0923762 -0.188634 -0.0187282 0.0598909 -0.256643 0.283566 0.341377 0.144098 -0.157077 0.187194 -0.0923014 -0.105178 0.0095868 -0.441455 0.0455311 0.21102 0.058569 0.139092 -0.16259 -0.0911141 -0.0704969 0.319724 0.0551061 -0.13183 -0.119154 -0.0491419 0.105392 0.0309241 -0.0995875 -0.0510161 0.222377 -0.204212 -0.10597 -0.118543 -0.369328 0.219202 -0.0636279 0.00294518 0.400532 -0.249031 0.149881 0.0649206 0.170204 -0.100375 0.1686 -0.214116 0.407834 -0.0146377 -0.360386 -0.208687
111676 -0.0139114 0.0339011 0.0127348 -0.00862576 -0.00395251 0.0216218 0.0190912 0.0419146 -0.00788476 0.00608327 0.0310429 0.0109538 -0.0395137 0.00670587 0.0491264 -0.0287956 -0.0247575 0.00821664 0.0196011 0.0378415 -0.027419 -0.0568083 -0.0321601 -0.00451223 -0.0199301 -0.0163614 -0.0288351 0.0270789 0.0240659 -0.00413556 0.0060948 0.000757533 -0.0549657 0.00708299 -0.00456014 0.0151224 0.0212508 0.0106266 -0.00509076 0.00823385 -0.0173104 0.0519307 0.0295093 0.0314947 -0.0443658 -0.0403947 0.0414171 0.0247824 0.00189265 0.0188222 0.0437507 -0.0182677 -0.0231325 0.0184382 -0.0470556 -0.0249352 -0.0242501 0.00321379 -0.0139324 -0.0175592 -0.0237934 0.000817741 0.0248606 0.00427667
1132443 0.0231543 0.0153379 0.0148009 -0.0809849 0.152899 0.0328561 0.101429 0.166425 -0.0602154 0.011093 -0.0330586 -0.0488605 0.091472 -0.0594286 0.0959882 -0.0871598 -0.0508789 0.00329647 -0.00925203 0.0228814 0.040507 -0.00968022 0.102439 0.0742601 0.205047 -0.0468345 0.00950433 -0.0104117 -0.0601275 0.12659 0.0106881 0.0528442 -0.0453727 -0.0194957 0.0346862 -0.0296562 0.0984978 0.0544191 -0.00270332 0.0351865 -0.0284021 0.0242831 -0.0550051 -0.0860053 0.0370343 -0.137357 -0.042521 -0.0676824 -0.0152759 -0.0596901 0.0933333 -0.0170639 0.0421542 0.0580753 -0.0695705 0.053932 -0.0252031 0.0101203 0.0697839 0.0361471 -0.192477 0.0591772 -0.066184 0.169003
248425 -0.0175699 0.296341 -0.0826251 -0.368256 0.260331 -0.00503194 0.161914 -0.180771 -0.0348763 0.140455 -0.277145 0.0967602 -0.129715 0.115707 -0.00304829 -0.0506146 -0.25348 -0.119491 0.0286086 0.225184 0.0705956 -0.391098 0.0110361 -0.188978 -0.197078 -0.0288138 -0.0255192 -0.0108134 0.459108 -0.330354 -0.0302667 -0.0310969 -0.198949 -0.383904 0.0661648 0.186478 0.299217 0.036537 0.380399 -0.0812852 0.148122 0.0889158 -0.0770015 -0.0328622 -0.0598348 -0.594783 0.316188 0.109046 -0.352924 0.311817 0.115564 -0.162138 0.00580856 0.0538504 -0.0894651 0.233742 -0.153693 -0.27792 -0.0066409 -0.468716 0.0568944 -0.0558274 -0.145738 -0.27791
739816 0.101275 0.0763202 0.059833 0.0286102 0.0419627 -0.0790401 -0.046792 0.0869989 -0.0788039 0.000232986 -0.0322188 0.103266 -0.0948337 0.0129968 0.0894918 0.0516717 -0.02118 0.0406875 0.194135 0.105512 0.0359677 0.142931 -0.0315882 -0.00775902 -0.0880245 0.0761442 0.0139607 0.00513085 0.141719 0.182252 -0.0675317 0.033783 0.00883843 -0.084837 -0.0567151 0.0596647 -0.0614279 0.0976795 0.043619 -0.0344537 -0.0680925 -0.0627438 0.0873903 -0.00869418 0.027824 0.119906 0.00776163 0.0591121 0.04507 -0.0512261 -0.0288707 0.0345034 0.0659004 -0.000649703 0.0066434 -0.137053 -0.0144917 0.0551126 0.0332646 0.0405808 -0.028244 -0.0240573 -0.11941 0.0778826
634902 -0.0093302 0.178435 -0.0266784 -0.225 0.154976 0.057006 0.028391 -0.114885 0.0491739 0.113533 -0.1965 0.127144 -0.128915 0.032297 0.0652362 0.019653 -0.165805 -0.00201107 0.00674409 0.104364 0.0306002 -0.321385 -0.0130443 -0.184212 -0.119266 -0.0143263 0.00716427 0.0409814 0.420391 -0.201582 0.0380553 -0.0545123 -0.149899 -0.325387 0.00467475 0.167788 0.190519 0.0566599 0.215941 -0.00301507 0.0161818 0.12115 -0.0851454 -0.0264212 -0.0398254 -0.599468 0.225425 0.128989 -0.232124 0.306153 0.211089 -0.0817839 0.0472298 0.0144838 -0.0235954 0.156458 -0.168007 -0.188092 -0.0293019 -0.271736 0.0604958 -0.0356699 -0.106197 -0.165045
817774 -0.00755576 0.00174446 -0.000162369 -0.00539783 -0.00514343 -0.00455551 0.00525696 -0.00624607 0.0031647 0.00338888 0.00736866 -0.00258271 0.000760016 0.00396791 0.00622553 -0.00314226 0.00341001 -0.00605231 -0.00546331 -0.00311296 0.00455702 0.00501231 -0.00146774 -0.0038681 0.00275493 0.00400414 0.00695571 -0.00239489 0.00313928 -0.00665489 0.0060037 -0.00117526 0.00222439 0.000708442 0.00188395 -0.00670893 0.00497323 0.00702508 0.00746754 -0.00708517 -0.00350222 0.00550814 0.00703756 0.00528744 -0.00185465 0.00433635 0.00675962 0.00199245 -0.00138773 -0.00777383 -0.00649918 -0.00335965 0.00260232 0.000322841 0.00253753 -0.00612534 -0.00409778 0.00180389 0.000115831 -0.00174517 0.00664574 -0.00599583 -0.00306512 -0.00299513
149669 -0.0525949 -0.276058 0.316948 0.204343 0.182562 0.520769 0.00391608 0.409385 -0.00289592 -0.0340692 -0.0718172 -0.237115 -0.109167 0.0271316 0.268686 0.0373228 -0.0109694 -0.0876149 -0.270931 0.182417 0.229223 0.176805 -0.260871 0.453448 0.0315717 -0.454637 0.171307 -0.481209 -0.0231288 0.411991 -0.19216 0.277171 -0.234689 -0.200367 -0.256715 -0.00536358 -0.193701 -0.200673 0.0080839 0.0724123 0.180816 -0.126191 -0.0592466 -0.260349 0.27044 0.121855 -0.0932496 -0.50509 -0.56906 0.00108112 -0.14722 -0.186957 0.106785 -0.190919 -0.00929578 -0.0947238 0.00847987 -0.163712 0.0662689 -0.204081 0.477952 -0.14073 -0.112237 -0.327686
7272 -0.194827 -0.265432 -0.129719 0.0572479 0.0686097 0.0720847 0.0215469 -0.119655 0.0698449 0.0786619 0.014819 -0.151962 0.192829 0.0150039 -0.0798735 -0.21102 -0.0702415 0.0978642 -0.245882 -0.0916549 0.00579888 -0.31328 0.0623419 -0.092931 0.188756 -0.0577035 0.0654889 -0.0900672 -0.137191 -0.292955 0.0768781 -0.0436483 -0.0812878 0.00720366 0.151879 0.00893415 0.0480902 0.0332106 -0.00482271 0.17922 0.231425 0.0701883 -0.0396913 -0.0744141 -0.0604166 -0.329074 0.0353561 -0.0864292 -0.124548 0.177363 0.0891248 -0.064979 -0.0551658 0.103497 -0.0162714 0.315124 -0.131161 -0.170529 0.0200502 -0.252122 0.102034 -0.0342022 0.202983 -0.101822
943087 0.0895531 -0.0104877 -0.0344775 -0.0504461 -0.104067 -0.129094 0.1278 -0.0434689 -0.0591927 0.0552243 -0.0077506 -0.0460796 0.0619489 -0.20865 0.0656729 -0.0417332 0.013137 0.0703243 0.117845 0.0812119 0.142251 0.119694 -0.0581731 0.0109259 0.039622 -0.0987203 0.154896 0.0552438 -0.0276413 0.0736689 0.00311659 0.0952467 0.0286289 0.0342371 -0.0537929 -0.129928 -0.0906923 -0.0946812 -0.0714857 -0.00807521 0.0738691 -0.0335959 -0.0565349 -0.0902784 0.0244358 -0.0301822 -0.0423471 0.144187 -0.0298538 0.130591 -0.0401857 0.0441585 0.168498 -0.0739811 0.113756 -0.0711803 -0.0437472 0.114512 -0.0711909 0.0836853 -0.0867216 0.0407005 -0.0995757 0.0810273
31083 -0.0140612 -0.0446227 -0.00454405 -0.0126096 -0.0355387 -0.0304762 -0.00500208 -0.0509811 -0.0345712 0.00821499 -0.0312605 0.00161457 0.0289519 -0.0266226 -0.0242381 0.0165457 -0.0137239 0.0397214 -0.0340589 0.108534 -0.00236965 0.0240444 -0.0302211 -0.000207038 0.0471079 0.0278907 0.0370195 -0.0198709 0.00669641 0.00241779 0.00189836 -0.0459492 0.0627714 0.0164771 -0.0168552 0.0223815 -0.0556385 -0.0708044 0.0280693 -0.00651522 0.0311792 -0.0959396 0.00250002 0.0273447 -0.00536766 -0.00051704 -0.0427233 0.0350933 -0.105701 0.0625107 -0.0354913 -0.0346286 -0.04349 0.0731076 -0.0336488 0.0241381 0.0331806 0.0166797 0.0196237 -0.0232493 -0.0678205 -0.0136546 0.0352497 0.00332083
230884 0.133101 0.233582 0.0935226 -0.169171 -0.122379 -0.222254 -0.109166 0.1959 0.0550427 -0.101387 0.035938 0.134526 -0.138062 -0.0305529 -0.107655 0.107434 -0.0778786 -0.176373 0.189484 -0.0385553 0.0839522 0.368788 -0.0379759 0.172058 -0.186091 0.0808169 -0.203739 -0.0492164 0.0118529 0.282583 -0.140245 0.275122 0.141852 -0.032442 -0.185063 0.0248846 0.0940285 0.00729531 0.00811713 -0.190493 -0.222056 -0.012472 -0.061682 0.0150059 -0.0256458 0.287918 -0.08746 0.0719835 0.0506589 -0.282316 -0.196806 0.181208 0.00460492 -0.160352 -0.0931794 -0.404137 0.101492 0.249096 -0.0105637 0.378538 -0.159674 -0.0284463 -0.0122637 0.108491
12631 0.0458349 -0.320562 0.0719387 -0.0318372 0.124259 -0.0706243 0.0491113 -0.00602764 -0.0175922 -0.0812434 -0.0490514 0.257847 0.0957461 -0.109666 -0.00559156 -0.0585841 -0.0731122 0.120723 -0.0283122 0.0569752 0.0884984 -0.109102 -0.136143 0.18843 -0.147761 0.199401 -0.274928 0.114942 -0.0259627 -0.0123887 0.0422389 -0.0119125 0.0159984 0.0738547 -0.136524 0.274193 0.129744 0.066004 -0.0900339 0.00115117 -0.0100932 0.0689785 0.228245 -0.00872506 0.0716106 0.0596467 -0.189445 -0.233388 -0.136379 0.0436013 0.103276 0.0869781 0.0984326 0.0384418 0.0985483 0.165593 -0.0372789 0.00396615 0.186991 0.152558 -0.0685167 0.0693182 -0.161325 -0.206724
10174 -0.00321033 -0.0497814 -0.0407067 0.0197493 -0.0281773 0.0546083 0.131095 0.139029 -0.082256 0.0422995 -0.0633839 0.0772953 -0.0137772 0.16315 0.101433 -0.0405712 -0.0216263 -0.0167979 0.0122019 0.0683653 -0.108158 -0.101579 -0.0370362 0.0327176 -0.131185 0.0144873 -0.0716265 0.00344864 -0.134615 0.0552354 -0.0760406 0.0937956 -0.0789057 0.00396573 0.0393065 -0.0418721 -0.0756463 -0.0776805 -0.0486671 0.0980974 0.0547492 0.13164 0.0828382 0.0354296 -0.0213988 0.104469 0.0739146 0.0282411 0.00215023 -0.084387 0.0208087 0.042905 -0.0548383 -0.028436 -0.0448902 -0.0811831 -0.0281133 0.00188689 -0.0672638 0.0608478 8.50398e-05 0.0519432 0.075039 -0.0817071
11148 0.00724976 -0.00167441 0.0263814 0.00813134 0.00515524 0.00527896 0.0317276 0.0417471 0.0272028 -0.0273633 0.0334393 0.0118952 0.0262882 -0.0130098 0.00886609 -0.0285821 -0.0304046 0.0189439 -0.0126549 0.0300065 0.013647 -0.0299076 -0.0163346 -0.035524 0.0261525 -0.0558939 0.00177738 -0.0331688 -0.0456995 -0.00756438 0.0262741 0.0149304 0.0254698 0.00399097 0.00394904 0.0350608 0.0161648 0.0289893 -0.00454033 0.00693579 -0.0452087 -0.0109721 -0.0196408 0.0013704 -0.00784402 -0.0230959 0.00791244 -0.00826659 0.00562164 -0.0417036 0.00216076 0.0457808 -0.0597715 0.0417001 1.67591e-05 -0.0332617 -0.00333711 0.0374733 -0.0371336 -0.0396706 -0.0304504 -0.0347962 -0.0529947 -0.0188966
54131 0.0372093 0.090566 0.0645811 -0.27704 0.135081 0.0466793 -0.306275 -0.364242 -0.0726875 0.20577 -0.455587 0.481398 -0.425047 -0.153887 0.158839 0.0378658 -0.152828 -0.0617048 -0.248459 0.0787148 -0.0307975 -0.893052 -0.0744321 -0.341106 -0.485901 -0.33518 -0.172678 0.0190521 0.783543 -0.218409 -0.277467 0.0756497 -0.535431 -0.453793 -0.218602 0.206083 0.486582 0.0519207 0.48566 -0.0901519 0.0502476 0.395587 -0.175108 0.0281354 0.234953 -0.951143 0.383654 0.00106869 -0.583512 0.562021 0.0482128 -0.178873 0.0589269 -0.0480578 -0.209091 0.429429 -0.164067 -0.341745 0.0671455 -0.276346 -0.200772 -0.374088 -0.436381 -0.526276
345340 0.0502987 -0.223257 0.196527 0.22158 -0.0573613 -0.0466532 0.0364077 0.193053 0.260745 -0.107837 0.0818781 -0.12279 -0.234684 0.123049 0.355806 -0.163503 -0.0333321 0.19733 0.0932533 0.0700027 -0.198419 0.536449 -0.223682 0.143997 -0.218485 -0.107312 0.103199 -0.248912 0.00118718 0.148286 -0.326857 0.227769 -0.324415 -0.176449 -0.246306 -0.329257 -0.183821 -0.0321927 0.0865859 0.068863 0.0481375 -0.0906927 0.196341 -0.328113 0.207181 0.565698 0.114553 -0.49703 -0.360189 0.00865121 -0.248574 -0.235081 0.0843291 -0.116105 -0.0445878 -0.0793147 -0.061161 -0.0924464 0.0511256 0.104339 0.233038 -0.0084284 -0.220567 -0.445559
51831 -0.0176697 -0.0362264 -0.0282857 0.0255143 0.0665481 0.0210149 -0.0337075 0.00141548 0.0171913 0.0226475 0.00690598 -0.0253747 0.0619159 -0.0146732 -0.000291098 -0.00629513 0.00628167 0.00182527 -0.0319292 0.0123026 0.0286225 -0.0704469 0.0410046 0.0265724 0.0196833 -0.0692599 0.0414459 -0.0468161 -0.00520653 -0.0373163 0.00865798 0.00730865 0.0982723 -0.0645649 -0.0657062 0.01944 -0.0226681 -0.0347255 0.0350355 -0.0306188 0.0128334 -0.0644193 0.0031926 -0.0443449 0.0228934 -0.0368076 -0.0679396 -0.030395 -0.0731992 0.0287012 0.00462137 -0.022971 -0.0246686 0.0604791 -0.00832723 0.0285461 -0.0470378 -0.0863264 -0.0458879 -0.0867417 -0.0213333 -0.0531085 -0.00528297 -0.0129003
210309 0.135422 -0.0361562 -0.0853422 -0.102147 -0.188096 -0.187606 0.172618 -0.139387 -0.140895 0.0803718 -0.0337294 -0.0717854 0.146686 -0.361443 0.0981956 -0.0807337 0.0420877 0.122664 0.198336 0.213011 0.279699 0.273887 -0.141425 -0.0265954 0.0686884 -0.209649 0.31334 0.0843093 -0.0062127 0.111975 0.0198637 0.155079 0.0668334 0.0883801 -0.125112 -0.268232 -0.161971 -0.217237 -0.0848924 0.0201543 0.16292 -0.0134901 -0.121502 -0.110222 0.0441179 -0.105837 -0.0719416 0.293548 -0.069241 0.2308 -0.0813791 0.0973353 0.301274 -0.161044 0.179055 -0.108583 -0.0390495 0.228525 -0.101139 0.196594 -0.123811 0.055307 -0.191085 0.180451
1115166 0.00669209 -0.0277475 0.00377407 0.0368856 -0.0316514 0.027012 0.00251617 0.115875 -0.0128199 -0.0247619 0.0807222 0.010837 -0.0045702 -0.0125542 -0.0166437 -0.0169667 0.00722345 0.0430415 0.0358189 0.0112986 -0.0171268 0.0658887 -0.0174554 0.0666161 0.0407843 -0.0257057 -0.00808848 0.00693066 -0.117517 0.0602583 0.0335727 0.00822144 0.0145738 0.095063 -0.0125104 -0.0383815 -0.046613 0.0227964 -0.0835873 0.0238926 -0.0302294 0.0224876 0.0334542 0.0443967 -0.053478 0.132086 -0.0311369 -0.011182 0.0672539 -0.0560595 -0.0536626 -0.00870343 0.0192432 0.00121234 -0.00899769 -0.0607864 0.0170416 0.0311019 -0.00178355 0.0858368 -0.0292717 0.0498178 0.0470477 0.0658544
6941 0.106371 0.0283245 -0.151506 0.202124 0.0416217 0.233242 -0.0763794 0.10351 0.18586 0.0486713 -0.0802862 -0.0981046 -0.235674 0.361222 -0.0341952 -0.00930192 -0.124523 0.0125138 -0.187113 -0.0647177 -0.0198384 -0.0651871 -0.0909007 0.261204 -0.224524 -0.163256 0.460585 -0.140884 -0.0416929 0.406105 -0.269406 0.255683 -0.145499 -0.208019 -0.236349 0.211845 -0.251437 -0.0710712 0.392026 0.0921171 0.0228279 0.095788 -0.132135 -0.12678 0.291548 -0.0126172 -0.155296 -0.159962 -0.309669 -0.0352387 -0.118935 -0.0570594 -0.0944432 -0.09157 0.286564 0.126289 0.236806 0.12644 -0.174883 0.0801748 0.061703 -0.142251 0.0462221 0.0141039
1128945 0.011829 0.13922 -0.0540042 -0.182074 0.0935514 0.0257434 0.0599275 -0.0634577 0.0265103 0.0358565 -0.132076 0.0670943 -0.0532393 0.0278651 0.024388 -0.0122592 -0.105857 -0.0105426 0.027828 0.0439829 0.00475284 -0.223839 0.00749949 -0.121065 -0.0979118 0.0274919 0.00708344 0.0343792 0.237768 -0.112995 -0.000289369 -0.0294681 -0.0961567 -0.187082 0.0163985 0.105543 0.148868 0.0101851 0.142069 -0.0217553 0.0641487 0.0725897 -0.0551674 -0.0193121 -0.0162174 -0.359417 0.12528 0.0572768 -0.153724 0.174609 0.106496 -0.0478548 0.0158487 0.0353359 0.0142334 0.0987565 -0.0418052 -0.140234 -0.0345827 -0.184197 0.0475107 -0.0086107 -0.0185053 -0.0987253
11342 0.192488 0.315949 -0.237781 0.0705427 -0.540634 0.180526 -0.034233 0.378974 0.0966615 -0.0155606 0.248333 0.0149952 -0.425074 0.304974 -0.0111645 0.354632 0.0328329 0.621099 0.111744 -0.360626 0.0898669 0.116016 -0.12764 0.0325291 -0.0273502 0.095935 0.209011 0.234329 0.0986769 0.0732169 0.103744 -0.0101751 -0.0097139 0.0445666 -0.325523 0.212139 -0.181492 0.0119049 -0.0219753 -0.10676 -0.0728596 0.0383358 -0.0688361 0.0244984 0.0414577 -0.0939332 -0.0993246 0.0331556 0.00321888 0.397006 0.231969 0.134894 0.321323 0.0405899 0.145548 -0.00800306 0.213053 0.344522 -0.198449 0.238925 0.295057 0.0349913 0.0161327 0.0340258
646195 0.0125005 -0.218816 0.0678279 -0.35468 -0.0127912 -0.00927588 0.125133 0.360821 -0.177491 0.0244571 -0.0553429 -0.00188324 -0.0826476 0.0931371 0.187916 -0.130884 -0.0453028 0.242748 0.00260946 -0.0473242 0.423124 -0.194068 0.20693 0.0506386 -0.339402 -0.162764 -0.272948 -0.172251 -0.0629681 0.0161957 0.056999 0.0350225 -0.0844474 -0.00528532 0.0205391 0.0435296 0.0106039 -0.103884 0.192521 0.105767 0.267576 -0.257642 0.24984 -0.0378233 -0.163525 -0.228529 -0.331429 0.02694 -0.1811 -0.0582333 0.179883 -0.213939 -0.106047 0.0470814 -0.360305 -0.0139066 0.229529 0.0244884 -0.236051 -0.0289465 0.0693931 -0.263702 0.00464722 -0.0546042
17821 -0.00485967 -0.00341416 0.000629606 -0.00326331 0.000487547 0.00442303 -0.00476659 2.62355e-05 0.00106033 0.00743771 0.00677514 0.000247075 0.00158604 -0.00376716 -0.0046717 -0.00543294 -0.00294515 8.15952e-05 9.08497e-05 0.00340091 0.00284332 -0.00393326 0.000243516 0.000225039 0.00341423 0.00731409 0.00565715 0.00534489 0.00693976 0.001376 0.0032956 0.0029684 -0.00122923 0.00375432 0.00073358 -0.00399393 0.00472671 -0.000165944 -0.00057823 0.0029051 0.0022686 -0.00686469 0.00599276 -0.00764015 0.0063586 -0.0011121 -0.00728028 0.00248247 -0.00111448 -0.000254989 -0.00647797 -0.00359703 0.000152985 -0.0016117 -0.00764992 0.00432974 -0.00394724 0.00385785 -0.00513823 0.00554991 0.0051691 0.00304194 -0.00287855 0.00146879
309476 0.0441495 0.207542 -0.183092 -0.0914731 -0.278698 0.00102399 0.368512 0.25972 0.0782231 -0.155445 0.12482 -0.0653011 -0.133692 0.0387271 0.0821656 0.0885098 0.0546849 0.20499 0.170418 -0.215037 0.191691 0.183991 0.0528734 0.165305 0.297292 -0.057996 0.0918294 0.0264562 -0.12219 0.0353099 0.086505 -0.0253955 -0.0210884 -0.0405828 -0.0150684 -0.0368353 -0.0219886 -0.295791 -0.15139 -0.0805392 0.183162 -0.0585228 0.0666503 -0.215096 -0.00547666 -0.0528369 -0.223428 0.0949638 0.263206 0.238011 0.276423 0.331252 0.404091 -0.175578 0.153082 -0.0268481 -0.0890002 0.158915 -0.128148 0.0340202 0.165703 0.112836 -0.177238 0.196872
153063 -0.276472 0.0379676 0.107466 -0.0924586 -0.249929 0.0521174 0.0966363 -0.227437 -0.0987666 0.0349154 0.0959071 -0.140529 -0.151782 0.285736 0.218217 -0.12151 0.310515 -0.378899 0.0509951 -0.0569877 -0.107258 -0.278909 -0.265812 -0.34443 -0.117779 0.0986856 -0.0335912 0.553215 0.299373 -0.123521 0.00425611 0.440242 0.0170043 -0.126811 -0.242021 -0.0590498 -0.218861 0.218448 -0.0494126 0.00359407 -0.259883 -0.127894 0.0886144 0.0755813 -0.0800326 0.194996 0.074661 0.0133617 -0.0154868 0.195329 0.0752214 0.201347 0.167009 0.102566 0.0418445 0.0824963 0.112926 0.179694 0.0835223 0.0768442 -0.606209 0.308139 0.0179154 -0.0607991
