2708 64
28504 -0.382969 0.090029 0.0455028 0.655946 -0.385967 -0.697975 -0.0082463 0.175715 0.0482414 -0.415546 0.393244 0.0554663 0.231684 -0.287795 0.560534 0.430236 0.593237 -0.620555 0.0938722 0.216285 -0.0208047 -0.756349 0.33368 -0.304813 -0.485128 0.3768 0.0356447 0.242265 0.267043 -0.0652969 -0.140763 -0.41382 0.226623 -0.442632 -0.0542301 -0.0171497 0.314115 0.258892 -0.581303 0.000548742 -0.0839767 0.0275072 -0.068909 0.635328 0.00576429 -0.399835 0.84748 0.0389899 -0.150604 0.219488 -0.301249 -0.275035 -0.0401311 0.103426 0.0221747 0.0171671 -0.069472 -0.232652 -0.421601 0.763876 -0.211946 -0.0196811 0.0476279 -0.0669363
445938 0.150007 0.193635 -0.0498003 0.355568 -0.0697098 -0.0769279 -0.222483 -0.0324357 -0.00695013 -0.0371674 0.248773 0.0788649 0.266579 -0.40738 0.610303 -0.111878 0.362985 -0.227883 0.0047959 -0.0597931 0.0950532 -0.287118 0.571254 -0.690754 -0.625947 0.331226 -0.237508 0.178199 -0.13588 0.074229 -0.119118 -0.192095 0.0800733 -0.330838 0.213893 0.500864 0.481984 0.160481 -0.332328 -0.126108 -0.212892 -0.300725 -0.259521 0.432122 0.356094 -0.343591 0.431838 -0.13645 -0.0337264 0.131803 -0.314099 -0.282444 -0.0913525 0.0680496 -0.255313 -0.33952 -0.0541851 -0.10425 -0.0193351 0.53651 -0.249893 0.114705 -0.186752 0.14269
6385 -0.537108 -0.248422 -0.291115 0.697973 -0.41925 -0.490571 -0.0705097 0.327001 -0.053801 0.10246 0.324862 -0.136061 0.618226 -0.23598 0.477595 -0.0140651 0.121598 -0.435801 0.329609 0.286659 -0.32372 -0.490229 0.0572462 -0.382196 -0.581178 0.665519 -0.0184713 0.161669 0.452182 0.0171008 -0.0737643 -0.175176 0.0304858 -0.219624 -0.0300402 -0.342513 0.423344 0.121583 -0.402513 -0.0978103 -0.611558 -0.299166 0.0625798 0.32682 0.149414 -0.0760379 0.551231 -0.497009 -0.216531 0.192716 -0.183622 0.236108 -0.434192 0.0828318 -0.0765064 -0.0613612 0.0454627 -0.176899 -0.38613 0.598164 -0.157839 0.376147 -0.145128 -0.173243
318187 0.221294 -0.165245 -0.321216 -0.0632119 -0.118407 -0.00482121 -0.324725 -0.422432 0.0452347 0.0917032 0.51682 -0.26335 0.0676673 -0.172021 0.386001 0.384302 -0.0733706 -0.317432 0.253155 -0.179229 -0.0691871 -0.0879619 0.352784 -0.120907 -0.516248 0.122125 0.50687 0.350236 -0.237416 0.164809 -0.288959 0.237201 -0.140787 -0.386131 -0.264863 0.177816 0.0628879 0.0615931 -0.305764 -0.0425055 -0.00143686 -0.385356 -0.242312 0.204234 -0.124329 0.0307969 0.492081 0.397308 -0.069203 0.109251 0.00894301 -0.179858 -0.257531 0.0241294 0.0821255 -0.332816 -0.118881 -0.0634365 -0.0103483 0.488168 -0.140249 -0.324477 -0.108062 -0.0112763
164885 -0.51879 0.0998677 -0.0497596 0.0509151 -0.337703 -0.229466 -0.214907 0.241157 -0.161404 0.467466 0.079109 0.0451305 0.227773 0.118533 0.116523 0.432694 0.640013 -0.216478 -0.277149 -0.501389 -0.155372 -0.17112 -0.0962421 -0.11816 -0.444439 0.468432 0.145535 0.377731 0.210541 0.144114 -0.266671 -0.220667 -0.239913 0.0594366 0.0850536 -0.160939 0.267559 -0.209161 -0.131675 0.198578 0.0764169 -0.395989 -0.0990832 0.200721 -0.0950973 0.0273023 -0.0954125 -0.300669 -0.170703 -0.153617 -0.23753 -0.095453 -0.258166 0.0981055 -0.0084222 -0.101444 -0.0438275 -0.0748856 -0.16796 0.214075 -0.0318894 0.233169 0.50696 -0.429452
1122460 -0.338042 -0.00260431 -0.0220963 -0.016786 0.0320322 -0.558664 -0.0666263 -0.107711 -0.105676 -0.0786899 0.454696 0.177414 0.0257594 0.00879683 -0.102511 -0.0239462 0.0610479 -0.268953 0.323686 -0.111903 0.0457882 -0.326288 0.0128771 -0.336157 -0.362975 0.20548 -0.296367 -0.197552 0.181688 0.347811 -0.221933 0.0503025 0.139371 -0.353932 -0.00110873 0.791915 0.32065 0.087565 -0.334113 0.0343238 -0.565765 -0.301096 -0.085336 0.149687 0.303358 -0.165132 0.00929829 0.16538 0.347333 0.214364 -0.0677882 -0.16185 0.148456 -0.148336 -0.0387063 -0.0888174 -0.207682 -0.116325 0.421621 0.137898 -0.0179863 0.262335 -0.0757424 0.0591815
20534 -0.11077 -0.258748 -0.38459 0.499528 -0.390559 -0.603412 -0.550089 0.601678 -0.240736 -0.0595531 0.188258 -0.410782 0.782093 -0.0458698 0.327041 -0.0533754 -0.125816 -0.571892 0.428344 0.268579 -0.473203 -0.654782 0.0178108 -0.111921 -0.792782 0.301574 0.0429289 0.351046 0.62378 0.236971 -0.116512 -0.131328 0.111853 -0.234719 -0.207293 -0.0823954 0.449522 -0.109044 -0.24481 -0.0046564 -0.390219 -0.399304 0.403625 0.0179983 0.366591 0.00902273 0.841343 -0.423166 -0.0333358 -0.0674472 -0.303758 0.157982 -0.43377 -0.365274 -0.019896 -0.0288325 -0.147151 -0.397726 -0.362422 0.274408 -0.132823 0.513757 -0.317022 -0.0600739
62329 -0.515405 -0.159251 -0.178418 0.0955085 -0.640041 -0.248378 -0.576582 -0.0983486 -0.0178381 0.361271 0.458653 0.185624 0.429778 -0.40823 0.11694 0.0957558 0.816828 -0.468657 -0.232906 -0.631762 -0.08231 -0.298233 0.152081 0.265356 -0.638837 0.943247 0.227276 0.284809 0.228264 0.356723 0.272657 -0.247384 0.0490278 -0.338814 0.166053 0.0717417 0.503549 0.141056 -0.325748 0.606058 -0.113489 -0.581131 -0.151354 0.384818 -0.0849641 -0.127114 -0.0392414 -0.465231 0.0420511 -0.178566 -0.506064 0.465018 -0.138705 0.0825499 -0.106149 -0.257186 0.232917 -0.0965041 -0.318786 0.576667 0.224726 0.55989 0.297626 -0.301996
591016 0.0807388 -0.208553 -0.31293 0.202744 -0.264159 -0.0506566 -0.256829 -0.101816 0.0713171 0.13114 0.347925 -0.11582 0.177991 0.0124853 0.38361 0.196732 0.0238572 -0.395645 0.262224 -0.147449 0.000592688 -0.220179 -0.0215862 -0.0955962 -0.216673 0.221803 0.242242 0.413702 0.0723941 0.221147 -0.0208197 0.166691 0.0242084 -0.396724 -0.0644266 0.12632 0.211286 -0.0244068 -0.29804 -0.0148895 -0.140151 -0.334486 -0.241229 0.152618 -0.051884 -0.132307 0.377731 0.047698 -0.122119 0.234227 -0.313432 -0.0222352 -0.43472 -0.000835674 0.110557 -0.44008 -0.0320478 -0.21449 -0.136498 0.484209 0.0165416 0.11158 -0.180802 0.0273361
341188 -0.398111 -0.258126 -0.349834 0.670967 -0.581753 -0.550889 -0.15975 0.351261 -0.256091 0.018491 0.339077 -0.0739027 0.621886 -0.188646 0.506515 -0.237316 0.00146121 -0.207285 0.442005 0.398665 -0.328026 -0.454178 -0.0203056 -0.257376 -0.509803 0.491812 -0.033964 0.209846 0.329367 0.070697 0.0509219 0.0513701 0.0406508 -0.228913 -0.189615 -0.110655 0.404701 0.0845073 -0.223197 0.0734226 -0.553333 -0.233855 0.331655 0.337025 0.273352 -0.184504 0.86323 -0.442104 -0.150306 0.0943879 -0.138107 0.0729392 -0.223043 -0.105197 -0.172816 -0.120946 0.101531 -0.200195 -0.291841 0.51427 -0.098946 0.385987 -0.199657 0.0431749
6814 0.0819626 0.229755 -0.143116 0.396066 -0.0650797 -0.201934 -0.303561 -0.079499 -0.0127758 -0.1309 0.22995 0.215011 0.198053 -0.39288 0.625342 -0.111755 0.490771 -0.340212 -0.128469 -0.10459 0.257413 -0.42177 0.694503 -0.792816 -0.788049 0.390185 -0.254241 0.0153387 -0.195254 0.173059 -0.271014 -0.24216 0.169243 -0.413836 0.270361 0.687164 0.638808 0.0852498 -0.396836 -0.252209 -0.360266 -0.24531 -0.416092 0.484311 0.397316 -0.423767 0.606464 -0.139116 0.197867 0.100952 -0.35783 -0.29302 0.00186311 -0.0248888 -0.246743 -0.203623 -0.0746113 -0.1725 0.0590341 0.604041 -0.335832 0.180784 -0.122362 0.144362
167670 0.0481318 -0.264752 0.00935329 0.163442 -0.235436 -0.450678 -0.23349 -0.127687 -0.00641205 0.288181 0.526882 -0.313698 0.585468 0.0875344 0.452243 0.23239 0.145099 -0.43201 0.239403 -0.461397 -0.121068 -0.558998 0.0415541 -0.234355 -0.492732 0.380113 0.281957 0.551772 0.12536 0.300323 -0.522297 -0.191844 -0.22093 -0.604264 -0.139518 0.428291 0.18017 -0.0650515 -0.305909 -0.0025181 -0.104048 -0.779501 -0.284181 0.144833 0.169564 0.034941 0.270588 0.07701 -0.0846547 0.337972 -0.329282 0.0711605 -0.540743 0.265968 0.329692 -0.485416 0.0588576 -0.407264 0.0220831 0.764137 0.12244 0.0767394 -0.165154 -0.291236
299195 -0.23688 -0.146028 -0.138585 0.280004 -0.224578 -0.281636 -0.125951 0.16844 -0.0874828 0.0653022 0.201702 -0.0704522 0.31513 -0.112658 0.243013 -0.0139844 0.0406214 -0.238874 0.176532 0.0670546 -0.181925 -0.267492 0.0167942 -0.0389177 -0.318427 0.324968 -0.00131565 0.243929 0.243474 0.112633 -0.0424796 -0.0684985 -0.00159401 -0.139877 -0.0506051 -0.175544 0.203033 -0.00169573 -0.18936 0.117768 -0.212526 -0.210953 0.144895 0.124161 0.136273 -0.068358 0.392349 -0.2396 0.00971493 0.0252914 -0.126282 0.0613728 -0.191108 -0.036155 0.0138664 0.0130375 0.0271766 -0.118395 -0.25205 0.30996 -0.0365435 0.257157 -0.0433415 -0.0112685
1128267 -0.166512 -0.147465 -0.113559 0.241313 -0.196094 -0.251232 -0.103451 0.163809 -0.0546315 0.0355693 0.180378 -0.0443318 0.261107 -0.0765941 0.22193 -0.00818409 0.024515 -0.211774 0.16496 0.097371 -0.122803 -0.231915 0.0197657 -0.0471254 -0.261297 0.269085 -0.0184899 0.169877 0.224567 0.0847596 -0.0487184 -0.060309 -0.00758836 -0.141917 -0.0645013 -0.107482 0.18015 0.0181332 -0.167829 0.0672214 -0.202145 -0.170087 0.101039 0.0868381 0.127514 -0.042457 0.371979 -0.230716 -0.00177126 0.0142816 -0.125014 0.064379 -0.177982 -0.0523857 0.0136123 0.00320589 0.0175675 -0.100553 -0.220416 0.249476 -0.0288128 0.214428 -0.0605627 0.0207723
233106 0.0269412 0.174335 -0.248713 0.212252 -0.108958 -0.171464 -0.0246915 0.058254 0.624018 0.300725 -0.225977 0.366421 0.28733 -0.0148962 0.449875 -0.298708 0.218749 0.339252 0.305864 -0.215322 -0.481653 -0.161308 0.0158611 -0.349356 -0.257806 0.0877004 0.0891033 -0.106662 -0.206747 -0.122105 -0.564403 -0.154592 0.433099 -0.357248 0.0289766 0.556151 0.557472 -0.0721674 0.0922497 -0.108312 0.0398477 0.294085 -0.0656269 0.0758262 0.212235 -0.930455 0.161527 0.110039 0.346637 0.0284323 0.0719766 -0.180942 0.321085 0.12327 -0.00119936 0.0807062 -0.400098 0.157874 0.119277 0.360034 -0.460149 0.291735 -0.56344 -0.00884359
853150 -0.149916 0.0660538 -4.56068e-05 0.201353 -0.274039 -0.329485 -0.117432 0.00400673 -0.010103 -0.0370915 0.0747363 -0.0304125 0.114196 -0.0676491 -0.13004 -0.019899 -0.0354915 -0.185182 0.175467 0.11914 -0.22538 0.100771 0.0829606 -0.157711 -0.182213 0.0937177 -0.0683809 0.13201 0.0431742 0.0214899 -0.00431248 0.135126 0.126171 -0.322768 0.0327769 0.307483 0.220059 0.0115713 -0.0388482 -0.00562177 -0.0970232 -0.172617 0.0111303 0.18551 0.332096 -0.165236 0.159144 0.0745338 -0.0206196 0.0158739 -0.127408 -0.034753 -0.0245192 0.281381 -0.0160651 -0.0392289 -0.0724525 -0.140556 0.087444 0.262326 -0.0976166 0.33011 -0.139351 0.153441
1136814 -0.350159 0.0621984 -0.0193754 0.073549 -0.0984458 -0.0884501 -0.121425 0.073672 -0.110351 0.204451 0.191893 -0.0301925 0.197351 -0.0536927 -0.0609873 0.0774686 0.276964 -0.158006 -0.070364 -0.273334 -0.0487422 -0.173778 0.00609889 -0.0326141 -0.213714 0.360936 0.00811434 0.275383 0.112101 0.148159 -0.113825 -0.237921 -0.136224 0.0236964 0.0528825 -0.290053 0.0567223 -0.0452484 -0.105219 0.1305 0.0661237 -0.241053 -0.0642028 -3.10101e-05 -0.0421608 -0.0306041 -0.015275 -0.12172 0.057601 -0.0758751 -0.212441 0.120499 -0.220762 0.0928655 0.0235074 -0.0697799 0.0234317 -0.0202622 -0.156763 0.216761 0.00812467 0.116114 0.102134 -0.146146
1110998 -0.182813 0.0318297 0.000734122 0.197289 -0.243466 -0.345853 -0.134155 -0.0485465 -0.0172822 -0.0241863 0.142066 0.00583251 0.178356 -0.0801498 -0.125803 0.010549 0.0433843 -0.214606 0.176622 0.112897 -0.201833 0.0544471 0.0993544 -0.176791 -0.235968 0.099742 -0.0641771 0.16017 0.0432124 0.0295674 -0.00919713 0.09354 0.147728 -0.327556 0.0379079 0.310376 0.239779 0.0162657 -0.0653869 0.0265216 -0.0966679 -0.192027 -0.0246458 0.206914 0.309757 -0.190828 0.205614 0.0670832 -0.00975008 0.0210786 -0.179312 -0.0221875 -0.0965854 0.274928 -0.0375572 -0.106945 -0.00839685 -0.13664 0.0881042 0.314507 -0.0973269 0.316261 -0.116454 0.115402
25794 0.0824405 -0.134078 -0.408884 0.144162 -0.151135 0.092949 -0.104593 -0.286263 0.2151 0.0554133 0.603594 -0.113343 0.183013 -0.103128 0.435314 0.258372 -0.117204 -0.62138 0.134365 -0.235749 -0.0801806 -0.224917 -0.00535459 -0.112819 -0.299897 0.0944702 0.329733 0.460174 0.0164546 0.333218 -0.0555201 0.24262 0.0435379 -0.588715 0.0660887 0.252099 0.298769 -0.180902 -0.411362 -0.0823098 0.0788516 -0.434798 -0.532999 0.239363 0.0420932 -0.189643 0.384394 0.184394 -0.0440293 0.195532 -0.393173 -0.152468 -0.293045 0.058907 0.108124 -0.634231 -0.0211472 -0.256106 -0.0788031 0.47993 -0.0436352 0.130093 -0.116839 -0.104898
293285 -0.130627 -0.15204 -0.14428 0.214738 -0.246434 -0.296443 -0.0765039 0.0985909 -0.11145 0.125487 0.244817 -0.0491679 0.263946 -0.053736 0.27381 0.0262651 -0.00915504 -0.212232 0.218599 0.0702725 -0.0884824 -0.248987 -0.0265883 -0.136832 -0.237403 0.324611 0.030841 0.26756 0.185135 0.10782 -0.0384647 0.0709635 0.0577338 -0.250952 -0.0817981 0.0229808 0.195966 0.0215337 -0.230809 0.0878495 -0.231358 -0.24975 0.0168197 0.193276 0.133296 -0.0973358 0.395182 -0.110533 -0.0789815 0.0855308 -0.21094 -0.00866162 -0.228143 -0.0579297 0.00514653 -0.183567 -0.0122402 -0.111447 -0.194574 0.31702 -0.0328623 0.215367 -0.14943 0.0322882
1120786 -0.0276041 0.00240168 0.0892762 0.132671 -0.0213793 -0.450333 -0.103123 -0.204599 0.00161905 -0.0819029 0.302649 0.334463 0.394239 -0.0467859 -0.0534142 0.0484922 0.298769 -0.399609 0.160563 -0.0171701 -0.19565 -0.0683438 0.0688867 -0.352295 -0.376804 0.00981866 -0.180687 0.194605 0.228794 0.179738 -0.180419 -0.0309667 0.150398 -0.352775 -0.0419811 0.54613 0.433533 0.248552 -0.20102 0.0431942 -0.248387 -0.156035 -0.0584705 0.112607 0.223101 -0.293464 0.485422 0.0083139 0.241527 0.224969 -0.181568 -0.218436 -0.305453 0.246561 -0.248314 -0.364175 0.237415 -0.0369735 -0.0376844 0.475771 -0.000885966 0.26772 -0.108988 0.0248186
1107861 -0.00146709 -0.277962 -0.105984 0.151046 0.138149 -0.405536 -0.224398 -0.210257 -0.299114 -0.020668 0.39232 -0.267879 0.374506 -0.0112196 0.367083 0.225708 0.262513 -0.34078 0.341399 -0.203058 -0.240134 -0.350114 0.172121 -0.225334 -0.724788 0.299251 0.222471 0.476452 0.186817 0.34956 -0.35439 -0.198233 0.0993875 -0.481412 -0.22513 0.322998 0.174894 -0.0991684 -0.0421036 0.0120523 -0.112788 -0.427968 -0.231883 0.335945 0.145158 -0.0733359 0.401765 -0.041409 -0.196378 0.244454 -0.35491 0.00579948 -0.36751 0.0920511 0.226232 -0.557651 0.018926 -0.447249 -0.148549 0.623938 0.161097 0.0554775 -0.119293 -0.134969
300806 0.0449316 0.0628526 -0.078794 0.533512 -0.00495091 -0.415618 -0.0828053 0.0886619 -0.213219 -0.255757 0.224967 0.376524 0.286658 -0.32222 0.237084 0.0083297 0.445382 -0.429892 -0.0227456 0.0378807 0.17578 -0.473173 0.443906 -0.482397 -0.514686 0.45532 -0.0209322 -0.0474495 -0.174741 0.148233 -0.291139 -0.411537 0.307971 -0.704379 0.0515288 0.655181 0.608271 0.148739 -0.456816 -0.124145 -0.329197 -0.275674 -0.609018 0.391396 0.485279 -0.495977 0.446494 -0.007936 0.248277 -0.0333671 -0.418053 -0.25937 0.171226 0.0649521 0.0422868 -0.0507149 -0.157229 -0.255011 0.166182 0.589118 -0.304937 0.519281 -0.210649 0.0201077
103528 0.0317653 -0.117627 0.489715 0.0354119 0.371798 -0.238061 -0.369755 -0.15702 -0.0620152 0.0546129 -0.044366 -0.596615 0.500837 -0.322133 0.296544 0.545444 -0.337539 -0.698942 0.444534 -0.0140577 -0.27172 0.0681075 0.043136 -0.0562334 -0.868108 -0.0103335 -0.0737223 0.296155 0.459245 0.27372 0.27007 -0.117828 0.0902335 0.139747 -0.150674 0.143683 -0.116308 0.158192 -0.0964137 0.394487 -0.222574 -0.773063 0.350271 0.0142387 -0.28175 0.0531413 0.589492 -0.486255 0.124418 0.116986 -0.00888655 0.0377843 -0.189597 0.180258 0.144624 -0.313287 -0.115775 0.162527 -0.0338413 0.200676 0.216687 0.231629 0.330392 -0.0244865
35854 0.257888 0.0091673 -0.161079 0.308524 -0.248051 -0.266608 0.117248 0.187787 0.277119 0.0679581 0.147106 -0.505719 0.445953 -0.261091 0.242677 0.770664 0.0751046 -0.374477 0.170953 -0.351032 -0.0461615 -0.10836 -0.175145 -0.0886361 0.253762 0.147669 -0.0775994 0.595626 0.045573 0.2261 0.0127272 -0.338144 0.144797 -0.265976 0.105481 0.373246 0.341805 0.240925 -0.222779 0.0376119 -0.174927 -0.201323 0.19313 0.112042 -0.353203 -0.267169 0.0367136 -0.0520521 -0.195116 0.456997 0.061627 0.279116 -0.131327 0.3461 0.447526 -0.136413 -0.0623438 0.148183 0.138523 0.636387 0.0757916 0.201037 -0.11969 -0.0700648
22241 -0.614305 -0.14357 -0.01909 0.111585 -0.302115 -0.0598394 -0.147394 -0.00940379 -0.104582 0.209434 0.300806 -0.146348 0.160667 -0.319545 0.0270835 -0.0287069 0.563743 -0.442538 -0.0791746 -0.562822 -0.230072 -0.255912 0.054805 0.170505 -0.271075 0.797875 0.0784039 0.427627 0.0313671 0.398559 -0.0676849 -0.402332 -0.0649674 -0.0358715 0.100728 -0.212068 0.188656 -0.00576414 -0.215235 0.230713 -0.0752474 -0.306564 -0.0238194 0.241426 -0.264295 -0.11673 0.0220796 -0.42264 0.0425586 -0.100772 -0.237529 0.121019 -0.25123 -0.017588 0.0345679 -0.0683658 0.0376976 -0.192564 -0.337911 0.354522 0.160778 0.370204 0.197758 -0.203458
1124844 -0.245134 0.111983 0.0244216 0.337177 0.103361 -0.637341 -0.198501 -0.00278494 0.134187 0.116068 0.445134 -0.0618955 0.175528 -0.279015 0.130117 0.199901 -0.239728 -0.280137 0.086374 -0.184367 -0.0613915 -0.402398 0.189269 -0.170493 -0.377495 0.108852 0.169613 -0.0151766 -0.153329 0.154083 -0.0658378 -0.127667 0.0178476 -0.178744 -0.113905 0.15211 0.361663 0.248238 -0.183436 -0.010494 -0.197382 -0.487133 -0.342495 0.0663328 0.284438 -0.154809 -0.306144 0.0604664 -0.111839 -0.193897 0.0153927 -0.300284 0.25283 0.426573 -0.0625314 -0.267506 -0.133579 -0.354759 0.21806 0.240764 0.045185 -0.181856 0.186448 -0.267759
1131192 -0.372364 -0.0847081 0.142573 0.217506 0.226456 -0.251889 -0.173182 -0.332156 -0.142327 -0.125934 -0.165963 0.287825 0.0513538 0.0203682 0.220092 -0.0527541 0.304279 -0.306708 0.159298 -0.0407858 0.282385 0.114081 -0.176391 0.354295 0.0871994 -0.368321 0.0388634 -0.358626 0.329298 0.116807 0.152146 0.0291601 0.0110985 -0.0202702 -0.054582 0.0279505 0.189028 -0.194413 -0.221489 -0.201764 0.428017 0.198955 -0.413371 0.413498 0.0354676 -0.0865795 -0.142847 -0.133138 -0.073325 -0.556383 -0.229036 -0.150879 0.00335038 0.139887 0.0602175 -0.451034 0.258424 0.399633 -0.144135 0.032828 0.237088 0.426311 -0.0344505 0.569651
1103016 -0.228173 -0.102423 0.0819741 0.33615 0.649637 -0.0819655 -0.183929 -0.156386 -0.152403 -0.264551 0.0723146 0.341862 0.197454 -0.0362781 0.205085 0.0912051 0.309621 -0.25261 -0.112852 0.0647826 0.402132 -0.114252 -0.3039 0.491794 0.12523 -0.418706 0.207099 -0.69689 0.260441 -0.12726 0.185865 -0.0277668 -0.0378416 -0.136104 -0.0734803 -0.313712 0.0539619 -0.432332 -0.191654 0.1231 0.444083 0.126647 -0.624744 0.534966 0.194352 -0.327184 0.174666 0.059398 -0.153733 -0.604138 -0.305857 -0.116208 0.393562 0.0947046 -0.0461748 -0.431196 0.121626 0.356924 -0.255033 0.0541505 0.126892 0.429505 -0.332454 0.73673
1131828 -0.151027 -0.0322017 0.53465 0.0153087 0.390557 0.0815829 -0.201956 0.0159787 0.112658 0.154618 -0.1346 -0.339811 0.415712 -0.240706 0.225742 0.628571 -0.05375 -0.529627 0.29127 0.0442219 -0.245066 0.0668664 0.007242 0.0457518 -0.635367 -0.0936757 -0.08206 0.141139 0.272305 0.208134 0.478005 -0.243643 0.0852167 0.21259 -0.0305554 0.194277 -0.291755 -0.0838235 -0.0596206 0.20881 -0.199245 -0.478706 0.229185 0.156976 0.00196581 -0.277937 0.283114 -0.387889 0.154565 -0.105509 0.203421 0.0927114 0.0922159 0.172688 -0.0189571 -0.022176 -0.00494992 0.205985 0.158323 0.0373706 0.102994 0.0487379 0.278122 -0.0484502
1152272 -0.239719 0.104532 0.0591809 0.38674 0.0838315 -0.608664 -0.137828 0.0318385 0.060378 0.0356572 0.473479 0.0660083 0.191125 -0.265297 0.144626 0.125617 -0.129488 -0.301724 0.0630287 -0.191762 -0.0289357 -0.430476 0.208495 -0.251081 -0.487129 0.191824 0.105069 0.0273671 -0.163943 0.183998 -0.117459 -0.184396 0.0892789 -0.334755 -0.0240074 0.370683 0.43101 0.238955 -0.241509 -0.0656769 -0.230238 -0.485195 -0.290699 0.142046 0.338056 -0.24767 -0.163762 0.0607083 -0.00963299 -0.119268 -0.0829319 -0.285984 0.194202 0.332082 -0.0380708 -0.211191 -0.169141 -0.314583 0.241813 0.28567 -0.0300136 0.0455032 0.0875099 -0.156859
409255 -0.0917227 0.138906 0.0146453 -0.110869 0.29785 -0.248582 0.00921383 -0.289065 -0.0814412 -0.012141 0.251789 0.171019 0.231475 -0.152929 0.0648411 0.229235 -0.43429 -0.28611 0.219458 -0.54996 -0.272649 -0.503092 0.103198 -0.232378 -0.237631 0.34488 0.148752 -0.255953 0.401081 0.0582687 -0.091736 -0.192336 0.237724 -0.0399598 -0.642034 0.0892326 0.209297 0.246575 -0.0818016 -0.151047 -0.11637 -0.0715908 0.0428385 0.286644 -0.0361209 0.0565697 0.123007 0.257098 0.461723 -0.168454 0.111493 -0.134632 -0.242027 0.057907 -0.112288 -0.269678 0.189163 0.123619 -0.267622 0.53971 -0.18613 -0.146639 0.142168 0.228087
1119742 -0.565168 0.0618093 0.0523379 0.186129 -0.254885 -0.316707 -0.107122 0.222458 -0.241291 0.131725 0.102107 -0.312198 0.158471 -0.431839 0.190632 0.132174 0.284073 0.0130368 0.326208 -0.213166 0.0407061 -0.443661 -0.0239417 -0.381867 -0.363995 0.399141 0.226664 -0.0766312 -0.0480162 0.378712 -0.291579 -0.439067 -0.0100019 0.0746339 -0.0448352 -0.209564 -0.0288194 -0.213434 -0.336161 0.105857 0.310362 -0.332228 -0.119908 0.00199605 -0.172558 -0.172623 0.278788 -0.165762 -0.215495 0.111848 -0.321211 0.243122 -0.197746 0.0786155 0.0964076 -0.0902011 0.048949 0.077001 -0.330597 0.324025 -0.338233 0.385074 0.152423 -0.203591
49660 -0.0419322 -0.339831 -0.138847 0.197894 -0.293646 -0.316693 -0.163142 0.0220635 0.0396699 0.098264 0.367014 -0.279888 0.307507 0.0456682 0.277611 0.131251 -0.0528081 -0.305099 0.255037 -0.274593 -0.0718379 -0.361828 -0.0462163 -0.271684 -0.242208 0.505795 0.202273 0.494676 0.0660031 0.136484 -0.389283 -0.234924 0.0805275 -0.600086 -0.153795 0.367613 0.172098 -0.108624 -0.319332 -0.119227 -0.111952 -0.521424 -0.185278 0.200029 0.139134 -0.0526704 0.322756 -0.0543788 0.0069035 0.349403 -0.301593 0.156356 -0.517001 0.149602 0.290327 -0.352432 0.0412372 -0.148511 0.0569825 0.480229 0.14137 0.171699 -0.117651 -0.246036
28227 -0.254116 -0.191015 -0.15303 0.373444 -0.303462 -0.326571 -0.128802 0.204554 -0.110352 0.0220094 0.254358 -0.0391575 0.376454 -0.137993 0.342992 -0.0987526 0.00234795 -0.200495 0.274644 0.187146 -0.134074 -0.33475 0.00943237 -0.106071 -0.34971 0.357559 -0.000120617 0.167518 0.229303 0.0828812 2.05737e-06 -0.0371593 0.00666653 -0.140797 -0.15897 -0.112794 0.223999 0.0214468 -0.152439 0.123321 -0.302765 -0.187701 0.239291 0.16507 0.130765 -0.0775591 0.585509 -0.308559 0.00356805 0.0501064 -0.184168 0.0182514 -0.189432 -0.0910242 -0.0361586 -0.0426045 0.0585875 -0.12244 -0.281242 0.330185 -0.0541174 0.263417 -0.120862 0.0078846
6130 -0.396301 -0.143275 0.000922922 0.345238 -0.0502278 -0.668713 -0.181075 -0.0340733 -0.0716359 -0.0703148 0.564813 0.339043 0.133629 0.219441 0.102916 0.0722892 0.181109 -0.265908 0.393057 -0.125509 -0.0847043 -0.130023 0.225665 -0.490549 -0.69336 0.493802 -0.23206 0.0314316 0.183913 0.330673 -0.318962 -0.0336796 0.356808 -0.580582 -0.159013 0.804574 0.469015 0.449937 -0.532161 -0.101154 -0.338637 -0.334286 -0.0103264 0.27493 0.527608 -0.594684 0.41301 -0.260021 0.566008 0.240279 -0.60546 -0.0149998 -0.201398 0.00786647 -0.180641 -0.183467 -0.119932 -0.050417 0.0315689 0.209729 -0.0856156 0.470784 -0.0129764 0.0636072
1153024 0.105017 -0.124705 -0.433386 0.392291 0.0104666 0.184919 0.131098 -0.143117 -0.297507 0.294089 -0.288603 0.372261 0.111665 0.000862391 0.110514 -0.162714 -0.349141 -0.0458482 -0.0745451 0.101318 -0.313967 0.117012 0.0755824 0.380752 -0.383475 0.0766642 0.296718 0.261453 -0.201749 0.151231 0.164281 -0.0776648 0.431175 -0.20675 0.387147 0.170334 -0.158716 -0.263471 0.0692015 0.663599 -0.0504391 -0.0648345 -0.139981 0.168421 -0.113661 -0.298177 -0.301807 0.0569527 0.377993 -0.228428 -0.0636933 0.523954 -0.261072 -0.242061 0.142382 0.125965 0.154971 0.0499584 0.162083 0.140402 0.431399 0.620047 -0.255383 0.311253
504 0.142873 -0.0758368 -0.515793 0.428123 0.0110273 0.230021 0.0678817 -0.169131 -0.378912 0.316989 -0.363968 0.559356 0.191969 -0.134204 0.200925 -0.146445 -0.430202 -0.0200018 -0.0958299 0.118886 -0.408951 0.241718 0.0799341 0.455568 -0.348509 0.0618171 0.31738 0.286869 -0.216743 0.177072 0.233153 -0.0846765 0.53998 -0.32805 0.492473 0.0900349 -0.145122 -0.325747 0.0200887 0.800692 -0.122754 -0.0369703 -0.200481 0.246105 -0.104361 -0.393039 -0.300798 0.0422836 0.3899 -0.269582 -0.061136 0.582294 -0.342628 -0.242139 0.161776 0.11995 0.158608 0.114103 0.168079 0.127618 0.575611 0.797833 -0.355455 0.441713
34708 0.0268802 -0.0459068 0.140225 0.323417 0.108887 -0.432442 -0.193411 -0.194314 -0.257197 0.224235 0.299459 -0.140099 0.512861 0.0233468 0.36873 0.3418 -0.0800237 -0.576308 0.340951 -0.0414248 -0.131947 -0.397504 0.200509 -0.151625 -0.454355 0.111722 0.0946809 0.536235 0.0563027 0.268117 -0.285975 -0.442958 0.170776 -0.374021 -0.0519138 0.430413 0.273715 0.165091 -0.264441 0.0464831 0.0647649 -0.375611 -0.271408 0.188611 0.174648 -0.0354703 0.0153137 0.195613 -0.0751582 0.118308 -0.312541 -0.105387 -0.266455 0.329566 0.411998 -0.432894 -0.335427 -0.281087 -0.030417 0.662805 -0.181298 0.0415342 -0.26883 -0.26486
1127530 0.153122 0.136669 0.0596644 0.269244 -0.0217365 -0.195292 -0.141916 -0.213557 -0.168705 0.134347 0.0884298 0.0342713 0.0360091 -0.190688 0.0346669 0.121764 0.152049 -0.11611 0.201081 -0.0230094 -0.201513 -0.154898 0.189386 -0.247751 -0.315986 0.281901 0.0796652 0.167938 -0.00535372 0.0157825 0.0896923 -0.120937 0.266344 -0.293433 0.0630648 0.0795155 0.296653 -0.26265 -0.240711 -0.146456 -0.202834 -0.12853 -0.0217847 0.437627 0.282386 -0.288903 0.353931 0.0998282 -0.141593 -0.0341326 -0.386245 -0.00777234 -0.108693 0.142009 -0.00861845 -0.369785 0.230297 -0.367869 -0.129435 0.290728 0.0213497 0.32096 -0.192996 -0.127044
287787 -0.841099 0.160477 -0.00650349 0.164517 -0.336096 -0.205812 -0.145404 0.167763 -0.317089 0.405876 0.341294 -0.0977993 0.414234 -0.18936 -0.0737664 0.208841 0.531776 -0.207266 -0.1576 -0.543616 -0.00554478 -0.255511 0.0116612 -0.0984598 -0.259244 0.718705 0.122456 0.381008 0.334534 0.280244 -0.382776 -0.517028 -0.256975 0.209288 0.164485 -0.720443 0.016442 -0.183564 -0.342101 0.177604 0.240111 -0.509113 -0.0986429 0.025445 -0.118948 -0.0709473 0.00290813 -0.336708 0.033045 -0.166354 -0.407895 0.283811 -0.542603 0.146081 0.176755 -0.0682146 0.138785 -0.0281993 -0.450455 0.417463 0.0388927 0.357954 0.318655 -0.368392
1110390 0.025197 -0.382582 0.0123499 0.172716 0.0766054 -0.516923 -0.234553 0.0297821 -0.361371 0.0743151 0.332348 -0.518272 0.355301 -0.056694 0.413198 0.134958 -0.00631856 -0.392204 0.226617 -0.264008 -0.231877 -0.413527 0.038353 -0.237311 -0.73039 0.364022 0.328169 0.257312 0.234256 0.30275 -0.278472 -0.222144 -0.0222397 -0.435715 -0.187272 0.0653073 0.172353 -0.0668028 -0.052603 0.236214 0.00280133 -0.64829 -0.147501 0.179933 -0.212624 0.202568 0.427152 -0.20191 -0.1989 0.131867 -0.447175 0.0175248 -0.545796 0.139731 0.321052 -0.405352 -0.0825263 -0.39505 -0.204083 0.678803 0.151734 0.206255 0.0408426 -0.270919
28649 0.0707694 0.169189 0.00361799 0.393767 0.0586043 -0.229462 0.228588 -0.00629341 -0.0753571 -0.0665719 0.218596 -0.198403 0.350286 -0.468443 0.399196 0.583465 0.158581 -0.259858 0.15227 -0.280209 -0.0297447 0.0101985 0.0710614 -0.29099 -0.110649 -0.117078 -0.0183154 0.293694 -0.0619855 0.178104 0.104143 -0.31266 0.0569944 -0.180045 0.276744 0.271798 0.20342 0.310601 -0.351559 0.0396959 0.0300597 -0.216745 -0.206179 0.258399 -0.113507 -0.256425 -0.0182517 0.0655077 -0.237425 0.226867 -0.0384264 0.0199405 -0.194201 0.243517 0.227257 -0.342447 -0.221041 -0.0286144 -0.0300358 0.583449 -0.0613684 0.0557835 -0.166112 -0.0156432
684986 -0.0121054 0.033944 0.0516669 0.148869 -0.0761622 -0.372012 -0.112788 -0.122944 -0.0169692 -0.0833044 0.242181 0.317256 0.3192 -0.101688 0.0106681 0.0432217 0.248102 -0.312396 0.0977348 0.00901221 -0.180253 -0.0593797 0.0486303 -0.266248 -0.337392 0.0315095 -0.150355 0.186857 0.215555 0.140606 -0.151723 -0.0947944 0.128465 -0.302386 -0.0327153 0.467456 0.321126 0.22239 -0.141763 0.039603 -0.242971 -0.122918 0.0157152 0.0961155 0.202846 -0.319181 0.394919 0.0273447 0.17987 0.0693386 -0.24328 -0.197421 -0.192227 0.203844 -0.178491 -0.285227 0.096134 -0.0259193 0.0511688 0.393492 0.00153853 0.260502 -0.112925 -0.0058282
1154276 -0.21894 0.0300383 -0.168099 0.476911 -0.132523 -0.51356 -0.0493132 0.0300779 -0.0449928 -0.0647921 0.48976 0.233031 0.240695 -0.0185436 -0.0976924 0.0748057 0.111599 -0.366193 0.261221 0.0990705 -0.0617253 0.0254537 0.13806 -0.244813 -0.37036 0.211519 -0.142074 0.218557 0.0151068 0.173726 -0.0796762 0.0482784 0.226433 -0.461247 0.205632 0.702286 0.397829 0.231958 -0.191952 0.0800724 -0.273039 -0.295006 -0.0665984 0.210817 0.370253 -0.301317 0.202164 -0.085865 0.135578 0.20043 -0.388489 -0.0907588 0.00924842 0.222752 -0.109541 -0.146602 -0.0593728 -0.0341091 0.269128 0.406562 -0.183446 0.730736 -0.0265222 0.0450816
1953 0.17353 0.193212 0.282264 -0.11099 0.277661 -0.677989 -0.205549 -0.153814 -0.212984 -0.20424 -0.151536 -0.104711 0.38584 -0.395447 0.340447 0.41838 -0.365438 -0.686276 0.149801 -0.100033 -0.492099 -0.294976 0.258613 -0.142935 -0.561095 0.0111317 0.420109 0.49359 0.255254 -0.234816 -0.112563 -0.00594686 0.277381 -0.130858 -0.19563 -0.0469316 0.294059 -0.305229 -0.0996492 0.0337635 -0.13951 -0.582017 0.310535 0.00510909 -0.397911 0.0809936 0.530571 -0.399874 -0.126454 0.175749 0.142565 -0.0953298 -0.0182768 -0.0975849 0.193491 -0.24899 -0.182227 0.0561216 -0.16318 0.112857 -0.0714552 0.519998 0.223732 -0.220526
300071 0.0622641 0.208663 -0.0622729 0.358165 -0.0240834 -0.315443 -0.147077 -0.0927584 -0.0450946 -0.195067 0.21261 0.359389 0.212891 -0.347426 0.419091 -0.0128117 0.542366 -0.377915 -0.140641 0.0156956 0.207129 -0.395992 0.632263 -0.700312 -0.643104 0.347765 -0.206403 -0.039597 -0.0628024 0.0913081 -0.274746 -0.254669 0.186223 -0.479368 0.211622 0.656178 0.62146 0.0597664 -0.411308 -0.206037 -0.307269 -0.14613 -0.51649 0.403785 0.334957 -0.461041 0.587581 -0.0997106 0.208739 0.124099 -0.264528 -0.354957 -0.000862016 -0.00322716 -0.21415 -0.116204 -0.0173168 -0.205281 0.027201 0.612357 -0.279444 0.191012 -0.166212 0.115454
714256 0.400208 0.295674 -0.174594 0.372398 -0.114279 -0.0590553 -0.156466 -0.163028 -0.246351 0.115885 -0.00997584 0.122558 -0.0871934 -0.325544 0.12555 0.15221 0.0416102 -0.076532 0.141654 0.027922 -0.404407 -0.203789 0.264974 -0.0494009 -0.334961 0.43488 0.0477848 0.3481 -0.0680197 0.0286903 0.131271 -0.216049 0.499226 -0.395158 0.231727 -0.0220722 0.36156 -0.515382 -0.257065 0.211049 -0.248064 -0.204271 -0.202735 0.359308 0.301552 -0.485641 0.219164 0.157328 -0.265017 -0.210749 -0.454163 0.226454 -0.14625 0.0209046 0.0194717 -0.544203 0.313413 -0.449038 -0.18822 0.317108 0.252257 0.53919 -0.28786 -0.161322
131315 -0.396394 0.0790776 0.0155515 0.673361 -0.173464 -0.683045 -0.0449239 0.114528 -0.0230716 -0.385487 0.425339 0.20921 0.206238 -0.380989 0.340202 0.281015 0.674445 -0.520902 -0.178326 0.108728 0.0993505 -0.678558 0.449104 -0.381759 -0.61169 0.486951 -0.000155093 -0.00641929 0.0607039 -0.0205691 -0.219679 -0.426672 0.23896 -0.544874 -0.0129419 0.375835 0.337772 0.14339 -0.421363 -0.084469 -0.0583438 -0.0744594 -0.162765 0.612856 0.100573 -0.508576 0.866656 -0.0566422 0.0721379 0.0173804 -0.463711 -0.330731 0.0984253 0.169722 -0.117779 -0.0112818 -0.173481 -0.165669 -0.232121 0.580865 -0.283155 0.129525 -0.0818718 -0.0392536
167205 0.13041 -0.282996 0.170778 0.367269 0.0903803 -0.111458 -0.220391 0.365851 -0.0715653 0.354757 -0.254217 -0.0800942 -0.275408 0.127132 -0.337689 0.0761788 0.432093 0.381852 0.127273 -0.276499 -0.178732 -0.112322 -0.261001 -0.104055 -0.0343927 -0.177337 -0.437536 0.348893 0.0657549 0.131505 -0.484349 0.0108403 -0.00883175 -0.257289 -0.156664 0.0850919 -0.121116 0.539859 -0.605388 -0.180314 0.253723 0.240997 0.360961 0.220369 0.0335795 -0.21558 0.225945 -0.352339 0.157556 0.141023 0.276213 0.170901 0.0916798 0.0814333 -0.276289 0.102411 -0.230449 -0.181126 -0.0938283 0.0761157 0.201536 -0.241091 0.106733 0.0230851
141342 -0.579601 0.110325 -0.115036 0.31434 -0.38088 -0.415015 -0.314305 0.0250234 -0.161184 0.361178 0.499575 -0.128897 0.169515 -0.24645 -0.127033 0.00109239 0.57019 -0.53727 -0.224793 -0.650401 -0.149194 -0.190859 0.142848 -0.117141 -0.42621 0.845659 -0.041259 0.618245 0.167406 0.339035 0.0565014 -0.398708 -0.224367 -0.148798 0.242006 -0.219744 0.10923 0.114011 -0.324363 0.440969 0.137562 -0.53646 -0.271096 0.163735 -0.0500792 -0.0352617 0.0343252 -0.333192 0.0967156 0.079032 -0.444792 0.287977 -0.429091 0.288783 -0.0171626 -0.131838 0.0907526 -0.0605156 -0.111435 0.40644 -0.0945903 0.532123 0.314484 -0.330116
1128208 -0.488794 0.0915763 0.0118425 0.144703 -0.0779857 -0.0391413 -0.207345 0.166757 -0.164915 0.304234 0.279126 -0.0193671 0.410876 0.0459602 -0.106656 0.127664 0.358868 -0.229135 -0.020769 -0.462443 -0.0672534 -0.324996 0.00280061 -0.0892108 -0.404044 0.606927 0.0114645 0.574991 0.0422225 0.221401 -0.232449 -0.425533 -0.196115 -0.00355721 0.0577396 -0.442284 0.100968 -0.0733897 -0.271588 -0.00140163 0.0545248 -0.358331 -0.185833 -0.0419549 0.0836698 -0.0494849 -0.0644628 -0.0661277 0.155457 -0.158825 -0.416242 0.256622 -0.434906 0.111059 0.110639 -0.196151 0.0323504 0.00646554 -0.139741 0.298266 0.037254 0.109343 0.0507748 -0.155847
35335 -0.580165 -0.147345 -0.387165 0.643969 0.183868 -0.697285 -0.345698 -0.203358 -0.146696 0.0478388 0.215211 0.122396 0.192527 -0.170232 -0.0076725 0.0235798 -0.48939 -0.150351 0.171129 -0.124031 0.135148 -0.55868 -0.102852 0.293015 -0.346348 0.562528 0.16313 0.371038 -0.134224 0.253671 -0.322776 -0.455451 0.429443 -0.104446 -0.162689 0.300007 -0.0426529 0.30154 -0.223712 -0.18995 -0.193675 -0.684246 0.114069 0.350202 0.504573 0.0562224 0.315292 -0.0222164 0.581097 -0.208798 -0.210576 -0.550939 0.184942 0.506885 0.328404 0.0973718 -0.339448 -0.189017 -0.289214 0.246337 0.0153204 0.525212 -0.204987 0.131498
1107418 -0.591206 -0.0833861 -0.0215005 0.122055 -0.270415 -0.045035 -0.0582725 -0.03788 -0.0653279 0.237445 0.274787 -0.143248 0.138518 -0.25546 -0.0218758 0.0680441 0.552714 -0.398512 -0.0359487 -0.549785 -0.247511 -0.296339 0.0693548 0.0704488 -0.191759 0.709485 0.0114177 0.397969 0.0933198 0.317674 -0.0571584 -0.418835 -0.0947669 -0.0653862 0.0832709 -0.318754 0.198111 -0.00945122 -0.25734 0.191879 -0.0878363 -0.388603 -0.0171829 0.198647 -0.231434 -0.0864515 -0.00745014 -0.406452 0.0742238 -0.0708491 -0.261705 0.212535 -0.293113 -0.0705903 0.0454258 -0.0823508 0.0531286 -0.150591 -0.32032 0.366673 0.127647 0.297722 0.190956 -0.215123
1131172 -0.221131 -0.225375 0.197438 -0.0091875 0.0221626 0.128199 -0.209607 -0.394711 0.127382 -0.285499 -0.274012 0.196217 0.245579 0.283103 0.125574 -0.207333 0.382651 -0.331366 0.050495 -0.374347 0.0794236 -0.107739 -0.211618 0.0212053 0.120675 -0.00733239 -0.218617 0.00169497 0.485049 0.118138 0.211398 -0.00399747 0.20401 0.0242143 0.141438 0.248616 0.00980111 -0.172257 -0.162348 -0.480131 0.485235 0.220137 -0.23246 0.203206 0.173077 0.271606 -0.211221 -0.157703 0.135866 -0.552416 -0.122722 -0.256088 -0.0505762 0.0694784 -0.099792 -0.229582 0.328972 0.568398 0.134904 0.0155453 0.038754 0.361338 0.144837 0.612279
18615 0.160982 -0.173894 -0.340903 0.237828 -0.216037 -0.100302 -0.20231 -0.119813 -0.0536193 0.084741 0.478627 -0.2272 0.212713 -0.0992915 0.52378 0.27195 -0.0322098 -0.537085 0.216952 -0.212035 0.0863632 -0.249566 0.0115258 -0.152034 -0.352387 0.143216 0.199441 0.533142 0.0406628 0.322801 -0.0191747 0.0843975 0.0293031 -0.465101 -0.0751499 0.229404 0.262067 0.0573174 -0.416391 0.123972 -0.111153 -0.517554 -0.310734 0.1846 -0.031652 -0.114601 0.41008 0.0840581 -0.0913299 0.201468 -0.29173 -0.0881845 -0.455248 0.142396 0.135363 -0.709235 -0.0280398 -0.179941 -0.158847 0.59181 -0.000630144 0.0964578 -0.124531 -0.0695694
11325 0.226643 -0.0400563 -0.154566 0.286219 -0.0453069 -0.0209384 -0.182684 -0.218895 -0.00181483 0.113816 0.360442 -0.220912 0.0689514 -0.023702 0.312293 0.366853 0.127423 -0.363074 0.283827 -0.192954 0.160146 -0.0722724 0.246487 -0.384463 -0.348697 0.139522 0.0776588 0.61498 0.245397 0.348066 -0.154465 -0.0766229 -0.0337643 -0.419319 -0.106688 0.209995 0.142511 0.0483175 -0.0298669 0.170446 -0.0743638 -0.335012 -0.0816567 0.222097 -0.111763 -0.0286023 0.265184 0.102384 0.0765127 0.304452 -0.048244 -0.0157966 -0.361187 0.200603 0.211314 -0.563626 0.0100948 -0.144916 -0.219746 0.652579 -0.127568 0.0139424 -0.128024 -0.0766126
1106418 0.1238 0.264841 -0.100459 0.693427 0.111803 -0.333915 0.406176 -0.00608304 -0.0788366 -0.111997 0.295591 -0.399601 0.510547 -0.749847 0.639256 0.995549 0.209827 -0.326588 0.0792974 -0.408042 -0.106713 0.119295 0.181322 -0.211042 -0.184174 -0.288671 -0.0518297 0.44359 -0.0168321 0.324525 0.129028 -0.376222 -0.00661268 -0.0964972 0.577959 0.416626 0.304921 0.59917 -0.510592 0.148041 -0.0878043 -0.31582 -0.244131 0.459484 -0.282954 -0.357442 -0.0896289 0.100511 -0.430414 0.396462 -0.0262914 0.0294957 -0.196003 0.343831 0.438171 -0.42093 -0.334075 -0.0558377 -0.135267 0.961265 -0.0555828 0.0192345 -0.240402 0.180028
763181 -0.205124 -0.0924647 0.0384932 0.624981 -0.38378 -0.532219 -0.153209 0.0778975 0.0857 -0.147646 0.164308 0.159341 0.095803 -0.148901 -0.198361 0.0286038 -0.190644 -0.375399 0.269825 0.060165 -0.349214 0.119458 0.140831 -0.283133 -0.0245329 0.217399 0.0699423 0.240016 -0.138532 -0.0018221 -0.0948868 0.214521 0.320283 -0.576302 0.158631 0.584887 0.305679 0.0913553 0.00101465 -0.126687 -0.148941 -0.302777 -0.0467685 0.382023 0.943796 -0.257118 0.0951763 0.0551876 0.0659698 0.0880092 -0.487027 -0.171375 -0.254612 0.371473 0.0595174 0.0184827 -0.102851 -0.412264 0.092828 0.309635 -0.423581 0.920722 -0.263025 0.380955
1106401 0.162633 -0.0643996 -0.0536849 0.184625 -0.155937 -0.146264 0.0439413 -0.170649 0.00921637 0.178102 0.325764 -0.185356 0.614566 -0.190166 0.254142 0.149883 0.308519 -0.472015 0.351928 -0.0688441 -0.135819 -0.377785 0.190751 -0.532615 -0.197751 0.281049 -0.123588 0.535639 -0.140419 0.291301 -0.0833424 -0.132068 0.196112 -0.216826 0.0171073 0.309457 0.183769 0.465751 -0.138354 0.311846 -0.223953 -0.360208 0.0613347 0.165893 0.238022 -0.26182 0.222243 0.0130798 -0.163344 0.370499 -0.155727 0.00492396 -0.467005 0.387941 -0.0433487 -0.539735 0.10423 -0.111951 -0.115385 0.626149 0.0423442 0.0576083 -0.242496 -0.151917
307336 0.294243 -0.238314 0.170413 0.199997 0.17836 -0.578813 -0.378301 -0.483475 -0.157944 0.0781257 0.767658 -0.0416606 0.488386 -0.0596163 -0.136616 0.0637485 -0.0943791 -0.243516 0.325274 -0.0461027 -0.0822352 -0.300285 -0.168495 -0.33533 -0.68996 0.0176418 0.08163 0.0352528 0.315822 0.541257 -0.408686 -0.345778 0.0973902 0.0854698 -0.29336 0.541363 0.573946 0.161326 -0.628253 -0.0152267 -0.549346 -0.788761 -0.50781 0.091533 0.434877 -0.262584 0.256249 -0.308383 0.237956 0.0305844 -0.178742 0.580952 -0.388999 0.237791 0.227631 -0.720256 -0.37485 -0.0281543 0.117471 0.298989 -0.0414133 0.323325 -0.16004 -0.106812
17477 -0.528735 0.00909288 -0.0667991 0.240891 -0.195496 -0.158386 -0.0654109 0.0956646 -0.0409715 0.22945 0.183255 -0.0933446 0.294072 -0.174976 0.0299426 0.110758 0.390303 -0.296328 0.0487323 -0.237842 -0.234253 -0.326693 0.0790427 -0.134169 -0.273923 0.561583 -0.0409124 0.216012 0.274229 0.119087 -0.0608015 -0.312456 -0.146188 -0.101157 0.0113255 -0.396974 0.219629 -0.0262726 -0.242525 0.108808 -0.172599 -0.349887 -0.017305 0.146156 -0.0401514 -0.0256048 0.0441865 -0.328934 -0.0435171 0.0433068 -0.200538 0.256978 -0.342884 0.0188563 0.0161327 -0.0402067 0.0579406 -0.094444 -0.226481 0.38409 -0.0121333 0.164457 0.178118 -0.200489
330208 -0.202342 0.218596 0.38926 0.0430982 0.274435 -0.546336 -0.215657 0.20326 0.133913 -0.141004 0.48013 0.0374589 0.213817 -0.0513427 -0.104786 -0.01271 -0.00550484 -0.234259 0.205769 0.106696 -0.035608 -0.168979 0.372514 -0.268628 -0.0448581 -0.116028 -0.228964 -0.297721 -0.0315668 0.0777134 -0.492935 0.00501261 0.447805 -0.538545 0.206656 0.6948 0.204979 0.0807998 -0.132547 -0.0899595 -0.124453 -0.141432 -0.109612 0.322397 0.33538 0.0146326 0.00699135 0.180375 0.208871 0.310995 0.0176153 -0.27429 0.0513621 0.127982 -0.173808 0.0743928 0.159654 -0.144621 0.639319 0.0848848 -0.237899 0.106752 0.0335394 0.202617
155158 0.116864 -0.413061 -0.288441 0.26599 -0.173105 -0.145766 -0.295782 -0.274593 -0.0398511 0.052558 0.604302 -0.140054 0.100642 -0.128509 0.558738 0.0998899 -0.19192 -0.368085 0.433699 -0.0754891 0.153026 -0.0263319 0.304136 -0.195042 -0.413374 0.0576278 0.31879 0.534679 0.00661036 0.364916 -0.250997 0.28817 -0.107147 -0.419547 -0.277616 0.267701 0.0923772 0.0501365 -0.39739 0.172022 -0.0728883 -0.48897 -0.0560979 0.139083 -0.0320817 0.195116 0.670792 0.0549179 -0.0321355 0.249017 0.0379214 -0.101231 -0.45717 0.0572766 0.0973359 -0.587036 0.122962 -0.135503 -0.174976 0.460708 -0.0543336 -0.0838705 -0.228525 -0.0418732
278394 -0.225067 0.000568697 0.152909 0.0277794 0.181412 -0.614289 -0.264005 0.0716969 0.0272539 -0.155709 0.538452 0.188373 0.414366 -0.134486 -0.0129719 0.275265 0.201427 -0.315308 0.224222 0.176439 0.0761267 -0.171775 0.456157 -0.240265 -0.167671 -0.00144636 -0.120085 -0.161101 -0.2745 -0.156154 -0.31518 0.000951107 0.576573 -0.494936 0.262479 0.55073 0.0722835 0.215855 -0.0623259 -0.104037 -0.112943 -0.132037 0.0612108 0.242692 0.545691 -0.253895 0.0376953 0.236369 0.227471 0.294088 -0.291776 -0.143027 -0.42625 0.242577 0.0165207 -0.200567 0.445789 -0.28762 0.258488 0.31994 -0.220129 0.175832 -0.203285 -0.0631163
390894 -0.0813115 0.0201063 0.020011 0.381764 -0.0603844 -0.219062 -0.168929 0.0451797 -0.0356889 -0.0588284 0.307708 0.177789 0.217651 -0.135853 0.164197 -0.0287169 0.136251 -0.177946 0.020488 -0.0882601 0.0489812 -0.311655 0.198164 -0.287284 -0.488376 0.255874 -0.0333244 0.12497 -0.197533 0.154371 -0.154084 -0.2457 0.208416 -0.389187 0.106518 0.436025 0.362016 0.0959761 -0.270998 -0.170262 -0.223101 -0.255457 -0.146654 0.270742 0.289254 -0.21322 0.17944 -0.012475 0.115222 0.0314665 -0.253858 -0.0751877 0.02584 0.112728 0.00411607 -0.0866282 -0.176993 -0.114621 0.0351893 0.251609 -0.163917 0.373837 -0.0697852 0.020271
1113742 -0.461338 0.0852062 0.0099841 0.0902284 -0.192569 -0.150959 0.00125922 -0.0676834 -0.11005 0.317701 0.349951 0.00124248 0.119679 -0.138277 -0.175201 0.166254 0.565903 -0.2765 -0.031288 -0.534461 -0.317958 -0.251154 0.139144 -0.083604 -0.136466 0.727676 -0.0858939 0.387393 0.237565 0.22883 -0.0423156 -0.431267 -0.32476 0.0389567 -0.00594984 -0.525231 0.105943 -0.0125107 -0.246908 0.190996 0.0741807 -0.40792 -0.0548301 0.133684 -0.154742 0.131467 -0.00112249 -0.417155 0.171869 0.00829773 -0.396467 0.338055 -0.280388 0.0794075 0.0229108 -0.0193191 0.0393064 0.0220396 -0.165516 0.438209 0.000321386 0.300084 0.190209 -0.253393
644494 -0.34846 -0.265542 0.248576 0.0144156 0.0510251 0.115384 -0.18705 -0.476763 0.105165 -0.274348 -0.291095 0.163642 0.211348 0.316234 0.139356 -0.239199 0.498855 -0.377246 0.0406168 -0.377742 0.17723 -0.106058 -0.193259 0.12918 0.174405 -0.0750932 -0.191912 -0.0210108 0.563611 0.150447 0.308772 0.0323427 0.243104 0.00766031 0.127625 0.25449 0.0514316 -0.194314 -0.23206 -0.617903 0.576495 0.241954 -0.321769 0.23453 0.131478 0.279118 -0.307923 -0.274685 0.149691 -0.654698 -0.166304 -0.231412 -0.020173 0.0973883 -0.060345 -0.346605 0.400056 0.628874 0.0671209 -0.0490307 0.0980461 0.44863 0.0882129 0.6682
235670 -0.108305 0.178299 -0.0450591 0.0491954 -0.200275 0.268929 -0.337549 0.299045 0.143135 0.538695 0.303715 -0.249348 0.113649 -0.198007 0.276486 0.269565 0.407887 -0.278646 0.0728975 -0.0830183 0.126841 -0.434455 -0.0362392 0.158887 0.0998945 0.066867 0.149252 0.070157 -0.415834 -0.416377 0.159534 0.438185 0.0134104 -0.0960979 0.128094 -0.0817067 0.142773 0.160468 0.0215871 -0.0507801 -0.169909 -0.126724 0.17068 -0.275911 0.247669 0.296969 0.0191312 -0.216508 0.286501 -0.906469 -0.0422184 0.00504595 -0.00925077 -0.347269 0.0560603 -0.0793851 0.211372 -0.181512 -0.284531 -0.395522 -0.126412 -0.136709 -0.141001 0.318575
787016 -0.323386 0.0520559 -0.0131375 0.0554011 -0.0815449 -0.112697 -0.0748611 0.0654177 -0.0815102 0.184153 0.153496 -0.0591074 0.16955 -0.0512416 -0.0577932 0.0734119 0.270284 -0.158648 -0.0689367 -0.244819 -0.0829177 -0.137307 -0.00726818 -0.0156897 -0.19612 0.325587 0.0182368 0.207889 0.131886 0.163685 -0.0746649 -0.18808 -0.110406 0.00822941 0.0667294 -0.259789 0.0687023 -0.0199634 -0.0946383 0.147801 0.0606222 -0.231245 -0.0493027 0.0305032 -0.0468096 0.00995918 -0.0268337 -0.138377 0.0562136 -0.0441521 -0.155785 0.0699098 -0.190218 0.0805983 0.0282455 -0.066285 0.0304928 -0.0227514 -0.13926 0.189508 0.029666 0.119451 0.146027 -0.143846
1129443 -0.155917 0.0523158 0.00544832 0.197749 -0.258454 -0.313665 -0.118257 0.00476277 -0.00603181 -0.0437584 0.0735967 -0.0311516 0.119785 -0.0662711 -0.12126 -0.0190904 -0.0395559 -0.176287 0.163033 0.1055 -0.22605 0.0858088 0.0753684 -0.138287 -0.181648 0.0937395 -0.0670148 0.128146 0.0369364 0.0237052 -0.014431 0.119352 0.129875 -0.32731 0.0354627 0.307562 0.214862 0.00910452 -0.0433502 -0.0046361 -0.0969303 -0.157466 0.00933196 0.183435 0.330722 -0.161007 0.159666 0.0688162 -0.0195813 0.0161118 -0.10815 -0.0354708 -0.0232096 0.278246 -0.0116128 -0.02714 -0.0638523 -0.121015 0.0806611 0.256819 -0.0893134 0.321419 -0.132232 0.151604
207395 -0.294528 0.0719953 0.200401 -0.150593 0.185226 -0.456362 -0.0849787 -0.0302486 -0.134823 -0.209929 0.114464 -0.0802528 0.208847 -0.453168 0.331709 0.55033 -0.0559421 -0.663331 -0.120947 -0.250457 -0.497295 -0.294037 0.252963 0.00794236 -0.467037 -0.0873305 0.328718 0.569126 0.447187 -0.044508 -0.027707 -0.276366 0.20174 -0.0338968 0.243352 -0.329402 0.0187174 -0.0604595 0.0144905 0.217079 -0.37403 -0.569191 0.236236 0.0503705 -0.498118 0.028501 0.560951 -0.284122 -0.097481 0.091137 0.067558 0.046494 -0.0752954 0.041276 0.0112043 -0.189532 -0.194879 0.179411 -0.366727 0.0127916 -0.142351 0.375797 0.376716 -0.226221
42207 0.152591 0.213367 -0.275937 0.358676 0.0194399 -0.274435 0.0876604 -0.0263696 -0.049307 0.0689221 0.148102 -0.39709 0.419701 -0.414142 0.487712 0.903786 0.171783 -0.390561 0.144364 -0.239238 -0.0963608 0.0131888 0.00027541 -0.0615794 0.0380784 -0.0773649 -0.0966709 0.346672 0.134125 0.258494 0.202115 -0.259651 0.0983391 -0.219611 0.19747 0.49906 0.0914104 0.388579 -0.3669 0.0604342 -0.111302 -0.126252 0.0689417 0.293818 -0.198634 -0.225658 -0.0411704 -0.156259 -0.235093 0.282693 0.0081559 -0.0794211 -0.253405 0.338868 0.310182 -0.279716 -0.0515965 0.0635742 -0.195417 0.751031 0.00614826 0.122656 -0.233386 0.0621022
1113551 -0.407908 -0.0278983 0.000220523 0.177363 -0.194691 -0.434894 -0.219157 0.0308334 -0.160037 0.169256 0.295321 -0.32135 0.315516 -0.227152 0.362571 0.280822 0.0359669 -0.589808 0.0749818 -0.19566 -0.143424 -0.370437 0.136519 0.0198104 -0.614983 0.434064 0.152969 0.53809 0.461092 0.261448 -0.0500925 -0.220991 0.0108854 -0.117325 -0.0212647 -0.281724 0.105207 -0.0204114 -0.179849 0.209392 -0.149178 -0.517581 0.043575 0.11858 -0.0692273 0.0496359 0.438341 -0.221519 0.0453871 0.0561209 -0.210712 0.203491 -0.467362 0.0561008 0.0394139 -0.288199 -0.00143951 -0.226935 -0.318949 0.325072 -0.0370839 0.274607 0.14361 -0.214392
116021 -0.0889733 0.141237 -0.127575 0.2412 -0.0448561 -0.307363 -0.138293 -0.00670075 -0.288676 -0.0528123 0.342577 -0.0559549 0.138031 -0.245566 0.291027 0.0218406 -0.204424 -0.465716 0.0807109 -0.121557 0.0764195 -0.302739 0.109065 -0.198839 -0.151739 0.349598 -0.242856 0.31419 0.136371 0.173337 -0.0659311 -0.365855 0.117718 -0.311469 0.0616796 0.538048 0.505264 0.312543 -0.477157 -0.0820479 -0.218022 -0.570834 0.0961818 0.0689232 0.127238 -0.400186 0.252476 -0.0886677 0.106766 -0.134579 -0.300457 -0.187272 -0.0303372 -0.0177214 0.0838516 -0.381727 -0.00194782 0.101122 0.179355 0.435804 0.039403 0.288826 0.122355 -0.200056
16485 -0.488007 0.056632 0.0911082 0.658329 0.187773 -1.04478 0.0170897 -0.140566 -0.563077 0.358763 0.546716 0.235329 -0.0386186 -0.161472 -0.0697978 0.0461899 -0.0766192 -0.414239 0.386314 -0.312934 0.111433 -0.307446 0.0437289 -0.628661 -0.512097 0.468265 0.0457539 0.402561 0.0157793 0.517221 0.136832 -0.161311 0.238262 -0.35809 0.172623 0.10718 0.234246 0.722346 -0.408433 0.279078 0.0107461 0.0397336 -0.459288 0.573579 0.226533 -0.226518 0.3538 -0.118907 0.932795 -0.187016 -0.519299 -0.0967077 -0.0655689 0.390081 -0.264778 -0.0969276 0.089365 -0.232815 0.178801 1.24261 0.0331786 0.683903 -0.540386 -0.323276
350362 0.137552 -0.10275 -0.053371 0.210047 0.0209395 -0.353511 -0.100009 -0.24389 -0.138162 0.12531 0.337115 -0.233974 0.50367 -0.044961 0.215568 0.293363 0.154513 -0.357245 0.302727 -0.0652891 -0.219601 -0.305121 0.0416378 -0.202094 -0.498794 -0.0131863 0.0687864 0.445672 0.220283 0.370657 -0.232978 -0.390673 0.174528 -0.150566 -0.096351 0.309539 0.224584 0.230931 -0.275494 0.10338 -0.196765 -0.32418 -0.288595 0.114871 0.192807 -0.136551 0.185857 -0.0699067 -0.0948417 0.144891 -0.192682 0.181129 -0.332698 0.338333 0.241871 -0.644458 -0.226393 -0.185199 -0.134243 0.549193 0.152066 0.0485103 -0.128017 -0.17493
1128853 -0.0129355 -0.269398 -0.421745 0.323725 -0.250842 0.0282862 -0.446439 -0.211704 0.21321 0.0824114 0.356348 0.200531 0.252769 -0.022787 0.236731 0.101915 0.231998 -0.250237 0.317171 -0.348601 -0.176005 -0.112127 0.00360105 0.0272441 0.0461704 0.347263 0.332963 0.359828 0.22904 0.219845 -0.147423 0.200582 0.105823 -0.378036 0.0550649 0.195467 0.224985 -0.0666112 -0.306449 -0.417534 -0.175892 -0.177931 -0.360521 0.0687016 -0.000289847 -0.305734 0.385808 0.162684 -0.128887 0.332167 -0.447198 -0.021649 -0.368169 -0.299519 0.200163 -0.137068 -0.145161 -0.246583 -0.0955959 0.497063 0.110989 0.143273 -0.296964 0.156931
17488 -0.529914 -0.14949 -0.18531 0.490906 -0.301433 -0.285468 -0.122493 0.239642 0.032342 0.128112 0.19104 -0.131326 0.510731 -0.217632 0.287299 0.0237335 0.232934 -0.357167 0.20238 0.123477 -0.267055 -0.394072 0.0774274 -0.260072 -0.421753 0.58369 -0.0276052 0.116397 0.345744 0.0195057 -0.0462805 -0.21845 -0.0393201 -0.15485 -0.000945883 -0.33947 0.318677 0.0602665 -0.313645 -0.0324723 -0.455093 -0.252492 0.0523911 0.256366 0.080923 -0.124943 0.275781 -0.393063 -0.209836 0.137858 -0.103235 0.218697 -0.340969 0.0553563 -0.0247247 -0.00668701 0.0980403 -0.151685 -0.30226 0.457086 -0.122842 0.220423 0.0290671 -0.172021
84459 -0.603972 0.0558445 -0.445353 -0.218279 0.129727 -0.458168 -0.0292741 0.414009 -0.383262 0.227581 0.451381 -0.191708 0.497136 -0.254809 -0.156513 0.258133 -0.0440237 0.0445057 0.106857 0.0857293 0.0335217 -0.235058 -0.457138 -0.30531 0.0254294 0.415076 -0.255048 0.235191 0.228021 0.276456 -0.263937 0.555182 0.195919 -0.312606 0.0511323 0.155088 -0.345101 -0.107164 -0.531058 0.2899 -0.531797 -0.326416 -0.00920268 0.216835 0.344396 -0.104929 0.186833 0.235639 -0.439269 0.0217109 -0.497289 -0.62867 0.242074 -0.113802 -0.0813099 -0.316227 -0.294224 0.0470498 -0.266183 0.33911 0.155572 0.485594 -0.34578 0.362199
948299 -0.167667 -0.00237862 -0.036609 0.309565 -0.177693 -0.352981 -0.148431 0.0210033 -0.0328196 -0.0193147 0.177644 0.0873538 0.145379 -0.0602683 -0.0992108 0.00192877 0.000328703 -0.21323 0.132619 0.0213667 -0.0981918 -0.0673986 0.0648282 -0.150835 -0.238364 0.188864 -0.0377318 0.193233 -0.0219049 0.0782648 -0.0591039 0.00601576 0.143645 -0.355091 0.0842282 0.39186 0.244051 0.0697193 -0.120886 -0.0205108 -0.133362 -0.206145 -0.0294933 0.203762 0.329133 -0.159104 0.149172 -0.00344958 0.076657 0.030337 -0.210162 -0.0297969 0.00343405 0.220263 0.0262795 0.00306308 -0.122989 -0.099554 0.093999 0.22884 -0.148632 0.449333 -0.123072 0.107979
1128407 -0.259866 -0.0322897 0.0261392 -0.0464116 -0.0223787 -0.168479 0.0641183 -0.132121 0.0326185 -0.376967 0.153132 -0.0761304 0.0780966 -0.432021 0.282262 0.639002 -0.0393484 -0.391529 -0.226804 -0.227783 -0.594734 -0.077353 0.15849 0.00104551 -0.142081 -0.207593 0.350995 0.437596 0.314315 -0.0762323 -0.0316208 -0.367147 0.167553 -0.0703691 0.428858 -0.199412 -0.078387 0.0472316 0.264227 0.265086 -0.428447 -0.321018 0.242004 -0.0855929 -0.559756 0.0302634 0.650816 -0.0806049 0.0299351 0.0460179 0.0930881 -0.0221485 0.162343 -0.069657 -0.0659982 -0.177746 -0.319764 0.346307 -0.342243 -0.047874 -0.326162 0.199374 0.272504 -0.176532
18770 0.184543 0.16055 0.026507 0.332744 -0.162485 -0.0613705 -0.188793 -0.173885 -0.0341224 0.182046 0.306411 0.0727727 0.0916652 -0.243767 0.385677 -0.087967 0.117408 -0.19063 -0.0662093 -0.0489695 -0.105349 -0.482633 0.430604 -0.418793 -0.49297 0.509695 -0.214255 0.260432 -0.288399 0.139729 -0.232585 -0.234164 0.333157 -0.433329 0.183387 0.445052 0.54212 -0.18679 -0.36064 -0.13816 -0.202358 -0.156969 -0.190227 0.309447 0.265631 -0.293316 0.195968 0.065245 -0.386112 0.135562 -0.506425 -0.0807616 -0.215679 0.251091 -0.0173846 -0.515235 0.0805635 -0.443923 0.0252312 0.20735 -0.014598 0.535993 -0.337776 0.0463635
1111304 -0.147646 -0.0623461 -0.106381 0.252157 -0.166182 -0.248175 -0.166175 0.136178 -0.0777828 -0.000147906 0.21893 0.0306414 0.267763 -0.135556 0.219951 -0.0550429 0.0326655 -0.323046 0.149844 0.0527105 -0.169887 -0.221029 0.0239106 -0.0981153 -0.292166 0.326137 -0.0971742 0.245386 0.263569 0.136177 -0.0791709 -0.150326 0.00259334 -0.184876 -0.0716034 0.00425003 0.240762 0.0662278 -0.213686 0.118039 -0.229084 -0.240186 0.149907 0.115038 0.152768 -0.159357 0.43529 -0.151131 0.0570373 -0.00744858 -0.148349 -0.035625 -0.199855 0.00807439 -0.0385185 -0.091533 0.0241516 -0.0763512 -0.161789 0.327922 -0.00422035 0.23876 -0.062474 -0.0292289
126912 -0.0565715 -0.101939 0.0956232 0.67312 -0.17701 -0.250235 -0.195292 -0.31531 0.136027 -0.0475989 0.142602 0.314247 0.153311 -0.318074 0.267964 -0.0400109 0.247469 -0.31874 0.0525273 -0.0762103 -0.149715 0.123098 0.169095 -0.402419 -0.329409 -0.0765305 -0.279863 0.117877 0.14766 0.223155 -0.164817 0.0434095 0.254048 -0.358989 0.205193 0.868416 0.353823 0.0064616 -0.469924 -0.212633 -0.115061 -0.0355752 -0.173595 0.391312 0.490738 -0.385997 -0.130386 -0.206275 -0.112401 -0.216132 -0.408241 -0.273456 -0.0795854 0.303591 -0.070177 -0.433846 -0.050619 0.245571 0.324707 0.374669 -0.177137 0.904518 -0.382669 0.412677
578365 -0.0863752 0.1147 0.0129173 0.169 0.205107 -0.674262 0.0905574 0.154365 0.0420108 -0.313229 0.548634 0.0459275 0.240401 -0.163618 0.00166073 0.18033 0.00953512 -0.311455 0.230713 -0.0120544 -0.0537358 -0.177119 0.440912 -0.0677596 0.119742 0.114052 -0.161209 -0.160843 -0.187819 -0.381791 -0.342794 -0.0844692 0.595344 -0.385678 0.184472 0.45705 0.13665 0.0615042 0.0293027 -0.0911039 -0.105423 -0.130783 0.0975546 0.321831 0.681617 -0.0204002 -0.215349 0.088623 0.21909 0.332769 -0.22317 -0.0810749 -0.132342 0.12519 0.159066 0.158161 0.47679 -0.0934218 0.231177 0.163548 -0.370442 0.479273 -0.352203 -0.0152491
1119751 -0.0287128 -0.032836 -0.0566417 0.22966 0.328499 -0.466724 -0.114718 -0.294096 -0.326059 -0.0206088 0.216055 -0.251808 0.594271 -0.108025 0.475833 0.420869 0.318739 -0.391168 0.299682 -0.197936 -0.377514 -0.251 0.184891 -0.182084 -0.596747 -0.156937 0.0701532 0.587321 0.188507 0.435955 -0.294311 -0.432846 0.205043 -0.279814 -0.0416702 0.396428 0.190512 0.153877 -0.298732 0.108053 -0.060011 -0.263255 -0.341165 0.274752 0.184694 -0.159872 0.175915 0.1001 -0.232517 0.141679 -0.24136 -0.078142 -0.30726 0.273406 0.251551 -0.662687 -0.141583 -0.335627 -0.204171 0.654778 0.228075 -0.0212469 -0.0615015 -0.189258
1116146 -0.0150029 0.196072 0.0954325 0.344101 0.0409414 -0.534869 0.180616 -0.1704 -0.0247542 -0.169216 0.244605 -0.528157 0.173146 -0.328271 0.030059 0.0540386 -0.0851854 0.0740091 -0.00234913 -0.228993 -0.635627 0.0146038 -0.0963007 -0.158748 -0.378799 -0.272178 0.216194 0.497516 -0.0398454 0.0461692 -0.0485032 -0.301457 -0.0163965 -0.320634 -0.0589247 -0.170907 0.116289 0.172571 -0.253851 0.0248104 0.192536 -0.36129 0.338029 0.0774472 0.00581673 0.283721 0.666003 -0.248606 -0.0555944 -0.0101442 0.129664 0.276622 -0.0549717 0.226681 0.202336 -0.0900386 0.0406367 0.0587167 0.103502 0.320639 0.41695 0.33555 -0.119462 0.136537
648121 -0.129768 0.273857 -0.712088 0.134279 0.167814 -0.505843 0.053763 0.366189 -0.0797572 0.383481 0.0190321 -0.0987959 -0.166632 -0.0431908 -0.168209 0.331348 -0.164583 0.353797 0.100569 -0.1653 -0.0666346 -0.164221 -0.0442529 0.0205421 0.0532739 0.575777 -0.534265 0.00436258 0.121023 -0.500534 -0.415673 0.136777 -0.341668 0.0544196 0.0456562 -0.403087 -0.12564 -0.39599 -0.321705 0.092848 -0.0205951 0.09192 -0.302708 -0.145282 -0.0948031 -0.19979 0.146066 -0.00948711 -0.108544 0.0444589 -0.0621743 0.226985 -0.114444 0.302853 -0.258648 0.106511 -0.463311 0.0476312 0.0774698 -0.131983 0.0501892 0.061767 0.381711 0.231375
58552 -0.281727 -0.0229456 -0.0382421 -0.0712621 0.0394228 -0.556847 -0.054649 -0.111706 -0.153362 -0.0458709 0.486575 0.219485 0.0374625 0.0307825 -0.064288 -0.0164156 0.0641081 -0.285683 0.272687 -0.0773017 0.13435 -0.410019 -0.007554 -0.374738 -0.365719 0.138889 -0.337998 -0.264116 0.131739 0.399463 -0.216119 0.0754619 0.224386 -0.378352 0.0199904 0.832603 0.305294 0.0971472 -0.320985 0.0621999 -0.544681 -0.27802 -0.0795104 0.218144 0.249697 -0.168259 -0.0730751 0.205104 0.34083 0.20106 -0.0367606 -0.206492 0.181539 -0.196513 -0.0941073 -0.0512194 -0.203051 -0.169192 0.535452 0.129805 -0.0377891 0.265817 -0.0220986 0.0781717
12337 -0.359273 0.226586 -0.0121621 0.720222 0.0262774 -0.726398 -0.1154 -0.145616 -0.257208 0.213264 0.542989 -0.32574 0.268438 -0.30876 0.32982 0.229494 0.4835 -0.235426 -0.0867837 -0.361128 0.0439867 -0.134628 0.0572932 -0.00379281 -0.634352 0.0347858 0.0175681 0.540035 0.0955261 0.23662 -0.259983 -0.249139 0.0989265 -0.229022 0.210976 0.162935 -0.0184613 0.503078 -0.408983 0.149809 -0.29425 -0.166089 -0.0174178 0.226611 0.279262 -0.144471 0.658283 -0.141772 0.278328 0.233611 0.0799272 -0.0107153 -0.427472 0.434444 -0.190804 -0.420211 0.0124727 0.0126417 -0.061609 0.898198 0.215868 0.233977 -0.133905 -0.081753
1116268 0.0635983 -0.0606511 0.0199777 0.303583 0.0677415 -0.346564 -0.0692436 -0.182752 -0.313033 0.131042 0.438256 -0.299346 0.531745 -0.0231593 0.485519 0.430893 0.295098 -0.509438 0.316284 -0.240556 -0.291968 -0.338296 0.206392 -0.196187 -0.576293 0.0686556 0.0848941 0.573098 0.212102 0.352582 -0.420291 -0.419174 0.194667 -0.378892 -0.183996 0.484581 0.282552 0.146904 -0.296007 0.10595 -0.109818 -0.340692 -0.22771 0.263604 0.179521 -0.132843 0.112271 0.0472625 -0.0908792 0.141673 -0.30888 -0.0547175 -0.427015 0.289349 0.347138 -0.765265 -0.110643 -0.225615 -0.0961693 0.794703 0.18327 0.137208 -0.0984439 -0.307294
57773 -0.110285 0.180841 -0.0516406 0.0546031 -0.207642 0.262956 -0.345208 0.303021 0.143725 0.538136 0.301181 -0.243492 0.115281 -0.19801 0.28204 0.276108 0.409532 -0.271214 0.0734768 -0.0894132 0.129898 -0.435579 -0.0374056 0.159582 0.10347 0.0691948 0.15437 0.0762665 -0.415692 -0.41287 0.164586 0.433081 0.018791 -0.0910725 0.125039 -0.0864286 0.140541 0.158471 0.0233342 -0.0538975 -0.166182 -0.128275 0.167219 -0.271857 0.247303 0.295531 0.0125798 -0.213403 0.283879 -0.906079 -0.0418267 0.0112046 -0.0167355 -0.348698 0.0546439 -0.0847602 0.216072 -0.175819 -0.291926 -0.397438 -0.129069 -0.145413 -0.139335 0.315112
14549 0.552555 -0.440152 -0.310204 0.678335 -0.447344 -0.462098 -0.449814 -0.251126 -0.0671034 -0.00960815 0.206522 0.198846 0.389694 -0.0930002 0.282132 0.217405 0.0333778 -0.291374 0.356257 -0.249791 -0.109587 -0.577992 0.270063 0.154362 0.3267 0.33169 0.254911 0.873568 0.389644 -0.14212 -0.582045 0.0564492 -0.179433 -0.305903 0.141037 0.449317 0.695399 -0.195871 -0.538792 0.00748901 -0.409038 -0.190713 -0.566127 -0.0860785 -0.355539 -0.315835 0.569107 0.217696 0.0318686 0.622572 -1.03338 -0.178004 -0.416454 -0.193858 0.417159 -0.236628 0.186914 -0.666482 0.35642 0.407089 -0.0231066 0.437696 -0.162367 -0.107918
604073 -0.152743 -0.264541 0.0149777 -0.453251 0.398349 -0.490632 -0.0278232 0.227706 0.146539 -0.290894 -0.061656 -0.297689 -0.453079 -0.389687 -0.253368 0.029408 0.32475 -0.328793 -0.380625 -0.172493 0.121359 0.05095 0.444755 -0.187281 0.0488994 0.0755953 0.278297 -0.241437 -0.291882 0.0619472 0.102644 -0.304672 0.125457 0.436732 0.0946302 0.0145786 0.187092 0.261583 0.329859 0.102192 -0.0584911 0.111314 -0.116047 0.386527 0.332048 -0.0478889 -0.16038 0.0264939 -0.190011 -0.0904075 0.12611 -0.220133 -0.312987 0.168472 0.137584 0.479493 -0.504379 0.177501 -0.0567875 0.0241168 0.352979 -0.14575 -0.218308 0.114038
6923 0.280927 -0.368911 -0.475414 0.394403 -0.465103 -0.0938326 -0.397803 -0.149408 0.0418107 0.199139 0.67231 -0.416228 0.242141 -0.0645752 0.719227 0.30762 0.022802 -0.751768 0.378175 -0.347495 0.0901917 -0.451837 0.0492949 -0.168694 -0.557986 0.239174 0.463362 0.863201 0.013429 0.490719 0.0922879 0.429054 -0.0900412 -0.73719 -0.101481 0.187479 0.334022 0.0166554 -0.521482 0.239445 -0.284708 -0.705218 -0.462281 0.28385 -0.145878 -0.0671172 0.616418 0.186768 -0.215501 0.428254 -0.477141 -0.00648746 -0.748232 0.229873 0.194548 -0.958552 0.0335485 -0.262588 -0.267754 0.964208 -0.000716869 0.192298 -0.281061 -0.103856
136766 0.129544 -0.266843 -0.455324 0.236845 -0.345191 0.0487316 -0.433867 -0.20519 0.263429 0.0561326 0.443184 -0.273989 0.0937084 -0.0555659 0.490007 0.450204 -0.182308 -0.518426 0.337624 -0.0475698 0.0450634 -0.189829 0.0217875 0.00102873 -0.283975 0.179196 0.386746 0.61183 0.0475344 0.378837 -0.0755109 0.314209 -0.0899996 -0.487051 -0.113818 0.0776866 0.180748 -0.21683 -0.307321 0.110147 0.0382623 -0.315518 -0.185725 0.0782745 -0.152959 -0.0805146 0.575808 0.186959 -0.103296 0.341187 -0.269016 -0.0231809 -0.578156 0.22206 0.153338 -0.635248 0.0888394 -0.163593 -0.314333 0.595331 0.0276581 0.00853879 -0.0952089 0.00958234
120013 -0.0686053 -0.0352417 0.038083 0.16221 -0.067617 -0.40971 -0.104472 -0.0370366 -0.0295218 0.0410687 0.207978 0.232117 0.327186 -0.0984187 0.0987894 0.0934664 0.220506 -0.319871 0.17495 -0.0159282 -0.082911 -0.164839 0.0394795 -0.287299 -0.359055 0.0652613 -0.149236 0.24095 0.225098 0.100291 -0.169482 -0.00126128 0.0558217 -0.238643 -0.0863701 0.317177 0.346052 0.138429 -0.15865 0.0660894 -0.165679 -0.185462 -0.0506418 0.0252156 0.0992248 -0.159151 0.304205 -0.0356847 0.189733 0.060686 -0.178 -0.108688 -0.147782 0.115119 -0.10419 -0.27617 0.0988566 -0.0884653 -0.0210051 0.414857 -0.0716386 0.190743 -0.0764355 0.061388
52003 -0.376124 0.0802846 -0.42959 -0.0803475 0.195826 -0.111009 -0.629798 0.044088 -0.0995004 -0.540656 -0.403373 -0.159489 0.124002 -0.444011 -0.185342 -0.287134 0.0838856 0.577145 0.364659 0.161105 0.084409 -0.0935869 0.10438 -0.0238896 -0.394801 0.355998 0.376027 -0.246972 0.207969 -0.545149 -0.235745 -0.111187 0.0361837 0.239495 0.347883 -0.177145 -0.312757 -0.351612 0.344304 0.352088 0.255387 0.15516 -0.471879 -0.347702 -0.0859068 0.271488 0.507679 0.214969 -0.2662 0.530649 -0.16755 0.435278 0.740012 0.124093 0.445811 -0.150402 0.150695 0.024119 -0.381523 0.355824 -0.212498 -0.228574 0.427041 -0.347342
180399 -0.0667573 -0.258016 -0.100897 0.274691 -0.312732 -0.40452 -0.188869 -0.133179 -0.00134486 0.0491214 0.345739 -0.10189 0.421435 -0.0322813 0.20566 0.0987197 0.126067 -0.225532 0.232363 -0.367002 -0.094901 -0.410401 -0.0467495 -0.135434 -0.242137 0.306155 0.150754 0.422093 0.0436992 0.176578 -0.373424 -0.271246 0.0124688 -0.584515 -0.164412 0.448359 0.239752 -0.0945691 -0.260602 -0.162968 -0.0988716 -0.547586 -0.156579 0.179267 0.238901 -0.0884063 0.195249 -0.0942116 -0.0046488 0.188234 -0.282539 0.10063 -0.363018 0.267509 0.367744 -0.201577 0.0446993 -0.285066 0.0586475 0.446301 0.0412799 0.299999 -0.120062 -0.0248835
1112417 0.368955 0.284677 0.462062 0.147367 -0.194884 0.425185 0.148534 0.0432022 -0.0562359 0.382391 -0.162089 -0.105667 -0.0738403 0.0339447 -0.421837 0.12731 0.249251 -0.240656 0.303972 -0.0806893 0.110267 0.114986 -0.287053 -0.166787 0.268334 -0.305222 -0.132078 -0.317189 -0.399265 -0.252529 -0.0162388 0.175685 0.467658 0.421871 -0.207697 -0.31848 0.113429 0.00470215 0.202923 -0.211939 0.100229 0.41424 -0.00287258 -0.114406 0.0370092 0.448861 -0.335892 0.0743837 -0.301995 0.00247063 -0.297742 -0.0754216 -0.181161 0.14041 0.270965 -0.251875 0.342448 0.0247247 -0.00651054 0.25109 0.263792 -0.278811 0.0632209 -0.0125092
92589 0.125795 -0.285847 -0.12599 0.210527 -0.257524 -0.249971 -0.237507 -0.109325 -0.120518 0.204103 0.248963 -0.169329 0.259142 0.00281294 0.316347 0.108397 0.0356497 -0.359042 0.277666 -0.208437 -0.15729 -0.456736 0.157407 0.128649 -0.253912 0.373946 0.0163486 0.49268 0.159871 0.237591 -0.430008 -0.0814782 -0.137356 -0.398519 -0.105116 0.24553 0.385311 -0.172389 -0.393308 0.0425416 -0.181722 -0.450071 -0.189832 0.109887 0.0719536 -0.0563334 0.472139 0.144152 -0.251128 0.412732 -0.424858 0.0345971 -0.410315 0.257746 0.168894 -0.439634 0.171312 -0.47587 -0.0432377 0.456526 0.117812 0.296214 -0.228247 -0.0481819
368431 0.213598 -0.130261 0.0124885 0.204994 -0.0765353 -0.270541 -0.211425 -0.196985 -0.106999 0.242038 0.380704 -0.143521 0.295604 0.00699682 0.2105 0.169285 0.0532874 -0.286167 0.295142 -0.0917779 -0.0129648 -0.242361 0.0596511 -0.247334 -0.472799 0.0660307 0.109115 0.435172 0.28291 0.220482 -0.286621 -0.172636 -0.031837 -0.189861 -0.219496 0.247329 0.253202 0.0112155 -0.113524 0.103307 -0.147395 -0.443754 -0.290874 -0.0309675 0.12826 0.0245617 0.211976 0.0216478 0.0122783 0.192727 -0.150163 0.184033 -0.319539 0.229677 0.171205 -0.609147 -0.200164 -0.262886 -0.0993525 0.561763 -0.0619953 -0.0396823 -0.160956 -0.13314
35852 -0.576006 0.113065 -0.0268404 0.0902341 -0.282178 -0.204915 -0.289606 0.155791 -0.268039 0.307885 0.313929 0.127063 0.368678 -0.313468 0.161439 0.175164 0.775332 -0.457298 -0.209221 -0.63869 -0.0275468 -0.242067 -0.176885 0.116161 -0.444368 0.972516 -0.0370471 0.506088 0.169159 0.417345 -0.190993 -0.33582 -0.0987655 0.0383596 0.154272 -0.314491 0.308033 -0.160905 -0.117699 0.32098 -0.150455 -0.347438 -0.082915 0.26732 -0.157035 -0.260284 0.0479279 -0.44333 -0.0471479 -0.380323 -0.186651 0.161044 -0.220671 0.23074 0.106342 -0.0167726 -0.0191856 0.036484 -0.370679 0.466897 0.144902 0.434253 0.249372 -0.0279978
1103985 -0.328565 0.0496971 0.000384685 0.0568137 -0.0889233 -0.0708325 -0.092308 0.0536149 -0.0857096 0.192248 0.170411 -0.0286377 0.182243 -0.0509991 -0.0663172 0.0791411 0.255277 -0.142932 -0.0499937 -0.26138 -0.0721321 -0.160526 0.0157528 -0.0163373 -0.211929 0.342602 0.0265583 0.257439 0.10978 0.149196 -0.109179 -0.219599 -0.121072 0.0169565 0.0554781 -0.280366 0.0570963 -0.0500016 -0.102728 0.122202 0.0495115 -0.238786 -0.0591297 0.0135082 -0.0434552 -0.0132974 -0.0199473 -0.125499 0.0554183 -0.0801513 -0.201596 0.124921 -0.212445 0.0749161 0.0382414 -0.0626884 0.0248892 -0.0326744 -0.130033 0.204719 0.0249796 0.105468 0.10277 -0.132043
1128314 -0.568316 0.0698561 0.016405 0.0830847 -0.159628 -0.179724 -0.0466059 0.00491923 -0.162435 0.348086 0.294465 -0.0629045 0.199505 -0.0898208 -0.14991 0.184422 0.525679 -0.245892 -0.0288162 -0.429707 -0.211688 -0.276918 0.0770343 -0.00415715 -0.228949 0.668726 0.0727596 0.407074 0.271713 0.327426 -0.100675 -0.393128 -0.233365 0.0654873 0.122857 -0.52163 0.173038 -0.0523158 -0.202459 0.25405 0.171042 -0.389317 -0.078121 0.108904 -0.165738 0.124369 -0.0662172 -0.346848 0.171129 -0.0663256 -0.317744 0.258435 -0.316989 0.195278 0.0458938 -0.140136 0.0414028 -0.0282299 -0.236101 0.325638 1.33718e-06 0.244114 0.282708 -0.230477
1109542 -0.0326506 -0.124475 -0.0768887 0.150937 -0.00354729 -0.233753 -0.161819 -0.327301 -0.00410791 0.114296 0.305067 0.0472913 0.477716 -0.0355933 0.067705 0.15479 0.33166 -0.155525 0.279773 -0.311379 -0.203197 -0.249162 0.12515 -0.244006 -0.448466 0.238005 0.171033 0.497665 0.11041 0.263707 -0.248248 0.120357 0.089449 -0.4395 -0.0959708 0.354001 0.157798 -0.141673 -0.145892 -0.185544 -0.139118 -0.182824 -0.0339713 0.252565 0.274447 -0.202666 0.422239 0.133694 -0.104901 0.257743 -0.234912 0.133443 -0.134893 0.141766 0.0896646 -0.270104 0.0393098 -0.420141 0.0120621 0.431335 0.0136102 0.123697 -0.115309 -0.028323
103543 -0.193502 -0.216352 0.248151 0.679294 -0.144169 -0.141071 -0.217748 -0.536911 0.092128 -0.105695 -0.0490703 0.38921 0.143662 -0.304208 0.287148 -0.0560774 0.315478 -0.338555 -0.0189409 -0.188521 -0.131525 0.259128 0.0128304 -0.290536 -0.150572 -0.359881 -0.338147 -0.0171424 0.349585 0.263138 -0.0167097 0.141253 0.298751 -0.239276 0.190717 0.83124 0.252637 -0.15392 -0.582569 -0.3624 0.100137 0.21035 -0.249566 0.469791 0.44022 -0.203295 -0.333673 -0.32223 -0.184413 -0.460489 -0.361326 -0.33902 -0.147754 0.357286 -0.0496281 -0.56826 0.138569 0.513741 0.323072 0.285504 -0.0557564 0.968627 -0.354347 0.647496
61417 0.171667 -0.0963963 -0.754839 0.206944 -0.238006 0.0355904 -0.563155 -0.245084 0.092965 0.112344 0.310611 -0.150639 0.156231 -0.0801359 0.484625 0.187501 0.0354781 -0.425426 0.169709 -0.320152 0.373337 -0.18303 -0.132715 -0.079583 -0.496324 -0.0735088 0.545639 0.598688 0.0386069 0.481337 0.28916 0.434474 -0.0377019 -0.644032 -0.200503 0.111374 0.106264 -0.0327586 -0.422962 0.433068 -0.221061 -0.480627 -0.229302 -0.113731 -0.344883 0.121856 0.717966 -0.306233 -0.0756705 0.416155 -0.204627 0.058233 -0.54968 0.160936 0.0404222 -0.638259 -0.00302798 -0.235884 -0.374335 0.696391 0.101999 0.20594 0.0517698 0.25267
102061 -0.485625 -0.0776517 -0.184445 0.174166 -0.238066 -0.258115 -0.0941887 0.256119 -0.0458871 0.230038 0.372836 -0.158153 0.388968 -0.102021 -0.329996 -0.027753 0.444586 -0.324259 -0.0452579 -0.437395 -0.0280716 -0.391638 -0.0991826 -0.104364 -0.303161 0.604876 0.146226 0.474444 -0.00991342 0.417081 -0.0030741 -0.297365 -0.0996143 0.0376852 0.141558 -0.350202 0.102886 0.0767297 -0.190131 0.247388 0.0264201 -0.338263 0.0689751 0.0995157 -0.0251252 -0.137216 0.0289374 -0.205476 0.0951744 0.108184 -0.326328 0.260499 -0.271405 0.263354 0.123876 -0.195476 -0.0556276 0.0353187 -0.30923 0.399609 0.207196 0.275896 0.210658 -0.313349
18536 -0.227904 0.35195 -0.0658296 -0.00221339 0.460331 -0.452485 -0.102424 -0.218472 -0.432559 -0.0867887 0.289061 0.499734 -0.000551028 -0.31878 -0.437096 0.233323 -0.156746 -0.681995 0.0299481 -0.218759 -0.403038 -0.556155 0.408142 -0.312149 -0.389676 0.604254 -0.109431 -0.206991 0.523321 -0.328339 -0.202454 -0.233183 0.535362 -0.0925282 -0.471291 0.0326964 0.955584 0.203874 -0.246852 -0.052459 0.234434 -0.171128 0.111527 0.398678 0.24541 0.361163 -0.0491941 0.0430171 0.527628 -0.319245 0.370717 0.0555742 -0.215071 -0.148827 0.067301 -0.134012 -0.210779 0.433862 -0.188372 0.450588 0.0233318 0.48521 0.457504 -0.104882
948147 -0.138194 0.020493 -0.25124 0.45246 -0.292347 -0.490857 -0.0775046 0.0512473 0.00199502 -0.159614 0.194378 0.295788 0.166018 -0.0813249 -0.0109187 0.0981807 0.164621 -0.432207 0.15021 0.126529 -0.155327 0.0864577 0.149167 -0.148832 -0.368591 0.233887 -0.0697994 0.273779 0.0137092 -0.0130426 -0.0785918 -0.0334861 0.130303 -0.449165 0.250804 0.757486 0.297267 0.242183 -0.135527 0.0744636 -0.355522 -0.102303 -0.164489 0.0939743 0.45875 -0.317234 0.251058 -0.0815941 0.0460408 -0.00640154 -0.530129 -0.0981531 -0.0244555 0.142149 0.0048635 0.014539 -0.226083 -0.0439802 0.367557 0.324884 -0.228853 0.712738 -0.156562 -0.00971469
594900 -0.31496 0.0220026 -0.0175838 0.0549092 -0.102087 -0.091205 -0.070892 0.044555 -0.0959803 0.161687 0.140038 -0.0455492 0.148456 -0.0697839 -0.0474295 0.0706796 0.232633 -0.145544 -0.0539349 -0.221008 -0.0754083 -0.141127 -0.00902493 -0.000411844 -0.177112 0.303298 0.0126213 0.192024 0.0937729 0.144132 -0.0586774 -0.183574 -0.116619 0.0193376 0.052246 -0.247663 0.0489159 -0.0407149 -0.100607 0.130945 0.0427657 -0.222954 -0.0441214 0.018901 -0.0660646 -0.00706527 -0.0184549 -0.14162 0.0372419 -0.0587502 -0.142487 0.0912405 -0.164326 0.0821612 0.0334508 -0.0534546 0.0152343 -0.0216228 -0.141135 0.174656 0.0141804 0.113114 0.124802 -0.114531
1128975 -0.618804 -0.0981694 -0.0370977 0.162118 -0.307831 -0.163898 -0.193642 0.0275731 -0.0899566 0.204781 0.30813 -0.108637 0.233489 -0.23995 0.124883 0.0161372 0.478312 -0.429778 -0.043212 -0.467377 -0.126131 -0.229999 0.0483145 0.10818 -0.353151 0.758113 0.0955441 0.4383 0.157522 0.311422 -0.101 -0.408897 -0.0762819 -0.0213398 0.11695 -0.24673 0.215608 -0.0412461 -0.161407 0.155596 -0.0788075 -0.316677 -0.0125415 0.21346 -0.164874 -0.109431 0.125195 -0.370095 0.0760806 -0.120113 -0.205578 0.0960678 -0.239852 0.0387337 0.0989224 -0.0611462 0.0497423 -0.152569 -0.326655 0.371119 0.12967 0.443893 0.134484 -0.138231
78555 -0.371717 -0.00664966 -0.139466 0.432456 0.189747 -0.56307 -0.217176 0.00648045 -0.273036 0.26696 0.26222 -0.0813594 -0.215322 -0.0715125 0.0323967 -0.013024 0.0785829 -0.251727 -0.0865527 -0.32381 0.115572 -0.0131369 0.399621 -0.408517 -0.387835 0.302662 -0.155596 0.215956 0.29851 0.30067 -0.0847671 -0.217776 0.189952 -0.159229 0.0342897 0.125434 -0.0669216 0.35896 -0.277422 0.248921 0.113486 -0.111021 -0.416603 0.337874 0.0908821 -0.0158008 0.27329 -0.291401 0.545954 -0.232378 -0.288894 0.279713 -0.0253349 0.148099 -0.323191 -0.122277 0.210206 -0.0243937 0.305762 0.38115 -0.0901374 0.202431 0.144123 -0.147475
675756 -0.257534 -0.0365591 0.0104353 0.0664497 0.0242163 -0.553434 -0.102936 -0.0937329 -0.0406191 -0.130798 0.470056 0.270626 0.0297387 0.203327 -0.0261027 0.0390643 0.165201 -0.204545 0.327119 -0.077625 0.00726089 -0.124398 0.0980873 -0.33768 -0.472704 0.267222 -0.293421 -0.188923 0.162723 0.356782 -0.224644 0.062273 0.181994 -0.366108 -0.0649947 0.779776 0.383528 0.302528 -0.367181 -0.0109588 -0.430045 -0.225408 -0.0584261 0.138074 0.399448 -0.410971 0.0769025 -0.0318727 0.422697 0.259442 -0.33948 -0.148459 0.0569511 -0.0456692 -0.0696983 -0.0725654 -0.179623 -0.097816 0.273656 0.131205 -0.0744587 0.324456 0.00784867 0.0783635
1152676 -0.588569 -0.106678 0.0100032 0.196902 -0.314984 -0.143476 -0.0400034 0.130311 -0.0420951 0.123341 0.305843 0.0656808 0.378751 -0.140489 0.0867484 0.28946 0.465159 -0.225117 0.0307688 -0.200834 -0.0483521 -0.283289 -0.00393213 -0.0573768 -0.181557 0.44484 0.14641 0.358416 0.350055 0.0469011 -0.154987 -0.357068 -0.188281 0.118668 0.0905397 -0.40971 0.17866 -0.018094 -0.297249 0.0971963 -0.150134 -0.397656 0.0108514 0.0862198 0.0336609 -0.142575 0.242349 -0.452048 0.110763 0.00981878 -0.159183 0.258757 -0.367441 -0.0303121 0.162336 0.032422 0.16202 -0.159042 -0.321501 0.309711 0.00816204 0.372803 0.0670487 -0.133407
1131180 -0.247142 -0.178485 0.205633 0.0570856 0.0251379 0.0497028 -0.172182 -0.342984 0.0734084 -0.231431 -0.225087 0.237084 0.218264 0.204052 0.0932035 -0.150365 0.313353 -0.289232 0.0773472 -0.276042 0.0634127 -0.0641329 -0.235055 0.00567386 0.0790314 -0.0924159 -0.142796 -0.0233122 0.398765 0.146012 0.185941 0.0354779 0.116032 -0.013452 0.133539 0.224704 0.052828 -0.173045 -0.193107 -0.383386 0.37779 0.241262 -0.211089 0.195978 0.118406 0.183566 -0.179368 -0.139055 0.083984 -0.478602 -0.133224 -0.196075 -0.0577301 0.0902709 -0.0564151 -0.206432 0.30555 0.490195 0.112688 0.00752505 0.0586475 0.340201 0.145623 0.518067
35922 -0.365276 0.012728 0.1024 1.19162 -0.142269 -0.971593 -0.494308 0.0761492 -0.12014 -0.0946555 0.989317 0.656926 0.63935 -0.416996 0.2398 0.00428936 0.189152 -0.679736 0.0463131 -0.376707 0.09634 -0.990483 0.429787 -0.77389 -1.41768 0.848287 -0.0670295 0.603078 -0.390989 0.475164 -0.432227 -0.728589 0.625307 -1.26692 0.180911 1.48387 1.05362 0.394993 -0.652051 -0.346106 -0.579963 -0.98035 -0.343784 0.702302 0.954003 -0.72641 0.488619 -0.081352 0.502224 -0.015113 -0.781377 -0.282423 0.0117065 0.401631 -0.0418043 -0.298844 -0.452064 -0.308976 0.264413 0.77558 -0.364396 1.25019 -0.278699 0.135088
312409 -0.0944955 -0.075233 0.0349785 0.276686 0.62654 0.0360251 -0.137863 -0.0237817 -0.0960181 -0.23954 0.182169 0.238393 0.207028 -0.0483376 0.118121 0.137997 0.19971 -0.130526 -0.205711 0.0933233 0.303813 -0.206283 -0.256258 0.358808 0.0917135 -0.300456 0.200928 -0.61949 0.152419 -0.210915 0.152531 -0.0244146 -0.0369662 -0.142667 -0.0593096 -0.3438 -0.0219495 -0.403058 -0.119345 0.228674 0.293441 0.0540229 -0.504529 0.393052 0.220422 -0.319772 0.258049 0.116822 -0.129529 -0.408387 -0.24806 -0.0775428 0.456339 0.0468699 -0.079059 -0.260473 0.0205905 0.234487 -0.207853 0.0454795 0.0166944 0.282497 -0.351542 0.571485
178727 -0.375526 0.0275094 0.00292512 0.0839549 -0.103533 -0.131236 -0.138544 0.102962 -0.133625 0.236446 0.195768 -0.0717125 0.229301 -0.0701823 -0.084484 0.1121 0.302857 -0.192735 -0.0624856 -0.345574 -0.0567113 -0.254795 0.00627806 -0.0149755 -0.28386 0.412996 0.0553706 0.304825 0.0817523 0.181476 -0.128383 -0.260853 -0.12458 -0.0286246 0.0776223 -0.273085 0.0703707 -0.0845583 -0.165161 0.160106 0.08584 -0.269768 -0.0354957 0.0238915 -0.0416944 -0.018407 -0.0453635 -0.171961 0.0605396 -0.0979638 -0.247358 0.117829 -0.234669 0.0881487 0.0228176 -0.101652 -0.0361159 0.0217862 -0.170587 0.228079 0.0361014 0.178373 0.190652 -0.128198
1061127 0.125081 -0.135141 -0.312546 0.15112 -0.155965 0.0632008 -0.260176 -0.125437 0.0646856 0.0196558 0.33689 -0.166789 0.0707147 -0.0305761 0.352919 0.20412 -0.0280039 -0.374222 0.163355 -0.142142 0.0758082 -0.167588 0.0256194 -0.089994 -0.254762 0.0574639 0.285618 0.39722 0.000768716 0.244863 0.0418279 0.210442 -0.0677173 -0.401099 -0.0493551 0.111643 0.12323 -0.0569601 -0.243144 0.108095 -0.0463684 -0.296008 -0.229134 0.0837439 -0.137277 -0.0331007 0.336629 0.061414 -0.0390046 0.198482 -0.172012 -0.0619142 -0.369747 0.0971574 0.0649021 -0.479075 0.00646903 -0.154448 -0.153657 0.432123 0.00267408 0.0327162 -0.0657109 -0.0107275
18582 -0.313058 -0.0147522 0.00897345 0.0798352 -0.136317 -0.0886255 -0.084923 0.0506953 -0.0874205 0.145847 0.153964 -0.0146761 0.173971 -0.0676664 -0.00305488 0.107454 0.239232 -0.157933 -0.0302007 -0.212938 -0.0189137 -0.137605 -0.00813786 -0.0132843 -0.15341 0.32355 0.0333169 0.221214 0.14477 0.138261 -0.0835386 -0.169668 -0.114907 0.0315661 0.045058 -0.23389 0.0718842 -0.0398122 -0.110146 0.136395 0.019163 -0.208399 -0.0488286 0.0277375 -0.043558 -0.028697 0.04375 -0.18454 0.0662916 -0.0399858 -0.168891 0.1101 -0.205079 0.060399 0.051465 -0.0328363 0.0361539 -0.0397464 -0.170785 0.176783 0.0231118 0.161432 0.131039 -0.132587
379288 -0.160981 0.288684 -0.0698531 0.254048 -0.298336 -0.424087 0.236003 0.0637814 -0.183878 -0.328781 0.501358 -0.383375 0.0482679 -0.0534755 0.0831931 0.179326 -0.0246827 0.0151502 -0.116694 -0.16343 0.0372007 -0.206887 0.175735 0.116174 -0.452208 0.11597 0.145293 0.656094 0.246809 -0.0798111 -0.0714493 -0.371858 0.098062 0.0350228 0.100092 -0.300805 -0.0493064 0.336032 -0.0626105 0.205519 0.149411 -0.373136 0.406764 0.0455542 0.291217 0.209441 0.483358 0.0323499 0.0545753 0.0336654 -0.0657686 0.340382 0.0107531 0.122923 -0.0803455 -0.597255 -0.108085 -0.0824534 -0.279064 0.212095 0.230653 0.217862 -0.209017 0.139228
1154232 0.33541 0.280654 -0.085118 0.307893 -0.113595 -0.0693898 -0.153351 -0.176121 -0.187822 0.12303 0.0281174 0.0334484 -0.0798523 -0.277314 0.105655 0.179705 0.0796259 -0.0917784 0.143333 0.00677462 -0.311952 -0.194414 0.208465 -0.124525 -0.322373 0.418068 -0.0124122 0.25584 -0.0193077 -0.00201695 0.107101 -0.170309 0.383774 -0.370322 0.194825 -0.0558373 0.379329 -0.45483 -0.277133 0.0569241 -0.248722 -0.204877 -0.147398 0.342565 0.306651 -0.406652 0.280565 0.15784 -0.306074 -0.154318 -0.426942 0.134078 -0.143611 0.0665092 0.00784157 -0.482472 0.295093 -0.497988 -0.165204 0.30513 0.175531 0.471485 -0.227388 -0.167031
111676 0.0392752 -0.222571 0.306133 0.0135154 0.170437 -0.288472 -0.331052 -0.138493 -0.0713132 0.0542096 0.0037652 -0.463146 0.34527 -0.218661 0.259353 0.305262 -0.29459 -0.557041 0.45424 0.029079 -0.0624807 0.0643524 0.000526432 0.0107806 -0.690456 0.006027 -0.15453 0.318279 0.414168 0.269717 0.100077 0.00866997 0.0117752 0.0718679 -0.19557 0.101211 -0.0042688 0.157413 -0.13821 0.337352 -0.20778 -0.726931 0.330255 0.00108517 -0.212625 0.113894 0.532136 -0.314748 0.0932221 0.178408 -0.0956387 0.0451809 -0.216461 0.152809 0.104812 -0.317916 -0.112519 0.0444727 -0.122356 0.238729 0.243431 0.201557 0.141767 0.0646094
1132443 -0.349857 -0.160388 0.0194068 0.282688 -0.0540263 -0.475569 -0.152369 0.0264046 -0.0513301 -0.00146989 0.449267 0.108311 0.114347 0.106004 0.0305011 0.0335612 -0.0347641 -0.225498 0.240414 -0.115796 -0.0206658 -0.231518 0.182422 -0.50758 -0.491296 0.563423 -0.106683 0.120473 0.0766956 0.202816 -0.325914 -0.134091 0.349972 -0.599227 -0.149487 0.678488 0.264334 0.270264 -0.377687 -0.156019 -0.186395 -0.428064 -0.0150445 0.256486 0.360788 -0.413219 0.32304 -0.186656 0.440637 0.162474 -0.465579 0.0733645 -0.234874 -0.0477498 -0.101255 -0.244027 -0.0794111 0.0137248 0.0639236 0.125603 -0.0479999 0.306143 0.0375915 -0.115123
248425 -0.814714 0.0297974 0.00203338 -0.00517718 -0.141409 -0.118801 -0.0741692 0.0231842 -0.151566 0.367113 0.499289 -0.166824 0.417049 -0.0578508 -0.289755 0.269788 0.7193 -0.304761 -0.0790042 -0.565776 -0.0639445 -0.369336 0.0154232 0.0498799 -0.209105 0.687228 0.206733 0.359737 0.28433 0.441617 -0.158107 -0.486781 -0.345323 -0.00482118 0.0493668 -0.641535 0.0821125 -0.115098 -0.253376 0.203535 -0.0308946 -0.660511 0.0767489 0.06559 -0.0668789 -0.0333099 0.0569327 -0.473678 0.0648994 -0.0614282 -0.342 0.234447 -0.306161 0.0610616 0.14637 0.00684425 -0.0409997 -0.0141329 -0.226398 0.495061 0.188131 0.299069 0.312289 -0.163563
739816 -0.124074 -0.00694284 0.529437 0.436545 0.122349 -0.472958 -0.412371 -0.122433 -0.138316 -0.321785 0.230214 0.125587 -0.0581648 0.622454 -0.00545444 0.148354 0.0500568 -0.360498 0.533759 0.390443 -0.348105 -0.495946 0.114442 -0.175759 -0.528447 0.0570206 0.056181 0.156851 -0.268239 0.0345323 -0.0173775 -0.176726 0.33713 -0.699946 -0.0889657 0.518622 0.244949 0.27231 -0.499378 -0.0602734 -0.255079 0.00303682 -0.165669 0.48211 0.42961 -0.435702 0.169556 -0.297685 -0.0776635 -0.172842 0.0655326 0.302574 0.141903 0.563888 -0.10125 -0.00614417 0.0308533 -0.172092 0.177275 0.685297 -0.20645 0.602809 -0.393144 -0.0573735
634902 -0.339308 0.0258594 -0.00707534 0.0582828 -0.106716 -0.0940157 -0.0627854 0.0315711 -0.10434 0.165036 0.143959 -0.039829 0.151097 -0.0736764 -0.0587206 0.0718223 0.254386 -0.135643 -0.0598826 -0.221376 -0.0571825 -0.126864 0.00448764 -0.0211091 -0.167717 0.30457 0.0287932 0.195295 0.106056 0.141516 -0.0821438 -0.189033 -0.119759 0.0202815 0.0637671 -0.263675 0.0459783 -0.0589953 -0.112837 0.139353 0.0733919 -0.230526 -0.0522778 0.0297927 -0.0656463 -0.00695252 -0.00220177 -0.154453 0.0489012 -0.0566959 -0.165531 0.0918029 -0.193674 0.0780032 0.0491442 -0.045253 0.0207829 -0.030193 -0.141414 0.188357 0.0169026 0.139054 0.136613 -0.12565
817774 -0.060479 0.324552 -0.232058 0.356758 0.126369 0.118998 -0.502621 -0.280576 0.0745004 0.410859 0.223066 -0.162247 0.182595 -0.228219 0.0266043 -0.0460455 -0.0418298 0.140558 0.295698 -0.242548 -0.324396 -0.225013 0.465319 -0.145721 0.0775546 -0.176802 -0.171024 -0.134931 -0.0272008 -0.297605 0.198507 0.0957084 -0.254322 0.14791 0.268655 -0.302268 0.0546271 -0.191028 0.279512 0.341411 -0.446537 0.339253 0.182552 0.161799 0.109322 0.418165 -0.285935 0.385281 0.279141 0.268256 -0.120115 0.420517 -0.0242558 0.316655 0.269661 0.0559068 0.20335 -0.100959 -0.211239 -0.256497 0.0554749 -0.0189337 -0.111764 -0.0913507
149669 0.0662167 0.0317714 -0.241473 0.520901 -0.294066 -0.246301 -0.245063 0.0721317 -0.120475 0.0546394 0.188126 -0.1102 0.272353 -0.333561 0.432136 0.0387147 0.137281 -0.151432 0.316424 0.0890499 -0.168822 -0.398908 0.198522 -0.302495 -0.531459 0.490945 -0.0867622 0.224088 0.049825 0.0619809 -0.0254567 -0.139858 0.223337 -0.327405 0.120667 -0.0461528 0.508303 -0.183631 -0.40426 0.011895 -0.44354 -0.305003 0.0211923 0.429833 0.355609 -0.253844 0.585798 -0.106262 -0.258377 0.00966168 -0.386466 0.0518651 -0.09979 -0.0120581 0.0102343 -0.348635 0.148343 -0.383125 -0.21089 0.514362 -0.0280192 0.416566 -0.227917 -0.109397
7272 -0.160664 -0.119984 0.0308157 0.603871 -0.316887 -0.560276 -0.119785 0.0945816 0.0759117 -0.17044 0.194465 0.159507 0.076969 -0.115015 -0.174555 0.0272723 -0.164822 -0.375798 0.255595 0.0233028 -0.328749 0.0804371 0.171708 -0.231167 0.0242054 0.237387 0.110458 0.15054 -0.133192 -0.0275871 -0.113113 0.169275 0.380397 -0.500322 0.185362 0.573154 0.269665 0.0841431 -0.00363939 -0.133019 -0.13747 -0.27588 -0.108091 0.377611 0.962183 -0.233729 0.0436406 0.0156256 0.0781084 0.130066 -0.507929 -0.159943 -0.245638 0.29907 0.0826169 -0.0143294 -0.00268746 -0.379996 0.137255 0.279102 -0.449866 0.898045 -0.242718 0.346995
943087 0.000318282 0.0915704 -0.119068 0.344879 -0.159004 -0.269341 0.0134764 0.164221 0.0956617 -0.00762871 0.30772 -0.345126 0.439618 -0.288635 0.131501 0.568814 -0.0181159 -0.422631 0.113447 -0.219303 -0.108193 -0.193948 -0.025025 -0.214363 0.178704 0.299612 -0.163975 0.380796 0.0573375 0.334186 -0.135453 -0.357411 0.135743 -0.268233 0.0340416 0.488963 0.38519 0.293326 -0.272325 0.0388704 -0.182028 -0.386418 0.239444 0.11039 -0.188495 -0.347497 0.0399015 -0.100362 -0.0224022 0.309038 -0.0895322 0.166 -0.116289 0.166088 0.258484 -0.188394 -0.0446467 0.0885246 0.185779 0.549076 0.043817 0.140576 0.010811 -0.0191659
31083 0.137076 -0.0646421 0.170764 0.176733 -0.360608 -0.353368 -0.0864248 -0.156169 0.250158 0.151529 0.580343 -0.341067 0.547192 0.159762 0.269068 0.138641 0.134886 -0.322826 0.237022 -0.546593 -0.209049 -0.507526 -0.0814343 -0.149545 -0.31092 0.408248 0.25968 0.332532 0.0365386 0.221493 -0.517312 -0.0708184 -0.343035 -0.548499 0.0284779 0.395646 0.086299 -0.135448 -0.178765 -0.0614277 -0.0309595 -0.771897 -0.17895 0.128009 0.183646 0.0574375 0.286166 -0.0176685 0.0338619 0.32767 -0.28043 0.0566567 -0.337445 0.186574 0.212567 -0.303644 0.0840356 -0.292416 0.205322 0.508415 0.0924403 0.0865145 -0.164572 -0.31959
230884 -0.0848935 0.0917541 -0.00595589 0.176971 0.206573 -0.597516 0.0950183 0.13787 0.0186943 -0.292134 0.495391 0.0619634 0.216737 -0.108613 -0.0224318 0.167426 0.0535294 -0.281375 0.189229 -0.0130313 -0.015603 -0.13152 0.404424 -0.0663487 0.082944 0.110085 -0.143721 -0.147126 -0.211126 -0.310252 -0.343345 -0.0814918 0.552263 -0.34078 0.200384 0.402798 0.125222 0.0942309 0.0127744 -0.0543143 -0.117724 -0.131882 0.0779732 0.300362 0.583227 -0.0495433 -0.225353 0.102046 0.212372 0.269934 -0.207322 -0.0919067 -0.112194 0.138989 0.154581 0.128477 0.416849 -0.0667677 0.20355 0.14116 -0.339044 0.387853 -0.316448 -0.0337247
12631 -0.441833 0.0979541 0.21161 0.129086 -0.197821 -0.522283 -0.322546 -0.074573 -0.0985737 0.16703 0.240878 0.271265 0.438121 -0.23421 -0.371657 0.190898 -0.148767 -0.148222 0.0758815 -0.608195 -0.450475 -0.447517 -0.0347368 -0.604371 -0.197641 -0.332717 -0.24274 0.185411 0.23923 0.487411 0.142873 -0.302212 0.179823 -0.169127 -0.278899 0.453685 0.863462 0.0580081 -0.665388 0.101987 -0.46786 -0.322002 0.146887 0.364289 0.219822 0.0279015 0.387151 -0.318024 0.346246 0.14023 -0.0497668 -0.100929 -0.242052 0.326322 -0.300888 -0.197521 0.0817866 0.200631 0.0683009 0.38769 0.125023 0.425626 -0.00770149 -0.0841323
10174 0.17771 -0.232743 -0.0942569 0.151691 -0.0343401 -0.218094 -0.143118 0.231708 -0.0664638 -0.0767574 0.189372 -0.459798 -0.00829109 -0.146236 0.427442 0.141834 -0.268791 -0.284839 0.253989 0.0800253 -0.0175496 -0.182185 -0.0982681 -0.271113 -0.332157 0.364334 0.0123744 0.196118 0.152108 0.060064 -0.231911 -0.394665 0.187375 -0.464539 -0.131987 0.0385017 0.0501014 -0.119689 -0.0931871 0.0426858 -0.114863 -0.332959 -0.159805 -0.0394116 -0.125596 0.291604 0.312612 -0.241985 0.0352403 0.361055 -0.120918 0.248525 -0.473935 0.136929 0.107034 -0.453519 -0.0665559 -0.109641 -0.257495 0.35353 -0.0401667 0.130992 -0.222919 -0.276028
11148 0.150558 -0.730424 0.420359 0.482301 -0.0552128 0.302708 -0.123261 0.146166 -0.0678245 -0.0297651 -0.197979 0.0628212 -0.218914 0.407672 -0.186834 -0.110507 0.494146 0.545614 -0.00940169 -0.512822 -0.179217 0.035946 0.136522 -0.131555 -0.0813069 -0.459014 -0.591916 0.183649 0.0602142 -0.0155069 -0.312522 0.0647067 0.018351 -0.386182 -0.377316 0.351127 0.145836 0.612835 -0.485421 -0.24708 0.153892 0.100092 0.876636 0.123939 0.191579 -0.355768 0.291526 -0.622799 -0.0532479 0.0762836 0.400796 0.293214 0.133673 -0.145034 -0.176028 0.0818087 0.033408 -0.0941685 -0.263156 -0.247579 0.0939638 -0.33947 0.138985 0.0811917
54131 -0.794125 -0.0352377 0.1364 -0.0932104 -0.224615 -0.184137 -0.0143343 -0.201145 -0.161148 0.48614 0.785041 -0.219315 0.354847 -0.282566 -0.391072 0.152115 0.895856 -0.475896 -0.0636239 -0.983255 -0.576415 -0.665225 0.0213823 -0.0445477 -0.263441 1.21633 0.0181881 0.767452 0.146535 0.80828 -0.511166 -0.644201 -0.634163 0.0711855 -0.11554 -0.805569 0.138164 -0.121707 -0.532786 0.410959 -0.00134331 -0.609495 -0.131006 0.206223 -0.326403 0.0949883 0.090556 -0.632389 0.0946999 -0.130516 -0.642856 0.280695 -0.481801 0.352023 0.146965 0.0579981 -0.115252 -0.119987 0.00964266 0.757631 0.198497 0.536784 0.454199 -0.292386
345340 -0.018664 0.00982589 -0.141854 0.41516 -0.209179 -0.213357 -0.155755 0.126456 -0.0699483 0.0016775 0.3335 0.00265649 0.375966 -0.299184 0.526582 -0.105775 0.152567 -0.20944 0.240569 0.0521601 -0.123791 -0.294962 0.229529 -0.443553 -0.520073 0.355459 -0.124747 0.26312 0.0769138 0.0455824 -0.0632166 -0.0554806 0.017815 -0.269197 0.0288958 0.170858 0.355665 0.180957 -0.292834 0.0575705 -0.262359 -0.342365 0.0429359 0.367028 0.308616 -0.187457 0.51285 -0.186845 -0.115268 0.142493 -0.263994 -0.127678 -0.151974 0.0310455 -0.182838 -0.304837 -0.044044 -0.103658 -0.157341 0.463829 -0.13811 0.215359 -0.205349 0.0820008
51831 -0.329303 0.253524 0.0648408 0.613887 0.164258 -0.638363 -0.0170829 0.0217523 -0.24909 0.0871197 0.402641 -0.259298 0.0344196 -0.13851 0.366374 -0.149263 0.302706 -0.0933807 -0.182786 -0.278499 0.316356 -0.0171712 0.0604783 0.233025 -0.481542 -0.143114 0.0598632 0.347298 0.00173203 0.0519609 -0.275919 -0.127639 -0.0568815 -0.257216 0.229134 0.0140525 -0.233735 0.250479 -0.231955 0.157918 -0.266069 0.00613912 0.011715 0.0701222 0.337299 -0.187409 0.677495 -0.0817011 0.181976 0.150859 0.169605 0.0534198 -0.178908 0.286041 -0.228953 -0.106212 -0.174919 0.136321 0.0407542 0.541556 0.0670395 0.233075 -0.195701 -0.0231004
210309 0.0560181 0.0544467 -0.0903025 0.301502 -0.156077 -0.256294 0.00631728 0.117213 0.117224 0.044059 0.231813 -0.301927 0.381291 -0.223472 0.130078 0.473295 0.0366715 -0.365475 0.125043 -0.22766 -0.0885892 -0.180249 -0.0364281 -0.174085 0.0891065 0.284328 -0.0813783 0.379012 0.0585803 0.263304 -0.0938964 -0.287776 0.126777 -0.291854 0.00740953 0.410477 0.315112 0.244013 -0.257701 0.0478364 -0.161692 -0.319908 0.152523 0.123252 -0.162581 -0.262779 0.0520131 -0.0669375 -0.031547 0.262226 -0.109474 0.136682 -0.142141 0.185748 0.218189 -0.184972 -0.0268948 0.0566027 0.141717 0.489071 0.0276924 0.149968 -0.0224299 -0.0610674
1115166 -0.365125 0.157803 0.0703841 0.0326016 -0.0360978 -0.378818 -0.0298691 0.13281 0.0278135 -0.302032 0.0408662 -0.000936194 0.120174 -0.46725 0.205169 0.182048 -0.0180862 -0.450926 -0.314282 -0.325248 -0.398101 -0.297816 0.281294 0.154058 -0.123456 -0.128365 0.342231 0.494664 0.406714 0.023161 -0.204229 -0.353718 0.256417 -0.0107058 0.342387 -0.554299 -0.0393124 0.0452642 0.0733605 0.144758 -0.330473 -0.311991 0.172319 -0.00823806 -0.364515 0.080281 0.558349 -0.281678 -0.155156 0.136264 0.213543 0.217402 0.0285675 0.066379 -0.0960213 -0.168818 -0.0749373 0.0347494 -0.371261 -0.226427 -0.134815 0.304316 0.179843 -0.0310644
6941 0.341576 -0.207849 -0.0273208 0.374758 -0.284629 -0.128973 -0.221926 -0.0263919 -0.00420369 0.221645 0.360277 -0.354664 0.152367 -0.0380016 0.479382 0.245206 0.0968872 -0.517441 0.280913 -0.253985 -0.0194586 -0.182724 0.15237 -0.125773 -0.310721 0.091999 0.232911 0.729758 0.0786293 0.253744 -0.0407797 0.174142 -0.00762887 -0.483162 -0.179306 0.12134 0.377874 -0.0275711 -0.237128 0.150933 -0.135282 -0.476185 -0.237814 0.158064 -0.104425 -0.0705492 0.220251 0.228566 -0.0939019 0.249203 -0.299165 -0.00122218 -0.28625 0.186423 0.32971 -0.543408 -0.0178127 -0.0173991 -0.0858547 0.717144 -0.088866 0.128449 -0.199527 -0.157941
1128945 -0.307331 0.0292916 -0.0124456 0.0542365 -0.0871199 -0.0850738 -0.071216 0.0369594 -0.0835024 0.159165 0.144931 -0.0447199 0.150241 -0.0666882 -0.0507287 0.0681462 0.241741 -0.134027 -0.0503558 -0.220468 -0.0747158 -0.130882 0.0125787 -0.00473958 -0.169235 0.29698 0.0200958 0.20211 0.103558 0.132121 -0.0650665 -0.17677 -0.106169 0.0132025 0.0569693 -0.237816 0.0464406 -0.0476703 -0.102311 0.139385 0.0498573 -0.218548 -0.0354331 0.0251556 -0.0659259 0.000896315 -0.00900336 -0.137338 0.0487516 -0.0586694 -0.150904 0.0919048 -0.177919 0.0797931 0.0337559 -0.0495408 0.00831127 -0.0339514 -0.128396 0.179965 0.0190824 0.122608 0.121622 -0.126537
11342 0.0991543 -0.0395108 0.0358132 0.282293 -0.0852113 -0.296409 -0.187975 -0.196713 -0.0834369 0.158934 0.393258 -0.152594 0.29935 -0.116076 0.296648 0.298943 0.188676 -0.364478 0.281245 -0.164347 -0.0409561 -0.223209 0.13383 -0.411279 -0.506816 0.206962 0.131413 0.503236 0.223178 0.19572 -0.134469 -0.136482 0.0021526 -0.340384 -0.129849 0.373488 0.222132 0.125347 -0.14622 0.0181425 0.00103706 -0.528596 -0.144751 0.210017 0.0767665 -0.164588 0.352178 0.0450089 0.0388428 0.260758 -0.251363 -0.0125264 -0.313287 0.184356 0.0956687 -0.630397 -0.0634929 -0.297544 -0.0907607 0.641946 -0.0367687 0.0178016 -0.143241 -0.107648
646195 -0.438467 -0.00523846 0.224703 0.168283 0.0579979 -0.358342 -0.127614 -0.349069 -0.103666 -0.128098 -0.148669 0.246891 -0.0306937 -0.0235867 0.105339 -0.189305 0.235653 -0.347637 0.175578 -0.039561 -0.000590018 -0.0381612 -0.0222534 0.129684 -0.0158243 -0.329989 0.124632 -0.220434 0.31801 -0.041884 0.335095 0.178334 -0.0400205 -0.0436202 -0.126332 0.0331862 0.252423 -0.0929608 -0.252698 -0.280012 0.316416 0.292125 -0.168 0.386668 0.175162 -0.1276 -0.0865359 -0.235806 -0.0279068 -0.442644 -0.231695 -0.159974 -0.145335 0.31617 0.0373012 -0.350578 0.307053 0.295416 -0.00118366 0.0402033 0.329906 0.527114 -0.0790327 0.362843
17821 -0.0024977 -0.0572922 -0.0144953 0.0272961 -0.217645 -0.154841 0.0873132 0.0863018 0.214157 -0.0860045 -0.0868598 -0.294524 0.00914018 0.00234898 0.0617438 -0.0492366 0.123335 -0.224094 -0.494459 0.269316 -0.0654258 0.0682097 0.00288227 -0.469926 0.251923 -0.307197 -0.0506048 0.277426 -0.522337 0.338688 -0.409811 0.352616 0.303866 0.0459144 -0.372158 0.117646 -0.358626 -0.194218 -0.204144 -0.0459384 -0.317374 0.051497 -0.323005 0.183579 0.0577969 -0.152423 0.0783872 0.325082 0.197261 -0.0117599 0.488898 -0.202789 -0.418965 -0.269551 -0.0430783 -0.286235 0.0927742 -0.210387 -0.117839 0.12933 0.327177 0.164662 0.434551 -0.35435
309476 0.0576322 0.127669 -0.00251385 0.302094 0.0353769 -0.214671 0.156601 -0.0462643 -0.0832478 -0.0333126 0.193332 -0.166541 0.310113 -0.361257 0.340928 0.483405 0.147756 -0.215279 0.155892 -0.212587 -0.0613976 -0.0267799 0.0679973 -0.268301 -0.148556 -0.0963582 -0.019515 0.284716 0.0156087 0.188396 0.0749189 -0.262362 0.0488289 -0.158171 0.206084 0.258402 0.156415 0.287972 -0.278605 0.0355214 0.0152411 -0.221619 -0.175223 0.192239 -0.0722909 -0.199126 0.017672 0.0491054 -0.191002 0.221511 -0.041295 -0.00948154 -0.175978 0.198331 0.193461 -0.349614 -0.164343 -0.069524 -0.0307806 0.525785 -0.0152718 0.0211524 -0.14129 -0.0135124
153063 -0.760197 0.333487 0.371969 0.389118 0.058249 -0.981453 0.133252 -0.3512 0.035601 -0.247238 -0.195389 0.416506 -0.287333 -0.112366 0.0821054 -0.563733 0.181597 -0.345841 0.525305 0.264254 -0.659643 -0.446998 0.143342 0.0920559 -0.120836 -0.54916 0.448075 -0.316586 0.556126 -0.875677 0.78885 0.623349 -0.201632 -0.240548 -0.572296 -0.329523 0.405627 -0.0289758 -0.494083 -0.405611 0.202216 0.481603 0.100508 0.850593 0.604976 -0.598411 0.329762 -0.152329 -0.00677515 -0.10076 -0.0262312 0.00273641 -0.505733 0.963215 -0.000457722 -0.432516 0.419517 -0.025503 0.304968 0.171358 0.671539 0.850073 -0.434685 0.175505
189574 0.19523 0.0353905 -0.0678093 0.252843 -0.059292 -0.149232 -0.187493 -0.182991 -0.0608483 0.219798 0.317859 -0.10509 0.165773 -0.151563 0.309586 0.251346 0.126867 -0.238228 0.264461 -0.115766 -0.0351464 -0.234781 0.147043 -0.262431 -0.37564 0.190251 0.0183968 0.434008 0.240271 0.181419 -0.140644 -0.0912025 -0.0199415 -0.274858 -0.0944861 0.186311 0.150748 -0.0466436 -0.0625302 0.110551 -0.0931077 -0.396006 -0.107178 0.125965 0.116851 -0.0623162 0.279729 0.118153 -0.0482134 0.211662 -0.161589 0.0263456 -0.227816 0.155532 0.110601 -0.560218 0.0461436 -0.286412 -0.0751926 0.557283 -0.059095 0.0331055 -0.137129 -0.121976
74698 0.299808 0.0545382 -0.474484 0.392939 0.103034 -0.106523 -0.172084 -0.0132335 -0.333587 0.185519 -0.206494 0.446636 0.00624978 -0.150054 0.129785 -0.0895961 -0.241798 -0.0555576 0.170811 0.0148657 -0.364279 0.0148989 0.181192 0.178372 -0.0500648 0.149063 0.339695 0.280278 -0.14115 0.131134 0.217289 -0.022717 0.529552 -0.2457 0.234851 0.208347 -0.015804 -0.29076 -0.0481649 0.65358 -0.135265 -0.0729489 -0.181044 0.194005 -0.0753035 -0.326975 -0.177841 0.0536225 0.124236 -0.108226 -0.151093 0.498074 -0.0706332 -0.178121 0.215975 -0.204974 0.123876 0.142101 -0.0585479 0.22766 0.420402 0.511933 -0.263061 0.214413
348305 0.132815 -0.635781 0.384601 0.355751 -0.0814055 0.269446 -0.0630297 0.0367502 -0.0827282 -0.122194 -0.127106 0.0835597 -0.0991368 0.352572 -0.0896821 -0.158353 0.360616 0.437835 0.0360936 -0.407588 -0.0990333 0.114617 0.208918 -0.134079 -0.0638423 -0.437798 -0.506429 0.0500541 0.0110017 -0.0524816 -0.247176 0.095679 0.0275603 -0.313256 -0.297028 0.311421 0.162861 0.485379 -0.306061 -0.236045 0.138454 0.0409535 0.722067 0.0707015 0.186645 -0.301967 0.225912 -0.500138 -0.0560474 -0.0263052 0.324096 0.303694 0.0848534 -0.136105 -0.0575539 0.0227899 0.0640392 -0.0541261 -0.233554 -0.254142 -0.0116352 -0.212885 0.110116 0.019746
7276 -0.181686 -0.00631656 -0.0124098 0.432097 -0.322575 -0.436424 -0.1296 0.0403993 0.0471505 -0.0891918 0.161198 0.0867428 0.121998 -0.100347 -0.160843 0.0108791 -0.087824 -0.301898 0.23123 0.0931826 -0.265716 0.103062 0.114274 -0.215167 -0.127861 0.174945 -0.0194153 0.199267 -0.0446339 0.0262702 -0.0691859 0.159026 0.21187 -0.456274 0.132538 0.497416 0.291873 0.071192 -0.0515115 -0.0354479 -0.142723 -0.250159 -0.037824 0.272014 0.6168 -0.227812 0.131517 0.0359634 0.0162514 0.0765784 -0.334777 -0.0948176 -0.130926 0.302096 0.0183706 -0.00508115 -0.0982846 -0.255733 0.137287 0.290487 -0.265977 0.663773 -0.179853 0.245138
510715 -0.124427 0.0713373 0.127 0.0522371 0.0218711 -0.0499136 0.0246277 -0.221306 0.0676939 0.235353 0.348927 0.0788372 0.437036 -0.0647797 0.117277 -0.208432 0.28746 -0.459377 0.282229 0.167326 -0.143416 -0.384994 0.343689 -0.549678 -0.00709788 0.343114 -0.299172 0.310446 -0.17135 0.111562 -0.241906 0.0838527 0.199412 -0.0237639 0.0199625 0.204813 0.2197 0.377977 -0.0522979 0.409591 -0.192332 -0.443702 0.119812 0.0421709 0.490142 -0.153304 0.183628 0.169796 0.113895 0.138228 -0.17212 -0.20323 -0.544231 0.164714 -0.42669 -0.335418 0.3223 0.00625202 -0.140419 0.356519 -0.135964 -0.0881811 -0.120763 -0.190602
129045 0.219911 0.197009 0.288613 -0.141335 0.33997 -0.737541 -0.207436 -0.169934 -0.24898 -0.20169 -0.123772 -0.0986148 0.291772 -0.315031 0.31324 0.464768 -0.438583 -0.767519 0.138143 -0.181469 -0.487145 -0.273959 0.226695 -0.127694 -0.650774 -0.0267181 0.348571 0.490405 0.236225 -0.278322 -0.0818832 0.0955127 0.277182 -0.0819197 -0.19475 -0.0815348 0.297553 -0.307677 -0.0486604 0.0196926 -0.197487 -0.629233 0.321438 0.0425391 -0.400246 0.0884806 0.465625 -0.393619 -0.22345 0.116793 0.0766917 -0.107013 -0.163492 -0.105286 0.313622 -0.16987 -0.124944 0.104812 -0.201466 0.105679 -0.103582 0.482289 0.27569 -0.294482
17208 -0.33908 -0.26173 -0.341009 0.59441 -0.490832 -0.582285 -0.303257 0.463946 -0.209153 0.0489416 0.16138 -0.278325 0.504067 -0.468067 0.869747 0.0320184 0.154785 -0.262647 0.413082 0.0867999 0.0140817 -0.669817 0.0572179 -0.506479 -0.669427 0.656727 -0.118106 0.16516 0.0926749 0.328727 -0.16142 -0.395427 0.12121 -0.40861 -0.122755 -0.0621971 0.439607 -0.105112 -0.444261 0.0558843 -0.40633 -0.421013 0.0793295 0.291912 0.183352 -0.289826 0.875077 -0.394244 -0.165964 0.185612 -0.323444 0.172747 -0.217163 -0.122383 0.130143 -0.173556 0.0449868 -0.10276 -0.446299 0.652279 -0.273766 0.516106 -0.149332 -0.0867031
