2708 64
1114398 0.013889296 0.29903942 0.43676877 -0.2739505 -0.36388022 0.025346037 0.18990798 0.06266785 0.45887244 0.042829793 0.040909663 0.24024409 -0.37040308 -0.10452904 -0.6994887 0.2373865 0.44722793 0.0077565215 0.1730005 0.3615716 -0.26987484 0.07500181 0.29443812 -0.25605425 0.18649675 0.1347748 -0.16496862 0.54109764 -0.46062517 0.20095633 0.19476837 -0.030354839 0.14795403 0.5146545 0.11116643 -0.12738284 0.27326274 0.024740148 0.16657253 0.033325784 0.3441484 -0.16643494 0.0054147625 -0.3170457 0.25324133 -0.22504738 0.32014662 -0.260819 0.080267295 -0.21925405 0.09065295 -0.17127357 -0.037798494 0.22926535 0.12854785 0.3308393 0.46342713 -0.6390812 -0.017245555 -0.37106487 0.026684195 -0.5297275 0.01109436 0.081593096
7297 0.7178893 -0.69596237 -0.097541146 0.33298635 0.18366556 0.09540111 -0.1041802 0.5274846 -0.010295149 -0.05220063 -0.29764143 -0.30913892 0.5405624 -0.11031387 0.071851246 -0.40388393 0.21157977 -0.16843167 0.24905206 -0.012559523 0.22375028 0.23044793 -0.45036545 -0.071499065 0.01764101 -0.27462935 -0.41119117 0.016367398 -0.4372573 -0.14056242 0.19987653 -0.17087144 -0.41653544 0.124226734 0.83510375 0.025361642 0.13133769 0.3057364 -0.16821502 -0.05281529 0.03724116 0.09335883 0.012020348 0.3801872 0.5929454 -0.15554589 -0.15608992 -0.034621548 -0.382777 0.12027074 0.606689 -0.7295628 -0.29719388 -0.023237038 0.17112951 -0.672511 -0.21948776 -0.072845526 0.097830616 0.48688772 -0.056110427 -0.48464543 0.14448364 -0.049479116
711994 0.6551769 -0.4568056 0.23675455 0.17792876 0.041592587 0.011121239 0.110790335 -0.1345398 -0.37077805 0.5934334 0.2472447 -0.066783145 -0.15853697 0.19884339 -0.13856739 0.31073073 -0.15472335 0.40345982 0.20756765 -0.28066957 -0.008132391 -0.13849719 -0.4038148 -0.39647126 0.31925443 -0.26270965 0.5009275 -0.05110359 -0.19031861 0.5813261 0.25848973 -0.10207767 0.22481105 -0.05371285 0.5539707 -0.13979682 0.22788621 -0.094147034 0.19349419 0.13795286 0.116373256 0.28297088 -0.2953904 0.14814168 -0.005583444 -0.31497267 0.14838046 0.04852901 0.04324191 0.28335008 0.0065948516 -0.025738353 0.06453345 0.6588916 -0.37805355 0.28956822 -0.39091206 -0.01225974 -0.17992172 -0.043890953 0.13679041 -0.29071712 0.18005738 -0.020325305
346243 -0.30460507 -0.18565647 -0.5870911 0.4587434 -0.08426903 0.25264114 -0.025796702 -0.045074932 0.0746921 0.6183669 0.8214027 0.055613138 0.18720004 -0.3774742 0.018606972 -0.2167809 0.29546034 -0.07225318 -0.5373665 -0.3082703 -0.10588351 0.6370274 -0.08639601 0.24269219 0.52401316 0.111412615 0.484083 -0.2241846 0.49159214 0.2225373 0.027297238 0.30474982 -0.20390707 -0.18936701 0.18064365 0.34396803 -0.10784521 -0.3267158 -0.024137674 0.07754721 -0.4303305 -0.12031072 -0.198373 0.17287296 0.18859419 -0.3065538 0.11413237 0.36140493 -0.3034516 -0.057600584 -0.0136810355 -0.11861554 -0.28288528 -0.043604024 0.32012162 0.0668123 -0.31265077 0.11568495 0.30765474 -0.19931133 -0.39998934 -0.23786986 0.13858084 0.14567426
132806 -0.1346785 0.2697792 -0.49645883 0.016652018 -0.035626344 0.047172293 -0.19537055 -0.61016464 -0.27234107 -0.42564878 -0.19728157 -0.46563685 0.060256887 0.11706793 -0.41862103 0.38198867 0.6623191 0.45844963 -0.3226088 0.8290778 0.52378255 0.14966048 0.26836404 0.07617094 -0.5305218 -0.13449608 -0.19725454 -0.09305591 -0.0989126 -0.43786824 -0.524404 -0.15909381 0.13470009 0.10924533 -0.4349388 0.24492913 -0.11816096 0.01360333 0.07711899 -0.31644 -0.45080188 0.7214371 -0.22038125 0.4866645 0.1944451 0.01471995 0.10732195 -0.0985114 0.10763837 -0.26816028 0.1552291 0.36897978 0.11263711 -0.25223038 -0.27281526 -0.40046152 0.95555216 -0.22234736 -0.22218554 -0.020488665 -0.20779885 0.12677757 -0.11636911 -0.14368425
1132285 -0.09210276 0.44195083 -0.12284294 -0.31083092 -0.3916854 -0.15528215 0.33399358 0.055914838 -0.12992135 -0.53601617 -0.20703228 -0.1348429 -0.1790827 0.20024458 0.08495034 -0.18436241 0.18394414 0.1328345 0.11647245 -0.041058745 -0.3059165 -0.23627764 -0.2869638 0.36415455 0.10598002 -0.19814469 0.09183574 -0.16360165 -0.33951455 0.20919274 0.16152631 -0.076902255 -0.13292564 -0.4062698 -0.21054979 -0.34601828 0.101377204 -0.44851726 0.00724905 0.0024022497 -0.4417052 -0.08449368 0.3201251 -0.027915848 -0.11428146 -0.2851023 0.24347875 -0.14239818 -0.2111743 -0.16230656 -0.050143264 -0.22453888 -0.10934102 0.2640782 0.24441816 0.07786127 -0.2828436 0.17997095 -0.09259057 -0.042305835 -0.47457436 -0.0010016604 -0.37869173 0.25454637
568857 -0.43693694 0.03209304 0.31138355 0.02605898 -0.08208671 -0.21045908 0.41528416 0.029416882 -0.3262525 0.36652043 -0.39694417 -0.010120752 -0.15010323 0.013154185 -0.15890425 -0.32806814 0.8103033 0.6928188 -0.110838555 0.326648 0.55235296 0.31298852 0.19414647 -0.069270946 -0.49502337 0.40760955 -0.25187325 -0.23569705 -0.17265311 -0.01400837 -0.14891738 0.32218722 -0.2824023 0.53344095 0.09972366 0.27211002 0.03867278 -0.50058174 -0.029261587 -0.40493762 0.16893813 0.42253625 0.055000797 0.08341036 -0.6149231 0.3111637 -0.20287229 0.45192313 0.5252355 0.5865859 0.24910042 0.32488102 -0.114222035 -0.16493723 0.21187025 -0.07215702 0.2844482 0.22763187 -0.27436042 -0.09298217 -0.13215508 0.069088675 0.4040586 0.32311493
12238 -0.088462405 0.25338665 -0.15251397 -0.10926352 -0.36592373 0.3013898 0.33730555 0.40852186 -0.23738104 -0.3648412 0.0439409 -0.21970919 -0.4576616 0.3738893 0.12802336 -0.4048274 0.110865 0.20800608 0.18309696 0.21027347 -0.27717382 -0.31507495 -0.10841167 0.9905916 -0.2610047 -0.3781055 0.37905177 0.15569162 0.21353887 0.4415925 0.3750187 0.057612356 0.10285285 -0.23331207 -0.11124434 -0.1258865 0.040049866 -0.27639624 0.1503633 -0.015547175 -0.2992182 0.20883894 0.08287734 0.087283805 -0.1341085 -0.0038398332 0.21611755 -0.6963745 -0.3230928 0.04437227 -0.12629308 -0.28411126 -0.07282242 0.4516952 0.4882364 0.1678071 -0.46953556 0.53804696 -0.3041936 -0.29361826 -0.58712566 -0.15589629 -0.37882626 0.30205804
25794 -0.2994299 0.13287716 -0.38497186 -0.010145237 0.1676302 0.69955164 -0.08882941 0.27901927 -0.2590706 -0.3331818 -0.33185157 0.17033884 -0.053853013 -0.066596515 -0.48564225 0.28854012 -0.17453423 -0.60335886 -0.10579881 0.13334596 -0.43986148 0.34356698 -0.33927253 0.30603135 -0.29139993 0.22512029 0.21545562 0.5988705 -0.17786291 0.38965118 -0.038078707 -0.08972842 -0.25481978 0.2867954 0.4218415 0.35855457 -0.5648322 -0.056102708 0.18475403 0.15862946 -0.0055732275 -0.42612362 0.07587663 -0.26231548 -0.11362568 -0.014923294 -0.28372762 -0.4015629 0.14034262 -0.057108007 -0.34405556 -0.32518592 -0.3219501 -0.025113126 -0.6237033 -0.3008608 0.12930734 0.38907847 -0.11725634 -0.0016887527 0.48096994 0.025674189 -0.36390898 0.35069877
1108258 0.030124057 -0.533635 -0.015834672 0.1253674 -0.17057398 0.31487718 0.074404515 -0.36863226 -0.07280892 0.22779989 0.2193146 -0.00080352067 -0.26169768 -0.1314083 0.2511553 0.020966357 0.06208896 0.15837377 0.7463494 -0.35886225 -0.16333343 -0.015657514 0.2681047 -0.45168942 0.20911959 -0.43027362 0.5397937 0.41178966 -0.17926729 0.51958513 0.37502667 -0.46203092 -0.26908886 -0.041745953 0.06338597 -0.020801041 0.06820639 -0.4705647 0.15118064 0.23609489 0.14382756 -0.23190802 -0.1180638 -0.4404612 -0.17753978 0.3707022 0.025493521 -0.009795259 0.26546627 -0.41513184 -0.44886667 -0.48903576 -0.23302242 0.5582834 0.20755921 0.09976475 0.22259913 0.03887429 -0.0068001575 -0.47030765 -0.5297797 -0.25895494 -0.25833946 -0.1460447
1131198 -0.07215752 -0.22404745 0.05121964 0.6537473 -0.13834953 0.21073703 0.29303452 -0.6262107 0.43632162 0.17506552 -0.0008037837 -0.020464279 0.54871196 -0.23935947 0.076802865 -0.43546432 0.47143978 0.32014397 0.15977627 0.5566874 -0.13223426 0.08836572 -0.24733329 -0.4155152 -0.28120136 0.15176663 -0.39674225 0.18033041 0.59758204 -0.061649505 0.32964662 -0.19494571 -0.38757062 -0.2634322 -0.49285793 -0.13606606 0.3252937 -0.2342566 0.049299546 -0.52930254 -0.1477253 0.10447674 -0.3156336 0.51586795 -0.032917272 -0.3875607 -0.026207706 -0.30743685 0.29893753 0.18100308 -0.08666243 -0.16691414 0.14851655 0.08946842 0.09535178 0.18164821 0.23471615 0.020674523 -0.12792471 -0.31463164 0.1120846 -0.0049748817 -0.06133832 -0.14332864
1131195 0.2014423 0.05252897 -0.6303585 0.017943395 0.063425414 -0.095807865 0.08390217 -0.10548121 0.085265934 -0.08557389 0.05450107 0.13261558 -0.47480407 0.09464567 -0.41621736 0.244305 -0.105945714 0.063582554 0.21620464 0.21825017 0.15128872 -0.32530457 -0.022932399 -0.2323027 0.12801395 0.32532147 0.22322856 -0.27103928 0.38953638 0.20319456 -0.014075505 -0.22024088 0.12142644 -0.64427876 0.782214 -0.105247706 0.0412287 -0.11713374 0.1878664 -0.29423493 0.034133185 -0.016315639 0.17651099 -0.51422393 -0.7108819 -0.1482219 0.17897542 -0.4971592 -0.584123 0.1144727 0.1830846 -0.12791269 0.049052536 -0.17030962 -0.2679757 0.22858755 0.030877937 -0.19595177 0.027700191 0.01622776 -0.27005515 -0.43984056 0.08487253 0.041493706
634975 -0.4273322 0.08120343 -0.25399345 0.24182272 0.28431892 -0.10467829 0.3888808 -0.47486675 -0.012894809 -0.35427204 -0.36888084 -0.05651388 0.37019542 0.45324582 -0.06953459 -0.29715762 0.52538246 0.48965678 -0.21546392 -0.26165274 0.5720494 0.26267695 0.086947925 -0.14755507 -0.39045298 0.08585824 -0.013768769 -0.110012695 -0.33343247 0.0024015259 -0.2569327 0.09528649 0.15340461 0.18569784 -0.61117166 0.37121996 -0.090492845 -0.38117665 -0.03201839 -0.43387187 0.08748851 0.63586235 -0.14397338 0.0806141 0.023122465 0.05198473 0.382601 0.32210433 0.3950889 0.01575518 -0.16277625 0.02015432 0.048649583 -0.30233252 0.36730045 -0.29414067 0.4207409 0.38122734 -0.3464377 0.008406939 -0.0148402825 -0.23561315 0.32522082 0.074657775
399339 0.17965716 0.19400485 -0.75733024 -0.24717672 0.039794877 0.17278752 -0.13701954 0.28859213 0.57365096 -0.11739774 0.2798563 -0.6271161 -0.11660993 0.16258031 -0.060976606 -0.2919598 -0.09727409 -0.10873348 -0.11967032 0.26486054 0.31172183 -0.2290172 -0.050660886 -0.10537603 0.11966169 0.14873545 -0.037206125 0.1856396 -0.35046974 0.15746234 -0.21734051 0.05050406 -0.14461544 0.13109507 -0.23078823 0.059333168 0.4012396 0.52823186 -0.0664507 0.32768705 -0.21938445 0.34135607 -0.6717785 0.23716833 0.08221727 -0.06133521 0.21702127 0.068602726 -0.1833925 -0.10251598 0.1617868 0.42977294 0.2526834 0.059260543 -0.36557353 -0.06002945 -0.42475268 -0.44570822 0.2461032 0.22675568 0.36274594 0.21729815 0.29078874 0.01665232
1126315 0.07282582 -0.60442185 0.26324868 -0.111669116 0.29900944 -0.14180374 -0.40999612 -0.35468343 0.48822725 0.029972801 0.24461824 0.5594838 -0.37758657 -0.36174145 0.13537075 0.19503379 -0.31963068 0.41020152 -0.015297986 -0.02592555 0.36058676 -0.21853156 0.16905735 -0.046535373 0.33405578 -0.4824546 0.32638198 0.37405983 -0.007312616 -0.1829743 0.46366227 -0.25559554 -0.116922185 -0.046757787 0.26888674 0.039242156 -0.30722526 -0.063318975 0.3296819 -0.2529584 0.68411624 0.10082059 0.44465452 0.08840846 -0.107848965 0.030606352 0.0021404256 -0.45558935 -0.0754677 0.3248034 -0.21087179 -0.2343926 0.15747884 0.26853627 0.26340526 0.14900468 -0.04065797 0.38178974 0.15093695 0.29787457 0.09167847 0.36439002 0.36246902 -0.13089497
1112665 -0.19257294 0.025755763 -0.24199274 0.22672026 -0.4223658 0.21064903 0.028918065 0.048210673 0.029615104 0.39412954 0.25750998 -0.042218342 0.063051924 -0.1479787 0.18591407 -0.009051863 0.021941947 0.16237605 -0.2251529 0.14513512 -0.285718 -0.061453067 -0.051055048 0.030759022 -0.09043711 0.024465408 0.06506969 0.47359282 0.42588544 -0.14107025 -0.40403864 0.24207099 0.20127337 -0.3264451 0.03275886 0.48867056 -0.13561296 -0.55355895 0.17642006 0.44060925 -0.32478124 -0.41900337 -0.33786172 -0.0058274018 0.56544775 0.20803995 -0.20587365 0.19621721 0.14865884 0.03517271 0.12588684 -0.2327374 0.19175203 -0.049658105 0.2594714 0.55079246 0.31302893 -0.13016897 0.45462352 0.6333564 -0.33115083 -0.025567882 -0.007504209 -0.21699552
1104300 0.08756494 0.05098105 -0.01904171 -0.04585708 0.40912032 0.146945 -0.12550618 0.23719916 0.3199572 0.10698563 0.16727337 0.40566084 -0.33478582 -0.65714693 -0.051032815 0.085519075 -0.3242934 -0.06608335 -0.16938202 0.08448606 -0.18446071 -0.113574006 0.27843586 0.34638232 0.0810136 0.34058878 -0.171178 -0.38862628 -0.13322195 0.18520604 0.13211891 0.45957825 0.34505942 -0.22912662 -0.16058029 -0.12809262 0.07590052 0.020069987 0.14585935 -0.12675537 0.35550398 -0.09957372 0.5010152 -0.25662747 0.67833656 0.4423414 -0.20881677 0.38090068 -0.18582417 -0.60775447 0.3261377 0.120492786 -0.2410295 -0.09735507 -0.018393654 0.11963485 0.41102827 0.15340342 0.047585018 -0.22219391 0.24639831 -0.37110883 -0.106413074 0.019160315
20942 0.024635954 -0.19160026 -0.044881128 0.25951543 -0.47538486 -0.28465873 -0.26511 0.27874598 0.36307457 0.19115737 0.10020814 -0.06612516 -0.07184122 -0.28916702 0.10619122 -0.05519885 0.15998557 -0.068396494 -0.6318309 0.20375262 -0.21708727 -0.10995016 0.07231512 0.14124177 0.0029407924 0.12831476 0.2972337 0.30384117 -0.0702284 -0.14179417 -0.40829125 0.051730208 0.26200023 -0.079199836 -0.22258806 0.64332795 -0.13424374 -0.42043534 0.017718714 0.58408445 -0.27057102 -0.21637936 -0.43111542 0.031642355 0.53724027 -0.37057984 -0.062350012 0.037395135 0.3026055 -0.07189032 0.3265394 0.08250561 -0.23099129 -0.15044908 0.40725285 0.64366716 -0.15588081 -0.11407454 0.5751675 0.5121688 -0.14010206 0.36276406 0.043844037 -0.16968174
17477 -0.23288846 0.11653401 0.3408502 -0.19849645 -0.30864343 -0.13864501 -0.5088626 0.14274238 0.09662194 0.761644 0.6088516 -0.005046334 0.16449405 -0.20293464 0.12535156 -0.5342983 0.202031 0.23665218 0.09254779 -0.20897828 0.04858983 -0.2695621 -0.13388336 0.109357856 -0.2760352 -0.06649265 0.27257434 -0.25927168 -0.062381502 -0.022426225 0.03527014 -0.05668662 0.4002004 0.17810348 -0.26052558 -0.34971237 -0.26966444 -0.21123257 -0.3269663 -0.053436108 0.1502093 0.2587278 -0.43020856 0.5960105 -0.27945942 -0.33671322 -0.38871574 -0.40405202 -0.0748636 0.006280789 0.32598647 -0.003041431 -0.5050892 -0.26081654 -0.08779701 0.23813803 0.58809847 0.22546253 0.005210177 0.2863897 0.2280209 0.6682002 -0.13901415 -0.118646584
400455 0.15726721 -0.56343687 0.24115458 -0.22202142 -0.44165882 -0.00827076 -0.02915648 0.14471267 0.106896065 0.0012767598 0.70124483 0.21648501 0.12582079 -0.29709896 -0.45190662 0.4341639 0.08493185 0.4642832 0.19767508 0.0039234073 -0.03385189 0.37636548 0.04612187 -0.27469972 0.68900555 0.19494325 -0.26828808 -0.12373864 -0.44897673 0.34687585 -0.02005588 -0.12608045 0.35019112 -0.022409376 -0.15118796 -0.27100644 0.09516508 -0.1499478 -0.18323916 -0.4030474 0.26990563 -0.13801952 0.25275257 -0.27183604 -0.12168868 0.028771518 -0.1298786 -0.007814691 -0.560807 -0.06729391 0.21328823 -0.002404332 -0.2562761 -0.36184213 -0.3584581 -0.179311 -0.012035165 0.009413561 0.18003964 -0.070955954 -0.09698674 -0.565818 -0.03422747 -0.38830233
1135746 0.03142276 0.63938755 -0.32288828 -0.38601145 -0.32074332 -0.31911314 0.3167545 0.37299085 -0.12389626 -0.37919304 -0.012315596 -0.12115427 -0.070156574 -0.08669929 -0.09631837 -0.100608155 0.29914254 0.13904971 0.14324035 -0.21549954 -0.16454796 -0.0893857 -0.24787189 0.5043684 0.02343534 -0.6913877 -0.25927484 -0.16151431 -0.12380654 0.1266915 0.11925977 -0.14146522 0.16806564 -0.2937352 -0.48695344 -0.09305841 0.35249442 -0.48078606 0.4601183 -0.22970478 -0.31885868 -0.6258646 0.44583717 -0.0012757088 -0.21796177 -0.087492645 0.7008346 -0.20385638 -0.62762195 -0.189435 -0.15603055 -0.3511934 -0.028197227 0.36320198 0.67353195 0.040781233 -0.06137932 0.12633947 -0.1496928 -0.028101005 -0.2370877 0.022194676 -0.41253376 0.43648678
18532 0.06770511 -0.295165 -0.29539445 -0.11796348 -0.11774783 -0.37810215 -0.061741702 0.31239468 -0.3157107 -0.6442424 0.039645974 0.2958526 0.21142922 0.24861588 0.21977766 -0.11222781 0.077965446 0.42118406 0.20976172 -0.121793866 0.26687443 -0.23312724 0.018487366 -0.2768553 0.1330643 -0.24416524 0.4549092 0.1974237 0.03220756 0.6457752 -0.054478336 0.116501614 0.447607 -0.044611797 0.5791932 -0.11119034 -0.1765844 0.11319403 -0.23819071 -0.018382957 -0.26661855 -0.012659427 -0.021564873 -0.4329956 0.0518895 -0.18182819 -0.07584741 -0.20369533 -0.15900862 0.18125893 -0.62138087 0.46998444 0.0803795 0.088169664 -0.020456934 -0.049434844 0.009906507 -0.014376666 -0.0625201 0.21879509 -0.48122057 0.3335497 -0.21270119 -0.15969458
6318 -0.8052371 0.10271129 -0.17644928 0.5737832 0.12089856 -0.23677039 -0.13359104 0.58796144 0.14809883 -0.41244972 -0.38567984 0.5395987 -0.17731814 0.7159089 -0.21420561 -0.11683266 0.07311438 -0.2853136 -0.09818712 -0.004326072 -0.21689908 0.02335036 -0.1447599 -0.020964513 0.10804004 0.61307865 0.35004696 -0.2023002 -0.098116845 0.41054887 -0.07455531 0.32043523 -0.61397094 -0.1267588 0.6971058 -0.4870417 -0.27351725 -0.32368442 -0.07851498 -0.09179506 0.56042457 -0.6242734 0.33974162 0.48372674 0.10859337 0.05338554 0.0036953532 -0.40748692 -0.15970881 -0.41338977 -0.4142291 0.21652874 0.094650544 0.5139866 -0.1676586 0.36335358 0.3028072 0.29662108 0.14837918 0.5213313 0.7417577 -0.22893594 0.09348313 -0.14787017
1111052 0.41126803 -0.23925214 -0.4007962 -0.35281926 0.030657418 0.3984265 0.058502115 0.14276539 0.085794896 0.34262642 -0.123008095 -0.5004225 -0.20206966 0.021544503 0.10628973 -0.043572295 0.08316069 0.21617776 0.09937957 -0.08140941 0.13586552 -0.2216921 -0.20457081 -0.12913106 -0.0010599417 0.15425716 -0.29667044 -0.44193682 -0.14615628 0.16676961 -0.08574655 0.21867248 -0.24078837 -0.3853945 -0.07228095 0.08164956 -0.09167249 0.34723327 0.5973469 0.23840766 0.19272833 -0.14358002 -0.26034236 0.20668478 -0.3201597 0.19058605 0.20172966 -0.028951453 0.48317948 -0.04259283 -0.40404162 0.07815519 0.12513065 0.3003713 0.2753119 0.26467973 -0.5118481 -0.25017488 0.49074247 0.036348525 0.43588215 0.4270555 0.31144878 -0.14609574
1152379 0.17534001 -0.010561117 -0.10067811 -0.40046945 0.034779917 0.010718022 -0.15511356 0.02470065 -0.16700298 0.03484644 -0.15296674 0.029031944 0.081874914 -0.09705231 -0.017447766 -0.09109892 -0.20993483 0.29021564 0.24767806 -0.18031667 0.24811389 -0.07021664 -0.20672068 0.0135382535 -0.41144294 0.34108505 -0.17308924 -0.06013732 0.6405599 -0.22308213 0.06714981 0.23029435 0.026442938 0.18652749 -0.10508869 0.006369251 0.10550511 -0.38213694 0.15047625 -0.05226606 0.22875464 -0.11822942 -0.23382202 0.06928622 0.06322654 -0.057566784 0.3331638 0.13496022 -0.4220794 -0.01197009 -0.4619819 -0.30614516 0.07394937 0.33928418 -0.2911107 0.030867208 0.1781008 -0.11275044 -0.013924834 0.4003962 -0.26157963 0.3524378 -0.28515157 -0.041725475
90888 0.070057526 0.17611095 0.25481844 -0.1470394 -0.4583142 -0.43525246 -0.38269046 -0.16893102 0.10652555 -0.2322246 -0.2709339 -0.2936101 0.074636795 0.17181869 0.013973142 0.41960835 -0.14000255 -0.63420767 -0.07316137 0.0067243255 0.281826 -0.046029817 -0.5016176 -0.25756425 -0.36943358 -0.16140498 -0.065262645 -0.025255572 0.6159488 -0.19790852 -0.08620035 0.054263335 -0.16671166 0.14108486 0.6869653 0.026758619 0.1298811 0.77712107 0.17161834 -0.9214058 -0.7482048 -0.14723909 -0.60251814 -0.2758587 0.45942986 -0.76173896 0.22842349 -0.30981997 0.05643179 -0.32904863 0.41849262 0.44181523 0.056281056 -0.5580595 0.56981903 -0.13454635 -0.18263537 -0.018227408 0.106646925 0.042206656 -0.059384376 -0.010204432 -0.21407636 0.11083639
594025 0.30615735 -0.28339812 -0.29676992 -0.40017605 -0.014116833 0.003890934 0.18274173 0.053527985 -0.028705062 0.49149096 -0.06612656 -0.405805 -0.014342133 0.08404248 -0.10193002 -0.2437475 0.013527562 0.18965624 0.14222232 -0.058347184 0.16983867 -0.1534409 -0.36820197 -0.111900285 -0.15293331 0.27667743 -0.2186874 -0.3467233 0.13421308 -0.3070528 -0.012545955 0.08040559 -0.052804288 -0.20253448 -0.21941118 0.2979166 -0.10620335 0.15556909 0.45434603 -0.11403269 -0.11514257 -0.09010295 -0.3932734 0.13180868 -0.5596473 0.16761012 -0.013498039 -0.0052678157 0.22778861 0.09221652 0.12280088 0.20404719 -0.071082816 0.0835847 -0.12664327 0.28853118 -0.45491374 0.11729459 0.24324968 0.07756452 0.4832358 0.36348668 0.31904387 -0.2564617
57922 0.2812123 -0.18958098 0.30340004 -0.31685436 -0.42138624 -0.3920273 -0.26843435 0.4795433 -0.09700951 0.22090685 -0.01717619 0.17478642 0.41356415 -0.63951015 0.25626555 0.16822544 0.10394597 -0.3866249 0.027535042 -0.21801944 -0.2560283 0.12441092 0.5330474 -0.14966813 0.66700834 0.29576913 -0.05821032 0.61315274 -0.065921545 -0.18678428 -0.2709737 0.15916055 -0.13188854 0.4145496 -0.22759816 0.10844112 0.23531497 0.2668374 0.40244713 0.05918808 -0.022878464 0.0094735 0.10397597 0.37425664 -0.18287784 -0.1017174 0.7820936 0.40016124 -0.32521677 0.12220827 -0.032308906 0.21165729 0.1171896 -0.5571411 -0.028015308 0.039493836 0.23987429 0.2023008 0.22665799 -0.38522622 -0.32457682 -0.17029577 -0.023689426 -0.13007623
27531 0.3339873 -0.85587853 -0.0444572 0.15855801 0.45820743 0.47781417 0.44899604 0.10317517 0.31323853 0.15362875 -0.2690557 0.14728272 -0.4903129 -0.38559872 0.12109809 -0.5700339 0.55467284 -0.03302715 -0.00047429872 0.30232504 0.16470596 0.31666186 -0.35326037 -0.583972 -0.31932086 -0.65665686 0.054711197 0.4727211 0.2720107 -0.14066556 -0.28207242 -0.006189614 0.48460174 0.015775444 0.10134085 -0.0074207433 -0.037089918 -0.19704421 -0.23677494 0.5196832 -0.1635959 -0.5808636 0.111400925 -0.06444741 0.5936278 0.20442465 -0.27623126 -0.37113526 -0.3224828 -0.12929818 0.50408757 -0.16355507 -0.50497574 -0.05670757 -0.015406617 0.31412658 -0.24349402 0.19858529 0.5771733 0.19115 0.029853767 -0.082359396 -0.13083647 0.14135845
1154103 -0.21584076 -0.42176118 0.17077035 -0.029646017 -0.14000963 -0.47477096 0.50191784 0.026403673 0.32736865 -0.1608403 -0.23420925 0.12601584 0.7540933 0.20978889 -0.3875899 -0.2905612 -0.26566213 0.121803455 -0.13463669 -0.27371582 -0.42088512 -0.58751667 0.3515671 0.32749784 0.7015633 0.0718847 0.49757868 -0.18278201 0.16103262 0.14357363 0.20535496 0.33848274 0.72399 0.056871835 -0.00879936 0.29240865 0.051644433 0.09608419 -0.494432 0.03853766 0.19016944 0.27999538 -0.11846786 0.15889679 -0.092277475 0.24664475 -0.3208558 -0.06180411 0.09874943 -0.39342654 0.009989847 -0.1246675 -0.12341139 -0.3197452 0.30890092 -0.31559992 0.26934934 -0.09294399 0.09225595 0.008293241 0.3112508 0.6186923 -0.37311557 0.19276647
1128198 -0.23988263 -0.45892927 0.14982252 0.38319266 -0.075596385 0.28555465 0.3896987 -0.5322049 0.28634775 -0.42920005 0.2423615 0.26582703 -0.021123156 0.09693288 0.41065356 -0.0058254297 0.22493587 -0.18547414 0.34215495 -0.037781574 -0.36208302 0.08683666 -0.42624116 0.11389974 -0.16610748 0.36819318 -0.536552 0.055103764 0.514328 -0.114343785 0.099869914 -0.26125103 0.13762449 -0.21946478 -0.389296 -0.2755173 0.19534957 0.19084631 -0.040989388 -0.09826843 0.04920219 0.12405719 0.09502195 0.39128846 0.025974572 -0.12920731 -0.099464595 -0.36602584 0.07471347 -0.020026466 -0.32610944 -0.17624953 0.20152706 0.019576397 -0.14133371 0.51667655 -0.27354252 -0.5413618 -0.37378815 -0.18923588 0.30407527 -0.22208823 -0.12205012 0.14502858
19621 0.87058115 -0.4667779 -0.3547394 0.40038836 0.61033446 -0.061310355 0.07650303 0.6209475 0.062389247 -0.02396425 -0.39433783 -0.275396 0.6939839 -0.22091547 0.6920328 -1.0644346 -0.0378582 -0.111468926 0.24834369 0.6172844 0.646622 0.09186951 -0.12894408 0.06481664 0.21078297 -0.35522884 -0.54702365 0.47105956 -0.96335083 0.018521838 0.4032575 -0.21392189 -0.82712454 -0.048399244 0.3272945 0.22195084 -0.21942489 0.2171025 -0.44881818 0.18296546 0.32338277 0.21375445 -0.3929782 0.7646698 1.0196863 -0.12125335 -0.4562726 -0.0557873 -0.8193104 -0.046159446 1.099701 -1.2266556 -0.36089525 0.460461 -0.037941623 -1.314948 -0.3141566 -0.63148093 0.09255858 0.30349132 -0.36700144 -0.41873038 -0.071224146 -0.23627202
54129 -0.9514889 0.1826907 0.31409225 -0.521895 -0.11524567 -0.28930426 -0.55403495 0.067384884 0.17132252 0.43927273 1.2018869 0.11093189 0.61367345 -0.016788842 0.19673428 -0.44106457 0.15435517 0.2789719 -0.0380541 -0.08638786 0.14044252 -0.1165663 -0.6134779 -0.7513768 -0.26790586 0.0063954247 0.15506734 -0.26161158 -0.9621427 -0.049248517 -0.14225759 -0.0950041 0.61876607 -0.05709681 -0.4754796 -0.053581342 -0.7482564 -0.22746855 0.23019917 -0.3273715 0.43442804 0.057724822 -0.5415856 0.36301953 -0.21786588 -0.36571676 -0.54696023 -0.4097207 0.18267857 -0.028772969 0.30229837 0.054814305 -0.20979558 -0.48301068 0.17118706 -0.5085089 0.84359264 0.5605627 -0.009106904 0.54715705 0.39079642 0.17285788 0.062770195 -0.012151525
509315 0.068008564 -0.22168703 0.0754857 -0.33481693 -0.15021922 0.07571616 0.073948584 -0.463771 0.089802556 -0.2244547 -0.14785543 -0.053957075 0.28221673 -0.23353663 0.20129369 -0.37159562 0.20312001 0.6659463 0.32141903 0.13117161 0.06846474 0.028758142 0.087380275 -0.004024807 -0.40852997 0.7345352 -0.32817593 0.03941211 0.8552862 -0.22128573 0.31641886 -0.2270071 -0.4330262 -0.06104987 -0.6326347 -0.0663825 0.47014475 -0.7194229 -0.48136088 -0.3689424 0.3031062 -0.11167871 -0.6908322 0.15336268 -0.4456625 -0.37696627 0.17231308 -0.047119934 -0.23086819 0.33181724 -0.015444853 -0.438615 0.34174573 -0.010098318 0.026090756 0.2693374 0.335619 0.019993149 -0.17157824 0.072434776 -0.023228548 0.22778215 -0.14351653 0.3229914
446271 -0.034710452 0.3571988 -0.4201805 -0.22524427 -0.09965547 -0.013201568 -0.31827185 -0.54570735 -0.1791317 -0.20938873 -0.35552832 0.41856477 -0.49025747 -0.69422686 0.10139995 -0.18118972 -0.21433131 -0.35434404 -0.48567078 -0.49510095 0.14639173 0.5230584 0.43559512 -0.50289065 0.19122337 0.9054516 -0.19449143 -0.09775343 0.23060001 -0.3866695 -0.09303903 0.22944734 -0.064809754 0.14887351 -0.159628 -0.14934377 -0.6372438 0.22228228 -0.25709018 -0.42893153 0.519682 0.22365527 -0.27737796 -0.42972133 0.14409477 0.02771395 0.13986355 0.071529515 -0.50281525 -0.13100407 0.20950833 -0.21627206 0.8037257 0.25683263 0.31723055 -0.024480725 -0.27390552 0.5357026 0.06777796 0.047230378 0.16066913 0.020039622 -0.67550206 0.22306754
1117049 0.20460549 0.24796268 0.0863905 -0.19454946 -0.20591228 -0.2373753 0.07683351 0.17170553 0.09329625 -0.32073995 0.28877398 0.312252 0.14125575 0.1574166 0.025103414 0.4246314 -0.119619876 -0.14343242 0.17739803 -0.045191023 -0.2554014 0.17237668 -0.35411116 -0.46746638 0.50986856 -0.41789785 0.41728777 0.29864213 0.18857832 0.38832587 0.11328423 0.19505538 0.2150804 -0.4108624 0.6112699 -0.24188341 0.16215062 -0.25915277 -0.052730903 -0.33514005 0.18270986 -0.33186588 0.51563793 -0.40978903 -0.07182904 -0.13227718 -0.11373351 -0.35192075 -0.6405616 0.12246042 -0.41302052 -0.36402467 -0.24398024 0.3433672 -0.1483293 0.21002147 0.17362164 0.2099154 0.256205 -0.19939058 -0.586763 -0.10231327 -0.1722347 -0.12667346
595063 0.24642545 0.043006368 0.19228888 0.19915955 -0.28071454 0.26996008 0.051346816 0.010405325 -0.028596982 0.24140891 -0.36537343 -0.14105234 0.22626902 -0.2335394 0.28178036 0.24275357 0.5361446 0.27570125 0.35887435 0.38490656 -0.38726717 -0.25313905 0.029371182 -0.044441618 0.10554119 0.14411467 -0.25542974 0.08748702 0.08078158 -0.33445403 -0.101796 -0.025659889 -0.43550196 0.30709958 -0.41848692 0.3477572 0.02361605 -0.31556368 -0.8767935 -0.59995 0.3299882 0.545186 -0.016331028 -0.045034014 -0.75895804 -0.15137824 -0.44473538 0.25176778 0.35032335 -0.12983134 0.18855147 -0.12321383 0.16551842 0.022481512 0.067337155 0.120830216 0.10430698 -0.09603076 -0.5950043 0.24486014 0.33583787 0.06892442 0.3644006 -0.04293328
4329 0.413917 0.29130706 -0.20642637 -0.19823682 0.3205973 0.13499887 0.05239978 0.06314667 -0.17799836 0.06638845 -0.16288617 0.26204598 0.037411567 -0.35866418 -0.34637612 0.5512704 -0.43722796 -0.8781154 0.23293784 -0.06003678 0.36943722 -0.6034107 0.29400632 0.6256307 -0.5073262 0.7095925 0.005699419 -0.23388414 -0.49053252 0.16759862 0.33332613 -0.7421152 0.3126242 -0.78983724 -0.5168448 0.22811697 0.1165513 0.27640706 -0.59480906 0.10149753 0.6117236 -0.6385611 0.48703068 -0.1914961 0.12402449 0.00087757834 -0.17649062 0.3491071 0.6971082 -0.15485837 0.4448126 0.30793393 -0.2880235 -0.35134083 -0.19791697 -0.082003556 0.26751825 0.27787158 -0.07081218 0.19712932 -0.28420562 0.18309906 -0.13634019 -0.39591596
67245 0.15554914 0.45695087 0.45490462 -0.09580242 0.11600792 -0.018419242 0.30331832 -0.007878244 0.4702796 -0.080000624 -0.55362403 -0.005005465 -0.1275984 0.2773381 0.33727926 0.07574665 -0.10475865 -0.46935472 0.4303554 0.31016043 0.061843798 -0.02102237 0.2838239 0.299735 0.04783724 -0.19337498 -0.6053522 -0.00396189 0.28945598 -0.26242676 -0.024463648 0.49160403 -0.25365454 -1.509592e-05 0.15380976 -0.30128092 0.025539337 -0.0042550447 -0.20246454 -0.17444447 -0.035549637 -0.36073998 -0.72841626 -0.24408522 0.29895997 -0.004657498 -0.48449904 0.34258816 -0.23551734 0.048902735 -0.09203684 0.54179925 -0.21277872 -0.38248813 0.14927453 -0.45734346 0.10254407 0.31991398 -0.13667649 -0.043867324 -0.05138286 0.42357114 0.02701505 0.29361808
59045 0.09504051 -0.10821082 -0.014324354 -0.461007 -0.07793892 0.3994857 0.05749611 -0.061936222 0.1407058 -0.10732948 -0.41004053 0.049705278 0.18453205 -0.037463155 -0.36574364 0.27499995 0.6210232 -0.035682227 -0.0013749057 0.6029186 -0.09074789 0.0626716 -0.44336033 -0.11979996 0.6403586 0.037380308 0.06854117 -0.0052575422 -0.24189298 0.42647737 0.22113629 -0.119474456 0.23275085 0.70367974 -0.015135741 0.3876162 -0.22392407 0.40595427 -0.12649298 0.30158108 -0.38406783 -0.06862686 0.2011956 0.23980106 -0.023369998 0.14436075 -0.12913093 -0.7426775 -0.68460196 0.49434254 -0.2409522 0.032885127 0.0049183345 -0.06677674 0.21468648 0.0445072 -0.124964796 0.45191097 -0.35673413 0.01999933 -0.17098275 0.036671307 0.026955733 -0.6025317
1136791 -0.33215308 0.029858943 0.19623765 -0.14064646 -0.2275567 -0.15360999 -0.007827066 -0.13088521 0.26790684 0.5084512 0.6708744 0.17770225 0.66134703 -0.16751991 -0.038011473 -0.58399534 -0.013283164 0.3138432 0.13025022 0.13179712 -0.13945355 0.21668173 -0.18317322 -0.28045428 -0.3956173 0.31753045 -0.19336669 -0.07717304 -0.2679668 0.03937748 -0.13349746 0.0038393787 0.17154053 0.22075216 -0.2674189 0.05843452 0.00062048563 -0.4262713 -0.4095662 -0.36213306 0.20151184 0.11538521 -0.28236982 0.06650371 -0.54892904 -0.03784831 -0.43837434 -0.095349394 0.100265294 0.16064085 0.4360713 0.107572 0.10468969 -0.2059025 0.2549993 -0.040158946 0.27432072 0.32045618 -0.3834696 0.06983455 0.6222396 0.27495697 0.06413581 -0.12696438
218410 0.4139426 -0.0789619 -0.5911217 -0.037204087 -0.28012004 0.11803008 -0.28687626 0.44994652 0.2539376 0.37407067 -0.16498472 -0.60302263 -0.3011357 0.09651463 -0.012023285 -0.13873434 -0.2053536 0.25256708 -0.105070226 -0.0006217076 0.24673079 -0.2258062 -0.073788464 0.195189 0.13320383 0.07290399 0.10028471 -0.43255305 -0.2277638 0.04357917 -0.46869522 0.16309658 -0.17654923 0.14543612 -0.46259585 0.29780892 0.17852713 0.47550333 0.1537671 0.38606486 0.0943969 -0.021005811 -0.422874 0.04239401 -0.2866262 -0.03846633 0.2851719 -0.19719104 0.44149747 -0.18244904 0.044404842 0.24389869 -0.037254285 0.13561584 0.020562017 0.29900375 -0.4433228 -0.33137056 0.16044216 0.23478976 0.33014187 0.6311948 0.27228937 -0.071615726
25181 0.14699738 0.4749761 0.4127548 -0.24558939 -0.37744918 -0.33963734 0.2524428 -0.3949403 0.62357426 -0.011139864 0.004348708 0.07913253 -0.42827392 0.6796407 0.40161142 0.20951504 -0.06972309 -0.19062826 0.6689677 0.1937827 -0.16947637 0.19508696 -0.5515791 0.62209123 -0.17126055 -0.25656712 -0.07650209 -0.041077476 0.20730324 -0.06990554 -0.11432008 -0.026823608 0.0023705587 0.028329538 -0.08307935 -0.42376724 0.039864097 -0.07697428 -0.15108973 -0.07567894 -0.2943508 -0.42054576 -1.0067817 -0.30125636 0.8676584 0.2938196 -0.37687457 0.38626683 -0.18779768 0.18450136 -0.34249583 0.35487804 -0.12784596 -0.30166095 0.22164986 -0.4232483 0.097546756 0.21739168 0.39120355 -0.22150195 -0.056514774 0.4482705 0.46562558 0.013816203
820662 0.04548138 0.14412531 -0.04787757 -0.26235926 -0.3902243 0.05254332 0.21366686 0.36574492 -0.2543339 -0.38223618 0.20989409 0.12021952 0.10127415 0.144224 -0.026843112 -0.48564634 -0.056623396 -0.23667608 0.60820013 -0.16857965 0.019840138 -0.6494579 0.23056611 -0.029137405 -0.14758022 -0.49558714 0.14673975 -0.35766417 0.1633882 0.17580228 -0.1669561 -0.065535925 -0.015068307 0.060576323 -0.015711121 -0.042901076 0.022328887 -0.40793908 0.24846853 -0.06583044 -0.043777242 -0.7707464 0.5005711 0.06493384 -0.14489105 0.020835184 0.516473 0.15047139 -0.2930754 0.25227135 -0.25090086 -0.5596584 -0.1099267 0.14110245 -0.07759193 0.21491228 -0.1535627 0.2503273 0.15807614 -0.393947 -0.12635162 -0.17227983 -0.17720638 0.54819494
192870 0.041188955 0.2857921 0.46587545 -0.31752643 -0.40480363 0.07420282 0.15868087 0.14868563 0.4931252 0.0019228116 -0.0020023014 0.30041015 -0.44813624 -0.100355074 -0.8449463 0.27955234 0.48976836 -0.025203327 0.18070528 0.4514352 -0.3308074 0.033688236 0.29597524 -0.22654946 0.21030892 0.18710634 -0.24530603 0.5917994 -0.50865084 0.26479724 0.19953477 -0.030756837 0.15895018 0.59989065 0.06801015 -0.117663935 0.30575708 0.0019272994 0.23552847 0.07316787 0.43498084 -0.24540664 0.027027646 -0.29986033 0.28894567 -0.2009002 0.39282653 -0.29351118 0.07102658 -0.20834479 0.09967154 -0.206819 -0.05945902 0.19984588 0.1582844 0.32540247 0.5220213 -0.7371931 -0.020882607 -0.42547163 -0.044498924 -0.5534703 -0.047989227 0.059846114
593560 -0.15431586 0.2581992 0.2272913 -0.20543559 -0.26991075 -0.034513496 0.14578575 -0.113536686 0.27261433 0.46760523 0.56451464 0.070932314 0.6644539 -0.21171674 -0.036828067 -0.37126067 0.10243656 0.07315021 0.051443163 0.33827567 -0.087642215 0.355317 -0.12585986 -0.46256894 -0.18025206 0.32724974 -0.20405497 0.09770682 -0.076170795 0.017826179 -0.11652987 -0.02672359 0.12559849 0.10660473 -0.25568044 -0.028253676 0.23736405 -0.49758163 -0.40249 -0.20394275 0.19511536 0.21354288 -0.22334869 -0.058438238 -0.6573314 -0.05049954 -0.44874218 0.0061356868 0.14747614 0.23985213 0.53988254 -0.052272085 0.3181552 -0.086730346 0.3575664 -0.029390823 0.3039038 0.42111468 -0.42421547 0.111879 0.66216844 0.18633854 0.075598724 -0.17529254
582139 0.5925406 -0.65649575 0.29507515 0.09304487 0.31688303 0.2178425 0.90416104 0.67755413 -0.22262484 -0.10508296 0.6893352 0.11236588 -0.21267334 0.43290067 0.36763233 0.21479654 0.1806989 0.20446756 -0.112257116 -0.23658665 0.038814332 0.26867607 0.30926314 0.004439694 0.013794893 -0.09692406 -0.11701465 0.033507366 -0.50133246 -0.3547971 -0.061993126 0.09249762 0.3025418 -0.29790655 0.12548764 -0.064862706 0.084826164 0.31581384 0.013188372 -0.13530232 -0.2387684 -0.06379539 0.40803748 -0.0552479 0.18575175 0.027128538 0.25241786 0.10205763 -0.7786819 -0.4164366 0.45142663 -0.1081332 -0.10431773 -0.113022715 -0.7008263 0.33462065 0.15732493 -0.13161813 -0.048859023 -0.116632104 0.48314175 0.4154866 -0.024817081 -0.14246254
1132073 -0.016138174 -0.20034093 0.31006652 0.27394086 0.57688 0.061278734 -0.019241769 0.00834384 -0.180827 0.040434375 -0.06816436 0.43984145 0.016653892 0.07243738 0.21931812 0.6661188 -0.20103969 0.19275156 0.09505585 -0.25627568 -0.40803918 -0.059988845 0.011993866 -0.3530131 0.10543401 -0.05953712 0.4503344 -0.039031643 -0.3259033 0.5599593 -0.026599525 -0.1293172 0.47940135 -0.2878492 0.4104016 -0.3325114 -0.013337482 -0.28869605 0.088504456 0.027979461 0.0355676 -0.26621217 0.16771504 -0.4951118 -0.4551604 0.38257182 -0.035403863 -0.188495 -0.29551372 0.016977187 -0.55875176 -0.013384913 -0.085274495 0.31960142 0.17470053 -0.1128357 0.33871368 0.16058452 0.111139 -0.050997466 -0.36616793 0.11077274 0.2619826 -0.18762475
118259 -0.38307834 0.56694764 -0.11523323 -0.10721854 0.09962327 0.07982226 -0.36352828 0.24787392 -0.43554035 -0.35611922 0.09931136 -0.05469608 -0.16464125 -0.25774595 -0.010807638 0.34352624 -0.08488082 -0.1520041 0.40494865 0.2908933 0.17073116 -0.37818107 -0.20299886 -0.28613007 0.07415864 -0.15939361 0.41707835 -0.21384443 -0.24968246 -0.26943082 0.08316725 0.17500201 -0.39911047 -0.445591 -0.40816674 -0.022468457 0.490783 0.27282885 -0.21979107 -0.39402395 -0.21141091 -0.3812952 -0.19606635 0.35306588 -0.16003738 0.55531704 -0.49152142 0.19457757 0.35579062 -0.18506636 0.11972512 -0.3040655 -0.1898762 0.36178496 -0.2874059 0.28877467 -0.122289844 0.20159101 0.3047628 0.3354407 0.09576233 0.21497118 0.03885292 0.19924603
647408 -0.042498607 0.2969921 -0.05746104 0.055533625 -0.04644006 0.21694025 0.16221692 0.075463064 -0.37605214 -0.21786864 0.15073887 -0.19256781 0.15431783 0.26284382 0.08231091 -0.43377444 0.23221935 0.59977514 0.11727506 -0.0190917 0.1775407 0.23333478 0.30628914 0.30045086 -0.5514482 -0.23774105 0.50306946 -0.12255828 -0.20165682 -0.21683224 -0.15190905 0.18146797 -0.027120389 0.08914322 -0.08449152 0.22974126 0.15332647 0.09397262 -0.3889385 -0.39510036 0.09472382 0.40328914 -0.14368774 0.5277852 -0.16620229 0.21966505 0.17848402 0.38702795 0.21546474 0.24502788 -0.008714752 0.18585765 -0.43443134 -0.1466834 0.21320422 0.31769 0.24456023 0.12176499 -0.41007486 -0.53328925 -0.44820473 -0.32440302 0.154035 -0.013865324
1131565 0.111364454 -0.1634953 -0.12982664 0.0032338812 -0.34816545 0.0006285196 0.3568512 0.14248951 -0.083286665 -0.074988954 0.048073065 0.39000618 0.3103027 -0.35226822 -0.25582534 -0.39790893 -0.38589296 0.4689346 0.49478996 0.28613353 -0.05995595 0.38533258 0.31472522 -0.10883618 -0.098360315 0.14224915 -0.36314902 -0.16173813 0.2484218 0.40720835 -0.008989353 -0.010057084 -0.016880598 0.46098933 0.0124220755 0.2971222 0.42069268 -0.28856212 -0.64721113 -0.3012807 0.27084288 0.2292754 0.12084794 -0.2743268 -0.45757723 0.35076025 -0.3236002 0.34342164 -0.18781273 0.22455604 0.26691654 -0.047346428 0.39595756 -0.05222154 0.19740945 0.28027096 -0.05944739 0.19753066 -0.4972284 -0.3723554 0.27593595 0.026151937 0.4418697 -0.083278365
48066 0.057060834 -0.12626135 -0.06973495 -0.22534096 0.09082453 0.34086013 -0.26342082 0.13463002 -0.2688469 0.25823313 0.32729095 -0.04131337 -0.04289962 -0.11021431 -0.42173436 0.14982498 0.40560108 0.24778497 -0.1700927 -0.21539965 0.021763513 0.4806957 0.087741286 -0.09226473 0.17053889 0.30260783 0.70752263 -0.20491384 0.4297877 -0.09362794 0.54131794 0.3153629 -0.30999136 -0.23343436 -0.047249395 0.26709753 0.13702585 -0.40224424 0.042797413 0.20655474 0.0010036607 -0.014152252 -0.15216117 0.31412432 0.057256766 -0.26203763 0.07821197 0.11708088 -0.45730722 -0.20608869 -0.027300583 0.23660281 -0.148236 -0.14996885 0.20373091 -0.08106022 0.15645517 -0.34910825 0.43482372 0.3272298 -0.6974713 0.430229 -0.09052238 0.5789253
1130243 0.3305178 -0.53511184 -0.16178842 0.3257952 0.09739007 -0.060672946 -0.3251508 -0.036478154 0.044956297 0.06885315 0.39040858 0.28702945 -0.2887668 -0.1952616 -0.17845078 0.09661266 0.01763672 0.43310496 0.20119698 -0.26126507 -0.042978976 0.22451404 -0.27105534 -0.112076014 0.2962338 0.10183459 0.57884043 0.09725673 -0.15250547 0.33405152 -0.062611215 -0.03859333 0.04433474 -0.45076638 0.22610581 0.08094298 -0.07977334 -0.5164848 0.5093656 -0.19571757 0.14937088 -0.038758937 -0.27108285 -0.4621328 -0.5249241 -0.3682157 0.10344137 -0.03807875 -0.517061 0.09926306 -0.3526146 -0.025704384 -0.4329935 0.47513318 -0.19311346 -0.08554174 0.018175522 0.4236648 -0.52335435 -0.17248456 -0.015403809 -0.32925805 0.060915276 -0.32057217
237376 0.22529997 -0.03317882 -0.09257617 -0.44918522 0.0365153 -0.0037008508 -0.12122146 0.012146899 -0.21088429 -0.016386244 -0.24631852 0.02213466 0.07923023 -0.0900556 -0.00039654624 -0.06805539 -0.19133563 0.2735488 0.24794546 -0.16293189 0.286758 -0.07065131 -0.19734555 0.04438343 -0.4390028 0.32808146 -0.20556161 -0.05978787 0.6522776 -0.21276416 0.02113487 0.24536245 0.023222312 0.20021984 -0.0970628 0.0020480638 0.0746209 -0.38937557 0.094431736 -0.06310899 0.21961556 -0.10862713 -0.29877478 0.09366735 0.052558918 -0.06661973 0.37141797 0.1536469 -0.41474995 -0.025887882 -0.46944764 -0.2794826 0.02063092 0.35422269 -0.27978477 -0.0351938 0.22310004 -0.13721144 -0.044977617 0.4215498 -0.2493036 0.34966764 -0.32203823 -0.05766965
1109873 0.087133214 -0.4834573 -0.077875935 0.27615586 -0.14412872 -0.43156955 -0.16782817 0.08072857 -0.37078846 0.124193765 -0.0030859357 0.5330806 0.32494274 -0.09176076 0.22661509 0.34416455 0.073417306 -0.1500378 -0.040495865 0.15028375 0.27007097 0.04813684 -0.22208102 -0.46394956 -0.01764541 0.0013931873 0.104331724 0.12750684 -0.6147569 0.2452467 0.111727215 -0.36073616 0.48399258 0.03411387 0.63510835 -0.19154097 0.3641846 -0.0733794 -0.044911884 0.6133432 -0.14419122 0.16908704 -0.041879717 -0.28518376 0.031914476 0.28888884 -0.3654509 0.2896263 -0.52093947 0.15574981 -0.7269506 -0.22674012 -0.24581821 0.49681535 -0.4308807 -0.5515333 -0.58362126 0.24394217 0.028577093 0.39665484 0.13608967 -0.25813887 0.4691084 -0.42575127
941 0.5053753 -0.039315227 0.040060345 -0.30893227 0.1994962 0.46014994 -0.3166127 -0.20879807 0.72434074 -0.0954991 0.3656258 0.64912415 0.15678623 0.34910455 -0.254105 0.08262988 -0.399504 0.5811537 0.07259798 -0.1990696 -0.022035303 0.657897 0.29914603 -0.17745551 0.38648197 -0.22520453 0.04502022 -0.282594 -0.068242826 -0.5427873 0.47191265 0.64909303 -0.053231888 0.46798494 0.020036718 -0.29522073 -0.72778755 -0.46867064 -0.24972984 -0.199656 -0.3618282 -0.17166092 0.041266825 0.07000352 0.06622024 0.2715293 0.16315073 -0.3286779 0.41606453 0.011649714 0.10721022 0.22425328 0.25667801 0.042811714 -0.47358385 -0.34158602 0.02385869 0.31007606 0.25738314 0.107562006 -0.13879362 0.20415948 -0.39896044 0.28261688
1131414 -0.08100405 0.114138655 0.1973677 -0.48031226 0.40113205 -0.101800755 -0.088473015 0.06401671 -0.46758586 0.4713889 0.31595224 0.01574332 -0.17329222 0.5848477 -0.2821156 -0.3486294 -0.09741519 -0.07445354 0.21890068 -0.099618055 -0.3691618 0.30866116 0.5294283 0.21818098 0.19783425 -0.5243778 0.074274436 -0.26890486 -0.23221916 0.3813381 0.42700353 -0.25935334 0.3976458 -0.12661955 0.30591464 -0.020021876 0.39180493 0.14507502 -0.32509696 -0.24730164 0.1409032 0.24322681 0.5488548 -0.10449325 -0.3016676 -0.22304162 0.3484603 0.20609757 -0.49384767 0.06753175 -0.041490983 -0.031270336 0.5667485 0.25080958 -0.24662064 -0.053537957 0.27207303 0.008485271 -0.09140748 0.22171101 0.022809366 -0.3482391 0.3905089 -0.20506069
39165 -0.39979777 0.80357426 -0.14042154 0.16112089 0.51893777 0.24041735 0.292157 -0.0049027866 -0.03340961 0.4003338 0.11347572 0.09235616 0.033491284 0.5050172 -0.37233102 0.14117785 0.14318453 0.16266446 0.45988098 -0.6094223 0.3149293 0.18496005 0.060322586 -0.009540854 -0.15389451 0.74699694 0.43450856 -0.07053219 0.4692703 0.1354982 -0.61002123 -0.28370592 -0.21521938 -0.09474645 -0.13415232 0.0061543304 -0.43373224 0.5395753 -0.40824315 -0.2868612 0.09379003 -0.36590502 -0.09323959 -0.43507037 -0.23425531 -0.30717397 -0.3901775 0.23428221 -0.025980258 -0.2724105 0.2808449 -0.7113743 0.49174276 0.4340207 -0.03383944 -0.079146706 -0.16721945 -0.43242413 0.3708653 -0.18756063 -0.38061976 -0.055832002 -0.55334616 -0.05079015
1125092 -0.050117534 -0.1864682 -0.0805361 -0.06828129 -0.24696273 0.38768387 -0.18720396 -0.47514132 -0.0205995 0.29239315 0.41250122 -0.12184421 -0.42578208 -0.01640492 0.48589236 0.40214488 0.3038678 0.20123836 -0.14788339 0.70308656 0.09400212 0.5894755 0.33159983 0.05740053 0.36871114 0.6506363 0.04378417 -0.066489376 -0.31300667 -0.19266205 -0.23018019 -0.16131522 -0.19734833 0.2137644 0.1690513 -0.18259028 0.17712322 0.16554824 -0.020817256 -0.79285973 0.6051326 0.098493084 0.3884233 -0.042565167 -0.19206105 0.27051115 -0.20815611 0.46110752 0.21779838 -0.4055114 -0.2717493 -0.50845975 0.24017306 -0.07259029 0.43372142 0.13952859 -0.10027894 -0.11377696 -0.19894186 0.1577653 -0.8332021 0.39940336 -0.28356355 -0.05372236
1128267 0.18435863 -0.108365156 -0.5107741 0.07672651 -0.13400987 0.22902764 -0.16157909 0.3138188 0.14033103 -0.07876249 -0.06240184 -0.38320437 0.07572362 0.35377187 0.04540814 -0.06461508 -0.27023646 0.011401338 -0.07197996 -0.10244559 0.11432745 -0.09657024 0.099996686 -0.025471734 0.4755573 0.2652555 -0.031861458 -0.2187436 -0.04479936 0.3262348 0.001669675 -0.08685051 -0.07204148 -0.177014 -0.45721087 0.0009475794 0.28226218 0.36674258 0.20809028 0.3192815 -0.008291361 -0.13109367 -0.32162 -0.2567586 -0.41603282 -0.08538539 0.11830379 -0.0908127 0.19829646 0.2338535 0.0787035 0.39180508 -0.097660184 -0.06091967 -0.20253481 0.27052113 -0.6341482 -0.356529 0.008329633 0.3293358 0.2228959 0.22457922 0.5454393 0.008585186
714256 -0.30999994 0.17236844 -0.0013138121 -0.015801394 1.3226643 -0.45172897 0.0839252 0.021060614 0.14636478 0.15698609 -0.2677636 -0.09832525 -0.098520674 -0.04247795 -0.28093252 -0.15224102 -0.10676232 0.2091499 0.27518702 -0.28763512 -0.8732555 -0.12422055 0.44324142 -0.33290774 -0.05338244 -0.034551147 0.03639346 -0.36482063 -0.056430116 -0.2508285 0.1132105 -0.74657136 0.06537859 0.72503686 -0.025628204 0.33819997 0.12731981 0.105466485 0.08861109 0.3544714 -0.058517985 0.083289795 0.022438169 -0.42227945 -0.08359712 0.02144443 0.014640155 0.08879143 0.10455009 0.43926576 0.062532604 -0.22588377 0.4249281 0.15723146 0.11569249 0.11059244 0.22729445 -0.32674602 0.4598692 -0.11397352 -0.64763194 0.39996055 0.3567952 0.2153025
55770 0.178933 0.3308766 0.30450657 -0.17752652 -0.41127843 -0.14995839 -0.191479 0.025113994 -0.027751014 0.15477923 0.5557678 -0.25742686 -0.37710503 0.17782898 0.28669128 -0.047309767 -0.25503862 -0.38401046 -0.6376248 -0.3635542 -0.13424301 0.52649075 0.16019037 -0.41190827 0.057819452 0.22251862 -0.020561546 -0.2175491 0.037565313 0.45166937 0.30651104 -0.12151594 0.44461074 0.15167496 0.46515718 0.43281582 0.08905008 -0.29189757 -0.18435003 -0.63816565 -0.38464326 0.32490072 0.0030308913 0.06566286 0.055623583 0.13773622 -0.31067187 -0.6072364 0.11190107 0.2692655 -0.007474688 0.25854757 0.014867534 0.6590585 0.35794917 0.009301203 0.08195596 0.23057392 0.403301 -0.34402993 -0.12040374 -0.21450548 -0.026762038 -0.4800733
179706 -0.27329025 -0.3632102 0.2870319 0.097285755 -0.10273433 -0.012986353 -0.13978224 0.19444835 0.35188657 0.066909336 -0.09652275 0.13687485 -0.25929287 0.064874366 0.09838517 0.6080483 -0.39447245 -0.31234315 -0.01086866 0.050336845 -0.255014 -0.0026999575 -0.06022513 -0.37996072 0.5917627 -0.19013159 0.5334356 -0.19909948 -0.16568252 -0.20768489 -0.3129662 -0.25094515 -0.21604156 -0.49200246 0.16747598 0.061113298 -0.07597699 -0.34470385 -0.103456184 0.17606358 0.426989 0.1132272 -0.14722249 -0.18379815 -0.36931992 -0.09673443 0.53750384 -0.053602558 -0.18810022 -0.26542506 -0.16384089 -0.27992436 -0.115152515 0.23637949 0.11278891 -0.3002437 -0.09760333 0.39927876 -0.040599853 0.10873346 0.12014157 0.21609731 -0.12769863 -0.12824917
650807 0.0331604 -0.17620829 0.038491998 -0.008525987 -0.27278155 0.08599109 0.469118 0.100279525 0.025467144 -0.08073579 0.0232722 0.17806813 0.3373101 -0.3024341 -0.120619155 -0.48104787 -0.032901227 0.55359524 0.47905558 0.47530878 -0.21313094 0.40504524 0.41146645 -0.028003711 -0.10997834 0.18961607 -0.31747222 -0.22917598 0.3981399 0.27608815 0.04680512 0.011801748 -0.15673819 0.37460193 -0.017399656 0.2835866 0.34118605 -0.40328223 -0.56887794 -0.49252623 0.19902618 0.36915794 0.2014789 -0.23349884 -0.61425734 0.19585893 -0.4065956 0.50319016 -0.19459023 0.27560556 0.20924191 0.042106748 0.39189455 -0.08418345 0.19906667 0.31683353 -0.031063473 0.3057345 -0.6785194 -0.20233943 0.27113807 0.12343655 0.44007477 -0.010415707
36620 -0.36165157 0.018056547 -0.52579844 0.59727764 0.07936241 0.55399036 -0.11492365 0.2574355 0.31125587 0.8136559 1.0650585 0.25039202 0.26368356 -0.3228753 -0.35107514 -0.14456666 0.4908202 0.05021741 -0.64445186 -0.595398 0.19255285 0.62640667 0.04897623 0.41933572 0.6372651 -0.09200731 0.27070934 -0.2555486 0.7179141 0.4621621 0.34471065 0.16357675 -0.30520657 -0.15979603 -0.026340935 0.116800286 0.1679182 -0.07023636 0.13872252 -0.04816212 -0.31802452 -0.44067302 -0.19735382 0.16970077 -0.04645751 -0.113951825 0.019854207 0.28349566 -0.46651348 -0.28588966 0.07096182 -0.3889893 -0.1553638 0.12918448 0.5497525 -0.054432116 -0.15574881 0.019498264 0.08429042 -0.3309245 -0.46236625 -0.14838843 0.4261341 0.46577278
62333 0.28960595 0.17331493 0.18438308 -0.072507784 0.14879252 -0.034249306 0.24143684 0.06347893 0.4755353 -0.10459198 -0.38114747 -0.02929632 -0.07303951 0.093387134 0.63541615 -0.2652957 -0.09262198 -0.54416186 0.45973286 0.3462862 0.27468014 0.027852152 -0.08574488 0.13980813 -0.10893428 -0.29994735 -0.55706257 0.0725046 -0.080926985 -0.14701608 -0.051886395 0.12002192 -0.38805774 0.03261334 0.26320702 -0.3068208 -0.0015994626 0.19790526 -0.3014785 -0.091879524 -0.02585034 -0.14778559 -0.7055478 0.08828523 0.7232965 -0.09923559 -0.33882317 0.1488893 -0.38943544 0.081912935 0.1302463 0.10922887 -0.16306448 -0.2669061 0.36707157 -0.6057728 0.11116219 0.06835655 0.09336306 -0.08143427 -0.0024198715 0.034006912 -0.08811006 0.03445276
270085 0.14923695 0.03968736 0.07409279 0.108781025 -0.030975224 0.4274895 0.52750015 -0.17322305 0.3771588 0.2605166 -0.09987198 0.08996784 0.4346243 -0.13244958 0.079869874 -0.18699224 0.55428225 0.34121484 0.022932434 0.33913693 -0.022007976 0.2875949 0.047451798 -0.21511404 -0.29565528 0.1060569 -0.23615661 0.09207294 0.104956925 0.03918571 0.16593091 -0.19468276 -0.21069576 0.2656432 -0.30947927 -0.047569342 0.0028306488 -0.41558394 -0.5626723 -0.6655696 0.038984004 0.1475277 -0.04444068 -0.117090195 -0.28992787 0.29655442 0.04514509 0.24121517 0.29263055 0.34426987 -0.07197421 -0.004890998 0.3997155 -0.19765274 0.11069772 0.24695177 -0.09668801 0.1378103 -0.43928126 -0.14860138 0.1741562 0.10309899 -0.09461303 -0.32696527
71736 -0.19789192 0.12032705 0.18853411 -0.076203376 -0.044533584 -0.27038354 0.07398166 0.23123707 0.078781344 0.54975593 -0.13194713 0.14946803 0.27340946 -0.0066696736 -0.18080279 0.35273612 0.7103913 -0.086836874 -0.2792475 0.109883085 0.4252194 0.15321372 -0.11514925 0.011777574 -0.17678678 0.28488097 0.61266184 -0.41545823 0.1124776 0.4832142 0.028944481 -0.19372 -0.6183636 -0.047329333 -0.36208045 -0.8082423 0.5053162 -0.07865923 0.020361418 0.47392923 -0.24589124 -0.2971388 0.35506085 0.055143144 0.4267033 -0.20255937 0.06726885 -0.4475705 -0.4290614 0.13068244 -0.5311609 0.12598835 -0.2764717 -0.25317812 -0.35019934 0.15574583 -0.1862304 0.08703855 -0.21923994 -0.14811544 -0.32916513 -0.12159978 -0.12792686 -0.16594847
270600 -0.10610044 0.356652 0.41754648 -0.25399113 -0.5416341 -0.0490994 0.24009286 0.06912116 0.42082396 -0.21686509 0.18854055 0.3820775 -0.26166764 -0.080505125 -0.71930724 0.1820855 0.48281118 -0.10991598 0.09447455 0.48035485 -0.39322552 0.078909114 0.30667263 -0.22453131 0.075532354 0.14125969 0.18604718 0.4446934 -0.54725647 0.29575962 0.12779053 0.119440734 0.13094558 0.53177994 0.3254916 0.0030013376 0.3207922 0.15025283 0.28907943 0.03589317 0.5020836 -0.27970508 0.0035850217 -0.2515911 0.31338787 -0.2568404 0.40234682 -0.20144115 -0.061570827 -0.17918426 0.12295034 -0.042651344 0.091536894 0.4340995 0.056978602 0.24288976 0.48060322 -0.5478278 -0.00064698985 -0.5201236 -0.050960124 -0.62352794 -0.15188351 0.09547736
1153811 -0.7049592 0.32966903 -0.25382593 0.7289143 -0.06292866 0.74321014 0.093766905 0.069312 -0.8336814 0.05062962 -0.23163739 0.00890563 -0.3302434 0.15550897 -0.041098583 -0.1383743 0.042419802 -0.16010176 -0.109410234 0.019539328 -0.24151145 0.22649263 0.19726314 0.12688604 -0.17971891 -0.12014179 0.23030643 0.19357064 -0.020617787 0.18667544 0.021502428 -0.016028509 -0.1884752 0.61798614 0.15568522 0.07906101 -0.03972139 -0.75733566 0.34829104 0.52429175 0.42139807 -0.2546506 -0.11904602 -0.36662617 0.48668766 -0.36937308 -0.7933533 -0.2507643 -0.062880054 -0.36717197 -0.29251048 0.18451141 0.03530913 -0.48416433 -0.5133083 0.27291393 0.040018063 -0.40649536 0.1764058 0.14500426 0.5365663 -0.097511254 -0.4173241 -0.29592693
1125906 0.123055756 -0.04499207 -0.1980894 -0.047884382 -0.091169514 -0.10899545 0.06414917 0.13913554 0.1937652 -0.006360142 0.079387516 0.40075475 0.15486011 -0.3274441 -0.18863922 0.19946714 -0.23254016 -0.16779041 0.189626 -0.2916284 0.40120235 -0.2120779 0.5114683 -0.24984892 0.35213754 0.15007474 0.093586005 0.14730492 -0.16556041 0.17142446 0.48537487 0.0027433708 0.30640465 -0.588484 0.61389035 -0.48452467 -0.22067924 -0.21037275 0.54020536 0.21902062 -0.10346939 -0.06973015 0.34910482 -0.5983124 -0.36388 -0.24768944 -0.17948125 -0.018340554 0.21281172 -0.07153725 -0.63232636 -0.21531163 0.10329927 -0.11619074 -0.116314024 -0.32841966 0.67772216 0.21412402 0.028825378 -0.30140522 0.08921151 -0.058940887 0.09133937 -0.21353768
1103031 -0.16206522 -0.18447286 0.06908866 0.012902442 0.20962872 0.27426955 0.08323112 -0.41072944 -0.009664206 -0.30556703 0.2692267 -0.24818015 0.103178 0.017518487 -0.06332932 0.4334285 0.16089088 0.23363848 0.14414981 -0.43245304 0.525407 -0.28766885 -0.2224657 -0.28086257 -0.14727053 -0.177596 0.5076166 0.25376785 -0.33388457 0.37144193 0.051153976 0.0505998 0.37586954 -0.36681625 0.10916781 -0.088940725 -0.52064514 0.11124667 -0.6055814 0.025742138 -0.27462214 -0.3746041 -0.24184293 -0.4297285 -0.6015713 0.1697267 -0.6172456 0.41828284 -0.51364005 0.2895728 -0.11839678 0.1745518 -0.4135419 0.13395719 -0.24189407 -0.021332059 -0.45386288 -0.36641803 -0.13060975 0.030197209 0.029753137 -0.010178438 -0.44701573 -0.15581574
35061 0.12008704 0.10243059 0.5216464 0.1060947 0.017484268 0.4870257 0.033618376 0.2023542 -0.34854212 0.10736591 -0.88463986 -0.26375133 -0.21376471 0.473062 -0.08380991 1.1988919 0.87689555 0.07602633 0.29060748 0.43008462 0.25388598 0.39738187 0.78215337 0.37952307 0.11657868 0.36422703 -0.791493 0.16907729 -0.18440762 -0.070532456 -0.6811465 0.25869077 0.09494172 -0.05553793 0.013847555 0.16717918 -0.44634447 -0.49597958 0.31025806 -0.12597185 0.02460495 0.7596859 0.4781517 0.06586683 -0.3547398 -0.2783337 -0.45852014 0.34473103 -0.11492443 -0.26662982 0.5026922 0.009896403 -0.04012415 0.19789764 -0.15431134 -0.60227036 -0.07175744 -0.16016048 -0.34173143 0.36120105 -0.27896166 0.13510889 0.82631564 0.39486322
1117618 0.023255907 -0.23960364 -0.14303978 0.09065885 -0.37068874 -0.13079122 -0.14918046 0.44027793 0.12816887 -0.3123968 0.0015033921 -0.46983576 -0.48098913 -0.46227023 0.20480873 0.093588315 -0.40541974 -0.21363094 -0.09604023 -0.20827617 -0.20581102 -0.27112538 -0.13483682 0.1522857 0.5009237 0.08303233 0.21263777 -0.36693114 -0.04066152 -0.19352862 0.045416094 -0.17218155 -0.123883046 0.0477149 -0.4261532 0.36161208 0.050864168 0.26857805 -0.7437336 0.5540957 -0.21794462 0.17638074 -0.2865883 -0.14188424 -0.23163806 0.21590525 -0.22219138 -0.14301568 0.590354 -0.19122672 0.39418006 0.10649281 -0.6244516 0.0948319 -0.059123486 0.15471047 -0.21736482 -0.106093235 -0.24007395 0.07032541 0.14103304 0.48844054 0.5488367 0.020114213
141342 -0.34001842 -0.64775985 0.19965543 0.48720348 -0.25189963 0.30455574 0.35870636 -0.068787746 0.31025895 -0.08809442 -0.52802455 0.43661863 0.6184231 0.2028156 0.18362862 0.8275556 0.55873144 -0.45340404 0.41567567 -0.26596168 0.5374104 0.28484768 0.3386853 0.48338044 -0.6899937 -0.08892187 -0.6335388 0.27051046 0.42041966 0.21399081 -0.49990532 -0.38040605 -0.036426347 -0.061968286 -0.61767656 0.02641901 -0.16900404 0.10499167 0.6615839 -0.2386769 -0.17700961 0.68831277 0.18558328 0.64943355 0.06929615 -0.17804165 -0.18147674 0.06568639 0.24113135 0.071725756 0.52358234 -0.02846478 0.07802956 0.28432465 -0.6628096 -0.122464746 -0.0057819923 -0.30151784 -0.012301779 0.011463893 0.11116025 -0.6329283 0.29870307 0.1067523
1129608 -0.014473853 0.09413528 -0.078309216 -0.032966435 -0.027679525 -0.0033909592 0.19725317 0.6058795 -0.15629485 -0.17967817 0.40493947 0.0018275904 0.10544442 0.07807298 0.06841922 -0.31257427 0.04646667 -0.17422158 0.37100264 -0.026035061 0.23520698 -0.46154574 0.22845168 0.27057448 -0.18975845 -0.6397495 -0.027998727 -0.22079296 0.45386454 0.2971889 0.14065832 -0.15136245 0.3241429 0.07009339 -0.12525287 0.19706604 -0.018278886 -0.3074276 0.47056428 -0.18335599 -0.046628095 -0.7391641 0.1303897 -0.080787286 0.09408954 0.36181834 0.48452458 -0.42116144 -0.40959755 0.12239693 -0.31575933 -0.41683426 0.018354679 0.4940353 0.3559932 0.21578345 -0.10880612 0.29044262 -0.1105091 -0.14256646 -0.046032038 -0.1340559 -0.19267462 0.46547046
157401 0.05077089 -0.0075838314 0.2612983 -0.065879576 -0.27109504 -0.002945745 -0.00024975775 0.00586699 0.14702994 -0.06866264 -0.35726458 -0.19470711 0.09090566 0.23659761 -0.009497704 0.16221371 -0.1131996 -0.45374727 0.44644368 -0.014896329 0.1402323 0.0029641872 -0.31460187 0.088009745 -0.3114852 -0.27930263 -0.46496862 -0.27062094 0.16604064 -0.41344583 -0.09728478 0.29509407 -0.21919735 0.10272665 0.648401 -0.24344715 0.18263929 0.48024908 -0.24435747 -0.3777856 -0.41106915 -0.27254292 -0.6261809 -0.3053426 0.6410329 -0.3047784 -0.052269038 0.18827194 -0.11863042 0.09614035 0.0065103485 0.21512935 0.11099959 -0.48889172 0.43731588 -0.33147842 -0.03920753 0.11897366 0.12004231 0.003179731 0.043530066 -0.0021727865 -0.1968791 0.4908812
36131 0.0490637 -0.15186045 -0.38431334 -0.12621273 -0.59438604 0.09066418 0.14267209 -0.3174092 0.21957557 0.10298512 0.13947396 0.48560312 -0.041571014 -0.25185242 -0.7874924 -0.37776247 0.3871642 -0.22042148 -0.03646604 -0.46773556 0.053741556 -0.16287334 0.9406757 -0.38013506 0.60258675 -0.0798375 0.08496598 0.22776474 0.27617985 -0.08364921 0.35728592 0.035595797 -0.12057102 0.032023717 0.13232227 -0.40975747 0.1670811 0.32968065 0.33630413 0.30779842 -0.04010946 0.28635588 -0.117206596 0.17689674 -0.10358362 0.11363441 -0.56659716 -0.1124173 0.22587931 0.07171333 -0.09485224 -0.08189603 0.05057202 0.26125696 -0.059137885 -0.38099954 0.05753538 -0.31095675 -0.30281058 0.4622962 0.06942101 -0.041754466 0.010019432 0.14907247
1117760 0.3934313 -0.12203291 -0.44740158 -0.07329579 -0.19885924 0.2511163 -0.1792084 0.3231793 0.17419152 0.20049107 -0.049040046 -0.5696178 -0.16260213 0.066554844 0.09940376 -0.13697603 -0.07374931 0.18318361 -0.03989245 -0.10248739 0.25127363 -0.16836172 0.09877252 0.09439322 0.29225656 0.12752962 -0.064511515 -0.36666158 -0.14623994 0.36940834 -0.29229224 0.26835948 -0.07098126 -0.066816874 -0.43545595 0.0408287 0.2336084 0.44972858 0.22522818 0.47026455 0.07004037 0.025683466 -0.35317412 -0.20907493 -0.3129066 0.013143819 0.28992635 -0.19889548 0.3749425 -0.14577061 -0.06599299 0.15833183 -0.05597338 0.18945917 -0.024686834 0.20687947 -0.6034849 -0.32101777 0.17503084 0.21446036 0.3658055 0.51239353 0.31705654 -0.026644288
216877 -0.019282946 -0.24949344 -0.20980762 0.13635877 -0.36555663 -0.11467127 -0.20760556 0.45554572 0.16731994 -0.24851078 0.0051849475 -0.5340871 -0.4946898 -0.38317138 0.11696755 0.06773727 -0.28274062 -0.12250293 -0.038603265 -0.057330303 -0.104807466 -0.32530722 -0.011315424 0.17460148 0.4313273 0.085379615 0.2491334 -0.37374526 -0.07970602 -0.24000168 -0.026155092 -0.13522273 -0.12994832 0.019411232 -0.4336181 0.31089085 0.10837366 0.20154563 -0.5507286 0.6224895 -0.21259893 0.11106416 -0.33276 -0.10456771 -0.25489733 0.16880476 -0.18279527 -0.041971512 0.5558078 -0.17686108 0.26968822 0.105231255 -0.58455014 0.16337587 -0.025777664 0.10288442 -0.27242008 -0.07613928 -0.014426745 0.1440144 0.29578525 0.6654214 0.425681 0.076223485
117 0.05597283 0.61814225 -0.15286286 -0.7947194 0.066258915 -0.15506029 0.018360676 0.095692135 -0.027670817 0.29996327 0.25317892 -0.75057846 -0.062330913 -0.15929173 -0.38889167 -0.966092 0.3046795 0.0054545775 0.56592196 -0.31037563 0.53016853 0.03947291 0.15071715 0.11929979 0.17217356 0.36642098 -0.43512756 0.002946197 0.17974336 0.74323165 0.41742903 0.11570354 0.6444484 -0.11760544 0.04848102 -1.1625412 0.25132477 0.15757719 0.3157397 1.0106599 0.3854615 0.6282064 -0.43838492 -0.17463386 -0.10339637 -0.4025289 0.7504156 -0.14060163 0.11197114 -0.06695218 0.17740752 -0.3981486 -0.091555156 -0.47254774 -0.80163074 0.506352 -0.5441416 0.4461032 0.2648679 0.43991867 -0.19271351 0.43611547 0.36059958 -0.27626833
36162 -0.24890336 0.1885821 0.35716403 0.26601684 -0.008805134 -0.11436105 0.041396346 -0.27038825 -0.018410852 0.30949077 0.057226576 -0.14341609 0.025886523 -0.017529732 -0.21338043 0.02502976 -0.39976028 -0.4429856 0.652795 0.104821116 0.15252508 -0.2885953 0.41285345 -0.47801864 0.28350228 -0.16889122 0.014156612 0.4216503 -0.09955817 -0.83026445 -0.5565608 -0.049586315 0.46620753 -0.2530737 -0.12825195 0.025559844 0.7339029 -0.53071535 -0.2783181 0.64677924 -0.32955953 -0.49683058 0.3657735 0.10220272 0.41630018 -0.20336474 -0.057120934 -0.35492757 0.5430577 -0.8317728 -0.2664767 -0.112891935 0.5542181 0.11334449 0.7411869 -0.47695634 0.23046073 -0.37229386 -0.33357316 0.6128777 -0.01366168 0.104720846 0.39242572 -0.8327043
688849 0.3093249 0.25107548 -0.0843335 0.4807213 0.19644192 -0.37738392 0.24897374 -0.47600827 0.368047 -0.26590678 -0.14221814 -0.19213125 0.10525619 -0.6597091 0.045561556 0.24034014 0.015492812 -0.2700335 -0.35712337 0.02432492 -0.010368553 0.09824683 0.26226863 -0.51103294 -0.39834017 0.0670616 -0.17016712 -0.20888974 -0.036343228 -0.19378108 0.115993574 0.21414408 -0.03334339 0.44015756 0.28437582 -0.23084217 -0.24439627 -0.10466979 0.2255247 0.2562088 0.37527677 0.27145225 -0.2810269 -0.22041696 0.1772581 -0.07607855 -0.024606477 0.6879765 -0.33694196 -0.26902172 -0.4635467 0.10622091 0.15713218 -0.10051582 -0.13765836 0.10830832 0.043890353 0.23462233 0.1461636 0.18472782 0.56413424 0.025866507 -0.0634362 0.379031
51879 0.103958465 0.40357298 0.21538672 -0.061718732 0.44628766 -0.0012126599 -0.40881434 -0.05924267 0.32090476 -0.045438662 0.0027699792 0.7466669 0.10568906 0.29808336 0.26085207 0.1118857 -0.18762837 -0.20728564 -0.1973199 -0.69714963 0.28378895 -0.023296192 -0.44691423 -0.47583565 0.16721837 -0.17341161 -0.058883093 -0.011416939 0.27825868 0.08663548 -0.104055546 0.13498138 -0.037970252 -0.040726475 0.3982781 -0.36936504 -0.5343781 0.073506944 0.5690277 -0.31100768 -0.47707492 0.26176807 0.053519115 0.09599096 -0.44718927 0.1341887 -0.2751637 -0.33495003 0.33543718 -0.5460371 0.50456965 -0.12126516 -0.39335698 0.17314075 0.378661 0.3569738 -0.14323708 0.16413312 0.31069544 -0.10348354 0.06061596 0.12902838 -0.57529527 -0.49725315
101811 -0.1851622 0.45418674 -0.13918863 0.0940672 0.03764952 -0.50146914 0.70678186 0.16422376 -0.035750106 -0.274828 -0.19029105 -0.33211678 -0.06790343 0.07709747 -0.29867378 -0.12704803 -0.3527789 -0.20561509 -0.4172434 -0.021131905 -0.8359602 0.39230192 -0.42246896 0.18371141 -0.32659167 0.24098362 -0.077787824 0.13637833 -0.14245822 0.38188216 0.2169318 -0.19278577 -0.123719096 -0.6520445 0.16726376 0.21394747 -0.22219133 -0.6921869 0.042441566 0.40641665 -0.49514553 0.11808298 -0.2079394 0.326667 -0.100416556 -0.5307706 0.36389273 -0.031653956 0.2180655 0.030511023 -0.6858647 -0.09022899 -0.6505158 0.019817041 -0.43136856 -0.24244298 0.056057252 -0.44007754 -0.42483586 0.0745792 0.12845118 -0.10266692 -1.026643 0.55551654
1111788 0.21937054 -0.0268509 0.47697082 0.21317941 0.26531675 -0.28917956 -0.5264974 -0.20319293 -0.50452906 0.23209605 0.2636245 0.028082583 -0.051342968 0.11938871 -0.11565708 -0.104487784 -0.5786 -0.12359615 -0.12326568 -0.013288906 0.15223053 -0.050997395 -0.14319912 0.54664195 0.29801667 0.11112428 -0.14666967 0.53496236 0.11565046 -0.58629066 -0.24642129 -0.37049043 0.04597936 -0.041871972 -0.1793697 -0.18734142 -0.49127987 -0.36283085 -0.14209788 0.29191932 -0.24131382 -0.23990424 -0.044818103 -0.1435719 -0.07660073 0.13040356 0.55904 0.5184787 0.23419528 -0.15090413 -0.32958266 -0.2210012 -0.08746242 -0.12789482 -0.16062962 0.09905383 -0.5137967 -0.16282634 -0.33391312 -0.24821426 0.36351985 -0.15518898 0.63069826 -0.05294918
684972 0.22539195 0.19373257 -0.11585392 -0.18233775 0.2783235 0.438881 0.027481463 0.27139798 -0.2115048 -0.11096001 -0.008234626 0.19793744 0.10488299 -0.34056568 -0.324329 0.6221991 -0.28916067 -0.19012085 -0.07280921 0.0020803835 -0.015302069 -0.44678 0.30707327 0.3468018 -0.123797454 0.69426274 -0.10400769 0.049840465 -0.21022147 0.19528782 0.45387146 -0.2685604 0.043409072 -0.4929715 -0.57776463 0.08007794 -0.06442373 0.31698018 -0.47851244 0.020730373 0.22177966 -0.2650038 0.6461801 -0.19008115 0.54828316 0.32972923 -0.4120509 0.1442505 0.4619714 -0.1365803 0.069365405 0.22944589 -0.40661284 -0.33071664 -0.071242504 -0.22953445 0.22759075 0.3782463 0.119258255 0.003273996 0.063750975 -0.041688975 -0.3279308 -0.25354722
1154459 -0.4885421 -0.26955053 0.1047672 0.096167 0.065903224 0.07564427 0.4797191 -0.097921744 0.2309026 -0.6040784 0.097128935 0.30565444 0.259065 0.34387758 0.2667494 0.34827316 0.44663215 -0.17096232 0.18472977 -0.67341065 0.270899 -0.08404732 0.04365857 0.2268515 -0.21027231 0.0152021665 -0.28701705 0.14178512 0.33419666 -0.057930216 -0.28047234 -0.2711327 0.2115901 -0.20666821 -0.26880515 0.1431202 -0.036045108 0.07786512 0.50782686 0.08360469 0.37726295 0.47181338 -0.112315334 0.4260474 0.3294882 -0.3590001 -0.05707005 -0.032757122 0.34434947 0.30027926 0.08600713 0.07300111 -0.13131447 0.072583675 -0.48703775 0.119777724 -0.08516553 -0.14866473 -0.047112048 -0.15354928 -0.018283471 -0.5391779 0.19467346 0.38221517
910 -0.44312412 0.5378568 -0.009216309 -0.4248507 0.15122354 -0.6711866 0.47822702 -0.54872257 0.19541916 -0.10028723 0.26311955 0.277767 -0.2403548 0.77765703 0.64851594 0.35428888 -0.6852904 -0.43139 -1.0735642 0.82468385 -0.13395834 -0.72367364 0.1757403 -0.42141816 -0.19721869 -0.7431099 -0.3445186 -0.28847706 1.218478 0.37215516 0.41894275 1.0192202 -1.0851328 1.1628269 0.06296085 -0.34288454 -0.4959764 0.6971942 0.4333106 0.23439755 0.43448 -0.19432668 0.79630107 0.14996248 -0.6695877 -0.71088177 0.31323713 -0.0670419 0.55682623 -0.51661813 0.78736496 -0.1643822 -0.8347815 -0.9836232 0.5887984 -0.6734957 -1.0080837 -0.14016666 -0.40410188 0.31136024 -0.7263584 -0.32769102 0.29077867 -0.6947071
100197 0.22829007 0.41263804 0.5469515 0.20667113 0.08649662 -0.15348686 0.014213234 -0.01426987 0.4120118 -0.042894725 -0.44683358 0.2569367 -0.59456766 0.21025698 0.71556926 -0.3096298 -0.11178806 -0.38025814 0.60591966 0.4365258 0.403822 -0.26777592 -0.16951056 0.30239168 0.38148212 0.19022307 -0.4596589 0.4742274 0.14304735 -0.06837137 -0.14231962 0.32832727 -0.4097993 -0.04917659 0.15369545 0.06629542 -0.2701326 0.35178733 0.15073542 -0.4080006 -0.20206049 0.091438144 -0.68113464 -0.43403736 0.48135865 0.28753623 -0.3556502 0.30526462 -0.3843864 0.5100672 -0.2707343 0.20511378 -0.15961055 -0.6031726 0.095037796 -0.40864077 0.07930528 0.14352642 0.10529034 -0.035683572 -0.23156784 0.31186882 -0.22578874 0.53344303
23502 0.12688112 -0.29867932 0.20259164 0.06675797 -0.5436193 0.026833408 -0.19477254 0.07973873 -0.16111605 -0.01578483 -0.2634552 -0.5075232 0.37655473 0.23850931 -0.2360718 0.20378804 -0.018491764 -0.35461566 0.30549988 -0.25502676 0.018210653 0.05983252 -0.4335689 0.03654876 -0.16452317 -0.18554123 -0.27238512 -0.2974262 -0.058414377 -0.39269164 0.119911574 0.10582158 -0.15168954 0.0046336357 0.8504821 -0.12706871 0.18947834 0.6727077 -0.21812484 -0.62770915 -0.50032485 -0.06530087 -0.73407716 -0.28357565 0.74377173 -0.5733689 -0.048985623 0.1353063 -0.20437111 0.10972478 0.1254974 -0.18732084 0.27950564 -0.5515054 0.46600166 -0.43592077 -0.15742746 0.03188159 0.09999664 0.16903116 0.057509825 -0.086791255 -0.042476673 0.5513227
675756 -0.14497614 0.4209532 0.26573908 -0.4220396 0.26127777 -0.1456427 -0.008059483 -0.18300068 -0.15223184 -0.110058166 0.33127588 0.27921456 -0.22850502 0.43861833 0.5163867 0.06311184 -0.32442626 -0.49382454 -0.25613585 0.48411807 0.14071657 -0.4472075 0.24780902 -0.26084858 0.16945532 -0.1838386 -0.096213795 0.09967106 0.49761194 0.2470629 0.092179395 0.43971887 -0.5151311 0.36113375 -0.050658472 -0.60812 -0.3130144 0.404523 0.09070649 0.19273694 0.07431963 0.08559916 0.3022602 0.09621574 -0.25696242 -0.4943348 0.18099959 -0.14471205 0.30868658 -0.045821987 0.335129 -0.20800495 -0.41776115 -0.292368 0.4606269 -0.028636836 -0.15841137 0.0047911867 -0.13608666 -0.3348153 -0.32002422 -0.2950308 -0.1429542 0.12920299
4584 -0.023333957 0.5758743 -1.8388884 -0.21642165 0.3293837 0.277457 -0.456083 0.018024428 0.29084677 -0.6011 0.6599925 -0.86947656 0.19641365 -0.12760402 -0.5053459 -0.0017017712 -0.39273742 0.38652444 -0.46049753 1.3592681 0.39216903 -0.39939004 -0.16930185 0.32598302 0.2335819 -0.33938694 -0.55919945 -0.18637255 -0.0075602727 -0.45413855 -0.60221905 -0.038822964 -0.11227496 0.293308 -0.05674734 0.19849335 0.6300474 0.36553782 0.079772584 -0.085156545 -0.6738963 0.885031 -0.67157805 0.040504403 -0.06707944 -0.27818307 -0.048452076 -0.44998148 -0.025224375 -0.22788861 -0.15841258 1.6068406 0.8445443 0.16890202 -0.7943146 -0.16550492 0.09324545 -0.7915249 0.52566874 -0.052229885 0.21688904 0.031326026 -0.42702043 -0.27505785
354004 0.28409427 -0.051261682 0.0036256474 -0.105380856 0.19819893 0.21971028 0.6253318 -0.08316513 -0.047004167 0.1902933 -0.060198277 0.28952453 -0.10851987 -0.11027808 -0.027351925 0.51737154 -0.36676705 0.29389155 0.40371603 -0.12122927 0.1598587 0.25637567 0.027294885 0.6032627 0.36050814 -0.23826145 0.2788717 0.5075825 -0.26409113 0.051626064 -0.044449095 -0.28627452 -0.3430536 -0.008372467 0.30329484 0.5532633 0.23904833 0.2776152 0.7886894 0.03288606 0.043500394 0.46232465 0.69562197 -0.29940596 -0.5064649 -0.4597922 0.04285454 -0.15269421 -0.52549225 0.23578522 -0.13361083 0.025454566 0.09470296 -0.023743799 -0.5597692 0.0140789775 -0.26862216 0.37685737 -0.1599337 0.71523535 0.04264585 -0.13543953 0.1671572 0.2120936
628500 -0.11502664 0.074310385 -0.6092536 -0.29585937 -0.12933704 -0.09550797 -0.4100865 0.07611297 -0.09970553 -0.37124544 0.37930444 -0.77519804 0.39072073 -0.082275264 -0.83358115 0.15706535 -0.05094195 -0.046940684 0.03822769 0.2565752 0.18406875 -0.1026459 -0.2741082 -0.022563834 -0.33806586 -0.06469735 -0.31947866 -0.05163386 -0.05171743 -0.3632804 -0.0024730063 0.05711858 0.081098884 0.13224828 0.5066131 -0.16067646 0.4845936 0.4685668 -0.049604278 -0.2672059 -0.6691327 0.4123054 -0.26234093 -0.21886832 0.20746207 -0.56345534 0.15283176 -0.23831184 -0.1743467 0.13775668 0.36015445 0.31820196 0.7395777 -0.49507597 -0.31182835 0.10884852 -0.089984626 -0.11475576 0.07833524 0.26006514 0.16835046 -0.32127932 -0.19685578 0.22380295
601567 0.31891814 -0.012765044 0.33924037 0.32142043 -0.06791188 -0.908099 -0.52639365 -0.058905486 0.2342704 0.0788329 -0.048643142 0.19692518 -0.10998245 -0.03104998 -0.14524904 0.0105777765 -0.116442844 -0.0069305412 -0.21385784 0.27421468 0.16687496 0.117704086 -0.081919424 0.37812573 0.062357746 -0.18104899 0.09643048 0.2509557 -0.22118038 -0.29348055 -0.26239562 -0.65126914 0.26756096 0.082595244 -0.13018565 0.23396242 -0.16434085 -0.050758146 -0.12760179 0.33657143 -0.09015972 -0.093088076 -0.019650346 0.3501788 0.12052485 -0.22926165 0.12304227 -0.0065164124 0.17047043 -0.20995888 0.024211539 0.0058997497 -0.1776065 -0.26315796 0.26380798 0.31975257 -0.51324296 -0.28482798 0.08859716 -0.112393916 0.47714677 0.27912256 0.19923651 0.14157219
1133930 0.10717005 -0.5159083 0.46063924 0.091927096 0.09353022 0.024072427 -0.28110537 0.1744616 -0.16954975 0.28916216 0.1939104 0.6766553 -0.5611632 0.13709156 -0.24944237 0.6065217 -0.17457277 -0.2614257 0.121920355 -0.07719986 -0.24973534 -0.18281586 0.07854735 0.3341229 -0.29371217 -0.255316 0.25148174 0.0056999573 -0.24930161 0.65908694 -0.012287495 0.01970873 -0.6184122 -0.33877444 0.27192718 0.09187062 0.14654042 -0.013420291 -0.15726902 0.320595 0.46175215 0.25806278 -0.25443318 -0.28610328 -0.26996642 0.07614932 0.48581484 0.6275335 -0.00024058243 -0.026146168 -0.1391442 0.2743872 -0.24714962 -0.35439163 -0.114136636 -0.04765817 -0.21647161 -0.0039202315 -0.08042173 -0.0671182 -0.489235 -0.17531164 -0.05935925 0.04527321
762980 0.92460686 -0.42927772 0.09125135 0.15661074 0.40328085 -0.060622696 0.27939934 0.39531043 0.3338883 -0.07055777 -0.24226867 0.03463312 0.02470046 0.013967536 -0.02313555 -0.24467623 0.44655466 0.002926018 0.013532203 -0.015140417 0.0883751 0.3159638 -0.32355824 -0.40921918 0.41296938 -0.28085274 -0.21004552 0.31610668 0.18421945 0.0081482185 -0.15525739 -0.10034796 -0.11471635 0.23354098 0.40392008 -0.03436343 0.12700464 0.016405143 -0.092468634 -0.03461882 0.0475978 0.012096861 0.35758126 0.38972726 0.3433084 0.33058894 -0.117320865 -0.0012844532 -0.3400349 -0.2879062 0.40017635 -0.27520496 -0.72387755 -0.13339752 -0.2999162 -0.35406688 -0.10970797 -0.053099334 0.36601013 0.45363152 0.023822777 -0.14126822 0.4288053 0.15215258
289779 -0.3609084 -0.35377663 0.042191003 -0.5998005 0.089071594 0.3544863 -0.013163301 -0.28784806 0.3642634 0.2864876 -0.20141692 0.043117475 0.16907154 0.41713756 -0.008540475 -0.04163076 0.37005773 -0.093080014 -0.042477258 0.17179772 -0.31145692 -0.020770911 0.12726523 -0.49291095 -0.7510981 -0.0029722138 -0.17865855 -0.028071126 -0.35722834 -0.20040591 -0.1824631 -0.07261265 -0.02890932 -0.4425981 -0.048682876 0.55704504 0.40213335 -0.20189226 0.42701417 0.27540413 -0.036142237 0.40148026 -0.09303213 0.022763824 -0.39772996 0.23205127 0.3215359 0.015537548 -0.03656621 -0.297382 0.19739279 -0.18416722 -0.04890942 -0.43805778 0.14479257 0.03156892 0.031804338 0.33212972 -0.018587086 -0.45214564 -0.17439717 -0.56559753 -0.088113256 -0.030417886
714260 -0.24438287 0.11690086 0.08099564 -0.057281617 1.1173497 -0.42235547 -0.027192626 -0.028278088 0.04094854 0.13060415 -0.27739406 -0.110632725 -0.1988861 -0.1181092 -0.19211969 -0.121670924 0.047001656 -0.031163115 0.1659885 -0.35362017 -0.8441254 0.16725083 0.50743973 -0.22556898 -0.14203659 -0.121016115 -0.09338965 -0.20189598 -0.060397863 -0.22994159 0.12028079 -0.83198524 0.13204025 0.68642 -0.12706515 0.26726845 0.23622419 0.17589283 0.097095005 0.2529581 -0.18735886 0.09997078 0.14221218 -0.43963268 -0.18056314 -0.07875456 -0.041498415 0.021752572 0.09432986 0.47994778 0.06060331 -0.06782134 0.32926238 0.09294967 0.11161928 0.35089037 0.22282079 -0.16051109 0.5093643 -0.06400541 -0.513618 0.40852007 0.3226847 0.23884538
40151 -0.41503048 0.21154341 0.4362834 0.41497335 -0.16408835 0.27043346 0.39193434 0.042170763 -0.22997971 0.6449916 -0.12934281 -0.40495434 -0.2580908 0.063303776 0.30860558 -0.2976819 -0.2171335 -0.5586724 0.38386807 0.09063808 -0.2787351 -0.3678306 0.35706365 -0.24487615 0.07446563 -0.22491825 -0.12925573 0.18462501 -0.13704142 -1.0383894 -0.3052569 0.5509238 0.75851005 -0.5351056 -0.14982228 -0.10208287 0.33448756 -0.48153985 -0.40213335 1.0521245 -0.25659874 -0.38857633 0.22640239 -0.09015316 0.29192457 -0.02783831 -0.2361416 -0.45715478 0.20773357 -0.27863446 -0.054606095 0.078119196 0.5027014 0.025956357 0.5328246 -0.07283973 0.577742 -0.56655675 -0.026882183 0.80512375 -0.18604678 -0.23238711 0.38955277 -0.69346154
16008 -0.2846399 0.049972784 0.024441034 0.26906142 1.3590472 -0.437616 0.32843837 -0.35408214 0.19463144 0.026757944 0.1579044 0.24147315 -0.23578724 -0.5246445 0.051559668 0.07767181 -0.20170853 0.6906355 0.53381693 -0.27631027 -0.7083523 -0.39344445 0.37929302 -0.022501605 -0.17124051 0.060291406 0.31322032 -0.45431882 -0.053404327 -0.08243631 0.11976822 -0.40839946 -0.19735308 0.98356724 0.18831587 0.36431488 0.30380964 0.4909387 0.5124153 0.21577029 -0.6515406 -0.1787904 -0.06233495 -0.1321819 -0.11568125 -0.48565197 -0.008818811 -0.013406197 -0.055933874 0.29983926 -0.11607794 -0.47177854 0.4044102 0.17999531 0.15514076 -0.23133348 0.6106929 -0.31391034 0.36044812 -0.12864013 -0.39923692 0.5261468 0.47177824 -0.09135538
101143 -0.173162 -0.11390622 -0.14842302 0.10305507 0.2528369 0.26354834 -0.39428556 0.109637864 -0.11317074 -0.042353313 -0.20345114 0.06258524 0.19927032 0.38791522 0.77221787 0.22489733 0.14955013 0.47313976 0.32284462 -0.29380623 -0.15609762 0.12950753 0.1398048 0.110449225 0.19211614 -0.0021177446 -0.21248853 0.24932459 -0.22249034 -0.6030857 1.021871 0.1318295 -0.11174727 -0.40033385 0.24390467 -0.03500823 0.06753109 -0.25802505 0.18801697 0.14458124 -0.15118165 0.00938656 0.09906748 0.03303832 0.4298641 0.14108928 0.33916417 -0.1698294 0.45051312 0.021458624 0.33023828 -0.057732683 0.01276476 -0.092544064 0.011300266 0.29826286 -0.028297327 0.4055294 -0.9674049 -0.008691884 -0.27063954 1.3560777 -0.4456946 -0.3546724
1153254 -0.48646978 0.1269024 -0.16532265 0.17759609 0.023163412 -0.11543909 -0.057816546 0.014241351 -0.3795763 -0.08439183 -0.13514526 0.041739374 -0.16649903 0.31277773 -0.044196554 0.015623172 0.01698638 -0.25575835 -0.010266922 0.11287284 -0.3246921 0.3489701 0.19871174 0.15558471 0.17394394 0.055471923 0.18652974 0.13694255 -0.123140275 0.33396888 0.121151164 -0.033015132 -0.4002059 0.12436344 0.33612275 -0.057037205 -0.07214513 -0.20211187 0.20754284 0.14280249 0.1381137 -0.42648482 -0.020929266 0.065916345 0.22225736 -0.00743362 -0.08711389 -0.1436572 0.1632792 -0.17326804 -0.14201577 -0.05486375 -0.17982808 -0.061838556 -0.4119383 -0.043249372 0.08722535 -0.072939426 -0.14051822 0.016978415 0.697642 -0.06772262 -0.40779993 -0.024583692
34266 0.022269944 0.14519651 0.534201 -0.26453012 -0.47169158 0.12196147 0.07145405 -0.0803311 0.38685426 0.19710577 0.047616426 0.086998396 -0.38903904 -0.11105366 -0.83510506 0.29312065 0.44795454 0.029837532 0.23765099 0.4102057 -0.17503253 0.007332285 0.26173064 -0.24284224 0.28560558 0.07101936 -0.2414245 0.6985012 -0.58865786 0.23645167 0.16705582 -0.01906922 -0.046146058 0.5727004 0.07064628 -0.12796785 0.26536277 0.05818218 0.20007403 0.042221304 0.42410386 -0.2737912 -0.15610707 -0.21339141 0.26141438 -0.1698072 0.38587645 -0.33075863 0.0761532 -0.26452565 0.21607643 -0.23877384 -0.105683506 0.24247524 0.22820997 0.42905325 0.6141991 -0.8505605 -0.008095935 -0.36515343 -0.05851362 -0.4989966 0.09827948 1.4330426e-05
1107455 0.4479809 -0.35183933 -0.38532084 -0.33188966 -0.034648124 0.44821087 0.053513695 0.10278968 0.03621657 0.37041873 -0.15083185 -0.5720739 -0.24318698 0.014035119 0.13472953 -0.12188652 0.1016961 0.11497848 0.053150393 -0.10787496 0.18599533 -0.36343467 -0.15368226 -0.046255864 0.032433283 0.107736036 -0.30855086 -0.40256178 -0.15248515 0.16962753 -0.13684985 0.3433776 -0.20051843 -0.25799692 0.04827135 0.08512256 -0.15118137 0.3343271 0.48783907 0.2913165 0.3154743 0.00989224 -0.26865414 0.26791617 -0.33276275 0.2363494 0.3699371 0.005666603 0.51886404 -0.03270913 -0.42540315 0.13272603 0.1314493 0.4125367 0.34626794 0.16759591 -0.44130406 -0.21845058 0.60394037 0.01063895 0.4005097 0.4931642 0.18800306 -0.19275205
22874 0.19095697 -0.06677797 0.67690986 -0.13993646 0.12737416 0.0316513 -0.3166772 -0.06880699 0.17911758 0.15251534 0.33521673 -0.22537924 -0.06496943 0.16576348 0.49087113 0.36521628 -0.41488913 0.0024387292 -0.13516814 -0.36624563 0.3891196 0.4124555 -0.101657614 -0.29459998 0.11316123 0.056927968 -0.062380455 0.7161545 0.30871004 -0.11277147 0.16320506 -0.124580935 0.16621034 0.051083457 0.3009737 0.22718452 0.5336899 -0.465892 -0.0469152 -0.3347658 -0.061067354 0.16707523 0.4209867 -0.20490171 0.24936262 -0.5749234 0.48299968 -0.2109609 0.38301778 -0.06719344 0.40180802 0.08669672 -0.24642184 0.81804496 0.308807 0.027042774 0.19260971 0.3879876 -0.34824434 0.05939901 0.08818632 0.433809 -0.17019197 -0.5253937
59244 0.25427142 0.3943626 0.038349286 0.25825897 0.3459981 0.23589267 -0.28037208 -0.21104006 0.15528324 -0.19905268 -0.12194563 0.3696823 0.06485856 0.034825284 0.09371768 -0.16117527 -0.06156979 -0.012629679 -0.4073018 -0.89986897 0.057785314 -0.076972716 -0.06890373 -0.14168434 0.12154608 0.04415418 -0.289208 -0.16923337 -0.2729876 -0.110863745 -0.1836242 -0.07436273 0.27647462 -0.011905738 0.4257857 -0.35879833 -0.41355065 -0.030225327 0.39964098 -0.14432094 -0.32182613 0.24275292 -0.044518296 0.15051311 -0.44337258 0.5084234 -0.3648582 -0.31738514 -0.06466156 -0.29228398 0.34105483 -0.31611958 -0.31522295 0.16262053 0.22382842 0.5489772 -0.12029764 0.13934025 0.52813524 -0.05330932 0.010775548 0.17562528 -0.53137696 -0.28665352
91852 0.4159285 -0.27184927 0.3947351 -0.6831996 0.070024565 0.20100385 0.15038905 -0.18735851 0.16071925 -0.039797205 0.764691 0.18866412 0.079638176 0.33396742 -0.3847229 0.29564378 -0.08438697 0.012919165 -0.12339252 0.10348773 0.25680074 0.14009999 -0.15094036 0.0647408 -0.06611942 -0.09101427 0.5233983 0.2236243 -0.30786857 -0.29779944 0.095471196 0.71397847 -0.13089354 0.61930466 -0.005961538 -0.4283224 -0.35805577 -0.4038957 -0.15378654 -0.14844814 -0.003579896 0.4147481 0.091814406 -0.37418756 -0.094543226 0.5606005 0.28662792 0.1183043 -0.013920164 -0.53094804 -0.37291446 0.11821742 0.35964438 0.4726236 0.14607798 -0.1724255 0.39355952 -0.13803978 0.35546476 -0.03490754 0.025197567 -0.2821252 -0.63996255 0.13864611
1152508 -0.3172974 -0.1011532 0.030959973 0.09427213 -0.033573896 0.057172686 0.14339674 -0.11707738 -0.0041937847 -0.12266123 -0.13988978 0.017153446 0.085216865 0.0785253 0.054381106 -0.054773763 0.25966048 0.16475801 -0.033828598 0.0046683415 0.27530098 0.14966854 0.08220384 -0.03898091 -0.20749767 -0.029142093 -0.10688791 -0.1072574 -0.015471277 -0.014309115 -0.10817338 -0.05546 0.07142795 -0.0129097905 -0.2262193 0.16661981 -0.049066797 -0.08918672 0.0010566706 -0.080462925 -0.023915859 0.22093548 -0.041310705 0.11989527 -0.032017235 0.035548013 0.16440025 0.07830485 0.24042946 0.04227867 0.06480934 -0.042245653 -0.013102614 -0.09591984 -0.0005999809 -0.13818383 0.2459666 0.04005993 -0.14742385 -0.057760663 -0.0115885725 -0.14526804 0.17475133 0.067568935
409725 0.06371734 -0.5187468 -0.23765282 -0.29044622 0.41958103 -0.39532053 0.24408904 0.11070239 -0.6314011 -0.10229384 -0.05061306 0.17267807 -0.24016331 0.13999507 -0.20006768 -0.23251197 -0.24781495 0.17158167 -0.06541291 -0.371079 -0.03536043 -0.25600243 -0.22647506 -0.08420952 0.04619126 -0.26883084 0.09668077 0.13617703 0.2327754 0.52075076 0.3192419 0.29057807 -0.086508386 -0.28581804 -0.34133098 0.2372604 -0.20125839 -0.5109169 0.09511025 -0.42038327 -0.24408491 0.065189816 0.12203207 -0.26264644 -0.29940537 -0.42994553 0.100212656 -0.02374597 -0.609882 -0.032239065 0.10603518 0.47090957 -0.015464905 -0.27330253 0.23182133 -0.25869814 0.08642067 -0.099116825 0.37093517 0.41705272 0.6351423 0.20302023 0.15076257 0.051331487
1102761 -0.35470435 0.016442435 -0.31603995 0.45461878 -0.437006 0.61453855 -0.02410617 -0.1775732 -0.03854071 0.46124765 0.47737038 0.0038742141 0.04743732 -0.20153663 0.16520365 0.032411568 0.04359934 0.16921678 -0.4188149 -0.10507785 -0.2970945 0.04551259 0.20612003 -0.07037764 0.22117057 0.0015399826 0.3281712 0.3748877 0.37742049 0.0060534757 -0.06076834 0.35940066 0.04193831 -0.14942601 0.2818544 0.53921825 -0.11868643 -0.7862405 0.19754104 0.6279084 -0.27528054 -0.4940778 -0.26339749 -0.044764876 0.63016564 0.10044839 -0.160014 0.43527228 -0.01353008 0.1862123 0.1696078 -0.13381472 0.135058 -0.2097092 0.09813077 0.37513632 0.22698888 -0.26491058 0.4838281 0.59351367 -0.35683826 -0.0015747912 0.17675427 0.011422989
119956 -0.042664897 0.49289092 -0.022319758 -0.36797675 0.24033989 0.07871423 0.03571326 -0.18556252 -0.055748552 -0.13219117 -0.08545098 0.3495263 0.05141248 0.1761609 0.10971744 0.34510577 -0.28406382 -0.345677 -0.26819238 0.47610313 -0.044323895 -0.6362883 0.3776588 -0.19586092 -0.28126755 0.1750036 -0.2672569 -0.052718297 0.46780825 0.09823644 0.36691427 0.010826519 -0.32380748 -0.1190393 -0.42418593 -0.064842194 -0.236316 0.74004936 -0.17658435 0.17918763 0.06026233 -0.35205796 0.57642883 -0.05936513 0.22279663 -0.10015594 -0.042682815 0.124764025 0.46956894 -0.15139 0.12022627 0.1364549 -0.7655825 -0.3171271 0.43019724 -0.28754902 -0.118083045 0.22210532 0.10724551 -0.18745726 -0.13942207 -0.15738943 -0.41451362 -0.14759585
36802 0.3095186 0.39016664 -0.1500262 -0.15013324 -0.27324736 0.36818144 0.52339226 -0.11349837 0.21477447 -0.15081228 0.01869259 0.08383171 0.015632063 -0.119522035 -0.51791614 -0.6861237 -0.1464181 0.5705916 0.37769428 -0.59631217 0.3661865 -0.010862285 0.5014273 -0.4778419 0.17814745 0.14762194 0.12642911 0.7162099 0.14773515 -0.15273763 0.6975142 -0.20841423 -0.012536467 -0.23074394 0.21781483 -0.5778527 0.20103656 0.8985601 0.651926 0.6412988 -0.14724307 0.25109932 -0.051733002 0.15592189 -0.1778411 -0.16609572 -0.41469103 -0.00604466 -0.0129200015 -0.25463614 -0.37719688 -0.4940213 0.40285435 0.092946716 0.0023833837 0.06622532 0.2798098 0.14602299 -0.35610765 0.13426858 0.42903984 -0.24409887 0.2120223 -0.086206734
1153262 0.09958689 -0.08742946 -0.37526044 -0.29478872 -0.891708 0.11551114 -0.057463747 -0.09233728 0.13322024 -0.1417408 -0.12633708 0.7831311 0.09464251 -0.48206037 -0.8664948 -0.34425813 0.4483785 -0.22959019 -0.1739491 -0.7096309 -0.115272194 -0.083140954 0.6327813 -0.31517416 0.6291309 -0.08277173 0.07904718 0.3186863 0.42191976 -0.21652548 0.08362442 -0.0052096965 -0.3814093 0.23623261 -0.16471317 -0.4696464 0.5429062 0.24367175 0.54445326 0.12940739 0.052867837 0.029527256 0.032951552 0.49794748 -0.17180496 0.06941979 -0.17629302 0.20482129 0.039000653 0.24664077 -0.029882658 -0.04897284 -0.23759203 0.26841784 -0.093318775 -0.42321938 0.043682292 -0.46696287 -0.34748262 0.42575696 -0.21623218 0.040432062 -0.26918143 0.19940841
12165 0.1649995 0.49587694 -0.46445653 -0.046894647 -0.5901248 0.18502302 0.16481712 0.28426015 -0.14528325 -0.63007706 -0.24148016 -0.230241 -0.3202415 0.3861116 0.0879542 -0.31080166 0.4602964 -0.2158929 0.11294304 0.090729825 -0.6555907 -0.18305983 -0.5442813 0.9257102 -0.18287629 -0.1768315 0.29147106 0.29714948 -0.18811904 0.34850845 0.25920042 0.21045408 0.053704303 -0.30035737 -0.2819613 -0.10147435 0.19884792 -0.42513198 0.35554707 0.1122479 -0.29328358 0.051991757 0.11555595 -0.087628275 -0.38421324 0.3100752 0.2933452 -0.6383073 -0.31916904 0.11228013 0.20900802 -0.44951814 0.11905798 0.26174775 0.38454914 -0.29981962 -0.40559968 0.42816406 -0.26866376 -0.5001298 -0.7729993 0.02923953 -0.3190635 0.45605126
10186 -0.3461463 0.082311116 0.28177226 0.5188551 -0.6355477 -0.44105154 0.8800178 -0.15892115 -0.11784526 0.6672821 -0.4245906 -0.12379568 -0.49056882 0.3405061 -0.544901 -0.27187672 -0.1233794 0.3439244 -0.5817846 -0.3876635 -0.07213088 -0.18261172 0.34898826 -0.047797598 -0.15647952 0.120914035 -0.44851032 0.13156672 0.08625428 -0.4216037 0.30982754 -0.2589809 -0.27193695 -0.44590914 -0.0758278 0.38057142 -0.15183583 0.32493842 -0.35319203 0.04297199 0.38690776 -0.14522614 0.064244345 -0.13816065 -0.5400553 0.4525908 -0.09427319 -0.8560549 -0.893126 0.2806807 0.38411927 0.3556271 -0.2305259 0.3622055 -0.2275963 -0.14085683 -0.29138887 0.32120475 0.64141035 0.137745 -0.035543878 -0.06901228 0.14379989 -0.17076147
189571 -0.34230816 0.14962849 -0.046416193 -0.028495928 1.4029927 -0.4608859 0.07560057 -0.01916821 0.17589885 0.19150585 -0.14216341 -0.06050225 -0.044389315 -0.15989973 -0.26088867 -0.02560212 -0.09808764 0.2193767 0.30712202 -0.28316697 -0.84824383 -0.15410449 0.38881338 -0.2999327 0.011687149 -0.0557347 0.09393874 -0.5183634 0.03547644 -0.2800883 0.09643962 -0.65525293 0.023418585 0.7928515 0.0058448943 0.26460958 0.24289963 0.07174253 0.08570288 0.35422337 -0.1317071 0.0806734 -0.07238243 -0.24848902 -0.015041242 -0.025507065 -0.07037428 0.0013302849 0.16749312 0.36483565 -0.030310813 -0.343219 0.35138813 0.21491891 0.12036797 -0.049762405 0.18492408 -0.33287793 0.38399675 -0.1701337 -0.63711905 0.379568 0.3779253 0.15588623
48555 -0.1082191 0.11082063 0.33029962 0.07332554 -0.014109279 -0.44046673 -0.18226081 -0.12599413 -0.18473808 -0.64696664 -0.20524445 0.75899184 -0.041460518 0.4068585 0.39122984 -0.22712828 0.031068461 -0.44503066 0.04521265 0.112900905 0.1361735 -0.5111287 0.24978733 -0.01848272 0.23793153 0.06478722 -0.43807754 0.071464874 -0.062206272 0.532145 -0.21266964 0.24227935 -0.3849063 0.14509217 0.3903175 -0.17678161 -0.12927662 -0.03597653 -0.37329477 -0.12557533 0.3645432 -0.12724723 -0.35997072 -0.62888867 -0.42335066 -0.091029435 0.07586051 0.017775796 -0.043096572 0.5524537 -0.2194428 0.30021453 0.007424948 0.1375929 0.592445 -0.20433411 0.115115285 0.22037148 0.4454698 -0.104536384 -0.31528264 0.19686851 -0.1085402 -0.18908964
1118120 0.042323466 -0.35080326 -0.017536154 0.1602773 -0.4117193 -0.04725158 -0.34588027 0.01964194 -0.3832347 -0.060205407 -0.06676734 -0.08845338 0.2885357 0.06215275 -0.5362021 0.4071243 -0.16529879 -0.17902878 0.21527605 -0.108317204 0.16567114 -0.02128031 -0.4491265 -0.01995088 -0.38185057 -0.15548223 -0.1774988 -0.27166852 -0.10648975 -0.22276728 -0.02880399 0.14235505 -0.12989318 -0.025077373 0.7710048 -0.14830951 0.20121124 0.42554823 -0.05766048 -0.3367248 -0.34469742 -0.09910751 -0.1983322 -0.31017438 0.29891455 -0.36671275 0.23114708 -0.036790613 0.055792484 0.25427267 0.17608832 -0.18354744 0.29702216 -0.17097817 0.33182558 0.002328985 -0.26392707 -0.240233 0.082501814 0.090175174 0.025528051 -0.2690456 -0.19494425 0.3567147
1133338 -0.44366878 -0.15301514 0.03756227 0.09368838 -0.053776935 0.16132897 0.362862 -0.22185928 0.16512024 -0.23397759 0.058797322 0.123203926 0.17425255 0.1046845 0.13160862 -0.119089596 0.23357596 0.13285767 0.072041504 -0.20547032 0.44510308 0.27204454 0.025949292 -0.21976429 -0.1962491 -0.048973706 -0.048574943 -0.24066244 -0.03233865 0.1334447 -0.12585871 -0.24429987 -0.0058695343 -0.022372458 -0.2889669 0.24560668 0.10750584 -0.12715983 -0.057058275 -0.2178682 0.104898006 0.39329764 -0.017964322 0.17682008 0.1043817 0.21584561 0.33968604 0.09497237 0.27777922 0.024117619 -0.14376055 -0.14210026 0.09524402 -0.21715039 -0.13022958 -0.24733773 0.033716284 -0.13869143 -0.30939698 -0.11309873 -0.13636048 -0.18610677 0.08632134 0.05175355
156977 0.3113877 0.0920551 -0.28369933 -0.14795166 0.4968977 0.32083613 -0.07462935 0.32363614 -0.032168865 -0.17138499 0.18244977 0.23987006 0.09810615 -0.48588285 -0.2914055 0.39851278 -0.31919268 -0.26114866 -0.038927022 -0.017771559 -0.07515216 -0.25987396 0.27921835 0.537383 -0.21155472 0.71454525 -0.33066764 0.02138428 -0.28265935 0.19929229 0.60286397 -0.3504875 0.060510594 -0.47700468 -0.7570376 -0.017088346 -0.0583731 0.2711957 -0.31149673 0.07277609 0.26962337 -0.13710514 0.58743554 -0.21137431 0.64689624 0.39112684 -0.32056338 0.2572497 0.43160993 -0.13062578 0.12794201 0.20892043 -0.20546919 -0.24937761 0.2928374 -0.2318242 0.22082788 0.51746416 0.08317137 -0.044478476 0.18390048 -0.2669519 -0.42146522 -0.37440875
1153064 0.077084325 0.32881582 -0.015889317 0.31060547 0.12376701 -0.43904614 0.32063165 -0.0018478472 0.09232374 -0.090624176 -0.096491724 -0.14522694 0.033529222 0.050392773 -0.40682033 -0.06424479 -0.42395514 -0.23891215 -0.3595767 0.040574104 -0.51080054 0.18156219 -0.3174212 0.15327868 -0.22414182 0.24105965 -0.04357769 0.19940606 -0.021185074 0.18846321 0.1811737 -0.10220152 0.005196083 -0.42704496 0.18963835 0.2919991 -0.2293727 -0.33241966 0.08363651 0.34078184 -0.07919333 0.11462302 -0.20353092 0.291411 -0.08483586 -0.2267299 0.38783035 -0.23236722 0.098878175 0.19253509 -0.623531 -0.14504443 -0.37224495 -0.14983264 -0.28275475 -0.15604141 0.02531938 -0.30468062 -0.34258392 -0.14446834 0.098312765 -0.12646635 -0.49101156 0.41401064
1104449 -0.12115882 -0.058947712 -0.021847513 -0.2843017 0.25935557 0.13079336 -0.17425981 -0.31870887 -0.11835972 0.21060736 -0.18153493 0.035170484 -0.0695309 -0.262426 0.14348692 0.612712 -0.11038964 -0.8315472 0.24598192 0.22365834 0.098232694 -0.32324478 0.31309983 0.19785202 -0.09737432 0.13768153 0.012506437 0.2722276 -0.09995126 -0.16483961 0.4961645 -0.20616588 0.34664813 -0.54436296 -0.30989692 -0.5509772 -0.24210808 0.3192042 -0.56062865 0.32028034 0.25509104 -0.36280236 0.83696705 -0.3286199 -0.008052761 -0.07725358 0.22219461 0.30863407 0.21285689 -0.039728355 0.1155226 0.6768018 -0.026656104 0.33422118 -0.057157513 -0.14492181 0.31453893 0.5706512 -0.17948662 -0.013275023 0.21224853 -0.42892256 -0.35528648 0.35502332
12211 0.09680241 0.45908228 -0.4228598 -0.18690751 -0.5808712 0.085210435 0.0667496 0.29077372 -0.03324026 -0.5114938 -0.46297315 -0.011317168 -0.0035065084 0.120457076 0.05900091 -0.0098954225 0.3675847 -0.20529063 -0.06241183 -0.12709 -0.8335152 0.112752065 -0.6607961 0.41675305 0.072414346 0.063286304 0.117575616 0.30171534 -0.3435638 0.042314243 0.10289086 0.33387312 -0.096820705 -0.11975982 -0.1824895 0.037000608 0.19579531 -0.14257677 0.3019901 0.17930882 0.040102772 -0.04952503 0.27426437 0.019601863 -0.4511214 0.21474335 0.28434142 -0.24479096 -0.31851858 0.23255034 0.08925698 -0.31316286 0.014398045 0.033084318 -0.03985411 -0.47300237 -0.20043154 0.062387425 -0.25109762 -0.6225925 -0.62814355 0.12728766 -0.2547136 0.2358435
642798 -0.15220733 -0.429576 0.49327424 -0.18890114 0.051907383 -0.417374 -0.39746448 -0.362939 0.15440488 -0.24725467 0.06682101 -0.68235195 0.011440754 -0.5333715 -0.21843773 0.0025226406 -0.013391998 0.3290285 -0.075080365 -0.14641783 0.2486552 0.08070482 0.029006341 -0.21340357 -0.18455791 0.031223832 0.28132308 0.14264911 0.33997634 0.07403852 -0.259667 0.099953234 -0.90248203 -0.6680138 0.073789395 -0.28153604 0.50231344 -0.4729679 0.18714328 0.45418108 0.40632945 -0.09914498 0.30384076 -0.13010326 -0.07192988 0.5865879 -0.79027146 -0.29558545 -0.30854133 0.13557406 -0.27155942 0.18664576 -0.09499959 -0.6164287 0.118291706 -0.024218127 0.09880851 -0.03982687 -0.07620756 -0.20953587 -0.41120923 0.072230324 0.08281632 -0.095171876
1128959 -0.024091057 -0.11020423 -0.0722535 -0.121256635 -0.07689641 -0.14387994 0.007120823 -0.019377587 -0.07904945 -0.009708352 -0.2535873 -0.049008727 -0.24310069 -0.08707702 0.18855613 0.028644303 0.4687126 0.2149993 0.21171519 -0.4531115 0.20479974 -0.21635726 -0.2475587 -0.11155596 -0.34325778 -0.4728424 -0.05733447 -0.042710837 0.014274407 -0.11072064 0.18328229 0.41058034 -0.13181667 0.31649014 -0.4929687 0.6887194 -0.13730368 0.00950698 -0.5470785 0.08700684 -0.16709757 0.2980492 -0.29585308 -0.047864754 -0.55728817 0.07224033 0.16843209 0.10275238 0.45843077 -0.07989115 -0.02785514 -0.09996053 0.013740205 -0.10156731 -0.030348558 0.008819398 0.5088793 -0.038995743 -0.19050556 -0.29390723 0.29165447 -0.45033675 0.107810386 -0.3952283
1105062 0.056428567 -0.28802076 0.08647652 0.07073387 -0.22203942 0.013144355 -0.18712202 0.0777527 -0.27206826 -0.051754404 -0.018741332 -0.20490366 0.24269015 0.0661915 -0.334705 0.19308506 -0.020302901 -0.01955507 0.065205455 -0.13380411 -0.04740583 0.0073713264 -0.24729528 -0.060940802 -0.19570798 -0.022505268 -0.09937376 -0.19222534 -0.029492738 -0.2380879 0.105250016 0.08804597 -0.028963968 0.053274047 0.54149514 -0.007497758 0.19828941 0.27747527 -0.055811733 -0.27602568 -0.19384915 0.0093497615 -0.087506235 -0.22187786 0.15382008 -0.3000821 0.07918323 -0.028906077 0.05730744 0.10054567 0.09507846 -0.22622457 0.21903972 -0.17888035 0.19520563 -0.015541577 -0.11747281 -0.04636876 -0.028710268 0.12327592 0.012148278 -0.18591665 -0.12618326 0.23119384
16470 0.19019938 0.14751625 0.076796845 -0.5710935 -0.04699057 0.10720078 0.12804548 -0.55294806 -0.10561275 0.0852155 0.12820217 -0.13557792 -0.0617763 0.068665355 0.15494838 -0.096610464 -0.44953927 -0.1670465 -0.2523022 -0.026061593 -0.5414567 0.68958914 -0.20842129 -0.25790218 0.12651168 -0.14988199 -0.20379174 -0.6152325 -0.25485107 -0.052529752 0.086095534 -0.09862195 -0.035299253 -0.023711262 -0.1286141 0.10545589 0.49079466 -0.14743492 0.09182259 -0.38524368 -0.11489989 0.254421 -0.11724864 -0.19872916 0.60824096 0.19946603 -0.3313134 -0.6976856 0.10797995 0.43090278 0.08681741 -0.3829051 -0.58515495 0.38430995 -0.2063442 0.590824 -0.051500127 -0.0040639844 -0.28753954 -0.3516292 0.0034934194 -0.103552274 0.17964798 -0.2455499
1128856 -0.32087544 0.40025693 0.18184286 0.4447223 -0.046305638 -0.03653542 -0.34436533 -0.11463253 -0.5386862 -0.016163036 -0.2315337 0.25967517 -0.45448235 0.30286562 0.013608596 -0.20146015 -0.045071814 0.2437819 0.27244887 0.2143726 0.22094071 0.570511 0.1383253 0.24803372 -0.061666623 -0.08324501 0.23049161 -0.11727889 -0.13711739 0.10710248 0.48525685 -0.26566985 -0.17991002 0.26174092 -0.016115988 -0.004606542 0.12769817 -0.2906406 -0.12389927 0.3839543 0.45355183 -0.25347057 0.14054874 -0.06501655 0.00073668576 -0.5724322 -0.18814218 -0.3170085 -0.3101217 -0.4637066 -0.05382796 0.3167955 0.08479337 -0.53805095 -0.2069244 0.08857477 -0.42293537 -0.52272224 -0.052659392 -0.2489091 0.6784177 -0.34052333 -0.38545087 -0.29961792
1130780 -0.1402657 -0.14880474 -0.18578404 -0.008603108 -0.17685887 -0.23354469 -0.14387408 -0.26129207 0.064794235 0.076870844 -0.42236546 0.34712625 0.5640886 0.20143557 0.23500797 -0.3658154 -0.0017272108 0.02509079 0.3449275 0.489046 -0.049438417 0.16415027 0.42453563 -0.52922225 -0.0024644204 -0.020462714 0.19150877 -0.248153 0.62822425 -0.1289724 0.11500381 0.18738803 0.17770077 -0.63810235 0.094465315 0.17759538 -0.15819944 0.42406327 0.17776927 0.095792845 0.4461947 -0.28296518 -0.20080887 -0.45056844 -0.058576643 0.02342585 -0.0022981958 -0.0350086 -0.18694717 0.1226722 -0.50192386 -0.36725435 -0.653717 0.43709695 0.33921146 0.28767237 0.038591925 0.25229567 0.24870536 -0.36267555 0.2816121 -0.316403 -0.38582075 -0.05693258
64519 -0.564024 -0.043006033 -0.019407425 0.59297746 -0.6315109 -0.45700762 -0.10887539 0.32732722 -0.047383558 0.1633628 -0.17013368 0.11479338 -0.34478566 -0.17357747 0.30156177 -0.08072632 0.17949717 0.2353032 0.10068458 0.21816783 -0.3187349 0.005705443 0.27634224 0.28377977 -0.13150863 0.68816596 0.1499093 -0.69428074 -0.06686075 -0.6040255 0.039116304 0.060680218 -0.22858581 0.24745311 0.07646785 -0.31677753 -0.3345395 -0.078432605 -0.29500467 0.5382532 0.32229236 -0.53392535 0.23501375 -0.20108064 0.20630634 0.4635165 0.2154052 -0.8022776 0.024126235 -0.2941357 0.36935854 -0.21436432 -0.53074807 0.345727 -0.21224278 0.15849487 -0.120248035 0.3404843 0.4567746 0.07224479 0.15722927 0.24896875 0.25156778 0.2841459
642847 0.11581761 -0.10963058 0.4733341 0.22229134 -0.023293944 -0.39576098 0.0010510939 -0.29935652 -0.29517335 -0.25042373 0.12678371 -0.2880682 0.31659028 0.17917855 -0.32441458 0.2071213 -0.21728133 0.2967083 -0.47064686 0.35113272 -0.18629019 -0.12343725 0.08628353 0.22071247 0.21203537 0.13650863 0.773828 0.2265 -0.134823 0.007260651 -0.46038508 0.21000016 -0.6764716 -0.78286636 -0.13257027 -0.4870687 0.07455353 0.0020563684 -0.04337871 0.21741176 0.33824396 0.020514848 0.03699783 -0.07899744 0.14503244 0.250238 -0.56279725 -0.11533461 -0.051572345 0.18106145 -0.30044523 -0.108490266 0.5740314 0.005614335 0.057999883 -0.053537842 0.15803991 -0.1567366 0.02351195 0.0004403155 -0.5088574 -0.3182565 0.33862484 0.070925295
199571 -0.08833464 0.098638944 -0.0017816355 0.2966517 -0.43431398 0.1988096 0.25365043 -0.12443611 0.07943683 0.33881193 0.2126671 -0.12213268 0.28182432 -0.13122885 0.13435519 -0.33822823 0.15171029 0.3727856 -0.24410038 0.2840282 -0.19210604 0.0046906685 0.16057631 -0.0337 -0.25408626 0.10103114 -0.07406766 0.48283124 0.37604007 -0.33750188 -0.34880403 0.4710147 0.07198685 -0.13433653 -0.12730603 0.48733625 0.16707838 -0.5928559 -0.06353148 0.31716102 -0.19105421 -0.46138847 -0.25003478 0.05568863 0.5206685 0.20093772 -0.099435456 0.39071897 0.33240816 0.22382094 0.22050731 -0.16042577 0.4154548 -0.23674527 0.42186058 0.3060399 0.3640844 -0.16461901 0.17743686 0.6884021 -0.21458775 0.08219686 0.1422697 -0.32749242
85452 -0.23938291 -0.43034738 -0.32057434 -0.0772297 -0.12231908 0.1111244 -0.52926934 0.060889356 -0.5239888 0.0827934 0.2666872 0.2134103 0.2026371 0.2563992 0.4241705 -0.29704142 0.11665158 -0.1453295 0.059805363 0.21153021 0.18037383 -0.15956382 0.18680604 -0.108635075 0.08843859 -0.33765766 0.14061351 0.4903626 0.05983427 -0.5038698 -0.6490465 -0.70999193 0.013345226 0.7701481 0.04011938 0.42196536 -0.088728584 -0.13544461 0.39175388 0.30537644 -0.18392384 -0.21397202 0.6288289 0.14942554 0.61585164 -0.14477888 -0.63558674 0.60633105 -0.14300773 -0.6797996 -0.4677962 0.13097923 0.26462483 -0.20886867 0.16706294 0.605379 0.008609307 -0.3667135 0.20520268 -0.08543329 0.059330925 0.22573094 -0.2251238 -0.29716608
