2708 64
1114398 -0.042109177 0.2898299 0.34441432 -0.22283593 -0.33631948 -0.006988783 0.22131632 0.06699781 0.34760243 -0.09507025 -0.012468288 0.30627334 -0.3279714 -0.09969301 -0.62108487 0.2046712 0.43305156 -0.014604977 0.11280131 0.28821233 -0.34884408 0.13255425 0.2425092 -0.2579572 0.14543486 0.14902873 -0.071217224 0.45741233 -0.37997106 0.21231206 0.1892293 -0.05119442 0.20659123 0.4639935 0.110600635 -0.10937211 0.22838463 -0.01220361 0.18235719 0.038061976 0.27039614 -0.17250201 0.11398227 -0.29754463 0.24269976 -0.18910852 0.30148384 -0.25526047 0.01043434 -0.18766566 0.082331166 -0.19517697 -0.009288618 0.18859278 0.1112455 0.25387755 0.3916115 -0.5087632 -0.011315936 -0.34508625 0.012931704 -0.47996697 -0.058702156 0.079091884
7297 0.836142 -0.5726003 -0.16986156 0.28367245 0.2447689 0.10194752 -0.19234084 0.4300408 -0.021144753 -0.029764332 -0.31250426 -0.2493744 0.3959369 -0.12922254 0.15216419 -0.29108208 0.15415043 -0.26721108 0.17100336 0.016687715 0.195211 0.18437159 -0.50347626 -0.12595908 0.07772862 -0.32225204 -0.48069784 0.1096765 -0.4083534 -0.11995266 0.14647038 -0.20758064 -0.49660948 0.12649621 0.8472114 -0.111972004 0.070929185 0.34647402 -0.2407951 -0.08875642 -0.117260836 0.06046904 -0.1416364 0.3949862 0.6458684 -0.20199902 -0.20796148 -0.107012235 -0.48610175 0.12254563 0.5780353 -0.66493434 -0.23653075 -0.08885597 0.21397175 -0.6829715 -0.23349129 0.0006294017 0.14894627 0.40829718 -0.055641014 -0.43567783 0.13532807 -0.12837721
711994 0.6207973 -0.42875832 0.11975937 0.12026684 0.05434483 -0.010926842 0.059626047 -0.06885247 -0.30809572 0.54543966 0.2621793 -0.10557637 -0.15919308 0.14983973 -0.14447983 0.2533565 -0.19560914 0.30761924 0.18085364 -0.2679088 -0.033735085 -0.12204556 -0.33807448 -0.33057895 0.32175386 -0.235999 0.46509808 -0.019493064 -0.17967841 0.4724644 0.2606682 -0.085557334 0.21471654 -0.06136735 0.50245523 -0.1589373 0.21832612 -0.041929863 0.18354961 0.13339533 0.11676383 0.2136071 -0.26629633 0.09658671 -0.07628516 -0.25651106 0.17215282 -0.028852956 -0.0050940597 0.23589294 -0.015505291 -0.02560244 0.07172933 0.6093878 -0.30906907 0.29003796 -0.37141347 -0.023902727 -0.13634674 0.014516385 0.1308942 -0.20331585 0.13393153 -0.012443091
346243 -0.34459746 -0.104054585 -0.54788405 0.4701629 -0.20043977 0.23234972 -0.07337709 0.0011389973 -0.046600733 0.49722964 0.74085426 -0.01776366 0.17130628 -0.20463456 0.019603126 -0.2521163 0.2285931 -0.032346115 -0.56335443 -0.40042412 -0.093781374 0.5935225 0.0038111082 0.20877433 0.4108781 0.09766785 0.5012074 -0.17042604 0.43274528 0.11445101 -0.07311766 0.28862363 -0.07858847 -0.16850574 0.10772297 0.47014078 -0.13193084 -0.36556455 0.0487536 0.22139941 -0.43049443 -0.14344949 -0.11412519 0.20916176 0.23126008 -0.18651602 0.097689025 0.2609513 -0.28877985 -0.06708927 -0.027598638 -0.26071313 -0.15523238 -0.043379985 0.25196338 0.109907925 -0.22241493 -0.0008719633 0.4086564 -0.052454617 -0.3141849 -0.27192485 0.12481465 0.10573756
132806 -0.087751195 0.17775647 -0.36451182 0.08524309 -0.13931164 0.09025015 -0.034718998 -0.36606666 -0.06024891 -0.2027441 -0.18154934 -0.49282783 0.29991493 -0.010458414 -0.32631493 0.049477898 0.637115 0.34773436 -0.13942601 0.69612664 0.41910055 -0.0014580332 0.07335039 0.06313689 -0.6184439 -0.09770166 -0.36742637 -0.084208265 -0.05860884 -0.28373447 -0.52652055 -0.17831069 -0.03160412 0.22873692 -0.49644566 0.17853521 -0.016791109 -0.01836807 0.006375801 -0.24337284 -0.40278327 0.6387462 -0.35893473 0.4543916 -0.12065383 0.06866808 0.08890281 0.031948887 0.41163564 -0.17139067 0.2227235 0.43477175 0.14361978 -0.32565686 -0.24059705 -0.13010165 0.54866797 -0.32778516 -0.20546015 0.04305723 0.1930906 0.16814841 -0.08589766 -0.15646294
1132285 -0.10876557 0.40733367 -0.117249586 -0.3112055 -0.35727355 -0.13074942 0.24469168 0.09826894 -0.14230065 -0.49168012 -0.2193117 -0.029065365 -0.14011185 0.19444662 0.070142776 -0.051216487 0.09862253 0.05808136 0.08876982 -0.08090675 -0.2895348 -0.19094744 -0.26909873 0.24790442 0.119083695 -0.17752731 0.10459239 -0.14269611 -0.2971726 0.17494923 0.15122205 -0.003522695 -0.12356882 -0.3034845 -0.086938016 -0.2519605 0.10612255 -0.28622308 0.043305673 -0.029997203 -0.2777918 -0.12905693 0.25596258 -0.032244857 -0.10620068 -0.2949752 0.26945922 -0.16558962 -0.23494376 -0.09746383 -0.075216725 -0.17921607 -0.13693395 0.24082574 0.19662428 0.0472077 -0.25334632 0.17406186 -0.03962622 -0.085518 -0.44298625 -0.009097918 -0.32972553 0.22295035
568857 -0.42538786 0.022724165 0.28097448 0.18656597 -0.017206427 -0.0069469474 0.43846002 -0.16638061 0.032056488 0.15696937 -0.23382746 -0.08259153 0.20648254 0.06891365 0.017764876 -0.25376412 0.71462613 0.6062248 0.07979293 0.20233126 0.43887314 0.23791033 0.16898023 -0.08800565 -0.54029745 0.25027505 -0.344988 -0.11937337 0.0012765018 -0.0891366 -0.17353848 0.100537665 -0.27114066 0.4060753 -0.14716363 0.2602707 0.15357615 -0.481751 -0.08890577 -0.43669552 0.19351473 0.4503145 -0.086963505 0.20185094 -0.5619269 0.26706898 -0.03244497 0.33580202 0.5650475 0.39777634 0.13053116 0.19142933 0.085722946 -0.24907112 0.075624354 0.017807389 0.30173147 0.09311357 -0.40134782 -0.1563292 -0.067782715 0.005155877 0.27403998 0.100699544
12238 -0.07817103 0.37396798 -0.044412337 -0.23173311 -0.40008742 0.2323707 0.34049115 0.3001766 -0.29024628 -0.2743952 0.043528892 -0.115465775 -0.45848277 0.3934332 0.21870886 -0.3343425 0.020599162 0.16790764 0.17636749 0.15822904 -0.27512258 -0.28205523 -0.12983808 0.8988664 -0.09579316 -0.39830846 0.4609293 0.18240799 0.2569214 0.49824554 0.34805298 0.12487692 0.09327745 -0.22848168 -0.064383954 -0.03343497 0.011256294 -0.30266148 0.17098126 -0.028320752 -0.22166634 0.14489482 0.03289254 0.059056874 -0.11563673 -0.08851211 0.15366313 -0.75102127 -0.44689715 0.11054271 -0.19416036 -0.18739016 -0.17720215 0.53000444 0.44054502 0.21600117 -0.47902215 0.40806252 -0.2268323 -0.26719847 -0.59647703 -0.14193478 -0.29056108 0.22529665
25794 -0.25496155 0.060119778 -0.41982403 0.040872227 0.15214397 0.54734606 -0.14653668 0.26877877 -0.34171686 -0.33538347 -0.31014407 0.20748219 -0.06423638 -0.004545442 -0.47488052 0.22949772 -0.2004035 -0.60114145 -0.14426124 0.14236414 -0.35305476 0.26710287 -0.34958324 0.276478 -0.016250184 0.27301216 0.20779686 0.48353142 -0.17496924 0.2249802 -0.009344014 -0.084828004 -0.2290169 0.3194594 0.38844702 0.3657122 -0.5085496 -0.11677541 0.2665848 0.2060781 -0.071124665 -0.44509605 0.16233154 -0.18094447 -0.025348973 -0.032681886 -0.24664973 -0.36621886 0.049123395 -0.042933706 -0.3199795 -0.29939812 -0.35817447 0.0032759686 -0.54106843 -0.26100895 0.14671554 0.2425062 -0.13115019 -0.088848904 0.36305177 0.087008 -0.36173078 0.17112108
1108258 -0.02295143 -0.43626207 0.0120664975 0.10208632 -0.09981282 0.19733863 0.09998172 -0.28204018 -0.10774432 0.16730952 0.20785816 0.070745826 -0.2484139 -0.11276201 0.21945809 0.037504945 0.043796748 0.16435994 0.5571274 -0.37616238 -0.18498614 0.01658717 0.27943757 -0.41325468 0.280456 -0.32914433 0.5715771 0.37613615 -0.14049543 0.45769337 0.30647203 -0.36109212 -0.18512595 -0.09693735 0.065092854 -0.07432507 0.081567414 -0.4814653 0.16705936 0.15684028 0.15378268 -0.21889684 -0.012832915 -0.37726834 -0.19878171 0.3423389 0.03948904 0.021194257 0.10561444 -0.29960072 -0.39995423 -0.3426674 -0.18922535 0.511883 0.053555038 0.10574089 0.22441792 0.048776302 0.012651673 -0.39077806 -0.4958089 -0.20379959 -0.25039294 -0.17693774
1131198 -0.27827555 -0.17651922 0.17550167 0.45252228 -0.16273436 0.24520661 0.33820167 -0.44594637 0.2984851 0.02367444 -0.17028064 0.015458883 0.5017559 -0.020900866 0.15017833 -0.33804274 0.60375273 0.40616757 0.12344625 0.4195862 0.12549847 0.248241 -0.048525367 -0.19914223 -0.4104142 0.096127205 -0.43124974 0.09761912 0.3483135 -0.08144592 0.009716302 -0.12565969 -0.19538149 -0.16029498 -0.4755999 0.06961457 0.13597313 -0.32268697 0.03531038 -0.48971513 -0.09794818 0.3140886 -0.29901478 0.4433087 -0.10809892 -0.15547788 0.06392741 -0.0283426 0.39337695 0.20154065 0.12810834 -0.077549 0.12477736 -0.10498168 0.12221631 0.014463218 0.3446216 0.07945861 -0.25915977 -0.20650071 0.093540885 -0.12567747 0.1446616 -0.084875174
1131195 0.19753775 0.030435469 -0.51346 -0.0004440967 0.068858095 -0.09392323 0.036246963 -0.038342185 0.055855077 -0.04565854 0.10012897 0.069975905 -0.39458898 0.0921211 -0.37647298 0.20914091 -0.17258215 0.042350195 0.1370022 0.13293141 0.042964276 -0.302949 -0.017153274 -0.23979564 0.15043537 0.28126803 0.23802234 -0.18328603 0.29804876 0.18273968 0.030741246 -0.17389137 0.101392664 -0.5312831 0.70743245 -0.1304767 0.049657073 -0.04758568 0.19653401 -0.18851419 0.02135834 -0.060820196 0.16707304 -0.49150828 -0.6245142 -0.16816288 0.20746109 -0.48276827 -0.5505083 0.079875134 0.111632675 -0.114780255 0.062474784 -0.10049683 -0.23063779 0.20839483 -0.080597326 -0.17233105 0.08857355 0.006430347 -0.25174192 -0.3478735 0.061378554 0.01591359
634975 -0.30917865 0.056431253 0.082041025 0.26705843 0.018267456 0.0972553 0.4694987 -0.35776955 0.14450365 -0.1103279 -0.23927015 0.037511047 0.4896045 0.2113852 0.06462941 -0.28067008 0.5053137 0.49370348 0.035191506 0.11825299 0.29306695 0.21037598 0.13365735 -0.002085172 -0.46750674 0.1678298 -0.28304443 -0.11842735 -0.07638698 -0.05699636 -0.16425867 -0.027681762 -0.027592042 0.15598206 -0.5216152 0.26944563 -0.00067797006 -0.4564827 -0.21307677 -0.57305276 0.0069441246 0.5510612 -0.100380115 0.17515852 -0.274198 0.1129637 0.16080883 0.31813717 0.36944285 0.09935451 0.034121305 0.053599343 0.112550095 -0.27407563 0.30749002 -0.15178742 0.30524698 0.1660021 -0.5441367 -0.062389746 0.109655306 -0.11319234 0.24261771 0.074636385
399339 0.37225434 0.1379087 -0.6772203 -0.29371682 -0.054610014 0.13957156 -0.14392494 0.24242148 0.3817401 0.08995887 0.15960458 -0.7017192 -0.23932408 0.016843298 -0.03510571 -0.32026482 0.056445595 -0.1053856 0.0050896 0.12934722 0.45725328 -0.25769672 -0.083138674 0.027099304 -0.018253537 0.09795152 -0.14255527 0.06643144 -0.26762462 0.024003515 -0.28019482 0.10158434 -0.051740076 0.19367394 -0.14565827 -0.017900892 0.2693013 0.5450235 -0.017027406 0.43095633 -0.13146248 0.28991652 -0.73290074 0.327428 0.08479157 -0.10409715 0.16094482 0.068489864 0.02300619 -0.1265274 0.18649346 0.3090052 0.015917435 0.07885467 -0.18171076 -0.056273304 -0.33859462 -0.28981176 0.3075049 0.26888528 0.41392154 0.36262298 0.29899782 -0.083228
1126315 0.086060554 -0.48156115 0.20795095 -0.090364836 0.29709518 -0.13438898 -0.3058377 -0.28631192 0.36278263 0.04130494 0.21906261 0.46031183 -0.30120024 -0.27960002 0.11742421 0.16567841 -0.25360414 0.32147807 -0.018072994 -0.05010595 0.2656335 -0.15004776 0.18190879 -0.08218986 0.27793327 -0.38862595 0.30848593 0.2928949 -0.0014044297 -0.08744575 0.41247976 -0.1897214 -0.042032104 -0.035688274 0.212855 -0.0018101387 -0.25101247 -0.06094768 0.27756122 -0.1678092 0.54189205 0.07075643 0.37048087 0.04367937 -0.106232695 0.06337692 -0.007968814 -0.3576818 -0.10039956 0.24373928 -0.15597728 -0.19919686 0.12092322 0.2429567 0.16901292 0.11473226 -0.026521714 0.32002297 0.08679698 0.2464705 0.048341785 0.26364943 0.26349354 -0.13669312
1112665 -0.13785377 0.038211934 -0.2569383 0.17629205 -0.36858705 0.26087523 -0.024193712 0.08113663 -0.014129689 0.40305343 0.29161054 -0.10082405 0.06319422 -0.10700662 0.10757839 -0.06732505 0.020993693 0.1428466 -0.21251087 0.100716755 -0.22971714 -0.08408381 -0.027775312 0.07567028 -0.058382843 0.063529566 0.062466055 0.40235665 0.39258888 -0.13374649 -0.37310728 0.21844459 0.19284956 -0.26281267 0.007239121 0.4210662 -0.0842387 -0.47595423 0.14636315 0.42896223 -0.28680894 -0.38259655 -0.31303674 0.0042438717 0.5155193 0.19097511 -0.19441487 0.14367895 0.08367499 -0.033993866 0.080014095 -0.17960458 0.19197543 -0.033879157 0.23515621 0.5055673 0.230073 -0.14413176 0.46971732 0.5594321 -0.26148656 0.045680776 -0.0028663587 -0.22085398
1104300 0.06853051 0.06539635 -0.0011226718 -0.01988987 0.34647384 0.15356924 -0.04963795 0.18683778 0.22378568 0.09042243 0.14693303 0.37720504 -0.29573295 -0.52105445 -0.035273224 0.14683764 -0.29887328 -0.124118626 -0.15040691 0.045792706 -0.15524001 -0.12735225 0.23515429 0.25874665 0.07421294 0.27411625 -0.08226509 -0.20877266 -0.08537194 0.22760658 0.19425145 0.32222474 0.299758 -0.21868712 -0.1617029 -0.16011515 0.038341068 -0.009400345 0.034943715 -0.079966694 0.3010008 -0.15393995 0.4467708 -0.21989417 0.6495908 0.43533733 -0.23481569 0.27368712 -0.19284031 -0.5132752 0.22393191 0.12582658 -0.259259 -0.0702749 -0.0026498218 0.085805036 0.37073722 0.17694443 0.057057723 -0.16544585 0.1968852 -0.310843 -0.1427525 0.050153587
20942 0.056906655 -0.12818424 -0.22340092 0.15929802 -0.4126999 -0.14534944 -0.2833982 0.32447952 0.23594709 0.12225422 0.053447805 -0.25696716 -0.15883912 -0.16279072 0.005023096 -0.10239688 0.12902582 -0.02565731 -0.46234643 0.12689544 -0.042565998 -0.20142044 0.059975907 0.12931967 0.009946581 0.103711344 0.1619006 0.11498481 -0.15075812 -0.08873108 -0.4148151 0.076557845 0.22483854 -0.03210665 -0.24104796 0.49451417 -0.0742794 -0.1331898 0.032518018 0.5839802 -0.21745753 -0.12753606 -0.4778762 0.090929575 0.3926729 -0.28334472 0.029558605 -0.0096946405 0.36131254 -0.14985524 0.22819507 0.13518941 -0.153634 -0.11865559 0.2658608 0.45759404 -0.14382736 -0.17311077 0.58393025 0.45908487 0.040124264 0.40297756 0.05229144 -0.15424754
17477 -0.2279127 0.08803505 0.2216025 -0.097778626 -0.30102435 -0.014702171 -0.40703064 0.080277726 0.14525674 0.6496057 0.44648936 -0.10458407 0.11539291 -0.16476129 0.14963841 -0.5196883 0.25878185 0.29240215 0.064018585 -0.22628291 0.2372382 -0.19045217 -0.03168479 0.20965141 -0.26896355 -0.033953585 0.18101321 -0.2579263 -0.026916046 0.045596197 -0.07357044 -0.014971197 0.36653507 0.15992539 -0.37673408 -0.188119 -0.19138077 -0.22627617 -0.28188848 -0.00021990993 0.076016456 0.33267018 -0.4305761 0.5935879 -0.32286772 -0.15688933 -0.2669123 -0.24625647 0.0815056 -0.042045366 0.31034914 0.09321863 -0.39598155 -0.20155321 -0.11464572 0.2825875 0.47176522 0.11896678 0.014586913 0.25938404 0.283898 0.61193603 -0.031817544 -0.16580701
400455 0.13590924 -0.5129645 0.21128795 -0.18505941 -0.3966343 0.023174588 -0.030674547 0.14105381 0.06422186 -0.033459242 0.5843229 0.18797079 0.14520656 -0.2812426 -0.42188242 0.36512315 0.071765095 0.39006862 0.12288157 -0.03337308 -0.03102729 0.33536777 0.023778144 -0.26441163 0.53132045 0.20336956 -0.19314574 -0.09573403 -0.39662352 0.3033803 -0.006101506 -0.11351065 0.31703827 -0.067031585 -0.122844614 -0.21753442 0.11022888 -0.15265615 -0.1602071 -0.39779592 0.18863344 -0.049702194 0.27845323 -0.21217291 -0.0794779 0.04120224 -0.08345555 0.0063070897 -0.46203598 -0.06479154 0.23211113 -0.007724307 -0.1949357 -0.2949941 -0.29624188 -0.16849406 0.035035163 0.05129276 0.10278465 -0.06058935 -0.08364243 -0.49285674 -0.027762856 -0.31047264
1135746 -0.050157607 0.59981406 -0.32360354 -0.4265409 -0.37926602 -0.33146533 0.27509066 0.33986306 -0.12450324 -0.34353116 -0.056229193 -0.029087704 -0.085407175 -0.054513533 -0.040733784 0.0487702 0.12537959 0.06798579 0.08481751 -0.22750558 -0.18505524 -0.11027525 -0.3234991 0.35273585 0.16398942 -0.6024389 -0.15090516 -0.11225369 -0.108892314 0.077638276 0.09688624 -0.025561966 0.10151385 -0.2600715 -0.29041013 -0.09416837 0.31809923 -0.3439426 0.45357952 -0.16327605 -0.22832483 -0.56136346 0.4078448 0.039992016 -0.17746992 -0.18886402 0.66311467 -0.18851402 -0.69917226 -0.13278985 -0.26064909 -0.2592495 -0.09374974 0.3964754 0.5797632 0.083473064 -0.056463066 0.06633955 -0.05081908 -0.11962719 -0.30120766 0.011784249 -0.37181485 0.33307746
18532 0.038362086 -0.28121078 -0.2620808 -0.12669784 -0.13447683 -0.3465416 -0.09678282 0.28519493 -0.2874191 -0.6064867 -0.0055698655 0.24071544 0.13165674 0.23288226 0.15999877 -0.06928366 0.046196725 0.363164 0.1845227 -0.1617426 0.23455805 -0.1937 -0.0120414635 -0.28559688 0.12989241 -0.26317358 0.4242402 0.13655397 0.0052752197 0.5372057 -0.047099046 0.13531189 0.38122457 -0.07056445 0.4887541 -0.104756266 -0.17301062 0.122308314 -0.15915427 -0.024406862 -0.22549702 -0.02055411 -0.05397845 -0.42239606 0.07264873 -0.1681412 -0.007051809 -0.21141031 -0.16928971 0.15280558 -0.5375311 0.37572014 0.07745034 0.085458376 -0.014415567 -0.03969831 0.04017922 0.010545602 0.017904852 0.20235486 -0.4941711 0.23756862 -0.20282741 -0.13180926
6318 -0.7453745 0.1079189 -0.2544024 0.5244344 0.11383528 -0.2711022 -0.1181039 0.5777821 0.031581387 -0.43482965 -0.33487877 0.68469626 -0.19314338 0.6075796 -0.2112083 -0.059144072 -0.005064323 -0.30452675 -0.20494927 -0.05667357 -0.27009127 0.017498787 -0.11645343 0.0041388157 0.33578703 0.48973358 0.38176402 -0.12929866 -0.16322224 0.39157304 -0.017732304 0.22790897 -0.5804343 -0.13717632 0.6273165 -0.5466578 -0.346827 -0.39686927 0.077772126 0.14377177 0.5712685 -0.7144321 0.48705393 0.4751734 0.15650478 0.056951515 -0.0474545 -0.41822076 -0.27569857 -0.47554386 -0.5392712 0.07395811 -0.028700324 0.4638346 -0.27619776 0.4304539 0.3364082 0.24985875 0.18640612 0.36621198 0.6548557 -0.13430557 -0.11558959 -0.15319718
1111052 0.40117136 -0.095448285 -0.5467844 -0.324581 -0.043229543 0.20359373 -0.08149665 0.1704128 0.07644947 0.29186615 -0.032353774 -0.64619124 -0.26698396 0.030723171 0.014854842 -0.088669784 0.0052482616 0.16297017 0.055882428 -0.10143718 0.23594749 -0.29418877 -0.15458167 -0.005361086 -0.08752882 0.16930701 -0.23967421 -0.35754335 -0.120398715 0.005763022 -0.14314409 0.21323131 -0.04495492 -0.22961657 -0.1583758 0.13116683 0.056684602 0.3668714 0.33796352 0.29909924 0.031589303 -0.019491464 -0.42552796 0.17061983 -0.3263847 0.011449793 0.26368988 -0.053069558 0.38316393 -0.07363486 -0.1268222 0.13353872 0.01427207 0.21509545 0.07514672 0.22816804 -0.44313627 -0.18995231 0.48299322 0.13414827 0.38087246 0.48248714 0.23735774 -0.13672812
1152379 0.16609295 0.020493438 -0.11318347 -0.31188267 0.011038968 0.0030134446 -0.12902308 0.04367808 -0.08446662 0.057579957 -0.10929192 -0.004059294 0.03986923 -0.06342404 -0.029075844 -0.11354758 -0.14964941 0.2410948 0.21886064 -0.17865157 0.2012871 -0.07494394 -0.21326643 0.021723017 -0.3041119 0.24049376 -0.12906653 -0.052713342 0.47908914 -0.19883975 0.05498574 0.23127854 0.02889953 0.124756135 -0.049493838 0.027881589 0.11799921 -0.31823233 0.15852244 0.011955215 0.13699293 -0.11904015 -0.2282521 0.022488043 0.061708264 -0.058728214 0.23113686 0.13201822 -0.34155965 -0.010222394 -0.40142983 -0.24225217 0.11178538 0.2491127 -0.18789993 0.025985166 0.10294395 -0.07367759 0.0758932 0.29901317 -0.24856706 0.3369071 -0.1871145 -0.017985148
90888 0.08139172 0.03995536 0.077034146 -0.10705144 -0.40707752 -0.32319337 -0.43856078 -0.08798543 -0.013626053 -0.22711481 -0.24834734 -0.29150057 0.13113531 0.25230858 -0.1260829 0.3154355 -0.16781466 -0.540409 -0.003153504 -0.029263616 0.28561085 -0.10086933 -0.49241254 -0.16456918 -0.3909945 -0.29944062 -0.30048415 -0.02721135 0.28098673 -0.33703905 -0.22146416 0.13874778 -0.15352255 0.031140545 0.67866933 -0.12402744 0.1477432 0.742707 0.010992413 -0.6371286 -0.66532546 -0.079314955 -0.6828638 -0.2668945 0.57123125 -0.72200227 0.24663335 -0.22796907 0.14780687 -0.19043119 0.28030542 0.29536906 0.043024622 -0.31518978 0.56981647 -0.16751932 -0.28179136 -0.11062675 0.19803797 0.13906646 0.034215156 -0.14167124 -0.16647495 0.30322012
594025 0.25703183 -0.17244989 -0.37650612 -0.29118872 -0.0539184 0.097741775 0.07008838 0.086107634 0.07483133 0.33463725 -0.040959798 -0.5393133 -0.052809514 0.09764208 -0.05153113 -0.20287926 0.06850807 0.21779725 0.08176911 -0.045721207 0.26026696 -0.13311265 -0.21835762 -0.04540188 -0.17399924 0.21017854 -0.25491536 -0.33506393 0.02493561 -0.17480461 -0.14603406 0.12293065 -0.031734396 -0.08833106 -0.23641028 0.2528853 0.029684413 0.18362184 0.3134884 0.025240691 -0.08837428 0.07636978 -0.45117027 0.16573046 -0.46135667 0.08623886 0.09328377 -0.042461827 0.3177528 0.04797345 0.09539767 0.18493383 -0.037832756 0.097330555 -0.08915567 0.2384198 -0.36858413 0.012377099 0.23797742 0.10128715 0.42026347 0.38111305 0.27323654 -0.19379218
57922 0.34764534 -0.17411967 0.20637216 -0.305136 -0.42035136 -0.38527638 -0.14264737 0.49868006 0.030320404 0.15165964 -0.052405644 0.15395382 0.35092327 -0.63292795 0.16701294 0.1231075 0.023356115 -0.2830441 0.05420699 -0.27384484 -0.28835624 0.109013535 0.40463307 -0.17650586 0.6301214 0.2551109 -0.060641423 0.49800217 -0.0834878 -0.116546445 -0.15680224 0.17272998 -0.08930535 0.3154575 -0.14540987 0.027740832 0.31790125 0.20070411 0.41189617 0.016695982 -0.019231249 0.004667428 0.13319066 0.29116812 -0.21058181 -0.16011982 0.79158956 0.35313538 -0.34692895 0.14195055 0.020259345 0.18817683 0.08503306 -0.47515178 -0.07258352 -0.03439028 0.32696915 0.21396755 0.2955831 -0.3516413 -0.36633584 -0.16236041 -0.0068475483 -0.118220896
27531 0.4210601 -0.78334886 0.02920252 0.2877454 0.5381552 0.35382646 0.3882025 0.14001352 0.29158193 0.21353114 -0.15431225 0.14857243 -0.5323537 -0.34267002 0.124209575 -0.429561 0.3576881 -0.1340098 0.018991379 0.2903127 0.11194358 0.30466145 -0.30350363 -0.52045804 -0.16260757 -0.68444663 -0.006080597 0.4822371 0.20025177 -0.13302551 -0.2023561 -0.05181854 0.48723125 0.050279196 0.2876616 -0.1439263 -0.08293489 -0.109048635 -0.252616 0.482413 -0.13284977 -0.6019334 -0.037923843 -0.048231762 0.81958777 0.15918162 -0.26655927 -0.25947714 -0.4730814 -0.07561313 0.5190997 -0.22961217 -0.4940892 -0.13697 0.06379155 0.15751418 -0.21675314 0.14427568 0.5675132 0.22014861 -0.021278761 -0.07480533 -0.16450103 0.101953045
1154103 -0.14322105 -0.30259988 0.10339473 -0.017700076 -0.2308223 -0.36551785 0.4256849 0.13818175 0.3214888 -0.018382015 -0.21085276 0.16834499 0.64343244 0.16244838 -0.37712952 -0.17916799 -0.27262247 0.083984524 -0.12513974 -0.31197175 -0.538843 -0.5402289 0.29441243 0.30684412 0.62601244 0.14991598 0.44889084 -0.19824451 0.15756543 0.15413985 0.23199491 0.32964367 0.57588226 -0.008065931 -0.1331063 0.31299305 0.0020481038 0.07026945 -0.500978 0.072762296 0.18430981 0.09891734 -0.09900352 0.038851038 -0.11008327 0.2688917 -0.2622206 -0.05971814 0.08955324 -0.343983 -0.061179712 -0.054924082 -0.1484521 -0.21562205 0.29643497 -0.21510728 0.34481135 0.038216572 0.06078031 0.06470448 0.31118202 0.6013276 -0.43354556 0.16840062
1128198 -0.45635808 -0.31518304 0.17219739 0.31541607 -0.12760451 0.30060747 0.38235348 -0.4481963 0.16941263 -0.36171523 -0.035342112 0.22653568 0.13826488 0.19372022 0.32740456 -0.06955094 0.38801023 0.08712608 0.20787372 0.059844892 0.022840299 0.2932436 -0.26022854 0.06922328 -0.34491262 0.18106544 -0.44630492 -0.03490292 0.2144127 -0.12124276 -0.08703811 -0.26118737 0.100340195 -0.1018235 -0.50567883 -0.022032185 0.08076791 -0.011400595 -0.069512084 -0.2713775 0.010409583 0.30482948 0.10032883 0.42083967 -0.042551223 0.027722985 0.12014025 -0.13875003 0.32662743 -0.018930124 -0.080701746 -0.10463648 0.13749053 -0.16729866 -0.032074865 0.18682683 0.03632353 -0.30124253 -0.5450531 -0.2395045 0.25276455 -0.33499852 0.057386905 0.12961759
19621 0.97112185 -0.47978154 -0.37605888 0.5357026 0.5367479 0.027401919 0.04236415 0.62455505 0.06144926 -0.031505983 -0.42277429 -0.19367655 0.60250485 -0.2751644 0.75000304 -0.93660116 0.13828194 -0.2145293 0.31731743 0.38200226 0.6257409 0.10923205 -0.10716638 -0.03888262 0.2912927 -0.21145873 -0.58228856 0.44347882 -0.91983074 -0.04161581 0.40055496 -0.41083822 -0.86699843 -0.050969537 0.44403827 0.076387286 -0.06338839 0.21881756 -0.45726892 0.27036682 0.17717528 0.23823878 -0.28007957 0.7945455 0.9707525 -0.21633825 -0.42555928 -0.14506741 -0.91394705 0.066149905 0.92401 -1.1849923 -0.29173052 0.31851852 0.12376846 -1.333644 -0.3341053 -0.4168345 0.11706196 0.49735972 -0.27122357 -0.5462859 0.020659499 -0.44237417
54129 -0.85832214 0.13354798 0.4106926 -0.25515658 -0.19410928 -0.19931033 -0.33140358 -0.20132361 0.3448376 0.40084395 1.0876307 0.062555306 0.7883387 -0.009178591 0.23367707 -0.64270735 0.4456412 0.3525221 0.0019255568 -0.1611175 0.2646589 0.0076558967 -0.2948078 -0.5510391 -0.51279825 0.11655844 0.07176196 -0.19373013 -0.6369569 -0.03534042 -0.17100787 -0.15250602 0.4443722 -0.14779978 -0.41410244 -0.11518022 -0.5551019 -0.38063672 -0.086579196 -0.50939643 0.14207882 0.23490533 -0.51927423 0.54568696 -0.376789 -0.3402493 -0.47367963 -0.28028792 0.24484448 -0.12984319 0.35291645 -0.012755525 -0.050218236 -0.46168488 0.0632804 -0.19504917 0.7991578 0.51604396 -0.31372067 0.46973622 0.3242205 0.17084134 -0.009918898 -0.15798332
509315 -0.14980912 -0.18844786 0.13115738 -0.17395021 -0.18862316 0.12738779 0.18570489 -0.37966755 0.13646273 -0.2425704 -0.1861993 -0.05608747 0.31476134 -0.08573111 0.170641 -0.3679411 0.4290766 0.6771852 0.28075725 0.07500276 0.17468596 0.15044309 0.14802071 -0.008414551 -0.43056947 0.55674756 -0.3272634 -0.02348186 0.5431663 -0.15881582 0.100929976 -0.18500948 -0.28208444 -0.10029613 -0.63004583 0.093615144 0.35779956 -0.60323787 -0.37200788 -0.3654414 0.23720248 0.16382918 -0.5271415 0.24532759 -0.42915192 -0.2427009 0.22942369 0.03423011 0.058906104 0.34033996 0.07423911 -0.26087496 0.30652812 -0.10679454 0.055957466 0.1853493 0.30499575 0.033511046 -0.21112521 -0.05131146 -0.010381649 0.09112612 0.05278648 0.26975167
446271 -0.15750438 0.35630944 -0.3492428 -0.26220608 -0.12516196 -0.025312314 -0.34477523 -0.5456661 -0.13166712 -0.28509817 -0.37386128 0.63316584 -0.44960007 -0.66867137 0.1095678 -0.12101866 -0.2378143 -0.37095177 -0.52183384 -0.5941729 0.14166202 0.5386916 0.4584584 -0.5964135 0.16191652 0.86376524 -0.27998742 -0.1358581 0.11635594 -0.46278948 0.10058061 0.40672442 -0.016282715 0.15467755 -0.02246037 -0.09931465 -0.63313967 0.2388303 -0.21436764 -0.45379925 0.46280771 0.23188016 -0.10450391 -0.35011613 0.32672822 0.122471526 0.06769147 0.124502294 -0.51407975 -0.1356992 0.23406434 -0.28261432 0.7196218 0.3057141 0.38288558 -0.1020542 -0.090680584 0.59685904 0.099790715 0.10905589 0.0382902 -0.10234577 -0.6947287 0.2257638
1117049 0.17664997 0.15201484 0.05833679 -0.12511544 -0.12735279 -0.17729713 0.04976001 0.12767678 0.02357607 -0.21177763 0.1975834 0.23294878 0.0677339 0.07417912 0.0010586523 0.30902722 -0.124465965 -0.1246889 0.06626271 -0.073575266 -0.2562745 0.09175123 -0.25830323 -0.3053873 0.35831124 -0.30197936 0.3203096 0.23247363 0.13363756 0.25513688 0.13010626 0.14315782 0.16873838 -0.2731384 0.4607466 -0.19553393 0.09427765 -0.18570206 -0.01945782 -0.23102967 0.10952485 -0.30061656 0.37992144 -0.28789026 -0.017246645 -0.09239189 -0.09745749 -0.22719531 -0.5143859 0.08145797 -0.27645493 -0.25514057 -0.14018658 0.22874986 -0.06330726 0.15306532 0.08654428 0.1521452 0.18127404 -0.11874206 -0.42708185 -0.08074772 -0.16957702 -0.073279545
595063 0.023241617 -0.026350195 0.19055884 0.13068795 -0.25457925 0.30134988 0.16897808 -0.036743112 0.0890668 0.11034175 -0.34448367 -0.09057503 0.33124533 -0.1426011 0.19836314 0.025210798 0.5380802 0.32188132 0.275004 0.35840335 -0.07339518 -0.062318776 0.057848323 0.028201757 -0.15106234 0.14469855 -0.3065308 -0.024289357 -0.056860194 -0.22266625 -0.1921315 -0.01167981 -0.2605763 0.25041732 -0.45024607 0.29815438 0.016868591 -0.24132964 -0.5364437 -0.52385235 0.19078124 0.57354105 -0.045402657 0.08621261 -0.6018737 0.0033836218 -0.18290642 0.20657527 0.48178184 0.0110915005 0.25705364 0.0006079486 0.17354114 -0.01457128 0.039114002 0.01607145 0.14331317 -0.061626226 -0.5959719 0.14854532 0.33156982 0.055549372 0.32641742 -0.12370878
4329 0.34807143 0.34927055 -0.1888836 -0.2676804 0.32499176 0.28862748 0.055651188 0.15205462 -0.14578679 0.011061509 -0.16840671 0.18304306 -0.014405823 -0.378395 -0.2817858 0.51763666 -0.47722575 -0.70920664 0.12690613 0.036420602 0.24129415 -0.74066585 0.28178668 0.6601527 -0.39726585 0.75937086 0.017177453 -0.08801244 -0.47310972 0.24129935 0.3414887 -0.58208984 0.16849771 -0.7944792 -0.6391834 0.24615444 -0.03132691 0.41262093 -0.5337376 0.24985124 0.6256651 -0.60215884 0.6099181 -0.11288065 0.24298233 0.1093868 -0.24240561 0.2519161 0.82119244 -0.2361872 0.37709966 0.5145984 -0.31509492 -0.35990644 -0.20184948 -0.11062526 0.16891178 0.26362774 -0.00302053 0.1300798 -0.07395776 0.21864904 -0.034282804 -0.3248685
67245 0.16622639 0.34952107 0.41385025 -0.09848966 0.105372764 -0.020437106 0.28204563 -0.023760315 0.44186908 -0.06369418 -0.45597544 -0.00017722187 -0.041532893 0.15458858 0.32467553 0.053956293 -0.098721944 -0.43141997 0.39017853 0.4030916 0.0166338 -0.048214942 0.16561419 0.25113434 -0.055846374 -0.22574912 -0.53898907 -0.005500819 0.29725802 -0.22684847 -0.029721588 0.4128922 -0.2604473 -0.0024801604 0.13223828 -0.3268007 0.04539997 0.09150771 -0.2605238 -0.21894251 -0.012212933 -0.28885564 -0.5976404 -0.253073 0.3068434 -0.025984984 -0.43815348 0.362516 -0.16916208 0.09951146 -0.0051206136 0.4612795 -0.17738633 -0.38485166 0.2503214 -0.43008494 0.101456635 0.29899064 -0.16963218 -0.0385997 -0.045902543 0.34453902 -0.017406503 0.2576079
59045 0.18342602 -0.13269489 -0.03890483 -0.4148478 -0.08894525 0.34024784 0.04456765 0.012837635 0.1131995 -0.14520402 -0.45225844 0.02015233 0.21661244 -0.030569473 -0.35499907 0.1689492 0.54979146 -0.085703 -0.017149556 0.6130872 -0.14254443 0.087472714 -0.42453113 -0.06034362 0.5937201 -0.029318526 0.0007253072 -0.013893701 -0.30247056 0.43621624 0.22180572 -0.1453553 0.14525203 0.711025 -0.0019364156 0.38702434 -0.17924353 0.38255823 -0.12236452 0.22677773 -0.31248146 -0.05835131 0.20766874 0.22689122 0.017234292 0.14335857 -0.14596093 -0.6395067 -0.5816859 0.43628392 -0.15534602 -0.028897101 -0.050288662 0.0009684401 0.18479042 0.031254794 -0.07711563 0.34080705 -0.29064474 0.027156431 -0.15520369 0.03691331 -0.027117966 -0.5638275
1136791 -0.33161923 -0.010764319 0.30065832 -0.009361138 -0.21128872 0.019175356 0.14008333 -0.24219014 0.26792604 0.27485856 0.31384462 0.083254926 0.5988115 -0.033348065 0.048256483 -0.4479568 0.26905262 0.37721458 0.1547962 0.1615981 0.08286137 0.26679915 0.021410001 -0.12173747 -0.44738021 0.23857862 -0.2906145 -0.08710844 -0.13959034 -0.021923902 -0.19695525 -0.017631963 0.084530264 0.15906627 -0.30321687 0.14056793 0.016266521 -0.42828122 -0.35465562 -0.4222082 0.07074227 0.34985667 -0.2533683 0.19926743 -0.4558454 0.101840645 -0.2402186 0.06576983 0.23598242 0.1477633 0.36114484 0.10640496 0.14971347 -0.23181483 0.20037498 0.005537492 0.3209397 0.21837035 -0.4684646 0.008280825 0.4331888 0.11048811 0.15304203 -0.12697499
218410 0.40716246 -0.0018020172 -0.63693607 -0.19341873 -0.21942855 0.10040281 -0.33465797 0.3899853 0.12518522 0.38107297 -0.08104051 -0.76629835 -0.3613904 0.075003766 -0.10853841 -0.22027531 -0.10221276 0.18644777 -0.020314815 -0.027758796 0.31136358 -0.33111936 -0.1294921 0.2786148 0.053351756 0.10542682 -0.009640551 -0.3769392 -0.19894627 -0.049679514 -0.39910042 0.25287345 -0.08379316 0.116982654 -0.31691274 0.24953124 0.17482212 0.4999344 0.098850854 0.44182104 0.036039595 0.06324872 -0.5879458 0.16285825 -0.2871981 -0.1072411 0.28972307 -0.15011452 0.44540253 -0.16410913 0.07042992 0.26656997 -0.008856802 0.14433204 -0.03935347 0.3045878 -0.43708768 -0.248662 0.3514515 0.26715025 0.3563838 0.71230596 0.2916489 -0.13131723
25181 0.13771209 0.44058406 0.40528607 -0.29504496 -0.17150192 -0.355057 0.2516833 -0.37336275 0.4691435 -0.10640001 -0.073612615 0.049030546 -0.3761565 0.58235115 0.4438791 0.106508315 -0.09702309 -0.23893566 0.53373176 0.42516202 -0.025200117 0.16786435 -0.47284743 0.52689356 -0.25098488 -0.40212363 -0.098572515 -0.040262356 0.20329642 -0.25346264 -0.31148997 0.11698652 -0.046270605 -0.012015662 -0.045392737 -0.40099862 0.09240303 -0.11723652 -0.26619342 0.16818872 -0.20422976 -0.48807916 -0.8028715 -0.26434156 0.93464905 0.22290339 -0.38371575 0.33255905 -0.27817288 0.25948006 -0.28721842 0.15794528 -0.07533086 -0.25469938 0.35095844 -0.36376357 0.15411445 0.14963466 0.33080557 -0.07687675 -0.13990314 0.2790714 0.3950496 0.093273
820662 0.011444071 0.18302028 -0.06530302 -0.25621298 -0.4025397 -0.049277388 0.19468631 0.35110104 -0.30169186 -0.36102596 0.097611316 0.20036185 0.09806514 0.12033095 -0.016528796 -0.31837633 -0.108726054 -0.19700167 0.4844706 -0.21196401 -0.13007812 -0.5103235 0.07693949 -0.035945248 -0.019240117 -0.40547264 0.19900878 -0.27687463 0.14162695 0.08403759 -0.075541414 -0.036479846 -0.034768984 0.021309603 0.0817235 -0.12965766 0.07891713 -0.40456766 0.2840502 -0.027363999 -0.101518385 -0.7518882 0.5476418 0.008071886 -0.12918015 -0.13143398 0.47345507 0.1688417 -0.41424015 0.18704644 -0.27220356 -0.5199881 -0.1343317 0.117381774 -0.04014062 0.18926385 -0.1253526 0.18587254 0.19398966 -0.35048693 -0.21400043 -0.16490021 -0.29530936 0.45069605
192870 -0.015390856 0.33645472 0.3749811 -0.30960223 -0.4374623 0.03384009 0.21309057 0.1285974 0.41661137 -0.13429706 -0.03638196 0.38698637 -0.3914917 -0.10630451 -0.74621266 0.2561947 0.49139187 -0.02000701 0.15750842 0.3676652 -0.4406492 0.1316457 0.23337767 -0.261989 0.19417216 0.15441294 -0.119232655 0.5491889 -0.46367186 0.22953273 0.19979782 -0.08225762 0.2062224 0.57246786 0.13014962 -0.12298604 0.30209872 -0.013974486 0.23116373 0.03621963 0.34189552 -0.2579166 0.1609539 -0.31282035 0.26283592 -0.23835798 0.3815495 -0.28454182 0.011969823 -0.20911753 0.09133407 -0.21659032 -0.025815433 0.21892479 0.118036404 0.28015208 0.46361166 -0.590614 -0.047892187 -0.41336673 -0.030906534 -0.5569007 -0.09585032 0.102384895
593560 -0.22726236 0.15789916 0.2462014 -0.0777566 -0.22180083 0.043503277 0.21423474 -0.18927173 0.2829665 0.3047616 0.3245946 0.04847925 0.5272387 -0.120250046 0.03312094 -0.32180232 0.25003862 0.1832715 0.07564157 0.2728626 0.06060871 0.3216041 0.021522075 -0.2845664 -0.25935283 0.2489073 -0.25994268 0.061094083 -0.02637568 -0.023794575 -0.16807413 -0.007538568 0.10090389 0.08544067 -0.31194407 0.07869441 0.13997288 -0.45482022 -0.313168 -0.2920036 0.10292632 0.33223435 -0.17395714 0.04450226 -0.536011 0.06132488 -0.2693697 0.06162276 0.20088157 0.20292157 0.43127367 0.0010712082 0.25899333 -0.094907925 0.24073191 0.017722262 0.2951442 0.26414624 -0.45217636 0.02774907 0.45717895 0.07562894 0.16210932 -0.13905014
582139 0.56026775 -0.6525993 0.32045618 0.118776195 0.3020627 0.25540274 0.81658006 0.7166632 -0.20474717 -0.028482255 0.73287773 0.22029223 -0.14189652 0.29968312 0.29778433 0.16360539 0.09579602 0.17249264 0.02334401 -0.23889141 -0.06652652 0.23282805 0.28606543 0.07113656 0.13803491 0.015679898 0.022453947 0.07209058 -0.61179507 -0.28989866 0.03708674 -0.018738372 0.37796578 -0.37493408 0.115603976 -0.1251355 0.117439896 0.184298 0.11463591 -0.15718162 -0.20838931 -0.090412505 0.46119338 -0.067153476 0.3289642 -0.011310471 0.1829858 0.09572108 -0.80596936 -0.41969278 0.49506503 -0.14114119 -0.11769259 0.077041015 -0.7031772 0.30616856 0.07190656 -0.028125957 -0.0070525315 -0.019593062 0.49455637 0.45263776 -0.10466752 -0.14577402
1132073 0.012469597 -0.15771523 0.31062004 0.20578434 0.49024895 -0.018233394 -0.014465403 -0.025293268 -0.14736195 0.05723259 -0.024748478 0.40057176 -0.030814297 0.04406292 0.15925962 0.5241888 -0.24215452 0.12126096 0.08101847 -0.21366124 -0.43322957 -0.059738252 0.053142343 -0.31890336 0.16613978 -0.04727856 0.455329 0.02538682 -0.22319485 0.4539342 0.04941285 -0.13507655 0.40219072 -0.29622334 0.39186868 -0.2757444 -0.049013007 -0.2908986 0.11578611 0.014367933 0.060231406 -0.27839878 0.21811937 -0.4700868 -0.37508005 0.32822138 -0.082488455 -0.2223499 -0.35614043 0.0070565124 -0.46288574 -0.033625815 -0.060676377 0.30554634 0.10699444 -0.053624522 0.31303158 0.1783344 0.10602354 -0.06811102 -0.33645454 0.09376989 0.15842614 -0.17482421
118259 -0.37285528 0.6243779 -0.27722064 -0.23532517 -0.071051784 0.10213617 -0.40929773 0.29456568 -0.3035655 -0.391574 0.079978 -0.16374506 -0.24587382 -0.15168613 0.022665367 0.3167488 -0.09162465 -0.06003113 0.2922546 0.12076087 0.231806 -0.37037066 -0.19030993 -0.13095188 0.04143699 -0.13711551 0.39481577 -0.30197793 -0.30476692 -0.18197007 -0.08653395 0.1884078 -0.41325772 -0.39755255 -0.48281187 -0.00084673415 0.44828245 0.31138587 -0.12134461 -0.19452626 -0.17537758 -0.3073107 -0.19194618 0.28048208 -0.011988378 0.42392534 -0.39590043 0.26490223 0.4483762 -0.24225213 0.031947274 -0.16969877 -0.14816026 0.30646226 -0.2598145 0.25991118 -0.10933053 0.14165553 0.38109633 0.3502832 0.16128035 0.29156289 -0.022645062 0.11373047
647408 -0.103142254 0.09722682 0.1067931 0.10153637 -0.1315279 0.2457973 0.3360276 -0.044734843 -0.12722443 -0.05802524 0.04330215 -0.09460951 0.30309537 0.12641974 0.16175449 -0.29594356 0.38405642 0.61411047 0.15451966 0.14290775 0.13625349 0.23808078 0.18667272 0.20135698 -0.46824306 -0.024934543 0.09797056 -0.12153498 -0.00818646 -0.14338136 -0.17737035 0.045899175 -0.09175336 0.12178729 -0.32435346 0.2795689 0.18938115 -0.181938 -0.4053796 -0.47314292 0.07867705 0.45763105 -0.101038225 0.41651207 -0.34382454 0.1573304 0.11599816 0.33969536 0.3543789 0.24819914 0.11657911 0.10343442 -0.12832867 -0.16875543 0.19264187 0.20082766 0.21474893 0.07123957 -0.5159227 -0.33196154 -0.1353131 -0.19225034 0.1780051 0.019060872
1131565 -0.0034449233 -0.14986812 0.08691432 0.07767672 -0.27433613 0.06367268 0.3857648 0.03995702 -0.018089458 -0.028606998 0.008334942 0.28622916 0.36007482 -0.26476976 -0.118760124 -0.34408063 -0.040001143 0.5415806 0.45184144 0.30692118 -0.06571997 0.37627354 0.2684897 -0.053195555 -0.18458478 0.14212361 -0.2635044 -0.16660827 0.19456793 0.23929827 -0.04397759 -0.04836958 -0.038264923 0.36591724 -0.12524308 0.31113967 0.35318336 -0.41195345 -0.54766655 -0.49734145 0.22180904 0.32484332 0.1254115 -0.16657132 -0.5034817 0.3141252 -0.23931739 0.35747957 -0.06686772 0.27452332 0.20433599 -0.010927739 0.33641443 -0.11020117 0.14355446 0.25708902 0.07002699 0.17869066 -0.5942561 -0.3031874 0.22404851 -0.0133294845 0.38371107 -0.08614754
48066 0.086192384 -0.09006578 -0.08691115 -0.20552723 0.041760817 0.27810788 -0.2552905 0.16118197 -0.23722965 0.25082815 0.3059801 -0.05778188 -0.04512119 -0.07948909 -0.4057344 0.12937316 0.30405453 0.22180654 -0.12907241 -0.23437439 -0.073673695 0.3882838 0.093090154 -0.08146822 0.2074608 0.2746098 0.65169585 -0.16361575 0.36648217 -0.09869439 0.46835765 0.3059217 -0.2667442 -0.20766059 0.004140767 0.227164 0.146351 -0.33585754 0.026593203 0.21066509 0.005787892 -0.0959713 -0.12419436 0.27352017 0.06464961 -0.21695901 0.08937011 0.12305 -0.42552492 -0.20216487 -0.08729559 0.16564439 -0.094130605 -0.11268158 0.17506479 -0.04927012 0.11488504 -0.29741776 0.42852643 0.3038634 -0.65081114 0.41453323 -0.1070849 0.48718557
1130243 0.313852 -0.45527485 -0.134834 0.25321648 0.076619826 -0.09638036 -0.28392836 -0.00728368 0.0041389917 0.079858474 0.3422223 0.2704334 -0.22936535 -0.17426263 -0.17990242 0.062445637 -0.0090251705 0.34834313 0.1519444 -0.2854511 -0.103383675 0.18660992 -0.22335957 -0.14339721 0.31567302 0.068203576 0.54589754 0.13474229 -0.11923507 0.29288146 -0.013534343 -0.061716992 0.07666305 -0.37279078 0.25252354 0.0084986705 -0.086591326 -0.47448492 0.4256546 -0.1827013 0.14262919 -0.06095779 -0.13488719 -0.4223223 -0.49799055 -0.22314408 0.104308575 -0.08486744 -0.5176742 0.091021255 -0.3093198 -0.050888706 -0.33913907 0.4331501 -0.24124476 -0.048268992 0.020974651 0.3474628 -0.4053651 -0.13006729 -0.04279596 -0.23099798 0.009908623 -0.26777774
237376 0.20845562 0.030857315 -0.13286215 -0.320452 0.011422409 0.018633317 -0.119699605 0.07146196 -0.08177261 0.021624722 -0.11295973 -0.047130022 0.021016417 -0.04106228 -0.04111656 -0.118072934 -0.12649807 0.2193583 0.20864667 -0.15750563 0.21074864 -0.08539582 -0.21313907 0.063726686 -0.29755732 0.2468311 -0.1469861 -0.04941297 0.45570448 -0.17873754 0.040181715 0.23603146 0.022324825 0.10629749 -0.049603663 0.026302934 0.12093308 -0.30685434 0.13091972 0.009439815 0.11733151 -0.10593836 -0.2596199 0.0378735 0.061043184 -0.087059535 0.24056146 0.1160878 -0.3087504 -0.02091856 -0.38496563 -0.21961097 0.096043125 0.25336206 -0.1737615 -0.010332903 0.10404217 -0.08995357 0.06995176 0.30071944 -0.22621587 0.33475915 -0.1698124 -0.0030988508
1109873 0.098011434 -0.57395035 -0.12100357 0.30693042 -0.1287934 -0.4400429 -0.21112593 0.122537024 -0.40055063 0.02708079 -0.042258497 0.40005872 0.22377658 -0.07222825 0.119794704 0.31865323 0.020092139 -0.16396736 -0.050800093 0.039049305 0.27607468 0.10665723 -0.24724956 -0.45544523 0.056943446 -0.044214837 0.1398315 0.081427164 -0.6078051 0.1505327 0.08115006 -0.33080867 0.4537123 -0.0064694444 0.6444075 -0.1856594 0.26781127 -0.0763598 0.03370339 0.5511527 -0.09648405 0.08613408 0.029731806 -0.2956775 0.10616636 0.19111644 -0.26779813 0.23734835 -0.5740208 0.13797368 -0.6811312 -0.28789622 -0.19681475 0.46209845 -0.44853485 -0.48996228 -0.49216408 0.20389816 0.07062658 0.33173788 0.11793831 -0.2671978 0.40279317 -0.38301966
941 0.5674968 -0.03264545 0.031465463 -0.20443521 0.27412793 0.4436902 -0.29512635 -0.11857939 0.72534776 -0.05512475 0.32659033 0.66497016 0.1900575 0.33537585 -0.14469913 0.083620116 -0.35486728 0.5456496 0.056424297 -0.111413814 -0.09376461 0.6513005 0.28387913 -0.30555937 0.39080015 -0.10139339 0.10296881 -0.17378215 -0.021871181 -0.41304705 0.5420139 0.50916755 0.009240465 0.48758647 0.013488901 -0.29875925 -0.642542 -0.3930266 -0.23612215 -0.26014093 -0.37331766 -0.033586916 -0.09136934 0.12870957 -0.07132105 0.26502845 0.1672544 -0.21817961 0.38384855 0.07293128 0.20818707 0.18126597 0.19958434 -0.02492701 -0.43199098 -0.31408647 0.050827324 0.2996301 0.18483336 0.078653775 -0.15330993 0.37865955 -0.2667111 0.29949176
1131414 -0.07615047 0.07692998 0.1916565 -0.35993877 0.32215413 -0.09472054 -0.06076242 0.041621175 -0.39022067 0.35273394 0.27016956 0.04222109 -0.1308022 0.4284686 -0.23239791 -0.24903396 -0.054590475 -0.03821587 0.1864494 -0.082871586 -0.3032926 0.27663413 0.42265034 0.14893253 0.14525811 -0.39486146 0.0748909 -0.20785385 -0.20093486 0.3065606 0.37779367 -0.21536244 0.31562737 -0.08307308 0.24536103 -0.012146852 0.2697876 0.10341202 -0.23047438 -0.21959081 0.111197196 0.21068491 0.4431655 -0.08919232 -0.2861499 -0.17093562 0.28666332 0.15834744 -0.38397142 0.077167764 -0.003472394 -0.03557585 0.46449506 0.21216105 -0.2175774 -0.04902224 0.22382073 0.032357417 -0.10274093 0.16649987 0.006773045 -0.30917335 0.32157847 -0.15652724
39165 -0.5683624 0.8493366 -0.07575942 0.24477398 0.5769848 0.26543394 0.22381164 -0.13654809 -0.10943135 0.3470825 0.24366264 0.05557319 -0.06055758 0.5613842 -0.3479754 0.16039112 0.16021533 0.17329127 0.4385324 -0.6862748 0.10955585 0.06899672 0.17392416 -0.016744068 -0.090765975 0.61278623 0.38085786 0.030843323 0.42663288 0.045413725 -0.4440502 -0.37826377 -0.18431398 0.034981083 -0.048687622 0.053817447 -0.3329264 0.55697805 -0.33151913 -0.336903 0.15839398 -0.38407117 -0.1300266 -0.44470444 -0.30781904 -0.44066295 -0.45662406 0.04999465 -0.025591983 -0.3087265 0.16167484 -0.6244401 0.48998392 0.42652953 -0.035966318 -0.053767454 -0.3955924 -0.38010418 0.43466237 -0.22345354 -0.40870655 -0.04933551 -0.47101068 -0.024506202
1125092 -0.063289866 -0.13872342 0.19420801 -0.13386036 -0.19526717 0.48646057 -0.061743923 -0.3523039 0.047741674 0.32085183 0.49077156 -0.09884575 -0.21095796 -0.0358209 0.36972272 0.32741788 0.30299145 0.3398568 -0.15038384 0.6846422 0.04894227 0.5853805 0.3786432 -0.08307158 0.20693699 0.66194916 0.034940384 -0.02272868 -0.2500451 -0.24241571 -0.31408772 -0.14151624 -0.30475897 0.27521905 0.07523679 -0.13032538 0.23496534 -0.047083545 -0.05421678 -0.86720556 0.5068497 0.13186044 0.3252952 0.10997343 -0.2564738 0.29331255 -0.2353041 0.5225815 0.420628 -0.24563369 -0.13024051 -0.33809394 0.26280534 0.0005566838 0.4716 0.0814396 -0.19114316 -0.0801889 -0.22800227 0.13897237 -0.7035707 0.3205862 -0.19970751 -0.1727736
1128267 0.23823851 -0.06906965 -0.5420809 -0.041686364 -0.12495477 0.17278624 -0.1462844 0.27120614 0.08560068 0.019782243 0.004978471 -0.502983 -0.055015523 0.24983925 -0.03810317 -0.027947403 -0.20335986 0.0060684546 -0.051884513 -0.11161055 0.11128697 -0.18019949 0.062329035 0.057188556 0.34008065 0.2460702 0.04292822 -0.18504483 -0.052963022 0.25406575 -0.048060514 -0.027185198 -0.04751924 -0.18501642 -0.2987635 0.017037937 0.26294473 0.38787264 0.1554995 0.35298905 0.0013015126 -0.050414022 -0.34563085 -0.12165991 -0.41024032 -0.12544718 0.15993565 -0.13111934 0.2488714 0.14488891 0.052546427 0.3529413 -0.08115676 0.040532395 -0.2212523 0.22030155 -0.58040637 -0.30628628 0.13356693 0.2689668 0.24208006 0.32925725 0.43332514 -0.016227594
714256 -0.26111093 0.1597679 0.039439004 -0.018785587 1.2698841 -0.49992684 0.15443268 -0.073471434 0.14352284 0.16609661 -0.25926095 0.025855295 -0.19818598 0.019574113 -0.27707267 -0.15394251 -0.10216231 0.2944593 0.26648277 -0.34041938 -0.8025925 -0.07110673 0.37863353 -0.32291046 0.038709093 -0.07406068 0.034205087 -0.35751325 -0.02883461 -0.2201901 0.016947534 -0.7543366 0.108291015 0.7221781 -0.02597858 0.38324237 0.07526477 0.15546018 0.13463008 0.44090575 -0.057273127 0.109453514 0.049567517 -0.45740414 -0.19274887 0.03088556 0.108744696 0.08136318 0.03956402 0.4345487 0.042924423 -0.25509825 0.41640684 0.1860288 -0.007970827 0.246494 0.1827187 -0.24084328 0.5136039 -0.15060842 -0.7191855 0.39384606 0.32489341 0.24674375
55770 0.103326015 0.36924884 0.27147695 -0.21292451 -0.41464615 -0.24354163 -0.3178301 0.036828082 -0.0037229685 0.14843455 0.57585543 -0.21830633 -0.29922932 0.15351467 0.29003558 -0.03838766 -0.22144762 -0.3842187 -0.6258684 -0.37905532 -0.08385632 0.44866213 0.14541787 -0.44695577 0.0822916 0.23530403 0.10056774 -0.10233931 0.07531603 0.47624788 0.33242604 -0.03119722 0.47172755 0.091380976 0.5452374 0.31169444 -0.042020902 -0.29739568 -0.18587363 -0.6700696 -0.3787852 0.21872294 -0.075903274 -0.05623158 -0.021696148 0.08281828 -0.26806667 -0.64518994 0.03511243 0.15916526 -0.04479431 0.23085594 0.04918606 0.57696813 0.358746 0.031109026 0.04158868 0.15697382 0.38411185 -0.31721446 -0.10997429 -0.26420665 0.0016899252 -0.49901834
179706 -0.28443208 -0.3808693 0.18576536 0.086639345 -0.09120836 -0.11032508 -0.09996691 0.18760015 0.24144883 -0.029710632 -0.13489495 0.12216725 -0.26125655 0.09736575 0.13411842 0.5215005 -0.3007973 -0.22309504 -0.021986669 -0.03392333 -0.18324453 0.070822544 -0.036396705 -0.32544065 0.52021784 -0.22305806 0.5403853 -0.15543707 -0.207229 -0.14425428 -0.27152094 -0.1897902 -0.15525834 -0.42466334 0.11514229 0.04508357 -0.09703323 -0.25340307 -0.0043613804 0.18634534 0.3535411 0.050664954 -0.12339164 -0.12897982 -0.29421753 -0.016284714 0.53575903 -0.07075934 -0.16115649 -0.20210265 -0.15578355 -0.17227064 -0.13462459 0.23288909 0.03066299 -0.3094414 -0.018753123 0.3442368 -0.0056513306 0.03048293 0.047946736 0.17277655 -0.10816729 -0.017755553
650807 -0.12856977 -0.19174737 0.16906807 0.065024234 -0.22911054 0.123444214 0.46397474 -0.0020872813 0.07002159 -0.06400121 -0.036721867 0.21840349 0.35095707 -0.19738384 -0.009024448 -0.33644292 0.17842972 0.57200164 0.4017029 0.34725037 -0.07282981 0.40540302 0.31005192 -0.04409105 -0.2172088 0.11698458 -0.21902576 -0.17286336 0.25438848 0.15730451 -0.023599686 -0.03759175 -0.07931676 0.2792701 -0.17812102 0.30351144 0.25681084 -0.42798504 -0.42357454 -0.5408917 0.1543028 0.3798112 0.15400474 -0.10217595 -0.5136971 0.24627836 -0.21212237 0.4015615 -0.009134336 0.26035717 0.1802209 0.025839921 0.30412453 -0.13463628 0.093934245 0.221032 0.16579112 0.23831256 -0.6474753 -0.20707406 0.17658976 0.027300792 0.36022446 -0.016006863
36620 -0.38544846 -0.006944671 -0.4685512 0.5841779 0.03934052 0.5444797 -0.19658877 0.16637449 0.18562296 0.7896968 1.0507401 0.14252724 0.24742159 -0.10654909 -0.22920406 -0.07692324 0.28045896 0.09817257 -0.6659 -0.70560706 0.17281754 0.52760756 0.17043275 0.20740913 0.58525217 -0.04485838 0.39023754 -0.21598512 0.6449963 0.3846883 0.32521018 0.19758242 -0.10044521 -0.0957823 0.030288318 0.33239657 0.1809422 -0.18915081 0.19287467 0.08221994 -0.2936914 -0.4293885 -0.16045055 0.17723297 -0.059634473 -0.044911213 0.12144852 0.12912835 -0.48637554 -0.25294474 0.016076773 -0.4806436 -0.09394441 0.12025545 0.508576 -0.06567134 -0.11469224 -0.073415525 0.15904582 -0.14357989 -0.43921655 -0.22986811 0.40368053 0.45583174
62333 0.24569583 0.12682758 0.1803729 -0.09165556 0.120491095 -0.025783442 0.2147616 0.02564931 0.41712078 -0.1107636 -0.35775357 -0.0683426 -0.062153324 0.06800957 0.48945087 -0.1558291 -0.10368779 -0.50296986 0.37301874 0.35575652 0.24304044 0.02780511 -0.13757285 0.108545795 -0.19474098 -0.27973485 -0.5714225 -0.016084267 -0.027067587 -0.1756852 -0.08433258 0.1785987 -0.31710267 0.04885787 0.28210482 -0.32768738 0.023223596 0.2721145 -0.26519564 -0.12046607 -0.064405516 -0.120248064 -0.6146139 0.038918447 0.6592519 -0.11584897 -0.29368195 0.15603413 -0.26166582 0.09498286 0.14283416 0.13692892 -0.15098986 -0.32363316 0.41143596 -0.5297989 0.118501365 0.098434746 0.049665082 -0.03996101 0.04462072 0.0081779 -0.07207598 0.097592436
270085 -0.08948399 -0.017191494 0.123314634 0.103362374 -0.042896226 0.3574181 0.43670171 -0.18101653 0.29403454 0.08586808 -0.16443026 0.08512588 0.33445042 -0.010231194 0.10643178 -0.12742889 0.54165936 0.3482174 0.049597263 0.23642638 0.13300839 0.3100888 0.07893168 -0.13727088 -0.340475 0.077073246 -0.22682881 0.025946038 0.058550723 0.016763385 0.018313672 -0.117996186 -0.0837478 0.1639829 -0.35071552 0.10063919 -0.0073060826 -0.3417399 -0.34650835 -0.5438989 0.008828517 0.25537047 -0.09380461 0.0015273726 -0.21286145 0.28592467 0.102070116 0.25201428 0.33027014 0.27278414 0.015992044 0.009833842 0.26430222 -0.20233758 0.05558303 0.09899001 0.07513334 0.14160372 -0.38126415 -0.1269317 0.111038156 -0.0017014206 0.063381 -0.20383897
71736 -0.28569335 0.14768824 0.15997268 -0.1001445 -0.055261884 -0.23212194 0.07847517 0.1938926 0.060267534 0.38870525 -0.11155363 0.2142964 0.21734367 -0.032840427 -0.13957702 0.33084294 0.64944595 -0.11181259 -0.20239542 0.07041137 0.3360865 0.15692306 -0.10158703 -0.0045583793 -0.12809645 0.2389814 0.5180907 -0.3262375 0.112965316 0.48441976 0.11233519 -0.23932458 -0.4926584 -0.11325508 -0.38647273 -0.7798902 0.42374673 -0.074958704 0.032077007 0.41843936 -0.1618183 -0.3452963 0.46671858 0.0843117 0.41094425 -0.24032554 0.09141663 -0.38061765 -0.46802023 0.034883846 -0.5100613 0.11126953 -0.32947916 -0.27222112 -0.35954213 0.08051274 -0.13567409 0.06260495 -0.19887815 -0.21884173 -0.33967897 -0.20910922 -0.14417638 -0.12681605
270600 -0.17997445 0.39196786 0.41120252 -0.21589778 -0.48112231 -0.07749658 0.29651746 -0.0046886606 0.33581552 -0.2668414 0.114112005 0.45675087 -0.22005773 -0.09595895 -0.611516 0.17300592 0.43391228 -0.12912399 0.07065868 0.38576752 -0.45998308 0.16916172 0.25418618 -0.20018455 0.028917236 0.13918291 0.23655957 0.4478344 -0.411179 0.28548494 0.15364192 0.08603943 0.18905097 0.45732287 0.33927608 0.0064262375 0.262113 0.103669494 0.26074475 -0.006973033 0.44515532 -0.29801562 0.1884231 -0.2446143 0.28200662 -0.25063643 0.31656358 -0.17983742 -0.13746521 -0.15387161 0.10381346 -0.06955483 0.13533756 0.3146673 0.042397432 0.21695308 0.44776165 -0.41142517 -0.035413317 -0.4802873 -0.058790635 -0.62620866 -0.183672 0.123304285
1153811 -0.608605 0.23081246 -0.31319255 0.6157743 -0.02414106 0.46520755 0.022673706 0.07009464 -0.692776 0.036616594 -0.12666541 0.09062825 -0.30090833 0.16109732 -0.115516745 -0.112614065 -0.006960302 -0.284905 -0.12510556 0.05178415 -0.20366141 0.17119922 0.26123723 0.12164835 0.013670389 -0.06429618 0.35217902 0.25927615 0.05119891 0.111911125 -0.016914815 -0.104389094 -0.16727257 0.47521362 0.26729485 0.07314085 -0.10481614 -0.7047868 0.40684363 0.51401144 0.2689876 -0.3968267 -0.033249367 -0.32359052 0.4485495 -0.22435072 -0.7251294 -0.22952034 -0.1459756 -0.33022568 -0.37724486 0.14102626 0.044619378 -0.34619606 -0.5195985 0.27648482 0.089772835 -0.31777203 0.11964933 0.09347713 0.53250957 -0.0029540674 -0.3354083 -0.31420013
1125906 0.053426534 -0.07444534 -0.1348574 -0.043685768 -0.010984721 -0.13447623 0.076754645 0.09068377 0.13474487 -0.05937556 0.09061041 0.38845393 0.11588873 -0.28711003 -0.16964148 0.2400984 -0.23695193 -0.16989389 0.16363704 -0.33344567 0.32850087 -0.18759781 0.47915354 -0.24913578 0.35025746 0.14746208 0.18232997 0.14925238 -0.18602633 0.17128648 0.47917426 -0.014380181 0.32807398 -0.59638697 0.5414544 -0.45835578 -0.20354451 -0.22721034 0.5607874 0.17069857 -0.020400386 -0.06091172 0.38871223 -0.5455968 -0.30118322 -0.17670482 -0.12505656 -0.035716664 0.1301207 -0.06153857 -0.58555996 -0.20149274 0.08912595 -0.055791523 -0.1606451 -0.32526594 0.61275697 0.24619803 0.048150145 -0.28846055 0.021359002 -0.07744359 0.030796275 -0.17213689
1103031 -0.19142748 -0.2603507 -0.036784273 0.06815384 0.23148444 0.3025388 0.03390461 -0.4272925 0.009752792 -0.22732076 0.25949824 -0.32258308 0.0243296 0.020458328 -0.0742604 0.40778533 0.11404402 0.1449084 0.09617381 -0.51519006 0.53733546 -0.25992036 -0.22505446 -0.32150328 -0.13731955 -0.26597008 0.5625717 0.32962307 -0.36119947 0.44758627 0.016294222 -3.8202004e-05 0.44691062 -0.46650943 0.20040722 -0.23759563 -0.50885284 0.080538735 -0.5330091 -0.15023535 -0.23135549 -0.31992525 -0.20169683 -0.42580986 -0.5813272 0.23655505 -0.6529105 0.34890392 -0.5087368 0.27753368 -0.15535338 0.20376793 -0.35779825 0.13091289 -0.30453637 -0.07978968 -0.44632658 -0.21347271 -0.112274624 0.012363515 -0.0039969846 -0.06877157 -0.4770944 -0.2697507
35061 0.029714128 0.037393942 0.518011 0.30408126 0.114896856 0.52473193 0.28976867 0.014522424 -0.015613416 0.13930854 -0.66462404 -0.20418991 0.24955252 0.16732904 -0.07317286 0.51523906 0.89961696 0.17171034 0.38006276 0.5343226 0.11465007 0.4221185 0.6572156 0.2884297 -0.2147972 0.4411077 -0.6874063 0.099425524 -0.09902856 -0.10967332 -0.2983679 0.09975664 -0.188735 0.024695922 -0.10586378 0.13987513 -0.21505043 -0.51013815 0.058132704 -0.4075665 0.080044635 0.73810136 0.19347963 -0.053114112 -0.48434445 -0.18441036 -0.20034304 0.38592896 0.23353054 0.009082544 0.38254505 0.066583045 0.2282345 0.15298976 -0.13644008 -0.42625672 -0.04830929 -0.044869523 -0.7327385 0.17820147 -0.056258943 0.18363042 0.64591 0.23670684
1117618 0.1087263 -0.13276453 -0.37899017 -0.0132665485 -0.31171238 -0.029168576 -0.26499534 0.4081559 0.1833709 -0.12814856 0.001412485 -0.6313798 -0.46369764 -0.23674063 0.092529744 0.028422132 -0.29953775 -0.05142545 -0.16615213 -0.111088365 0.052168544 -0.33237875 -0.057099927 0.21569061 0.35931608 0.13693307 0.09376757 -0.3495153 -0.15264614 -0.11846367 -0.15035832 -0.029131627 -0.10379677 0.046749454 -0.4808845 0.33302644 0.093677096 0.3844523 -0.4556422 0.6358574 -0.14886345 0.2059753 -0.3874011 0.022164468 -0.17902222 0.15848601 -0.023863208 -0.068257704 0.6618365 -0.18418892 0.24455412 0.22464158 -0.49433118 0.12610848 -0.054431792 0.1277193 -0.26450813 -0.11872916 0.08534843 0.14285623 0.28380364 0.57797366 0.42969653 -0.0059126597
141342 -0.38041252 -0.3401796 0.18845792 0.39417267 -0.10793975 0.27859217 0.5067873 -0.12392102 0.31090415 -0.16199778 -0.33102044 0.30044 0.71820074 0.12290573 0.22550116 0.23391601 0.6143744 -0.09248309 0.33579433 -0.005163688 0.38531896 0.21209858 0.29276863 0.25945228 -0.57800156 -0.020917818 -0.4726674 0.11295173 0.21122095 -0.012225074 -0.323526 -0.271188 -0.120584324 -0.05117032 -0.4844198 0.10724966 -0.07394315 -0.0286391 0.2612302 -0.43595582 -0.05919086 0.62975466 0.039605822 0.36415428 -0.038976412 -0.18322948 -0.025457721 0.18211353 0.40756595 0.17119238 0.4968286 -0.022830788 0.086449586 -0.026064437 -0.32468393 -0.09331972 0.018780546 -0.0921123 -0.43950218 -0.006148452 0.19304614 -0.4429717 0.24032195 0.14010668
1129608 -0.049177878 0.083512284 -0.08384295 -0.036907967 0.030059008 -0.002122957 0.23720881 0.47038007 -0.18815099 -0.13043432 0.35425806 0.107732594 0.080713324 0.15011068 0.1430654 -0.18485588 -0.063826576 -0.18663538 0.29449105 -0.084576644 0.15731105 -0.34519377 0.13434488 0.18128549 -0.08169114 -0.5774625 0.022700775 -0.17647707 0.40543798 0.25768012 0.1597125 -0.13282971 0.34364602 0.018994229 -0.01776423 0.15114097 -0.011971697 -0.2513983 0.45466945 -0.13360086 -0.0115816435 -0.63590485 0.12826519 -0.090223126 0.114758246 0.2640988 0.43076998 -0.37082797 -0.4915096 0.110458516 -0.3185994 -0.37285578 -0.011600728 0.4938409 0.33933255 0.24587162 -0.107246436 0.23671964 -0.046666853 -0.14759266 -0.066315986 -0.15362465 -0.18979578 0.3959135
157401 0.044314764 0.031488407 0.16791157 -0.10481412 -0.17339163 -0.028342217 0.0029993274 -0.021631608 0.13699538 -0.12939543 -0.4062314 -0.19390047 0.113646135 0.19390577 0.056724224 0.1674693 -0.098480284 -0.45304093 0.38126087 0.15603176 0.20575736 -0.055967417 -0.36609107 0.10083297 -0.4165031 -0.38016102 -0.5905948 -0.25346535 0.16449848 -0.47254467 -0.178415 0.38205084 -0.27047065 0.098745465 0.5836055 -0.26382095 0.19353068 0.5447978 -0.30351117 -0.30655822 -0.36503056 -0.2505021 -0.6608751 -0.22675744 0.7409964 -0.35300228 -0.08218521 0.18027644 -0.06859089 0.10088342 0.11449423 0.19188313 0.07682222 -0.47521746 0.5300681 -0.38527137 -0.06750239 0.03298929 0.12924765 0.05956255 0.018328862 -0.0805763 -0.18901333 0.49254295
36131 -0.015968861 -0.12158578 -0.3798371 -0.14912263 -0.44662157 0.12006085 0.08285281 -0.26951414 0.22058174 0.16285758 0.26604134 0.31571367 -0.046044495 -0.2182424 -0.74567044 -0.34722012 0.27706823 -0.25688255 -0.18055737 -0.40629092 0.06801245 -0.2138981 0.8872746 -0.31581292 0.60323626 0.015941689 0.17464261 0.22206841 0.20866613 -0.03447221 0.24424112 0.060561523 -0.13565487 0.031338505 0.17331523 -0.30091882 0.06767904 0.3071474 0.40054768 0.35732606 0.011901251 0.28072545 -0.11717046 0.22424549 -0.11599329 0.10315259 -0.48879492 -0.14277278 0.2279472 -0.024814285 -0.025079744 -0.055348106 0.010324736 0.33706686 -0.0546112 -0.23871365 0.052806478 -0.31796572 -0.25211734 0.41868582 0.18226358 -0.0523867 0.020986343 0.011702824
1117760 0.3077539 -0.0030448716 -0.49095598 -0.15147224 -0.13371752 0.10106726 -0.17979792 0.21953718 0.073159635 0.18010357 0.03629608 -0.5839815 -0.22776574 0.03724888 -0.036925264 -0.15056169 -0.0072726887 0.12905195 -0.03134006 -0.073437504 0.2745926 -0.22536023 0.018167235 0.11408173 0.13428697 0.084250495 -0.074635476 -0.2594924 -0.102322884 0.16208197 -0.22672886 0.22212166 -0.015347183 -0.004535123 -0.28909743 0.092035525 0.15079436 0.37147057 0.15379138 0.42762804 0.012436357 0.08326526 -0.41300783 0.015754085 -0.2877794 -0.022113834 0.28788534 -0.15208144 0.33315656 -0.14021331 -0.0011873494 0.18393588 -0.05479967 0.17780824 -0.06685159 0.1509136 -0.41512233 -0.25061414 0.30687502 0.2150059 0.35850626 0.48850486 0.24137615 -0.11845989
216877 0.039480418 -0.13416079 -0.35354862 0.019606987 -0.2803689 -0.051999968 -0.27328658 0.33987054 0.20391358 -0.1081186 -0.013932141 -0.6300516 -0.4542431 -0.19281757 0.05145572 0.021242114 -0.18353584 -0.025885046 -0.08730056 -0.046719298 0.12532422 -0.3455141 0.026194455 0.19858855 0.2966477 0.084851615 0.089125305 -0.36734205 -0.13930944 -0.12939811 -0.16671528 -0.013012053 -0.07621957 0.032263022 -0.434602 0.28543466 0.1145402 0.2928425 -0.31869075 0.6081317 -0.14555332 0.21400452 -0.42600232 0.0371785 -0.22807111 0.11811416 -0.010536122 -0.009514677 0.5833582 -0.15764762 0.15758683 0.16780598 -0.4236814 0.1726699 -0.02263395 0.075662576 -0.22810277 -0.09265531 0.17254363 0.19922167 0.33306727 0.5939937 0.35155722 0.025507199
117 0.22950675 0.31708762 -0.375698 -0.6820064 0.060748085 0.08350402 -0.09060458 0.09303488 0.2563605 0.24848458 0.2967242 -0.858274 -0.15839107 -0.13179292 -0.3535284 -0.6577747 0.27575895 0.23737206 0.30626762 -0.32654458 0.5614815 -0.19158782 0.17041741 0.009701036 0.010334947 0.33133286 -0.30600604 -0.073898785 0.0010239079 0.64238775 0.03975004 0.15890361 0.40088165 -0.10209427 -0.0581135 -0.6984079 0.2730224 0.37593615 0.5176016 0.93055356 0.28694397 0.5449319 -0.519489 0.03876701 -0.2149818 -0.34391814 0.62522084 -0.23494124 0.16803333 -0.029243445 -0.050440118 -0.102475666 -0.009401244 -0.01966333 -0.68618786 0.30127257 -0.4872603 0.1090565 0.47653532 0.37239996 0.08919957 0.47249174 0.4529886 -0.120833635
36162 -0.30959907 0.23633744 0.380905 0.28562507 -0.18934141 -0.18720317 0.048387073 -0.30915082 0.019732805 0.3639686 0.20156917 -0.29082704 0.052882873 0.074386284 -0.20201246 -0.0733415 -0.47318125 -0.38955483 0.4372004 0.05913515 0.32390815 -0.15592498 0.39850727 -0.3191899 0.25412953 -0.08072724 0.013443733 0.55755395 0.06599453 -0.8855323 -0.49987137 -0.05963117 0.3461552 -0.30939692 -0.009358744 0.028408583 0.67711794 -0.5017115 -0.22277544 0.6556671 -0.28340313 -0.62950414 0.08126705 -0.057722896 0.70251673 -0.35984224 -0.34100053 -0.10099795 0.35924023 -0.7897062 -0.265115 -0.069152206 0.6795582 -0.081781924 0.8482555 -0.485486 0.16880792 -0.44970557 -0.19967766 0.63302296 -0.04149738 0.09402607 0.41805524 -0.63216114
688849 0.22470737 0.19891162 -0.055863313 0.3917279 0.18938245 -0.30566707 0.21333626 -0.40785503 0.3045765 -0.20206887 -0.14553161 -0.17898756 0.05939647 -0.50968015 0.03659978 0.1820798 0.02196 -0.2398458 -0.27232853 0.043649733 0.038397327 0.10211887 0.21440248 -0.39591068 -0.34613165 0.037268996 -0.21655186 -0.17906734 -0.002599944 -0.22169639 0.07587421 0.1938173 -0.032305058 0.357125 0.26445764 -0.22716707 -0.16793503 -0.059835013 0.19772454 0.18839374 0.2678695 0.22787419 -0.24212073 -0.19263144 0.20372677 -0.07244096 -0.049216397 0.596941 -0.2489215 -0.20276688 -0.35791445 0.10506083 0.13539582 -0.12583955 -0.08035326 0.0632808 0.0597397 0.18661964 0.11853968 0.13389292 0.48522642 0.036592517 -0.050568983 0.30892402
51879 0.12241146 0.35804126 0.10357586 -0.17093197 0.45794532 -0.060414717 -0.39065063 -0.11253922 0.29869714 -0.013425866 0.09256877 0.6652162 0.04369494 0.3298007 0.2868685 0.015291227 -0.30098078 -0.29853186 -0.24087639 -0.65414804 0.22224888 -0.1381337 -0.3642101 -0.5299449 0.16918762 -0.14105214 -0.08577292 0.016384928 0.19835478 0.14958458 0.019092368 0.043936037 0.010739746 0.059060592 0.41778257 -0.36084032 -0.57049954 0.11847409 0.5248176 -0.25583398 -0.4299372 0.20356926 0.094316 0.07402009 -0.46104428 0.13296066 -0.25759646 -0.43673956 0.15903196 -0.48357204 0.426339 -0.19632035 -0.41347837 0.25739643 0.27240112 0.22828594 -0.17379242 0.12490894 0.3106593 -0.11284901 -0.00649171 0.0626463 -0.5728843 -0.45287895
101811 -0.35228616 0.43732306 -0.24852653 0.13977475 -0.059589855 -0.44773653 0.5289552 0.06566996 -0.16344072 -0.41685745 -0.20222299 -0.24016339 -0.055049933 0.18674147 -0.42547 -0.09569859 -0.33708733 -0.37977758 -0.46095517 -0.0673543 -0.7282215 0.3120187 -0.4150561 0.14063047 -0.24231577 0.23898724 -0.0054629236 0.20595217 -0.08195086 0.34182888 0.22925688 -0.23700787 -0.11140928 -0.5429719 0.23228799 0.20585974 -0.19704434 -0.61396414 0.2993094 0.36947694 -0.33364195 0.0076714554 -0.15211307 0.29802054 -0.079545446 -0.5315634 0.40330383 -0.24046049 0.12117128 0.020597246 -0.7081675 -0.11253689 -0.67317516 -0.07306126 -0.44227508 -0.28313208 -0.03513843 -0.40925813 -0.464851 -0.15792665 0.15037774 -0.13763455 -0.8955604 0.5527077
1111788 0.122274406 -0.049119238 0.27770138 0.2564897 0.16952677 -0.10762722 -0.5538004 -0.17544137 -0.53854513 0.25412264 0.31261796 -0.11634081 -0.15986918 0.19867034 -0.08159275 -0.21771233 -0.5175063 -0.22278577 -0.21997175 0.002508778 0.15242063 -0.09091529 -0.1578483 0.584516 0.32385856 0.107990995 -0.07313223 0.49096826 0.1201815 -0.41247645 -0.2943956 -0.22827743 -0.011400264 0.036117304 -0.19023272 -0.12229803 -0.5262527 -0.29870972 -0.0010507047 0.3991822 -0.2547598 -0.172006 -0.08192516 -0.13148409 -0.10140689 0.055184875 0.47215828 0.39201593 0.40937096 -0.096185915 -0.34446388 -0.07895645 -0.12656875 -0.06907705 -0.29786372 0.17619354 -0.49153847 -0.22220586 -0.28166303 -0.15535046 0.3863475 0.0023475848 0.58442086 -0.049447622
684972 0.16648428 0.15348807 -0.08425756 -0.13755657 0.26940462 0.4372479 0.06205855 0.2701206 -0.19204289 -0.12277292 -0.041732274 0.26728055 0.027829988 -0.31407273 -0.27829984 0.5650572 -0.26844096 -0.195358 -0.123833515 0.07711489 -0.046385646 -0.43344924 0.3154653 0.34784022 -0.13867816 0.6590531 -0.019691652 0.08767682 -0.19496572 0.20159039 0.40088737 -0.16005659 0.0073715835 -0.4788482 -0.52481335 0.07954105 -0.1280365 0.27580076 -0.4709816 0.12241355 0.22385629 -0.29656953 0.64412165 -0.12797615 0.61009175 0.35729665 -0.4406665 0.13908339 0.43038207 -0.17226724 0.1260695 0.24113202 -0.4565231 -0.39910075 -0.06870555 -0.21906312 0.24394423 0.36803374 0.045882817 0.008801078 0.063831 -0.049496822 -0.29311043 -0.18183874
1154459 -0.5135078 -0.11863114 0.15308549 0.1487448 0.0138165755 0.1202921 0.5095794 -0.16510183 0.20194952 -0.41931364 -0.009489568 0.24771126 0.37037152 0.27742243 0.28588885 0.071248025 0.50454295 0.0465849 0.17100342 -0.28244013 0.22254644 0.030275194 0.10909799 0.13429116 -0.37945387 0.06374276 -0.31271166 0.06320339 0.27209267 -0.060074054 -0.24687639 -0.33346885 0.13577779 -0.14839448 -0.36333165 0.100693874 0.047178984 -0.021735914 0.30811784 -0.2536469 0.19751981 0.49131328 -0.080495045 0.3367237 0.03231828 -0.28373337 0.033641137 0.055656932 0.4526667 0.25013918 0.17174006 0.004075957 -0.004216554 -0.112017974 -0.30022395 0.10204719 -0.068162024 -0.1334065 -0.34790438 -0.20567292 0.120434254 -0.39740923 0.19269322 0.25810435
910 -0.427153 0.5924759 0.060160514 -0.43659198 0.30724204 -0.33932185 0.3342531 -0.4282613 0.19611613 -0.2994173 0.24919738 0.31814706 -0.3268932 0.8152908 0.6348574 0.31868935 -0.5161271 -0.35030955 -1.2524788 0.6692717 -0.15051399 -0.7001645 0.27168277 -0.7249619 0.09243943 -0.83561504 -0.39509654 -0.16408198 1.3640263 0.25638458 0.30431673 0.9632725 -1.0550039 1.0013506 0.050007474 -0.381782 -0.3380737 0.80305415 0.42295098 0.2530232 0.2123285 -0.10343071 0.6922474 0.10362609 -0.9215944 -0.73443276 0.32291582 -0.1278443 0.5818616 -0.35377377 0.7150599 -0.13809572 -0.82562345 -0.7910196 0.8058402 -0.65349007 -1.0455493 -0.05897169 -0.34281516 0.36872232 -0.6226037 -0.54799944 0.05660617 -0.59181714
100197 0.32712367 0.3662293 0.57487357 0.118738085 0.21587579 -0.1940074 -0.041515227 -0.096926026 0.3901346 -0.1546492 -0.45144612 0.31565982 -0.39026996 0.08913281 0.6792984 -0.2353904 -0.24328719 -0.480493 0.5074248 0.61003035 0.28449532 -0.28052998 -0.18522717 0.3075708 0.18174316 0.03116141 -0.5204105 0.4094249 0.23114486 -0.16485119 -0.12611924 0.32104132 -0.50074893 0.0381352 0.32215852 -0.10753236 -0.24635385 0.41253155 0.03444807 -0.3154702 -0.12446457 -0.002275741 -0.52057153 -0.41449508 0.54859024 0.16546896 -0.4557776 0.22168115 -0.34110963 0.4725253 -0.14332736 0.1168045 -0.20131518 -0.5696738 0.25507638 -0.4854515 0.116337694 0.18658175 0.013355503 0.006398614 -0.22095147 0.14640322 -0.23617592 0.43720916
23502 0.17133449 -0.18366984 0.030155761 -0.010608442 -0.33954915 -0.051861744 -0.22565475 0.018105507 -0.14667468 -0.03536462 -0.2506055 -0.2807659 0.33876902 0.20774852 -0.1588573 0.22620907 -0.009471292 -0.3384002 0.20549986 -0.13240102 0.0336424 0.0028511256 -0.46698523 -0.017100042 -0.18293396 -0.31781197 -0.3691645 -0.155028 -0.05807169 -0.4816656 -0.0600197 0.15099114 -0.20746109 -0.026990868 0.74732286 -0.16556403 0.16392908 0.5876064 -0.28983393 -0.49999946 -0.45457318 -0.076122366 -0.73460513 -0.17815754 0.7055388 -0.56501013 0.030630242 0.07273304 -0.19338834 0.03902402 0.07882801 -0.16167936 0.21326807 -0.36014 0.45274258 -0.39464054 -0.19855994 -0.036770903 0.1495925 0.18422806 -0.0090577165 -0.10973248 -0.09891676 0.5279761
675756 -0.16573462 0.34133902 0.31258723 -0.37721992 0.26383018 -0.15185614 -0.11170959 -0.25835055 -0.12902251 -0.15497297 0.25241977 0.2565318 -0.24891482 0.45728296 0.46271792 0.029176021 -0.37588313 -0.50892156 -0.19312167 0.34715194 0.14095396 -0.2928826 0.17331722 -0.18713169 0.15133125 -0.19403039 -0.11475394 0.04575624 0.47838792 0.21921445 0.06710594 0.30858234 -0.43959334 0.35405597 0.005935323 -0.51331717 -0.33098567 0.3626702 0.082044095 0.22146362 0.052633137 -0.021494567 0.2013231 0.13423444 -0.16265935 -0.46218446 0.11475352 -0.18272333 0.24839553 -0.08135931 0.2072877 -0.11284321 -0.31516385 -0.22664277 0.41149017 -0.053535145 -0.095638014 0.039653353 -0.14023122 -0.34407955 -0.30305716 -0.2567398 -0.13698341 0.14908312
4584 0.34255174 0.39101818 -1.365588 -0.39392126 0.10559979 0.18932436 -0.27918237 0.10231684 -0.08734632 -0.17100826 0.2935852 -1.0374994 0.17451367 -0.25124753 -0.52759904 0.03463566 0.034608062 0.08468331 -0.23593989 0.94679993 0.40693653 -0.5178175 -0.1004032 0.2818728 -0.23625718 -0.29596022 -0.43346968 -0.15554647 -0.0014548958 -0.13545841 -0.6178004 -0.11156063 -0.19390652 0.32162866 -0.21875733 -0.15483452 0.2927237 0.52002877 0.35103264 0.07996102 -0.5313142 0.5583462 -0.6687829 0.21697652 -0.2071077 -0.2157842 0.068599984 -0.35477513 0.11207147 -0.3776555 -0.039529067 1.1769795 0.48618367 0.041893378 -0.48983544 0.016381487 0.010074409 -0.6583842 0.6209934 0.17771518 0.25830185 0.41030064 -0.39782402 -0.2951807
354004 0.22771609 -0.05435567 -0.08700915 -0.17331685 0.23116507 0.18548682 0.45150536 0.038276635 -0.0661748 0.11369572 -0.030378286 0.22539343 -0.08044033 -0.10747581 -0.11563162 0.5273119 -0.3605083 0.15218814 0.37243304 -0.09347429 0.042073727 0.323704 0.060820807 0.46641156 0.4298751 -0.23660283 0.30432513 0.4324568 -0.22191231 0.08949023 0.045723557 -0.23412687 -0.24870488 0.04718804 0.24201955 0.45436633 0.2966585 0.109657176 0.73293746 0.016476555 0.12182767 0.4580879 0.7387845 -0.26716983 -0.5619748 -0.34518608 0.06069059 -0.14288063 -0.5659361 0.2656912 -0.15450007 0.018997643 0.1307315 0.17207903 -0.5933346 0.027708363 -0.39572617 0.2456918 -0.22866255 0.55546814 -0.036204543 -0.10267404 0.15945968 0.19040194
628500 0.15514293 0.026324349 -0.58872455 -0.3198226 -0.23166497 0.020644559 -0.40024573 0.14912792 -0.074293174 -0.10940381 0.20897722 -0.81844044 0.17217822 -0.029487588 -0.6469162 0.04782384 0.080295 -0.080164954 -0.06466405 0.017159395 0.272069 -0.18876672 -0.27754298 -0.013055683 -0.3241218 -0.036348213 -0.31819725 -0.05138595 -0.07889457 -0.204142 -0.2805587 0.07390714 -0.0038580385 0.15288004 0.2591375 -0.1368479 0.30521822 0.5830239 0.031574164 0.041215807 -0.45905352 0.23296413 -0.49619624 -0.05476171 0.20444275 -0.4651826 0.2105658 -0.19047238 0.06785051 -0.016158057 0.25143716 0.22679028 0.34603062 -0.25232604 -0.16720356 0.061224096 -0.3054846 -0.26045445 0.2831234 0.2877541 0.2413031 0.065587536 -0.034119524 0.19567762
601567 0.28462493 -0.013636455 0.08075131 0.30154282 -0.098630406 -0.6630053 -0.51202244 -0.02054702 0.09995984 0.066468544 -0.06202472 -0.0037412208 -0.18705194 0.04490151 -0.13209873 -0.036814287 -0.090002425 -0.061889004 -0.2356036 0.23550877 0.21961759 0.05580907 -0.108493805 0.33739808 0.015558659 -0.14820625 -0.00012664568 0.10562135 -0.27845332 -0.24519277 -0.32903263 -0.5239692 0.2079259 0.12281277 -0.13467091 0.20765135 -0.16743614 0.101283096 -0.107479624 0.41608825 -0.11825227 -0.03635199 -0.14903192 0.34708348 0.108245485 -0.21762106 0.18909298 -0.07621483 0.31270012 -0.24780612 0.052854918 0.078577235 -0.15645163 -0.2241254 0.14527267 0.2517038 -0.48174092 -0.33310193 0.12491291 -0.0112826675 0.501908 0.28288043 0.19098452 0.17540714
1133930 -0.035336804 -0.5247621 0.43259254 0.09627959 0.096604146 0.049281612 -0.23076014 0.11751994 -0.19724903 0.14711086 0.07955768 0.5649259 -0.5203969 0.15349695 -0.20793593 0.5902485 -0.10451769 -0.21527953 0.09521516 -0.12801595 -0.1045541 -0.14247894 0.098463714 0.29707024 -0.33641177 -0.24469818 0.22842905 -0.044063117 -0.24393915 0.572109 -0.07345777 0.008040576 -0.5278482 -0.34411436 0.16730687 0.09632719 0.098110326 0.072919816 -0.12851298 0.2639222 0.4192437 0.26051405 -0.2134362 -0.23894863 -0.14445321 0.10025766 0.48584074 0.59504884 0.10161538 -0.02043931 -0.10320735 0.27469477 -0.2548684 -0.39225042 -0.10458147 -0.15160632 -0.10670423 0.053587846 -0.09380503 -0.06234373 -0.46587119 -0.23492415 -0.0072786277 0.09878438
762980 0.8524095 -0.3978993 0.06545007 0.11203069 0.35436174 -0.061456487 0.16128314 0.37439835 0.27899653 -0.108426094 -0.21372114 0.08090858 -0.029803589 0.004600655 -0.035299636 -0.14285964 0.2566506 -0.07318224 -0.01944191 0.022321977 -0.043491386 0.3035292 -0.33784527 -0.32994896 0.42510504 -0.22868453 -0.20336695 0.20678885 0.15700684 -0.024889367 -0.04323117 -0.08100482 -0.13033654 0.32609138 0.4357776 -0.07349738 0.122505456 0.046427213 -0.102161065 -0.035346087 -0.03300449 -0.08301048 0.26721138 0.31544566 0.42120898 0.23824662 -0.12355961 0.053567283 -0.43373942 -0.20057458 0.2747548 -0.35232776 -0.61609334 -0.18307969 -0.18138002 -0.31316638 -0.08815589 0.011722612 0.36209306 0.3217373 -0.061470024 -0.089051075 0.28335768 0.09843157
289779 -0.32276344 -0.25134817 0.19054224 -0.27714044 -0.049974132 0.2832646 0.25394875 -0.32148978 0.34364426 0.17284861 -0.13269638 0.03765891 0.44996518 0.22673824 0.029898454 -0.15810111 0.5035414 0.123128325 0.06314891 0.22713068 -0.23686995 0.07016478 0.09327662 -0.33807796 -0.6281542 0.10876372 -0.31112862 -0.033448607 -0.07494047 -0.09757649 -0.17877614 -0.11941926 -0.11348869 -0.24130811 -0.20454256 0.36176732 0.2826736 -0.35734448 0.14239158 -0.13360383 -0.024890989 0.45899642 -0.03952185 0.105953455 -0.5241426 0.20242101 0.26153404 0.103429854 0.14842223 -0.0087885335 0.23341358 -0.115914986 0.05962247 -0.37104115 0.096106455 0.06665042 0.12797207 0.12574494 -0.2545933 -0.3459652 -0.017640455 -0.4027909 -0.02351814 -0.056061715
714260 -0.21763818 0.09718996 0.058337957 0.004864421 1.1080145 -0.44688484 0.013572138 -0.0666343 0.057826523 0.111383334 -0.29230225 -0.051660158 -0.33726934 -0.050081022 -0.27184397 -0.1243426 -0.0054412615 0.1369531 0.105728805 -0.35421827 -0.72115844 0.20040943 0.50092727 -0.27374548 -0.077015966 -0.087273866 -0.11424236 -0.20278198 -0.09057646 -0.24531883 -0.00073692406 -0.8735469 0.20478453 0.6964163 -0.08090578 0.3338966 0.14684696 0.19693197 0.1058475 0.32707915 -0.19899172 0.06040771 0.18042889 -0.4573833 -0.20496932 -0.02399258 -0.009950512 0.02662418 0.051757634 0.4943579 0.11511073 -0.07011142 0.34398165 0.07624315 0.08342878 0.4782028 0.22139329 -0.09747532 0.5724237 -0.10339309 -0.5585533 0.42488277 0.31148434 0.18698996
40151 -0.56567925 0.19511569 0.4401894 0.4437568 -0.23781084 0.22210933 0.41681415 -0.13857065 -0.13347648 0.7710903 -0.073556796 -0.37488362 -0.2627549 -0.07493122 0.35103294 -0.3038426 -0.20791094 -0.66442513 0.2831422 0.07304733 -0.22145866 -0.3828939 0.5225335 -0.107107885 0.046493363 -0.2368837 0.092828564 0.32172325 0.052583784 -0.8914562 -0.31773347 0.5430738 0.68869466 -0.6719671 -0.08337284 -0.05213201 0.09169105 -0.40066275 -0.28493136 1.1103859 -0.15746965 -0.5171464 0.021031396 -0.22367057 0.55386233 -0.16415982 -0.4601896 -0.14079234 0.07090188 -0.28255367 0.024358919 0.0940956 0.61497784 0.010449842 0.56198955 0.009337315 0.7028755 -0.43965057 0.030066451 0.7758732 -0.22092272 -0.27118447 0.4028751 -0.5124818
16008 -0.2683159 0.07495619 0.124690555 0.25244433 1.5123842 -0.58806735 0.34210238 -0.20302385 0.20772299 -0.009356091 0.17659791 0.5498048 -0.32430518 -0.40884072 0.05379446 0.060651407 -0.34406778 0.6414064 0.5503724 -0.35648265 -0.51354307 -0.23777409 0.51276886 -0.2338068 0.002207043 -0.09758729 0.40358046 -0.5310242 -0.0037619374 -0.2189295 0.16340654 -0.36308938 -0.17543331 1.0829153 0.16098082 0.31868193 0.17877288 0.5048778 0.52235425 0.33681428 -0.52183175 -0.06603187 -0.09738385 -0.34808475 -0.12494433 -0.4337534 -0.006705939 0.01547416 -0.053630862 0.36736497 -0.16558751 -0.55260575 0.63669336 0.30231252 0.12388391 -0.15550555 0.5159734 -0.20786901 0.5194206 -0.07201189 -0.7834323 0.5195967 0.5731953 -0.07687879
101143 -0.09249819 -0.18489008 0.08615832 0.17527647 0.22600423 0.3514671 -0.082392134 0.13050161 -0.12368968 0.037345428 -0.2464873 0.2119354 0.34560698 0.29630277 0.6486069 0.2076569 0.28890032 0.44205078 0.45569858 -0.14249541 -0.24724548 0.17061986 0.10249423 0.10647062 0.100042395 0.08458841 -0.21413717 0.2610677 -0.19150756 -0.61566067 0.9118343 0.04581703 -0.17176163 -0.4348793 0.122078754 0.11284836 0.00896944 -0.5319854 0.018439835 -0.0606322 -0.14965929 -0.030882796 0.15154764 0.07709313 0.40846673 0.14032984 0.3023969 0.038153887 0.31478107 0.059195627 0.30927205 -0.1350175 0.098274134 -0.15871358 0.032483935 0.19704087 0.06147442 0.47404245 -0.98274714 0.02071402 -0.26828057 1.3061646 -0.4448068 -0.26511317
1153254 -0.42612565 0.05033128 -0.17440717 0.20623116 0.0051102624 -0.065629095 -0.07187291 0.014303248 -0.35625842 -0.10827762 -0.091480225 0.12362562 -0.163879 0.27833363 -0.075633846 0.028020367 -0.025264923 -0.27826434 -0.074760206 0.05525814 -0.20436409 0.2619643 0.16855843 0.14540525 0.17851828 0.022248125 0.19376299 0.13009067 -0.09199868 0.20613933 0.09892834 -0.07853572 -0.27486426 0.083826244 0.23526947 -0.05369741 -0.112068415 -0.19443685 0.23475453 0.21797825 0.13027361 -0.35154852 0.01835818 0.06799256 0.21783385 -0.023787564 -0.09476228 -0.14604065 0.10889208 -0.20189607 -0.13087986 0.013808252 -0.16439205 -0.06845327 -0.3418236 -0.020607106 0.07960072 -0.08296055 -0.112053886 -0.04391121 0.5430283 -0.059932515 -0.35254705 0.010012864
34266 -0.052575935 0.24680422 0.40030965 -0.3044634 -0.39985663 0.11722685 0.1779938 0.030896084 0.29945686 0.05369744 -0.030189645 0.19552949 -0.40682045 -0.19268307 -0.8206919 0.23961431 0.52929944 0.039966926 0.22050105 0.39255834 -0.33656302 0.14508605 0.20129187 -0.24932685 0.18658195 0.1736158 -0.15283673 0.62230724 -0.49670008 0.21753314 0.1600018 -0.0056735184 0.08175659 0.6165432 0.12682408 -0.20413508 0.2691144 0.061853714 0.2309369 0.06521705 0.30983514 -0.25731206 0.085500464 -0.31371737 0.22893095 -0.15612002 0.3973131 -0.41982126 -0.0012269081 -0.2166508 0.18522617 -0.22741087 0.021155993 0.20265864 0.2411223 0.3340022 0.5421417 -0.66743135 0.102472946 -0.3309467 -0.03394437 -0.5085265 0.0054123853 0.037278917
1107455 0.43977094 -0.16587988 -0.4638142 -0.35674945 -0.042436004 0.2046504 -0.11964541 0.13473763 0.027394338 0.33295888 -0.021078544 -0.6666142 -0.2469691 -0.011340658 0.010363035 -0.14044797 0.06077779 0.07544725 0.08147097 -0.08864686 0.24230371 -0.31817934 -0.14606133 0.05366986 -0.020015031 0.1265539 -0.25636798 -0.288594 -0.10771198 0.0717466 -0.17157258 0.34003106 -0.010701321 -0.11899433 0.015526526 0.09174357 0.0007876325 0.36128345 0.28349456 0.35997576 0.122564234 0.1099937 -0.43877083 0.22920227 -0.38956448 0.06265099 0.3915544 0.0026942196 0.35209644 -0.033308566 -0.19301385 0.14384036 0.043211807 0.34913787 0.1228409 0.19235057 -0.35765806 -0.13814245 0.5150089 0.13414156 0.31183276 0.5486785 0.14650348 -0.21060674
22874 0.23027328 -0.15155788 0.6982648 -0.1336997 0.077286266 -0.04549237 -0.24904297 -0.039156124 0.10180748 0.26776907 0.42816794 -0.116110615 -0.010894051 0.14840977 0.41824752 0.3522341 -0.40365764 -0.080906935 -0.11934312 -0.3279343 0.26021716 0.36380464 -0.07807239 -0.37737563 0.09993279 -0.030112652 -0.023016721 0.62475556 0.3501907 -0.1725242 0.20249629 -0.10844715 0.2034751 0.058075167 0.40403375 0.0901969 0.42344233 -0.48018986 -0.032192748 -0.4448378 -0.13291785 0.09434733 0.40025136 -0.17513381 0.101437554 -0.5108083 0.37047392 -0.14259659 0.3015754 -0.07606244 0.43008685 0.04582555 -0.17230318 0.697894 0.33454952 0.070053376 0.094272114 0.36925706 -0.45341548 0.055236656 -0.042714294 0.29390222 -0.20785822 -0.40224972
59244 0.3097389 0.31621006 -0.056006603 0.14593257 0.29814982 0.12042238 -0.2789538 -0.15383019 0.15504752 -0.16939498 -0.08884085 0.33995375 -0.011515158 0.03298237 0.05526575 -0.16273732 -0.18378207 -0.01301344 -0.3860766 -0.8116406 0.021485236 -0.18111446 -0.10792779 -0.18302305 0.12734295 0.05380063 -0.23195885 -0.20408638 -0.28009653 -0.05373135 -0.08093235 -0.079021886 0.23254095 0.047146592 0.4047572 -0.34313315 -0.36409885 0.023184374 0.3707873 -0.09027429 -0.30974528 0.21743207 -0.0011483881 0.14276294 -0.3600644 0.41132554 -0.26245058 -0.3204435 -0.08669533 -0.27185902 0.26726288 -0.26250464 -0.3302548 0.21631311 0.17570978 0.4877261 -0.14808165 0.08992367 0.5384124 -0.034357667 0.027121976 0.16639237 -0.49616653 -0.23286042
91852 0.36678302 -0.2663698 0.303873 -0.682412 0.036106657 0.18611528 0.0005543017 -0.216228 0.10804705 -0.06202434 0.7953486 0.17696078 0.038580053 0.2862273 -0.40292376 0.33961016 -0.04430939 0.06384311 -0.15602982 0.104189135 0.34235346 0.16322379 -0.19268928 -0.09719019 -0.071829595 -0.16573966 0.57898504 0.26190445 -0.25932822 -0.31474164 0.09649907 0.7626158 0.028791329 0.5920409 0.077481285 -0.54630953 -0.3953919 -0.36828315 -0.082887314 -0.23653176 -0.023299532 0.4435542 0.13769336 -0.47187006 -0.17447539 0.5596201 0.30468342 0.20057142 -0.035889253 -0.64379865 -0.45808184 0.14898288 0.41325814 0.42359874 0.158393 -0.2402068 0.5556383 -0.11111766 0.28615525 -0.06562784 -0.029131584 -0.36590427 -0.57895714 0.15085858
1152508 -0.30453968 -0.1057804 0.05673545 0.12568979 -0.06972746 0.12134751 0.20652294 -0.15162426 0.079983346 -0.113400355 -0.13684566 -0.008635865 0.19049641 0.049859412 0.085806586 -0.07778093 0.33634606 0.24553926 0.012167633 0.07834037 0.2557593 0.18493135 0.085333005 -0.032828853 -0.29660335 0.030571865 -0.1824258 -0.12784041 -0.0010481025 -0.01788335 -0.119570754 -0.080056556 0.008231567 0.024574561 -0.28552914 0.17490034 -0.00067652675 -0.14533567 -0.04468029 -0.19756716 -0.03317152 0.2974701 -0.061230235 0.15322989 -0.13607328 0.042783733 0.13755515 0.12839031 0.32433656 0.081681505 0.10198276 -0.035607368 0.046259444 -0.1498858 0.017366953 -0.10726364 0.22718227 0.003261136 -0.26947698 -0.06556705 0.023391878 -0.16261414 0.1887611 0.061743755
409725 -0.04025943 -0.48521572 -0.27219012 -0.18884987 0.35878843 -0.35133323 0.21734549 0.12822297 -0.5871698 -0.07842927 -0.033652794 0.12518229 -0.26401365 0.14969221 -0.21181329 -0.18945146 -0.18630674 0.19450419 -0.12649706 -0.3765329 0.015590548 -0.2732618 -0.17406633 -0.113376044 0.03510854 -0.27314898 0.10513119 0.070376724 0.19913425 0.5231507 0.27612454 0.21785137 -0.034044974 -0.2805274 -0.32372135 0.24442807 -0.1775743 -0.47942838 0.16665983 -0.34046903 -0.20718189 0.08290498 0.04900429 -0.23248473 -0.27283764 -0.39080435 0.19790037 -0.041331828 -0.5426271 -0.08058946 0.074116856 0.45692012 -0.038050614 -0.2552135 0.12989795 -0.2329937 0.040277593 -0.08460153 0.36845198 0.39108628 0.5958649 0.19517297 0.17840125 0.017341154
1102761 -0.30319855 0.037497204 -0.3113407 0.41655043 -0.39065647 0.49730211 -0.08754112 -0.05794063 -0.007325897 0.49105564 0.52361095 -0.034295667 0.018579742 -0.1655794 0.072205506 -0.012844485 0.07915963 0.21642952 -0.361212 -0.16338441 -0.20008257 0.066163376 0.2601599 -0.013859952 0.22136521 0.08260342 0.38265467 0.32374647 0.37654537 -0.025698595 -0.141998 0.35869062 0.102923125 -0.16527139 0.17694576 0.49657363 -0.06755879 -0.66433704 0.16664942 0.58166724 -0.28463873 -0.49867648 -0.2820829 -0.037330367 0.56455714 0.14692287 -0.14423065 0.37361568 -0.11914211 0.05806916 0.09262557 -0.12371686 0.16663681 -0.18081346 0.07516118 0.35926837 0.2252685 -0.23924612 0.5618054 0.54116905 -0.24732856 0.040221408 0.16870295 -0.04178579
119956 -0.08471043 0.48346433 0.04161431 -0.37470973 0.23399283 0.05435568 0.07985297 -0.14549224 0.029041188 -0.21867935 -0.14136125 0.32263145 -0.019224713 0.12504907 0.14563 0.31256124 -0.3080351 -0.41040546 -0.27703157 0.38452864 -0.011426791 -0.51103944 0.27270347 -0.105060846 -0.18801665 0.10494616 -0.26996407 -0.05315209 0.37533736 0.14493386 0.31099018 0.05591048 -0.31522214 -0.11303057 -0.3208268 -0.110572025 -0.27757397 0.7074582 -0.19614589 0.20630874 0.12767996 -0.34575775 0.51677585 -0.009598875 0.37699685 -0.0774128 -0.12707558 0.10126435 0.39433795 -0.24720423 0.106667764 0.17271742 -0.7033939 -0.32400906 0.3699331 -0.28488633 -0.029513994 0.27976367 0.08110792 -0.20151842 -0.11436476 -0.2284144 -0.35831437 -0.031408545
36802 0.3456978 0.46434057 -0.26057866 -0.2716228 -0.12407182 0.27557793 0.49487755 -0.21156952 0.29736346 -0.13281342 0.19352229 -0.23612775 0.097040236 -0.11512455 -0.41656816 -0.6675262 -0.18858486 0.47446594 0.40001032 -0.597377 0.45611316 -0.1461933 0.49233088 -0.3083031 0.1946967 0.26503357 0.19363667 0.5667163 -0.023664668 -0.07068513 0.584286 -0.11039642 -0.015602836 -0.17062834 0.0996013 -0.58789617 0.37503636 1.0171409 0.805373 0.7451975 -0.006363882 0.3741496 -0.07392173 0.11324497 -0.10000791 -0.28276977 -0.32858786 -0.13786693 -0.12376307 -0.2467239 -0.39468175 -0.44844896 0.4126618 0.2628642 -0.23883624 0.08105945 0.11318194 0.060038995 -0.18894506 0.28136885 0.4908844 -0.24826926 0.22327718 -0.076281704
1153262 0.023740234 -0.16144043 -0.37773585 -0.26928425 -0.78392917 0.14715697 -0.15740342 -0.033022493 0.24355568 -0.057390932 0.0042543584 0.6034287 0.10552787 -0.4833524 -0.89368826 -0.42029625 0.40100303 -0.18317787 -0.2960539 -0.65057623 -0.15158138 -0.08643996 0.7229938 -0.38554844 0.7648999 -0.020935073 0.18469244 0.3774649 0.37387472 -0.14745903 0.13662763 0.04769633 -0.44222596 0.21214257 0.023111029 -0.48301706 0.39169854 0.21709828 0.6009786 0.27110454 -0.028283618 0.06984395 0.06489547 0.5026209 -0.23012462 0.050094966 -0.21766749 0.13867524 0.12034149 0.14805916 0.06590935 -0.15060142 -0.21461678 0.31912193 -0.09351804 -0.32741752 0.09757104 -0.4715117 -0.40834463 0.4083565 -0.15957318 -0.0052652853 -0.29035777 0.136962
12165 -0.039983504 0.54189366 -0.21994899 -0.2841753 -0.59208035 0.15354109 0.30982763 0.24601547 -0.19142391 -0.54192495 -0.27336958 -0.18525393 -0.2193619 0.44157833 0.116930835 -0.19032735 0.28276607 -0.095328204 0.09902538 0.16718434 -0.60657376 -0.22209162 -0.46777552 0.8159312 0.07749116 -0.23369925 0.29111636 0.12510684 -0.1818165 0.44859087 0.32898706 0.14566855 -0.09572835 -0.39075625 -0.15462479 -0.077802695 0.075806394 -0.40894705 0.2133041 -0.016114423 -0.25228858 -0.0024107909 0.0915439 -0.091179006 -0.29016107 0.0155087635 0.33296147 -0.6774763 -0.40701637 0.06742505 -0.050251916 -0.36064196 -0.048914723 0.41471893 0.36548448 -0.09604699 -0.55632615 0.38774824 -0.32161084 -0.33316997 -0.800151 -0.020315863 -0.33656138 0.35162905
10186 -0.37786663 -0.049079884 0.19786173 0.480821 -0.31197596 -0.38936248 0.9506623 -0.18087451 -0.15855159 0.6187478 -0.31724906 -0.058081333 -0.45427972 0.25232574 -0.47639698 -0.2983956 -0.14525463 0.40378973 -0.53259635 -0.47053546 -0.16647936 -0.23014088 0.34091696 -0.13074242 0.008236771 0.1206378 -0.28288847 0.07747286 0.115283854 -0.1491889 0.27374083 -0.30331853 -0.13034153 -0.5121794 -0.15354751 0.45146385 -0.12587112 0.21858092 -0.2533185 0.20807081 0.47876635 -0.13693348 0.087273136 -0.20672457 -0.5688537 0.5192555 -0.008436223 -0.8949678 -0.8725921 0.3402564 0.35351294 0.30289462 -0.2573942 0.36761126 -0.1041442 -0.06500706 -0.3292687 0.3635583 0.5892387 0.005733932 -0.17352563 0.012230536 0.16367781 -0.22417039
189571 -0.30951107 0.123560496 -0.08486451 -0.01707759 1.3024778 -0.4839042 0.17309861 -0.07548495 0.20757665 0.1360735 -0.07327749 0.08415103 -0.1402078 -0.0894894 -0.19487561 0.0037393053 -0.15342046 0.23668435 0.2887016 -0.33564398 -0.68779534 -0.08875667 0.3448092 -0.36227402 0.101198785 -0.15067706 0.14795505 -0.45368126 -0.049353607 -0.28839362 0.04037363 -0.54553896 -0.021240426 0.6994813 0.025794314 0.2969146 0.18297629 0.03703101 0.15693684 0.40143654 -0.0812017 0.06790166 -0.0663178 -0.26986802 -0.100965515 0.0010314388 0.0121849915 0.100984864 0.12090075 0.36914092 -0.085961 -0.35058078 0.44102964 0.26841846 -0.011500987 0.0778096 0.13391982 -0.26888362 0.38898256 -0.20743419 -0.71020955 0.38650525 0.37679532 0.14040737
48555 0.002352909 0.16098246 0.46880782 0.026728824 0.035900135 -0.52468723 -0.11576062 -0.11780516 -0.124504484 -0.5431268 -0.32067326 0.67050683 0.02112579 0.30828997 0.43968078 -0.10107542 -0.08049291 -0.47595236 0.18882734 0.14339069 -0.062654905 -0.47082597 0.11072337 -0.015088064 0.16642858 -0.03176679 -0.4032069 0.05489757 -0.0020443194 0.39276496 -0.10575616 0.23746102 -0.40578935 0.14879796 0.54253805 -0.27817175 -0.17225339 0.07201604 -0.37434646 -0.301378 0.22144076 -0.16761419 -0.32960194 -0.6343824 -0.27973273 -0.1290585 -0.15915039 -0.03479559 -0.26160005 0.51634836 -0.13435784 0.23677579 0.043979246 0.062213097 0.60778964 -0.19869351 0.05978973 0.20416676 0.41473854 -0.12694828 -0.37284282 0.12840615 -0.17182013 -0.14263916
1118120 0.06495267 -0.25503615 -0.094875306 0.09934292 -0.3354325 -0.055210747 -0.31369138 0.0045146416 -0.30901036 -0.07827521 -0.07239477 -0.1124009 0.22159766 0.0952971 -0.37926614 0.33442378 -0.15297273 -0.17162439 0.15348507 -0.11182008 0.20087644 -0.03815228 -0.42468888 -0.012224681 -0.3149935 -0.19597018 -0.17536962 -0.22092678 -0.08150093 -0.22931677 -0.069001086 0.13699558 -0.1446152 -0.016124051 0.6049808 -0.1274282 0.1615318 0.40000606 -0.081846565 -0.29593566 -0.34122387 -0.06446891 -0.24433954 -0.20940548 0.3011243 -0.3284268 0.2113651 -0.0022601597 0.03066979 0.14161968 0.12546317 -0.12228398 0.23088539 -0.14220664 0.29587263 -0.10228936 -0.2816807 -0.21655 0.11646043 0.09992655 0.011230422 -0.21334618 -0.17393622 0.3046862
1133338 -0.3836473 -0.16611616 0.115257815 0.12218505 -0.09519464 0.21552444 0.41443795 -0.22120409 0.22755192 -0.16436744 -0.011721923 0.10744624 0.29447657 0.09371974 0.19751191 -0.21317469 0.3549603 0.2811902 0.14821932 -0.043222375 0.33505145 0.33637938 0.04240902 -0.19885093 -0.2937442 0.018756414 -0.1351863 -0.19748195 -0.0033210255 0.048438426 -0.14234948 -0.26587617 -0.075569004 0.052546334 -0.3628122 0.2546728 0.15821192 -0.26275912 -0.17899857 -0.3882923 0.061604988 0.42292044 -0.104925215 0.22479028 -0.08322911 0.17457409 0.2502483 0.19930764 0.36449417 0.10879542 -0.020613397 -0.086934865 0.14480966 -0.2644715 -0.0570187 -0.19527411 0.060089815 -0.12781154 -0.44027504 -0.13038495 -0.041371815 -0.105275914 0.15401858 0.027812388
156977 0.34604993 0.12709764 -0.22707225 -0.121401444 0.4404435 0.38530654 -0.029109154 0.317165 0.037259627 -0.19918348 0.13507561 0.31165072 0.08544839 -0.44060573 -0.1926143 0.4290126 -0.33127922 -0.269167 -0.11932326 -0.07130811 -0.0263732 -0.36729497 0.3184107 0.47199288 -0.19466339 0.6557739 -0.1797693 0.123934045 -0.3145497 0.31302968 0.5485418 -0.24037828 -0.009379862 -0.5195942 -0.65942305 -0.004273008 -0.093861625 0.1820579 -0.27037686 0.14939463 0.25434428 -0.13993755 0.67822564 -0.14342384 0.7117516 0.46937802 -0.49853233 0.19125856 0.35592246 -0.26096186 0.19293013 0.16898173 -0.3079817 -0.31365755 0.17793794 -0.14998315 0.21839301 0.46766728 0.106512114 0.052106164 0.1882836 -0.2437551 -0.3073502 -0.3316286
1153064 0.018049648 0.20430498 -0.052205656 0.26454273 0.0789845 -0.35536987 0.16372296 -0.052935984 -0.02649372 -0.110978894 -0.14027588 -0.057523422 0.045141213 0.10299129 -0.38261077 -0.044708047 -0.31626216 -0.2802524 -0.3362343 -0.014229169 -0.41787878 0.13395329 -0.28698182 0.13458392 -0.13770099 0.24375021 -0.045780838 0.18840533 -0.002461848 0.118319035 0.19229425 -0.15821077 0.061921325 -0.32667917 0.16649882 0.25463188 -0.21051042 -0.25767544 0.17779827 0.3128068 -0.041384324 0.019633863 -0.087207966 0.27614483 -0.0016929889 -0.18517381 0.3920022 -0.25324184 0.017816206 0.14730614 -0.5066457 -0.16642082 -0.28662208 -0.18880436 -0.26764622 -0.1658979 -0.029785307 -0.25920087 -0.2726659 -0.16246916 0.07705879 -0.14180997 -0.33920783 0.3588499
1104449 -0.039316904 0.003028849 0.09509439 -0.26297674 0.26401067 0.023029873 -0.12513807 -0.22110124 -0.05641057 0.18660925 -0.12739432 0.13408172 -0.10053 -0.27483517 0.11117651 0.564468 -0.280031 -0.7643314 0.21049882 0.2643596 -0.0047333827 -0.27917004 0.26552477 0.123912744 -0.004793101 0.05245884 0.0929438 0.2525355 -0.09767742 -0.018059406 0.53433454 -0.061563905 0.20975877 -0.46167067 -0.10167478 -0.5837345 -0.24653302 0.28625277 -0.4475264 0.21545546 0.31270427 -0.41974136 0.725034 -0.32609183 0.032222554 0.0026681381 0.06551983 0.23870559 0.051093675 -0.10858311 0.037052255 0.58099437 -0.046625506 0.21737017 -0.1307035 -0.18043974 0.26781806 0.5100312 -0.23033361 -0.053655077 0.14114748 -0.3189402 -0.33422184 0.31909716
12211 0.09209477 0.38130066 -0.27139902 -0.26014087 -0.5709479 0.013804344 -0.017768232 0.31260705 -0.00922233 -0.44615462 -0.51670015 0.0706964 0.0022020773 0.013946178 0.037517834 0.036463395 0.20620674 -0.15882812 -0.027632758 -0.13884649 -0.77191156 0.06641592 -0.61460274 0.3068751 0.27416283 0.05528073 0.12251923 0.18508542 -0.33960488 0.050704747 0.09467252 0.24930252 -0.17425926 -0.06737885 -0.13251 0.06923728 0.17279738 -0.08304932 0.19845074 0.10680289 0.10807183 -0.11521042 0.27352425 0.040660102 -0.31625524 0.08133375 0.2896883 -0.20180434 -0.3694579 0.18072361 -0.06667987 -0.2109623 -0.07205346 0.107463785 -0.09575794 -0.31127757 -0.11560113 0.021582646 -0.16497613 -0.5424702 -0.5830851 0.092642345 -0.27710542 0.14854527
642798 -0.16929969 -0.3853356 0.4802525 -0.15939003 0.04022362 -0.42002562 -0.3437476 -0.41097507 0.16858697 -0.18342596 0.07120517 -0.56873965 -0.011395717 -0.4827618 -0.18136136 -0.040174395 -0.05359213 0.24359953 -0.09175692 -0.113962874 0.1695172 0.09384964 0.12178369 -0.2535987 -0.15488811 0.029854923 0.26739296 0.18096595 0.31399125 0.108431615 -0.19948903 0.08210344 -0.7753885 -0.6845455 0.104515895 -0.3488337 0.445978 -0.49736503 0.16821466 0.4190508 0.40092796 -0.09909897 0.3370118 -0.16083074 -0.021111244 0.5853855 -0.7880808 -0.18408635 -0.36604735 0.13306096 -0.3252088 0.20715077 -0.066348396 -0.6018766 0.07171567 -0.045278534 0.14866066 -0.048374545 -0.08280168 -0.1953706 -0.36865833 0.022740692 0.08663557 -0.13629355
1128959 -0.07785976 -0.05357275 -0.092935085 -0.07117599 -0.1616983 0.0033841627 0.08744261 -0.02267926 0.020879112 -0.0017531005 -0.30936244 -0.12355438 -0.12423237 -0.060013626 0.24508762 -0.0658331 0.5301463 0.3239029 0.19084682 -0.22967935 0.26294583 -0.16492076 -0.20848157 -0.03808353 -0.3581593 -0.30359793 -0.17780612 -0.18362954 -0.008633126 -0.04918898 0.024192281 0.31583884 -0.12220039 0.33757612 -0.5492496 0.60343194 -0.050501317 -0.0041075363 -0.45254543 -0.011426838 -0.093487516 0.43138626 -0.3255887 0.06509868 -0.6287319 0.104466245 0.25319862 0.16600913 0.60546416 -0.0042379326 0.016436756 -0.04287088 0.032693766 -0.074757226 0.049158897 0.030753171 0.37869546 -0.09304463 -0.18962213 -0.21761324 0.26344436 -0.26719016 0.15350752 -0.31924504
1105062 0.016214168 -0.2391131 0.03023747 0.06803591 -0.20689549 0.009158821 -0.17592901 0.04908696 -0.22198685 -0.0679026 -0.06350733 -0.17336114 0.24423851 0.061108615 -0.30869192 0.21055464 -0.018038005 -0.0054891985 0.030724086 -0.1555852 -0.012658397 0.02453801 -0.24782857 -0.057132013 -0.17573127 -0.058422755 -0.10895015 -0.14633033 -0.032405768 -0.24323997 0.05655388 0.08687777 -0.04810184 0.065472335 0.51261497 -0.0017943137 0.1747538 0.28513026 -0.063619904 -0.2712963 -0.21131676 0.002310558 -0.10658699 -0.18912806 0.1780904 -0.26104137 0.076060005 -0.025933865 0.028361477 0.094422325 0.10304955 -0.20355664 0.20062737 -0.15323693 0.18462677 -0.07196142 -0.12848914 -0.032907624 0.00055893534 0.0884099 -0.024512552 -0.18662609 -0.10687495 0.22689041
16470 0.2211384 0.1228855 0.1830853 -0.551895 0.029959546 -0.053868745 0.018889304 -0.50797015 -0.059356105 -0.03648476 0.10507113 -0.049994748 -0.113363914 0.11239883 0.07272325 -0.06852231 -0.4781644 -0.12513292 -0.17677125 -0.056226674 -0.45499632 0.7179431 -0.33435392 -0.21067117 0.1348225 -0.087537766 -0.131531 -0.57849646 -0.30802855 0.02781081 0.18497778 -0.08102612 -0.050208718 0.05661815 -0.06499849 0.087146655 0.34093776 -0.18607727 0.06414894 -0.35542747 -0.098257855 0.2647794 0.0055182194 -0.24539483 0.566462 0.23311795 -0.35882086 -0.6805555 0.11918562 0.43244305 0.010435436 -0.37591198 -0.5831598 0.3828735 -0.18849038 0.46046802 -0.12953147 -0.027158113 -0.3619207 -0.3935859 0.012944936 -0.07529275 0.16751957 -0.16536759
1128856 -0.26032442 0.368372 0.21470931 0.49365228 -0.016519424 -0.120603986 -0.36296666 -0.18747948 -0.42979905 0.00055208564 -0.19683692 0.3461209 -0.40102214 0.28438973 0.0038345282 -0.1547829 -0.07111753 0.15022631 0.10781113 0.24462882 0.20313668 0.5297766 0.12132156 0.2247028 -0.02062559 -0.041372612 0.2638814 -0.008650906 -0.08042917 0.084886484 0.4448147 -0.31105825 -0.12154061 0.19254951 0.022393024 -0.0113329915 0.03731811 -0.29795167 -0.152288 0.36006492 0.41274828 -0.29219323 0.19989705 0.020439977 0.035131726 -0.4448852 -0.1884039 -0.27055565 -0.2584402 -0.43296286 -0.070131645 0.21338467 0.05791038 -0.4890979 -0.18474811 0.09933626 -0.36506236 -0.49077418 -0.09065498 -0.24399501 0.66645783 -0.3775515 -0.28907803 -0.17689852
1130780 -0.19573586 -0.12205251 -0.12697984 -0.033886965 -0.14676751 -0.21203952 -0.060009144 -0.24551491 0.10311038 0.009695479 -0.39120042 0.29575714 0.38921311 0.19987196 0.34059295 -0.25258437 0.036361754 -0.017996063 0.25801027 0.288145 -0.018322274 0.15587886 0.3325417 -0.448836 0.005986785 -0.080024675 0.16555879 -0.20459045 0.4958047 0.00787641 0.0907628 0.2401054 0.1453244 -0.56387 0.040777102 0.119167335 -0.100168444 0.2959998 0.22063541 0.14836982 0.44224742 -0.19366746 -0.18966718 -0.3610873 -0.055925358 0.084307216 0.055132624 -0.025668435 -0.21125557 0.039279837 -0.50615567 -0.274489 -0.44158313 0.3912191 0.2951767 0.15803818 0.10895938 0.18967764 0.2541109 -0.2831753 0.23400886 -0.26574686 -0.3099671 0.030901916
64519 -0.52387214 0.07565416 -0.25124165 0.49398682 -0.42947492 -0.3505677 -0.1898685 0.25889334 -0.12808378 0.14717785 -0.24402732 -0.03070354 -0.4684815 -0.10175026 0.16423275 -0.15206213 0.2279507 0.3021973 0.013251566 0.10146158 -0.2490123 -0.09793138 0.29798108 0.35186172 -0.024724687 0.6643349 0.01539165 -0.72770005 -0.15040079 -0.48037058 0.032589216 0.09407402 -0.094762765 0.087560296 -0.06483672 -0.043834094 -0.2114121 0.025703698 -0.050486844 0.8157512 0.433896 -0.46910372 0.20962083 -0.121989764 0.23142734 0.4970618 0.28253555 -0.65492857 0.17638463 -0.3216787 0.2543034 -0.04138028 -0.45576915 0.33033735 -0.27856195 0.3169044 -0.13284473 0.15560399 0.674874 0.09252698 0.35968348 0.34341595 0.25175667 0.18386002
642847 0.029230956 -0.07146019 0.452815 0.22801834 -0.058652844 -0.3142944 -0.007089905 -0.2811643 -0.32462576 -0.2208816 0.21386169 -0.1530717 0.2593746 0.22352405 -0.27309716 0.23167925 -0.21488592 0.22182754 -0.44158655 0.3510817 -0.2660042 -0.07095752 0.13114895 0.19485286 0.19363348 0.16871364 0.79261947 0.24811572 -0.09553057 -0.04513945 -0.35471615 0.14127468 -0.498389 -0.7223741 -0.080145426 -0.3009273 0.04531138 0.016198572 -0.10355445 0.20284452 0.3063804 -0.03876241 0.0707098 -0.13244918 0.2147779 0.2084072 -0.50268817 -0.08682502 0.010417118 0.18013653 -0.31481236 -0.17062253 0.5620902 -0.008958872 0.07568432 -0.02627511 0.11145471 -0.17702699 0.013508504 0.089311786 -0.50402564 -0.36907786 0.31605718 0.088554606
199571 -0.22770886 0.038835656 0.0666141 0.25483367 -0.36892506 0.25419566 0.24658485 -0.16362117 0.12331657 0.19874322 0.12901376 -0.12648645 0.27963325 -0.046654787 0.11957069 -0.31416512 0.3170786 0.42637512 -0.17719895 0.2275474 0.020564945 0.13229439 0.17478886 0.050050527 -0.37414396 0.13441385 -0.13708018 0.2967347 0.28105396 -0.2562688 -0.3994789 0.33410102 0.04556277 -0.11253282 -0.26631144 0.4737963 0.13550848 -0.4882664 -0.08861293 0.13139665 -0.124578066 -0.17206226 -0.26352042 0.1509424 0.37781984 0.21679403 -0.059661113 0.39312991 0.37362874 0.17684852 0.23430994 -0.07986779 0.32204986 -0.3014224 0.31545547 0.1771746 0.37131298 -0.0935898 0.09230152 0.46615127 -0.14300804 -0.0017387423 0.24608444 -0.22514448
