2708 64
1114398 -0.009931728 0.29605266 0.38878006 -0.26849392 -0.36203766 0.016828315 0.22309396 0.05434083 0.4193405 -0.008377885 0.017706526 0.28650153 -0.36747733 -0.11280832 -0.6979338 0.21435714 0.46699756 -0.002180769 0.1631746 0.34290054 -0.32150772 0.10866445 0.30070373 -0.27271047 0.17631195 0.16199794 -0.11659401 0.5149883 -0.42981756 0.22545841 0.20367427 -0.03013154 0.1843045 0.52197397 0.12164309 -0.13090904 0.26513788 0.009551448 0.18601269 0.05489037 0.30386463 -0.17506003 0.05827916 -0.31151846 0.2618127 -0.22663549 0.3387082 -0.26710546 0.040418994 -0.21202946 0.09445476 -0.1963267 -0.014038779 0.19644748 0.11754521 0.29925624 0.4559869 -0.5896194 -0.0020709347 -0.3695459 0.031149648 -0.5308004 -0.021191189 0.08987866
7297 0.74475247 -0.72937673 -0.11988491 0.32995594 0.23581028 0.1118154 -0.11862839 0.48154968 -0.021358768 -0.040290944 -0.31571537 -0.27493733 0.5041429 -0.13019535 0.07017733 -0.36553767 0.22576359 -0.18761031 0.22367653 -0.012882588 0.24333097 0.2139194 -0.44769222 -0.13325526 0.041753195 -0.2856948 -0.41914058 0.041503128 -0.4427438 -0.122891985 0.20752357 -0.17598554 -0.45236367 0.11736502 0.86895853 -0.042439003 0.11529081 0.294082 -0.21427123 -0.0719188 0.012167998 0.10208313 -0.012452863 0.39057225 0.6106864 -0.16683902 -0.1891918 -0.07870371 -0.4455923 0.15054034 0.62343735 -0.7458394 -0.25169563 -0.056468688 0.18516837 -0.6977833 -0.20664257 -0.02309791 0.093445726 0.4527827 -0.047797687 -0.495697 0.14318487 -0.11479972
711994 0.6700815 -0.46419236 0.2027368 0.16659981 0.03301809 0.012709919 0.089087985 -0.118188776 -0.38789383 0.6087368 0.27734244 -0.09504391 -0.15522882 0.20146874 -0.15633887 0.304541 -0.17311971 0.39057076 0.21770974 -0.29338452 -0.022555863 -0.14398201 -0.41318917 -0.36498362 0.33411357 -0.26223537 0.5226174 -0.06668344 -0.20276101 0.5845395 0.27946112 -0.08942508 0.22649689 -0.066549376 0.5429585 -0.14748275 0.24040721 -0.08515834 0.19812551 0.14623089 0.12706058 0.28630725 -0.31260622 0.1508692 -0.036624826 -0.33137196 0.17584048 0.018659456 0.02411722 0.2892765 -0.0139700705 -0.025286553 0.07034401 0.67555845 -0.37146407 0.31886858 -0.41432476 -0.03298138 -0.18443078 -0.015462814 0.14604239 -0.26143736 0.17797378 -0.0066055823
346243 -0.30183592 -0.14606644 -0.56996286 0.47750252 -0.14912856 0.24289328 -0.01531223 -0.009495806 0.05058013 0.59575754 0.8092223 0.008148826 0.21825227 -0.31972897 0.010224473 -0.2603857 0.28332415 -0.047976166 -0.5396723 -0.34738654 -0.13294557 0.60902107 -0.05935183 0.20720012 0.4796261 0.10015374 0.48907688 -0.20437455 0.504724 0.1593757 -0.027242702 0.31532735 -0.1511163 -0.18944715 0.18433726 0.37954375 -0.1144793 -0.35343233 -0.007601226 0.11346263 -0.44497705 -0.14543337 -0.18953371 0.18952033 0.20186523 -0.26752993 0.0863811 0.3429012 -0.3238357 -0.04681761 -0.016617898 -0.18375038 -0.23279698 -0.05160846 0.31006318 0.096669436 -0.2668333 0.09265448 0.35441148 -0.10381126 -0.3648174 -0.25137946 0.109317906 0.09849249
132806 -0.09334879 0.27664864 -0.48745605 0.042561222 -0.04003383 0.10277581 -0.15255031 -0.5061699 -0.19151767 -0.36209044 -0.22079661 -0.5039651 0.16031489 0.081676885 -0.38087475 0.3366008 0.6735757 0.43900007 -0.2582915 0.87225074 0.48366544 0.09013003 0.23132427 0.06857588 -0.5805872 -0.14233778 -0.2657895 -0.08247707 -0.09681182 -0.38601008 -0.56350285 -0.16851836 0.03536567 0.16688843 -0.46847546 0.22387297 -0.088743 0.036443908 0.036988944 -0.31854305 -0.44292265 0.694723 -0.2804861 0.5252001 0.082987025 0.036244825 0.10698873 -0.060780752 0.22027592 -0.25308007 0.16683316 0.43233442 0.14212613 -0.284509 -0.27415663 -0.32247704 0.82067144 -0.26819497 -0.18893461 0.034209266 -0.09065844 0.17261009 -0.13306557 -0.13024656
1132285 -0.09879647 0.43257326 -0.116825484 -0.318586 -0.40585396 -0.15157238 0.3005181 0.07277423 -0.14074522 -0.5346664 -0.23371202 -0.08702162 -0.15370587 0.19895768 0.07448507 -0.1443271 0.15328145 0.12813346 0.105333485 -0.044312716 -0.30767673 -0.23500793 -0.28075352 0.3251665 0.09680771 -0.18956499 0.096643634 -0.16528618 -0.33907446 0.18227614 0.14566752 -0.05205592 -0.13623562 -0.35965493 -0.18759565 -0.31366903 0.09346631 -0.3953998 0.0062281424 -0.004767263 -0.3770076 -0.09901018 0.3167764 -0.01189458 -0.12668754 -0.2926386 0.25862715 -0.13635907 -0.22270112 -0.13040763 -0.066958144 -0.201224 -0.1278547 0.23497604 0.22952121 0.050566096 -0.28271446 0.17351933 -0.079543196 -0.05228227 -0.50011706 -0.0045250645 -0.34815642 0.24064209
568857 -0.5117536 -0.01140216 0.3009525 0.11426683 -0.07547704 -0.1688286 0.47679994 -0.036746044 -0.21678375 0.29288906 -0.3296603 -0.018227132 -0.024606632 0.045457784 -0.103384525 -0.28847346 0.82125056 0.6706275 -0.045055516 0.22784132 0.567169 0.29301944 0.20796023 -0.0994089 -0.5425527 0.34447524 -0.27596802 -0.22790882 -0.09667578 -0.026847474 -0.16777235 0.24493752 -0.29306927 0.5258766 0.026298702 0.30604574 0.06406494 -0.50322545 -0.040998973 -0.41218933 0.20066226 0.44277468 -0.01639165 0.13488208 -0.5921009 0.33231157 -0.1183285 0.41111454 0.5624142 0.54910266 0.20718929 0.26192093 -0.03920336 -0.20430024 0.1612235 -0.03610695 0.30791372 0.1985738 -0.32148933 -0.12122901 -0.114310734 0.024483737 0.37646225 0.23032518
12238 -0.064766034 0.2865616 -0.08677996 -0.18795726 -0.38182694 0.29021958 0.32870165 0.3410201 -0.24192965 -0.32638398 0.057912957 -0.18889028 -0.44875747 0.37990582 0.16418162 -0.363006 0.08949973 0.22012037 0.20275417 0.22543564 -0.259383 -0.30537185 -0.10684309 0.96905935 -0.23338585 -0.3881959 0.39208588 0.18372093 0.224404 0.47590077 0.36346593 0.09058191 0.060042374 -0.23202558 -0.11345929 -0.11146791 0.024145084 -0.27325052 0.14239335 -0.02031804 -0.26178265 0.22478372 0.03495831 0.09235003 -0.11085138 -0.026681587 0.1938724 -0.7346706 -0.3644245 0.082624465 -0.14691089 -0.24381368 -0.12930357 0.47117245 0.4559958 0.15676627 -0.45338485 0.5130627 -0.29113886 -0.25476244 -0.6263771 -0.15240298 -0.33396593 0.27716196
25794 -0.27826947 0.10777658 -0.3901408 0.023450473 0.15451838 0.68020874 -0.10942555 0.2784431 -0.3109229 -0.3421874 -0.32389045 0.19035265 -0.035301786 -0.04748898 -0.51511073 0.27403077 -0.1744803 -0.6160731 -0.11401022 0.13486163 -0.4035502 0.31047815 -0.3799585 0.32329836 -0.25230655 0.2384771 0.20063794 0.572552 -0.17519522 0.333331 -0.041287858 -0.09119921 -0.236242 0.2922657 0.40929085 0.37169635 -0.55841887 -0.060998775 0.2115822 0.16359001 -0.04125909 -0.41220936 0.10004247 -0.24360968 -0.06660573 -0.021269448 -0.2621962 -0.3952681 0.11353762 -0.049763586 -0.3446674 -0.3167107 -0.3392073 -0.04593723 -0.5860509 -0.29650334 0.1569766 0.35172877 -0.12055038 -0.0135568315 0.41344103 0.036955077 -0.3624183 0.31929055
1108258 0.02975606 -0.49015892 -0.0024885705 0.110744834 -0.14839923 0.27202874 0.10319626 -0.34467602 -0.08897057 0.20262204 0.22490692 0.038016826 -0.26318017 -0.12690781 0.2448598 0.031811617 0.071208045 0.15279385 0.6821649 -0.37060612 -0.19002575 0.0031755301 0.271348 -0.44794002 0.24591477 -0.39698425 0.554118 0.39422366 -0.16804804 0.4915991 0.35352877 -0.40454003 -0.2506037 -0.046652578 0.0629085 -0.047373682 0.07548468 -0.4766965 0.16401033 0.21505482 0.13721162 -0.22872764 -0.07955795 -0.4141711 -0.19314161 0.35992658 0.048588548 -0.0024312548 0.21569411 -0.37856612 -0.43320987 -0.4361508 -0.22012618 0.55185795 0.15055163 0.11648383 0.23446496 0.039010778 0.0049582776 -0.43488845 -0.51512796 -0.23847468 -0.26282725 -0.16131976
1131198 -0.13681738 -0.18588533 0.09599769 0.547973 -0.13158353 0.24185523 0.28834566 -0.49999034 0.3484226 0.13600735 -0.081051305 -0.0014082504 0.5218719 -0.11739444 0.10597247 -0.38420343 0.5177173 0.3365669 0.14286372 0.48312607 -0.0455053 0.13442919 -0.15549336 -0.29634595 -0.32166785 0.14215751 -0.41254717 0.15258346 0.49148172 -0.07506546 0.2108525 -0.15256037 -0.2756023 -0.21639353 -0.44361356 -0.05626319 0.22344522 -0.28803447 0.054259155 -0.48311746 -0.1099305 0.14498524 -0.2894231 0.44120196 -0.09497852 -0.2944784 -0.0022637655 -0.18039457 0.30231723 0.1930712 0.010263774 -0.12039981 0.12306356 0.0075323954 0.10437192 0.1288041 0.23555426 0.026498195 -0.16010864 -0.2728413 0.09695779 -0.047109257 0.009723615 -0.11184846
1131195 0.19571273 0.06735885 -0.6057507 0.005495284 0.07187032 -0.08081031 0.082480125 -0.093995556 0.09005054 -0.075098984 0.07666292 0.110942766 -0.4529271 0.11160783 -0.39878365 0.22683851 -0.12876885 0.05646967 0.20026843 0.21791077 0.11670867 -0.32716474 -0.01967848 -0.23347756 0.12925582 0.3119934 0.23762389 -0.22912371 0.36187917 0.18746282 -0.0039534075 -0.21011406 0.10690865 -0.61931103 0.76399386 -0.11293361 0.047049236 -0.10579091 0.18073146 -0.25133196 0.02249956 -0.02783021 0.18879227 -0.50530475 -0.69449633 -0.15899952 0.18238862 -0.4945117 -0.5855074 0.102850966 0.16464551 -0.12097861 0.05583889 -0.17055455 -0.26824266 0.21547078 -0.006171689 -0.19311687 0.036431093 0.0169813 -0.27071983 -0.41585717 0.07013406 0.025205236
634975 -0.42678034 0.08789469 -0.17224984 0.26451027 0.24119177 -0.06143574 0.42912567 -0.47326502 0.055581346 -0.31426254 -0.33563095 -0.023874693 0.42197677 0.42995352 -0.044738133 -0.31566212 0.52232 0.51750183 -0.16083245 -0.16342933 0.5151801 0.22766428 0.08788722 -0.103264414 -0.42313325 0.14264373 -0.109757334 -0.11204286 -0.2792307 -0.0066722655 -0.24619494 0.02982108 0.09840904 0.17896834 -0.62172234 0.3292463 -0.051180415 -0.44435224 -0.08661371 -0.5020909 0.06813286 0.65590775 -0.12931792 0.119658776 -0.073404424 0.06888586 0.31327406 0.31083432 0.4088877 0.031249717 -0.12372949 0.010143075 0.06713013 -0.2952085 0.34286296 -0.27661225 0.39471555 0.313478 -0.42236853 -0.04296718 -0.01926908 -0.2002669 0.31968826 0.08084001
399339 0.24633466 0.14658582 -0.73373467 -0.29961666 0.0002593884 0.14589731 -0.15674457 0.2840675 0.5043665 -0.03249272 0.23847716 -0.6603569 -0.18321878 0.10025284 -0.047539588 -0.30687213 -0.052430253 -0.13566317 -0.06781471 0.21098725 0.35225365 -0.25587514 -0.06792987 -0.056751452 0.08573991 0.15241802 -0.051389836 0.16370308 -0.32342762 0.105456464 -0.2450833 0.057610486 -0.1141891 0.15679818 -0.18645419 0.009680602 0.36078656 0.55570436 -0.037368547 0.3872693 -0.16901343 0.31277254 -0.68484235 0.2729693 0.09670141 -0.08220665 0.20403829 0.060654365 -0.1310937 -0.13172983 0.15908793 0.38118052 0.1715912 0.08414903 -0.30765343 -0.04845329 -0.44038233 -0.37174192 0.2622876 0.24396059 0.376711 0.2955139 0.29122058 -0.026026642
1126315 0.07805277 -0.57163143 0.26158893 -0.112685524 0.3086009 -0.14050582 -0.36695457 -0.34387624 0.4417985 0.025915565 0.24645421 0.53892654 -0.36612427 -0.33514142 0.12530848 0.18323696 -0.3003983 0.38643038 -0.020964889 -0.02821392 0.33070847 -0.18864413 0.16695946 -0.05754795 0.31872797 -0.46097535 0.34421036 0.35500482 -0.0013501913 -0.15724483 0.4441436 -0.23739396 -0.085369386 -0.037966646 0.25378624 0.022779465 -0.29416355 -0.06467983 0.31176585 -0.22400504 0.64703536 0.083429925 0.43170756 0.060247082 -0.10235812 0.060993563 0.004508394 -0.4241299 -0.09064338 0.3040216 -0.20610088 -0.22690824 0.14646125 0.2714973 0.23377705 0.14486068 -0.03339279 0.36599475 0.124120966 0.2752323 0.08007196 0.3297998 0.3198452 -0.13830301
1112665 -0.1784487 0.04023546 -0.2334998 0.2206182 -0.39775857 0.23889636 0.020656915 0.060178623 0.014410884 0.4044253 0.28582093 -0.057990726 0.042284515 -0.14559308 0.1620045 -0.035577998 0.0191138 0.14902455 -0.2376525 0.12391168 -0.265868 -0.06281863 -0.048071165 0.054452807 -0.07633859 0.050270967 0.070161894 0.46804962 0.4376098 -0.12841132 -0.38932997 0.22800006 0.19625464 -0.29791766 0.024452139 0.47135115 -0.106279984 -0.5444331 0.17542627 0.43411997 -0.30584463 -0.41929963 -0.33481005 -0.010859697 0.56534326 0.19358923 -0.22034578 0.18664354 0.12474626 0.0044330666 0.098576665 -0.20347734 0.18486588 -0.051848065 0.2577839 0.543883 0.29862338 -0.14339796 0.4669089 0.6146869 -0.331739 -0.00852438 -0.009181906 -0.23092578
1104300 0.07723849 0.064458236 -0.004446798 -0.062194366 0.42219925 0.15514351 -0.085132636 0.23862067 0.30072612 0.09800535 0.17548849 0.4370063 -0.35091662 -0.65536517 -0.045789327 0.120903105 -0.3276919 -0.089102834 -0.16758402 0.08779144 -0.19237557 -0.10631806 0.26994443 0.32223064 0.07896958 0.3442114 -0.14155732 -0.3421793 -0.12970427 0.20711155 0.18162335 0.4304078 0.33057356 -0.25114158 -0.19515206 -0.1658262 0.057036567 0.018509794 0.09472546 -0.10959836 0.37523347 -0.10959215 0.5163595 -0.25672907 0.71507615 0.473183 -0.22864003 0.37113443 -0.18247227 -0.6080947 0.29759663 0.13875973 -0.262791 -0.091514185 -0.010341629 0.11113146 0.4226043 0.16975772 0.057938058 -0.24488567 0.24434593 -0.37665054 -0.13633811 0.013754817
20942 0.0227141 -0.16036895 -0.089492 0.2373522 -0.483268 -0.2641396 -0.28326175 0.30894798 0.3420505 0.15766186 0.08846716 -0.105597444 -0.1158391 -0.24255289 0.06918485 -0.061007686 0.15281919 -0.056371827 -0.6048878 0.18114442 -0.18017547 -0.13339546 0.08404335 0.14182326 0.010492099 0.10954881 0.2868176 0.26264024 -0.11919332 -0.144089 -0.4242355 0.045125335 0.27402496 -0.07812204 -0.23797175 0.5903572 -0.113213524 -0.3693059 0.028123837 0.5972173 -0.27064142 -0.22130321 -0.4314564 0.05266372 0.5183791 -0.3492261 -0.04737026 0.035345066 0.30715504 -0.11888479 0.2967641 0.105533496 -0.22493283 -0.12559833 0.3666171 0.6061017 -0.13948381 -0.12959576 0.5750164 0.49630916 -0.08907265 0.39018425 0.036719617 -0.18623975
17477 -0.242783 0.13391148 0.32951486 -0.15017529 -0.3082639 -0.10722161 -0.46888345 0.115704 0.11985682 0.72068995 0.5639676 -0.017387256 0.1499106 -0.21307106 0.12664278 -0.5583482 0.22198266 0.2581312 0.08221491 -0.21474491 0.12020674 -0.22075567 -0.09974487 0.16562225 -0.29576403 -0.059117492 0.26345006 -0.26466107 -0.050615404 -0.0030086052 -0.00241088 -0.02852409 0.41734588 0.17919989 -0.3160067 -0.3032723 -0.25635028 -0.22916275 -0.31078812 -0.045845386 0.113027506 0.284789 -0.42916656 0.60688996 -0.2836346 -0.29073328 -0.3627036 -0.3328773 -0.03257485 -0.018905196 0.3369595 0.045575667 -0.47756666 -0.25562158 -0.10796786 0.27101582 0.5451721 0.19072719 -0.0052559753 0.28545618 0.26019087 0.67227924 -0.12148684 -0.13259281
400455 0.15740255 -0.5659322 0.24157147 -0.21836399 -0.43510714 0.012348536 -0.040730026 0.15800506 0.07965325 -0.012901017 0.6784962 0.20793085 0.1403347 -0.28856602 -0.48068127 0.42455718 0.08565206 0.44253153 0.16443054 -0.016345982 -0.057001796 0.38186124 0.033454552 -0.27677715 0.6373045 0.20538259 -0.24588504 -0.12725389 -0.42614126 0.32967153 -0.008674845 -0.118186176 0.3434838 -0.027616702 -0.11867373 -0.25153577 0.10839743 -0.13173245 -0.1857673 -0.42683232 0.23590773 -0.119174674 0.26693115 -0.25509053 -0.081674725 0.019121129 -0.123103306 -0.013518984 -0.5543451 -0.06632483 0.21421202 -0.005134393 -0.22681198 -0.35563686 -0.32074007 -0.1623061 -0.006926605 0.018768404 0.15595172 -0.057569973 -0.110199064 -0.5579642 -0.04533523 -0.35459104
1135746 -0.011360242 0.63144666 -0.3376051 -0.42352366 -0.36101058 -0.32515353 0.30910638 0.3551508 -0.11567396 -0.38477328 -0.03229414 -0.0917428 -0.05882533 -0.058924146 -0.083127186 -0.057740927 0.25496763 0.1525683 0.117734365 -0.2392128 -0.17899324 -0.107833385 -0.27031794 0.44084403 0.05387815 -0.66525084 -0.2306154 -0.15446457 -0.13590148 0.10645084 0.081208736 -0.10939501 0.122492455 -0.29210842 -0.42111868 -0.075119875 0.35655677 -0.43176 0.45784226 -0.20678735 -0.29410788 -0.5788802 0.42967626 0.035365403 -0.21479163 -0.122498035 0.692222 -0.19855511 -0.64092433 -0.15607904 -0.17092392 -0.33112863 -0.045124535 0.3801915 0.65392697 0.08169344 -0.060345627 0.07888042 -0.095474154 -0.04164357 -0.25194612 0.0068097753 -0.38497937 0.40406072
18532 0.04621698 -0.30526522 -0.31191802 -0.10301885 -0.12352389 -0.37325054 -0.06090159 0.31674948 -0.3276354 -0.660741 0.026850138 0.28259277 0.19120996 0.27121076 0.20928402 -0.08885439 0.07843559 0.4400251 0.197466 -0.13277754 0.2804261 -0.21922639 -0.0013416903 -0.27820367 0.12323487 -0.27522835 0.45183554 0.1835192 0.018596478 0.60633904 -0.07554572 0.1087743 0.43344438 -0.040389434 0.5431299 -0.10049159 -0.18460865 0.11518766 -0.2163975 -0.022676563 -0.25503615 -0.0029870246 -0.037473056 -0.44072467 0.06671129 -0.1717414 -0.04007701 -0.19660449 -0.15505412 0.16634434 -0.5954244 0.4586966 0.09449946 0.080188505 -0.021991609 -0.043425806 0.030024756 -0.010402064 -0.049868304 0.22880322 -0.4819393 0.33410543 -0.21654294 -0.15604971
6318 -0.7967968 0.107585415 -0.20657098 0.5696954 0.094296284 -0.24732065 -0.10325721 0.5771763 0.0910395 -0.41566205 -0.35580894 0.5575855 -0.17591691 0.6902366 -0.21869765 -0.08814284 0.0937637 -0.27658632 -0.16551957 0.0025761616 -0.21754634 0.02889335 -0.11638873 0.008144847 0.17798273 0.5687154 0.34139785 -0.17657055 -0.14060055 0.42373165 -0.05871688 0.2576424 -0.6037086 -0.15720503 0.6647158 -0.50809956 -0.29445997 -0.35537857 -0.014253421 -0.013399247 0.5406907 -0.6639556 0.38236517 0.5215502 0.11683098 0.048430804 -0.009719746 -0.4258074 -0.14214025 -0.4447037 -0.4470016 0.16732547 0.045611557 0.5002723 -0.2253867 0.38371664 0.29255974 0.2794767 0.16964749 0.43158194 0.73988307 -0.18903558 0.013162709 -0.14499255
1111052 0.4317859 -0.2019091 -0.45792395 -0.3858123 0.016384484 0.34442905 0.012856057 0.14332607 0.071427375 0.33749914 -0.08435307 -0.558531 -0.23004897 0.0002671838 0.08900476 -0.067560926 0.07010284 0.21472384 0.10737104 -0.08432791 0.1746276 -0.27965808 -0.22504257 -0.057638865 -0.026374111 0.18190965 -0.30769098 -0.3985598 -0.130983 0.135985 -0.101591304 0.23986796 -0.18533352 -0.346613 -0.09491671 0.09736769 -0.034821063 0.37364352 0.52815676 0.27411598 0.16039912 -0.09015691 -0.32661885 0.2230821 -0.33878785 0.118067674 0.23277783 -0.014939533 0.4563542 -0.028518427 -0.3360749 0.068946436 0.09785408 0.28464964 0.20661218 0.26849112 -0.51882154 -0.23702902 0.51609415 0.07696657 0.42074177 0.47297955 0.30351895 -0.17409417
1152379 0.19138515 -0.017135825 -0.10228045 -0.3758234 0.023749942 0.0022237038 -0.14839526 0.044079036 -0.13939485 0.046472073 -0.123893395 0.018551905 0.060455035 -0.10200155 -0.03917511 -0.11102735 -0.18668392 0.27046642 0.2366806 -0.19440325 0.22806731 -0.08349858 -0.21772552 0.011959505 -0.37150458 0.3040664 -0.15581246 -0.047821704 0.5886089 -0.22718737 0.0711242 0.2389738 0.0334664 0.1536275 -0.07710305 0.0065470706 0.11646804 -0.3718644 0.15384345 -0.029092096 0.20061828 -0.111309454 -0.22284767 0.06367296 0.060898807 -0.06481193 0.30631483 0.14346923 -0.38324383 -0.013259273 -0.45759347 -0.2904621 0.09522654 0.303845 -0.25690076 0.031923275 0.15594117 -0.09487796 0.025798755 0.3573232 -0.26307067 0.35561132 -0.25077045 -0.040473174
90888 0.041471433 0.16198716 0.21308029 -0.14404015 -0.42562038 -0.4030559 -0.41644758 -0.1628724 0.057452314 -0.23102804 -0.19988744 -0.2962617 0.10238981 0.2157192 -0.06366865 0.38476357 -0.17425117 -0.63320154 -0.065953344 0.012469728 0.26070276 -0.08135288 -0.46262825 -0.2156543 -0.3699355 -0.22971107 -0.1288011 -0.03332147 0.5333243 -0.25385144 -0.09018286 0.10203548 -0.18662582 0.11128752 0.73533064 -0.027653122 0.12960395 0.7642283 0.1106195 -0.83386225 -0.7356298 -0.11965232 -0.64031166 -0.31095955 0.49101138 -0.7707721 0.21692035 -0.3030048 0.1051277 -0.26385835 0.382801 0.39684507 0.06775539 -0.4923804 0.5744171 -0.1164878 -0.23406044 -0.05102026 0.12877747 0.0988059 -0.033170737 -0.089392945 -0.22810835 0.20749293
594025 0.3130665 -0.24461883 -0.33536014 -0.36795416 -0.025271595 0.028838744 0.14859892 0.07248827 0.02328483 0.45155966 -0.047707066 -0.4728865 -0.018236559 0.10293983 -0.10043308 -0.23031321 0.0051756934 0.19101754 0.11841936 -0.04744012 0.16945095 -0.15535505 -0.3113267 -0.10075736 -0.14797777 0.25412858 -0.23876807 -0.3382209 0.113521814 -0.26785722 -0.041984763 0.10749194 -0.05098771 -0.16703583 -0.20452943 0.27340195 -0.043671012 0.17679434 0.42176965 -0.08021877 -0.12320047 -0.050693274 -0.40934408 0.124619596 -0.55366904 0.15077536 0.010366525 -0.031857256 0.2552015 0.09637572 0.111695126 0.20828222 -0.05094843 0.08237882 -0.11932522 0.28370547 -0.4506184 0.07079689 0.25132874 0.08796732 0.48074293 0.3827051 0.28640583 -0.25285053
57922 0.31440923 -0.17727947 0.28500316 -0.30911502 -0.40705502 -0.39502254 -0.20051718 0.46333295 -0.042848997 0.18844834 -0.043062247 0.177353 0.3965489 -0.61264837 0.21116339 0.14392115 0.09744223 -0.3284775 0.048830844 -0.26117474 -0.27721968 0.10929805 0.4617283 -0.14536174 0.6197666 0.25667474 -0.069201246 0.55330485 -0.068213426 -0.17085247 -0.20980114 0.16927876 -0.12553586 0.3576061 -0.19570245 0.091214634 0.28412357 0.24577229 0.38658375 0.04472231 -0.0076295794 0.02758344 0.11568984 0.3720004 -0.18918367 -0.12481167 0.7826924 0.39813253 -0.3317332 0.13635407 0.013981551 0.1751645 0.09959012 -0.52845055 -0.033936955 0.022722645 0.26084617 0.2117175 0.2667624 -0.37691656 -0.37334692 -0.14696889 -0.026811814 -0.13357253
27531 0.35517818 -0.88539755 -0.014324978 0.23621882 0.5198283 0.49289662 0.46403658 0.12156095 0.29566136 0.19650622 -0.20256361 0.17586827 -0.51283383 -0.355673 0.13544479 -0.51514274 0.5166532 -0.057341114 0.007921523 0.33059114 0.12539448 0.3251221 -0.34635454 -0.5762269 -0.29453266 -0.664322 0.03700358 0.47953913 0.2802409 -0.13888094 -0.25819793 -0.028365986 0.540772 0.024059575 0.122262724 -0.021412695 -0.06043576 -0.18800396 -0.26395348 0.4985426 -0.17002703 -0.62493587 0.0529415 -0.07226374 0.7181464 0.18392916 -0.29188207 -0.34609014 -0.39363584 -0.09883714 0.5064677 -0.22611825 -0.51604974 -0.1205661 -0.011010519 0.2794751 -0.2300999 0.17550339 0.59600824 0.18780981 0.01117829 -0.08829374 -0.14774135 0.10496368
1154103 -0.17920081 -0.39790857 0.1672055 -0.030129468 -0.18728873 -0.45437402 0.4848886 0.06925365 0.3392008 -0.10090259 -0.24099821 0.1810135 0.7227113 0.2090816 -0.38549486 -0.26518875 -0.2923908 0.12498836 -0.12222312 -0.31789464 -0.5093537 -0.5601211 0.35952756 0.27516583 0.7004784 0.10475062 0.4857944 -0.17766006 0.18937941 0.15634154 0.22701068 0.30873656 0.6698772 0.029205613 -0.05106853 0.29961973 0.028849438 0.10758814 -0.5047208 0.032276593 0.18131389 0.23146746 -0.111101605 0.11209442 -0.09198279 0.22344199 -0.29002136 -0.07222295 0.08683 -0.3773456 -0.02567701 -0.09675653 -0.15025261 -0.30329543 0.28638983 -0.3238686 0.30805257 -0.024868986 0.0784972 0.007848134 0.3058605 0.6238623 -0.42030704 0.19361438
1128198 -0.30795518 -0.41106653 0.13205096 0.36871132 -0.09335539 0.30738446 0.40238738 -0.49442855 0.24409662 -0.40928867 0.13935179 0.2715305 0.030426275 0.14260477 0.37732175 -0.01928284 0.26480204 -0.103472576 0.28142312 -0.01455212 -0.2664107 0.15588857 -0.3672731 0.08959437 -0.23082891 0.30294168 -0.5134578 0.026134515 0.4346092 -0.08342869 0.044863537 -0.2638673 0.14802912 -0.2174542 -0.42451155 -0.2254607 0.13860331 0.14842162 -0.04151864 -0.15461385 0.05802579 0.16281308 0.111842416 0.392652 -0.010919917 -0.0713124 -0.005130703 -0.3219849 0.15135777 -0.023053695 -0.2621695 -0.15756103 0.1684173 -0.056328647 -0.104100876 0.42258462 -0.1659036 -0.4691719 -0.42445883 -0.23714487 0.31618252 -0.26335004 -0.077279955 0.14521118
19621 0.8887253 -0.48498607 -0.38297644 0.39573935 0.6103927 -0.09105888 0.06559116 0.62248206 0.07402057 -0.040993053 -0.3315092 -0.25156862 0.71460867 -0.24638958 0.7154416 -1.0578272 -0.054783694 -0.14461046 0.3047886 0.5044112 0.6866874 0.061847877 -0.07106907 0.10370254 0.25559774 -0.3189332 -0.5768388 0.45012632 -0.97388583 0.013472065 0.4065131 -0.2661695 -0.83247566 -0.052685693 0.33855954 0.21863995 -0.16870043 0.14025007 -0.50888896 0.18258649 0.36009684 0.26135373 -0.34765077 0.78766274 1.000832 -0.13573718 -0.4477291 -0.076423876 -0.88328946 -0.037644044 1.052821 -1.1829014 -0.3727538 0.41699064 0.029347928 -1.3559306 -0.29434386 -0.5615456 0.08373955 0.3291389 -0.3469244 -0.47331962 -0.045772213 -0.2628858
54129 -0.9753045 0.20547356 0.37614265 -0.4891083 -0.14088506 -0.29566297 -0.5119796 -0.054928377 0.24739088 0.45519063 1.2312077 0.08861296 0.66585875 -0.0785055 0.21966976 -0.5090785 0.2748068 0.2439873 -0.022807771 -0.13392329 0.19312815 -0.087773696 -0.5311853 -0.66766876 -0.3221139 0.0031542473 0.18464522 -0.26104173 -0.92842305 -0.025211232 -0.09437248 -0.107152335 0.6021954 -0.10192676 -0.44893178 -0.08806306 -0.7471846 -0.21291566 0.09309802 -0.39867604 0.30384198 0.08838912 -0.5435449 0.44840297 -0.27979228 -0.38307878 -0.5375405 -0.401753 0.17170401 -0.07619131 0.30842948 -0.001195371 -0.160701 -0.46387076 0.100182064 -0.41956696 0.9049733 0.60177344 -0.16867897 0.55668277 0.34147784 0.1643738 -7.223162e-05 -0.10003345
509315 -0.024629727 -0.19834743 0.0821136 -0.2827337 -0.16248894 0.09204926 0.11169782 -0.41648024 0.07733487 -0.22730775 -0.15998138 -0.048004813 0.29802188 -0.1823266 0.19252987 -0.37359974 0.27368298 0.6783571 0.33068112 0.07628974 0.11127787 0.06744515 0.09122264 -0.016043853 -0.42154586 0.6840514 -0.33668506 0.010329782 0.76824546 -0.20817497 0.23234783 -0.19626749 -0.3552487 -0.08259266 -0.62423325 0.0028831093 0.4477571 -0.69127935 -0.44338775 -0.38353953 0.2896249 -0.020293707 -0.61387944 0.17859238 -0.42936915 -0.3538194 0.18204632 0.0037118075 -0.16180208 0.3308868 -0.012905289 -0.3875562 0.34690523 -0.020636024 0.020379603 0.23167627 0.31416562 0.024824115 -0.18348485 0.048385754 -0.031115392 0.18715772 -0.08388221 0.3136149
446271 -0.08079524 0.33087128 -0.3965052 -0.25076446 -0.104312904 -0.009164053 -0.2994647 -0.55683845 -0.18661833 -0.21811433 -0.35843703 0.45730984 -0.45847133 -0.6685881 0.07234946 -0.15700386 -0.2095121 -0.34212586 -0.48302218 -0.51589847 0.14853002 0.50040257 0.43469402 -0.5322151 0.17159286 0.8922284 -0.24887434 -0.118587084 0.19482844 -0.4337789 -0.029147312 0.2581579 -0.06559356 0.14258783 -0.11335617 -0.14351119 -0.6068355 0.23604979 -0.26981673 -0.44114494 0.49335444 0.22527422 -0.22934136 -0.40432087 0.19800599 0.05249047 0.103441104 0.09710951 -0.46783113 -0.133391 0.23079729 -0.24300373 0.77054864 0.26531193 0.34812397 -0.030233929 -0.23485202 0.5649113 0.08642066 0.07761083 0.121037826 0.0029520078 -0.69158024 0.24147576
1117049 0.21334039 0.22694239 0.07829066 -0.18738346 -0.19581416 -0.22175977 0.06534729 0.167087 0.06808782 -0.30759558 0.2647943 0.30763644 0.118329145 0.14180318 0.009782646 0.4096773 -0.13289694 -0.15415627 0.13175659 -0.057499968 -0.30567625 0.14172193 -0.3639061 -0.42448238 0.4852059 -0.40944308 0.4239528 0.3049047 0.16674805 0.35931376 0.14055584 0.18963428 0.20857625 -0.37258402 0.59641373 -0.25137725 0.14637674 -0.25401214 -0.052077726 -0.3202086 0.16220722 -0.35072514 0.49648365 -0.39127865 -0.059737664 -0.1193217 -0.12384934 -0.33574334 -0.6536672 0.1222669 -0.3854534 -0.352637 -0.20765105 0.33287212 -0.11487635 0.2023841 0.1455147 0.19860972 0.23934907 -0.19669385 -0.5896446 -0.10213292 -0.1977898 -0.11628413
595063 0.20208883 0.034015965 0.19642217 0.17785054 -0.2551679 0.29484132 0.08788236 0.01548767 0.008724436 0.24876608 -0.34755415 -0.12752433 0.30474466 -0.23164797 0.24992958 0.12486022 0.54188436 0.29272956 0.36060762 0.39904943 -0.32259795 -0.20261429 0.028668221 -0.037605584 0.022711001 0.14464489 -0.28990468 0.058786236 0.027717952 -0.28784195 -0.12787847 -0.008435479 -0.38449863 0.2959363 -0.3972934 0.32340747 0.0277111 -0.30599475 -0.7741124 -0.60991067 0.27083683 0.5314954 -0.021235632 -0.016303003 -0.7350524 -0.09412673 -0.37570506 0.21642959 0.37449387 -0.073046744 0.22886905 -0.07317505 0.17797403 0.028545467 0.07353252 0.111224584 0.10161873 -0.082854226 -0.5942709 0.22070706 0.32563487 0.088136636 0.31156844 -0.119940765
4329 0.37181595 0.29808545 -0.18816195 -0.20743626 0.337913 0.15629157 0.059868082 0.12076376 -0.20107092 0.06918012 -0.18196869 0.2558427 -0.0011964102 -0.38707873 -0.30249035 0.5827098 -0.465181 -0.84018874 0.21603143 -0.060789105 0.33001414 -0.69051886 0.31140247 0.6734612 -0.45669833 0.7292641 0.037313562 -0.1491969 -0.49117616 0.1732684 0.3610959 -0.7195235 0.2524579 -0.82180667 -0.54591596 0.2539091 0.06986147 0.30313435 -0.60920507 0.13288803 0.63847494 -0.6243785 0.5668876 -0.18758354 0.16856116 0.04660407 -0.2101251 0.34626523 0.7326092 -0.20448864 0.42917776 0.38383391 -0.30481496 -0.34367245 -0.20000362 -0.09946715 0.21632476 0.2947257 -0.071978316 0.15377699 -0.2169306 0.21811953 -0.08452454 -0.36167434
67245 0.17733118 0.44508582 0.46990743 -0.10154453 0.12199896 -0.013520974 0.31258237 -0.017369237 0.48598683 -0.06824925 -0.52984023 0.0070226477 -0.10246816 0.2380558 0.3423534 0.071803 -0.12010149 -0.49862635 0.4277472 0.35912886 0.03613855 -0.0374935 0.25648782 0.29429412 0.016155714 -0.20515749 -0.5925653 -0.0010033475 0.3238641 -0.26133773 -0.014417847 0.49716002 -0.28797048 0.0042206803 0.16642319 -0.32372078 0.023962805 0.021857196 -0.22192678 -0.19523098 -0.021568561 -0.36151302 -0.6967251 -0.26835507 0.3142207 -0.012238001 -0.5114593 0.3731328 -0.23793367 0.078331925 -0.07319646 0.523456 -0.20466101 -0.4079498 0.18421403 -0.47415656 0.09590338 0.3329405 -0.1508943 -0.02390042 -0.051962715 0.41656098 0.010475057 0.2969428
59045 0.13569406 -0.11457214 -0.026706427 -0.4586677 -0.07953822 0.38143742 0.054729514 -0.03943708 0.13316956 -0.13836902 -0.4129917 0.060151845 0.20540024 -0.013220971 -0.37711245 0.22527541 0.6199967 -0.06504139 0.0023372516 0.6479043 -0.10955217 0.075029716 -0.45028853 -0.091505304 0.63507104 0.036635 0.041862674 0.0027063154 -0.2990041 0.4240129 0.21669972 -0.14948191 0.17961885 0.715057 -0.01459115 0.40986946 -0.22823139 0.38824636 -0.12798509 0.27499866 -0.35930923 -0.06310542 0.23580821 0.26600966 -0.0015000309 0.1500719 -0.14106752 -0.7329787 -0.6884084 0.4909843 -0.22026919 -0.009740919 -0.01986656 -0.044471476 0.20683795 0.01417727 -0.09881152 0.4225707 -0.34493953 0.015524108 -0.15571961 0.05384338 8.0957456e-05 -0.60926574
1136791 -0.3162592 0.024316842 0.2358196 -0.1011219 -0.23058835 -0.104346395 0.04522902 -0.17635722 0.26796818 0.46420494 0.5796472 0.1746922 0.6641316 -0.13927881 -0.02557843 -0.5868165 0.043227367 0.34078822 0.14699972 0.13643345 -0.08061903 0.25724772 -0.10373634 -0.23877348 -0.42493647 0.30381593 -0.25642622 -0.077451706 -0.20261762 0.006967636 -0.16346952 -0.009395405 0.1434317 0.22358766 -0.26833382 0.077794544 0.031573802 -0.4433492 -0.40776166 -0.40762138 0.15212676 0.18722458 -0.27454534 0.08269101 -0.53090405 0.022308111 -0.3822904 -0.040905457 0.11251677 0.15996654 0.43679336 0.11568812 0.12737316 -0.2018301 0.25144294 -0.009766405 0.29197967 0.3006091 -0.42189094 0.021394124 0.6038864 0.22602537 0.09004356 -0.12818259
218410 0.3613819 -0.02947331 -0.54886264 -0.09243003 -0.24237919 0.10972248 -0.26272458 0.381151 0.19978279 0.33524022 -0.12925221 -0.56714016 -0.27574039 0.100394085 -0.018245487 -0.15753196 -0.15396109 0.1903474 -0.037702367 0.013234157 0.24096216 -0.23465306 -0.09880541 0.20139341 0.09820733 0.07103494 0.04633134 -0.38296366 -0.20406535 -0.00029194044 -0.41688925 0.17087999 -0.1389864 0.117272235 -0.376928 0.2634473 0.14701042 0.41364935 0.1280992 0.3550991 0.06278882 -0.008900117 -0.4363725 0.09269578 -0.25003785 -0.053589452 0.23637365 -0.17763753 0.35756427 -0.15693231 0.05650805 0.22201937 -0.008945178 0.12850124 0.021735553 0.27725506 -0.38773382 -0.28158185 0.21889377 0.21274291 0.3168261 0.6041859 0.2481832 -0.07640027
25181 0.1290264 0.4488129 0.40061614 -0.23760593 -0.2675733 -0.36039582 0.25217313 -0.3880811 0.5766312 -0.016680675 0.010427327 0.08552236 -0.4116159 0.66037536 0.43236637 0.14686486 -0.083587535 -0.17104019 0.65647364 0.28119174 -0.16496152 0.16297777 -0.51199955 0.58506465 -0.19728473 -0.30050924 -0.07167108 -0.05265502 0.25637254 -0.13271779 -0.16271614 0.02071849 -0.0056827343 0.020024536 -0.07862195 -0.42791966 0.07025273 -0.12091193 -0.20782861 0.019106902 -0.26344642 -0.4803463 -0.8996862 -0.3378631 0.85761964 0.28745002 -0.391858 0.3388 -0.22001517 0.2257493 -0.3345126 0.26579893 -0.11196173 -0.30665284 0.24158214 -0.3795905 0.14616589 0.1889618 0.37539867 -0.200784 -0.07729232 0.4050023 0.43177 0.026478391
820662 0.023323504 0.1561873 -0.07240872 -0.25884083 -0.39086244 0.019370904 0.22519162 0.36468235 -0.27474278 -0.35770637 0.15893851 0.1427377 0.113052174 0.12708658 -0.01691382 -0.4142129 -0.068889014 -0.22050719 0.5475134 -0.18386328 -0.043257456 -0.6071493 0.16932914 -0.037888777 -0.09218559 -0.42693 0.14479646 -0.32394943 0.14376648 0.13226692 -0.12601253 -0.05681432 -0.0073993388 0.03419084 0.022342479 -0.08111238 0.054269202 -0.40178832 0.25284085 -0.04817253 -0.08759936 -0.7574379 0.53235626 0.04298175 -0.13182947 -0.032233685 0.51040995 0.18024771 -0.34353083 0.21858986 -0.26071063 -0.5428488 -0.115282364 0.13941856 -0.060289998 0.20812744 -0.14340533 0.22448939 0.16908154 -0.36477062 -0.15638043 -0.16437677 -0.22367077 0.5097067
192870 0.018876964 0.30644435 0.41833976 -0.32477033 -0.4195825 0.056588024 0.17183147 0.1577921 0.4576335 -0.050239634 -0.009946249 0.3295035 -0.44250023 -0.13203314 -0.82673526 0.2592979 0.5257933 -0.0024259938 0.1945158 0.41715676 -0.375211 0.055490598 0.2744567 -0.23267126 0.2155691 0.18487911 -0.18204413 0.6000967 -0.4859403 0.2750709 0.19059762 -0.02890002 0.17276393 0.57895327 0.07942288 -0.105687454 0.3434228 -0.028795889 0.22901435 0.06452317 0.42662564 -0.28777668 0.057207316 -0.33156484 0.28285477 -0.20708974 0.40187126 -0.3069551 0.037889894 -0.19770952 0.090329684 -0.2197327 -0.040932737 0.21493055 0.14840263 0.31155762 0.5121536 -0.6957093 0.0011776255 -0.41926932 -0.06572501 -0.5589689 -0.061764672 0.07486084
593560 -0.14498626 0.2310552 0.24830154 -0.1606657 -0.25892746 -0.00263883 0.16990231 -0.16473866 0.28000498 0.44637302 0.5126022 0.07215769 0.6255924 -0.19490391 -0.02887473 -0.36163104 0.14891125 0.122460835 0.06244757 0.33457723 -0.072655715 0.34630924 -0.0609497 -0.40366304 -0.21155299 0.32098982 -0.21734856 0.111626536 -0.044792082 -0.0011703892 -0.11421222 -0.015582116 0.118596755 0.096251205 -0.25503865 -0.00464637 0.20900282 -0.5075056 -0.37768087 -0.24759422 0.1664094 0.23114046 -0.18680072 -0.03912042 -0.6529954 -0.0029972985 -0.3819159 0.020398134 0.14764816 0.23963685 0.50959 -0.01915121 0.3210413 -0.0825244 0.33275265 0.0219232 0.283304 0.36006695 -0.4392985 0.06607666 0.59336144 0.1632884 0.071955316 -0.16241813
582139 0.5669398 -0.646522 0.2973545 0.09604436 0.3173932 0.24480201 0.86203253 0.6976804 -0.22606413 -0.087700404 0.6747553 0.14177352 -0.20095918 0.40393928 0.33634076 0.18087928 0.16807872 0.2181296 -0.034866426 -0.20774832 -0.005271764 0.26291704 0.28558844 0.016365314 0.02385199 -0.055649552 -0.08984403 0.061247326 -0.52699465 -0.3383788 -0.039399356 0.057105403 0.33602357 -0.32129443 0.11300845 -0.11042173 0.08633558 0.23577622 0.027256727 -0.18030524 -0.24030729 -0.07550236 0.40265596 -0.05422376 0.23795082 0.0074956995 0.2296196 0.09366896 -0.7559318 -0.39472383 0.47392073 -0.13951148 -0.10189112 -0.07024228 -0.6793243 0.31120208 0.12944019 -0.094743825 -0.038327713 -0.088785484 0.4615248 0.39859572 -0.027822463 -0.13399047
1132073 0.011995262 -0.19772206 0.32619497 0.26756954 0.5737335 0.029086186 -0.019734 -0.005875187 -0.19219081 0.06286025 -0.047371168 0.43933704 -0.0037441272 0.059909534 0.21876568 0.65807265 -0.2230718 0.17660551 0.09042761 -0.25314075 -0.43058434 -0.06459614 0.045690086 -0.3629494 0.1217793 -0.05341742 0.46088585 -0.024517259 -0.29387406 0.53281265 -0.005210956 -0.1545229 0.46213883 -0.29617947 0.4210541 -0.3160841 -0.027375592 -0.31346 0.10786515 0.017185794 0.039831832 -0.26931116 0.18850516 -0.507638 -0.42989147 0.3885023 -0.08082284 -0.2073418 -0.3048905 0.021766437 -0.53597265 -0.034746487 -0.05934476 0.31081876 0.16281165 -0.09283299 0.35318127 0.16358358 0.108963005 -0.057361368 -0.36857855 0.10769392 0.23922288 -0.2160267
118259 -0.3604172 0.6090889 -0.19065551 -0.18619427 0.030502493 0.08214108 -0.40763867 0.28300586 -0.3961497 -0.3652188 0.117626324 -0.09789702 -0.18351124 -0.21687843 -0.013552205 0.35611275 -0.11071914 -0.10728465 0.34415555 0.22889762 0.1616323 -0.40420023 -0.21038358 -0.18932801 0.088431455 -0.121914394 0.4472668 -0.27867344 -0.27211916 -0.21426372 -0.0006591928 0.18525825 -0.41695645 -0.4416338 -0.44935337 -0.021269469 0.49502778 0.3333637 -0.1582415 -0.31074926 -0.183235 -0.36282548 -0.1645354 0.32844296 -0.12879024 0.52662086 -0.44271106 0.23091266 0.4265897 -0.19712518 0.07472251 -0.24983665 -0.20259054 0.33585238 -0.29992095 0.2846392 -0.1345187 0.16921754 0.337726 0.3313372 0.14890903 0.25869656 -0.03320558 0.15349528
647408 -0.052442357 0.22541824 -0.00223436 0.05800062 -0.09836635 0.23437318 0.24814159 0.033250492 -0.32923827 -0.17143033 0.12592046 -0.15499029 0.21188636 0.23835368 0.10263896 -0.38172933 0.2721225 0.63525474 0.11448947 0.014677872 0.17388949 0.25422853 0.26323634 0.2719654 -0.539679 -0.16699824 0.39795327 -0.13176642 -0.14141217 -0.19561376 -0.18487014 0.13949716 -0.04531524 0.082292855 -0.17902409 0.28736845 0.18741706 0.005162357 -0.41125184 -0.44010594 0.08940567 0.42730474 -0.14966936 0.5107839 -0.23653953 0.19077942 0.16198458 0.39451104 0.2591141 0.2653614 0.047825273 0.14371473 -0.33790857 -0.17980674 0.2334341 0.27813986 0.25020808 0.1421042 -0.4851178 -0.4761673 -0.35819054 -0.33235583 0.18271205 0.020859035
1131565 0.10695346 -0.14246742 -0.07354159 0.022061266 -0.3374 0.017424908 0.36397427 0.11528039 -0.071418546 -0.045416914 0.052207332 0.3725397 0.34745485 -0.31961834 -0.23582041 -0.38508227 -0.30818996 0.4676106 0.47480753 0.3081164 -0.067669116 0.3824761 0.30477864 -0.10822842 -0.11945292 0.16809766 -0.33690816 -0.14012365 0.23843692 0.37191188 -0.0014788966 -0.023174481 -0.008861009 0.4452023 -0.00478472 0.30699232 0.40278044 -0.3158353 -0.6294076 -0.3655539 0.2603699 0.21364188 0.12655933 -0.24920902 -0.45099816 0.33799878 -0.32510895 0.32423574 -0.17846116 0.27520582 0.25735673 -0.04718394 0.3839306 -0.059932847 0.19694921 0.2792128 -0.03440322 0.16958834 -0.5366775 -0.35753977 0.26232123 0.029007211 0.41575322 -0.09070169
48066 0.06427877 -0.10235216 -0.08204362 -0.2175859 0.061073083 0.31765658 -0.27799168 0.15833633 -0.2582771 0.2712495 0.34291017 -0.045844994 -0.04980284 -0.10479678 -0.4178815 0.14598656 0.36824495 0.25464287 -0.15174234 -0.2387825 -0.034422003 0.46033493 0.09386903 -0.083557434 0.19420484 0.28817832 0.6949691 -0.18772283 0.39410862 -0.099653594 0.5202582 0.3109693 -0.30581522 -0.22983108 -0.026323345 0.2505941 0.13804813 -0.38030875 0.031150999 0.22215323 0.00028547543 -0.07036168 -0.13147783 0.32542065 0.07387056 -0.24415696 0.079163805 0.12836845 -0.45005774 -0.2060814 -0.052291203 0.2083699 -0.13681018 -0.14782405 0.1957613 -0.058443 0.12553577 -0.3328426 0.44030946 0.31425565 -0.6829817 0.4289723 -0.10973317 0.53988874
1130243 0.33601484 -0.5134457 -0.17515334 0.2867837 0.07787892 -0.057566904 -0.27815822 -0.012823312 0.022930225 0.0702657 0.37003195 0.28992897 -0.2665206 -0.1741544 -0.18832639 0.08310593 0.018198676 0.41458824 0.1959515 -0.27650365 -0.07014585 0.20695853 -0.26955637 -0.12513657 0.32538748 0.09482026 0.5666037 0.11842044 -0.16714704 0.31004265 -0.03990677 -0.05275224 0.04795458 -0.4227978 0.22237018 0.050765656 -0.08090917 -0.5243255 0.4772671 -0.19778368 0.1360924 -0.051506117 -0.21195291 -0.4288455 -0.5250726 -0.32653487 0.11578543 -0.046958685 -0.53596526 0.09684085 -0.3604406 -0.042483322 -0.41890544 0.46936598 -0.20708784 -0.07802881 0.019673338 0.40199563 -0.4863506 -0.15266725 -0.017637549 -0.28447074 0.038007945 -0.3014471
237376 0.22176696 0.015578133 -0.10477196 -0.3980352 0.026221009 0.0061438214 -0.11358898 0.05576878 -0.12572329 0.0061703175 -0.17328824 -0.0018944271 0.044360533 -0.069377966 -0.014890745 -0.10833442 -0.1602563 0.23372737 0.24174856 -0.15887386 0.24187115 -0.09038912 -0.18572535 0.05377021 -0.35466772 0.27942678 -0.15893471 -0.042887114 0.5704347 -0.18649842 0.040081862 0.2470159 0.043015968 0.15484372 -0.076061755 0.0087012425 0.097753786 -0.34842464 0.11365007 -0.03385722 0.18224995 -0.11525193 -0.26329014 0.06920301 0.0614914 -0.06364494 0.28381026 0.13167995 -0.36343378 -0.011401197 -0.4407633 -0.27374464 0.06926139 0.29979286 -0.23318866 -0.023325289 0.17939839 -0.09337123 0.0011383337 0.3522724 -0.23949161 0.34303424 -0.24478298 -0.04114349
1109873 0.05704971 -0.54210865 -0.08437586 0.316899 -0.14965291 -0.4621086 -0.19113715 0.10177257 -0.41062444 0.0866245 -0.016999593 0.48107615 0.30048397 -0.07852431 0.20333259 0.33665147 0.06501173 -0.14622849 -0.048143234 0.10217191 0.29723957 0.07134472 -0.21501946 -0.46021995 0.02885351 -0.010865246 0.12862977 0.116267756 -0.6191683 0.21995123 0.095306404 -0.34926212 0.4597969 -0.00034479343 0.6465868 -0.17573002 0.3322264 -0.07161505 -0.01926053 0.5990792 -0.11680845 0.15122597 -0.016849887 -0.28565067 0.0522145 0.26240647 -0.33927855 0.29627872 -0.5156784 0.1567848 -0.7250243 -0.24944456 -0.22933665 0.48527783 -0.44166118 -0.5347002 -0.5553773 0.2234 0.057355303 0.39397705 0.15667488 -0.28282857 0.46276164 -0.41808853
941 0.57258433 -0.014922447 0.023999637 -0.27322084 0.22541416 0.50141907 -0.39473858 -0.18458045 0.7627455 -0.080285326 0.37540027 0.6975599 0.19016759 0.35037315 -0.19972567 0.09508174 -0.4412756 0.5737355 0.05734404 -0.19105548 -0.035700068 0.7102866 0.28514302 -0.23194528 0.4188493 -0.1769382 0.05131361 -0.22617163 -0.06368006 -0.49584952 0.55574524 0.63209707 -0.012730509 0.47018534 0.044174228 -0.3286481 -0.71630675 -0.45491436 -0.2238749 -0.27297786 -0.40506306 -0.14495623 -0.030356372 0.12140335 0.02424117 0.2837614 0.19229342 -0.2826488 0.39929113 0.0046047117 0.14544171 0.22521985 0.24894175 0.023489961 -0.4655868 -0.34114906 0.053542525 0.31462887 0.23562992 0.10891246 -0.16980891 0.2890138 -0.3760479 0.33612645
1131414 -0.08422021 0.10293419 0.20917006 -0.45542142 0.38504818 -0.10241829 -0.0952648 0.05396739 -0.4696191 0.445042 0.30973363 0.030975958 -0.17407948 0.5447884 -0.27361852 -0.32458216 -0.07772091 -0.067093395 0.22212471 -0.095881484 -0.36782193 0.31785655 0.5087896 0.1937311 0.18891087 -0.49449736 0.081317484 -0.2612488 -0.2299773 0.35698393 0.41411245 -0.24045293 0.38008252 -0.107809566 0.30367976 -0.019114077 0.34545878 0.13197345 -0.3069005 -0.23885982 0.14623289 0.23354587 0.5270877 -0.08793975 -0.31796592 -0.20464261 0.3445602 0.20917407 -0.4682417 0.068773024 -0.024312237 -0.040312786 0.5560093 0.24965596 -0.24324457 -0.058258496 0.26947692 0.021554716 -0.1025972 0.20323572 0.024636395 -0.3530056 0.3785581 -0.18917918
39165 -0.43012497 0.82940644 -0.0996395 0.14434019 0.55554396 0.18176311 0.26294056 -0.066351525 -0.048544366 0.35440382 0.09280905 0.081173964 -0.0045153913 0.52712923 -0.3662441 0.16799901 0.15773393 0.14627005 0.4680247 -0.6203956 0.23606388 0.12819858 0.08322777 -0.034958303 -0.111675024 0.66797084 0.37209877 -0.064596385 0.42976877 0.1179999 -0.51848966 -0.31852183 -0.19471174 -0.029816238 -0.08548578 -0.0040271557 -0.38528663 0.563651 -0.39652732 -0.32452062 0.132938 -0.36481243 -0.10337792 -0.44899124 -0.2623512 -0.3656574 -0.40925685 0.1608959 -0.03535408 -0.28579602 0.20655505 -0.6720467 0.45566177 0.45616513 -0.04658965 -0.08054406 -0.27977222 -0.42429304 0.4006926 -0.24399291 -0.36962795 -0.04788215 -0.5356333 -0.039941162
1125092 -0.076364115 -0.15828413 0.05012326 -0.12943594 -0.22204448 0.4208833 -0.084239885 -0.4371633 0.007247123 0.29486027 0.43066403 -0.13258943 -0.32194114 -0.03421791 0.40283737 0.3621962 0.32478538 0.27785456 -0.1124351 0.7383693 0.039287362 0.5647822 0.36237398 -0.0059293276 0.2969183 0.664173 0.0087983385 -0.06284287 -0.29173455 -0.21157783 -0.26744726 -0.15723383 -0.2786255 0.22229981 0.120077915 -0.1709339 0.2296039 0.113689564 -0.020729879 -0.83150446 0.56967187 0.0937594 0.35101664 0.02456738 -0.22236414 0.25695926 -0.22399117 0.4804993 0.30226147 -0.3312984 -0.22128132 -0.432516 0.23932414 -0.048568282 0.46164027 0.10952051 -0.14607213 -0.098909914 -0.18803327 0.1701571 -0.7872481 0.3753587 -0.26128042 -0.09129665
1128267 0.22661322 -0.08357421 -0.52624506 0.03187987 -0.13239764 0.25047174 -0.14012255 0.29854274 0.11315153 -0.050220836 -0.028385429 -0.4425623 0.039093636 0.3204095 0.0076864497 -0.042145804 -0.2498708 0.011487048 -0.053772695 -0.105821535 0.13068067 -0.15175906 0.0831091 0.020645037 0.43303728 0.28458992 -0.030382246 -0.21826378 -0.034461424 0.3176747 0.005278855 -0.056178898 -0.08017265 -0.2000305 -0.38885283 0.0013136693 0.29220834 0.386818 0.20555437 0.3304753 0.01947271 -0.10244592 -0.3279227 -0.21943212 -0.42468303 -0.09656342 0.14138968 -0.117471166 0.23174925 0.20855425 0.056346584 0.38117236 -0.08285411 -0.022368127 -0.2155255 0.24859372 -0.6348806 -0.32653895 0.067546435 0.3105424 0.2357225 0.2689343 0.5287129 0.004916267
714256 -0.25829285 0.1782314 0.034926586 -0.053182486 1.322461 -0.45906264 0.12652966 -0.029031444 0.12478084 0.17932962 -0.27173626 -0.035377372 -0.12664446 -0.0189517 -0.27740958 -0.115838595 -0.10121122 0.2611235 0.29969326 -0.3208279 -0.855946 -0.09789859 0.43128306 -0.3630895 -0.039618548 -0.052623156 0.051095273 -0.3579934 -0.024937801 -0.22930479 0.07626244 -0.7374145 0.074865304 0.7032627 -0.011173498 0.3466056 0.121834226 0.12062616 0.10847826 0.36986116 -0.053065546 0.09968874 0.030544808 -0.47727677 -0.1067786 0.039576758 0.03463925 0.112689346 0.080250695 0.4421657 0.08616596 -0.21646814 0.41909605 0.13919213 0.061942324 0.14846274 0.19893329 -0.29893804 0.45048982 -0.13017724 -0.6628651 0.3800287 0.3388177 0.22433197
55770 0.13396125 0.36008418 0.2799727 -0.18068278 -0.41262123 -0.17545433 -0.21496661 0.024706235 -0.009739323 0.15094224 0.55403596 -0.25819236 -0.35602942 0.17245351 0.3177223 -0.050336808 -0.23434284 -0.38064262 -0.62094736 -0.35736433 -0.11641463 0.51198286 0.1702673 -0.42167714 0.06414085 0.22194128 0.029554801 -0.18783054 0.034274522 0.4699914 0.30433926 -0.11425568 0.43959168 0.1416423 0.47540617 0.42820406 0.038633298 -0.3084575 -0.18513003 -0.64624584 -0.38465476 0.30378872 -0.04255753 0.037533935 0.03310843 0.14618881 -0.30514365 -0.62626916 0.11887567 0.24022537 -0.017678985 0.26788765 0.029837936 0.6450031 0.3488053 0.01968301 0.082044035 0.20112826 0.39932242 -0.3314253 -0.09250872 -0.21336472 -0.008543705 -0.49137175
179706 -0.2914816 -0.3845298 0.25670508 0.09818955 -0.08573836 -0.051906064 -0.11394276 0.17861316 0.31030938 0.03722542 -0.115819484 0.119922236 -0.26511756 0.082510345 0.12802923 0.5838628 -0.3659937 -0.28917718 -0.030128926 0.010801164 -0.23878822 0.037919804 -0.052888412 -0.37895635 0.5766925 -0.2224678 0.54920954 -0.18919283 -0.17353308 -0.19762753 -0.2901481 -0.22852144 -0.19293435 -0.48087645 0.15255554 0.058678772 -0.089558035 -0.3016534 -0.057114292 0.18270467 0.41089213 0.09230089 -0.13886578 -0.15514274 -0.35273093 -0.053205498 0.5414517 -0.06116515 -0.17611185 -0.24338517 -0.15529022 -0.23444793 -0.12975903 0.252932 0.08621188 -0.3077321 -0.047725797 0.39982662 -0.039386146 0.07584631 0.10039815 0.23001808 -0.13519724 -0.08365272
650807 0.005417824 -0.16674401 0.1014707 0.0153922895 -0.28869832 0.119344324 0.49805194 0.10173196 0.029425293 -0.05516008 0.022971869 0.19484466 0.3602107 -0.29076025 -0.08061426 -0.4520066 0.035648283 0.58727807 0.47003943 0.46656588 -0.22484279 0.41545036 0.40144658 -0.049612865 -0.13796242 0.18926072 -0.27970552 -0.20535697 0.374405 0.2276725 0.021794476 0.0017034451 -0.14541419 0.35089993 -0.05779765 0.29330808 0.32562733 -0.44906712 -0.55218154 -0.5592115 0.198852 0.34936056 0.21470636 -0.2293729 -0.62497354 0.2020633 -0.37192452 0.48109433 -0.1696038 0.29323286 0.20049646 0.042221155 0.37197816 -0.07951019 0.18889374 0.3105362 0.033432435 0.3169968 -0.7271558 -0.20959981 0.24329504 0.13381276 0.41416734 -0.02865456
36620 -0.37260693 -0.0064805867 -0.48286965 0.61158526 0.087547645 0.5379927 -0.11644551 0.20706336 0.2604465 0.82373804 1.0323411 0.21431509 0.2815574 -0.2501868 -0.28384587 -0.12358699 0.41541684 0.04176308 -0.6296459 -0.5971065 0.1686196 0.5956516 0.05523858 0.3465311 0.607226 -0.07391231 0.29957217 -0.22053137 0.7042491 0.4235358 0.3395461 0.16258976 -0.23310669 -0.16456795 -0.020053873 0.22289522 0.15293665 -0.18039455 0.11922683 -0.036126904 -0.31506616 -0.43065718 -0.19341055 0.16038373 -0.06819552 -0.074893355 0.03442321 0.26140815 -0.43924817 -0.22049648 0.062920086 -0.39917633 -0.13077766 0.1126438 0.5119458 -0.03887392 -0.16494247 -0.010734964 0.088724546 -0.3037664 -0.48150203 -0.18099572 0.4239126 0.44113633
62333 0.27675742 0.15941517 0.20430936 -0.08519286 0.1224846 -0.024115926 0.24295536 0.05281311 0.45935544 -0.102189295 -0.38468564 -0.050178476 -0.06563355 0.07668032 0.60069054 -0.212602 -0.09500516 -0.5439241 0.4509638 0.34914336 0.2693311 0.02245379 -0.10809756 0.13423878 -0.15751892 -0.30004224 -0.57754654 0.032173224 -0.0528006 -0.17324257 -0.061663996 0.15165368 -0.36318946 0.03096802 0.27919126 -0.31666538 0.017386714 0.23771332 -0.2805294 -0.106667034 -0.040512547 -0.15089186 -0.68048865 0.069492206 0.7314819 -0.11642257 -0.32829946 0.18172266 -0.34053218 0.085461035 0.13610747 0.12004084 -0.15701406 -0.31916285 0.42054802 -0.5749534 0.12327436 0.097416736 0.08556747 -0.053406376 0.012228855 0.038095403 -0.094320565 0.058679
270085 0.056342695 0.021578362 0.10327879 0.106309325 -0.02872185 0.41683412 0.49533918 -0.17980428 0.3563739 0.20382789 -0.13506642 0.09823491 0.39918196 -0.09354104 0.103654385 -0.1566679 0.5510877 0.32605278 0.04178674 0.31433275 0.034302164 0.29776293 0.06636889 -0.17074369 -0.31998745 0.091564216 -0.23507099 0.063257664 0.1125685 0.031580333 0.111434124 -0.17288043 -0.16146277 0.2371141 -0.3361132 0.0127589945 -0.014240981 -0.38764897 -0.47988588 -0.637655 0.01684407 0.19144444 -0.06051171 -0.06487744 -0.25504747 0.3134155 0.06286565 0.26511 0.30867952 0.32357132 -0.033537146 -0.0008787412 0.34895715 -0.20207821 0.08126986 0.18606906 -0.023547601 0.1422098 -0.4177643 -0.13195765 0.15059233 0.06361953 -0.038149703 -0.28307405
71736 -0.22520572 0.14997998 0.21022226 -0.100912325 -0.05197414 -0.25539973 0.08852044 0.23201549 0.066667065 0.48592407 -0.12484847 0.20495477 0.25609967 -0.027162736 -0.16805197 0.33428416 0.6915578 -0.10196703 -0.21955068 0.10702646 0.35369268 0.14958422 -0.120190024 -0.014603518 -0.13598357 0.289806 0.581382 -0.37565932 0.12916155 0.48549294 0.060271 -0.2250431 -0.56674165 -0.06193316 -0.39097488 -0.79064393 0.4777397 -0.091010526 0.016061725 0.4590269 -0.20125122 -0.33431447 0.39962465 0.06072451 0.3986374 -0.24230674 0.079104155 -0.40650716 -0.4802907 0.07864768 -0.5503233 0.12213036 -0.3183579 -0.2769316 -0.3622599 0.14062968 -0.16898324 0.08684808 -0.19685361 -0.20035984 -0.34586293 -0.1344621 -0.13352633 -0.17543466
270600 -0.12833889 0.40328836 0.4288951 -0.26240903 -0.54855806 -0.061302826 0.2524785 0.060828786 0.4029593 -0.2585008 0.17744479 0.42394722 -0.25293466 -0.094087355 -0.7034464 0.20347023 0.484105 -0.10282927 0.09197741 0.47310647 -0.4395218 0.13587424 0.27425045 -0.21407215 0.066438414 0.1429358 0.21055536 0.44545597 -0.5311745 0.31318018 0.13725187 0.13475294 0.1696785 0.5369526 0.33943212 0.01126123 0.32106793 0.15847634 0.28047317 0.018196309 0.4946655 -0.29244027 0.07085224 -0.2591544 0.31999227 -0.26369596 0.3934416 -0.19315577 -0.09379547 -0.17099713 0.13347995 -0.04371632 0.1281671 0.42081535 0.053962886 0.24796133 0.49408412 -0.51577497 -0.0023195841 -0.52847 -0.047326535 -0.6400164 -0.18256076 0.12775545
1153811 -0.693609 0.29872882 -0.2998075 0.71806425 -0.060859006 0.70628583 0.078297846 0.104039066 -0.8178693 0.05563386 -0.19352613 0.017023943 -0.3300823 0.17420428 -0.022704836 -0.13760506 0.03736161 -0.17931595 -0.111038975 0.037377805 -0.24437645 0.21678309 0.24678044 0.102506764 -0.13348794 -0.10301778 0.27579665 0.23375201 0.014429914 0.14914997 -0.023395585 -0.043892298 -0.1587743 0.5704928 0.19505455 0.07971739 -0.049743615 -0.79048115 0.354481 0.51837486 0.3874268 -0.32689586 -0.13718913 -0.3558696 0.48582068 -0.32373565 -0.7742151 -0.24563883 -0.08714328 -0.37783444 -0.31725198 0.18478985 0.05967336 -0.44823325 -0.5347626 0.30279443 0.061670575 -0.4042495 0.16552427 0.16878492 0.5752506 -0.051727332 -0.3899564 -0.33929467
1125906 0.07755245 -0.068051875 -0.16702434 -0.04425402 -0.047577932 -0.118135385 0.081549935 0.10545998 0.18059857 -0.025629861 0.07896477 0.40764925 0.14334986 -0.31723005 -0.19144753 0.20845231 -0.2283088 -0.15575303 0.18954688 -0.32652807 0.37303337 -0.20019265 0.4996964 -0.24333912 0.36649448 0.14581671 0.12383184 0.15834363 -0.17274426 0.16925931 0.4940236 0.0040604174 0.31384787 -0.59335154 0.5696358 -0.46604833 -0.21620151 -0.22076795 0.57262164 0.20982946 -0.057358786 -0.059099123 0.36064646 -0.5827911 -0.34795326 -0.22639695 -0.15148129 -0.030068094 0.17790617 -0.061872475 -0.62510014 -0.22708252 0.093386866 -0.093232244 -0.14194456 -0.3452139 0.6646746 0.22735539 0.026738431 -0.30187526 0.06586854 -0.079792656 0.08316185 -0.18929058
1103031 -0.18697804 -0.21337916 0.042695213 0.024485108 0.24826573 0.2793237 0.071525216 -0.42189372 0.027045585 -0.27431312 0.2826594 -0.2692111 0.06615445 0.021428788 -0.066628255 0.40575394 0.12790138 0.17682044 0.13660523 -0.45053047 0.5467936 -0.27690813 -0.21626441 -0.28893355 -0.15240805 -0.21961948 0.5290304 0.24554199 -0.34104553 0.384683 -0.0022345893 0.017080627 0.4029885 -0.39815706 0.11721667 -0.15845072 -0.5349411 0.111611135 -0.5600604 -0.039854717 -0.27737296 -0.35278592 -0.21868719 -0.41611767 -0.57989925 0.230587 -0.64055485 0.39541724 -0.5053154 0.26941308 -0.10863637 0.2184803 -0.41152114 0.12152889 -0.25435147 -0.042855322 -0.4347924 -0.33199552 -0.11185712 0.0052858707 0.025095714 -0.028595889 -0.47159094 -0.16537903
35061 0.15069595 0.08049941 0.49980232 0.20611374 0.08252985 0.47151035 0.05362175 0.20316544 -0.2740853 0.10776775 -0.8899557 -0.26136053 -0.08915563 0.33422056 -0.054250635 1.013316 0.8851118 0.048600636 0.28274053 0.46310207 0.22486635 0.41544262 0.77878696 0.3771044 0.058853295 0.37061343 -0.7554661 0.17424124 -0.1503534 -0.051598698 -0.5892988 0.22114794 -0.0073098484 -0.02679199 -0.01170194 0.13962643 -0.40725735 -0.50159794 0.28310704 -0.17571804 0.07330035 0.7585401 0.45811266 0.07064385 -0.39482406 -0.27752995 -0.37881732 0.3702924 -0.06778394 -0.208856 0.45455775 0.02273244 0.030557884 0.25179964 -0.1687738 -0.59189916 -0.13952328 -0.19573662 -0.44069383 0.35310346 -0.27653626 0.11121219 0.7728967 0.3284126
1117618 0.045142844 -0.19263823 -0.24392906 0.074787244 -0.35313782 -0.09029987 -0.19184408 0.45671985 0.18048431 -0.23506093 0.004240767 -0.5314289 -0.51082754 -0.36042044 0.17447443 0.09563629 -0.40484852 -0.16780601 -0.12728408 -0.16976672 -0.13411066 -0.30467036 -0.073230825 0.18653473 0.4552562 0.109662525 0.1959444 -0.37439266 -0.09608184 -0.14113429 -0.034799725 -0.13126855 -0.10467163 0.05667804 -0.45215967 0.3660723 0.078658625 0.31613988 -0.644888 0.60954005 -0.2180486 0.17529967 -0.32747367 -0.12263543 -0.20616664 0.18103576 -0.15838416 -0.12389525 0.61181533 -0.18814719 0.36095974 0.1845083 -0.5824958 0.12180778 -0.04007965 0.1461664 -0.23712234 -0.09243668 -0.12436305 0.09943454 0.22379601 0.5381968 0.4974856 0.022241
141342 -0.3561936 -0.60606134 0.19227947 0.5174688 -0.18926483 0.33119678 0.4231017 -0.09008598 0.33607924 -0.12277678 -0.50496495 0.43029624 0.73504484 0.19664577 0.24365595 0.64643055 0.609688 -0.359681 0.41515553 -0.15715119 0.5448011 0.2884745 0.36955282 0.44772 -0.6691024 -0.0926929 -0.6415853 0.22519834 0.36885414 0.13388821 -0.48574114 -0.40027082 -0.08483875 -0.04465018 -0.59880763 0.027898991 -0.16339754 0.051336687 0.5763609 -0.35448983 -0.14937986 0.7373583 0.14637606 0.57798815 0.01124019 -0.1508009 -0.11817473 0.136845 0.32992256 0.1223978 0.5499219 -0.044512495 0.10091524 0.1723187 -0.6105666 -0.11859015 -0.04032433 -0.24157809 -0.21600544 0.01722513 0.1814238 -0.63365465 0.2895849 0.098421976
1129608 -0.017227119 0.11563935 -0.07257395 -0.05244472 -0.004751247 -0.008825556 0.21024196 0.56596744 -0.1699066 -0.16137867 0.3906508 0.049143333 0.115383804 0.10435303 0.11245619 -0.2896349 0.014094526 -0.19623534 0.36415648 -0.029273795 0.21213716 -0.4426695 0.20476714 0.24356717 -0.17352647 -0.62625206 -0.008063906 -0.20806777 0.4554356 0.30166277 0.147589 -0.15801068 0.34387246 0.061356176 -0.07689522 0.17783934 -0.022199009 -0.28293628 0.46631473 -0.17149282 -0.029356012 -0.72398376 0.13671306 -0.08034054 0.10271312 0.35254797 0.46792534 -0.41409934 -0.45000145 0.11777344 -0.31255832 -0.39995968 0.005381606 0.5060843 0.36574137 0.23411445 -0.11542526 0.27306727 -0.09831577 -0.14996903 -0.042131055 -0.15919574 -0.19677159 0.43222424
157401 0.04554869 0.0102954395 0.2599067 -0.068461955 -0.23050386 0.0044851955 0.028333649 -0.01794465 0.1587588 -0.07652196 -0.3865996 -0.1640632 0.11166182 0.22299404 0.025418654 0.14654776 -0.12517254 -0.4691399 0.441022 0.0804945 0.13682231 -0.022866813 -0.3276946 0.09134958 -0.33412597 -0.30569282 -0.5362267 -0.2550305 0.16023058 -0.4464616 -0.12841709 0.3206524 -0.24578151 0.10285789 0.6436531 -0.2591701 0.18529764 0.48436788 -0.273619 -0.35055715 -0.4070932 -0.2904219 -0.6325583 -0.3045102 0.6966418 -0.321924 -0.091841176 0.19144513 -0.11773908 0.10386127 0.03881847 0.20306423 0.09715692 -0.48562658 0.49607658 -0.36873206 -0.03927868 0.08676323 0.120400146 0.010227918 0.032254267 -0.039635293 -0.20773803 0.513116
36131 0.02411693 -0.14846906 -0.37194708 -0.11830502 -0.539415 0.0835707 0.14521027 -0.30488974 0.24075873 0.12766883 0.1728918 0.44631198 -0.007099308 -0.25425887 -0.7664286 -0.39027345 0.35586053 -0.22550711 -0.079138264 -0.43977085 0.055829894 -0.20808767 0.92847455 -0.36214486 0.6108508 -0.04955401 0.09139036 0.22429599 0.27546063 -0.09421543 0.33100963 0.03981896 -0.13114795 0.012277094 0.13792142 -0.37628675 0.15073563 0.3464719 0.33634347 0.30676106 -0.0060782228 0.3049949 -0.10344395 0.209279 -0.10386065 0.10704001 -0.536355 -0.105264306 0.24008577 0.04475386 -0.07039652 -0.08600066 0.024521565 0.28318006 -0.06829939 -0.34375122 0.045881677 -0.30298033 -0.29453343 0.45055673 0.10669373 -0.055536285 0.01042068 0.09830118
1117760 0.38416773 -0.0502833 -0.4811264 -0.109892495 -0.16736838 0.19214511 -0.17582707 0.29563722 0.13355534 0.1935044 0.0073765563 -0.5893937 -0.20014787 0.07121815 0.039386407 -0.15924472 -0.062260807 0.16461612 -0.045526642 -0.08502599 0.25213304 -0.20407005 0.0681052 0.1164588 0.25425512 0.1201924 -0.05276235 -0.32003695 -0.12322521 0.28910297 -0.2568647 0.2593953 -0.053456333 -0.049724493 -0.3781019 0.053441387 0.20533752 0.4215586 0.1949375 0.4688079 0.043111242 0.07329974 -0.38477153 -0.116790146 -0.343832 -0.019600589 0.28692314 -0.20966378 0.36529154 -0.15369043 -0.024563069 0.16949445 -0.05960813 0.2104663 -0.061344836 0.18579994 -0.54132485 -0.30677503 0.23108423 0.23625384 0.37372488 0.5188855 0.3143313 -0.09243658
216877 0.036686927 -0.19535594 -0.3007769 0.09779043 -0.35195512 -0.09821946 -0.25329474 0.45986342 0.22048597 -0.20852713 0.0149063235 -0.62695134 -0.5116136 -0.3081446 0.090808466 0.048913963 -0.29600126 -0.0937091 -0.079794265 -0.04658068 -0.026992561 -0.36097103 0.011193705 0.19614963 0.42050204 0.08904339 0.19736478 -0.40220973 -0.11837307 -0.19573371 -0.10331795 -0.10110455 -0.123655766 0.036403973 -0.47688857 0.31317627 0.1486793 0.26446277 -0.47555748 0.66093236 -0.21872918 0.13198456 -0.407011 -0.07149729 -0.26488727 0.14771286 -0.13698335 -0.031282768 0.5834985 -0.1800179 0.23744489 0.15780537 -0.57215804 0.18440874 -0.023804702 0.110972986 -0.31314483 -0.11056965 0.06316523 0.18652608 0.34278235 0.704437 0.4127627 0.06676975
117 0.12383586 0.5778079 -0.21201755 -0.761341 0.029240869 -0.100161344 -0.0211457 0.0777739 0.049465623 0.3111982 0.27749354 -0.788389 -0.06818128 -0.16381653 -0.39905345 -0.90008545 0.296361 0.11113756 0.50466484 -0.31346205 0.51655036 -0.100747965 0.20331025 0.07001855 0.053192988 0.3254645 -0.39208418 -0.048288643 0.1706628 0.73548275 0.33897522 0.13239327 0.5690644 -0.084688425 0.03719563 -1.0758747 0.2784746 0.1979239 0.34994456 0.9782309 0.37122992 0.5818383 -0.41551894 -0.09839327 -0.14581938 -0.47218892 0.71780854 -0.17644775 0.13983993 -0.013102531 0.11448313 -0.2437801 -0.09413294 -0.38180536 -0.78395665 0.44540578 -0.55977905 0.36535233 0.33716515 0.41142163 -0.0897521 0.46251625 0.35303313 -0.2068705
36162 -0.2892532 0.17371754 0.409677 0.25219715 -0.036844045 -0.13803308 0.056993905 -0.25999144 0.038686007 0.3127 0.0522953 -0.1742908 0.063433215 -0.0054611275 -0.20722848 -0.00083732704 -0.44108298 -0.435795 0.5992746 0.0899249 0.20225653 -0.26945862 0.409515 -0.47399694 0.29334944 -0.165461 0.019761914 0.46209624 -0.082093805 -0.86737615 -0.5666775 -0.087928936 0.47884256 -0.2480224 -0.09540303 0.035273533 0.7263914 -0.52452314 -0.27315083 0.62370807 -0.316789 -0.5316915 0.33264127 0.0059039616 0.47974727 -0.2522096 -0.13346873 -0.27614328 0.5054852 -0.8352164 -0.26131248 -0.08675678 0.5867238 0.10905996 0.7762552 -0.48903012 0.19469233 -0.40830833 -0.3073274 0.6051426 -0.003952746 0.108922884 0.39517188 -0.8129098
688849 0.29172754 0.24421772 -0.089820296 0.45886913 0.21379516 -0.35920393 0.25413024 -0.48087054 0.37113822 -0.24625336 -0.13909623 -0.20164397 0.082951635 -0.6219668 0.047871884 0.23220748 0.005831058 -0.28872895 -0.33488524 0.027117888 0.010950161 0.11318955 0.26199955 -0.49662822 -0.3880116 0.03031419 -0.18451428 -0.19474177 -0.007793927 -0.1971959 0.10162886 0.21957916 -0.022405598 0.42224464 0.29261947 -0.25035495 -0.2240671 -0.07358551 0.22555166 0.25331792 0.35477093 0.2551535 -0.28574735 -0.20991519 0.20420799 -0.068635285 -0.0429754 0.6758153 -0.33709657 -0.25004303 -0.43071353 0.11386352 0.15784088 -0.116452254 -0.12632626 0.093384884 0.056440253 0.23293047 0.14575082 0.17161934 0.55632204 0.02887633 -0.052371144 0.36095738
51879 0.0972045 0.3809311 0.2091929 -0.12829827 0.44463027 -0.010166024 -0.413536 -0.11146649 0.3398122 -0.025379565 0.04300127 0.7270931 0.08412686 0.33344296 0.27561906 0.07008507 -0.23273604 -0.22272032 -0.23956509 -0.69652045 0.2704468 -0.06170359 -0.43759167 -0.5159359 0.13462634 -0.15622544 -0.08366665 -0.033642307 0.27018693 0.12943651 -0.04007044 0.09950119 -0.0016249843 -0.008923266 0.38272476 -0.35310748 -0.5841712 0.076345354 0.583209 -0.32532236 -0.44273144 0.26324365 0.069897585 0.107988544 -0.45306116 0.1606202 -0.2766113 -0.37609664 0.3275605 -0.5566863 0.4964804 -0.14286411 -0.3883195 0.17858078 0.33167097 0.30240637 -0.17243786 0.18224114 0.33810115 -0.112272516 0.03827251 0.11552606 -0.5837021 -0.49360913
101811 -0.2111718 0.47225058 -0.2099223 0.100718215 0.0064647696 -0.5003623 0.68215656 0.13305742 -0.057689566 -0.33438626 -0.17737998 -0.3406635 -0.04433128 0.109020695 -0.3396444 -0.16547914 -0.38278776 -0.2941646 -0.4589811 -0.0034301402 -0.8567759 0.3669492 -0.46252182 0.16115667 -0.3211265 0.25219822 -0.08479974 0.16044354 -0.10519649 0.37857902 0.24074331 -0.19209369 -0.08989201 -0.6188723 0.21076699 0.24068557 -0.20589556 -0.7131508 0.13785085 0.39433202 -0.48109934 0.108743526 -0.215881 0.3457725 -0.12997255 -0.56035906 0.3869841 -0.10209357 0.20201081 0.06538867 -0.7128974 -0.09474053 -0.6917553 -0.020234862 -0.46216613 -0.25598556 0.01198463 -0.45189908 -0.46795905 -0.006508032 0.13231964 -0.10786918 -1.0458728 0.56353706
1111788 0.19676442 -0.04504611 0.44005647 0.26245737 0.23156857 -0.2344634 -0.5613824 -0.22182687 -0.54466563 0.25177354 0.27376825 0.012083177 -0.098767884 0.15371056 -0.13505885 -0.16422147 -0.55699784 -0.16070905 -0.15315633 0.008124198 0.1559935 -0.041302852 -0.1678918 0.5757117 0.31110975 0.07609415 -0.11571135 0.51450026 0.14300796 -0.53073967 -0.25267765 -0.31395176 0.035184447 -0.030131735 -0.17703484 -0.15668732 -0.5098706 -0.3460227 -0.10047038 0.31325063 -0.2542101 -0.20123929 -0.0050396523 -0.13221864 -0.062404137 0.08839153 0.5465346 0.49026182 0.290781 -0.12333592 -0.330439 -0.17793515 -0.07982465 -0.12615843 -0.21278702 0.14333217 -0.4915289 -0.20203616 -0.3203037 -0.21227475 0.35589707 -0.10353503 0.6293184 -0.044606533
684972 0.20918275 0.19845492 -0.11991707 -0.16479526 0.2966342 0.4636092 0.04976354 0.26289186 -0.21180278 -0.1302287 -0.031163434 0.24808486 0.09455271 -0.34089914 -0.33723098 0.62345743 -0.30520526 -0.21028972 -0.087821946 0.04333212 -0.038873885 -0.47538203 0.32272866 0.35631493 -0.13700663 0.7067797 -0.07694753 0.070121616 -0.21661264 0.2192615 0.44818747 -0.20758872 0.0024969229 -0.5066038 -0.54849255 0.07932179 -0.106233634 0.31847385 -0.4871836 0.042348206 0.24208233 -0.28178868 0.66794777 -0.19059515 0.592758 0.34233353 -0.45560306 0.1446095 0.4632314 -0.14892438 0.076315455 0.26000756 -0.42410746 -0.37932673 -0.091843724 -0.24163122 0.22566529 0.38362646 0.08716806 0.002394322 0.07891288 -0.04197156 -0.3165834 -0.21190841
1154459 -0.4881203 -0.2257165 0.0789916 0.13112539 0.08109602 0.0794277 0.48594406 -0.10849392 0.20349912 -0.5734235 0.06715219 0.28468236 0.2598461 0.3491835 0.24241444 0.27761573 0.42789358 -0.12900928 0.15746692 -0.5909828 0.2451464 -0.07717396 0.07574718 0.2149141 -0.26876456 0.040375948 -0.2713566 0.116248146 0.32242998 -0.06144124 -0.29314846 -0.30952772 0.20077261 -0.1939729 -0.28846303 0.12100212 -0.012393298 0.09375659 0.4734971 -0.0012955487 0.33180243 0.44657493 -0.1090815 0.40317407 0.29228806 -0.35547245 -0.026375674 -0.026268752 0.36829785 0.25642568 0.086297005 0.02362102 -0.10644367 0.0016353129 -0.4557456 0.11571615 -0.101102054 -0.14934008 -0.077250436 -0.16901597 0.03413266 -0.48849046 0.17060542 0.38552657
910 -0.45462042 0.5105548 0.024927257 -0.40902415 0.22170989 -0.5779788 0.38376087 -0.4965258 0.18570355 -0.12944402 0.17256294 0.34240693 -0.26849428 0.84493583 0.62754285 0.37439308 -0.75393164 -0.3818506 -1.1595527 0.8006288 -0.106990315 -0.7024357 0.15957056 -0.49686277 -0.17301029 -0.78856885 -0.3590518 -0.2751188 1.2535334 0.30103305 0.45431715 1.0654912 -1.112158 1.1240095 0.099420734 -0.3169659 -0.45500806 0.68563384 0.44254568 0.21566427 0.38450262 -0.18933812 0.737557 0.099443525 -0.73857117 -0.71941894 0.33303055 -0.13087252 0.5241937 -0.42521858 0.7931368 -0.117861874 -0.7988687 -0.91844827 0.63580954 -0.68599474 -1.0401242 -0.11821587 -0.40729013 0.37505943 -0.6805365 -0.30427563 0.2469474 -0.7371537
100197 0.25004885 0.41094166 0.52182066 0.17302497 0.13475579 -0.17754292 0.0092659015 -0.052986525 0.38683584 -0.08312834 -0.43800226 0.28558636 -0.5269753 0.16980897 0.7028827 -0.2661644 -0.15991732 -0.4062306 0.5586898 0.50147736 0.32162797 -0.26897937 -0.15417239 0.31245783 0.32323924 0.13400815 -0.46784636 0.45488477 0.1833591 -0.11810948 -0.13353734 0.35192278 -0.44659042 -0.0002707624 0.2212276 0.009481147 -0.23762406 0.3714334 0.108959086 -0.37771395 -0.14706804 0.03394513 -0.6236334 -0.42041662 0.47511247 0.21244214 -0.39844084 0.2557676 -0.3625568 0.48382458 -0.22494146 0.18013375 -0.1667763 -0.53003514 0.13840936 -0.41257918 0.07051428 0.15978079 0.05775086 -0.030234372 -0.1891154 0.29615912 -0.2275417 0.47804698
23502 0.13194011 -0.27199203 0.12747265 0.051274527 -0.45108676 0.0031714428 -0.21005398 0.0361516 -0.1643883 0.0096176 -0.26610458 -0.41835406 0.40062678 0.19983684 -0.20976943 0.20639372 0.005201139 -0.34308055 0.27554357 -0.20946929 0.020165827 0.0332218 -0.44523352 0.025553249 -0.18858197 -0.24651614 -0.3040857 -0.24367595 -0.06129723 -0.43047696 0.05018212 0.10445878 -0.20464288 -0.007887978 0.83230925 -0.13226628 0.19451094 0.66307074 -0.27059567 -0.6179039 -0.48660198 -0.043511808 -0.7446822 -0.24882144 0.73428255 -0.55206615 -0.023835147 0.105509885 -0.2176265 0.065200716 0.110510446 -0.17643833 0.24842219 -0.44499445 0.46385852 -0.43197823 -0.19440699 0.00029201133 0.10615216 0.18969348 0.028708981 -0.092577346 -0.059714217 0.550968
675756 -0.14708966 0.39415422 0.30640218 -0.4377291 0.2584621 -0.13147795 -0.045501646 -0.21139058 -0.14133775 -0.12767194 0.3312529 0.27610862 -0.25074366 0.46960062 0.52096784 0.08637368 -0.34139055 -0.5231601 -0.25222352 0.46131596 0.14654781 -0.4252804 0.21872231 -0.25276613 0.15827042 -0.19406246 -0.09623505 0.08184343 0.49907672 0.22732818 0.09962946 0.41734743 -0.49294585 0.36897 -0.035260335 -0.60558754 -0.32208145 0.42286694 0.08949506 0.21245958 0.0853017 0.05794423 0.29119068 0.10437755 -0.23508047 -0.49588704 0.19644344 -0.16865551 0.3220363 -0.071999416 0.33040068 -0.188816 -0.4077817 -0.2602092 0.45467395 -0.014491543 -0.13746238 0.016996572 -0.13499969 -0.34095806 -0.33164358 -0.3052224 -0.15520203 0.14348166
4584 0.120430306 0.50902456 -1.7486402 -0.29445451 0.266492 0.30538696 -0.30925164 -0.017541176 0.085558645 -0.46261904 0.5226905 -0.9385759 0.2077342 -0.1429903 -0.4789803 -0.0075814207 -0.29771703 0.29663134 -0.3959394 1.2299391 0.33279732 -0.44928628 -0.19785254 0.30478966 0.07591843 -0.36459488 -0.50054264 -0.16069701 -0.031713914 -0.4085759 -0.5628097 -0.10387994 -0.2196188 0.32753867 -0.16770168 0.04723737 0.49932086 0.45194557 0.18206277 -0.037795823 -0.6950943 0.8084961 -0.7564487 0.07356918 -0.14032461 -0.24612513 -0.037422325 -0.45263177 0.008725864 -0.29317382 -0.18075652 1.5040951 0.7807521 0.11791156 -0.7371813 -0.12515527 0.13237505 -0.7594611 0.60671216 0.028925858 0.24189244 0.052745517 -0.3855757 -0.26847816
354004 0.24731961 -0.045508984 -0.04003462 -0.14672112 0.21316907 0.21783218 0.5521067 -0.035196863 -0.041277755 0.16354541 -0.06632804 0.2478132 -0.09385472 -0.10046329 -0.07663426 0.53136235 -0.34939325 0.23536709 0.41040316 -0.09619524 0.120552264 0.26761776 0.03636501 0.5482425 0.36682132 -0.23139986 0.27381498 0.48361784 -0.26959276 0.09055662 -0.045542527 -0.26914415 -0.32134756 0.023984406 0.2798611 0.52738905 0.25145057 0.21843286 0.74938524 0.028540626 0.06481231 0.47711745 0.69220936 -0.27872193 -0.5333207 -0.40057617 0.07570496 -0.1415054 -0.5441851 0.2565934 -0.13117236 0.021364285 0.10385745 0.02934847 -0.5737991 0.015656335 -0.31845224 0.33631676 -0.18255913 0.67592597 0.011335706 -0.1434655 0.16518548 0.20103842
628500 -0.019117732 0.042791687 -0.6319388 -0.3046976 -0.18656701 -0.032448154 -0.42562371 0.09971475 -0.09221032 -0.26475447 0.33493754 -0.8484256 0.35771504 -0.058229838 -0.8102972 0.113429725 -0.0087538315 -0.067862704 0.015109348 0.15310033 0.2022142 -0.118718885 -0.27887148 -0.041302465 -0.35595527 -0.042489424 -0.30394745 -0.0378346 -0.08737882 -0.3259912 -0.090918615 0.03277413 0.038514834 0.12806308 0.42347914 -0.17041306 0.44801664 0.5523144 -0.035150062 -0.15275164 -0.62155837 0.33537284 -0.34739637 -0.16550756 0.21395317 -0.54576236 0.1777186 -0.24793564 -0.122360684 0.08830355 0.3517583 0.29631892 0.6272561 -0.4491749 -0.29382703 0.05803002 -0.19039077 -0.17160924 0.16470733 0.2801825 0.20478716 -0.1922366 -0.1495108 0.2445983
601567 0.30761012 -0.037297163 0.26353353 0.33365887 -0.09259252 -0.84087044 -0.52988845 -0.05888384 0.18375133 0.07394617 -0.062228903 0.11628024 -0.12562883 0.008328964 -0.14897916 -0.009886056 -0.08905638 -0.037185434 -0.22473 0.27792242 0.17562588 0.10853474 -0.0857392 0.37863103 0.028796518 -0.16084218 0.065138616 0.20178166 -0.252639 -0.26362714 -0.2921283 -0.6256255 0.24287607 0.090097025 -0.09813299 0.24367882 -0.15831193 -0.00550586 -0.11420782 0.36243397 -0.094166584 -0.08845443 -0.07589745 0.3601097 0.12227231 -0.2262983 0.13426282 -0.04524093 0.21195474 -0.21812528 0.027365645 0.028255647 -0.1621856 -0.26867938 0.22206868 0.31326187 -0.51998407 -0.3069193 0.10122152 -0.06431395 0.49821088 0.2918459 0.19111054 0.16509452
1133930 0.061675653 -0.54093635 0.4716302 0.09642156 0.10659945 0.022535883 -0.2817961 0.16217598 -0.18735136 0.24567758 0.14978987 0.6739628 -0.55720353 0.13834998 -0.2515999 0.6170696 -0.13825798 -0.24513522 0.124516904 -0.0847171 -0.20968755 -0.17228438 0.0826832 0.3292056 -0.3141557 -0.2557543 0.2574985 -0.017608177 -0.25608075 0.6416565 -0.024765136 0.024359105 -0.6141739 -0.34976536 0.25401354 0.08726925 0.1274374 0.0052118297 -0.16095732 0.30449486 0.45482606 0.25942302 -0.23928778 -0.28791678 -0.22477214 0.08958544 0.5030471 0.63925904 0.03744387 -0.03433591 -0.12734354 0.28319168 -0.24817172 -0.37946346 -0.10592496 -0.08384799 -0.1813735 0.026392357 -0.09000909 -0.07119524 -0.48317543 -0.19364278 -0.04411137 0.0535814
762980 0.9363744 -0.46906582 0.07951039 0.15944797 0.37377053 -0.060009107 0.2274038 0.40989217 0.32925296 -0.07541591 -0.23703627 0.03252384 0.002419999 0.030827474 -0.020533906 -0.202051 0.4074396 -0.0031269225 -0.00019621065 -0.020381145 0.04457631 0.32149336 -0.36056903 -0.40472126 0.43607008 -0.26169747 -0.2208222 0.25761133 0.19962646 0.007068682 -0.14453587 -0.10765591 -0.10665057 0.27612925 0.41457844 -0.05185168 0.14428818 0.01014974 -0.10279712 -0.0387245 0.03859203 -0.011910436 0.3150327 0.3972355 0.34045836 0.31625214 -0.08856918 0.047689714 -0.37477365 -0.24899884 0.34935787 -0.31362844 -0.7006578 -0.17681094 -0.25846264 -0.34638417 -0.117308006 -0.04226177 0.3833381 0.3957791 -0.034514997 -0.11648801 0.40836576 0.15633222
289779 -0.37876588 -0.3455336 0.09809242 -0.55580753 0.058001008 0.31674525 0.07092249 -0.333352 0.36600733 0.22187357 -0.19530964 0.032913532 0.2622298 0.3911182 0.0065935845 -0.08561264 0.43258834 -0.03611176 -0.010330984 0.1766667 -0.32660332 -0.018545767 0.09368942 -0.50894535 -0.7423616 0.031425722 -0.21848632 -0.03490581 -0.26597863 -0.17858206 -0.20055507 -0.07593328 -0.07613143 -0.44161725 -0.101490356 0.51114815 0.3983394 -0.25396544 0.37470382 0.2027644 0.0005980062 0.42944956 -0.06321009 0.049551945 -0.43652198 0.22033721 0.32776254 0.026095122 -0.011184768 -0.24181394 0.19068715 -0.18226095 -0.02702485 -0.44237274 0.14470488 0.06204276 0.048338432 0.26715493 -0.056108985 -0.44006008 -0.18183932 -0.56596607 -0.11910309 -0.057935543
714260 -0.23194797 0.12067607 0.083721735 -0.06616945 1.1530553 -0.428886 0.0010450695 -0.047468923 0.037446596 0.15103142 -0.26900837 -0.063068695 -0.27202508 -0.10882698 -0.23145933 -0.08973532 0.0012076618 0.0061233058 0.14308812 -0.35955587 -0.79006183 0.17715135 0.517239 -0.2478179 -0.11502883 -0.12596822 -0.08483385 -0.19967836 -0.06499233 -0.24515054 0.08401356 -0.8323358 0.19260731 0.6849563 -0.108839616 0.25435713 0.1972549 0.19837134 0.09694053 0.26398298 -0.17141077 0.06327965 0.17981109 -0.4649214 -0.19897151 -0.047099408 -0.025534224 0.015984977 0.07735242 0.49216762 0.11660602 -0.07753415 0.36163035 0.090759985 0.09468308 0.3920898 0.23504944 -0.12513454 0.5016069 -0.07170855 -0.54108447 0.4001425 0.32056633 0.22150968
40151 -0.46374053 0.19605213 0.45708647 0.4206403 -0.20117648 0.28794938 0.43367782 -0.012083037 -0.21674778 0.70473456 -0.10934969 -0.3828341 -0.29451445 0.023279507 0.32535693 -0.31205383 -0.20749624 -0.58258384 0.34054068 0.09160374 -0.30425304 -0.3988015 0.39088398 -0.19108163 0.09269946 -0.23885284 -0.07524867 0.2265495 -0.102699265 -1.058478 -0.32928354 0.5504758 0.7798628 -0.6267989 -0.14005862 -0.04414359 0.22458024 -0.47447565 -0.3625064 1.138168 -0.26255974 -0.4974942 0.21766996 -0.118933305 0.37319985 -0.108780734 -0.25897726 -0.34250537 0.16796744 -0.30506372 0.008921387 0.064577915 0.61189693 0.027286552 0.54478073 0.029582458 0.64866596 -0.59474087 -0.024004254 0.8182772 -0.2194914 -0.2584625 0.36862633 -0.6682272
16008 -0.3020086 0.07354778 0.06921216 0.3035164 1.3851237 -0.5245609 0.35055947 -0.28028497 0.22634606 0.0096322885 0.11940999 0.24974382 -0.24944533 -0.53880805 0.00045234448 0.059528943 -0.1886816 0.6705722 0.54414064 -0.29027578 -0.6607714 -0.39203402 0.47093582 -0.09805711 -0.16059546 0.034876846 0.33986637 -0.50245106 -0.07975465 -0.12007595 0.16113403 -0.38301525 -0.22485106 1.0525155 0.18330994 0.3683372 0.30273762 0.46471766 0.51068896 0.25857458 -0.624863 -0.15651554 -0.073188044 -0.24585514 -0.13256718 -0.48336884 -0.008397928 0.0099591175 -0.023281174 0.3371923 -0.14238296 -0.49050075 0.51046354 0.19743823 0.18209651 -0.21177301 0.574574 -0.2935116 0.40263852 -0.11872822 -0.49071935 0.5071851 0.5030588 -0.08804837
101143 -0.10258635 -0.14693129 -0.044479832 0.14419335 0.25222903 0.2869203 -0.3027726 0.12706386 -0.12778485 -0.012275019 -0.17691565 0.06925421 0.22227828 0.39676163 0.7762662 0.21566597 0.21154988 0.4295311 0.35099792 -0.31319305 -0.20882443 0.11551177 0.113064975 0.061935272 0.20216987 0.013744926 -0.2333475 0.2475374 -0.1979318 -0.65473527 1.0354342 0.07725377 -0.10835584 -0.4612687 0.25072944 -0.015819736 0.029090581 -0.35775355 0.11525335 0.05338787 -0.13988344 -0.021271633 0.13762455 0.043686476 0.44598478 0.13783166 0.3324935 -0.13866366 0.37581775 0.019920882 0.29635176 -0.12031519 0.007050319 -0.15045434 0.031984072 0.2994108 0.008515423 0.42688498 -0.95575434 0.018408475 -0.26717234 1.4352862 -0.48451287 -0.38169885
1153254 -0.50537235 0.11275914 -0.17815931 0.20254427 0.02078701 -0.100340925 -0.056912173 0.024490671 -0.38112083 -0.1068628 -0.12797482 0.05400683 -0.16675961 0.33276442 -0.035582952 0.021164281 0.003920711 -0.26860857 -0.014667572 0.109487616 -0.3062255 0.3438358 0.19150792 0.17543834 0.17884266 0.04576611 0.20573413 0.13593642 -0.11467078 0.31457207 0.10761605 -0.043906055 -0.39810035 0.117539376 0.31268418 -0.059297338 -0.07488733 -0.2093282 0.22288287 0.18670698 0.12204582 -0.4373369 -0.0264158 0.06754103 0.24484842 -0.014118185 -0.107189484 -0.14935824 0.16046217 -0.17928725 -0.14901668 -0.026468229 -0.17233859 -0.067380674 -0.41022405 -0.043886084 0.082238406 -0.08060784 -0.13262036 0.005514828 0.6858118 -0.060965527 -0.41808444 -0.01578164
34266 -0.04489661 0.16214465 0.48790658 -0.30206198 -0.40306267 0.12738055 0.11512268 -0.026913699 0.35088187 0.14295207 -0.0014506342 0.13910043 -0.3839089 -0.14762716 -0.8465813 0.2683001 0.5016258 0.020049939 0.2775615 0.4044346 -0.2537514 0.0981542 0.24748307 -0.2513341 0.22797124 0.09628352 -0.21836446 0.6679778 -0.56931627 0.22719412 0.13135189 -0.045057934 0.0026125805 0.60207766 0.07455694 -0.14736915 0.23783743 0.052008584 0.19383538 0.08295335 0.3710776 -0.24683638 -0.061780557 -0.28423446 0.23993991 -0.16452973 0.39381555 -0.41301033 0.010622035 -0.24075697 0.218891 -0.23489918 -0.040152438 0.23808435 0.26495165 0.39608216 0.5868455 -0.7919758 0.019808726 -0.36064917 -0.04919659 -0.46994072 0.07457062 0.023832085
1107455 0.4550785 -0.33539295 -0.46475577 -0.3618575 -0.005886461 0.40151614 -0.0123321805 0.11548706 0.016254626 0.40004995 -0.09874046 -0.60796976 -0.27052957 0.02421651 0.11184909 -0.1312417 0.05928638 0.08186694 0.1028595 -0.10645185 0.24805939 -0.39063093 -0.16861036 -0.017698374 0.004155911 0.10543864 -0.29781452 -0.38209006 -0.1375956 0.1295476 -0.12460159 0.37271178 -0.13096511 -0.2634408 0.030519577 0.085566014 -0.09383663 0.36345562 0.43218255 0.32962227 0.26405928 0.048339516 -0.34173286 0.2650186 -0.37465766 0.16673343 0.39168105 0.008989293 0.48662892 -0.04148383 -0.33473498 0.1349193 0.117404394 0.39388114 0.25535786 0.20650099 -0.44691887 -0.19857854 0.56452495 0.07137346 0.4172059 0.5196042 0.16773683 -0.22400337
22874 0.22075233 -0.106017984 0.71328163 -0.14732984 0.114118166 -0.014614175 -0.3194386 -0.06419558 0.14693742 0.20392482 0.37568825 -0.18523748 -0.06446937 0.16396762 0.45375252 0.35038906 -0.4397648 -0.050526883 -0.15567216 -0.35946894 0.33239502 0.36199823 -0.09373243 -0.32790872 0.14119208 0.037795376 -0.06635524 0.69591534 0.32698938 -0.13055538 0.19942257 -0.12253615 0.17059703 0.07508678 0.3566717 0.17464037 0.49663633 -0.48492327 -0.027731728 -0.36548942 -0.087021686 0.12836535 0.43109858 -0.17621885 0.19316702 -0.5804514 0.46530628 -0.20861773 0.35410398 -0.097340055 0.4289361 0.059287023 -0.25344422 0.7932967 0.30566078 0.058415703 0.15753703 0.40232888 -0.38753855 0.058679126 0.0336901 0.3892994 -0.19820109 -0.49682343
59244 0.24365857 0.36921763 -0.0005200176 0.21130402 0.3463867 0.20545018 -0.2801625 -0.1850683 0.15655509 -0.19772412 -0.108400516 0.3858581 0.048000928 0.059153177 0.09872207 -0.17628343 -0.108365655 0.0041257646 -0.40366122 -0.8822642 0.053835668 -0.11441772 -0.0657355 -0.1595397 0.09981491 0.029301552 -0.26674718 -0.18151012 -0.2810474 -0.10791251 -0.1450929 -0.11453259 0.26853457 -0.012212198 0.4397878 -0.36225393 -0.4213515 -0.038567092 0.4116598 -0.14509536 -0.33279306 0.26163578 -0.025080267 0.15340008 -0.3943326 0.49247 -0.3563926 -0.34591156 -0.06493532 -0.27075267 0.34399506 -0.29179326 -0.3281919 0.18949358 0.21751666 0.536575 -0.14377242 0.120419085 0.5356907 -0.043764308 0.00036187732 0.17784394 -0.5270967 -0.27490535
91852 0.40662605 -0.27183595 0.34161526 -0.69686073 0.06632756 0.21525392 0.08451186 -0.15958785 0.11721475 -0.026781717 0.78958964 0.19471107 0.08355909 0.32799163 -0.38422215 0.2986234 -0.095474996 0.032439604 -0.14269704 0.09043923 0.2595118 0.117155515 -0.1656325 0.0033045153 -0.042484414 -0.15344627 0.55146044 0.2520753 -0.28022808 -0.34130272 0.08478576 0.7461115 -0.080400296 0.61865765 0.03607277 -0.49865532 -0.39434648 -0.3811726 -0.14752601 -0.17049676 -0.004373619 0.43918875 0.14720376 -0.43812746 -0.13989359 0.58656067 0.29296735 0.18330528 -0.045230992 -0.6028989 -0.4257583 0.14648528 0.38171208 0.4816999 0.15367804 -0.20376936 0.45193315 -0.12929177 0.3057554 -0.042108 0.011714078 -0.30835202 -0.6324132 0.16028582
1152508 -0.33360314 -0.11433965 0.026617883 0.109016396 -0.04775605 0.082141615 0.1667617 -0.13068795 0.019071296 -0.13395868 -0.13136084 0.013688614 0.124593996 0.08361747 0.06515108 -0.052701768 0.28719363 0.18685406 -0.02659438 0.018994194 0.28725597 0.17694588 0.075044185 -0.03454679 -0.23727678 -0.006963243 -0.12671907 -0.11995322 -0.0050135814 -0.030635856 -0.11529442 -0.05573312 0.04182779 0.008579251 -0.24512543 0.18109798 -0.030550243 -0.110026784 0.005329965 -0.10209845 -0.021445623 0.23391314 -0.05473859 0.13725218 -0.042437095 0.029070493 0.16746634 0.111173905 0.27554497 0.049988925 0.078329176 -0.055952847 0.006749712 -0.123667344 -0.008633537 -0.13693087 0.23880793 0.02598673 -0.16724949 -0.05247766 -0.009394871 -0.17159492 0.16941275 0.0802259
409725 0.0077165263 -0.52154833 -0.23895231 -0.25629902 0.4035445 -0.38885504 0.24926226 0.11873666 -0.6382548 -0.10150045 -0.054001413 0.15856586 -0.25448343 0.16970347 -0.20713738 -0.2226184 -0.21720368 0.19230415 -0.093231186 -0.38201192 -0.011677608 -0.25190547 -0.21940027 -0.10462303 0.036670506 -0.2875155 0.10190329 0.10332983 0.21890904 0.52238566 0.29586935 0.27488694 -0.050262284 -0.27321315 -0.34449157 0.23461848 -0.21267983 -0.5207723 0.10956748 -0.4098786 -0.23013653 0.083717115 0.09233689 -0.24800423 -0.29109737 -0.42717794 0.14937295 -0.021203341 -0.61149275 -0.043940824 0.09248619 0.46751466 -0.041703623 -0.28159055 0.20497409 -0.25455114 0.094029754 -0.09251236 0.34641948 0.4171152 0.62206775 0.20917633 0.17345779 0.051527336
1102761 -0.33772817 0.019823201 -0.32045442 0.44409442 -0.44800943 0.5949786 -0.03535284 -0.15863214 -0.017665274 0.47904104 0.50342345 -0.0074387286 0.067375116 -0.19318609 0.1436082 0.013750563 0.058886748 0.18860793 -0.42545155 -0.13231432 -0.2685383 0.06978674 0.24138424 -0.04253042 0.22794582 0.03966817 0.36115262 0.35512772 0.40684605 -0.009092036 -0.11060351 0.37789983 0.049532056 -0.1735415 0.24341471 0.5601177 -0.083524026 -0.7563582 0.17618737 0.62456864 -0.31007713 -0.5072665 -0.27799338 -0.01738268 0.6322464 0.1141741 -0.15653631 0.4598543 -0.03566145 0.1510591 0.14361288 -0.1385179 0.14211349 -0.1968321 0.12960364 0.38289237 0.23308033 -0.2738148 0.50260055 0.6130482 -0.34332633 -0.013102803 0.16498248 -0.004966653
119956 -0.05129963 0.50342524 0.020223401 -0.35240442 0.2519428 0.074936554 0.061388467 -0.16997336 -0.041522678 -0.16879828 -0.12207752 0.34839395 0.008736267 0.16394538 0.13729145 0.32940996 -0.28806996 -0.38163236 -0.26064292 0.45082435 -0.02968861 -0.59246063 0.3522564 -0.167515 -0.24020372 0.14138508 -0.2595011 -0.06722021 0.4442259 0.12853047 0.3662986 0.01493033 -0.3486342 -0.116810955 -0.37030712 -0.07716876 -0.27310288 0.73071235 -0.18525831 0.19974405 0.090143256 -0.35310832 0.54042053 -0.04845635 0.2767712 -0.10746647 -0.121668324 0.0954275 0.4266331 -0.19139473 0.117974095 0.15689576 -0.72008175 -0.29425186 0.40389764 -0.26603794 -0.095288895 0.22864272 0.1275797 -0.17405866 -0.13524063 -0.16872904 -0.39954767 -0.12592266
36802 0.31154978 0.40284628 -0.15823577 -0.18002672 -0.18426345 0.32809246 0.54467803 -0.16613717 0.23747209 -0.16181174 0.057506017 0.013330437 0.07682119 -0.11647812 -0.49700683 -0.66638213 -0.15890159 0.5334999 0.3830133 -0.5985081 0.37463245 -0.049506463 0.504729 -0.44448516 0.17511418 0.18900052 0.16320892 0.68525237 0.1049352 -0.12876824 0.70253396 -0.15476577 0.013489893 -0.21705152 0.19081368 -0.5712631 0.2585568 0.92183584 0.67615724 0.65679604 -0.088651 0.2920953 -0.04164863 0.1227036 -0.13453528 -0.20663278 -0.427741 -0.040777415 -0.07868003 -0.23669927 -0.3982503 -0.46276277 0.43214372 0.11126229 -0.06154022 0.0486335 0.24478383 0.13178104 -0.34126034 0.15857722 0.40911368 -0.2801032 0.19330311 -0.05706184
1153262 0.079081744 -0.126646 -0.39558676 -0.27844512 -0.8436196 0.1360281 -0.085792 -0.08496482 0.19618285 -0.13606729 -0.09845649 0.7455731 0.11320594 -0.4764757 -0.8764903 -0.35881627 0.43734688 -0.22686073 -0.19193034 -0.7043081 -0.14477915 -0.10540626 0.6680283 -0.34347472 0.6855621 -0.078686036 0.1267936 0.35676026 0.42510265 -0.19522835 0.09681166 0.011989451 -0.42496088 0.21118556 -0.10174514 -0.4995957 0.51575464 0.2273075 0.56308526 0.15788667 0.041082155 0.043820202 0.048505895 0.5092208 -0.21010233 0.07701759 -0.2007941 0.17802203 0.05960314 0.22116344 -0.0055457815 -0.08543428 -0.23914272 0.2992707 -0.09913877 -0.3831004 0.044388432 -0.47595653 -0.36531594 0.41644663 -0.23253484 0.037654538 -0.3160115 0.17926534
12165 0.09042397 0.53893423 -0.39031136 -0.17216894 -0.61366016 0.1978164 0.19035117 0.29633415 -0.15476708 -0.6041447 -0.2683564 -0.20759282 -0.23581818 0.37497458 0.09005104 -0.26919577 0.44447637 -0.18833879 0.118281424 0.13843115 -0.671428 -0.19794372 -0.55379236 0.88840365 -0.077776134 -0.18457605 0.29686552 0.2475321 -0.21126057 0.39608935 0.30424774 0.1956982 -0.02122233 -0.3445641 -0.23359318 -0.06697668 0.13459429 -0.43941417 0.29443842 0.046363182 -0.25274447 0.03853026 0.100894384 -0.071024954 -0.3804533 0.21579458 0.31549022 -0.6970632 -0.4004749 0.13303459 0.10507417 -0.4387027 0.027295595 0.32169533 0.34783062 -0.2270671 -0.48131442 0.41244453 -0.33710542 -0.48435855 -0.8176265 0.059875228 -0.31353465 0.40971842
10186 -0.35679805 0.00094470754 0.25752547 0.5158274 -0.541897 -0.4619942 0.9411327 -0.19944681 -0.13483936 0.67655456 -0.40024427 -0.1030203 -0.5129224 0.3203552 -0.5248652 -0.30114922 -0.10701827 0.40035897 -0.5794955 -0.38528788 -0.090594724 -0.1867428 0.34184897 -0.13340679 -0.11441688 0.10175318 -0.418663 0.13687328 0.14664875 -0.36590686 0.2670659 -0.2962692 -0.21098584 -0.49819237 -0.10259748 0.3803226 -0.15728986 0.32373545 -0.36962956 0.102295056 0.44506052 -0.1937382 0.112982094 -0.17362115 -0.5483619 0.49598372 -0.074799314 -0.88377094 -0.91279614 0.32836902 0.41521928 0.33470643 -0.25418514 0.34440368 -0.17049415 -0.1608688 -0.29853863 0.36309636 0.603476 0.05990905 -0.0610186 -0.045656182 0.14302686 -0.20217475
189571 -0.34335387 0.110115804 -0.08528756 -0.0015808936 1.334576 -0.4327412 0.10420563 -0.038202956 0.15731883 0.14869164 -0.09240502 -0.007324899 -0.0954189 -0.14693372 -0.2563747 0.03886741 -0.13322826 0.22504182 0.28174704 -0.2539373 -0.7519459 -0.14007862 0.3599673 -0.33212954 0.04249322 -0.094033435 0.124883 -0.47486556 -0.011288554 -0.28722042 0.06628042 -0.58762777 0.020674286 0.7391675 0.02232347 0.27751997 0.23854661 0.047811218 0.09129257 0.35044742 -0.11090905 0.031576734 -0.07104682 -0.23703702 -0.01683042 -0.01912065 -0.05688549 0.062650785 0.17570888 0.36063287 -0.04503922 -0.34441015 0.3802434 0.21935736 0.098262034 -0.014698388 0.1490557 -0.3202505 0.35248998 -0.20485407 -0.6354789 0.36604905 0.3864857 0.16056687
48555 -0.080364496 0.09658212 0.37547892 0.073630214 -0.018980348 -0.45670357 -0.12971826 -0.09669393 -0.17053606 -0.5975369 -0.23271295 0.69349396 0.0047260593 0.3620255 0.39089906 -0.16100945 0.024505012 -0.4285644 0.10449257 0.14021412 0.06442698 -0.51099104 0.19838035 -0.036714133 0.19467661 0.053208493 -0.42372924 0.061385676 -0.040106833 0.47215918 -0.18391466 0.23965698 -0.41376138 0.1592496 0.4205689 -0.21240087 -0.13608176 0.006392682 -0.3841156 -0.19445479 0.29522488 -0.15076666 -0.36911657 -0.61311316 -0.34662876 -0.116382696 0.0009828872 0.018373277 -0.08926855 0.5224154 -0.15983415 0.25773004 0.009956627 0.106764264 0.5965027 -0.16909477 0.0768815 0.19732192 0.42445093 -0.08788622 -0.31552604 0.19206081 -0.13665773 -0.1850392
1118120 0.049690887 -0.32581258 -0.0557466 0.14431605 -0.38845828 -0.061295573 -0.35515606 0.024178648 -0.37291723 -0.08071537 -0.07659183 -0.085302986 0.2825965 0.07631257 -0.49921516 0.3812022 -0.16256444 -0.17452754 0.19889393 -0.11462735 0.19339316 -0.03375243 -0.45157942 -0.022088977 -0.37141386 -0.17825752 -0.17194879 -0.26336765 -0.11157429 -0.2394093 -0.0331201 0.1466751 -0.15397824 -0.013044233 0.7463756 -0.15419903 0.19592482 0.428283 -0.06497291 -0.3184058 -0.33705485 -0.09170562 -0.20644306 -0.27962822 0.2956923 -0.36762908 0.23506913 -0.028549455 0.03458181 0.22231667 0.16285002 -0.17385481 0.2977584 -0.15394317 0.31249222 -0.045937635 -0.28053808 -0.2466561 0.08839757 0.105060264 0.03428434 -0.25610825 -0.19103889 0.35557964
1133338 -0.41435248 -0.14754158 0.058607318 0.091735974 -0.072370894 0.18140036 0.33888003 -0.22203685 0.17418495 -0.2053554 0.04823385 0.091260776 0.19880809 0.11376035 0.1484518 -0.13730745 0.2619046 0.17179681 0.080075584 -0.15080464 0.3845162 0.27609015 0.045559946 -0.19363566 -0.22920036 -0.021355052 -0.058967996 -0.18244186 -0.010031447 0.10007697 -0.12784508 -0.23573104 -0.00992652 -0.0030480835 -0.3032832 0.26320586 0.111089334 -0.15249078 -0.06356893 -0.24550372 0.08572643 0.3612177 -0.06899089 0.18360732 0.05038824 0.17687808 0.30612826 0.12118553 0.2600059 0.03644222 -0.10985549 -0.106083654 0.10309884 -0.20285943 -0.10041774 -0.22048032 0.035438452 -0.14767686 -0.33455837 -0.10630613 -0.10091434 -0.14691982 0.104876354 0.055345193
156977 0.3404655 0.115304664 -0.27118304 -0.16714066 0.47961512 0.34811994 -0.05701203 0.2922243 -0.007460525 -0.19232891 0.15822625 0.25966263 0.10641342 -0.48298165 -0.29465976 0.40306637 -0.3470615 -0.25148892 -0.069344066 -0.050796453 -0.06408072 -0.31439573 0.30329603 0.536818 -0.19482376 0.71125644 -0.27458203 0.021440685 -0.3298208 0.26075706 0.6068244 -0.3265848 0.04117092 -0.48612812 -0.7462608 0.007885524 -0.06495427 0.27128428 -0.28888765 0.09989632 0.28558412 -0.11745916 0.6150245 -0.17216754 0.6840897 0.4444278 -0.4068227 0.21996158 0.44062594 -0.18185583 0.1445501 0.18486224 -0.2199234 -0.2624147 0.2691978 -0.19146009 0.2102864 0.49826837 0.069924176 -0.0039755036 0.21693322 -0.25136665 -0.36020958 -0.3521779
1153064 0.06700968 0.31518832 -0.050066177 0.2871952 0.11236605 -0.41898128 0.27022356 -0.027749503 0.046931095 -0.12498348 -0.11727219 -0.13388829 0.032790914 0.0744969 -0.4077228 -0.062004093 -0.41368404 -0.2836345 -0.3727265 0.0147820925 -0.5354548 0.18310963 -0.34387836 0.16158257 -0.19338419 0.26932997 -0.055870682 0.2305218 -0.015725503 0.16873129 0.2070329 -0.15295312 0.008624604 -0.4054865 0.20911543 0.26363376 -0.21257517 -0.3286416 0.1288218 0.35539058 -0.088830575 0.07028661 -0.16040443 0.29771662 -0.05385562 -0.24490407 0.41629457 -0.25005975 0.054752383 0.18693505 -0.6206216 -0.16271964 -0.35877532 -0.17517576 -0.31442893 -0.16751178 -0.016902111 -0.3123854 -0.33859506 -0.16780367 0.10468844 -0.12172023 -0.48008823 0.40886745
1104449 -0.09212642 -0.033173565 0.030632703 -0.24298392 0.27263716 0.08980726 -0.13661884 -0.29051006 -0.12843616 0.24025984 -0.15760899 0.06145964 -0.089478865 -0.2784394 0.12933666 0.6040467 -0.15766853 -0.80360514 0.24430345 0.25662878 0.05270023 -0.34636378 0.30205363 0.1670732 -0.07992479 0.114433676 0.052689318 0.28118578 -0.10969447 -0.114064634 0.48323917 -0.168803 0.3212482 -0.5383268 -0.27081165 -0.5379164 -0.2530841 0.31544274 -0.54884756 0.2786355 0.26053673 -0.3885289 0.8140612 -0.32383865 0.0006055274 -0.039627686 0.16531669 0.30046502 0.16966364 -0.0775513 0.10899233 0.63176244 -0.03278453 0.29270273 -0.087198816 -0.14790484 0.2908146 0.54197437 -0.22304602 -0.033627987 0.17803563 -0.39263877 -0.33584243 0.35067967
12211 0.095962726 0.46472248 -0.36118093 -0.2492627 -0.63156784 0.058883082 0.051799744 0.28920788 -0.01263361 -0.49490595 -0.5199694 0.017903682 0.011943994 0.08552642 0.058678865 0.014216998 0.3243306 -0.17231682 -0.046954934 -0.13720034 -0.87464476 0.086795636 -0.68758416 0.37431237 0.164847 0.06312941 0.11870689 0.2612166 -0.39568013 0.038094196 0.11006978 0.31390822 -0.13136104 -0.15488955 -0.17375892 0.03551875 0.19349927 -0.15816207 0.29049152 0.15648706 0.056200683 -0.07900232 0.3078373 0.040889625 -0.42705157 0.15041374 0.33559585 -0.2208301 -0.36673963 0.1952522 0.010310011 -0.26852357 -0.023119258 0.07182717 -0.054249752 -0.43138844 -0.1709936 0.02745489 -0.24336499 -0.6506111 -0.64741075 0.097151846 -0.29726478 0.2137823
642798 -0.13528246 -0.42520565 0.49869487 -0.16945675 0.032241307 -0.42969438 -0.4293175 -0.39276594 0.16511671 -0.20456557 0.10260315 -0.6584026 0.024357045 -0.5247757 -0.23241107 -0.024433054 -0.033756237 0.31416765 -0.07537822 -0.13392204 0.2243154 0.08227782 0.059345566 -0.2401396 -0.15448871 0.019166438 0.28290847 0.14934944 0.3528734 0.0682562 -0.2457023 0.09122315 -0.8638767 -0.6905984 0.09862738 -0.2960398 0.4980743 -0.484395 0.16922878 0.45486733 0.42347544 -0.09064643 0.30963174 -0.1350876 -0.07289678 0.61708885 -0.78300774 -0.27012712 -0.34283456 0.124828905 -0.29450887 0.18767375 -0.07786092 -0.6196029 0.09504998 -0.013427407 0.108145826 -0.048727125 -0.07662216 -0.22584839 -0.40258875 0.071904495 0.07908466 -0.11850366
1128959 -0.037949592 -0.086995654 -0.08992364 -0.12755103 -0.10034514 -0.12341542 0.036634937 -0.008231666 -0.054782305 -0.009631902 -0.26127523 -0.05539072 -0.21088593 -0.07634442 0.21203606 0.009843566 0.47603205 0.24614666 0.22176576 -0.43779483 0.20666002 -0.21697661 -0.26386735 -0.10867922 -0.34161514 -0.443029 -0.08203771 -0.088946365 0.006338761 -0.108227484 0.1570761 0.39126098 -0.13248754 0.34887952 -0.5274512 0.67341906 -0.10337781 0.012094744 -0.5394661 0.057301335 -0.13533261 0.34131306 -0.31031835 -0.018792536 -0.589183 0.09221262 0.21477598 0.11534869 0.51234925 -0.05094543 -0.02270015 -0.087569766 0.017322397 -0.093375295 -0.009213843 0.02048197 0.48363087 -0.06414864 -0.19862008 -0.2799941 0.27729157 -0.41295987 0.11048023 -0.38172653
1105062 0.054594245 -0.28796554 0.070009224 0.06549512 -0.21170083 0.022389397 -0.18862964 0.06915879 -0.2615786 -0.07088518 -0.044257957 -0.20443888 0.26183474 0.056696855 -0.32615873 0.21308285 -0.020343987 -0.0035503833 0.05742693 -0.12640396 -0.035912048 0.024058849 -0.24540941 -0.0626866 -0.20199355 -0.035794444 -0.108523466 -0.18028647 -0.03814794 -0.24475373 0.07362564 0.08934604 -0.04842522 0.06328283 0.5531454 -0.0028938348 0.19012807 0.28398985 -0.0741906 -0.28022948 -0.20820744 0.0022613194 -0.090514824 -0.2226202 0.16429771 -0.28746247 0.069829695 -0.032933634 0.048109207 0.10507612 0.102580495 -0.21422264 0.20816214 -0.17334054 0.20045903 -0.046438254 -0.13821034 -0.046509754 -0.018061396 0.10212961 -0.002998064 -0.1778669 -0.11348237 0.23339443
16470 0.2010842 0.13812265 0.09195413 -0.58119917 -0.008417168 0.040723965 0.10293319 -0.52574956 -0.09910108 0.060693346 0.11629026 -0.09925099 -0.05646721 0.071062624 0.1112368 -0.09437309 -0.45322856 -0.1400031 -0.18237314 -0.014757405 -0.5191836 0.70761275 -0.2501579 -0.24835677 0.11882542 -0.1498479 -0.1775118 -0.5940685 -0.2556314 -0.026010841 0.118326016 -0.071984276 -0.04575886 -0.010059018 -0.11410379 0.08048894 0.42925736 -0.13657947 0.06286572 -0.37526447 -0.07668673 0.2524533 -0.096223794 -0.21724045 0.5879259 0.19725151 -0.3243548 -0.6780418 0.12328 0.41712862 0.04882534 -0.3658892 -0.57295954 0.39743888 -0.21289147 0.537493 -0.085910685 -0.034604568 -0.30918247 -0.37104046 0.014582128 -0.08685048 0.16072994 -0.18628712
1128856 -0.29540274 0.3862975 0.17120783 0.47070798 -0.021457147 -0.058112297 -0.3446851 -0.12839237 -0.4813047 -0.01372224 -0.22268175 0.28436902 -0.45395443 0.29378882 0.0033862342 -0.1875796 -0.034291513 0.22069576 0.23084582 0.24655183 0.23738249 0.5808432 0.13730885 0.22840565 -0.06530054 -0.06008948 0.23269348 -0.10076982 -0.1346574 0.11578189 0.4637819 -0.29629785 -0.18679757 0.22156909 0.007357625 -0.013398184 0.124156766 -0.28460512 -0.12099787 0.3697309 0.44933045 -0.25068787 0.1420387 -0.034507625 0.034974907 -0.5113055 -0.17894314 -0.33602577 -0.29531434 -0.4550294 -0.055479985 0.27931383 0.08211649 -0.5360382 -0.21022908 0.105904944 -0.40403765 -0.5198249 -0.062456515 -0.23692358 0.7144064 -0.34381375 -0.3426707 -0.2619078
1130780 -0.16447607 -0.1506125 -0.16853687 -0.037192885 -0.15529212 -0.23248181 -0.09137632 -0.26861018 0.08358016 0.054502312 -0.44628915 0.3497954 0.511543 0.20203827 0.29048958 -0.33034512 0.016986517 -0.003701806 0.35523707 0.4114701 -0.096724674 0.16734181 0.36411715 -0.50696117 0.019274896 -0.055597566 0.1805745 -0.23027343 0.5647353 -0.0775836 0.10349716 0.21046005 0.16530229 -0.6299978 0.08622268 0.1526723 -0.15170963 0.38300848 0.21013373 0.1164326 0.48531324 -0.3018645 -0.20509079 -0.43515712 -0.08205182 0.06632299 0.02257818 -0.029795127 -0.21022893 0.116272405 -0.53189504 -0.33370534 -0.5726711 0.47269854 0.32120776 0.25974825 0.052905243 0.24166998 0.26610044 -0.34056187 0.25838077 -0.29242167 -0.39408642 -0.012302245
64519 -0.5753051 0.019293677 -0.09085788 0.6067792 -0.5408436 -0.41415596 -0.15294355 0.32089916 -0.07621874 0.14018449 -0.1924629 0.078302905 -0.3738327 -0.12909 0.2377227 -0.12130279 0.22840852 0.26174635 0.061444115 0.18140979 -0.32145792 -0.008658914 0.27013013 0.2819036 -0.088163316 0.71070254 0.06667659 -0.7282679 -0.11808377 -0.5794722 0.04455952 0.07727123 -0.22661509 0.1924181 0.07457302 -0.23858024 -0.2787156 -0.034786794 -0.19602352 0.6235815 0.37081224 -0.52413696 0.2579433 -0.16370173 0.22151944 0.46950722 0.21605435 -0.7491593 0.05632881 -0.32176045 0.33349863 -0.15704112 -0.48618758 0.35547125 -0.23396342 0.22232921 -0.11353035 0.27058858 0.5251713 0.0960135 0.25456893 0.26184866 0.24797317 0.24639891
642847 0.08760635 -0.104381 0.47401142 0.21314754 -0.022200178 -0.38453892 -0.016490974 -0.30974948 -0.30283096 -0.23339815 0.19192512 -0.2675236 0.30709296 0.2102053 -0.33407816 0.2208674 -0.20098528 0.30704272 -0.46060556 0.35747504 -0.18971606 -0.10893464 0.11045611 0.20063128 0.21181445 0.14349091 0.7945532 0.2555154 -0.13205467 -0.013110863 -0.43094888 0.16689087 -0.65508485 -0.77033204 -0.10940799 -0.43988845 0.077556856 -0.014535049 -0.0710168 0.23388352 0.33420467 0.0054666796 0.049974933 -0.10971075 0.18086235 0.26468316 -0.56554985 -0.12548572 -0.056723733 0.1911975 -0.303518 -0.14205217 0.5896517 -0.008565067 0.087419495 -0.04249139 0.122551404 -0.17484379 0.018327381 0.041129682 -0.5321121 -0.3391531 0.34435546 0.072556295
199571 -0.15222795 0.07586463 0.013584134 0.28806117 -0.40829378 0.22738495 0.24759258 -0.1368641 0.084496774 0.2909755 0.1854404 -0.12983726 0.29147473 -0.09804075 0.11767276 -0.33297256 0.212596 0.3968386 -0.22303657 0.26370075 -0.122771844 0.060099125 0.18535359 -0.00020758076 -0.29609862 0.11611201 -0.086528175 0.4131459 0.33901528 -0.32104602 -0.390023 0.42985356 0.06353375 -0.14050023 -0.18233734 0.49537778 0.1594423 -0.57498986 -0.05949024 0.25332764 -0.16614784 -0.36697224 -0.24919893 0.08736762 0.47080803 0.20787655 -0.094446786 0.41181135 0.3478454 0.20990032 0.23520657 -0.13437499 0.3837717 -0.26727945 0.38151678 0.24383235 0.37262568 -0.13046025 0.14359443 0.6218648 -0.19927913 0.057171658 0.18725298 -0.29591504
85452 -0.29988733 -0.37926984 -0.3243476 -0.030546188 -0.11993247 0.10114633 -0.572735 0.057654038 -0.57306325 0.094166934 0.2707328 0.25379634 0.1854175 0.2575067 0.35885268 -0.2566319 0.12001256 -0.14120905 0.018045867 0.19424291 0.2186849 -0.09052368 0.16306782 -0.07756298 0.13019462 -0.32704717 0.17556953 0.4960587 0.06491966 -0.47060546 -0.65244085 -0.73773265 -0.061438836 0.75981647 0.06512451 0.43228176 -0.10285853 -0.16717535 0.40601537 0.34067276 -0.23646824 -0.2940062 0.56938124 0.21660656 0.6230433 -0.15401132 -0.6299709 0.5596324 -0.16989651 -0.7103311 -0.45558423 0.14217892 0.22608669 -0.21186805 0.14691915 0.5511863 -0.03792145 -0.38244382 0.21285482 -0.085390896 0.107877806 0.2334572 -0.25818098 -0.30216363
